namespace weights{
	const ap_fixed<32,24> layer3_weights[n_layer2][n_layer3] ={{-0.027269244, -0.34495872, 0.292291, 0.2607858, -0.3190702}, 
{0.118662044, -0.3580764, 0.2967228, 0.026281716, 0.21420749}, 
{0.07447408, -0.09669663, 0.21389756, -0.29555357, 0.18117084}, 
{0.36361805, -0.35258573, -0.18537219, 0.03869544, -0.24409363}, 
{0.3148082, 0.22552021, -0.166884, -0.33399668, 0.24040522}, 
{-0.20638423, -0.23057167, -0.16688116, -0.11677301, 0.11758393}, 
{0.23096266, 0.18755098, -0.42004722, 0.33688128, 0.24943236}, 
{0.26168162, -0.22279213, 0.23627758, -0.2515197, 0.10081558}, 
{-0.35173094, 0.30246153, -0.050446127, -0.18942414, -0.34961054}, 
{-0.013123953, -0.18110316, -0.34453008, 0.23141034, -0.14396225}, 
{-0.26680055, 0.24710365, 0.1413517, 0.07079963, 0.19343968}, 
{-0.116287485, 0.23823655, -0.2163462, -0.24763504, 0.2939586}, 
{0.36643565, 0.24363187, -0.21028334, -0.09941474, -0.22540396}, 
{-0.07316434, 0.047228828, -0.3576964, -0.40068218, 0.11238951}, 
{-0.33170444, 0.12830998, -0.39194778, 0.05154342, -0.00094752904}, 
{-0.3486166, 0.03827816, 0.11644629, -0.10813378, -0.016447652}, 
{-0.3535747, -0.14261068, 0.11544136, -0.047168512, 0.23828231}, 
{-0.28803307, 0.2726461, 0.06790559, -0.08896195, -0.35609627}, 
{0.17149824, -0.3466069, 0.26902828, 0.19866975, -0.08081014}, 
{-0.19129695, -0.20129703, 0.17287232, 0.05871342, 0.23180093}, 
{0.19861606, 0.024625301, 0.22936177, 0.0041846633, 0.06532112}, 
{0.3722214, -0.07626386, 0.006906076, -0.1320918, -0.2875509}, 
{-0.25142723, 0.21808413, -0.41786736, 0.043547757, -0.36787397}, 
{0.08069721, -0.065455124, -0.2731038, 0.011854321, 0.26991683}, 
{-0.3900837, 0.27451587, 0.29658633, -0.33072034, 0.11383889}, 
{-0.28065196, 0.19200131, 0.18626289, 0.21274306, -0.14544585}, 
{0.15946901, -0.06044436, -0.0078109847, -0.14565793, -0.01281203}, 
{-0.01222275, 0.3255958, -0.23341864, 0.35033396, -0.10792729}, 
{-0.28825596, -0.07570712, -0.25721484, -0.018162161, 0.28457737}, 
{-0.28383744, -0.26513553, -0.3372464, 0.062307045, 0.33681175}, 
{0.07331885, -0.11222817, 0.2047288, -0.17602111, -0.36371836}, 
{0.23689048, -0.16598548, 0.1678184, 0.17950794, -0.24582943}, 
{0.02375254, 0.2320717, -0.037920356, -0.27114332, 0.18124133}, 
{0.26220158, -0.37902457, 0.008004854, 0.044505533, 0.1657369}, 
{-0.17091931, -0.08016001, 0.21692073, -0.2595823, -0.13669775}, 
{0.058380578, -0.37076256, -0.41637546, 0.32510072, -0.24577533}, 
{0.040494043, 0.2802548, 0.009727404, -0.2679802, -0.25269976}, 
{-0.07244175, -0.04077672, 0.2979104, -0.28089374, 0.093705386}, 
{-0.3258467, -0.047279656, -0.08008529, -0.066179484, 0.36633158}, 
{-0.19669722, -0.4130189, -0.17359683, 0.26576638, 0.3796599}, 
{-0.2473239, -0.11034637, -0.16907798, -0.10031819, 0.39838576}, 
{0.31562307, -0.28780758, -0.20058608, 0.1456593, -0.33921918}, 
{0.07663438, 0.011866987, -0.068684205, -0.25634837, -0.18336582}, 
{0.07404093, -0.30084184, 0.38231856, -0.06735482, 0.1867495}, 
{-0.32858345, 0.33925825, 0.21727467, 0.26620078, -0.38606352}, 
{-0.15773304, 0.083797336, 0.12619239, -0.114108995, -0.049907}, 
{-0.061698973, -0.20578003, -0.2566424, 0.240201, -0.04562545}, 
{0.01670645, 0.20814213, -0.3140748, 0.28729168, -0.23932041}, 
{0.37428567, -0.04013805, 0.16847396, 0.20219557, -0.3598356}, 
{-0.10348157, 0.32754618, 0.09478065, 0.12179202, 0.0062881936}, 
{0.008148861, -0.14676563, 0.040637005, -0.28916216, 0.19687171}, 
{0.24986446, 0.17151451, 0.018285751, -0.2679385, -0.21463609}, 
{-0.004040595, 0.0034581046, -0.2421821, -0.048210617, 0.17829591}, 
{-0.38909656, 0.34488717, 0.087449804, -0.31884927, -0.057468485}, 
{-0.2226565, -0.13836245, -0.050251007, -0.10254903, 0.06754503}, 
{0.27829897, 0.22980537, 0.27889028, -0.17618804, 0.11178043}, 
{0.17339425, -0.08577634, 0.22812182, -0.15479466, -0.12160201}, 
{0.22511423, 0.086182535, -0.016367085, 0.16820313, 0.13732478}, 
{-0.08993072, -0.22535206, -0.38288978, -0.3657692, 0.26195034}, 
{0.27068055, 0.051093176, -0.24400602, -0.013324716, -0.279779}, 
{-0.13180788, 0.10773265, -0.09479444, 0.3511386, -0.28742543}, 
{0.2656916, 0.3214714, -0.38570422, 0.03413111, 0.3439395}, 
{-0.019413505, 0.24614878, -0.07073933, 0.4004249, 0.16255015}, 
{-0.08271083, -0.08538632, 0.2554943, 0.28665066, 0.1941148}};
	const ap_fixed<32,24> layer2_weights[n_layer1][n_layer2] ={{0.022829067, -0.12743661, 0.05849362, -0.19663356, -0.05268611, -0.005825028, 0.12219755, 0.0726515, 0.19225419, 0.09088556, 0.0052486714, -0.0632668, 0.11370389, 0.13333412, 0.04371685, -0.030707743, 0.14813258, -0.03931493, 0.07399687, 0.09799617, -0.023828402, -0.027048161, 0.027728636, 0.026567146, -0.02171673, -0.13596283, -0.16264361, 0.1925568, -0.12558614, 0.16465558, 0.08628309, 0.1690408, -0.17337245, -0.034740195, 0.0017107874, 0.08114457, -0.07759683, 0.06640855, -0.034017485, -0.06553912, -0.039869964, 0.04147797, 0.089047894, -0.068699785, 0.18844792, 0.02187699, -0.028632, 0.13913998, 0.04724735, 0.1621319, 0.13026904, -0.037905186, -0.15092914, 0.16195776, -0.12272091, -0.026881201, 0.06826986, 0.00978182, 0.034050018, 0.029802114, -0.10582597, 0.05736606, 0.20431963, -0.15522099}, 
{-0.09911628, 0.110732034, 0.15545495, 0.16054048, -0.15767342, 0.16255735, 0.092162475, 0.019433618, 0.12080769, -0.064949855, -0.046667933, 0.08227794, -0.13319117, -0.058919437, -0.10466251, -0.01130189, 0.068247795, 0.088958934, 0.15581109, -0.16927949, -0.12347644, 0.1403886, -0.038626835, 0.10069804, -0.005754262, 0.026168004, -0.06469225, -0.10759045, 0.0055659562, 0.043559402, 0.016411439, 0.08774008, 0.053796783, 0.0034124255, 0.093760565, -0.0982505, -0.099477224, -0.082678415, 0.09101491, -0.17109442, -0.13138513, -0.026603594, -0.02265343, 0.036313727, 0.13789062, -0.10290322, -0.15660849, 0.16786234, 0.115919545, 0.017050296, -0.07281681, 0.17209212, 0.06142199, -0.013366327, -0.09622189, -0.016618758, -0.050463393, 0.06815912, 0.1315677, -0.1175782, -0.01468274, -0.1480982, -0.107475765, 0.007877246}, 
{0.038309377, 0.026245419, -0.24225365, 0.13887046, -0.13258983, -0.08401123, 0.23397742, -0.16128212, -0.085848935, 0.29164964, -0.03051706, -0.0546138, 0.0988433, -0.24068725, 0.010303403, -0.26520464, 0.07012769, -0.018780425, 0.1349562, 0.14486994, -0.09819103, 0.19486582, -0.069343805, -0.13882291, -0.114159785, -0.02602913, 0.12081356, 0.021441035, -0.16375285, 0.059697766, 0.06170182, -0.019852098, -0.006826237, 0.17163974, -0.12584753, 0.119502105, -0.27795777, -0.26594472, -0.0972576, 0.1386484, -0.20181537, -0.03853366, -0.023809731, 0.12718593, -0.05737068, -0.1707376, 0.14853425, -0.08519756, 0.14644179, -0.22588462, -0.043117624, -0.09884629, -0.09579878, -0.19348197, 0.011955455, -0.0068428707, 0.014394978, -0.06982468, -0.08920728, 0.03492878, 0.23242702, -0.17362101, 0.09513988, 0.03741215}, 
{0.11252873, -0.076790124, 0.114265576, 0.100226805, 0.10895188, 0.056652278, 0.06873228, 0.08419232, 0.11045496, 0.16230892, 0.103532776, -0.010726452, 0.029326454, -0.11080815, 0.17559476, 0.035291836, -0.06252489, 0.11734386, -0.1349935, -0.005603671, -0.047184154, 0.13216199, 0.10267766, -0.030375361, -0.081368744, 0.107404456, -0.16789328, -0.030537575, 0.121458456, 0.098906204, -0.14804211, 0.10233019, 0.017868489, -0.024073392, -0.046609566, -0.010570809, -0.04799497, -0.1444139, 0.022685587, 0.011861727, 0.115085885, -0.12983581, 0.13112031, -0.032818273, -0.1343598, -0.065349445, -0.016506344, -0.1705788, 0.13252111, 0.15140016, -0.14436299, -0.07661517, -0.11958569, 0.07432644, 0.11600815, 0.14567785, 0.10030936, -0.012165725, 0.050832853, -0.10570902, 0.021512896, -0.06656534, -0.15209469, -0.047199786}, 
{0.064024866, 0.09553699, -0.02751172, 0.1597092, 0.16258971, 0.16313232, 0.14439611, 0.020196436, -0.14947078, 0.17835042, -0.09681703, 0.13092332, 0.043319397, -0.13366584, 0.0120025985, 0.031989872, -0.09961649, -0.17729972, 0.06659669, 0.05122008, -0.15899557, 0.062442277, -0.25162727, -0.07792295, -0.1688731, 0.028485913, -0.15792155, -0.18741955, -0.017956704, 0.052011218, 0.11055281, -0.13552415, 0.02181457, 0.1706719, 0.12673701, 0.24014147, -0.17230046, 0.07319248, -0.018882286, -0.05389894, 0.060201116, 0.037482325, -0.09262111, 0.13794374, -0.037546474, 0.08728765, -0.06048911, 0.109400965, 0.18807462, -0.27290457, -0.09693492, 0.11082165, 0.10111347, -0.15905662, -0.12848644, -0.030494984, 0.11759677, 0.101147555, 0.26570567, 0.02364814, 0.12629566, -0.106508955, -0.08045393, -0.0040342063}, 
{0.08982055, -0.06458132, 0.06996158, -0.14034846, 0.13882075, 0.053505674, 0.10213019, -0.07678962, 0.071902394, 0.06113109, 0.077084824, -0.09878332, 0.004777938, -0.006050691, 0.12352057, 0.07185629, -0.075092494, -0.007618457, -0.0011193752, -0.044259205, 0.01630956, 0.055488303, -0.12960759, -0.085834205, 0.080021426, -0.06864095, 0.023957863, 0.010391638, 0.027663082, -0.10683905, 0.03616625, 0.017638788, -0.013469115, -0.0920574, -0.039960817, -0.11653945, -0.071557425, 0.052438974, -0.1393357, -0.095531814, 0.14350803, -0.12729937, -0.11821896, -0.13198854, -0.10475961, -0.09851038, -0.05788338, 0.08507989, -0.12402801, -0.15452147, 0.0061753094, -0.027038336, 0.019242391, 0.010726705, -0.042806745, 0.12412663, -0.032687828, 0.14201124, -0.08747802, 0.09019296, -0.08428628, -0.073397346, 0.07554223, 0.103207275}, 
{-0.026780948, 0.0029870719, -0.0057944357, 0.14753099, 0.03168945, -0.0347196, -0.079623446, 0.16610019, -0.10933853, -0.11587176, 0.033113256, -0.025494888, -0.14413923, 0.038386762, 0.11272721, 0.036993757, -0.101314195, 0.12211008, 0.1255597, 0.05055304, -0.11434314, 0.06991218, -0.13701501, -0.14987436, 0.038587034, -0.032689005, -0.14672439, -0.026382953, -0.13098937, -0.16526361, 0.14164005, -0.008811563, 0.0901254, 0.17419167, 0.17559834, 0.0962839, -0.11095444, -0.17293093, -0.038156047, 0.09603889, -0.027604833, 0.054615915, 0.075215176, -0.07651786, -0.08338362, -0.0059755743, -0.06715375, 0.16028838, -0.0929209, -0.019296095, 0.08178456, -0.06297915, -0.019553527, -0.08138489, 0.15581812, 0.037372783, -0.0686192, -0.006931886, 0.11485289, -0.07040858, -0.090230756, -0.033956498, -0.17084591, 0.15635468}, 
{-0.20548643, -0.005904731, 0.23257016, 0.17610033, 0.26205167, 0.15039374, -0.016083272, 0.035541028, -0.26330805, -0.030710502, 0.021147452, -0.12288348, 0.016934112, 0.074065894, 0.030410988, -0.15890004, -0.17128956, -0.03982318, 0.062134337, -0.007443266, -0.14965907, 0.25110102, -0.08895155, -0.096271954, 0.063008286, -0.022648428, -0.17716703, -0.16430904, -0.15583889, -0.14672504, -0.08452648, 0.07690896, -0.012047261, 0.2506402, 0.040991604, 0.120465614, 0.015694905, 0.075741, 0.0025225617, -0.05955185, 0.019838976, 0.040744144, 0.07559182, -0.11295048, 0.07269712, -0.09591371, -0.113283776, -0.14353873, 0.28025267, -0.14214408, 0.24052016, -0.15027724, -0.0077683474, -0.034224868, 0.009367973, 0.015588618, 0.10788366, 0.071357206, -0.021671064, 0.1628581, -0.22516914, 0.060292747, -0.00906051, 0.018816888}, 
{0.12920512, 0.07591451, -0.029275062, 0.06704019, -0.18920636, 0.14688213, -0.18518019, 0.10518683, -0.13630322, -0.034929242, -0.112669654, 0.101871535, -0.12151703, -0.19185196, 0.010843343, 0.04276871, 0.002447505, 0.051082607, 0.086049154, -0.108283624, 0.007374093, 0.15172334, -0.06671221, 0.053695545, -0.15366685, 0.011745101, -0.15831324, 0.11591052, 0.12889342, -0.038662013, -0.14986347, -0.15963313, -0.15553215, -0.048233334, 0.09405498, 0.06667296, -0.16169007, 0.051915243, -0.009694657, 0.05583295, -0.09708208, 0.049120743, 0.06762913, 0.042821478, 0.1290246, -0.120621204, -0.032964274, 0.1827422, -0.040605072, 0.000844551, -0.105962396, -0.15674426, -0.09228978, 0.016263656, 0.0712602, 0.007887328, 0.077851444, 0.017980566, -0.03447967, -0.1530538, 0.06183236, -0.049042065, 0.16593972, 0.11843307}, 
{0.20057893, 0.12178388, -0.0877713, 0.035250183, -0.05715097, -0.13958383, -0.104861535, 0.11340957, 0.029261481, -0.038174797, 0.13105501, 0.04081644, -0.15702038, -0.2513895, 0.06495137, 0.13072748, 0.049241982, -0.12689106, 0.24109535, -0.096668854, -0.15831776, -0.14598583, 0.040269773, -0.17541517, 0.22282223, 0.1204861, -0.06865454, -0.01926928, -0.056689113, -0.15383993, 0.054583937, -0.05476871, 0.07519464, -0.09822161, -0.14075248, -0.049199324, -0.07080942, -0.08668832, 0.0069304877, -0.11631435, 0.04600508, 0.049540438, -0.14585346, 0.25500613, -0.079792924, 0.08660655, -0.048305422, -0.13908775, -0.07384462, -0.021455558, -0.13796562, -0.021452367, -0.06765, -0.058296494, 0.0648651, 0.021535845, 0.06016877, -0.1264845, 0.038299527, 0.08040596, 0.07967481, -0.22713412, 0.03198893, -0.058621295}, 
{0.09993361, 0.101585746, 0.063819274, 0.013626308, -0.21526082, 0.033414945, -0.18799904, 0.08327302, -0.10616656, -0.12189381, -0.15952627, -0.12827098, -0.25503355, -0.25000823, -0.057409804, 0.2128703, -5.1636234e-05, 0.19230424, 0.075274944, -0.028671911, -0.097610116, -0.005307846, -0.09222081, 0.07630302, 0.24265487, -0.09222163, 0.091262564, 0.05218619, -0.09881535, 0.19713272, 0.1448953, -0.070005715, -0.15786725, -0.0152870165, 0.056510746, 0.11429819, -0.10861753, -0.029609447, 0.16799718, 0.04387127, 0.06188642, -0.14201646, -0.06409141, -0.034770664, 0.17876476, -0.081555076, 0.14341603, 0.049348135, -0.12968773, 0.15065457, 0.06994915, 0.046613365, 0.057317022, -0.07613523, -0.15190095, 0.001503442, 0.020883095, 0.11933819, -0.095588505, -0.12132071, 0.1594811, 0.073145814, -0.08168886, -0.082947396}, 
{0.12359049, -0.16263418, -0.023351531, 0.071621165, -0.030953616, 0.06289999, -0.01578918, -0.13699946, -0.054753866, 0.15996638, 0.05617786, -0.064281195, -0.11389937, 0.099986486, 0.11480682, 0.024992637, -0.045113675, -0.17138752, -0.051095672, -0.11814929, -0.16448204, -0.08231582, -0.036435366, -0.033000395, 0.042566255, 0.028877877, -0.08088283, 0.054709073, -0.040609717, 0.060377445, -0.08612604, 0.12210356, -0.14830987, 0.091875255, 0.079985246, 0.14842974, 0.13253275, 0.04659618, -0.10070188, -0.009793142, 0.072197415, 0.17481163, -0.04532911, 0.0090831, 0.028498476, -0.074091546, -0.09287728, 0.112136155, 0.1662548, -0.06694871, 0.086038284, -0.06395923, 0.17355211, -0.14316733, 0.08614512, -0.07886462, 0.003507742, -0.1340319, -0.05569358, 0.13719015, 0.022365693, -0.07276745, -0.16122915, 0.13527428}, 
{0.09513975, -0.092802435, -0.137387, -0.06126287, -0.04145675, -0.015950054, 0.12796007, -0.044772178, -0.075538635, -0.10012574, 0.0075351587, -0.05906046, 0.17166266, 0.022948679, 0.13790946, 0.12644923, 0.16582198, -0.15984674, -0.036516923, 0.017586067, -0.09836859, -0.15735817, 0.041514054, 0.16644578, -0.15723637, -0.13861507, 0.065029636, -0.074609205, 0.16491623, 0.01391795, -0.08579012, -0.16215827, -0.11011669, 0.115359075, -0.001855731, -0.067612864, -0.04215485, -0.1423989, 0.13926613, 0.087630674, -0.031361483, -0.03783384, 0.032473728, 0.123711064, -0.049030058, 0.00041244924, 0.055897593, -0.13002135, -0.10751425, -0.13678856, 0.16868813, 0.044331357, 0.03435284, 0.07908681, -0.06826841, -0.13016741, -0.0939696, -0.095095575, -0.139833, -0.16699722, -0.08936937, 0.0085681155, 0.11996476, -0.14553803}, 
{-0.14463893, -0.00048683584, -0.12783927, -0.1638562, -0.08681829, -0.007952392, 0.11560391, 0.10900234, 0.023329586, -0.0177297, -0.08288397, -0.08922471, -0.06492697, -0.05513937, -0.16849075, 0.020669445, -0.10837746, -0.021837085, -0.10487969, 0.13805787, 0.037713885, 0.0739087, -0.13370126, -0.04733336, -0.0015023649, 0.08979432, -0.08207235, 0.14067854, -0.09547593, 0.026154354, -0.11041673, -0.078993306, 0.037169054, -0.119842075, 0.17308779, -0.14313647, -0.1262062, 0.1230322, -0.103916466, 0.1358623, 0.13998751, 0.1276773, -0.08541851, -0.16777055, 0.012570545, 0.08585976, -0.17439307, -0.058900684, 0.048424616, -0.11158585, -0.16955492, 0.12352355, 0.12918194, 0.070786804, 0.11540316, -0.040760547, -0.17624576, -0.06974178, -0.17271732, -0.15047921, 0.14452042, 0.010973528, 0.03118053, -0.040272072}, 
{0.09278034, 0.14774162, -0.034584604, -0.03579005, -0.073654145, -0.107558295, 0.15931253, 0.16526802, 0.032476246, 0.024658546, 0.009632797, 0.13639139, 0.03869703, 0.10280061, 0.053830475, 0.15746316, -0.13781357, 0.10631211, -0.010264299, 0.04021756, -0.07926035, -0.021694079, -0.110766254, -0.009018749, -0.15083814, -0.13227199, 0.072589435, -0.1253382, 0.07335167, 0.037254322, 0.1592983, 0.16389383, 0.07312086, -0.04302023, 0.12507485, -0.043511212, 0.1403579, 0.118683495, 0.15561658, -0.07467958, -0.099488646, 0.14287363, -0.04338576, -0.04042265, -0.041557826, 0.031444117, 0.05553998, -0.010454352, 0.11661315, 0.17325783, -0.019896025, -0.06753299, -0.18234855, -0.085827, -0.03921014, -0.11562312, 0.05235983, 0.077655986, 0.08991077, 0.15545304, -0.036285896, 0.06143096, 0.1693749, 0.08685093}, 
{0.011601851, 0.11096802, 0.18351065, 0.06208878, 0.2452611, -0.10155797, 0.027441481, -0.18386328, -0.08900104, 0.0048515378, -0.18180169, -0.11611086, 0.03392395, 0.06332108, -0.08116084, 0.06858176, 0.09297852, 0.02797686, 0.17483361, 0.034338385, 0.03802274, 0.026942436, -0.040269576, -0.14860527, 0.007520663, -0.16271563, -0.16459477, 0.08086114, -0.14801084, -0.033935104, -0.0038613314, 0.1493552, -0.12996596, -0.04978583, -0.05056627, 0.010936014, 0.04282841, 0.043069933, -0.004064252, 0.11032144, 0.22100388, 0.10971062, -0.17606124, 0.014545587, -0.115296386, 0.15042175, -0.025748983, -0.1253247, 0.13670556, 0.07542084, 0.20755292, 0.10748933, -0.015345668, -0.07955559, 0.15619062, 0.2072448, 0.16477104, -0.075966604, 0.08955498, -0.13660894, -0.21166469, 0.17686194, -0.01301795, -0.16721378}, 
{-0.1226632, -0.083898656, -0.0770513, 0.0030165988, 0.18425769, 0.044243574, -0.01694527, -0.05714371, 0.101691686, 0.045511346, 0.12879106, -0.062204868, 0.055608988, -0.025345344, 0.15737522, -0.1438712, -0.15441522, -0.13646032, 0.07849605, -0.10445809, 0.0965365, -0.110033564, -0.062451385, 0.14272644, 0.11553936, -0.09484637, 0.11666665, -0.0905799, -0.041651785, 0.12181764, 0.12488171, 0.12112276, 0.097277924, -0.0014480696, 0.1567051, -0.11268234, 0.1517661, -0.14834705, 0.01637589, -0.059078626, -0.012783091, 0.022096837, -0.15044044, -0.052635774, -0.014577342, 0.12154229, -0.16972372, 0.0074870195, 0.10014857, 0.10703259, 0.06259643, -0.034789994, 0.06322708, 0.11123957, -0.00908792, -0.06929585, 0.0053993617, -0.08481583, -0.07117689, 0.0063594664, 0.019018022, 0.04548607, -0.103615746, 0.05798833}, 
{-0.04858682, 0.09838591, -0.035488393, -0.1400391, 0.17048809, -0.07029618, -0.1800044, -0.0974781, -0.048029058, -0.14732699, -0.02458139, 0.14030354, 0.17549954, -0.1157631, 0.054965954, 0.098855555, 0.06728274, 0.10144552, 0.066838436, -0.129859, -0.016788349, 0.084817834, -0.18202493, 0.13650332, 0.0022662038, -0.1760997, -0.14442444, 0.12671028, -0.008754283, -0.16285554, 0.05010388, -0.13135524, -0.053268686, 0.1321831, -0.047541603, -0.075964965, -0.1351416, 0.14753853, -0.023073602, 0.040074114, 0.09716789, 0.02249237, -0.091973275, 0.121165656, -0.0584974, -0.023495018, -0.02692905, -0.05930387, -0.11225613, -0.034735594, -0.008993287, 0.11962198, 0.046314396, 0.18397485, -0.17503923, 0.21071926, -0.02220409, -0.13911982, 0.031152936, -0.084112994, -0.06137268, -0.07612987, -0.03715404, -0.06718178}, 
{0.02944602, 0.049582526, -0.04426278, -0.10022154, -0.16190341, -0.027364895, 0.02883333, -0.15392488, 0.056634575, -0.13934709, -0.07217163, 0.1464849, -0.15721938, 0.15359934, 0.010458529, 0.08503266, 0.12888701, -0.07437642, 0.076412395, -0.033204883, -0.17205325, -0.12900884, -0.06256236, -0.15195502, 0.12675752, 0.13391234, 0.09524013, 0.08511235, -0.072241426, -0.16523339, 0.14127265, 0.16772164, 0.012355268, -0.1451384, -0.03453584, -0.12417574, -0.08646603, 0.05736351, -0.14253823, 0.14780675, -0.035844922, 0.09753387, -0.031155124, -0.06921621, -0.13409875, -0.069070004, -0.07793277, 0.122150406, 0.044331193, 0.12627007, -0.015432492, -0.13394162, -0.03901057, 0.09199561, 0.11524673, -0.15571418, -0.07474785, -0.13662663, 0.073017225, 0.12238856, -0.13920598, 0.105152264, -0.05551996, -0.07245974}, 
{-0.08860844, 0.2236964, 0.07100984, 0.20737572, -0.071532756, -0.15526992, 0.20857446, -0.06547714, -0.054163035, -0.046986032, 0.09149212, -0.117399074, 0.03382675, -0.05182559, -0.17725728, -0.2084002, 0.09529109, -0.19142407, 0.036260553, -0.10096609, 0.07699828, 0.21773784, -0.03304714, -0.03719333, -0.027644992, -0.15975633, 0.11830221, -0.038910042, -0.08069098, 0.001750213, -0.1600006, -0.088038504, 0.13681225, 0.21376295, 0.06292942, 0.20106468, -0.06042892, -0.17332628, -0.025538135, 0.110170625, 0.06093718, 0.05403422, 0.13629518, -0.047897007, -0.1584027, -0.004537314, 0.07642706, -0.03434518, 0.26277566, -0.16423842, 0.23420417, -0.09250537, -0.11484983, -0.1375299, 0.017842874, 0.20937487, -0.10308189, 0.1402306, 0.12603168, 0.008181879, -0.12753695, -0.046330493, 0.03737806, -0.07415165}, 
{0.09961529, 0.086534895, -0.057473097, -0.078977294, 0.17067009, 0.09730439, 0.089489415, -0.0034725904, -0.14485912, 0.22236088, 0.069806725, -0.07519845, -0.11652888, -0.02471437, 0.040040758, -0.06320208, -0.22375886, -0.047823798, 0.22377396, 0.09723459, 0.0396021, 0.03358885, -0.15929024, 0.09534101, 0.013611888, -0.11106401, -0.041999903, 0.018541927, -0.047265872, -0.16668142, -0.005432286, 0.029369103, -0.0062619746, 0.19180314, -0.018299311, 0.044120952, 0.13667433, 0.0030147457, 0.027027497, 0.068732016, -0.13897473, 0.24018529, -0.03996782, -0.12828314, -0.05099552, 0.11557032, 0.13168816, -0.09495335, -0.09175674, -0.15459347, -0.030950367, 0.086236045, -0.15236984, -0.123358496, -0.008308023, -0.1701711, 0.039782654, 0.06680616, 0.13210218, -0.043196637, -0.08493093, 0.17873397, 0.14128488, 0.05892265}, 
{0.09004076, -0.01934911, 0.10072343, -0.044369705, 0.12661572, -0.0059116036, -0.093005635, 0.11223923, 0.13514425, 0.1720053, -0.1647947, -0.14805534, -0.19162248, 0.038004853, 0.19872479, 0.07576729, 0.18421963, 0.17101635, 0.09381233, -0.07455009, -0.09461462, -0.22183211, 0.06497317, 0.16412462, 0.0992649, 0.13377167, -0.04523966, 0.050200198, -0.15339193, 0.15631865, 0.0021258127, 0.0791016, 0.009673834, 0.13891639, -0.1246987, 0.021761497, 0.03664042, -0.004420147, 0.20650268, 0.078690015, 0.0695511, -0.22105138, -0.15557067, -0.13333681, -0.09437813, -0.05438865, -0.041673616, 0.16406257, -0.009746214, 0.18566826, 0.10497817, -0.04595478, 0.017475909, 0.10313621, 0.04575698, -0.058063686, -0.0929712, -0.1826472, 0.16882956, 0.042797886, 0.091652304, -0.00017784975, 0.24023566, -0.06275396}, 
{-0.09373301, 0.10800072, 0.034415662, 0.036415096, -0.055669572, 0.020469204, 0.06870812, -0.11116227, -0.029782906, 0.09346948, 0.014461363, -0.15691352, 0.06775712, -0.11826887, 0.12442377, 0.1324865, -0.064568885, 0.12644672, 0.11870421, -0.03760746, -0.105595805, -0.16030072, -0.0081293285, 0.109632716, -0.14568251, -0.02511425, 0.07125232, -0.15015696, 0.050168946, -0.1250596, 0.15045506, 0.018304497, -0.14575413, -0.04840896, -0.1573161, 0.017941473, 0.07591488, 0.06856208, 0.065858975, -0.104337044, -0.097485244, -0.08081248, 0.009812713, -0.12242137, 0.11766275, -0.1660969, 0.16701956, -0.16998442, 0.08786748, 0.0050495104, -0.016195444, 0.01587212, -0.023347855, -0.08181656, -0.016049773, -0.12113053, -0.08189051, 0.13711432, 0.17690945, -0.09017145, -0.10599826, 0.07092768, 0.101402655, 0.07969649}, 
{-0.11887409, 0.12718506, -0.057058483, -0.03685312, -0.1548879, 0.030131206, 0.12891607, 0.13862224, 0.12036671, -0.13723195, 0.12482606, -0.044095382, -0.07360993, -0.10466955, 0.08316745, -0.0012369752, 0.079324916, 0.011155561, 0.09705691, -0.02090694, 0.05823064, -0.06365131, -0.011859357, 0.10197349, 0.06992428, -0.07608859, 0.14857097, 0.027662247, 0.17269109, 0.11575417, 0.024294198, -0.15415117, 0.13123657, -0.17048147, 0.0018017739, 0.022979647, -0.16439095, -0.009837449, 0.10841964, -0.1755798, 0.06072952, 0.124862865, 0.030621663, -0.0678217, 0.12304191, -0.10240407, 0.025641128, 0.0635716, -0.0965696, -0.09545026, -0.053182535, 0.13700478, -0.011715904, 0.11407061, -0.099972785, 0.03885354, -0.019367486, -0.05244969, -0.05460318, -0.027933791, -0.08754671, -0.0019803047, 0.16049187, 0.029958397}, 
{0.14617819, -0.12045956, 0.047041256, 0.049523234, 0.18153678, -0.046720326, 0.19651696, 0.06690039, -0.13593999, 0.10737633, 0.11049987, -0.1400563, 0.19488725, -0.0856008, 0.13054414, 0.02460111, -0.12627868, 0.03197214, -0.13744563, -0.18672606, 0.09475346, 0.05397263, 0.07833064, -0.17176025, 0.035824466, 0.12877543, 0.05035711, 0.19753304, 0.09369333, 0.1437211, 0.049719926, -0.0038751746, 0.112524554, -0.092211016, -0.14114726, 0.13773054, 0.08983702, 0.109801024, -0.023662053, -0.13072352, -0.06196077, -0.06620759, 0.17377411, 0.13827989, -0.048459042, 0.014434755, 0.025724873, 0.11811476, -0.017251212, -0.06152224, -0.0641716, -0.031049624, -0.1413314, 0.0044194045, -0.1588465, 0.091692686, -0.17059262, -0.15021524, -0.11733986, -0.18219414, 0.07166862, 0.1210484, 0.057946313, -0.12794629}, 
{0.06675917, 0.022012621, -0.08318806, 0.11428119, -0.13011381, -0.17283992, 0.07421647, 0.10927574, 0.005905539, 0.07719688, -0.07029833, -0.10370337, -0.0986594, -0.1628091, -0.0381421, 0.004689634, 0.14580853, 0.13259871, 0.044610545, 0.025744721, 0.07594471, 0.074126646, 0.10062148, -0.11896373, -0.010931835, -0.003929183, 0.035716712, 0.14485683, 0.12957172, 0.00049088895, 0.038635045, -0.030223668, -0.12238227, -0.110999964, 0.032180846, -0.122884735, 0.13205029, 0.026687518, 0.09718768, -0.1552633, 0.13695438, 0.06363706, -0.15835962, -0.16312048, -0.13713522, 0.059062436, -0.10281205, -0.0651165, -0.05953276, -0.1439368, -0.08770734, 0.04546009, -0.16762476, 0.121760175, 0.03700456, -0.0261807, -0.057109356, 0.12529837, -0.07796202, -0.0068823695, 0.027484804, 0.0428005, -0.07757073, -0.008227691}, 
{0.20132649, 0.077559225, -0.04495542, -0.2220521, -0.15236132, -0.023231685, -0.066924915, -0.006893206, -0.0072381995, 0.104963906, 0.02566279, -0.163509, -0.26311597, 0.17033567, -0.18447284, 0.17248961, 0.26033485, -0.24903494, 0.07449081, -0.046385624, -0.09832514, -0.0022214937, 0.08298726, 0.12742315, 0.099282525, 0.02132373, 0.14666209, -0.15067764, -0.16577055, 0.14447631, -0.025265966, -0.17289189, 0.06657335, 0.11206972, 0.058664575, 0.0158757, -0.07118498, 0.12533107, 0.2449906, 0.12472655, 0.11242396, 0.094647616, -0.112174004, 0.13137302, -0.12747146, 0.17429607, -0.17630664, 0.07088265, -0.011700576, 0.025436103, 0.27338427, -0.01774095, 0.10125275, -0.02879289, 0.16364412, 0.115052864, -0.07900075, 0.09449943, 0.17363228, 0.08174028, -0.18940747, 0.0074794064, 0.019393869, -0.13667881}, 
{0.0054164, -0.028182106, 0.011321672, -0.038419962, 0.07614226, -0.10345268, 0.043011554, -0.1775672, -0.050605584, -0.08283233, -0.15034775, 0.08600123, 0.22416212, -0.08553679, 5.1097186e-06, 0.09481696, -0.02464761, 0.21008565, 0.055168062, -0.040252157, -0.16684967, 0.2003157, 0.069510326, 0.03183292, 0.19769454, -0.09975666, -0.065413356, 0.056810085, -0.100426584, -0.025505751, -0.035377502, 0.024512341, -0.105579115, 0.07035834, -0.055461794, -0.05668223, 0.11031131, -0.10180908, -0.015349936, 0.05749954, 0.07958092, 0.09703356, -0.04873979, -0.061422702, 0.1268409, -0.14750247, -0.13075516, 0.15737137, -0.041991673, 0.060542267, -0.114647694, -0.053666428, 0.10083827, 0.16833901, 0.078574374, 0.023246344, -0.039956693, 0.06875448, -0.054310612, 0.12033185, 0.089506015, -0.14823525, 0.20091373, 0.074114755}, 
{0.15798654, 0.04380162, 0.09488596, 0.17323901, -0.14698355, 0.12443267, -0.17262733, -0.10596902, -0.0021184683, 0.06748587, 0.13607772, -0.030905947, -0.16541938, 0.16657023, 0.07517792, -0.16706088, -0.09951731, 0.06321125, 0.1719534, 0.0046704113, -0.0392541, 0.0178843, -0.0950478, 0.039235935, 0.07385658, 0.07960738, -0.07404185, 0.06672187, 0.07176706, 0.07710855, -0.1753488, 0.113339946, -0.13603994, -0.019693837, 0.11143164, 0.091396734, 0.14306335, -0.1462971, -0.037373632, 0.14829774, -0.108985804, 0.025089726, 0.16270892, -0.15690956, 0.050031215, 0.13536112, 0.004642904, 0.014657706, 0.009195983, 0.1759644, 0.03169, -0.11841684, -0.009614453, 0.159063, -0.15779738, 0.14521782, 0.110689685, -0.06456885, 0.005564317, -0.13781951, -0.03438589, 0.038385108, -0.09668891, -0.16184129}, 
{0.17076641, -0.13391615, -0.05703341, -0.03261603, 0.05777177, 0.020921946, -0.06242411, -0.1530553, 0.17469959, -0.08423255, 0.1338847, -0.07556268, 0.16513743, -0.16171752, -0.05254953, -0.15137997, 0.15796179, 0.122720584, 0.118880436, -0.07837291, -0.13015376, 0.114715666, -0.14701171, 0.051360786, -0.15205313, -0.14900635, 0.13449183, -0.17848743, 0.07881747, 0.124888696, -0.017465264, -0.15418608, -0.16802393, 0.14075048, 0.09921314, 0.021802345, 0.17426315, 0.060748626, 0.07806088, 0.069351554, -0.13609765, 0.21936186, -0.012985185, 0.16248722, 0.079956874, -0.16387145, -0.03418067, -0.12132327, 0.18771528, -0.105182394, 0.21166818, -0.06411303, -0.10280159, -0.11681364, -0.0030338615, 0.12527949, -0.0597467, -0.14330281, -0.17358229, 0.01340294, -0.09159838, 0.094823755, -0.11574083, 0.0931754}, 
{0.08632477, -0.15894578, -0.06644813, -0.13060084, 0.079215795, -0.025477141, -0.12692559, 0.055826202, 0.16985491, -0.012955778, 0.0135634085, -0.15728934, 0.11535975, -0.08987008, 0.08145783, 0.14658877, -0.13388288, 0.13461296, -0.15805767, -0.08073903, -0.1546037, 0.14874753, -0.080207266, 0.01982975, 0.069434404, 0.09820028, -0.030122183, -0.14227183, 0.02466029, -0.07801222, 0.067164384, -0.16390234, 0.14218833, 0.16256809, -0.054416344, -0.15083753, -0.040689066, -0.06845545, -0.026528278, 0.004363826, -0.14296994, 0.16165641, -0.091586195, -0.07129318, -0.12908988, 0.06120439, 0.043580353, -0.070145175, -0.08467233, 0.012611979, 0.034281164, -0.11010127, -0.11956721, -0.026860015, 0.03401959, 0.08319856, -0.15363744, 0.08574694, 0.119173594, 0.016277928, 0.12825851, -0.151507, 0.04710138, -0.17596583}, 
{0.004453696, 0.015570882, -0.08394874, 0.09939364, 0.09777645, 0.07315749, 0.13258432, -0.11926786, -0.026697678, 0.0052669826, 0.004146176, -0.15542026, 0.14505492, -0.047016483, 0.089006, -0.21156876, -0.117144525, -0.04134556, -0.12754028, -0.018285466, -0.080832094, -0.035200007, -0.077305995, -0.13153091, -0.17480102, 0.09388539, 0.16454102, -0.12929352, 0.0052523464, 0.18157555, -0.141676, -0.049364366, 0.12779202, -0.03449069, 0.11880599, -0.13053471, 0.09145312, 0.04380041, 0.10630163, -0.012915822, 0.18786342, 0.21458034, -0.09640455, -0.18648447, -0.059823554, -0.06071481, -0.16640797, 0.2196105, 0.083699405, 0.07244825, -0.19610824, -0.016786292, -0.06380268, -0.06061754, -0.07474828, -0.06911211, -0.17752768, 0.042593088, 0.044737943, 0.0815152, 0.16849191, -0.094742574, 0.026766151, -0.13392767}, 
{0.1172808, -0.17759697, 0.031602852, 0.24751942, -0.040874742, -0.024000183, 0.13067697, 0.05504064, -0.15797636, 0.18104951, 0.07456111, -0.12459543, 0.13887721, 0.032579497, 0.069230795, 0.016577583, 0.009284271, -0.031212086, 0.13886142, -0.03266855, -0.16735068, 0.0674202, 0.27367184, -0.04510635, -0.23097157, 0.064520225, -0.16709861, 0.1938462, 0.0342232, 0.008620851, -0.09662057, -0.07142221, -0.07813022, -0.10723764, -0.1323908, 0.2719967, 0.18742014, -0.12392221, -0.16688529, -0.0318637, -0.2082608, -0.049993444, 0.028746128, -0.16194008, 0.042319473, 0.09422211, -0.14991131, 0.04189922, 0.33564106, -0.08886712, 0.07869769, -0.06527902, -0.15304586, -0.0645973, 0.13687514, -0.24920112, 0.0046797805, 0.105353706, -0.107978076, -0.10981527, 0.08687609, -0.06633108, -0.0840384, 0.10596745}, 
{-0.011727763, -0.13023402, -0.19654706, 0.051742714, -0.15590897, -0.05072841, -0.061792944, -0.062488787, 0.012649695, -0.064586855, 0.1410069, -0.12746432, -0.08880211, -0.019646488, 0.08979378, 0.23335221, 0.11920791, 0.11311827, -0.14798936, -0.14260012, -0.12917528, -0.10352316, -0.03714246, -0.11288093, 0.05585157, 0.11878306, -0.063690364, 0.034449592, 0.14246647, -0.07971397, 0.119143814, -0.09447885, 0.0798931, -0.0126504935, 0.062919855, 0.11678164, 0.21503513, -0.17155714, -0.1461037, 0.036098108, -0.029835885, 0.031839475, 0.0018598586, -0.20436618, 0.16180736, 0.12698288, -0.14413223, 0.13507073, 0.037219018, 0.19217995, -0.1910257, 0.06927918, 0.1624709, 0.20198321, -0.08580626, -0.015527149, -0.039297625, -0.08530672, -0.12933484, -0.018877774, 0.19306952, -0.043746833, 0.23278314, 0.061576173}, 
{0.0009995103, -0.08802669, 0.118244335, -0.091168396, -0.10876597, 0.029761195, 0.028986871, -0.018250555, 0.13896291, 0.043734267, 0.11949201, 0.009110078, -0.13105659, 0.14359333, -0.16836165, 0.15898128, 0.06425448, 0.06949273, 0.17051952, -0.049169436, 0.00471054, 0.02558726, 0.06934312, 0.04976371, -0.089837864, 0.06865953, 0.098319575, 0.10811181, 0.08855541, -0.16404915, -0.06304266, 0.16374363, -0.13927944, -0.12510735, 0.013682425, -0.13009152, -0.122004166, -0.11799744, -0.022089958, -0.10199061, -0.02635029, -0.117722556, 0.006374374, -0.051859, -0.0671449, -0.14094976, 0.042538315, -0.11336798, 0.12903388, 0.082408205, -0.103107125, -0.17496446, 0.034078807, 0.14947532, -0.06170994, -0.14811, -0.1695193, 0.09940456, -0.03382264, 0.07841863, 0.06899081, 0.114722535, -0.09524564, -0.02297774}, 
{0.21852182, 0.019634793, -0.18399788, -0.01692598, -0.13512415, 0.020682812, 0.15343417, -0.07867752, 0.08942428, 0.2151309, -0.16000825, -0.11497854, 0.078013025, 0.08661644, -0.0845318, 0.2053171, -0.20398486, 0.1767612, 0.044271383, 0.1081692, 0.104081884, -0.14487812, 0.2151202, -0.05702856, 0.03215317, 0.16418536, 0.15466988, 0.20853902, -0.002312392, 0.03496058, -0.018636469, 0.078090414, 0.11051805, -0.11345101, -0.12684238, 0.11993586, 0.05290668, 0.0625439, -0.0367336, -0.069397986, -0.020117959, -0.035495274, -0.11662016, -0.20846936, 0.21233849, 0.09062947, 0.035748824, -0.025972359, -0.028255986, 0.18534973, -0.22457515, 0.010259002, -0.1076739, -0.03787931, -0.029478058, -0.11974428, -0.055691656, -0.14889999, -0.13259016, -0.16084853, 0.12212404, 0.052469894, 0.03905375, -0.012377515}, 
{-0.1439665, 0.051868096, 0.024892706, -0.05592817, 0.253849, -0.020904884, 0.0923473, 0.06821203, 0.21242775, -0.07982126, 0.100330085, -0.007521063, 0.06923397, 0.17660393, -0.11784489, 0.054590274, -0.22288282, 0.05353259, -0.23756751, -0.03163877, -0.14469974, 0.1534389, 0.06862262, 0.13014008, -0.15964052, -0.1600802, -0.115183175, -0.14764921, 0.09285347, 0.050036084, -0.11408292, 0.094584316, 0.13186161, -0.0005484501, -0.13197029, -0.106887825, 0.226566, 0.04432112, -0.08647524, -0.14541243, -0.1803288, 0.14824098, -0.07056128, -0.11322965, -0.17558497, 0.096302435, -0.16313979, -0.11926684, 0.09348721, 0.06216828, 0.1824228, 0.017642796, 0.09578234, 0.15413266, -0.108331434, 0.1953461, 0.10718208, 0.094059184, -0.048488718, 0.07361168, 0.06022551, 0.18365659, -0.16277167, 0.118526205}, 
{-0.12215468, -0.072433844, -0.11981491, -0.10368326, 0.15125357, -0.007701531, 0.09024391, 0.011235386, -0.0037584654, -0.06957007, 0.031770736, 0.01340957, -0.065121755, 0.064653955, 0.058351982, 0.03027456, 0.15606974, 0.1488868, 0.053478718, 0.09601532, 0.05558212, 0.15137361, 0.028649196, -0.0047662556, -0.11802706, 0.06004337, 0.113198794, 0.12171683, -0.036636233, 0.052543882, -0.038843494, 0.081704095, 0.17086788, -0.08071907, 0.112679645, -0.07828572, 0.101492584, 0.12464254, 0.008749625, 0.023402378, 0.15369903, -0.0383372, -0.14090787, -0.16251694, -0.10584286, -0.016766652, 0.16116028, 0.016127048, -0.09207887, -0.005798475, -0.17261806, 0.019618973, -0.15971473, -0.11849538, 0.1676962, 0.086334355, -0.15496153, 0.051210027, 0.038771898, 0.056502543, -0.046863716, 0.05814636, -0.1516028, 0.17461516}, 
{-0.04344459, 0.10734044, 0.14351435, -0.038871065, -0.048151165, -0.07232732, 0.014655471, 0.12997712, 0.045950174, 0.07163675, -0.04088345, -0.06739673, -0.010363743, 0.08050932, 0.14869909, 0.053687364, -0.111187644, -0.07965408, 0.05697626, -0.0031026453, 0.023202002, 0.14299579, -0.1387261, -0.065841846, -0.1282604, -0.02509807, -0.1745016, -0.04803194, 0.15127869, 0.002459854, 0.093490675, 0.02103199, -0.01749292, -0.038599685, -0.090991884, 0.0745966, 0.010145128, -0.03276947, 0.1358894, 0.17648436, 0.039082393, -0.17397836, -0.0013951808, -0.0788463, -0.12984243, -0.10029551, -0.01907061, -0.014757767, 0.15083812, 0.116281345, 0.17194931, -0.049561277, 0.15816899, 0.087576225, 0.07808845, 0.17505579, 0.002192989, 0.045232758, -0.03141938, 0.027414128, 0.10232474, 0.14308076, -0.095085606, -0.15400551}, 
{-0.17089227, 0.03177926, 0.12572111, -0.13932258, 0.0038143068, -0.099185064, -0.12899429, -0.14264603, 0.13830902, -0.17522103, 0.061547745, 0.17570688, 0.04605841, 0.18013594, 0.1834507, -0.07714351, -0.052165553, 0.08236874, -0.004606183, 0.11771106, -0.12406729, -0.08739462, 0.060835503, -0.07855814, 0.038515564, 0.13770439, -0.12761164, -0.018566007, 0.072662845, -0.11217159, -0.10016484, 0.1430257, -0.112076685, 0.06577554, 0.035979465, -0.14006801, 0.16446908, 0.18383408, 0.22202215, -0.19117615, -0.0038631472, -0.054558046, 0.050834626, 0.15333486, 0.015117287, 0.12711199, -0.10197611, -0.12641442, -0.14540605, 0.024366893, -0.033141058, -0.159575, 0.069248475, 0.2423951, 0.069132, 0.17599495, -0.087673835, -0.06325812, 0.097912274, -0.041664843, 0.032565318, -0.051769186, -0.06976868, 0.016755566}, 
{-0.13374971, -0.04998352, -0.008254904, 0.05870977, 0.16027315, 0.10141282, 0.024270069, -0.17440623, -0.14742085, -0.05909738, -0.098970145, 0.067819, -0.11358347, 0.22459555, -0.0941572, -0.19395472, -0.07715373, -0.2683449, 0.15326996, -0.039046843, 0.0203415, -0.112418525, -0.16871133, 0.017599508, 0.04313958, 0.016323572, -0.046257906, -0.17305575, -0.04541804, 0.0056486744, -0.06265574, -0.115818255, 0.16722582, 0.0058880546, 0.17064257, 0.09024242, -0.0923668, 0.08893361, 0.000429292, -0.0199339, 0.1936206, 0.047454547, 0.078639016, 0.16578001, -0.2713475, -0.028768554, -0.1172656, -0.11611187, -0.15961048, -0.0418739, 0.18123743, 0.13939776, -0.17006738, -0.110101484, 0.05850783, -0.039943118, -0.17971836, -0.17940116, 0.055048373, -0.023243243, -0.08451543, 0.22124888, -0.22185694, 0.07688926}, 
{-0.089475915, 0.02989497, 0.22358078, -0.09487575, -0.0113353515, 0.11485265, 0.041236486, -0.07549492, -0.08268216, 0.12112013, 0.012334931, -0.005793214, 0.10247458, 0.23266605, -0.119237326, 0.15282586, 0.009770276, -0.15587868, -0.055867903, -0.014454039, -0.12827642, -0.026745116, -0.15099159, -0.1285977, -0.07908418, 0.058188017, -0.116250224, -0.112111256, -0.13417192, -0.11513533, -0.16582508, -0.009759535, -0.13253805, 0.0361107, 0.011436626, -0.0744627, 0.024148664, -0.06709249, -0.13444254, 0.0045366185, 0.16814913, -0.080175154, -0.05046402, 0.08484118, -0.19015323, 0.06062618, 0.09925993, -0.118417755, 0.04272166, -0.05179031, 0.19409484, -0.17357674, 0.04435147, 0.00028225192, -0.090627186, 0.18627748, 0.03424205, 0.16232151, 0.2117587, -0.079122886, -0.07065891, 0.19747084, -0.13032664, -0.03948064}, 
{-0.10849159, 0.10421787, -0.057519823, 0.0821002, -0.15929615, -0.16883884, -0.05036199, 0.0050440133, 0.01652351, -0.07371736, -0.038697302, 0.09104793, 0.025478229, 0.0032526404, -0.13927215, 0.0237374, 0.043893963, 0.1686907, 0.07640658, -0.032344118, -0.021971524, 0.17266206, 0.046565905, -0.022298425, 0.027567789, 0.028368533, -0.12096883, 0.13678338, -0.0801534, -0.16509898, -0.16656582, -0.14566389, -0.15354113, -0.025352716, -0.072763115, -0.021709457, 0.12791519, -0.05231929, 0.16686414, 0.083877906, -0.10259988, -0.040655985, 0.01835753, -0.055976532, -0.05471289, 0.1446927, 0.0016690195, -0.004904121, 0.12107973, 0.023095757, -0.09684313, 0.028544247, 0.04238443, 0.036364466, -0.03331721, -0.0071379542, 0.0063963383, -0.074866, -0.04084523, 0.08428441, -0.08096451, 0.011884943, -0.120888576, 0.044262245}, 
{-0.21820489, -0.17504176, 0.082640864, -0.06865577, -0.038119603, 0.11922862, -0.12816587, -0.15658373, -0.07447021, 0.11911229, 0.14399259, -0.11824307, 0.07312757, -0.068146646, 0.23713756, 0.070263445, 0.21816424, 0.07941839, -0.13224612, 0.09879726, 0.16155551, -0.19626443, 0.07823108, 0.042592093, 0.2303577, 0.15866998, 0.016693443, 0.032765545, -0.07685621, 0.20470266, -0.113850676, -0.1029661, -0.081932165, -0.07471817, -0.12319818, -0.1248313, -0.04568934, -0.06914092, 0.01658133, -0.11948631, 0.11603388, -0.17466074, -0.004425794, -0.07623745, 0.16838403, 0.13276793, 0.1635621, 0.09413262, -0.1812342, 0.08600615, -0.02787783, -0.06119111, 0.105359785, 0.1276716, 0.06481932, 0.043727916, -0.063125, 0.0016688555, 0.095081486, -0.007143224, 0.21359375, 0.085868895, 0.0730144, 0.09689273}, 
{0.16033395, 0.039024204, -0.15957943, 0.15280741, -0.10000616, -0.034526482, 0.05392266, 0.08646758, -0.04428638, -0.04716038, 0.009479982, 0.057078004, 0.17897701, 0.14866711, 0.09826895, 0.015490253, 0.1671827, -0.16831379, -0.02794785, -0.078460656, 0.11035238, 0.012136021, 0.104754165, -0.05241201, 0.15845148, 0.06995559, 0.02294161, 0.16521297, -0.052058272, 0.13302626, 0.057341926, -0.08104987, 0.0019510686, 0.044136163, 0.13336505, -0.1139354, 0.12024175, -0.12395181, 0.11603536, 0.06483652, -0.05606197, 0.04289989, 0.16414972, -0.030921832, -0.12001286, -0.009629294, 0.06533073, 0.06926141, -0.09014557, -0.01312527, -0.15982522, 0.010082245, 0.10254072, 0.007027612, 0.12279154, 0.103762686, 0.12424315, -0.1445951, 0.0074504316, -0.08003038, -0.16364324, 0.10102419, 0.124133006, -0.09973803}, 
{0.14082049, -0.07805727, 0.02341561, -0.17196655, -0.09097591, -0.1309465, 0.106680825, -0.025321066, -0.13859174, -0.13030347, -0.1415383, -0.105391055, -0.10139819, -0.11916667, 0.15597077, 0.02690883, 0.16242097, -0.07156783, 0.0018773079, 0.032843262, -0.12664407, 0.05654168, 0.045948118, 0.040705845, -0.12488221, 0.026365504, 0.08014785, 0.14567684, 0.06754702, -0.017014384, -0.025708854, -0.14780322, -0.13280258, 0.16890703, -0.13316815, -0.14017826, 0.008365348, 0.043569803, 0.11589225, -0.080713406, 0.050774977, 0.018826276, -0.057382554, 0.1348811, -0.12843893, 0.05519922, 0.12148912, -0.014037982, -0.16592582, -0.029276893, -0.15768409, -0.1712794, -0.044207275, -0.12456248, 0.061239332, -0.08030707, 0.098398104, -0.028683424, -0.043611407, -0.17449924, 0.05836694, 0.027233094, -0.1706407, 0.010334954}, 
{0.052622482, 0.14701836, -0.12054378, -0.10082369, -0.11415524, -0.12231433, -0.117943734, -0.014233112, -0.15294135, -0.11866053, 0.08934347, 0.12016402, -0.16236213, 0.039960653, 0.1312506, 0.009390786, 0.116753474, -0.039360985, 0.013415083, -0.031499714, -0.17426811, -0.059876382, -0.015635222, 0.091387734, 0.15452088, -0.012855753, -0.0076224655, 0.10915999, 0.014953747, -0.0573968, -0.12057538, -0.020375296, -0.14652777, 0.10173188, -0.13677356, 0.118203625, -0.0622584, 0.1545202, 0.1610799, 0.086356446, 0.091874644, -0.15861806, -0.04002817, -0.13352576, 0.04896149, -0.08390839, 0.08514713, 0.07692079, -0.0123901665, -0.11286437, 0.16754346, -0.08583909, 0.085934475, -0.152198, -0.16900814, -0.008060634, 0.064500526, 0.05484143, -0.17048855, 0.13664691, -0.035962388, -0.11351115, 0.105465606, 0.12009595}, 
{-0.15485674, 0.13908954, -0.065935664, 0.060787097, 0.13496222, 0.02025026, -0.16566426, 0.025741518, 0.076528236, 0.15358935, -0.11175304, -0.14031251, -0.01983662, -0.07462972, -0.06414615, -0.09554783, -0.04288535, -0.1583093, -0.007535219, -0.04265973, -0.008585319, 0.16468157, 0.17520456, 0.16969569, 0.12677924, -0.17068432, 0.13806622, 0.11630903, -0.14797261, -0.122918874, 0.041976273, -0.052880764, 0.03014633, 0.1412289, -0.095620744, 0.123807505, 0.17588462, 0.09179579, 0.0024285913, -0.07934047, 0.15923105, 0.12703173, 0.03687617, 0.12931602, -0.014453381, 0.08666383, 0.083294734, -0.1651721, -0.044632494, 0.03710954, -0.085083485, -0.032292992, -0.09218586, -0.15070622, -0.019296423, -0.00498724, -0.007819042, 0.13605942, 0.17556624, -0.098300904, 0.076802894, 0.17492093, -0.021607757, -0.17574874}, 
{0.049952254, -0.054096803, 0.038793195, -0.11237644, -0.012776968, -0.1360378, -0.13160543, 0.13934352, -0.034401678, -0.21961056, 0.054971747, 0.16266723, 0.076360896, -0.1417114, -0.09668162, 0.28192678, 0.13387747, -0.025708351, 0.1766992, -0.027698085, -0.14245608, 0.110086314, 0.17149653, -0.02396743, 0.17282072, 0.01429538, 0.15819252, -0.032531407, 0.047134086, -0.2800028, 0.26990864, -0.043889955, 0.16911654, -0.18044181, 0.08715813, -0.27916804, 0.1294022, 0.24847756, -0.01633327, -0.2877404, -0.15587778, -0.102324784, -0.105253406, 0.048414797, 0.14792141, 0.14977391, -0.06415618, 0.06498882, 0.32486236, 0.2304687, 0.13851824, 0.12565525, -0.03655586, 0.062734455, 0.027669579, 0.038273502, 0.096751906, 0.12057755, -0.1344007, 0.08932197, 0.07506347, -0.20262848, -0.05598026, -0.14591908}, 
{-0.07924729, -0.03524202, 0.10011558, -0.07992931, -0.06476761, -0.17006852, 0.12556951, 0.0026891828, -0.05431713, 0.10555698, 0.16010453, 0.14050846, -0.06362223, -0.029998824, 0.0011788458, -0.1209835, 0.04090765, 0.04239762, 0.10787253, -0.14930461, 0.16757391, 0.04044369, 0.1140105, -0.13218111, 0.16226469, -0.045301378, -0.1401456, -0.16840701, 0.10104771, 0.025254145, -0.058631368, -0.15171336, 0.16883285, -0.074061535, 0.049353868, -0.011423737, -0.044426277, -0.046159983, -0.057368606, -0.1293142, 0.023605019, 0.12718482, -0.04280539, 0.11390044, -0.06943972, 0.06284197, -0.15781525, -0.1111484, -0.12457845, 0.13344716, 0.08587922, 0.12611277, 0.088416204, 0.023445621, -0.0571934, 0.09387343, 0.07491706, 0.019875899, 0.15906022, -0.09353983, 0.08595435, -0.11576896, 0.06989469, 0.14109223}, 
{0.120884076, -0.08325056, -0.16268127, -0.10210386, 0.03995736, 0.057873055, 0.09122227, 0.028152317, 0.033773065, -0.1384878, 0.07275288, -0.1341973, 0.08036469, 0.13211103, 0.063618094, 0.05076626, -0.12680057, -0.0887629, -0.09715624, 0.13689633, -0.16789293, -0.078798674, 0.042074308, -0.032416284, -0.0089464635, -0.16712283, -0.068848185, 0.013374075, 0.16571943, -0.02735503, 0.09623845, 0.013535425, 0.15144555, -0.15332927, 0.057989508, -0.08873981, 0.002117157, -0.11615667, 0.06418198, 0.16201706, -0.03804116, -0.093370356, 0.015505061, 0.1757838, 0.043399453, 0.08252786, 0.10991894, -0.007142544, -0.14488502, 0.09527914, 0.10374515, -0.007066041, 0.08685164, -0.14733307, 0.16554855, -0.055884615, -0.030781746, -0.173465, 0.082584396, 0.13534336, -0.019656032, 0.14757584, -0.14253327, -0.117719896}, 
{-0.14000243, 0.03657992, 0.009409741, -0.070036344, -0.004793614, -0.03407842, 0.049485415, -0.070505224, -0.05654484, 0.041317478, 0.046664774, 0.091179386, -0.107635505, 0.0005619079, -0.13641703, -0.08044674, 0.022193104, 0.049951524, -0.12377539, -0.16924597, -0.1531893, -0.043537393, -0.0023757815, -0.0314482, 0.047978416, -0.13413209, -0.0002643466, -0.10238228, 0.11654855, -0.10274141, -0.11419448, -0.06696995, 0.02017966, 0.046381295, -0.12846503, -0.075265, -0.017642677, 0.025337175, 0.08972408, -0.06321248, 0.03938669, 0.0902331, -0.048509628, -0.08793481, 0.119204596, -0.07329986, 0.16898467, 0.087050006, -0.091415755, -0.13859321, -0.08229986, 0.09917243, -0.03409718, -0.055675395, -0.14886683, 0.04790798, -0.009939611, 0.15270971, -0.10154723, 0.024953932, 0.15784858, -0.10688369, -0.16068769, -0.11937458}, 
{-0.01380178, 0.114721656, 0.19145308, -0.007849947, -0.033285983, -0.16515414, 0.123207256, -0.05754244, 0.039453264, 0.14774951, 0.13091457, 0.17108695, -0.21293539, 0.077596866, 0.027659591, 0.14968243, 0.2302078, -0.09032105, 0.1596128, -0.06774789, -0.063274644, 0.060426004, -0.052359104, 0.052200466, 0.071932375, 0.09878995, -0.05002834, -0.216345, -0.062171742, -0.06651513, 0.052512873, -0.01606094, -0.17338783, 0.039284304, 0.014775246, -0.024453113, -0.030798694, 0.21607925, 0.10011681, 0.11356277, 0.19938073, -0.12927988, 0.10340814, 0.18603022, 0.19257927, 0.10506953, 0.012231305, 0.03728311, -0.081909396, -0.14680284, -0.023881068, -0.13519937, 0.06267975, 0.16766532, -0.10043796, -0.041634858, -0.033122882, -0.11597357, 0.07216899, 0.14047723, -0.11279675, -0.08487754, 0.05693249, -0.018638521}, 
{-0.22750045, -0.22458197, -0.1665893, -0.037943084, 0.07718278, 0.16509132, 0.019874718, -0.13503823, 0.14625825, -0.16861759, 0.01335248, -0.09294699, 0.20040528, 0.16410513, -0.043743424, 0.035818607, -0.025749147, 0.23129447, -0.19749592, -0.13380364, -0.16830222, 0.019648887, 0.15004246, 0.157438, -0.17068094, 0.019325301, 0.032436423, 0.02844027, 0.0060890764, -0.070215195, -0.07754914, -0.118326426, 0.054182976, -0.049350176, -0.10593644, -0.17585571, 0.09524181, 0.034587983, 0.090424895, 0.03817322, 0.06241702, -0.06569458, -0.108486116, -0.24600719, -0.0019271786, -0.10106233, -0.08401805, 0.06216976, -0.017564464, 0.2663473, -0.17513053, 0.10749297, 0.07602185, 0.24231115, 0.04082811, 0.26380292, -0.06987468, -0.1517952, 0.10942633, 0.013653835, 0.10996065, 0.1957332, -0.044585224, -0.17159082}, 
{0.03555954, 0.0940576, 0.22751063, -0.16393326, -0.026341027, 0.06119655, -0.085542075, -0.0041013537, 0.18552515, -0.045834415, -0.050026923, 0.013268799, -0.19376701, 0.23899987, 0.06602379, 0.21833616, 0.044956002, 0.09018813, -0.11912404, -0.017407622, 0.040351093, 0.056217264, -0.12020007, -0.13189805, 0.08883696, -0.03208462, 0.017334891, -0.12512752, -0.0007879734, -0.11221377, 0.24484032, -0.017678024, 0.07328297, -0.022917014, 0.030832693, -0.07253998, 0.20203485, -0.02616787, -0.06038143, -0.17272183, 0.14213726, -0.23154463, -0.10552462, -0.054604217, -0.03896857, -0.00843139, -0.11449237, -0.24667925, 0.00034556826, -0.08018408, 0.029296037, -0.15822901, 0.112042405, -0.022969177, -0.02676186, 0.1655085, 0.1030389, -0.0057193977, 0.051760916, 0.1570152, -0.18250544, -0.044090003, -0.17076315, -0.11160839}, 
{-0.10309661, 0.022081112, -0.18502097, 0.108245805, -0.14163075, 0.084529504, 0.10672393, 0.13909753, 0.010158574, 0.055489123, 0.16272907, -0.047915354, -0.029020943, -0.05620121, -0.051111184, -0.06019559, 0.09729717, 0.14775269, -0.16721135, 0.026259169, 0.05045134, 0.12307547, 0.11468558, 0.05756378, 0.00075408816, -0.0435292, -0.03773504, -0.075803526, -0.050607488, 0.047847085, -0.039630674, -0.046435297, -0.12642622, 0.15210766, -0.018451557, -0.010893025, -0.04801486, 0.011187043, 0.10629254, -0.14050598, 0.15997536, 0.17746796, 0.11350833, 0.13680412, -0.023072198, -0.090203695, -0.043074325, 0.0147228325, -0.13489674, -0.14204566, -0.15756018, 0.07259233, 0.020441763, -0.13359734, -0.08735048, 0.16193756, 0.069988675, -0.04618988, -0.1470012, 0.023798324, 0.08635165, -0.05956419, 0.088684544, 0.024059445}, 
{0.12039101, 0.0074898177, 0.030349366, -0.061630715, 0.16739208, 0.12746067, -0.12726913, -0.12076116, 0.18854327, -0.23329504, 0.01689306, 0.116217986, 0.13860877, 0.12685981, -0.04002145, -0.01824831, -0.16518736, -0.048480075, -0.0504904, -0.16814649, -0.17450535, 0.11747699, 0.13558519, 0.065025374, -0.10504106, -0.14769989, -0.042267587, 0.0016359172, -0.0074409842, -0.23746064, 0.02725488, -0.11039821, -0.0109189, -0.08793534, -0.017715842, -0.21467136, 0.23786576, 0.047325946, -0.2420221, -0.048993614, -0.20889537, -0.006811112, -0.055543058, -0.09731031, -0.14830904, -0.06517917, -0.009802133, 0.02585517, 0.06649058, 0.12593448, -0.14755087, 0.044739813, 0.07359051, -0.00022410162, 0.01158908, 0.08010092, 0.04417526, 0.15881474, -0.22338219, 0.017252335, -0.20057061, 0.19515656, -0.1711097, -0.043176115}, 
{-0.070146814, -0.016777486, -0.005305186, -0.059316464, 0.14099707, -0.049797893, -0.08216772, -0.022483826, 0.16378476, -0.099090524, 0.039571345, -0.03434281, 0.077648446, 0.04696457, -0.06531914, 0.15244977, 0.118435666, 0.11712821, -0.027507514, 0.15687753, -0.054318644, -0.107520655, 0.09962545, -0.12362699, -0.1573094, -0.16123416, -0.10767188, 0.09009604, -0.09391847, 0.026812807, 0.021491557, -0.070734926, -0.1759472, 0.013003781, -0.09667446, -0.17566195, 0.05075273, 0.035336375, 0.045972392, 0.12005769, -0.12377889, 0.11538057, 0.13262396, -0.09597824, 0.14704062, -0.018545449, 0.14731638, -0.016817436, 0.13200949, 0.15727945, 0.081254944, 0.11753766, -0.043547347, -0.109071024, 0.05120711, 0.17004712, -0.15196058, -0.099642105, 0.1734211, 0.14002286, 0.1762392, -0.108739965, -0.025978819, 0.08996211}, 
{-0.012762994, 0.03345537, -0.12922409, 0.07625069, 0.07129784, 0.10442872, -0.12227635, -0.049634278, 0.07517333, -0.11603276, 0.014219508, 0.02642776, 0.15592004, -0.0848698, -0.0016528368, -0.1329934, -0.10459385, -0.15071839, -0.09914696, 0.10042857, 0.053095758, -0.07363847, -0.06623259, 0.08330493, -0.17105277, -0.07633118, -0.046829537, -0.13589817, 0.056607053, -0.07020653, -0.101147756, -0.0045292675, 0.087733135, 0.05785452, 0.036826655, -0.11003531, 0.17104451, 0.04588157, -0.03987235, -0.005678028, 0.114130005, 0.03070119, -0.03680545, -0.055538, 0.072854996, -0.17096317, -0.16804062, 0.06584826, -0.09478009, 0.12179546, 0.1237279, 0.02225998, -0.11719626, 0.09540866, -0.17361787, 0.12842031, 0.004250556, -0.15050998, 0.042992264, 0.16235237, -0.12036659, -0.104396015, 0.055948168, 0.16832767}, 
{0.19912629, 0.14405264, -0.064029194, 0.09867849, -0.12682384, 0.10196693, 0.0017217981, -0.082941175, 0.10866327, -0.17928919, -0.051625762, -0.028629094, 0.006759589, -0.018585436, -0.02541464, -0.06970489, 0.08676327, -0.108385086, -0.009161407, -0.0862701, -0.13723141, 0.09807589, -0.18621622, 0.036879838, 0.09002235, -0.17687647, 0.045894794, -0.014695756, 0.043830693, -0.21169941, 0.2149103, -0.09327016, 0.1333503, 0.061344378, 0.11513744, 0.07694774, -0.11438274, 0.2388116, -0.069071844, 0.06714335, -0.16998942, 0.048984453, 0.17174141, 0.14462048, 0.055823695, -0.116521746, 0.007569611, -0.14691989, 0.093869574, 0.00023172144, -0.05363091, -0.106333755, -0.039477684, 0.07410242, -0.035415277, 0.019257931, 0.058916915, 0.09548283, -0.13132347, 0.1465518, -0.14436533, -0.07791582, -0.1647564, -0.06834554}, 
{0.11998866, -0.008514939, -0.23275419, -0.17851962, -0.0029152702, -0.096755676, 0.23671514, -0.051127832, -0.05615425, 0.26837003, -0.10878071, 0.01564221, 0.07888323, -0.20844132, -0.043410737, -0.07559331, 0.07714089, -0.08106747, -0.02978582, -0.1758613, 0.07487978, -0.19869919, 0.04883425, 0.12563188, -0.21286832, 0.010204879, -0.01047588, 0.22348481, 0.07719512, 0.112551995, -0.19629592, -0.12749553, 0.0054731965, -0.025964595, 0.06420928, 0.062859, 0.027045587, -0.1951986, 0.082139604, 0.19499902, 0.1693032, -0.12365401, -0.09610897, 0.042223033, 0.23716563, -0.04401222, -0.1454556, 0.12774287, 0.011549182, 0.07011414, 0.076200075, 0.0390673, 0.1665836, -0.1951036, 0.04607612, -0.18785685, 0.1283064, -0.15077272, 0.073629774, 0.03856931, 0.20495754, 0.1964552, 0.010277138, -0.07427404}, 
{-0.08047477, 0.21791598, -0.10404699, -0.22270916, -0.10368842, 0.09776862, -0.032191426, -0.117384136, -0.1604364, -0.20748651, 0.07296526, 0.121402845, -0.04900624, 0.18726619, 0.17936975, 0.231513, 0.22338, -0.17639695, 0.067775264, 0.09956692, -0.06309539, -0.23569849, -0.19539206, -0.15279993, 0.117775746, -0.09700373, 0.053862933, 0.047301784, 0.12881677, 0.2509312, -0.1767906, 0.08309841, 0.03778276, -0.095179476, -0.036349848, -0.07931546, 0.045176953, -0.0696388, -0.046208262, 0.021270217, 0.094809644, -0.18790044, -0.047014475, 0.032718662, -0.2201221, 0.1282473, 0.1274275, -0.244966, -0.2666318, -0.08036098, 0.009417606, 0.13987754, -0.15649755, 0.07847742, 0.1280026, -0.2108091, -0.03802618, 0.05386078, 0.2849817, -0.08283765, 0.038430814, -0.0044603697, -0.10454604, -0.13941844}, 
{0.23229487, 0.0073515736, -0.016755842, 0.17579436, 0.013540357, 0.019853562, -0.13736433, 0.086730696, -0.20936815, 0.028383791, -0.109989956, -0.02941437, 0.14392215, -0.28470245, -0.1918014, -0.033373695, 0.09812294, -0.015546485, 0.1072601, -0.18000916, -0.0317, 0.15324278, 0.013417269, -0.0064168125, -0.12654792, -0.16522126, 0.0036920388, -0.2214525, 0.09277688, 0.021016771, 0.14756586, 0.1607907, -0.06817526, 0.12363015, 0.16855098, 0.08829823, -0.02963454, 0.081595376, -0.24717072, 0.06337381, -0.002401652, 0.2760849, -0.042294487, 0.019326266, 0.14465933, 0.025396422, 0.11711793, 0.03446619, 0.21746542, -0.14956631, 0.14743191, -0.08017978, -0.045939032, -0.11069259, 0.16535072, 0.07468583, 0.07402504, 0.044218425, -0.029091742, -0.09843281, -0.14282393, -0.21164592, -0.11451957, -0.0715184}, 
{0.24791141, 0.07668645, -0.03682231, 0.095586345, -0.028251845, -0.025013775, -0.12469757, 0.120897435, 0.13071722, 0.21017101, 0.11945993, 0.020786613, 0.13231784, -0.014861628, -0.12152682, 0.102880806, -0.23189864, 0.18196715, -0.07301372, 0.11361376, -0.025313824, 0.03239348, -0.0034835236, 0.12953793, -0.08004321, 0.088574566, 0.061991137, 0.0584289, 0.0026220381, -0.25637978, 0.047936082, 0.05390979, 0.055450246, 0.022563564, -0.072141625, 0.16515647, -0.041080944, -0.0368752, -0.011433046, -0.13641363, -0.15823841, 0.25100166, -0.0065298527, -0.1773758, 0.19996434, 0.056685403, 0.12672146, 0.06806487, 0.17135625, 0.044676624, -0.12921898, -0.12536736, -0.051210355, -0.038185958, -0.1444442, 0.20974733, 0.036566716, -0.17538716, -0.09660553, 0.009450772, 0.1160612, -0.089999706, 0.061131865, 0.01699546}, 
{-0.26655826, -0.17425944, 0.10870592, -0.15303384, 0.18247925, -0.020499721, -0.10947691, -0.18201624, 0.035807535, -0.23609555, -0.12916292, -0.009690061, 0.09001929, -0.03634343, -0.022247253, -0.19546191, 0.12949888, -0.10889374, -0.0024161413, -0.029604198, -0.14087433, -0.046726167, 0.101460025, 0.06698246, -0.113554075, -0.08471328, -0.027852513, -0.09366543, 0.118072495, -0.101611026, -0.09409048, 0.11119852, -0.09589259, 0.12152407, -0.061176784, -0.26864612, 0.04750458, 0.153273, 0.086499475, -0.23881596, -0.13640903, -0.201748, -0.057398483, -0.13814984, -0.10987954, -0.089561254, -0.012667611, -0.01394993, -0.15279731, -0.062069103, 0.10607563, -0.06311364, 0.13363618, -0.07316916, 0.05099465, 0.10658672, -0.056821913, -0.012587319, 0.1869298, -0.12765084, -0.050073035, 0.08903458, -0.22382359, -0.0800729}, 
{0.20450544, -0.077859685, -0.19435577, -0.08242664, -0.024790864, -0.008805111, 0.2245552, 0.16041483, -0.09721304, 0.03899889, -0.0007493084, -0.1343421, 0.20779702, -0.029578092, 0.067571305, -0.14511392, -0.06004339, -0.13361914, 0.14307985, -0.02892984, 0.14644764, -0.047390703, -0.022426374, 0.0025559515, -0.060541905, -0.055389702, -0.053703662, 0.07279027, -0.10536876, 0.09644115, 0.038612872, -0.17444173, 0.028139338, 0.24821168, -0.004304379, 0.00588228, -0.002236988, -0.019917376, -0.104278356, 0.23033062, 0.040874943, 0.052079324, -0.15000308, -0.031114237, -0.057705745, 0.07971601, 0.022365227, 0.14710775, 0.1367302, 0.04267487, -0.17946039, 0.01779908, -0.002275163, -0.15189222, 0.13029428, -0.006994813, -0.17511503, 0.17468777, 0.2029384, -0.019271573, 0.1837387, 0.073962286, 0.16925152, -0.09187996}, 
{0.06397006, 0.07810189, -0.09734552, 0.15250488, 0.16885422, 0.088639334, 0.038155034, 0.022197649, 0.15165569, -0.12199105, -0.056024164, -0.108790666, -0.03434585, 0.16561972, 0.1626433, 0.1344892, 0.108116195, 0.0149182975, -0.012350038, 0.1242616, -0.047719046, -0.07228416, 0.017139062, 0.1421869, 0.027874067, -0.14884472, -0.11558625, 0.0044005066, -0.10822965, -0.0319286, -0.040302455, -0.06935972, -0.0619801, -0.11659597, -0.09237017, -0.12980078, 0.121918395, 0.10277744, -0.15963633, 0.114157304, 0.020342216, 0.16196196, 0.008923754, -0.015616551, 0.05730222, -0.02832888, 0.1067055, -0.05395496, -0.025661573, -0.050160736, 0.10539825, -0.15417759, -0.11758886, 0.09671648, 0.15353651, -0.032087997, -0.077112675, -0.13142061, 0.090344116, 0.011151463, -0.03345339, 0.074033424, -0.1552297, 0.053566113}, 
{-0.194601, 0.030564357, -0.063907854, -0.21499895, 0.10016503, -0.13409543, 0.14867982, 0.009305627, -0.15155664, -0.14927478, -0.17946956, -0.14607802, -0.10639068, 0.16043657, 0.089931145, 0.012196072, 0.0517554, -0.0029868335, -0.010853708, -0.129702, 0.057729423, -0.08925323, -0.12443079, 0.116701975, 0.12206949, 0.021119598, -0.09244176, -0.18007113, 0.1263236, 0.11452848, -0.102526866, 0.056419045, -0.035487607, -0.0029537722, 0.14498375, -0.1796522, 0.09340818, 0.1300584, 0.13975161, -0.07309281, 0.07930553, -0.1169669, -0.0076108426, 0.08043741, 0.0032076424, -0.06450824, 0.029787123, -0.041791502, -0.18580027, 0.19544272, 0.080109246, 0.12342729, -0.15309367, 0.2550246, -0.10349066, 0.18149553, -0.102911614, 0.032356076, 0.24399573, -0.107255414, -0.10843417, -0.07477801, 0.04760625, -0.05207576}, 
{0.088078275, -0.14280027, 0.062455595, 0.100442305, -0.13860117, 0.013971344, -0.04002884, 0.007693395, -0.011018828, -0.096986726, -0.0965666, 0.00046563148, 0.019114733, 0.041924357, -0.16025445, -0.16445524, -0.115545705, 0.027413651, 0.1365978, -0.02585107, -0.07344084, 0.1573099, -0.10067103, 0.14240931, 0.101716354, 0.044491515, -0.12575537, -0.17238829, 0.16140385, 0.03625126, -0.15320106, -0.013597831, 0.020042643, -0.040380806, -0.028142542, -0.089430004, -0.035557523, 0.025094613, 0.053483978, 0.026609957, 0.110413864, -0.1755313, -0.0709216, 0.05080886, -0.15780838, -0.119052835, 0.050135866, 0.01607211, 0.0280585, -0.04739034, -0.040511966, -0.1694103, -0.05042234, 0.13739263, 0.0030899048, 0.09695314, 0.12799023, 0.16832535, -0.04363446, -0.04140009, -0.0071653426, -0.1401427, -0.13433044, 0.10276775}, 
{0.16449524, 0.042778958, -0.17050368, 0.18153699, -0.031580742, 0.15914084, -0.107619345, 0.0024971515, 0.08789788, -0.05660856, -0.0047542574, -0.07612324, -0.095522806, 0.047115095, -0.049017467, 0.12021071, -0.0022287897, 0.042185154, 0.1627191, 0.010161266, -0.003336221, -0.16487062, -0.15460362, 0.02452445, 0.1291943, 0.15531026, 0.0176951, -0.018249115, 0.14565526, -0.037924275, -0.08944874, 0.013904378, -0.0009613633, 0.12913883, -0.12035543, -0.007995363, -0.08914115, 0.010829265, 0.08674858, 0.017054332, -0.042743325, 0.07264249, 0.044196233, -0.14372128, -0.091450654, -0.11314026, -0.078091495, -0.06311544, 0.14602175, 0.026680449, 0.012765303, -0.028308392, 0.09234175, -0.12129754, 0.13200991, -0.03553843, -0.022975817, -0.15538214, -0.096294, -0.0951966, 0.11140063, 0.067056105, -0.0037655234, -0.118826}, 
{0.070593834, -0.060966987, 0.12656987, 0.13738072, -0.09461029, 0.07150963, -0.04878671, 0.116027966, -0.025168369, -0.13987812, -0.014083512, -0.031714022, 0.033109166, -0.055360805, -0.09277364, -0.16754055, -0.07906513, 0.10035448, 0.15537468, 0.16651882, 0.092334524, 0.04956591, -0.13897307, -0.063941024, 0.0146359205, -0.014222053, -0.019881127, -0.055574875, 0.1581174, 0.07744501, -0.08105032, -0.09655169, 0.12311898, 0.011791635, 0.021868825, -0.004797379, -0.0481926, 0.16027312, 0.091599226, -0.16992623, -0.08653641, 0.011592656, 0.009010196, 0.0045078136, -0.12402152, 0.13976751, -0.009192273, 0.08073031, 0.027712442, 0.10077596, 0.08323992, -0.05812434, -0.050028816, -0.12563941, 0.024764061, -0.16747288, -0.039941914, 0.13376342, -0.0017827302, 0.03181968, -0.07472749, 0.14760204, 0.051171035, 0.10266732}, 
{-0.14195548, 0.15726934, 0.04952466, -0.10241347, -0.10014978, -0.13494945, -0.1183163, -0.09215729, -0.09858119, 0.09940452, -0.13216436, -0.09397504, -0.01203929, 0.13523227, 0.106749885, -0.17733666, 0.0045360373, 0.10654276, 0.13068762, 0.07620765, -0.027035683, 0.05340638, -0.13407451, 0.08882268, 0.12069465, -0.06879674, 0.15557949, 0.10312359, -0.13931109, -0.093774624, -0.11082385, 0.03631267, 0.01269041, -0.09414806, 0.112069234, -0.09435449, -0.083156765, 0.13640511, -0.12606134, 0.14657165, 0.10059323, 0.0789776, -0.04314594, -0.09451711, -0.123220265, 0.034313947, -0.13839671, -0.16777186, 0.02587495, 0.07367035, -0.09434859, -0.11467432, -0.060822792, -0.086348705, -0.007358551, -0.17231691, -0.18091084, 0.05999316, -0.014147848, -0.15943511, 0.10900926, -0.11465331, 0.009061068, -0.16183205}, 
{0.069599494, 0.0017935187, 0.09792854, -0.07796278, -0.1114243, -0.00700067, 0.033920795, 0.054160476, -0.17523327, -0.08374629, 0.15354644, 0.10378493, -0.008973777, -0.061438553, 0.13228269, 0.1725127, 0.059326112, -0.06719312, 0.17501862, -0.1681913, 0.16717915, -0.10749811, -0.16015793, 0.024846151, -0.061919533, 0.10493629, -0.057030544, 0.03794889, 0.03673005, -0.1539847, -0.1556637, 0.073277935, 0.12755953, 0.16557498, -0.06764358, 0.0995055, -0.041960135, 0.17083727, 0.023681134, -0.03183137, -0.07446463, -0.029588059, 0.086499825, 0.10168274, 0.04609306, 0.12413217, -0.08259126, 0.13831155, -0.04432723, 0.05914691, -0.053239435, -0.08842434, 0.11573364, -0.14488097, -0.03235218, 0.09850161, 0.13980435, 0.01750733, -0.00050087273, -0.14059426, -0.011700675, 0.13287981, 0.17146645, -0.030373216}, 
{-0.03239291, 0.08558913, 0.17825055, 0.16784541, 0.1456475, -0.17422943, 0.16989289, 0.10147913, -0.012877452, 0.03435647, -0.12456159, -0.107036345, -0.14254814, 0.18084994, -0.0788132, 0.054669738, 0.16517994, -0.1751352, 0.004437599, -0.05712972, -0.13537665, 0.1520324, 0.060685556, -0.15483728, 0.1071265, 0.088799566, 0.14023884, 0.04167298, 0.06463413, 0.21647215, 0.06981578, -0.17698789, -0.024653122, -0.008399164, -0.060204707, 0.03934001, -0.14172903, 0.13792564, 0.14990643, 0.15483657, -0.047296893, -0.051581662, -0.04471174, -0.028873917, 0.10275771, -0.15109009, -0.12537849, 0.10486007, -0.14987656, -0.011532565, 0.053354546, -0.17182174, -0.017362162, -0.061855353, -0.08685454, 0.06764563, -0.11837432, -0.017141212, 0.03469685, -0.054538906, 0.11313943, 0.15823422, -0.0045657125, -0.15455166}, 
{0.11096983, -0.11876611, -0.16093352, 0.06671134, -0.024569288, 0.04867439, 0.08976023, -0.01940909, 0.17141674, -0.09762938, -0.004942015, -0.09060025, 0.05339171, 0.1764976, 0.041183755, 0.08017354, 0.17638569, -0.114369474, 0.14554651, 0.10323806, -0.09742168, -0.07909986, -0.13071626, 0.14194714, -0.15093958, -0.0931235, 0.036781296, 0.0517482, 0.08755587, -0.11862837, -0.16691943, -0.09484929, -0.05639328, 0.14777185, -0.027562857, -0.102156706, 0.043544605, 0.17617913, 0.1480477, 0.16866009, 0.08354126, 0.02484548, 0.10431321, -0.10305503, 0.07444887, -0.09015017, -0.11491662, 0.005420208, 0.09657781, -0.11012204, -0.11728962, -0.118705034, 0.16346364, 0.12597103, -0.047749296, -0.10304875, -0.0035668015, 0.17444332, -0.13002008, 0.10252048, 0.0427479, 0.05414231, -0.0645696, 0.166607}, 
{0.050199445, 0.19175147, -0.0045365826, 0.19416545, -0.10600877, -0.14903012, -0.08522938, -0.13956739, -0.079521045, -0.106621385, 0.09743635, 0.10988964, 0.11715, -0.021968253, 0.041457873, -0.16035259, -0.073083654, -0.025294188, 0.105370894, -0.1596866, -0.07741752, 0.12272339, -0.21058923, -0.1229555, 0.0014827027, -0.006229361, -0.07642551, -0.19215441, -0.14194661, 0.16009639, -0.13105783, -0.11580506, 0.0051466823, -0.022161942, -0.060260847, -0.12464458, -0.16583283, -0.09168874, 0.05358663, 0.10337417, 0.085395016, -0.0010493431, -0.039330974, 0.13084863, -0.10003471, -0.17634228, -0.14155562, -0.11659849, 0.14141881, -0.020245258, -0.08800913, -0.14920051, -0.14666575, 0.05854205, 0.10614063, 0.013318729, 0.012022337, 0.15160498, 0.1351534, 0.151525, 0.13566516, -0.20002487, -0.12595086, 0.049932167}, 
{-0.08082584, 0.13835569, 3.5426905e-07, -0.10118627, 0.14388718, 0.11342822, 0.08160842, -0.09808288, -0.06804091, -0.1243642, -0.085317716, 0.0057466775, -0.12081607, -0.08807695, 0.09598583, 0.11152058, -0.0011602256, 0.12731645, 0.071975544, 0.01236555, -0.012252465, 0.013936013, -0.13972494, 0.09782885, 0.15976976, 0.08987089, 0.035005912, -0.054312557, 0.15409352, -0.14976631, 0.12727115, -0.12876672, 0.16741066, 0.06615481, 0.049789637, -0.041857798, 0.1270033, 0.06640766, -0.14150627, 0.0212222, 0.07437434, -0.12449835, -0.17485939, 0.14937994, 0.072444886, 0.038511887, 0.14451952, -0.11322175, -0.16345447, 0.13922475, 0.060985275, 0.08155601, -0.004400019, -0.14142801, 0.056782335, -0.15664722, -0.044477314, -0.10956227, 0.07735796, -0.057220537, -0.025415774, 0.110674694, 0.057771564, -0.01714766}, 
{-0.07346678, 0.04860233, -0.1684734, 0.09883547, -0.01542233, 0.0028107315, 0.1510087, 0.10240901, 0.08147579, -0.057373524, -0.17512253, -0.12642516, 0.12499848, 0.07874256, 0.05318439, -0.1648671, 0.07056179, -0.023593022, 0.1872149, 0.13397457, -0.028868183, -0.07500656, 0.025079664, 0.14794396, -0.19348879, 0.014727077, 0.14900899, 0.15425134, -0.06423302, 0.00060461514, -0.18695205, 0.1534219, -0.16931026, 0.14957093, -0.07420256, 0.11256385, -0.04337706, -0.031155158, -0.03191688, -0.0665401, -0.072335176, 0.24727672, -0.1743436, -0.03916559, -0.08594517, 0.009793326, -0.086245894, 0.052066438, 0.15953286, -0.11014964, -0.17056288, -0.059836805, 0.1593966, -0.053593002, -0.16860303, 0.01252592, -0.15827318, -0.11968711, 0.093302414, -0.07480603, 0.20888841, -0.07944513, 0.12680349, 0.045666873}, 
{-0.053872526, -0.14182384, -0.006229058, 0.1094871, 0.047490135, 0.06312683, 0.17361327, 0.00057952106, -0.0807977, -0.02378738, 0.086751744, -0.1735264, 0.11976908, 0.038146064, 0.08145721, -0.10084978, -0.1404432, 0.122892365, 0.06497531, -0.08607541, 0.15218069, 0.1391673, -0.14445798, -0.018862948, 0.1529973, -0.14136676, 0.01283966, -0.10478073, 0.12940507, 0.13565116, 0.116572246, 0.08863689, -0.1130668, 0.04254046, 0.07160066, 0.066461906, 0.02662155, -0.13984944, 0.067084506, 0.14137347, -0.13013665, 0.14473145, 0.08076684, 0.07440959, -0.06946488, 0.087223455, -0.17078374, 0.16871198, -0.06637294, 0.08618571, -0.045354053, -0.13775836, -0.15319465, -0.09684283, -0.14319687, 0.016554192, 0.11165188, -0.08390527, 0.015128359, -0.057265557, 0.039583355, -0.00013431907, -0.16038026, -0.1244765}, 
{-0.0077085323, -0.15121585, -0.07430846, -0.28347033, 0.28412092, -0.17531744, 0.013400827, 0.07552327, -0.009620392, -0.19935119, -0.066669375, 0.14840414, 0.0014924378, 0.32023618, 0.19450466, 0.004874747, 0.040183872, 0.30357087, -0.18529564, 0.046605334, -0.033280075, -0.10473165, 0.26856768, -0.123705, -0.0031610087, -0.12052583, -0.071854524, 0.09908391, 0.026865661, 0.013829893, 0.044346873, 0.16507575, 0.17389567, -0.24776389, -0.13984409, -0.12717932, 0.30121946, -0.13342148, 0.055621892, 0.029387986, -0.13153453, -0.1670284, -0.02901557, -0.1803872, 0.1483155, -0.027088076, 0.12912618, -0.05673247, -0.27082375, 0.31663552, -0.013888916, 0.14866008, 0.121319555, 0.2737636, 0.028550819, -0.00076808385, 0.09540742, -0.071297325, 0.19327986, 0.14169079, 0.09072757, 0.18524963, 0.29333693, 0.14268701}, 
{-0.0775808, -0.15550467, 0.011564299, 0.04165992, -0.050813675, 0.0708261, -0.059263483, 0.005295664, 0.0652214, 0.08050279, 0.1466168, -0.15591978, -0.16358246, -0.04607691, 0.07756166, -0.028107569, 0.108434066, -0.1705296, 0.017354548, -0.12819494, 0.07830946, 0.106528476, -0.040924415, -0.06288095, -0.07912489, 0.0765204, -0.08354917, 0.11597042, -0.15359998, 0.030154005, -0.09750745, -0.019759074, -0.11202459, 0.03317146, -0.11688375, -0.05668869, -0.06880258, -0.14310828, -0.111689396, -0.07609786, -0.13468274, 0.038344905, 0.017357588, 0.12233336, -0.06373029, 0.087295905, 0.15477137, 0.037234932, -0.16098477, -0.13966563, 0.078978136, 0.06655897, -0.1737366, -0.06503119, 0.11132024, 0.070127174, -0.06439718, -0.022047356, -0.026649952, -0.14409304, 0.029997304, -0.12004227, 0.04788375, 0.1542693}, 
{-0.15078034, -0.2380291, 0.008719619, -0.040311977, 0.031548526, 0.15109257, 0.3161781, -0.0780448, -0.038851507, 0.20775422, -0.10225745, 0.15093876, 0.109806605, 0.10539696, 0.14997971, -0.05671804, 0.22273737, 0.02502286, -0.21463558, 0.09439807, -0.04432942, -0.32005268, 0.12546453, -0.03855416, -0.019126559, 0.13600466, 0.14283815, 0.29201454, -0.16067971, 0.09273251, -0.19461013, 0.07127598, 0.032330513, -0.17355993, -0.0337386, -0.012343483, -0.11028729, -0.28391773, 0.35689363, 0.33122796, 0.32457697, -0.19137925, -0.11415541, -0.1710567, -0.101160415, 0.17534636, 0.07241452, 0.23000155, -0.3419201, 0.144965, -0.07233095, 0.1029235, -0.15955998, -0.08949331, -0.0419517, -0.16977371, 0.008657406, -0.15136573, 0.4598396, 0.08266876, 0.19795793, 0.1756099, 0.28497392, 0.050789103}, 
{0.16870727, -0.083082914, 0.018493762, 0.05444258, -0.10158973, -0.10492002, -0.0778784, -0.10363973, 0.06552752, -0.033428743, -0.12878211, 0.15312974, -0.07938943, -0.042213093, -0.17803563, -0.06218978, -0.09094198, -0.040331054, -0.11633773, 0.08277644, -0.0031817853, 0.015340497, -0.07378775, -0.01902096, -0.10903133, 0.04499623, -0.03774215, -0.09702208, 0.037557095, 0.11620127, -0.13132519, -0.01524283, 0.15651266, 0.018472556, -0.10806439, -0.14897397, 0.13897885, 0.16799778, 0.021205073, -0.13347821, -0.0320931, -0.038799662, 0.012377307, -0.1453846, -0.123987265, -0.14235169, -0.0047591776, -0.15703207, 0.04339503, 0.07969332, 0.017133994, -0.12826538, 0.15393661, -0.021219537, 0.15702583, 0.06684668, 0.10366771, 0.029302847, 0.118521154, 0.15282343, 0.16950256, 0.04221816, -0.05101724, 0.1348388}, 
{-0.13903517, -0.067525364, 0.04463023, 0.09136762, 0.0076337606, 0.07920034, -0.15322997, -0.09974722, 0.121563986, -0.11162879, 0.053644925, -0.055772714, 0.049826592, 0.074303135, -0.12388973, -0.100533254, -0.054476194, 0.13810317, -0.05686061, 0.04321283, -0.14546803, -0.17352203, -0.16173436, -0.17211509, -0.15943149, 0.14739372, 0.15421452, 0.15631051, -0.050140962, 0.05197178, -0.15980369, 0.10894488, 0.08492555, -0.16661121, 0.08429472, 0.02382034, 0.11289404, -0.17104506, 0.09301697, -0.14735562, 0.009635985, -0.023942277, 0.03733696, -0.15634723, -0.047934458, 0.16093858, -0.05344718, 0.014100656, 0.0430554, -0.04729572, 0.073093, -0.07411477, -0.14550036, -0.024783194, -0.02413641, -0.11701533, -0.118611306, -0.104515456, 0.0055530965, 0.11659913, -0.16089424, 0.044137865, 0.053095415, -0.11257132}, 
{-0.15394285, -0.05887738, 0.16051778, -0.113642424, 0.11125793, -0.12170635, -0.035839327, -0.081600845, -0.048451137, -0.018630922, -0.12650077, -0.009137854, -0.15186141, 0.084117256, -0.104605146, 0.10155259, 0.1661931, 0.094284154, -0.10905687, 0.026676657, -0.08682217, 0.015453175, 0.09096615, -0.032491297, -0.097561605, -0.14797164, -0.13986436, -0.15435243, -0.017960966, 0.19826399, -0.16921742, 0.03327042, 0.13097568, 0.021666303, -0.16720463, -0.19569969, -0.0055881874, -0.061360613, 0.08048127, 0.16989285, 0.05498487, -0.119021505, 0.12628885, 0.16126382, -0.046925325, -0.13308288, -0.124781854, -0.047393754, 0.02143767, -0.1905223, 0.15899457, -0.013873726, 0.13901442, -0.041088533, -0.022073269, 0.23601009, 0.093665555, 0.14874282, 0.25726348, 0.10365016, 0.07589267, 0.19866252, 0.03076634, 0.15232034}, 
{-0.04348585, -0.042128846, -0.13723987, 0.17012377, -0.16577017, -0.16051605, 0.11552085, -0.12875415, -0.14136079, -0.14776112, -0.16050228, 0.11796944, -0.033940524, 0.0014877021, 0.020164534, 0.013135523, 0.12225832, -0.10959938, 0.09596516, 0.1530271, -0.16566476, 0.16980486, -0.098837055, 0.019892842, -0.023584485, 0.05476941, -0.12801245, 0.00026485324, -0.012980089, -0.16662854, -0.16969576, 0.0035762042, -0.01692988, 0.12969916, 0.07871826, 0.008090049, 0.13452594, -0.13074577, 0.13666795, 0.16999803, 0.006734863, -0.14349796, -0.017278522, 0.1190186, -0.026501387, 0.12530832, 0.16631411, 0.102869675, -0.027722046, -0.13567391, -0.042637855, 0.16843869, -0.04058607, -0.039526448, 0.1453525, -0.01729618, -0.002341047, 0.019484743, 0.13043521, -0.13542461, 0.07281092, -0.02566111, 0.11563109, 0.028305188}, 
{0.11612994, 0.23233996, 0.21318834, 0.12590276, -0.08655389, 0.098111495, 0.22777776, -0.13155258, -0.24857965, -0.057619832, 0.1351472, 0.034564793, 0.05574618, 0.16360004, 0.07189007, -0.10099246, 0.16208115, -0.21246713, 0.10704043, -0.08039879, -0.15941624, 0.08420336, 0.017392492, -0.11379893, 0.04202094, 0.029442199, 0.09533447, -0.2329427, 0.17466299, 0.1772434, 0.08303445, -0.019545436, 0.1649095, 0.20304964, -0.06064038, 0.009732937, 0.02534817, -0.14307319, 0.09562432, 0.22132373, 0.10711723, 0.20577781, -0.15378512, 0.015220714, -0.031238118, 0.012956828, 0.036928773, -0.23484981, 0.16894333, 0.04709683, 0.13681185, -0.08644533, -0.10077544, -0.08589738, -0.12518007, -0.04065871, 0.16232459, 0.1755392, 0.012868919, 0.14882958, -0.061913125, 0.12546484, -0.0414049, -0.09989161}, 
{-0.17345864, -0.04662563, 0.008411333, -0.07990794, 0.16326965, 0.049249098, -0.11690621, 0.1264049, -0.09059103, -0.0107180625, 0.06706563, 0.004748687, 0.09977727, -0.047849238, -0.028587833, 0.06721398, 0.15792792, 0.15888728, 0.11240511, 0.1041822, -0.14974897, 0.1617118, 0.13850762, 0.023501292, -0.073941715, 0.11801468, -0.13689713, 0.052042216, -0.0018596053, -0.14345711, 0.08007504, -0.053452194, -0.17044526, 0.05051911, -0.14718501, -0.02642788, 0.087644145, 0.16420294, 0.07165635, -0.031665266, -0.12810484, -0.10845117, -0.094251946, -0.010307565, 0.03400846, 0.13373716, 0.13135739, 0.01902324, 0.119593605, 0.10121809, -0.1357545, 0.02486369, -0.10509207, 0.09304236, -0.03454213, -0.017015606, -0.16008288, 0.12466098, -0.07542027, -0.060578212, 0.039965197, 0.004180044, -0.17256816, -0.006180078}, 
{0.24470516, 0.2147959, -0.037521422, 0.19883654, -0.23231368, -0.15199421, 0.01877097, -0.07453071, -0.08085031, 0.10796196, 0.027225416, 0.085387245, -0.015967285, -0.18162672, -0.17509218, -0.086865686, 0.039025493, -0.201331, -0.00809948, -0.019001193, -0.101659335, 0.029074896, -0.1936331, -0.043394268, -0.17575693, 0.027283246, 0.042881034, -0.016955806, -0.13920766, 0.10393359, -0.115920424, 0.046813514, -0.00902532, 0.1645769, 0.0837345, 0.16983329, -0.28911865, -8.540449e-05, 0.0060365433, 0.15699372, -0.09961947, 0.07190086, 0.10641743, 0.17389098, 0.15658641, -0.09440738, -0.118905574, 0.014347722, 0.021315688, 0.054632712, -0.11323876, 0.00967136, -0.098619565, -0.1474734, -0.17646725, -0.009611228, -0.0042298916, -0.13373286, 0.07553511, 0.16245139, -0.037065867, 0.0463597, 0.10461325, -0.0843264}, 
{0.11364123, 0.12745267, 0.069720276, 0.18859975, -0.042609632, -0.03533709, 0.111009635, 0.16406104, 0.061106805, -0.083447754, 0.08546614, -0.07317194, -0.002035945, 0.08329697, -0.07509627, 0.1289053, -0.14590898, 0.12583454, 0.12471287, 0.10034207, 0.09092201, -0.004209967, 0.13239844, -0.16295674, -0.0347069, -0.011524584, -0.14860041, 0.038108125, -0.08137098, -0.10951506, -0.15721233, 0.06441323, -0.08799777, 0.08194972, 0.020398945, 0.184648, -0.156957, 0.020192308, 0.07378927, 0.18074198, 0.15137696, 0.102131486, -0.1600843, 0.16767389, -0.13807777, 0.004128784, -0.058951847, -0.18534535, 0.14669041, -0.15671156, 0.15429565, -0.027674884, -0.14334607, -0.17709292, -0.051018, 0.067784704, -0.113856904, -0.123372994, 0.14274037, -0.022692962, 0.14215578, -0.08090966, 0.029571455, 0.02916427}, 
{-0.08714872, 0.08727065, 0.22728571, -0.18302701, -0.057526685, -0.04744576, -0.17616048, -0.005531071, 0.082969435, -0.07381613, -0.062683746, 0.12390469, -0.0389039, 0.02211218, -0.009530303, 0.02628708, 0.17851052, -0.050452583, 0.12634876, 0.13482775, -0.06618817, -0.0940602, -0.10657322, 0.031917676, 0.25222155, -0.12430803, 0.07492076, -0.056339074, -0.13020965, 0.087108545, 0.14454655, 0.17563109, 0.12567075, -0.11107012, -0.03238766, -0.11069102, 0.014318072, 0.19530077, 0.22738235, 0.10565195, 0.15033787, -0.12634191, -0.15988988, 0.2154005, 0.04126807, -0.16277534, 0.11856933, 0.04458984, 0.045047533, 0.06908052, 0.22196175, 0.002425298, 0.029328048, 0.22517754, 0.04079035, 0.07473495, -0.023400981, 0.04076721, 0.095916584, -0.17527233, -0.03474438, 0.14420387, -0.121369325, -0.03000851}, 
{0.03676431, 0.078443125, 0.027057946, -0.0138302, 0.16376044, -0.05569917, 0.07430826, 0.082379684, -0.091377065, 0.117489144, -0.04175286, -0.010630026, 0.12124865, -0.123669595, 0.10817774, 0.10894276, 0.10846327, 0.08527006, 0.047385156, 0.0136065185, -0.0547332, -0.1658554, -0.14804894, 0.06819941, -0.056074694, -0.042942032, -0.1096728, -0.037009954, 0.07815038, 0.045425072, 0.054487407, -0.0027565658, -0.11666088, 0.09763174, -0.1685458, 0.02562946, 0.058045194, -0.027864203, -0.02009283, 0.020100638, -0.0069079995, 0.16949005, -0.0006402135, -0.07028345, -0.12872984, -0.0033407658, -0.017006293, -0.11755788, 0.061127096, -0.010045022, -0.109184615, 0.03703499, 0.12634237, -0.1259118, 0.07350777, -0.036809757, 0.15464668, 0.11005877, -0.15697525, 0.013861388, -0.15104795, -0.075715214, -0.0015159845, 0.099597976}, 
{-0.20655686, -0.06864991, -0.119640164, 0.17517827, 0.17172606, -0.13686389, 0.08386243, 0.064829, -0.13111098, 0.11851196, -0.13399465, 0.12797461, 0.12122019, 0.2219868, 0.14017531, -0.09080332, -0.19171414, 0.14401665, -0.14213234, 0.07035264, 0.11743443, 0.21018867, 0.06660056, 0.11817537, 0.16090354, -0.12636362, -0.04941055, 0.20629762, 0.05545716, 0.055045824, -0.2028158, 0.09677816, 0.0031187385, -0.095798954, -0.026563555, 0.041685756, 0.18969105, -0.029670384, -0.08495614, -0.22352773, -0.12220144, 0.0045580184, -0.11728705, 0.031372692, 0.14632097, -0.014479592, -0.10160088, 0.19063751, -0.14996319, 0.2211626, -0.0071650706, 0.037811622, 0.12747258, 0.052671235, -0.1338495, 0.071426764, -0.13003008, -0.13488078, -0.08311278, -0.031187277, 0.13853869, 0.16453514, -0.03759515, 0.08619498}, 
{-0.1718192, 0.0400497, 0.080641225, 0.00964346, 0.124677986, -0.14180687, -0.099829495, -0.16513583, 0.057860278, 0.18285875, 0.16685645, -0.116354, 0.007241448, 0.23585722, 0.076436944, -0.07427713, -0.10834976, -0.022909803, -0.023348534, 0.0998726, -0.16620205, 0.015001772, 0.22646913, -0.17245466, -0.14324345, -0.071665324, -0.006758269, 0.14786294, 0.16378932, -0.08487464, 0.09146853, 0.08198636, 0.12943418, -0.17088544, 0.009875551, 0.10790839, 0.079832844, 0.05298318, 0.15716203, -0.06998806, 0.16845569, 0.026588554, 0.06482974, -0.078282915, 0.09944552, -0.12428503, 0.007686779, 0.1406352, -0.08232801, 0.13815632, 0.18439512, 0.005122483, 0.052965634, 0.026296174, 0.0068077743, 0.020344287, -0.02388635, -0.05769561, -0.07244356, 0.14930145, -0.08353569, 0.14841613, -0.0484651, 0.04259634}, 
{-0.16630928, -0.13942792, -0.016644444, 0.094742395, 0.18146811, -0.16351195, 0.13376145, -0.16842765, 0.063826546, -0.06594841, -0.071826816, 0.036628693, 0.14887647, 0.15988237, 0.12515281, 0.020852989, -0.019042877, -0.12489391, -0.044330645, -0.05508628, 0.07439385, 0.21937297, 0.1852439, -0.06352621, -0.12611945, 0.040838033, -0.07210562, 0.020029202, -0.17025869, -0.19038461, 0.020612612, 0.0050189896, -0.027348831, 0.03411316, -0.12585993, -0.0904317, 0.0747547, -0.13374177, -0.12841098, -0.21731892, -0.03934414, 0.2303703, 0.09061016, -0.16192462, -0.037485614, 0.04790403, 0.06453964, 0.2062007, -0.09577684, -0.08694737, -0.15457302, -0.16287819, 0.056049064, 0.14099315, 0.035441995, 0.12506905, 0.10883743, -0.13128266, 0.18840934, 0.1166988, -0.08071817, -0.0040143975, -0.08307576, 0.004000321}, 
{0.16459449, -0.15103483, 0.009168506, 0.15772934, -0.034527287, -0.16516274, 0.04812555, -0.17249158, 0.059841648, -0.16095637, 0.12374841, -0.16882181, 0.098346636, -0.06158173, -0.06830461, -0.10527907, -0.15768796, -0.063523605, 0.024048269, 0.03699684, -0.17201461, -0.15588969, -0.15231925, -0.15771341, 0.102414384, -0.08728149, 0.15658186, -0.003128603, -0.16628331, 0.007993609, 0.009107932, 0.04513721, -0.0063612163, 0.047870815, 0.021535397, 0.025373876, -0.07868673, 0.17463686, -0.0927186, 0.107594416, -0.101810515, -0.13750595, 0.02247852, 0.05266379, -0.07599587, -0.11168236, 0.17060934, 0.15037526, 0.053582728, 0.023505464, 0.058540374, 0.101116434, -0.10529817, -0.011852413, -0.071758464, -0.15343164, 0.12658034, 0.061768398, -0.1392973, -0.119957685, -0.03127882, 0.024184912, 0.1568111, -0.080160186}, 
{0.058567785, -0.17969139, -0.019313807, -0.22171749, -0.2211972, -0.057986774, 0.026453381, 0.142846, 0.2486736, -0.17493768, 0.052124027, 0.08577852, -0.047193866, 0.049425475, 0.07466985, 0.14097477, -0.010921203, 0.25459665, 0.06140313, -0.07716033, 0.05665742, -0.08602322, -0.026581326, 0.08465536, 0.10586382, 0.09104825, -0.15733537, -0.06218742, -0.17003328, -0.07789727, 0.15348989, -0.12297288, -0.019384593, 0.07514017, 0.17359607, -0.08233086, -0.11710842, 0.092843145, 0.22830063, -0.092525706, -0.16784327, -0.26026508, -0.07921993, -0.044749565, 0.2328227, 0.03195347, 0.140283, 0.15040316, 0.11397247, 0.09958551, 0.077119686, 0.1703677, -0.17137904, 0.17233421, -0.07876571, -0.2045737, 0.07025871, 0.010438067, 0.027058704, -0.039011456, -0.0880917, -0.17053802, 0.15942517, 0.069643036}, 
{0.098691225, -0.1199829, 0.09186243, -0.034832112, 0.0700155, -0.15809903, -0.030186886, -0.1421123, -0.15896821, 0.032353748, 0.18436919, 0.026899382, 0.1532653, -0.114822626, -0.08866841, -0.06736656, 0.16148499, 0.03401124, -0.16907924, -0.08908618, 0.1577857, -0.033571873, -0.030616105, 0.17031996, 0.1616572, 0.0737489, -0.08103035, 0.04102173, 0.15162583, 0.11184801, 0.07824226, -0.006930411, 0.047444537, 0.11869582, 0.13262655, 0.14040776, 0.057756793, 0.13331899, 0.1636386, -0.1810251, 0.046954922, 0.09179322, -0.026348516, -0.027042765, -0.047085106, -0.15441568, 0.16467221, -0.023016581, 0.005944597, -0.10257456, -0.03311115, -0.023744643, -0.080199495, -0.14460419, 0.007836357, 0.09317684, -0.10491951, 0.15374972, -0.14712074, 0.008656777, 0.11283018, -0.06305624, -0.17668115, -0.027713105}, 
{0.015100184, -0.13472977, 0.023707561, 0.09471468, -0.0043471646, 0.0044827014, 0.13357708, -0.07505473, 0.080188274, 0.11500032, -0.12549877, 0.14287464, 0.124965765, 0.072837494, 0.07747295, -0.16391237, 0.07016927, -0.11235174, 0.02501074, 0.050450534, 0.08795686, -0.10914122, -0.12998484, 0.00056400895, 0.09060387, -0.0837428, -0.081426024, -0.14121056, 0.12695326, 0.14825882, 0.120887324, 0.17069931, 0.07724111, 0.08542772, 0.071403846, 0.017989246, 0.039480235, 0.01227213, 0.086242564, 0.03409326, -0.119594045, -0.12331864, 0.15794669, 0.0553775, 0.16408516, -0.11323463, -0.058364704, -0.05616949, -0.027539797, -0.0070027066, 0.11524069, 0.08233245, 0.12341346, 0.013105153, 0.09936316, 0.093002595, -0.021370754, 0.15264453, -0.07283705, -0.15820128, 0.051403612, 0.040056206, 0.07809819, -0.04954788}, 
{0.07838189, 0.17406194, -0.00281218, 0.21152158, -0.24456108, -0.0048412383, 0.1644162, -0.17949222, 0.0751905, 0.20434429, -0.037356317, 0.061525047, 0.04224409, 0.021187786, 0.032382756, 0.11177022, -0.10904979, 0.052079156, 0.123622924, 0.09965631, -0.08614086, 0.15622294, 0.1264343, -0.13432205, -0.2070914, -0.03334648, 0.04717607, 0.18655773, -0.003072083, 0.012916692, 0.0015577454, -0.026892243, 0.053120196, 0.13905947, 0.1407948, 0.12047005, -0.010988573, -0.18611522, -0.12579526, 0.15729603, -0.16053447, 0.09842789, 0.09518768, 0.0064737047, 0.05063273, -0.14338838, 0.14876367, 0.21849822, 0.16346885, 0.17780942, -0.2092239, 0.07346435, 0.090912096, 0.09349738, 0.014712244, 0.024346739, -0.090186305, -0.07497056, -0.15745407, -0.053559266, 0.11978983, -0.19280122, 0.050840806, -0.14434102}, 
{0.025087737, 0.2188664, -0.11435975, 0.09042914, -0.14410757, -0.07385185, -0.24009277, -0.063255, 0.071943685, 0.175423, 0.14079656, 0.10286887, -0.12242427, 0.01134402, -0.090710744, -0.18880084, -0.063408695, -0.13186364, 0.12770464, -0.16966303, -0.09384413, 0.20843862, -0.20963503, 0.08828442, 0.002475845, 0.12988725, 0.1780223, -0.16079375, 0.1659619, 0.043006238, 0.22568788, -0.03212681, 0.022902474, 0.103902705, 0.10981701, 0.21447724, 0.024741812, 0.17301919, -0.037528567, -0.057176087, -0.018537998, -0.06418034, 0.116768464, -0.029951164, -0.09039731, -0.10469563, -0.09823364, -0.073604286, 0.28293744, -0.25270894, -0.011392864, 0.09493472, 0.053077683, -0.16257104, 0.018894091, 0.020088758, 0.07643093, -0.12580018, -0.12557375, -0.031066969, 0.18891181, -0.25465882, -0.14866455, -0.089053296}, 
{0.08187972, -0.15976909, -0.1438496, -0.049840167, 0.16287278, 0.11724578, -0.11118684, 0.17586593, -0.16236559, -0.11690204, -0.047075674, -0.018012762, 0.1739602, 0.16935648, 0.021068782, 0.04026954, 0.033885047, 0.0045350045, 0.04184082, -0.047328845, -0.13221352, -0.023157716, -0.13007714, 0.16569157, 0.15440245, -0.13139634, -0.015374243, 0.1459875, 0.081636295, -0.118594944, -0.08597936, -0.17562415, -0.09803411, -0.030664235, 0.14493786, 0.040645495, -0.058236025, -0.108095534, 0.13303249, -0.050413072, -0.030414984, 0.046298563, -0.050765842, 0.016123697, 0.12639199, 0.059475616, -0.022698313, -0.02849485, 0.14704324, -0.03466153, 0.07004394, -0.06088534, -0.09473688, 0.037173018, 0.09291403, 0.05219917, -0.006667927, -0.17112416, -0.003056869, -0.0931361, 0.0038085133, -0.076994196, -0.0836451, 0.14952822}, 
{-0.042732842, -0.078819975, 0.20796229, 0.19945134, 0.21214977, 0.06137976, -0.21710098, 0.09558811, -0.156936, 0.04769146, 0.030000785, -0.17245534, 0.11403622, -0.08482662, -0.16947703, 0.07969143, -0.13544916, -0.013507819, 0.1611654, -0.11643218, 0.043760777, 0.0075845257, -0.19518775, 0.09435119, -0.011641983, 0.12768333, -0.016330121, -0.10162669, 0.08598809, -0.2566322, -0.07685999, -0.106404245, 0.13986789, -0.05584435, 0.035820648, -0.14794356, 0.1806313, 0.04840444, -0.18146399, -0.056497507, -0.14099227, -0.059653863, -0.027477682, -0.09807312, 0.045802288, -0.11071947, -0.0764253, -0.015667627, 0.2804436, 0.008777268, 0.08377772, -0.047095314, 0.096115366, -0.12018168, -0.09398865, 0.26574308, -0.064348325, -0.026319662, 0.018222703, -0.14768258, -0.13529699, 0.096816175, -0.20707895, -0.16275625}, 
{-0.007898271, 0.12088968, 0.103534, 0.054079294, 0.12446515, -0.08881209, -0.008307695, 0.08370091, 0.11137594, 0.0076239407, -0.117370754, -0.10764596, 0.1326098, -0.14586906, -0.10943126, 0.03905061, 0.106346324, 0.15353642, 0.0128133595, -0.0668135, 0.12173684, 0.01938586, 0.015677407, -0.0044130683, 0.04099974, -0.08570384, -0.035760626, 0.004643187, -0.17149244, -0.14816602, -0.14520508, 0.02076681, 0.07818429, 0.14206485, -0.109889895, -0.13642058, -0.17529334, 0.0297378, -0.11534125, -0.06562892, 0.10241009, 0.15265162, -0.15005298, 0.04744968, -0.11948265, -0.099517435, 0.041478902, -0.015655369, -0.011096507, -0.16773042, -0.11442772, 0.09856133, 0.044716924, -0.14762363, 0.1128677, 0.17576729, -0.14208296, 0.042618856, -0.005842939, 0.07260169, -0.17290218, -0.115317315, 0.04900676, 0.105592385}, 
{0.14113079, 0.008169413, -0.016836017, -0.00019922853, -0.037581414, 0.14978282, -0.0037756413, 0.04400018, 0.08074574, -0.053460076, 0.03590882, -0.09230998, -0.16868019, -0.15636607, -0.060884327, -0.13446614, -0.06412209, -0.08341291, 0.14776157, -0.11555372, 0.039388254, 0.17348595, -0.15223028, -0.025644585, -0.0144328475, 0.10350545, 0.025543392, 0.068211466, -0.14001541, 0.165875, 0.04872723, -0.018796906, -0.10518248, 0.11860071, 0.09785019, -0.15446006, 0.10803653, 0.050422043, -0.101056, 0.16464697, -0.06064257, -0.06675201, -0.023998752, -0.038390726, -0.016089976, 0.16500024, -0.16090563, -0.009940624, 0.076474026, -0.0964086, 0.055008218, -0.018912002, -0.046597674, 0.094981685, 0.06372881, -0.102840796, -0.059385285, -0.15139872, 0.120011374, 0.009826452, 0.058498308, 0.13839264, 0.054389283, -0.14435877}, 
{0.14609265, -0.17946935, 0.050189268, 0.16303636, -0.021621702, 0.16752811, -0.08757743, 0.07360452, 0.014597459, 0.14674082, -0.12442149, -0.012344182, 0.25197062, -0.011765101, 0.080546476, -0.01765446, -0.24935086, -0.06805276, 0.08759739, -0.18529582, 0.039911002, 0.24158978, 0.13684274, -0.12877193, -0.09007998, -0.071611606, -0.15119316, 0.097536765, -0.10384587, 0.03363249, 0.11973644, 0.09686557, -0.12552844, -0.07244219, -0.0078113675, 0.1856314, 0.10810237, -0.2528964, 0.09945182, -0.20873201, -0.16690606, 0.13476585, 0.11799218, 0.04668874, -0.04278385, 0.035560638, -0.077921726, 0.14012209, 0.17168458, 0.043343104, -0.114920214, -0.12595299, 0.05899905, -0.17734452, -0.10205636, -0.16419443, 0.0020739564, 0.046565358, -0.18212235, 0.018101512, 0.1978259, 0.07875276, -0.0842551, 0.096618906}, 
{0.22172222, -0.0011858235, -0.03356224, 0.035918187, -0.052558284, -0.0740671, -0.07015019, -0.10068876, 0.2728439, -0.1701206, -0.17936672, -0.1559451, 0.23071578, -0.19247742, -0.21396452, -0.116238, -0.19738193, 0.23513041, -0.1301998, 0.15850851, -0.1456416, -0.030868903, -0.0808957, 0.118725136, -0.0931422, 0.044034995, 0.14264855, -0.11566779, 0.057876438, -0.21200636, -0.009589015, -0.15531592, 0.07278487, -0.011612441, -0.0031565428, -0.20761271, 0.23806405, 0.14510319, -0.064326495, -0.23631711, -0.17170116, -0.06874609, 0.13283531, 0.055999417, 0.05684346, -0.03201002, 0.014291704, 0.14433597, 0.39665353, -0.049707025, -0.16594599, -0.03177485, 0.0576651, -0.014626841, 0.1193289, 0.26411992, 0.067469634, -0.13822895, -0.024876408, -0.11536842, -0.13990411, 0.10802851, -0.16258453, -0.085652344}, 
{0.26210132, 0.061287932, -0.15929922, 0.2401239, -0.24599783, -0.12169683, 0.08466272, 0.12308641, -0.14621796, 0.17678553, 0.08971284, -0.05817563, -0.008058715, -0.17389964, -0.04332244, -0.23245409, -0.1975653, -0.03554794, -0.011351942, -0.02239212, -0.013478428, 0.25547218, 0.029404521, -0.13312829, -0.02584123, -0.09582996, -0.11830092, -0.06952176, 0.105822966, -0.10202223, -0.10654479, -0.019886874, 0.050254554, 0.08949531, -0.0064478368, -0.02787707, 0.029282184, -0.13733566, -0.11393597, -0.065756954, 0.07293995, 0.19552445, -0.17191637, 0.10136553, -0.06839559, 0.16422744, 0.06984247, 0.052606303, 0.09905312, 0.024173297, -0.19592075, 0.113765165, 0.16623966, -0.0174589, -0.1303999, -0.02355441, -0.027143566, -0.07880058, -0.1534282, -0.09486465, 0.20560475, -0.15803048, 0.09854619, -0.15939626}, 
{0.015700802, -0.07992492, -0.111262746, -0.032886386, 0.059379265, -0.00024078786, -0.16507976, 0.063650295, -0.033845484, -0.06980626, 0.011263534, -0.14187935, 0.08253099, 0.07588236, 0.117110536, -0.05724667, -0.022454455, 0.039586633, 0.14226411, 0.0022657365, 0.04342942, -0.1508426, -0.12980461, -0.1237517, 0.05488223, -0.06865304, 0.10068251, -0.010909334, -0.15770516, -0.14784588, -0.045720518, 0.17157559, -0.0061984956, -0.10202888, 0.16337265, -0.14114942, 0.10255204, 0.11976533, 0.1280369, -0.024730206, -0.039494842, 0.12595774, -0.14557365, -0.14124286, 0.0413619, 0.07646276, 0.1483921, -0.13217403, -0.12092255, 0.027959928, 0.17069928, -0.043335557, 0.093269125, -0.16662495, 0.06938316, -0.0018650442, -0.030509263, -0.13179487, 0.08380179, -0.0929853, 0.119696066, -0.027950108, 0.03803715, -0.011247769}, 
{-0.049001783, -0.057365403, 0.12827732, 0.0016211718, -0.045009673, -0.14156553, 0.07989462, -0.13869579, -0.10716923, 0.06728491, 0.046451047, -0.047795624, -0.027768865, 0.102117434, -0.024279118, 0.16450737, 0.060768962, 0.13345347, 0.1264271, 0.05802369, 0.08876635, -0.1273762, 0.0074050277, -0.0417805, 0.06746775, 0.10973306, -0.06220483, 0.11784653, 0.024186388, 0.1459416, 0.08186363, -0.14756413, -0.09624313, -0.0135422945, 0.06775296, 0.08386864, 0.03174083, 0.11630933, 0.15159927, -0.06693176, -0.11170276, -0.0047920197, -0.13802975, -0.09759819, 0.013572216, 0.1550561, 0.12607135, 0.13666646, 0.0038125664, 0.056781292, -0.05947034, 0.15587936, 0.120082214, -0.029004112, 0.13247736, -0.03606148, 0.15248238, -0.040895253, -0.08250915, -0.007639542, -0.051676333, 0.058349997, -0.005200252, -0.053360015}, 
{0.022057576, 0.05350089, -0.15819453, 0.07324903, 0.13301577, -0.14884159, 0.03225752, -0.17651339, 0.19974639, 0.011527009, 0.1543889, -0.14960024, -0.040398393, -0.12979251, 0.10411142, 0.14512129, 0.12258498, 0.065492764, -0.13049947, 0.07390665, -0.15793642, -0.05137372, 0.20622993, -0.17231752, 0.026721355, -0.028815366, 0.012082957, -0.042799402, 0.082317755, -0.07139222, 0.06557617, -0.10974457, -0.11711808, -0.17477022, -0.16035126, 0.030508185, 0.008651179, 0.17773545, -0.16363396, -0.14497298, -0.02280917, -0.06531718, 0.085670725, -0.047156908, 0.019007297, 0.17286901, 0.06945978, 0.014741981, -0.15099615, -0.0061508985, -0.03164653, -0.17307885, -0.103801176, 0.11699361, -0.07501031, -0.089146696, 0.087207474, 0.14106034, -0.14792612, 0.03589387, 0.14754994, -0.013169408, 0.035262257, 0.06473389}, 
{0.19556619, 0.18787491, -0.18052955, 0.25508916, -0.12985635, 0.10541789, -0.13993134, 0.007545359, -0.035729434, 0.12456887, 0.02308579, 0.15033959, -0.1308076, -0.12694211, 0.12956093, -0.16775325, -0.0086051095, 0.08951702, 0.08064424, -0.015225731, -0.13759188, 0.03768481, 0.14862348, -0.12869616, -0.038184386, -0.12039715, -0.16604982, 0.18761994, 0.099123135, -0.083452046, -0.1268435, -0.011153124, -0.063605875, 0.14040594, 0.13736872, 0.09367206, -0.18882255, -0.22377738, -0.028843796, 0.12437636, -0.20996621, 0.1855741, -0.11829074, 0.007714949, -0.048857685, 0.040403187, 0.10670407, 0.2458882, 0.3617814, -0.14022352, -0.25026193, 0.098159716, 0.04531683, -0.011526266, -0.13321632, -0.12863982, -0.068713665, 0.09170202, -0.24746485, -0.15121548, 0.03422497, 0.117179476, -0.0034108253, -0.008529887}, 
{-0.20615447, -0.08956827, -0.24412073, -0.022009691, 0.13972403, 0.0047805905, 0.16319437, 0.020329827, 0.14964218, -0.12915705, 0.02054927, 0.07208696, 0.15208767, 0.0034387873, 0.20154244, -0.07560525, 0.08826893, -0.06773469, -0.1471389, 0.050436273, -0.16902362, 0.12396798, -0.012794667, -0.15759009, -0.056946043, 0.12296648, -0.12619036, 0.19609788, 0.087704465, -0.075053014, 0.10263173, -0.04425708, -0.0110990405, -0.07693687, -0.13499665, -0.122608185, 0.28502104, -0.077461384, -0.15099156, -0.15792911, -0.06764141, -0.17763814, 0.0014559627, -0.19812031, 0.1871842, -0.024658933, -0.09133584, 0.03872209, 0.03503263, 0.27465692, -0.116140276, 0.032788694, -0.08661857, 0.13420032, -0.15388429, 0.12463928, -0.15280792, -0.13504478, -0.18356185, -0.148115, 0.076391324, 0.022984114, -0.052783087, 0.02388087}, 
{0.16795869, -0.12476037, 0.15283173, -0.15233009, 0.011389037, 0.051570162, -0.19586468, 0.16434574, -0.034241177, -0.009099453, -0.1494268, 0.09198858, 0.033542987, 0.03471908, -0.05850605, 0.059792697, -0.0015205679, 0.164818, -0.14898169, 0.14930761, -0.0036816597, 0.15769331, -0.078827165, 0.061117694, -0.04511477, -0.17724758, -0.09622197, -0.027659407, -0.12275134, 0.09659456, 0.085487016, -0.12533939, 0.14513384, 0.07081484, -0.048409075, -0.11212977, -0.1355262, -0.04716215, 0.08022439, -0.007878733, 0.10742377, -0.086828016, 0.108279094, 0.15855925, 0.053064726, -0.17168333, 0.019776732, 0.042375024, -0.19861981, -0.07944032, -0.060512315, 0.09591438, 0.014760988, -0.11111002, 0.11834754, 0.16475661, 0.06691947, -0.125652, 0.15909247, -0.1791903, -0.14209913, -0.088019766, 0.017343843, 0.14363723}, 
{0.022518596, -0.09282606, 0.06426779, 0.03352508, 0.088869944, 0.14295764, 0.12966754, -0.032320857, -0.12840496, 0.16506109, 0.15601562, -0.13006356, -0.13542111, 0.16107194, -0.06355385, -0.13827096, 0.115763515, -0.1327211, -0.042990938, -0.08440188, 0.01719515, -0.06837621, 0.15345852, 0.022260189, -0.07846453, 0.12803984, 0.08450575, 0.052069798, -0.16878025, 0.16479258, -0.05942225, 0.15613608, 0.043004498, -0.11810248, -0.095688604, 0.086671695, 0.15103367, 0.14032845, 0.10106092, -0.011963218, 0.1492327, 0.049963143, -0.065822504, -0.13899235, -0.14110911, -0.15706538, 0.0031832606, 0.12051425, -0.09501016, 0.14695637, 0.09404905, 0.15415461, 0.07199213, -0.00063778856, -0.14240758, 0.12666537, 0.04509777, -0.14187297, 0.02207391, -0.02505214, 0.16786869, 0.03447357, -0.15611416, -0.07138222}, 
{-0.1661129, -0.005762607, 0.0015678257, -0.016192392, 0.03150426, 0.15890752, -0.080894, -0.15059836, -0.13410436, -0.013906479, -0.0355424, -0.12752503, -0.10341075, 0.05717878, 0.09103884, -0.01877284, -0.021485656, 0.05199185, 0.13064022, 0.15765159, -0.13667595, 0.11153446, -0.031271607, 0.11902924, 0.011137426, -0.16333231, 0.050532505, 0.1551478, 0.04121591, -0.12631431, 0.0045230687, 0.06598708, -0.010104194, 0.115301296, -0.040646, -0.12831439, 0.14485206, 0.1144001, -0.122623175, -0.06158506, -0.119776495, -0.11742693, 0.1115271, 0.17166947, 0.028424725, 0.07497047, -0.003299132, -0.14248404, 0.15145959, 0.085839435, -0.018066585, 0.04999332, 0.077006266, 0.041043818, -0.124442995, -0.09958032, -0.089899525, 0.07172467, 0.12660499, 0.13516684, 0.15291385, 0.04493971, -0.08648221, 0.052507088}, 
