namespace weights{
	const ap_fixed<32,24> layer3_weights[n_layer2][n_layer3] ={{0.6423606, -0.26483756}, 
{-0.28258687, -0.13850926}, 
{-0.4121649, 0.3215363}, 
{0.3383035, 0.3222704}, 
{0.630872, 0.032145906}, 
{0.16206875, -0.18162659}, 
{0.18155794, -0.45374703}, 
{-0.29163373, 0.55902696}, 
{-0.18948779, 0.25254625}, 
{-0.3629504, -0.21293668}, 
{-0.21496408, 0.25192818}, 
{0.024700757, -0.13986664}, 
{0.16107339, -0.41983655}, 
{0.3246599, -0.46662095}, 
{-0.14819524, 0.39482516}, 
{-0.5619249, -0.12980102}};
	const ap_fixed<32,24> layer2_weights[n_layer1][n_layer2] ={{-0.3070669, -0.044617355, -0.21867624, -0.09726854, -0.09509516, -0.08191472, 0.04442984, -0.07120823, 0.16551396, 0.18410718, -0.19837874, -0.08941706, -0.005704251, -0.13039768, 0.03743565, 0.25265446}, 
{0.20564263, -0.13217768, 0.08972192, -0.17505473, -0.11921501, 0.22521864, -0.09425605, -0.25876188, -0.1665665, 0.11786098, -0.21938017, 0.06797425, 0.15286456, 0.18362434, 0.18228707, -0.05488706}, 
{0.31314924, -0.31992996, 0.03396985, -0.12718798, 0.096304804, -0.1225688, 0.031846505, -0.23571017, 0.007579148, -0.08187133, 0.04544261, -0.23130615, -0.025934039, 0.29370973, -0.064004466, -0.0256634}, 
{0.09150594, 0.02357525, 0.091332585, -0.21504918, 0.053756617, -0.24486601, 0.035276834, 0.13454664, -0.015075505, -0.107173055, 0.23141448, -0.096280895, 0.106147684, -0.07432884, -0.06804797, 0.20054299}, 
{0.038822453, 0.13192935, -0.1696357, 0.15428874, -0.16647479, -0.10787605, 0.12864596, 0.21746355, -0.19904524, 0.10101661, -0.2312121, -0.117288925, 0.119709976, -0.022911273, -0.1904985, -0.05447647}, 
{0.29774955, 0.046769038, 0.26879615, 0.09416213, -0.029786628, -0.014231672, 0.23981892, 0.10419747, 0.20397264, -0.12444938, -0.14963332, -0.0013393018, -0.08841149, -0.13023521, -0.18665624, -0.07369297}, 
{-0.21978198, -0.12094259, 0.13948348, 0.0021754503, 0.23515397, 0.16043329, -0.115028486, 0.018443555, 0.058805913, -0.10712953, 0.056070387, -0.10428755, 0.21578726, 0.21699393, -0.05349186, -0.16745587}, 
{0.29037133, 0.010003028, 0.20985854, -0.091329165, 0.28834617, -0.036651365, 0.06716794, -0.17744665, 0.10096064, -0.15623598, 0.060146004, -0.029242247, 0.05627779, 0.20854738, -0.11280693, -0.13149926}, 
{0.27706096, -0.28637618, 0.019824892, -0.15202504, -0.04421652, 0.1567198, 0.2875375, -0.11011486, -0.15930462, 0.1550028, -0.09854747, -0.049918026, -0.14797069, 0.28943536, 0.14861363, -0.055698074}, 
{0.16184095, 0.12993973, -0.14294948, 0.21806625, 0.18918619, -0.16653803, -0.049935, 0.109434515, -0.12320456, 0.25647265, 0.033849716, -0.18047333, -0.049044847, -0.06935032, 0.17867815, -0.044597045}, 
{0.14575402, 0.17965895, -0.25837848, 0.23551987, 0.20697291, 0.033838987, 0.04276659, 0.048379544, -0.14497012, 0.22268368, 0.14659357, -0.25553915, 0.03312421, 0.29583976, -0.25301918, -0.27149165}, 
{0.031615503, 0.061392132, 0.029283404, 0.14200561, 0.24119, 0.08352104, 0.10842635, -0.021383582, -0.056467682, 0.20436814, 0.14048111, -0.17829233, 0.054545972, 0.25594932, 0.27142745, -0.22274216}, 
{-0.12134774, 0.21759424, -0.026721671, 0.08227971, 0.15518554, 0.025865426, 0.118424945, 0.12714066, -0.21424828, 0.0356259, -0.011127233, -0.09406755, -0.16912536, 0.10114235, -0.24226832, -0.19450372}, 
{0.08206612, 0.031487808, 0.059794128, 0.184977, -0.110600635, 0.11122722, -0.2624223, 0.15501112, -0.26290646, 0.18655412, 0.028297096, 0.15107228, -0.13580534, -0.10321516, 0.21170524, -0.20165052}, 
{-0.102498755, 0.04441711, -0.17304096, -0.22191864, -0.13761316, 0.021084802, 0.032755565, 0.011945222, -0.07874933, 0.06708363, -0.11836956, 0.15328524, 0.21208593, -0.18273453, -0.055569768, 0.118338734}, 
{-0.061208144, -0.09963684, 0.07980612, 0.28205097, 0.27507907, -0.20335639, 0.29888406, -0.070074536, 0.105436146, 0.018284302, 0.2042257, -0.024818903, -0.093218066, 0.28454295, -0.055380806, 0.046119556}, 
{0.09983975, 0.23675318, -0.19366643, 0.022434615, -0.12536572, 0.06277221, -0.24970074, 0.026819907, 0.012345135, 0.081518434, 0.020780504, 0.16500193, -0.0071558403, -0.20109083, -0.25267822, 0.06303086}, 
{-0.25843382, -0.08265272, 0.11887714, -0.02999819, -0.0054690926, 0.23580365, 0.21631277, 0.27957964, -0.27052414, -0.24508113, -0.03910801, -0.18814611, -0.079118185, -0.13487521, -0.18000321, 0.040172484}, 
{-0.02904278, -0.03945936, -0.2685134, 0.03535284, 0.064596765, -0.24523447, 0.15170175, -0.08628583, 0.07924837, -0.25691146, -0.21779282, 0.050753545, -0.120929234, -0.24681538, 0.23222303, 0.2215266}, 
{-0.096639186, 0.25893664, 0.161565, 0.10952893, -0.15089637, 0.00928396, -0.1365176, -0.22104633, 0.026327312, -0.22701977, 0.17953807, -0.08855434, -0.019089818, -0.113323346, 0.0062414706, 0.090355724}, 
{-0.1863727, -0.08627244, -0.17879456, -0.23167568, -0.10740596, 0.017896708, 0.20523623, -0.14725415, -0.110422745, 0.088875555, -0.12060637, 0.05715602, 0.24921559, -0.30412325, -0.008629739, 0.2306497}, 
{0.26547772, 0.0030080676, -0.073404, -0.036199376, -0.0027015805, 0.18424213, 0.1724712, 0.10531843, -0.0020564198, 0.26866382, 0.25330478, -0.14961243, -0.20678072, -0.16962662, 0.118273586, 0.07307637}, 
{0.08610698, -0.048788093, 0.06587291, -0.255507, -0.06990629, 0.2071445, -0.0992872, 0.17182045, -0.2565725, 0.0995872, -0.24124649, -0.21359111, 0.029277526, -0.22063793, 0.17105564, -0.22370331}, 
{-0.121832475, 0.26507068, -0.19821581, -0.0277251, -0.16415848, 0.25248188, 0.1354548, -0.024718732, 0.13473216, 0.2365346, -0.039932787, 0.06599638, -0.0292819, 0.23696858, -0.12644123, -0.007637322}, 
{0.019806689, -0.12883995, 0.21271226, 0.16892084, 0.11419462, -0.09269861, 0.2643574, -0.27925283, 0.15726301, 0.20006135, -0.22401269, 0.14020175, 0.03045303, 0.17741162, -0.1115202, -0.1518079}, 
{-0.12627107, -0.0339946, 0.09448743, 0.083051056, 0.18715906, 0.06803772, 0.020433843, 0.06594917, 0.026615113, 0.19096574, 0.2550658, 0.018526077, -0.03212008, -0.16854745, -0.24896477, -0.25426394}, 
{0.1538659, -0.098004624, 0.06181577, 0.13241294, 0.23151653, -0.1460425, 0.08764561, 0.19518416, 0.21916306, 0.052774385, -0.06418617, -0.16844174, -0.15852442, 0.12229898, -0.06243643, -0.095744535}, 
{0.019177683, 0.30018026, 0.1435394, -0.048506964, -0.012451516, -0.21336353, -0.18907675, 0.24709514, -0.041154698, -0.22840858, 0.011976744, 0.22114523, 0.12709673, 0.06965754, -0.056889802, 0.12220106}, 
{0.16165814, 0.14472719, -0.21328089, 0.2503837, 0.27620113, -0.06247587, 0.062012177, 0.08248895, 0.04388064, -0.005719141, 0.19093445, -0.2702741, -0.16312984, 0.17123269, 0.069352865, 0.07425322}, 
{0.0799769, 0.09720098, -0.101383224, 0.015535023, -0.2514922, 0.14952338, 0.004926661, -0.058437154, -0.04427743, 0.046834268, -0.24248357, -0.1011297, -0.09373215, 0.0663703, -0.02199611, -0.0043540564}, 
{-0.25992882, -0.08849833, -0.21582924, 0.058139, -0.13866827, 0.08609253, 0.06921828, 0.24750909, 0.15432408, -0.09695178, -0.04615521, -0.142981, 0.036703464, 0.108103, -0.18753693, 0.24286506}, 
{0.2656107, 0.0040712655, 0.19894692, 0.10500774, 0.040028125, -0.15887067, 0.11402348, 0.22152486, 0.16590416, -0.02404046, -0.113129884, -0.15072778, -0.13833517, -0.20603126, 0.17685017, -0.037664488}, 
{-0.2349397, 0.02525863, -0.008241177, 0.13300833, 0.1586582, -0.1801596, -0.081970066, 0.17034602, -0.25969243, -0.19226706, 0.23066533, 0.0291062, 0.24836278, -0.19476604, -0.14034799, 0.038578928}, 
{-0.091006495, 0.20226704, 0.13409391, 0.106221244, 0.058898326, 0.1592286, -0.06639347, 0.025421934, -0.19097906, -0.24629009, -0.11314287, 0.25423414, 0.25533116, -0.27892417, 0.027009487, 0.01430596}, 
{0.06369725, -0.11253101, 0.16880804, -0.050406873, -0.009427369, 0.16349012, 0.038114637, 0.23128706, 0.24787867, -0.22203748, 0.25431848, -0.13484216, -0.055362463, -0.25589365, 0.26864338, 0.095992774}, 
{0.3057115, -0.26954168, -0.22322159, 0.21057193, 0.2685504, -0.27369678, 0.2361492, 0.06985184, -0.16266887, -0.17370911, 0.22371402, 0.012456834, 0.016195185, 0.046982873, -0.26084045, -0.16206191}, 
{-0.20130715, -0.23812668, 0.22247344, -0.25537542, 0.18219754, 0.047584087, 0.15567821, 0.117224574, -0.17702627, -0.13199687, 0.15570799, 0.04432398, 0.14662784, -0.09410201, -0.10759565, -0.16606173}, 
{-0.06468778, -0.24051902, -0.022815078, 0.020434545, -0.008809591, -0.20563127, 0.19703028, -0.29051706, -0.2469489, 0.25636166, 0.15550883, -0.012973996, -0.13950966, 0.047841206, -0.013806403, -0.14626108}, 
{-0.25593296, -0.03762597, 0.019644171, -0.11683634, -0.029096201, -0.22084111, -0.24465747, 0.19049355, 0.1190415, 0.24740762, 0.20632654, 0.08295745, -0.1000184, -0.13400346, 0.20920128, -0.24383229}, 
{0.26767838, -0.2689792, -0.08987132, 0.15815984, 0.26424712, -0.09440445, -0.18372388, -0.121798046, 0.049979717, -0.12606485, 0.011559457, 0.26418844, 0.054464865, 0.096521564, 0.27377087, -0.022027772}, 
{-0.17581111, -0.024087861, -0.2266463, 0.2630239, 0.19514337, 0.24486369, 0.19013333, -0.08076474, 0.123710304, -0.17089175, 0.07402155, -0.20384681, -0.09543884, -0.005465865, -0.23375665, 0.22951025}, 
{0.0669744, 0.18838555, 0.27091837, 0.02483201, -0.14196622, -0.23817252, 0.20418197, 0.2726755, -0.02650334, -0.102545455, -0.046002746, -0.20535254, 0.16943178, 0.18235078, -0.012491703, 0.18784177}, 
{0.23523934, -0.084445044, 0.2502277, 0.20674707, 0.22106886, 0.1418208, 0.1109816, -0.117547825, -0.09380172, 0.13424307, -0.17996553, 0.06951887, -0.27219874, 0.048881233, 0.086322874, 0.24753384}, 
{-0.04372069, 0.26747665, 0.026027918, 0.23299101, -0.10456133, -0.14687029, -0.12739085, 0.23980835, -0.2644178, -0.22192483, 0.23166385, 0.14594074, 0.014581603, 0.2019821, -0.103293195, 0.2003251}, 
{-0.067942955, 0.01588699, 0.015681833, 0.20162131, -0.022216722, 0.23412575, -0.27878806, 0.09578093, 0.045601726, -0.18749973, -0.07565669, 0.20628153, 0.12211657, -0.20995985, 0.108594924, 0.019787556}, 
{-0.24356954, 0.14943215, 0.010778338, -0.2591037, 0.039847165, 0.003206521, 0.21947214, -0.05605524, 0.09827551, -0.13463016, -0.12267667, -0.051791508, -0.13146864, -0.16647564, -0.1903862, -0.094471425}, 
{0.006328374, -0.22021663, -0.23405516, -0.14215668, 0.1448881, -0.04531814, 0.156284, -0.070231974, 0.088772565, 0.17255014, 0.043695003, 0.19948402, 0.23037797, 0.07824364, 0.20277652, 0.23247743}, 
{0.01454189, 0.093894824, 0.060955256, 0.13097169, -0.14193222, 0.2580758, -0.15233007, 0.12444102, -0.16600622, 0.1190643, -0.26551485, -0.16890574, 0.042195834, 0.2497175, 0.17039442, 0.06513894}, 
{-0.18573691, -0.18828878, 0.044881344, -0.22969629, 0.2506646, 0.27008438, 0.23344368, -0.16146746, 0.1466046, -0.21322298, -0.22307095, -0.033834696, 0.2654642, 0.23635298, 0.15484115, -0.19326748}, 
{-0.026777506, -0.12886779, -0.13826375, 0.06647608, -0.09372246, -0.24516344, 0.05369532, -0.18631443, -0.036487907, 0.1005463, -0.15792045, -0.012352973, -0.25182882, 0.18410778, 0.067109704, -0.11887689}, 
{0.16741787, -0.16729766, 0.23797822, 0.21956939, 0.090996966, -0.08501175, -0.08830989, 0.099697754, -0.24386756, 0.15725741, -0.23755772, -0.14141358, -0.24716036, 0.04407548, 0.08182636, -0.28471813}, 
{-0.23284425, 0.042636953, -0.06334226, -0.15000075, -0.07224263, 0.0023430695, -0.148689, -0.123463914, -0.24625136, -0.17146985, 0.056674574, -0.16122603, -0.25281632, 0.27333754, -0.13142215, -0.17770845}, 
{-0.19339709, 0.18737024, -0.06727444, -0.010008603, 0.12393546, 0.094552726, 0.03445545, 0.22344324, -0.2182675, -0.089605376, -0.037088796, -0.14622265, 0.16214004, -0.25730368, 0.030168265, 0.1564799}, 
{0.012767643, 0.11855009, 0.032041997, 0.13331461, 0.20295778, -0.14869577, -0.17665587, -0.16254121, -0.013518184, 0.046031356, 0.21501449, 0.25944597, -0.21041268, 0.14557943, -0.14033277, -0.09682803}, 
{-0.22628392, -0.0022772204, 0.21153194, 0.06172676, 0.17740776, 0.17008626, 0.16012098, 0.14565429, 0.13516283, -0.024382843, 0.120412536, 0.25748834, -0.1630357, -0.12607886, 0.010073632, 0.05676534}, 
{-0.21555935, 0.102615386, 0.093486875, 0.20673801, -0.2755371, 0.14334336, -0.010187445, 0.055314153, -0.23445274, -0.21888025, -0.15414368, -0.18201794, 0.016227543, -0.015688064, -0.24677992, -0.15084854}, 
{0.074714, -0.039338414, 0.14413121, -0.01692394, 0.22465645, -0.11106781, -0.026150288, -0.32016653, 0.13723356, 0.23668787, 0.1579863, 0.2609704, -0.22061728, 0.2972878, -0.27294338, 0.16893096}, 
{0.22344553, -0.07137108, 0.2012538, -0.19953337, 0.060608268, 0.19663173, -0.2659052, 0.15501595, 0.20645079, 0.19469878, -0.031946734, 0.060751587, -0.1214443, 0.029393226, 0.08070958, 0.05532825}, 
{0.2831352, -0.056761358, -0.10931876, 0.094434194, 0.079202466, -0.11468017, -0.086173356, 0.06942727, 0.2575997, 0.19757466, -0.25846246, -0.18817356, -0.18044822, 0.11617288, -0.19338161, 0.14768583}, 
{-0.0139983, -0.06739177, 0.20203027, -0.09694621, -0.22165506, 0.20803806, -0.22074297, 0.15303898, -0.14617792, 0.117560714, -0.0021544993, 0.15527135, 0.178837, -0.1372272, -0.26157245, 0.009088665}, 
{0.010408566, 0.19933604, 0.1323748, 0.09409319, -0.1429656, -0.029005295, 0.16963227, -0.23727287, -0.2372595, 0.1078558, -0.25572324, -0.08816095, 0.2221031, -0.18403134, 0.21135217, -0.1461757}, 
{-0.25202566, 0.31595698, -0.24202333, -0.09067703, -0.084720135, -0.25466067, -0.22233076, 0.30139053, 0.10088584, -0.035034243, -0.028306376, -0.13712882, -0.06410179, 0.12959287, 0.113514274, 0.24121748}, 
{-0.15296644, 0.30008197, -0.11503339, -0.23708779, 0.11957658, -0.12934592, 0.19951849, 0.11103188, 0.13150951, -0.11702925, -0.1582424, -0.13862409, 0.06286185, 0.1524127, 0.08343622, 0.12757654}, 
{0.17848057, -0.2728284, 0.15581682, 0.2097081, -0.06890671, 0.13505149, -0.072545975, -0.048828468, 0.09936717, -0.17216283, 0.09511191, 0.0332748, -0.19717798, 0.093367994, -0.079089046, -0.18315996}};
	const ap_fixed<32,24> layer1_weights[n_inputs][n_layer1] = {{-0.08584434, 0.033777073, -0.018575568, 0.04788175, -0.03575811, -0.018651843, 0.07191199, 0.111084655, -0.0680519, 0.0597668, 0.07725783, -0.069237664, -0.039475884, -0.04262215, -0.056110192, -0.012867609, -0.04693171, -0.008995449, -0.037050337, 0.016257122, -0.018494457, 0.032389075, 0.08018076, 0.013092518, -0.014542991, -0.05459114, 0.034984495, 0.09732037, -0.011671223, -0.017860908, 0.047024265, 0.021648198, -0.084345095, 0.0503868, 0.057467267, -0.06183021, -0.062212378, -0.013752864, -0.073934495, 0.024270823, -0.028471895, -0.10287003, 0.04860412, -0.06415485, -0.02774462, -0.121904336, 0.03655468, -0.009129833, -0.09606573, 0.047357365, 0.106677815, -0.102661006, -0.05041814, 0.11280465, 0.04586587, -0.08293748, 0.026803968, 0.034109935, 0.032446716, 0.0803822, -0.09230306, 0.061494898, 0.050048783, 0.086299166}, 
{0.06412108, -0.0250261, -0.019028295, -0.03937827, 0.103916764, -0.04871511, -0.08257356, 0.11407284, -0.035728827, -0.034869388, 0.0090262415, -0.07851454, 0.10693211, -0.0059984205, -0.054711055, 0.088062175, 0.10417839, 0.011085022, -0.09208915, 0.044222817, 0.04979478, 0.051081344, -0.054339327, 0.002262257, 0.11222322, -0.024420835, 0.027845284, 0.054608732, 0.12083989, -0.015317697, 0.070705794, -0.041009724, -0.03819941, -0.017549243, -0.01695384, 0.114191495, 0.022023812, -0.041156158, 0.10000725, -0.0060436176, -0.09619762, -0.09190929, 0.10257623, -0.07163705, 0.01419114, -0.012924772, -0.08786728, 0.07320715, -0.09202286, -0.02268821, -0.059460092, 0.022943394, 0.0050371364, 0.07762042, 0.046326146, -0.07902521, 0.10888887, 0.108298436, 0.011131591, -0.05755174, -0.07634516, 0.08181197, 0.12190788, 0.043610767}, 
{-0.057272714, 0.025957476, 0.08929677, -0.03160684, -0.06398255, -0.065640375, 0.0344487, -0.08732354, -0.08108837, 0.0019081235, 0.004855831, 0.041465726, 0.054055188, -0.069968425, 0.09022477, 0.004518925, 0.00828618, -0.109955914, 0.032703232, 0.0912281, 0.03138829, -0.055966545, 0.10065781, -0.04837934, 0.07718326, -0.09904055, 0.044724118, 0.021035556, 0.042619705, 0.015051676, 0.08879927, 0.056680664, -0.07832366, -0.09154138, 0.041636392, -0.060243193, 0.02912423, 0.08638164, -0.08679667, -0.021429103, 0.016068667, 0.0005800277, -0.052642882, 0.06141348, 0.013212523, -0.04659781, -0.06573164, 0.028802874, 0.017048106, -0.11220575, 0.01278118, -0.11242246, 0.040593863, -0.10056925, 0.08507202, -0.098668106, 0.10890939, -0.05385731, 0.12850542, 0.109371305, 0.06219722, -0.07304074, -0.019189486, 0.052822948}, 
{-0.11198253, 0.04795862, -0.045085367, -0.069739126, 0.08328985, 0.07042032, -0.039313808, 0.08130717, -0.052823145, -0.088845365, -0.035788115, 0.05750532, -0.013895407, 0.08839966, 0.059854057, -0.07293476, 0.0072255866, 0.057973348, -0.035684645, -0.057747487, -0.10236005, 0.1013283, -0.0033974703, 0.046014577, -0.03222683, 0.02395299, 0.03334576, -0.093238555, 0.09511958, 0.08219469, -0.057253085, 0.09981978, 0.041267455, 0.022682782, -0.040885985, 0.047468424, -0.0013147295, 0.09810266, -0.016736649, -0.04516944, -0.09392081, -0.07976706, 0.0849278, 0.058614463, -0.090268224, 0.048935298, 0.045679197, -0.011524436, 0.028877154, -0.04940787, -0.066343345, -0.03203508, 0.05569887, -0.07441481, 0.061451882, -0.028397376, 0.086190134, 0.08974852, -0.06605134, -0.04585258, 0.09030414, 0.00136717, 0.010605717, 0.0006637722}, 
{-0.111165635, -0.010416912, -0.045439772, 0.06293634, 0.08331173, -0.056466173, 0.073345825, 0.0050018406, 0.13324356, -0.09107251, 0.01858843, -0.061969813, 0.019601423, -0.08000117, -0.010693261, 0.020802692, 0.011986455, 0.061393358, 0.0816272, -0.048036292, 0.026778817, 0.03330414, 0.075903766, -0.054345157, -0.0127782095, -0.084812686, -0.0479957, 0.031388007, 0.04277307, 0.10704, 0.063831314, 0.041689277, -0.049296826, 0.07086008, 0.078965425, -0.050910007, -0.08582691, -0.015631003, -0.005138591, 0.008390952, -0.101537004, 0.111326545, -0.08255454, -0.11846193, 0.02113867, 0.027961617, 0.033448577, 0.094105035, -0.052725423, 0.008225881, -0.066488236, 0.028175948, -0.11244965, -0.069627404, 0.09287549, 0.056268312, -0.0013725731, -0.0628781, 0.087433256, -0.036590546, 0.0489693, 0.046343703, 0.031702835, 0.08697286}, 
{-0.13593519, -0.062672436, 0.113244615, 0.036878318, -0.0025241727, -0.04092957, 0.07839486, 0.049236987, -0.026066413, -0.043343633, 0.06548844, 0.10706546, -0.017186517, -0.005755365, 0.068447724, 0.052770466, -0.11812509, -0.007080437, -0.09313331, 0.07788131, 0.068838775, 0.10890426, 0.009315247, -0.099403255, -0.074400984, 0.089776844, 0.04543676, 0.021620575, -0.06903285, 0.008618032, -0.07737946, 0.04555005, 0.0015721023, 0.015758183, 0.107176065, -0.0773124, -0.09833991, 0.06935903, -0.08554826, -0.08143665, -0.06929602, -0.01611007, -0.012985424, -0.016205657, 0.034779888, 0.07830569, 0.017700166, -0.116435744, 0.02447389, -0.0052880794, -0.04043135, 0.08165693, -0.087981395, -0.10126203, -0.022195736, -0.05623089, -0.07460252, -0.075696945, 0.084829934, -0.0051854923, -0.10632966, 0.01726345, 0.13261296, -0.10699218}, 
{-0.08952494, 0.07957605, -0.030599719, 0.07748895, 0.091413684, 0.068924285, -0.1084805, -0.014614627, -0.015368177, 0.0061246157, -0.03726754, 0.0711211, 0.09380716, 0.0714172, -0.00046866242, -0.0753638, -0.012633338, 0.050360218, -0.012681122, -0.074629754, 0.05934071, 0.025688395, 0.048282925, 0.027596816, 0.111365736, -0.054020494, 0.008072616, 0.003280353, 0.0830247, -0.031801756, -0.109206304, -0.03220108, -0.060550753, 0.03522477, -0.05534021, -0.06949666, 0.0992697, -0.08029058, -0.012697466, -0.11135415, -0.044453077, -0.09530768, -0.07702124, -0.050169427, -0.13670903, 0.07111843, 0.049072742, -0.10906575, -0.045128644, 0.06207782, -0.054334052, 0.016654545, -0.06949593, 0.082273945, 0.041118197, -0.12949745, -0.028281026, -0.02814471, 0.0053972183, 0.018978268, -0.07748981, -0.08134243, 0.072373554, 0.074496016}, 
{-0.016452854, 0.11315593, -0.04965358, -0.10201921, -0.062858745, -0.025138456, -0.1033033, 0.078746065, 0.020722806, -0.07326639, 0.113263436, 0.11848134, -0.10185566, 0.08576025, -0.08604772, -0.083689176, -0.048383206, 0.008600368, -0.10967982, -0.032869495, -0.03008589, -0.05429313, -0.113767244, 0.002412565, 0.061133135, -0.08488597, -0.086446755, 0.0017717258, 0.05449515, -0.09961354, -0.08943219, -0.1097031, -0.06569536, -0.099810295, -0.06422615, 0.12893721, 0.068138584, -0.03408205, 0.07108058, 0.00477944, -0.013059057, -0.06556466, -0.059550986, 0.032137778, 0.050792314, 0.05942064, -0.078614056, -0.10640146, -0.07009432, 0.030242428, 0.06204116, -0.032540087, -0.05328905, 0.015286475, -0.0133044245, -0.0631947, 0.12172778, -0.070450835, 0.01874632, 0.051387057, -0.032378282, -0.12592626, 0.0049247984, -0.06986292}, 
{-0.07913827, 0.03924902, 0.048361484, 0.056549992, -0.008577467, -0.05557634, -0.061092988, 0.087993056, -0.081647925, -0.1026075, 0.0691707, 0.054161802, 0.08978545, -0.01303958, 0.039755616, 0.072384655, 0.068943255, -0.05544221, 0.05435782, 0.09515442, -0.07611525, -0.10980241, 0.067413405, -0.010070369, 0.02702071, -0.07923776, 0.0017889191, 0.032937795, 0.09366533, 0.048508953, -0.061455756, -0.022135347, -0.09511394, 0.09358257, 0.094170645, -0.0003162317, -0.04235322, -0.009641962, 0.04751098, -0.051222473, -0.06503311, 0.035508767, -0.011098233, -0.0116416095, 0.02314279, 0.027711634, 0.08994791, 0.07432695, -0.10525944, -0.01477433, 0.13650516, 0.0718152, -0.024943113, -0.016503923, -0.03635846, -0.009947669, 0.104248665, 0.08767706, 0.009515998, -0.107643455, 0.002566092, 0.024390435, 0.118464366, -0.11127764}, 
{-0.106489465, -0.017545817, 0.07245696, 0.10207427, -0.101383984, -0.047830533, -0.09137605, -0.070057735, -0.06879107, 0.023791596, 0.06310184, 0.030532427, -0.11707921, -0.12578253, -0.0070246328, -0.052623, 0.09134415, -0.08642691, 0.08877423, 0.087505996, 0.08211377, 0.05304803, 0.02818009, -0.083322845, 0.13114318, -0.020704962, -0.06307688, 0.0797553, -0.027252192, 0.04896386, 0.0017360003, -0.09026328, 0.0048692375, 0.08028903, -0.09584181, 0.024922797, 0.054520875, 0.049760763, -0.09201461, 0.10146298, 0.014821097, -0.071972534, 0.121700406, -0.09925234, -0.10180714, 0.04325754, -0.06771019, -0.103185974, -0.03988836, -0.10445948, 0.024395177, -0.021126162, -0.009847298, 0.10211763, -0.031525508, 0.031560253, 0.032885626, 0.019166812, 0.0886663, 0.07107736, 0.083081655, 0.018624945, 0.11234157, -0.08444164}, 
{0.022185072, -0.0736518, 0.10962252, -0.009307619, 0.05209566, -0.037308052, -0.10916827, 0.025565641, -0.011038211, 0.0024301559, 0.02969176, -0.03458138, -0.02402948, 0.020277271, 0.022325682, -0.07731527, 0.040539134, -0.081923254, 0.11226398, 0.04120612, -0.11564805, 0.05288221, -0.11048975, -0.097095616, 0.067065336, -0.07958013, -0.0020990954, 0.017703455, 0.13104847, 0.08197891, 0.041343145, -0.11212702, 0.06476796, 0.013363808, -0.066437736, 0.002736996, 0.10900088, 0.090188496, -0.09738219, 0.10614602, -0.03471756, -0.024338305, 0.120570004, 0.013463423, 0.03109356, -0.11768873, -0.05322276, 0.047378883, 0.027424753, -0.03066764, -0.027864277, 0.040447973, -0.079403065, 0.02085565, -0.043179605, -0.006409569, -0.04488271, -0.03946276, 0.09833751, -0.047895856, -0.06769553, -0.08279669, 0.018738694, 0.00015697628}, 
{0.02130168, -0.07840834, -0.08788918, 0.05712154, 0.03096312, 0.04675909, 0.036978945, -0.047557075, -0.060746137, -0.06865791, -0.06975544, -0.0016273638, -0.110392496, 0.03945974, 0.033464126, -0.04280636, 0.021327548, -0.0044754758, -0.04036971, 0.020603508, 0.01177467, -0.08094697, 0.040643618, -0.08910485, -0.015287745, 0.008569144, 0.080686375, 0.041867938, -0.04725474, 0.115809016, -0.11990435, -0.07258247, 0.032802418, 0.048454676, -0.002694875, 0.020508181, 0.09818046, 0.11025802, -0.06636394, 0.02096092, -0.049444042, -0.11005474, 0.10743363, 0.005860244, -0.1160693, -0.10645819, 0.0635294, -0.05261522, -0.04987845, -0.06888801, 0.07051942, 0.027395487, -0.016584903, -0.00043208152, -0.060687333, -0.04713915, -0.06895304, 0.089525, -0.016432418, 0.08073942, -0.069329806, -0.055572275, 0.029223224, -0.011693224}, 
{0.00090236054, -0.06433288, 0.0037622722, -0.084368974, -0.106370226, 0.046014316, -0.009211741, 0.001732854, -0.06055364, 0.11311388, 0.08385461, -0.015765283, -0.022592932, -0.015621603, 0.0572238, 0.10845924, -0.06984386, -0.0908035, 0.08691947, 0.093276605, 0.07625185, -0.084888384, -0.062349536, -0.092358686, -0.071870215, -0.06880252, -0.08513124, 0.064011045, -0.07273948, 0.10085077, -0.04454548, -0.032780163, -0.036124602, -0.049082063, -0.020311952, 0.055780172, -0.049221992, 0.08197295, 0.045369104, -0.042645957, -0.05009426, -0.012095369, 0.12754063, -0.09931827, 0.006180005, -0.11282532, -0.052593336, -0.07807493, -0.08359833, -0.1128923, 0.12286345, 0.03077635, -0.10713313, 0.041392684, 0.023406943, 0.043946933, -0.07632745, -0.07257713, 0.12304026, -0.081537485, 0.09593913, 0.030493272, -0.053498268, -0.0423112}, 
{-0.009089755, 0.037720945, 0.10980385, -0.043250013, -0.055800095, 0.058945652, -0.018658377, 0.080328286, 0.09974073, 0.004136026, 0.0012149983, 0.029545728, 0.011023883, -0.09230579, 0.037711266, -0.042184718, -0.07539506, -0.0043929685, -0.047457706, -0.00080524385, -0.104442425, -0.07711811, -0.02851003, 0.0054413155, -0.08536331, -0.0066737607, -0.105986305, 0.008891987, 0.030233677, -0.021999994, 0.03995492, 0.11241226, -0.044684418, -0.049531646, 0.03248489, -0.044953723, 0.112703145, 0.06591687, -0.11285657, 0.10001454, -0.06896259, -0.07609424, 0.12388558, 0.07626646, -0.019514773, 0.08755409, -0.07057861, 0.0072317924, -0.10392112, -0.031387433, 0.099234, 0.03157422, -0.085704505, 0.0025864542, -0.092109025, -0.003370042, 0.043676894, -0.017168403, 0.12873408, 0.0988822, 0.01373305, 0.043369625, 0.11771847, 0.063212335}, 
{-0.10256547, -0.032588832, -0.011798076, 0.076669656, -0.074052475, 0.026673168, -0.020910442, 0.08633449, 0.08040428, -0.07092762, -0.056775287, 0.049935028, -0.03613274, 0.016597496, 0.0634561, 0.09290255, 0.01249781, 0.09987269, 0.083199605, -0.108106084, -0.04941572, 0.0548034, 0.026022034, 0.042830005, 0.06440928, -0.0064144135, -0.06837047, 0.0048982496, -0.028499695, 0.09972368, -0.12834424, -0.018540822, 0.056429133, 0.027085122, 0.05115828, 0.09502425, -0.028661326, 0.08510488, 0.1021314, 0.020964894, 0.06202224, 0.02816987, 0.12734967, -0.04568128, -0.009968543, 0.07876413, 0.006834917, 0.026228057, 0.049568728, -0.104927614, 0.09615445, -0.003236998, -0.07889274, 0.1113953, -0.0698693, 0.05330548, -0.08733705, -0.08261645, 0.06318848, 0.012956783, 0.097491026, 0.036289793, -0.013509155, 0.08265334}, 
{-0.056262698, 0.12685034, -0.043479916, 0.048010904, -0.031788316, 0.10323738, -0.06788732, -0.010880268, 0.08375832, 0.08459659, 0.04737192, -0.054724008, 0.046929367, -0.061898082, -0.035289653, 0.051375765, -0.104697235, -0.10637047, 0.02951651, 0.039488107, -0.048708584, 0.051689327, 0.036486875, -0.101160586, 0.11572032, -0.03707376, 0.0652538, 0.0019314322, -0.016407251, -0.105850965, -0.09595902, 0.041014194, -0.030000128, 3.5168996e-05, -0.01971332, 0.12546064, -0.031669393, 0.11918444, -0.04402308, -0.10982555, -0.04865525, 0.004806578, -0.09317053, -0.1253546, 0.06082302, -0.08931546, -0.037416667, -0.017994931, 0.0663818, -0.112780415, -0.015074126, 0.054640822, 0.038295, -0.108859465, 0.04468089, -0.062303033, 0.10869561, 0.03779377, 0.019418092, 0.09616463, 0.052557364, 0.05893612, -0.07527855, -0.1058466}, 
{0.03856017, -0.043019485, 0.117993794, -0.06181279, 0.09106183, 0.04279693, -0.010977417, -0.02881442, -0.024931958, 0.1050946, -0.060754716, -0.017161222, -0.06896599, 0.015126601, -0.043052856, -0.04003638, -0.02263838, -0.017958308, 0.0679975, -0.030281544, -0.11197732, 0.032655984, -0.088777505, 0.044568136, -0.022763899, 0.08411685, 0.038243815, -0.07961627, 0.037174236, -0.09622201, -0.049819518, -0.09190319, -0.08537729, 0.08412284, -0.025049232, 0.053973358, -0.077996776, 0.122950196, 0.087466136, -0.10110729, 0.022561595, -0.11190151, 0.10190702, 0.08322178, -0.05989148, -0.03308053, 0.021915093, 0.054910976, 0.009673782, -0.08707489, 0.09342245, -0.03373997, -0.09524362, 0.07610357, 0.030934595, 0.0692434, 0.065298095, 0.032189906, 0.02326781, 0.029619724, -0.10951709, -0.04761888, -0.07019922, 0.0029242113}, 
{0.019181527, -0.026592398, -0.026561059, -0.00648787, -0.042581383, 0.11215078, 0.053706378, 0.022648148, 0.056744132, -0.07335794, 0.009509213, 0.12907198, 0.057702705, 0.02119868, 0.0023405082, -0.0872456, 0.09585467, -0.08611057, -0.06938139, 0.009172648, 0.08579163, 0.106867924, 0.07705056, -0.008492552, -0.035129048, 0.0071139485, -0.058184743, 0.02984282, 0.12438573, -0.10091577, 0.02229676, 0.010002643, 0.08503492, 0.010844547, 0.02574487, -0.021271147, 0.10432051, 0.050693862, 0.075204894, -0.023264984, 0.044752166, 0.10084395, -0.046070546, 0.043315485, -0.06885638, 0.069742545, 0.009953357, -0.09416131, -0.05677789, -0.06683841, 0.060198743, -0.030061755, 0.033958107, 0.08692551, 0.053040538, 0.0721638, -0.07669866, -0.07891869, 0.07935086, 0.08366461, -0.08460532, -0.12344433, 0.06410032, -0.03767819}, 
{0.088452496, -0.022847302, -0.03541019, 0.08378714, 0.092200905, -0.057012293, -0.043545455, -0.011673313, -0.068364605, 0.009126961, -0.0005190648, 0.04763189, -0.056800805, 0.042500984, -0.051088333, 0.08143852, -0.07270348, 0.03476169, -0.009794604, -0.08687196, 0.09361861, 0.079976335, -0.029156948, 0.10661104, -0.08913267, -0.03970503, -0.029465295, 0.006574368, 0.088588886, -0.10952958, 0.040800106, -0.099063195, 0.09290269, -0.04900544, -0.02337744, 0.12789343, -0.058873326, 0.12664038, -0.059186738, -0.057403028, -0.08757892, 0.005509287, 0.122721456, 0.07401578, -0.10559875, -0.059653595, -0.06384401, 0.09172161, 0.10332686, 0.10554731, -0.022762852, 0.08892354, 0.103742346, -0.022298396, 0.069754794, 0.08170053, 0.05775523, -0.052335314, -0.06843456, -0.087120734, 0.06626723, -0.12327025, 0.0762406, -0.042445645}, 
{0.055044845, -0.013266274, -0.0025524544, 0.0668466, 0.10142661, -0.09438458, 0.04598716, 0.028125491, 0.09992916, 0.07468881, -0.06943959, -0.031139117, 0.04663078, -0.12518682, -0.020277616, -0.005209741, 0.0038739638, -0.10635648, 0.078198865, 0.00073076785, 0.075652994, 0.016052946, 0.0464022, -0.04550121, -0.06924982, -0.0079287365, 0.052486572, -0.07488441, -0.0326921, 0.04167041, -0.06974666, -0.10383247, -0.08234894, 0.038967077, 0.03829907, -0.06827828, -0.054417167, -0.04812785, 0.10673253, -0.00054764893, 0.08990538, -0.028312095, -0.036143046, -0.09872852, -0.022447433, -0.0982294, 0.061783925, 0.09651565, 0.05480711, 0.09639871, -0.0031517851, 0.018699896, 0.02019602, 0.076241955, -0.056349292, -0.10041725, 0.029797953, 0.024758264, 0.12136904, -0.06816272, 0.040328007, 0.08813589, -0.018012587, 0.07338391}, 
{-0.056646876, -0.037086625, -0.08919135, 0.034924455, 0.05022465, -0.09696914, -0.09595809, 0.0813802, -0.09123069, -0.09812692, -0.07043047, -0.0413288, -0.030863581, -0.0005321408, 0.036719486, -0.086488, 0.0043016146, 0.018338023, -0.10817175, 0.009996086, 0.024705715, 0.0011758879, 0.051023826, 0.04942569, -0.04152949, 0.07074782, -0.09966716, -0.098839946, 0.03056502, -0.08757126, 0.06927572, -0.111807324, -0.06828545, -0.04445701, -0.025106847, 0.055872995, -0.08717474, -0.026369799, 0.101005614, -0.04269399, -0.04659593, -0.04045573, 0.06990269, 0.067535274, -0.09152521, -0.09580852, -0.083127074, 0.04760272, 0.024061501, 0.09682076, -0.06080124, -0.055998906, -0.06735894, -0.047432132, -0.053430945, 0.067709096, -0.024315756, 0.099593684, 0.11761119, -0.0030303001, -0.04505082, -0.031365715, -0.006735046, 0.0016673431}, 
{-0.00043326768, 0.04187511, -0.016838992, 0.12242902, -0.050979044, 0.030586759, -0.08298986, -0.0682949, 0.07467565, 0.11124572, 0.032978076, 0.067689784, -0.04646178, 0.019501647, -0.008498794, 0.07416713, -0.049729317, -0.011110075, -0.034497853, 0.065730736, -0.00522472, 0.013627231, -0.073366314, 0.10372338, -0.03451964, 0.09973621, 0.07685477, -0.083057955, 0.099026985, -0.10698135, 0.09228046, -0.080511175, 0.033494547, 0.081706256, 0.02986747, -0.08841318, -0.09754475, -0.08557724, -0.097818226, 0.08181347, -0.04824131, 0.0993768, -0.038547825, -0.04497604, 0.03110949, -0.09660622, 0.094311416, -0.0906436, 0.010563828, -0.085812464, -0.09418412, 0.10024361, 0.063728034, 0.08355644, 0.031349987, 0.02063892, -0.019183155, 0.096646264, 0.04792447, 0.036001593, -0.047820136, -0.06947531, 0.067035794, 0.050625026}, 
{-0.094055906, -0.032962084, 0.010348971, -0.073558055, 0.055772204, -0.07666988, 0.007920057, -0.06871554, 0.064012654, 0.007732339, 0.05817467, 0.120459974, 0.02386022, -0.05944882, -0.0031006064, 0.09904338, 0.0716393, 0.014746201, -0.02596845, 0.09325072, -0.09409175, -0.06669839, 0.0066173933, 0.0802702, -0.025196793, 0.034128398, -0.021164982, -0.021713411, 0.018107004, -0.031862088, -0.06245083, -0.06295898, 0.038115665, 0.057895463, -0.07812445, 0.06720006, 0.08319177, 0.058480658, -0.0870288, 0.06020922, -0.085283265, 0.060077026, -0.060178805, -0.026107052, 0.08493286, 0.013015057, -0.098627046, -0.006604408, 0.105461225, 0.04070063, 0.07950467, -0.039519157, 0.003028378, 0.09902774, 0.104816936, -0.08254198, 0.07728539, 0.0043748543, 0.11776373, 0.015116215, 0.06467499, 0.10322673, 0.042344525, 0.015192121}, 
{0.08803264, 0.102002114, -0.052624326, -0.034696646, 0.052371055, 0.083428696, -0.074534155, -0.07351817, 0.06182573, 0.015124157, 0.04853654, 0.056384098, -0.07019679, -0.021650227, -0.096605346, 0.06326575, -0.04413854, -0.11944666, -0.030429948, -0.090447746, -0.028271904, -0.11214749, 0.0978154, 0.054702163, 0.060655557, 0.091181576, -0.023995617, 0.008484395, 0.11350592, -0.0772227, -0.015236553, 0.02162294, -0.0809156, 0.039939404, 0.074183986, -0.05907615, -0.067308374, -0.08977868, 0.012644842, -0.008561579, 0.11254956, -0.09223617, 0.0188786, 0.070558816, 0.05198351, -0.01220392, 0.008129768, 0.03359329, -0.0031868443, -0.060361028, -0.07319813, -0.072611995, -0.053888433, -0.03911996, 0.024021672, 0.014323508, -0.09373782, 0.07147053, 0.08499162, 0.049672082, 0.04923381, -0.032873765, -0.021944506, 0.08907215}, 
{0.019021075, 0.038186774, 0.14019303, 0.020393733, 0.05959276, 0.10180418, 0.083237365, -0.03116143, -0.035292506, 0.049694926, 0.06692807, 0.086972326, 0.04563853, -0.09379305, -0.056974668, -0.009120222, 0.04820617, -0.101387136, 0.10942122, 0.05369526, 0.03979019, 0.062949374, 0.059182156, -0.08228317, -0.03077499, -0.076693445, -0.022550005, -0.020922542, -0.028672865, -0.028302131, -0.06854222, -0.03482332, -0.08899058, -0.12502094, 0.03561911, 0.04687779, -0.05421646, 0.02343163, -0.010045268, 0.07011672, -0.11347976, -0.024473242, 0.08320434, 0.053209294, 0.07226631, -0.07331909, -0.009521008, -0.085342616, 0.05958742, -0.0974366, -0.045503166, 0.029351259, -0.105387434, -0.002664484, -0.10835726, 0.0071870834, 0.05801668, 0.10398023, -0.050912917, -0.0711851, 0.007487326, -0.029599754, -0.086171776, -0.08383761}, 
{-0.054855935, 0.14172179, -0.028616587, -0.030166646, -0.05834989, -0.009531331, 0.024678811, -0.070135765, -0.036677882, 0.08641298, 0.08594023, 0.04947203, -0.03680702, 0.035229694, 0.01376025, -0.054322064, -0.051650137, -0.12819794, 0.09963977, -0.05625881, -0.12988655, 0.06319718, -0.099205196, -0.015783295, -0.026151935, -0.08035314, 0.09949901, 0.0076014167, 0.11099605, 0.09043389, 0.03386768, -0.11031162, -0.029691324, -0.004906702, -0.059666183, 0.005324417, 0.09044653, -0.04693724, -0.039125465, 0.075040594, 0.023002222, 0.012240574, 0.011579924, -0.104512975, -0.05570419, -0.014519274, 0.044449598, -0.116266765, -0.056681428, -0.06959934, 0.038973007, -0.07178653, -0.035011157, 0.067151725, -0.09999778, -0.018943917, -0.029418845, 0.03619331, 0.05394247, 0.045718357, 0.084815435, -0.0747627, -0.08853933, -0.020438917}, 
{-0.11758097, -0.072331734, 0.116575316, -0.030778859, -0.033608805, -0.0764007, -0.03702672, 0.14261581, 0.011895617, 0.07305622, -0.0008726242, -0.01076992, -0.09878932, 0.057355113, -0.13501135, 0.101154074, -0.0358475, -0.07590676, 0.023270579, -0.02362413, -0.075788975, -0.0096267685, 0.07466075, -0.08974756, 0.027597984, 0.0043467656, -0.10596542, -0.0050487653, 0.049926654, 0.040390767, 0.00845781, 0.01884371, -0.0756077, 0.045324136, 0.0142367035, 0.07411543, 0.11191554, 0.065056674, -0.07188605, 0.099975675, -0.049782775, -0.09300834, 0.042329863, -0.024812842, -0.13103473, -0.018845418, 0.098355204, -0.080152385, -0.08064787, 0.10654527, 0.047550846, -0.014942866, 0.045420766, -0.03811761, -0.039550506, -0.11013311, -0.063208856, -0.08172561, 0.091685906, -0.06332699, -0.06571222, 0.02186948, 0.014615615, 0.012285858}, 
{-0.022513926, 0.0040977383, 0.05456237, -0.1145561, 0.012218987, -0.060923252, 0.050428897, 0.020672115, 0.059897035, 0.03114985, 0.099635825, 0.07101241, -0.10602216, -0.029658923, -0.002289456, 0.06630666, -0.031336565, 0.056117684, -0.004897548, 0.058325857, 0.014845753, -0.0050709993, -0.0120406505, -0.004164733, -0.032271396, -0.086315244, -0.062468864, -0.10698627, 0.14234939, -0.016756501, -0.08612724, -0.007440023, 0.09528212, -0.113321714, -0.11178365, 0.017015288, -0.04010398, 0.086211644, -0.052349467, 0.042521134, -0.10976993, -0.076061144, 0.05910503, -0.005491809, 0.05661054, -0.062899746, 0.06057234, 0.012345597, 0.07321723, -0.082150266, 0.10504292, 0.018174315, 0.093110576, -0.07034765, 0.064727046, -0.13421923, 0.12830423, 0.027615488, 0.09335679, -0.028598882, -0.06384152, 0.059765235, 0.0128931105, 0.0339185}, 
{-0.07446212, 0.046761476, -0.02093863, 0.09515651, 0.06636117, 0.01870129, -0.03540907, 0.032421015, 0.053123195, 0.066372916, 0.10831698, 0.05268365, 0.0024478456, 0.07553243, -0.065242015, 0.066961296, 0.07325651, 0.0019478608, -0.10296624, 0.059554666, 0.003713412, -0.09348114, 0.08302416, -0.07971449, -0.06884135, 0.06823026, -0.09299307, 0.008632124, -0.06603357, 0.043170605, -0.023358084, -0.03325025, 0.0074841008, 0.081374705, -0.069978334, 0.06694603, 0.04332292, 0.094361044, 0.023130313, -0.023537902, -0.093545884, -0.026995555, -0.07032945, 0.0191731, 0.093791544, -0.11163776, -0.09286505, -0.044222523, 0.043102995, 0.05640915, 0.019535132, -0.021066729, 0.033038646, -0.10290479, -0.055514485, 0.040998224, 0.11629785, -0.041412115, 0.08229134, -0.00096458197, -0.09051763, -0.05766904, 0.032564938, 0.11138341}, 
{0.011495503, 0.080524676, 0.100724556, 0.11914814, -0.051235233, -0.023465617, 0.0681985, 0.08216436, -0.031185687, -0.113344096, 0.034563553, 0.02463797, -0.11971762, 0.023529263, -0.06442799, 0.10696498, 0.08984613, 0.01941453, 0.046829768, 0.03740704, -0.014149953, 0.04895453, 0.05208883, -0.04970193, 0.1116414, -0.010466635, -0.080984384, 0.081069104, -0.0024961303, 0.058535535, 0.037221197, -0.093484856, 0.05019276, -0.04640572, -0.040462203, 0.02851768, -0.07429167, 0.043604013, -0.0803456, 0.013120936, 0.06764951, -0.0016938001, 0.037018597, 0.03400299, -0.03762364, -0.10460563, 0.05174674, -0.033874314, -0.074716866, -0.011151396, -0.019846832, -0.0068384786, -0.08399012, -0.09002125, 0.10682853, -0.09528271, 0.09069526, 0.042265818, 0.0926573, -0.09411409, -0.11268344, -0.11031411, -0.05801098, 0.01652944}, 
{-0.11595146, -0.032517947, 0.12944698, 0.011132558, -0.056069724, 0.10236595, 0.095843, 0.008567045, -0.08166374, 0.09492603, -0.059793077, 0.016776294, 0.080229364, 0.064104594, -0.012423556, -0.045145877, -0.0784151, 0.09070046, -0.06523767, 0.04657422, -0.07858866, -0.056511544, 0.038940545, -0.046082757, -0.06324659, -0.061992418, 0.047287155, 0.009557202, -0.073081724, 0.078425616, -0.124570176, -0.0914806, 0.094212994, -0.08229655, -0.01712969, 0.0445406, 0.055038214, 0.06911366, 0.09715518, -0.048997715, 0.025457725, 0.019458503, 0.100967474, -0.08691335, 0.08780676, 0.054675195, -0.09750571, 0.06035943, 0.004385829, 0.060527682, -0.0742435, -0.031290166, -0.029645398, -0.03620331, 0.04514972, -0.09688674, -0.086333804, 0.051550105, -0.044432595, 0.05547878, 0.065791234, 0.09539487, -0.08459856, 0.09115583}, 
{0.008777499, 0.053620458, 0.041753553, -0.030888047, 0.027878301, 0.10368995, 0.009636827, 0.05201354, 0.06308613, -0.04359746, 0.0047372603, -0.09879523, 0.08152517, 0.041658178, -0.07746463, 0.118187815, 0.06148304, -0.0118414005, 0.0019972897, -0.08406883, -0.048314527, -0.087183475, -0.06973423, 0.054632142, -0.008636323, -0.062029455, -0.097365275, -0.032970943, -0.011126682, -0.010575392, 0.055830892, -0.0047550946, 0.038264632, 0.056582194, -0.011440352, -0.0028608786, -0.014476836, 0.0341586, 0.044100836, -0.023624798, 0.047541633, -0.10275592, 0.031207124, 0.086132914, -0.0062036673, 0.0022404154, 0.094959304, 0.022495171, -0.0075107813, -0.0082844645, 0.05785612, -0.06770314, 0.007609904, -0.062787116, -0.046296768, -0.0850635, 0.041892197, -0.09083677, -0.04806342, -0.046411946, 0.099733956, 0.017383967, -0.017714713, -0.002726324}, 
{-0.091326356, -0.008141916, 0.07073479, 0.04878719, -0.0008994692, -0.00040256832, -0.037813693, -0.063349314, -0.051172867, -0.047030553, 0.09014244, 0.02629013, 0.015199666, -0.0005252844, -0.01903501, 0.092208706, -0.049412303, -0.10928065, 0.0043521505, -0.08224912, 0.03473569, -0.0088851005, -0.07756328, 0.09712899, -0.013662293, 0.06374161, 0.035665758, 0.06172719, -0.056869943, 0.0032599329, 0.007574338, 0.06260508, 0.047868475, -0.09137373, -0.072714776, 0.062289633, -0.011531144, -0.04451836, 0.00015611202, -0.063305885, 0.071324944, 0.106907606, -0.06873467, 0.016552156, -0.021712784, -0.07978177, 0.000999555, -0.110991605, 0.050535604, -0.08878708, 0.046539504, 0.05162161, 0.015385568, -0.08579657, -0.0771916, -0.02416191, 0.091025054, 0.08045307, 0.021846425, -0.017215416, -0.08531093, 0.01916847, -0.08439164, 0.030320644}, 
{0.033546045, -0.07325945, 0.11456426, -0.015194644, 0.026113473, -0.03318338, 0.016362667, 0.010055941, -0.057795037, -0.066284664, 0.06741286, 0.005915305, -0.009260036, -0.052027, 0.04755105, 0.09912597, 0.08276122, -0.011660672, 0.0063631185, -0.0033157319, -0.10162565, 0.050542936, -0.020160351, -0.006238483, 0.018559443, -0.06459558, -0.056671605, 0.09569764, 0.003966249, -0.095330216, 0.051625267, 0.062579274, 0.069105014, 0.023474408, 0.02413088, 0.085890956, -0.10665277, -0.0682466, -0.08995028, -0.07475078, 0.08063857, 0.048520893, 0.0579589, -0.103899285, 0.0786892, 0.00076914276, 0.08282453, -0.012674292, 0.11244108, -0.00012286752, 0.12747459, -0.10767352, 0.06644501, -0.10216087, 0.054081023, -0.1158636, 0.029200038, 0.06622626, 0.1231877, -0.08952047, -0.09633341, -0.044871934, 0.032967787, -0.08865946}, 
{0.047769506, -0.0325398, -0.08807221, 0.09002582, 0.02040309, 0.078497045, -0.07597877, 0.004527764, -0.06088701, -0.034553565, 0.048104063, -0.045966245, -0.024269754, 0.0495131, -0.0025178683, -0.005710327, -0.071868785, 0.09783591, -0.049542796, -0.11146487, -0.058115464, -0.09900827, 0.0017311313, -0.049091645, 0.012432987, -0.053348478, -0.039438326, -0.0781947, 0.008263094, 0.11549666, 0.08015375, 0.04572846, 0.10051502, 0.075519316, 0.09808029, 0.059944008, -0.09871879, -0.090523176, -0.035245314, -0.07888874, -0.040083133, -0.069208115, -0.02953826, 0.024950214, -0.10923117, 0.09270486, 0.016285345, 0.0011017863, 0.0023575276, 0.08420311, 0.12389156, 0.09999223, -0.0032944232, -0.1034406, 0.03337466, -0.082312815, -0.07274657, -0.061069783, 0.08888107, -0.059350464, 0.019836316, 0.08872478, -0.04803156, -0.03424097}, 
{0.04223255, -0.08274298, 0.09255118, 0.057940483, 0.027923062, -0.027731039, -0.06623635, -0.018163139, 0.074049376, 0.10038532, -0.0763858, -0.062171523, -0.08115145, -0.023216803, -0.026600832, 0.11572222, -0.10798246, 0.017597467, -0.07732653, 0.008524463, -0.09228867, -0.09903283, -0.06986079, 0.0011643395, -0.054552194, 0.04457882, 0.004543682, -0.0060834, -0.05884749, -0.03376215, 0.057664245, -0.05989107, -0.06300545, 0.0025157994, -0.10989242, -0.018034589, -0.06751472, 0.056512374, -0.05936847, -0.10931556, 0.027776077, -0.09232388, 0.043965846, -0.0076634893, -0.032366008, 0.051824767, -0.08284484, -0.045230314, 0.03091973, -0.092675164, 0.048748735, -0.051568903, 0.039773196, 0.0101873055, -0.03151521, 0.010063124, 0.041190412, 0.10093759, 0.111909464, 0.09474684, 0.007591089, 0.075375594, -0.071341775, 0.0450107}, 
{-0.07729123, 0.05778051, -0.0039089513, -0.051397976, -0.062174037, 0.032098915, -0.06282976, 0.088799946, 0.021339692, 0.07525587, 0.106808804, 0.010101696, 0.10023685, 0.058662523, -0.11014749, 0.09760752, 0.073024444, 0.062991984, 0.056747537, -0.08838737, -0.087010115, 0.07949573, 0.062992714, -0.0604653, 0.061943453, 0.052256823, -0.1014745, 0.020205984, 0.03606516, 0.016565476, 0.0017963409, -0.029781334, 0.05566995, -0.0043334006, -0.08381468, -0.07285889, 0.07394005, 0.016440654, -0.070817195, 0.059142463, -0.07288175, -0.05282495, -0.07582991, 0.02147424, -0.027282456, 0.00026849608, -0.11174434, 0.10537447, 0.021863177, -0.054091364, 0.029191937, -0.009683869, 0.09833966, -0.051554877, 0.029447678, -0.057322793, 0.12407099, 0.024850577, -0.0383992, 0.052174762, -0.09899285, 0.097033925, 0.07856009, -0.03257259}, 
{-0.10950758, 0.12055521, -0.039123658, 0.07579036, -0.07563423, -0.08008823, 0.029100716, 0.10287284, 0.12251904, -0.044148147, 0.009310017, 0.0018058772, -0.083412275, -0.040453672, -0.060321163, -0.08940601, -0.123339474, -0.04726835, -0.015681596, 0.073268235, 0.06956096, 0.015414387, 0.0018080922, 0.10254173, -0.049168628, 0.09493847, -0.07728562, 0.101316884, 0.108317904, -0.066255294, -0.02257738, 0.06852512, -0.059203006, -0.0089946315, -0.053862028, -0.0468167, 0.02972722, -0.06443914, -0.007617578, -0.09789905, 0.09448153, 0.07853335, -0.06991456, 0.06360206, -0.09757633, 0.023543213, -0.090560995, -0.007916679, 0.028211653, -0.100545585, 0.043607153, 0.0799229, 0.03973046, 0.06199722, 0.09176382, -0.029759042, 0.1237782, 0.05136572, 0.13229588, 0.042649254, -0.002528189, -0.08791275, 0.010303128, 0.08170664}, 
{-0.084946446, 0.09968897, 0.07025364, -0.09545932, 0.03284473, 0.084743194, -0.014366381, -0.04011984, -0.06621975, 0.076853886, 0.06413041, 0.051279854, -0.024752364, -0.029320747, 0.021665413, -0.08749548, 0.005327089, 0.039663322, -0.013407628, -0.009048775, 0.04611557, -0.036366276, -0.040584624, -0.0028056279, -0.0046046698, 0.012703046, -0.008627379, -0.047242925, -0.020027, -0.003709541, -0.114271946, -0.0020041764, -0.08460171, 0.0971815, -0.05835137, 0.10690627, -0.07324743, -0.047778912, -0.049877502, -0.049603313, 0.09426163, 0.06409922, -0.029479625, -0.07346625, 0.059261527, 0.10464998, -0.00026013702, -0.11580891, 0.050284475, -0.0052398816, -0.036736097, 0.052295193, -0.09407066, 0.007846855, -0.0930381, -0.04792223, -0.07537967, 0.055392757, 0.08658715, -0.07246518, -0.022467017, -0.07633686, 0.08097712, -0.10932796}, 
{0.017095933, -0.08457259, 0.11967944, 0.019294413, 0.0039422987, 0.030560395, -0.06796849, -0.018279951, 0.028020542, -0.11321407, -0.026591217, 0.04739359, -0.07433779, -0.029774597, -0.054763485, 0.014078701, -0.049091768, -0.11425797, -0.09389864, -0.07508853, 0.08254234, 0.08843051, -0.06988689, -0.10316915, -0.08805704, 0.0048983246, 0.046386354, 0.064189926, -0.058063, -0.027227076, 0.09496287, -0.010464221, 0.03485295, -0.10964655, 0.06666967, -0.04838552, 0.1055571, 0.011770534, 0.10440627, -0.039034914, 0.060241982, -0.0028781518, 0.010834536, -0.009400658, 0.08427826, -0.020430775, -0.11332671, -0.1087587, -0.08663427, -0.068439305, -0.069209315, -0.11835565, -0.05293269, -0.08812113, -0.10843345, -0.013925762, -0.050574593, -0.073842645, 0.03184116, -0.034876056, -0.052201208, 0.051689632, -0.007379647, -0.10266856}, 
{-0.09032222, -0.08219485, 0.05484453, -0.008328721, -0.0006033883, -0.08716164, -0.07450727, 0.054122757, 0.047304664, -0.112708405, -0.04573961, 0.13058113, 0.028127026, -0.095902555, -0.0049777096, -0.043278206, -0.10008785, 0.043888487, -0.0045727636, 0.1027004, 0.04272649, -0.0031261668, -0.0075996225, -0.065214075, 0.1313243, -0.06768102, -0.041387558, 0.0728393, 0.13238569, -0.026338527, 0.032157525, 0.07547575, 0.025784582, -0.047309298, -0.023102015, 0.117040575, -0.07500717, -0.04027042, 0.03845583, -0.063290715, 0.0036410764, 0.070814624, 0.057359546, -0.0033460266, 0.03713324, 0.0885614, 0.031709135, -0.11416581, 0.050679848, -0.016259238, 0.09104625, 0.00055070303, 0.042032138, -0.107924275, -0.046867847, 0.023951994, 0.09555436, 0.065508515, -0.027927672, 0.03155878, -0.021418825, -0.05709546, -0.024010899, 0.044122577}, 
{-0.11710761, -0.037955888, 0.06796009, 0.067941494, 0.106589615, 0.072579324, -0.07029562, 0.088658355, 0.092719674, 0.09633647, -0.041337036, -0.06836395, -0.04197364, -0.04894261, -0.06099645, 0.1203518, -0.01981322, -0.018932555, 0.005264116, -0.00029662997, 0.1051567, -0.032332763, -0.006478849, -0.046905406, -0.004780994, -0.08845024, 0.013691808, -0.047936656, 0.032818936, 0.10877334, 0.048578124, -0.06508581, -0.04244131, -0.057856508, -0.048070505, -0.05024926, -0.04332927, -0.09562757, -0.016205154, 0.0013021228, 0.029826254, 0.088715315, -0.027494814, 0.048796132, 0.09557463, -0.039462533, -0.11047481, -0.06554748, -0.009888828, 0.015964404, 0.07511657, 0.026376182, 0.06673783, -0.003883943, 0.10022536, -0.031962313, 0.050346956, 0.11204496, 0.11085688, -0.029240891, 0.09019391, -0.11228865, -0.082783885, 0.08781807}, 
{0.057438314, 0.08040219, 0.04313643, -0.08118766, 0.08479325, 0.11187223, 0.046439633, -0.058449127, -0.07584074, 0.025213987, -0.030365532, -0.011984327, 0.047094546, 0.08708585, -0.059658423, -0.071353205, -0.08350514, 0.06606281, -0.029677875, 0.07103783, 0.089909494, -0.063626416, -0.076314054, -0.06827651, -0.055775132, -0.048163146, -0.055100452, 0.059149552, 0.0029080533, 0.053412586, -0.06507137, -0.039969668, -0.023680523, -0.070424914, -0.08711732, 0.1268215, 0.043883592, -0.012598668, -0.0074433014, -0.022948649, 0.08824557, -0.037438817, -0.028617455, 0.08760398, 0.020549264, 0.10028539, 0.033029914, -0.05992073, -0.10922542, -0.09004001, -0.046770383, -0.008772138, 0.07280609, -0.058638703, 0.06678025, -0.039533827, -0.060697522, -0.08038684, 0.075323805, -0.049833283, 0.09734136, -0.1033687, 0.10296761, 0.06812395}, 
{-0.11874399, 0.0026984508, 0.048033573, 0.05432848, -0.02977394, -0.018724145, 0.040524185, 0.033732798, 0.090093575, -9.188056e-05, -0.012768361, 0.08232991, 0.04039367, -0.08168367, 0.010783535, 0.063705176, -0.01515711, -0.093716644, 0.008531327, 0.07892029, -0.008388701, -0.071205765, -0.031023836, -0.070324436, -0.06514321, 0.005934857, -0.021164397, 0.09573385, 0.08305895, 0.053380728, -0.119596705, -0.07986613, 0.084548, -0.022809466, 0.020267561, 0.03445145, 0.070567936, 0.10897536, 0.07089847, 0.044553693, -0.100905895, -0.071696, 0.07704549, -0.06829015, 0.007460758, -0.036488567, 0.0008624494, 0.08951284, 0.03913164, 0.06555508, 0.02949173, -0.011311436, -0.014391571, 0.08997047, 0.053930555, 0.059566256, 0.07812164, -0.028507002, 0.06609504, -0.047911577, 0.06857828, 0.059262097, 0.010075311, -0.005868681}, 
{-0.13256821, 0.017167185, 0.07148713, -0.046530288, -0.045722265, 0.13238952, 0.0906246, 0.10922761, 0.0024597682, 0.00040157884, 0.101653606, -0.01751624, -0.042308025, 0.04928332, -0.039119173, 0.11756134, 0.010813397, -0.022299811, -0.10751758, -0.07400483, -0.074272774, -0.010660648, -0.015564249, -0.10716745, 0.089961484, 0.02408573, -0.102587625, 0.076684035, 0.079121776, 0.03381098, -0.031371832, 0.058236033, -0.0972739, -0.047246143, 0.096357495, -0.024104474, -0.027946606, 0.1149673, 0.09773134, 0.02915227, -0.102582864, 0.09900211, -0.037186414, -0.13065132, 0.006308388, -0.0348338, -0.07850467, -0.10112577, -0.042034768, -0.034804642, 0.14065148, -0.06300665, -0.026237994, 0.089965135, 0.08002108, -0.081346475, 0.13749605, -0.04568717, -0.00067072, 0.11075756, 0.07685305, 0.07631817, 0.0200541, -0.03554268}, 
{-0.0867599, -0.0784709, 0.02479624, 0.051330652, -0.10809719, 0.023237467, 0.010655031, 0.030730031, 0.1222943, -0.039127417, 0.098205686, 0.14722313, 0.020988718, -0.0036964384, 0.05293487, 0.030703062, -0.023358844, 0.0041045174, 0.07600146, 0.099646226, 0.04459259, -0.0064351484, -0.124051854, 0.028712869, 0.02685317, -0.014355727, -0.024377717, -0.021356897, 0.009130923, -0.0055207554, -0.0012016671, -0.09327596, 0.004147522, 0.05844115, -0.08745364, -0.05725708, 0.062376708, 0.11628807, 0.06899336, -0.07815245, -0.09720607, -0.020818725, 0.0022277026, 0.0672723, 0.051863372, 0.013558417, 0.09209384, 0.014887964, 0.008544065, -0.06428645, -0.031031894, -0.045785204, -0.08773105, 0.08959265, -0.12836853, 0.028228194, -0.07068109, -0.016805977, 0.021857183, 0.08685394, -0.02508408, -0.0076988363, 0.12190625, -0.0286832}, 
{-0.13883004, -0.01714726, -0.03283729, -0.118356705, 0.097261295, 0.06572561, 0.07730614, 0.05563078, -0.054488353, -0.09836648, -0.017474163, -0.03818417, 0.06445917, 0.025478924, -0.029290548, 0.08311206, 0.0535931, 0.040999137, -0.06766363, -0.047438778, 0.0022071246, 0.06569135, -0.051451907, 0.08644636, 0.08083877, -0.08116685, -0.073690034, -0.09026311, -0.039515063, 0.06591451, -0.08875377, 0.04490426, 0.06894188, 0.063661546, 0.033891767, -0.06393593, -0.10312084, 0.065545775, 0.02918075, -0.037350126, 0.06527066, 0.036479816, -0.034002762, -0.01464749, -0.083142094, -0.0985724, -0.10738966, 0.08347951, 0.08283508, -0.082688406, -0.042174682, -0.11455204, -0.024636835, -0.0034323707, 0.030094212, 0.032058343, -0.03825566, 0.01685819, -0.06402429, -0.044203945, -0.020948308, 0.023508722, -0.057132274, 0.091956735}, 
{-0.09905269, 0.03276689, 0.07033492, -0.021254193, 0.040674165, 0.0792478, -0.10110449, -0.08448683, 0.049322188, 0.10425487, 0.0229075, 0.042874448, -0.04359136, -0.12220328, -0.07652798, 0.043833364, -0.13639666, -0.026033852, -0.013337659, 0.10628013, 0.032104615, -0.009692647, 0.023759782, -0.052471902, 0.044918794, -0.094715536, 0.028285481, -0.04719355, -0.0678224, 0.028395193, -0.07808354, 0.109646246, -0.07008645, 0.0005893212, 0.08808404, -0.06320967, 0.05822143, 0.0023845155, -0.10701197, 0.019977251, -0.008722432, 0.08553988, 0.025065018, 0.075972125, -0.05973597, -0.08798488, -0.035419263, -0.1168801, 0.0046299472, 0.06921169, 0.019236654, 0.049513996, 0.023300096, -0.08461716, -0.102546565, 0.029538171, 0.08405142, 0.021747917, 0.05009579, 0.024867386, -0.033165682, -0.069346346, -0.0025285075, -0.060103223}, 
{-0.11196228, 0.07260676, -0.010948881, -0.021948483, -0.061387986, -0.006391632, -0.0803099, 0.12805712, -0.082623914, 0.05528751, 0.012929887, 0.13243997, -0.079563394, 0.008088436, 0.084154844, -0.07670133, -0.071341425, -0.09744398, 0.09117692, 0.06364474, -0.07758562, 0.109802544, 0.039588857, 0.0024471804, -0.06545911, 0.08681418, 0.04733031, -0.056442373, 0.005561808, -0.04910871, -0.13376318, 0.054602563, -0.0836715, -0.06968581, -0.017721727, 0.11670449, -0.014268428, 0.05965581, -0.029356167, -0.078544885, -0.00063652545, -0.08530156, 0.04026546, -0.07547562, -0.11839789, -0.06496195, -0.013872974, -0.10148909, 0.013167858, -0.07162139, 0.07162397, 0.006313067, -0.0643641, 0.02223827, 0.03336776, 0.033221375, 0.013149417, 0.0129124075, 0.07111278, -0.017498486, -0.06123381, -0.11331008, 0.028119927, -0.07369182}, 
{0.030352844, -0.047632366, -0.076739535, 0.08004399, -0.048631795, -0.06245949, 0.09052558, -0.095346056, -0.08863096, -0.10910602, 0.092851445, -0.03305973, -0.037261575, 0.010131948, -0.09938564, -0.018458568, -0.123337336, 0.093854785, 0.068340026, -0.056236796, -0.07084763, -0.09047671, 0.043892585, 0.02303885, 0.021122659, 0.048252672, 0.0836025, -0.09733524, 0.015883883, -0.0805644, 0.07160432, 0.051823124, -0.030207366, 0.07298966, -0.09221741, 0.014312307, 0.09110451, 0.06249304, 0.09940413, -0.04007025, 0.08359863, -0.008584, -0.03882027, -0.0031675715, -0.11117882, 0.04216406, 0.09830469, -0.047009755, -0.08541129, 0.11202048, 0.040293854, -0.04205965, -0.051602863, 0.10960089, 0.0831524, 0.024246577, -0.010330768, 0.06099303, 0.12900448, 0.049633116, 0.03434204, -0.0036439304, 0.0464368, 0.0972593}, 
{-0.020530747, 0.11926877, -0.08130632, 0.047303047, 0.11353044, 0.12257278, 0.0846629, 0.105845444, 0.022628943, 0.0026085526, 0.10758773, -0.07767273, -0.016371386, 0.040349413, -0.09032884, 0.06979885, -0.012327161, -0.06768973, 0.0538566, -0.07998721, -0.08778381, -0.024443015, -0.07999751, 0.09229161, 0.12179199, 0.08198923, -0.017065158, -0.00027433268, 0.12117458, 0.020478487, -0.06993408, 0.013129085, -0.039691396, 0.097820796, 0.09564097, 0.019957157, 0.058233947, -0.046070952, -0.07523475, -0.09080308, -0.053411134, 0.0930457, 0.015878752, 0.040861394, -0.015640443, -0.016810266, -0.1043057, -0.09775479, 0.097603306, -0.012738727, -0.0818672, 0.09566071, -0.08274404, -0.0058845133, 0.03439197, 0.06761655, 0.0047923927, -0.011551864, 0.098099455, -0.032776177, 0.07047713, -0.07264624, -0.05007723, 0.049282998}, 
{-0.09266638, 0.07319603, 0.005632429, -0.09886141, -0.010184784, -0.015488406, 0.042088553, 0.121510826, -0.0076348707, 0.005604908, 0.043402076, -0.07664044, 0.012560819, -0.007862612, -0.11348084, 0.108650304, 0.0026060268, 0.06019585, 0.08250395, -0.003368765, -0.0060261427, 0.02156435, -0.05409047, 0.0402876, -0.06158788, 0.112621784, 0.041511074, 0.016806055, -0.07520676, 0.09676147, 0.07855149, 0.10584049, -0.09490917, -0.118252866, -0.03637962, 0.025979012, -0.05337613, -0.07606752, 0.014380828, -0.043784685, -0.026107669, -0.0061476305, -0.03801791, -0.11300384, 0.09669197, -0.0710486, -0.0185678, -0.023874603, -0.106204905, 0.10215041, 0.04358458, 0.06835912, 0.029007003, -0.064533114, -0.075011134, -0.11257306, -0.09009694, 0.10890138, 0.06649431, 0.07542318, 0.042120643, 0.0039254804, 0.051025335, -0.10521365}, 
{0.06570285, -0.068239085, -0.081158236, 0.09667051, 0.052218914, 0.025966978, -0.02237878, 0.027189191, -0.027057245, 0.019521013, 0.022166342, 0.04727901, -0.07350493, -0.06672896, 0.05197822, 0.10913998, 0.012280507, 0.015011331, -0.0021703658, -0.022801563, 0.015720395, 0.0051478073, -0.046369664, 0.03763868, 0.035482645, -0.08757358, 0.058770556, 0.06890464, -0.06950965, 0.028621988, -0.04608791, -0.029267512, -0.037422873, -0.12433196, -0.06934337, -0.07522001, -0.09202359, 0.081085086, 0.089878246, -0.06734524, -0.0063356236, -0.025459565, -0.056491464, -0.09118971, -0.018989444, -0.09846699, -0.0002007857, -0.012810058, -0.05890635, 0.102485284, 0.03199356, 0.027582688, -0.10335067, 0.08543721, -0.015068044, 0.08274284, -0.101273514, 0.056521744, -0.03115404, -0.042867064, 0.039640363, 0.08870627, 0.062147953, 0.06588842}, 
{-0.04963437, 0.12253821, 0.03543661, 0.0029804483, -0.012443699, -0.021731814, 0.09119232, -0.06581393, -0.031928428, -0.07872199, 0.056564078, 0.044900153, -0.019642819, 0.09662707, 0.052982517, 0.07624557, -0.09646317, -0.10287184, -0.032984532, 0.021761745, -0.05807752, -0.07046016, 0.009461235, 0.06622143, 0.0779335, 0.013746411, 0.0870669, 0.046591464, 0.122888215, 0.016061788, -0.1216876, -0.05367455, 0.08885448, -0.063977994, -0.05308132, 0.08320043, 0.034135252, -0.08670408, 0.06547563, 0.03912955, 0.08298823, -0.04658685, -0.082454994, 0.022284715, 0.008887062, -0.014262555, -0.062182933, 0.09121042, -0.09161635, 0.017680213, 0.1086493, 0.06624323, -0.10965839, 0.06799701, 0.031243026, -0.086222835, -0.011925743, -0.038105495, 0.060610853, 0.06690957, 0.1041796, -0.023324233, -0.03201082, 0.03524117}, 
{0.028292643, -0.0761718, 0.026277995, -0.08347284, -0.069014594, -0.044510443, 0.098187104, -0.07987152, 0.11320329, -0.07137662, 0.07199063, 0.09880354, 0.028997786, 0.053784598, 0.03936526, -0.041118544, -0.056291196, -0.020548914, -0.0451789, 0.101059124, -0.086257376, -0.06326106, -0.10032561, -0.022859097, -0.058379546, 0.015610397, 0.021445967, -0.033460207, -0.08976375, 0.018429508, 0.10086764, -0.0868712, 0.010230929, 0.07847855, 0.011791825, 0.06562902, 0.0391863, 0.061236046, 0.09391832, -0.11760792, -0.017174095, -0.042553306, 0.09482319, 0.09089386, 0.039808314, -0.07425556, 0.056414112, -0.0072579905, -0.097365245, -0.09916343, -0.044721536, -0.023601541, -0.03275793, 0.00051347166, -0.013736992, 0.06685034, 0.036254704, 0.055691883, -0.024670484, 0.028437704, -0.017525313, -0.104051895, 0.12014447, 0.07381171}, 
{-0.0061792405, 0.052748043, -0.05032215, 0.019561028, -0.09398603, 0.10411388, 0.004990101, -0.067789145, 0.06217694, -0.102283254, -0.004672836, 0.051634524, 0.08090622, 0.07998622, -0.1124581, 0.078666374, 0.023610946, 0.033799928, -0.101020575, -0.008430652, -0.056396246, -0.06899887, 0.06169538, 0.017933384, 0.11427007, 0.029368669, 0.06782463, 0.026887912, 0.05149155, 0.021647403, 0.05497321, 0.047372624, -0.10882745, -0.058185432, 0.005510129, 0.05903934, -0.034036487, -0.08678813, -0.070975095, -0.08954764, -0.07814063, -0.017891414, 0.033786483, 0.041659407, -0.04474429, 0.028956274, -0.056687392, -0.08493362, -0.014781624, 0.017881706, 0.033210013, 0.0676723, 0.08503568, 0.09869321, 0.008802364, 0.026777247, -0.03212188, 0.005585715, -0.043800574, 0.06357324, -0.059861034, -0.045231055, -0.041071486, 0.09295805}, 
{-0.023909092, 0.02375239, 0.052696854, 0.10897944, -0.09172328, -0.06433367, -0.028622366, -0.06801353, -0.061901703, 0.09280993, 0.081114165, 0.03301306, 0.07713349, -0.04233271, -0.05680088, -0.03992472, 0.04594471, -0.052578077, -0.03943177, -0.051305637, -0.026699409, -0.004159935, 0.018765109, -0.045214072, -0.035053737, -0.02220036, -0.086840555, -0.10731628, 0.12716033, -0.074415416, 0.09951563, 0.042567164, 0.10484545, -0.010627141, -0.107400395, 0.04877287, -0.027456775, 0.00067306135, -0.03312987, -0.08757537, 0.001879327, -0.008545123, 0.009630267, 0.01793529, -0.026157457, -0.0139590055, 0.08076526, -0.0997856, -0.045431994, 0.006348096, -0.052331187, 0.017891787, 0.005700536, -0.07460123, 0.012288082, -0.03732731, 0.073196344, 0.09057821, 0.008046582, 0.023217082, 0.009886576, -0.069546975, 0.098583855, -0.0643189}, 
{-7.5465636e-05, 0.05096158, -0.08843744, -0.09039275, -0.029951265, 0.0054127695, -0.0836856, -0.046269156, -0.09294179, 0.10649294, 0.08704352, 0.02294968, -0.055912156, 0.082221836, -0.109744996, 0.12861176, 0.059221573, -0.070849426, 0.11209022, -0.05991992, -0.032251347, -0.090555325, -0.11756637, 0.003322184, 0.10235495, 0.0032975152, -0.06523061, 0.01157599, 0.08145878, -0.004794314, -0.112476245, -0.11258177, 0.034565926, 0.05307351, 0.092238665, 0.01699435, 0.0429236, 0.020812526, -0.05101069, 0.0997528, -0.05545465, 0.043928728, -0.021698631, 0.06539752, 0.013735181, 0.045955434, -0.022136971, -0.020123027, -0.032520324, 0.041296154, 0.093491, -0.092335634, -0.107711256, 0.049580663, -0.107815824, 0.03528958, -0.01965558, -0.0977547, 0.037259415, -0.053269364, -0.12058062, -0.11330951, 0.017851222, 0.07645957}, 
{0.045204848, -0.0020512862, 0.11943482, -0.05843834, -0.056382976, 0.03759513, 0.10010055, 0.03060464, 0.0006509467, 0.038791224, -0.040697172, 0.10214181, 0.024036389, -0.024235515, -0.053473193, 0.013559591, 0.09586869, 0.04667168, 0.0002930169, -0.083383255, 0.09206986, 0.10572454, 0.0647399, -0.044231407, -0.010074062, 0.012600109, -0.096000165, -0.0051976796, -0.0001569992, -0.015471737, -0.0229133, -0.10340323, -0.08627943, 0.05493857, -0.05402375, 0.10464197, -0.034147374, -0.052333627, 0.06941308, -0.09749204, -0.027985647, 0.104408965, -0.088874735, -0.011857594, 0.0248339, -0.08763526, -0.0141255185, 0.07309947, 0.09633866, -0.079804614, -0.09436708, -0.024002895, -0.10814375, -0.057577632, 0.10044014, -0.08384704, -0.09371998, 0.020668909, -0.074022055, -0.052885275, 0.031830814, 0.06312195, -0.069405034, -0.0027930215}, 
{-0.10110299, -0.060627043, 0.09324025, 0.05226781, -0.0044922247, -0.086534515, 0.022317126, 0.05231095, 0.05025511, -0.094883, 0.0031741776, 0.07732101, -0.00076136267, 0.022631561, -0.073760584, 0.047934014, 0.06259589, 0.024557322, -0.05177122, -0.020345517, -0.03550187, 0.066706896, -0.051014576, -0.11272898, 0.067412786, 0.009894088, 0.0051890835, -0.088885225, -0.038316824, 0.11096673, 0.09037115, 0.08489974, 0.056431755, -0.09964099, 0.039809793, -0.011153155, 0.10199478, -0.043252584, -0.07768053, -0.045436934, 0.058936253, -0.01964286, -0.10482009, 0.10405391, -0.06750095, -0.0007404179, -0.10847578, 0.081136405, 0.052869633, 0.01784581, 0.040508468, 0.061497405, 0.07592639, 0.068113044, -0.081493385, 0.03930245, -0.08894677, -0.07710934, 0.08428604, 0.06392339, -0.027124334, -0.062475547, 0.00884147, -0.059306517}, 
{0.0016650048, 0.034283705, -0.045306485, 0.08136231, -0.025427163, 0.12619673, -0.08608756, 0.10935402, 0.03504123, 0.047463447, -0.040609363, -0.08898739, 0.06145402, 0.012048246, -0.083000086, 0.07150082, 0.056246463, 0.07292311, -0.022661705, 0.093082294, -0.021842431, 0.036077157, -0.05456663, -0.06433265, -0.038769033, 0.039818928, -0.02929995, -0.040801235, 0.11314909, 0.0609128, 0.018911727, 0.00895109, 0.05855149, 0.026989367, 0.0120842755, 0.0822988, -0.07638144, 0.08873455, 0.040885255, -0.08723708, 0.00481233, 0.026208714, 0.07538746, -0.048418153, 0.013085125, -0.09084539, -0.10110823, -0.118929856, 0.09264879, -0.09315789, 0.039770965, -0.044339042, 0.04984957, -0.054384604, -0.09201492, 0.07284715, -0.00071599963, -0.02460403, 0.009136271, -0.060201935, -0.04251328, 0.08438373, 0.11996429, -0.07740152}, 
{0.04198867, 0.0040663406, -0.03439657, 0.09769711, -0.104677156, 0.12045842, 0.06851362, 0.0220542, 0.09306223, 0.041144952, 0.008403943, 0.05343238, -0.07833531, 0.030701272, 0.067528814, 0.10417279, 0.044329688, -0.08698008, 0.034624476, -0.084203675, 0.04387696, -0.092691265, 0.10455923, 0.0049580783, -0.06715467, 0.09079817, -0.07328935, 0.043549143, 0.0555875, 0.064104676, -0.1144403, 0.08273555, 0.087390274, 0.045644883, -0.030999765, -0.05470463, 0.04129754, 0.062126707, -0.0769285, 0.040314753, 0.044614926, -0.026837192, -0.08912433, -0.060855094, 0.010118553, 0.08818789, -0.071988344, -0.06678993, -0.046810843, 0.057838365, 0.032175574, -0.034037504, -0.0603559, 0.10465059, 0.03669524, 0.078666516, 0.03603939, -0.019876018, -0.07872638, 0.10255207, 0.07131253, -0.09769345, 0.11248659, -0.044228725}, 
{0.04694959, 0.07381044, 0.079695046, 0.086435914, 0.11033767, 0.11213406, -0.08716894, -0.020496182, 0.09493584, -0.0052264556, 0.042991854, -0.063921586, -0.05476436, -0.12029841, -0.12436512, 0.07508928, 0.081527054, -0.092798576, 0.017547205, -0.06340966, -0.021514637, 0.09725812, 0.044787265, 0.0096319765, 0.13135044, 0.00023262203, 0.034108687, 0.09569611, -0.021383643, -0.042947136, -0.016378801, 0.021362334, -0.06657468, -0.025553629, -0.06829792, 0.13098197, -0.0041483864, -0.021948569, 0.0069573224, 0.09476693, -0.049773745, -0.08860665, 0.06553568, 0.025094926, -0.10325367, 0.016073626, 0.111125186, -0.06141753, 0.03882639, 0.05703138, 0.080875695, -0.042404607, 0.030472845, -0.026078664, 0.055738717, -0.016159702, 0.0065601524, -0.09278784, -0.021824768, 0.021662354, 0.08288477, -0.09812786, 0.033734135, -0.009244576}, 
{-0.0094654495, 0.12425869, 0.0681278, 0.1055654, -0.05016093, 0.010634977, 0.10801537, 0.00978842, -0.08715898, 0.102164775, 0.11943974, 0.12915699, 0.062243797, -0.037644174, -0.023759197, 0.12869856, 0.013798814, -0.031598914, -0.10445641, 0.056635797, 0.05665617, 0.10339339, 0.026037615, -0.017818809, 0.10002123, -0.06640935, 0.08192535, -0.016312893, -0.06800557, 0.0744551, -0.03414039, -0.04023265, -0.008219831, 0.07598103, -0.010901615, -0.005139226, -0.0027946457, 0.069410354, -0.07002914, -0.10089538, 0.0114568025, -0.10947043, 0.074932426, 0.0022842921, 0.019493928, 0.06354468, -0.08768319, 0.096770234, 0.070476234, -0.11172534, 0.04003747, 0.026442384, 0.058601484, 0.10231237, 0.080179706, -0.020901049, 0.12761845, -0.049037367, 0.03370454, -0.023988381, 0.08615007, -0.10070568, -0.05978802, 0.01680161}, 
{-0.13970552, 0.016571723, 0.022850284, -0.034708787, 0.073595315, -0.0046506478, -0.10461109, 0.07618741, 0.020483738, -0.09527588, -0.020564722, 0.00032084403, 0.0009820355, -0.12669034, -0.0615307, 0.079630055, 0.013772245, 0.02389044, -0.039304446, -0.08594165, -0.0603689, -0.09999958, -0.12500308, 0.0057477653, 0.0492215, -0.06521112, -0.026185412, 0.0066123027, -0.026326416, 0.0932636, -0.15163253, -0.055529315, -0.09273492, -0.12751499, -0.10793276, 0.07017717, -0.09018157, -0.045691065, -0.052194387, 0.0046508256, 0.03955908, 0.059666663, -0.031725768, 0.005377201, -0.098964855, -0.020632079, -0.09032932, -0.11831323, -0.003213957, 0.08350767, 0.13667546, -0.09328173, -0.016050965, 0.041040555, -0.06592773, -0.088924155, 0.057152435, 0.04671745, -0.054814007, -0.06978573, -0.047291256, -0.056913275, -0.039562892, -0.07643032}, 
{-0.038854346, 0.12339574, 0.079699144, 0.06287762, -0.110651866, 0.099301636, -0.06293011, 0.12427055, 0.03160912, -0.041318342, 0.14731614, 0.0543379, 0.021563336, 0.050870866, -0.0826234, -0.027639158, -0.00516692, -0.1438289, 0.099613965, 0.08150232, -0.029764572, -0.090276755, -0.059464924, -0.06128578, 0.10770376, 0.085298255, 0.09733897, -0.109094605, 0.087881394, 0.07888594, 0.016467646, 0.057577014, 0.07611813, -0.09983255, 0.041462526, 0.0061649275, -0.09332077, 0.031634647, 0.020781338, -0.084905334, 0.001031436, 0.010105886, -0.0005890038, 0.038486265, -0.07622272, -0.09495608, 0.058453664, 0.034268163, 0.01585801, -0.03815245, 0.079494886, 0.002450283, -0.03381244, 0.008639954, -0.11237999, -0.069088735, -0.00041828497, -0.080760114, 0.029433297, 0.06551686, 0.034216158, -0.12086089, 0.093256585, -0.02220855}, 
{-0.11589298, -0.0031618583, 0.046837807, 0.006854228, 0.06631437, 0.018239833, 0.06680149, -0.055149183, 0.080824934, 0.022019058, 0.0301486, 0.10781415, -0.034293413, -0.11613066, -0.031964503, 0.005722223, 0.0028800673, 0.008436844, -0.12292532, 0.103619665, 0.047081012, -0.026116267, -0.063376576, -0.09619063, 0.09096827, 0.06512697, -0.09221342, -0.06627371, 0.071651876, 0.015288797, -0.12116642, 0.10108489, -0.09686398, -0.014307932, 0.0018190295, -0.021801908, 0.07178484, -0.027440662, 0.053242475, -0.024983477, 0.049444765, 0.021035343, 0.04684533, -0.011755257, -0.039453417, -0.0028533665, 0.0314731, 0.102742165, 0.040649623, -0.00071693957, -0.07322547, -0.008814224, -0.072947636, -0.06482202, 0.039047617, -0.025865385, 0.032168318, -0.029113844, 0.09540307, 0.09464331, 0.09679121, -0.12302463, -0.024153681, -0.051514994}, 
{0.041661534, -0.033731136, 0.0933237, 0.0008066408, -0.034571428, 0.0019472406, -0.110749826, 0.073080644, 0.115963735, 0.06514548, -0.061437853, 0.10190305, -0.031373188, 0.017887678, -0.071807705, -0.00885434, 0.04187778, -0.062109992, 0.009311987, 0.031229258, -0.13019249, 0.055664092, -0.07315735, -0.04976637, 0.0018406302, -0.037499435, -0.10084652, 0.015486139, 0.032312408, 0.009025703, -0.103132375, 0.019424096, 0.022027418, -0.09753913, -0.038774855, 0.13278493, -0.02979248, -0.01013202, -0.042549454, 0.027731523, -0.08561815, 0.0016670972, -0.033221368, -0.14110482, -0.050986905, 0.038443707, -0.08224933, 0.02230093, -0.04743821, 0.035979956, -0.06102563, -0.0789345, 0.04169105, 0.021285996, 0.06717329, -0.14128979, 0.13985536, 0.039569795, -0.035837833, -0.043142796, -0.06520347, -0.0037150076, 0.027497262, 0.07854864}, 
{-0.03216994, 0.1290359, -0.07244635, -0.055828776, -0.10209362, 0.096328825, -0.029370323, -0.021081092, 0.052620888, -0.038528547, 0.10221271, 0.08984158, 0.051800825, 0.031082481, 0.047072694, -0.008438884, -0.13182054, -0.07181739, 0.011397065, 0.10329278, -0.06327238, 0.0565684, -0.045630533, 0.10303795, 0.022481458, 0.06250529, -0.03367993, 0.09518122, 0.09895281, 0.021814339, -0.04060131, 0.055870116, 0.05518405, 0.081341274, 0.060793296, 0.02108676, -0.10378497, 0.07336075, 0.037471324, -0.04342047, -0.07112256, 0.035253152, 0.021927029, 0.0042420705, 0.05557272, -0.06702622, -0.049441382, 0.018422857, -0.06475781, -0.06446273, 0.022285752, 0.0923262, -0.07414063, 0.009566769, -0.10757983, 0.052251317, -0.036897745, 0.102360606, 0.03572005, -0.033169404, 0.013170667, -0.09947302, 0.06873891, 0.112681895}, 
{0.022741763, 0.1013881, -0.04155995, -0.103582755, 0.023394825, 0.101293, -0.05700606, 0.083127506, -0.018199753, -0.038280286, 0.07475839, -0.008788504, 0.09491408, -0.066225894, 0.00026898683, 0.107615806, -0.099956155, -0.11926157, 0.080731936, 0.09303349, -0.074512556, -0.06430762, 0.057054702, -0.09354374, 0.004923554, -0.0007342398, 0.06948397, -0.08416215, -0.08214975, -0.080055065, -0.03415678, -0.068416536, -0.08259476, -0.082824394, -0.06902766, -0.031021075, 0.041958764, 0.11149986, 0.10821015, -0.09990814, 0.05340755, -0.061529025, -0.0041485215, -0.066526495, 0.0406384, -0.09814395, -0.050685972, 0.0037507243, -0.050144583, -0.089200124, 0.105005085, 0.0025264514, -0.07640061, 0.026430815, 0.088938944, 0.08219575, 0.09648341, 0.09008117, -0.024607928, -0.009132899, -0.0052546216, 0.08412846, 0.11386211, 0.03865795}, 
{0.027370606, 0.10138969, 0.066891536, -0.059701875, -0.0078057763, 0.052483555, -0.06848825, -0.06984181, 0.08664483, 0.09026602, -0.069751166, -0.102593236, -0.027172118, 0.06255982, 0.012925644, 0.06400505, -0.07479107, -0.08244752, -0.04701984, 0.09311457, -0.10556831, -0.113557085, -0.02143709, -0.07058886, 0.08749145, 0.10951622, -0.005352182, -0.0400903, 0.025106438, -0.112685785, -0.011953584, 0.059194088, -0.08008652, -0.09830501, 0.06381281, 0.07284724, 0.056838512, 0.07849008, 0.07720983, -0.021129189, -0.045363702, 0.069736555, -0.09247029, -0.100448735, 0.070057236, -0.1074145, 0.09400134, 0.01766604, -0.08669234, 0.01454252, -0.026637943, 0.07020496, -0.051483084, -0.1069482, -0.044342574, 0.092833586, 0.031924676, -0.11363598, 0.044768635, -0.10651831, -0.0050625694, -0.08185121, -0.07930923, 0.0542029}, 
{-0.013362851, -0.02486491, 0.09151552, 0.014399958, 0.091222346, -0.08573001, -0.008252747, 0.11603081, 0.06385154, -0.08391388, 0.06968731, 0.005520445, 0.05173874, -0.022305628, -0.04573004, 0.023048732, 0.007836205, 0.043231715, -0.062946275, 0.030756027, -0.010448164, -0.070291415, -0.030207595, -0.0005433485, 0.12864207, 0.06806341, -0.08463398, 0.101836056, 0.09684356, -0.011045574, 0.024989463, 0.05616972, -0.08691745, 0.018304083, -0.018201493, 0.04678074, 0.039200887, -0.011335176, 0.10646206, 0.07760992, -0.029381141, -0.09255078, -0.058790315, 0.10978914, -0.07989215, 0.026151534, 0.10979365, -0.0211083, -0.05930966, -0.028235584, 0.06121252, 0.009744985, 0.022918716, -0.0073066577, -0.09562138, -0.112599604, -0.06341836, -0.0013058111, -0.08428808, 0.022362217, 0.083964795, -0.06324744, 0.104910225, -0.018987648}, 
{-0.015600872, 0.11742556, -0.05097089, -0.011133846, 0.014571699, 0.11677917, -0.06681515, 0.10261506, -0.01168877, -0.03360644, 0.085411526, 0.06611527, -0.0823939, -0.024239138, 0.03737655, 0.12548235, 0.08989824, -0.014728511, 0.10799792, 0.015337363, -0.0445313, 0.0408168, 0.072235934, -0.0892281, 0.054941002, 0.036778048, 0.050859306, 0.01052883, 0.084292345, -0.065082334, -0.05724975, -0.0586181, -0.016814679, -0.071971655, 0.041163504, 0.018981397, -0.079220906, 0.041352667, 0.10052584, 0.06668465, -0.04115659, -0.060587924, -0.016846009, 0.0043244157, -0.01338878, 0.036598243, -0.09255096, 0.078401886, -0.09890424, 0.017751932, 0.008159376, 0.06364662, 0.07239802, 0.07803458, -0.025450591, 0.030806383, -0.08772766, 0.019241825, 0.10026478, -0.025607295, -0.027562873, 0.07754648, 0.04919327, -0.06545415}, 
{-0.06920935, 0.016161924, 0.09057249, -0.013998989, -0.054965883, -0.04047784, 0.024240062, 0.067963265, -0.012208196, 0.10286, -0.016537653, 0.09971928, -0.102606945, -0.09904254, -0.036720026, 0.036602635, 0.09112792, 0.054818913, 0.033485938, 0.04404615, 0.060118247, 0.07134463, -0.10810759, -0.03259097, 0.11264811, 0.021769315, 0.017825527, 0.02789232, 0.066730276, -0.082550995, 0.04005382, 0.084068045, -0.080575, 0.0035895107, 0.095915854, 0.08471276, 0.0023213848, 0.055586662, 0.08730954, 0.08980127, -0.11197224, -0.007210873, -0.007586744, -0.021125948, 0.09826247, 0.09403905, -0.025660679, -0.043275543, 0.029564083, 0.024217412, 0.006507217, -0.111743025, -0.022660121, 0.051771283, -0.04352221, -0.07260703, 0.07067628, -0.03560417, 0.012283764, -0.045291208, 0.10385992, -0.010862375, -0.06892697, -0.072569914}, 
{0.0430812, 0.07180183, 0.023859624, -0.012150034, 0.023354603, 0.0053287875, 0.06254032, -0.1006033, 0.06418965, 0.1028305, 0.017797224, 0.10950579, 0.10489585, 0.07541146, 0.022358913, 0.07452803, 0.061273895, -0.006608985, -0.062484257, -0.10784335, 0.060585607, -0.037036695, 0.013858289, 0.08547807, -0.009937047, 0.022427157, 0.0034237595, 0.08747662, 0.039263126, -0.1043017, 0.02758373, 0.004480399, 0.039186552, 0.05793676, -0.08993859, -0.090318635, -0.10920536, 0.034095716, 0.045790464, 0.035202138, -0.08602182, -0.03885378, -0.07066156, 0.05201816, 0.09162087, 0.028775666, -0.113093555, -0.09640704, 0.072851494, -0.043876298, -0.021327972, 0.04433572, -0.10271238, 0.06302847, 0.036953, 0.08462123, 0.08871916, 0.027684435, -0.054388553, -0.10977381, -0.014027301, -0.026603118, 0.08318608, -0.067834206}, 
{-0.0142808715, -0.07579702, 0.072670035, 0.072246596, -0.04445666, 0.044239897, -0.11164028, 0.0792369, 0.05552919, -0.0013558269, -0.028465638, -0.081446044, 0.057019334, 0.044968, 0.024896841, 0.037223637, -0.025112616, 0.03265273, 0.107100464, -0.06970006, 0.014168041, 0.06780478, 0.02900448, 0.1053132, -0.03776277, 0.008527495, 0.069818966, 0.050070263, 0.034131434, 0.09253528, 0.048391316, -0.0652716, 0.008187026, -0.059228413, -0.106974415, 0.058030907, -0.08892272, 0.0935134, -0.11176991, 0.088555224, -0.100293495, 0.013821632, 0.08118167, 0.0065532546, -0.049592678, 0.011765962, -0.0981158, -0.077758774, 0.016886279, -0.062385023, 0.113024, 0.038086515, 0.044032037, 0.005647771, -0.0015126367, -0.002031193, 0.08731813, 0.06496604, -0.06569558, 0.07595217, 0.075113826, -0.05395557, 0.0345981, -0.10941813}, 
{0.030226942, -0.041603204, 0.04468189, -0.025366537, -0.010346841, 0.115997225, -0.036069945, 0.083447754, 0.08885774, 0.09668824, -0.03071975, -0.03824277, -0.07578925, -0.06412813, 0.025065728, -0.018595766, 0.08897759, -0.051868033, 0.04748405, -0.046784982, 0.04860345, 0.044478536, 0.0074304575, -0.010270752, 0.008380233, 0.009829424, -0.056234468, -0.08697436, 0.08208048, -0.065919735, 0.09921802, 0.080193445, -0.08063801, 0.010501109, -0.029065423, -0.043420766, 0.07885681, -0.048636924, -0.10081044, 0.086046614, -0.05737031, -0.045609392, -0.05815935, 0.10478805, 0.09117003, -0.032225423, 0.077416375, -0.07079246, 0.10833429, 0.023060784, -0.050852925, -0.11678809, -0.10815722, 0.07506718, -0.07567431, 0.042697925, -0.09151529, -0.056557473, 0.07346105, 0.027791172, 0.034677107, 0.0095383255, 0.077889346, -0.010766596}, 
{-0.08315072, -0.017496657, 0.101415664, 0.07839693, -0.01536373, -0.021624612, -0.013346277, 0.00744245, -0.040033862, 0.017360523, -0.06694515, -0.029687295, 0.060237903, 0.028064543, 0.0013721081, 0.11111546, 0.058759928, 0.1086786, 0.116326936, -0.020541698, -0.041839875, -0.024840415, 0.095242016, 0.018585742, 0.11867078, 0.023094699, 0.004592493, 0.061249092, 0.10637481, -0.03590515, -0.10021011, -0.0243783, 0.084022686, -0.09740779, 0.10980651, 0.07487939, 0.07232936, -0.040996026, -0.073109165, 0.0037178793, -0.09874529, 0.03933251, -0.09035175, 0.05980531, -0.10970955, 0.09410455, 0.08201899, 0.10167632, -0.011856459, 0.0925675, -0.06807043, -0.10880534, -0.088280246, 0.08508696, -0.06584548, 0.057771955, 0.097302705, -0.060608774, 0.071434654, 0.02266641, -0.02391414, -0.042200435, 0.053644933, -0.02429761}, 
{-0.03270104, 0.114995696, -0.06699118, 0.1129712, 0.06546034, -0.081697434, -0.07698798, 0.054450065, -0.09239512, 0.068533465, -0.06452175, 0.018535677, 0.08440429, 0.056337353, 0.10996691, -0.09427171, -0.01511293, -0.032084413, -0.062074956, 0.05391687, 0.04400764, 0.106588945, 0.10830924, 0.10418722, 0.032831475, -0.08587612, 0.05796756, -0.0017731482, -0.09021947, -0.046543136, 0.08492094, -0.03897711, -0.06578559, -0.07608835, 0.09677467, 0.11451604, -0.06500269, -0.07304289, -0.07280269, 0.09840219, 0.09596813, 0.0925422, 0.018273847, -0.011288203, 0.08754252, -0.006340033, 0.11305207, 0.008712471, -0.06778492, -0.030014113, -0.05707604, 0.09797664, 0.04455024, -0.014164239, 0.00021980652, 0.07528925, 0.044168204, -0.0069399998, 0.025018407, -0.10542284, -0.012284771, -0.025166988, 0.05317324, 0.05915968}, 
{0.025464863, -0.09076787, 0.10912444, 0.018927526, -0.0768195, 0.07728783, 0.09831561, -0.07059158, 0.05845802, 0.025797129, 0.06092047, 0.11031838, -0.114705294, 0.07957378, 0.078895964, -0.09598965, 0.093461335, 0.10044347, -0.028928732, -0.04913879, 0.07562868, 0.06281328, -0.052611887, -0.0062168464, 0.08677866, 0.012362748, -0.04711071, 0.07770058, -0.055305995, -0.043592196, 0.05278501, -0.042284817, -0.08444657, 0.029071817, -0.046623424, 0.0075999363, -0.025438555, -0.02266612, -0.080247484, -0.09106404, -0.06313637, -0.08988309, 0.06559489, 0.005947526, -0.034314748, -0.06436162, 0.0044256076, -0.016903438, 0.007756822, 0.003215067, 0.102386996, -0.109340146, 0.066749975, 0.049057513, -0.100101665, 0.08760199, 0.06141674, -0.016908102, 0.0041640466, -0.080637485, -0.043853242, 0.036438625, -0.060329556, 0.012217045}, 
{-0.008774039, 0.06003646, 0.02448981, -0.045402534, -0.114109255, 0.043142907, 0.053155527, 0.11068346, 0.12399356, 0.039981186, 0.10394555, 0.09795166, 0.09704469, 0.019634617, -0.010317214, 0.13211499, -0.12903148, 0.07110306, 0.109337814, -0.08703653, 0.011034339, 0.094576314, 0.058027297, 0.09159687, -0.039768554, 0.10526912, -0.070298664, 0.056792952, -0.003991006, 0.016570259, -0.0015260874, 0.06659351, -0.09429601, -0.048483286, 0.10457504, -0.014425436, -0.027250081, 0.052216068, -0.034401953, -0.10608077, -0.10418611, -0.0049462616, 0.10576571, 0.07030934, -0.116616815, -0.073688835, 0.108242944, -0.0198951, 0.06981696, -0.10058367, 0.07178349, 0.056061324, 0.052701488, -0.10507928, -0.042991687, -0.025495024, 0.12865676, 0.032112375, 0.015504973, -0.06662215, 0.029688843, -0.05319423, 0.10964867, 0.093602926}, 
{-0.023939814, 0.024173977, 0.0948544, 0.005216518, 0.08462629, 0.068469465, 0.0062768757, 0.10955997, 0.01980612, 0.1016034, 0.024197482, 0.10323904, -0.00053425005, 0.047452834, 0.048750088, 0.03460202, 0.016236935, -0.07175309, -0.04214558, 0.078208685, 0.069992654, -0.0693693, 0.044807486, -0.012239493, 0.12150299, 0.070989355, -0.018161723, 0.0036769088, -0.014474183, 0.10072455, -0.10909337, -0.09263639, -0.03589776, -0.11902308, -0.064354956, -0.018020775, 0.09574573, -0.03158666, -0.091166556, -0.015621709, -0.111087665, 0.045255557, -0.100817986, 0.054826617, 0.047403626, 0.043036874, 0.10767096, -0.08769115, -0.03682726, 0.109077856, -0.08845658, -0.05939656, 0.009859793, 0.01901427, -0.002383261, 0.067340225, -0.043389652, 0.09751563, 0.05387308, 0.042903945, 0.069365144, 0.018346531, 0.0034865635, -0.0018550083}, 
{0.077622704, 0.0993108, 0.0750145, -0.0008921589, -0.03956628, 0.09295006, -0.11344511, 0.09121453, -0.07416703, -0.04690413, 0.07181018, 0.00013570198, -0.06224166, 0.09964938, -0.02165831, -0.021377273, 0.053971622, -0.03238738, 0.08558055, -0.047625765, 0.009313118, 0.09981023, -0.09075004, 0.09275764, -0.03176832, -0.06627701, -0.058946103, -0.082661, 0.12431397, 0.02835342, -0.014341934, 0.025946796, 0.05406919, -0.012093658, -0.11210818, 0.02741181, -0.063084826, 0.05609974, -0.029513739, 0.06350901, -0.083352126, -0.039891772, 0.056187358, 0.00988293, -0.005762717, 0.010545459, 0.087618664, -0.090851545, 0.056385726, 0.09541683, 0.09539618, -0.08485355, -0.09173176, -0.010353982, -0.036632854, -0.0705841, -0.033921577, -0.047712035, 0.061426625, -0.042821683, -0.06549966, 0.088322446, 0.068616435, -0.045529358}, 
{-0.029284637, -0.06283826, 0.08555118, 0.07029605, 1.2119142e-05, -0.08058816, -0.07722572, 0.045328774, 0.048551813, -0.05500598, 0.08366118, -0.08705824, 0.0033726082, 0.019279243, 0.077494025, 0.09753492, -0.052187208, 0.071555, 0.06513579, -0.016351096, 0.019409273, 0.106727585, 0.016226912, 0.10247369, 0.013134802, 0.016277462, 0.07565735, -0.09011724, 0.11582406, -0.004844566, -0.12160433, 0.06375541, 0.112051845, -0.12197642, -0.10553858, 0.098965265, 0.096468315, 0.13597688, -0.0060777366, 0.048521053, 0.109142125, 0.05700031, 0.048904706, 0.07880697, 0.00842618, -0.019849306, -0.048835576, -0.07150054, -0.07119353, -0.11164972, 0.016018078, -0.11416595, 0.09069167, -0.06625795, 0.10121845, -0.084298074, 0.06202417, -0.056757666, -0.032554355, -0.016052514, 0.044839755, -0.06365166, 0.11017973, -0.10535463}, 
{-0.025086993, 0.102606185, -0.06415623, -0.08668021, -0.01950579, 0.1510267, -0.08325737, 0.12616833, -0.008768058, 0.04830736, 0.06979696, 0.004789059, -0.037694916, -0.13353558, 0.0047809146, 0.13267544, -0.013672734, 0.0723352, -0.032745875, 0.08367331, -0.0400581, 0.042829767, 0.06494688, 0.061685413, 0.005884686, -0.060759515, -0.05225862, -0.039993446, 0.12947676, 0.0699707, -0.057286944, 0.003734365, -0.00045792013, -0.031551164, 0.020199105, 0.1346909, 0.03204833, 0.07656291, 0.06802553, -0.0079726335, -0.041766845, 0.11306517, 0.027448915, 0.012057498, -0.11128186, 0.03388773, 0.08951765, 0.044319708, 0.026176587, -0.022346765, 0.12709667, 0.0053885444, 0.037448138, -0.003558658, 0.047235485, -0.07368829, -0.06699002, -0.11350999, 0.13893242, -0.015262857, -0.095436595, -0.026938805, -0.07096344, 0.040192857}, 
{0.022567293, 0.0803731, -0.052073106, 0.034572095, -0.1157272, 0.14397936, -0.07505253, 0.11161572, 0.0830522, -0.048273683, 0.1090926, 0.10058241, 0.08146756, -0.1146572, -0.13602601, -0.042569894, 0.016514046, -0.13749641, -0.028734136, -0.04250098, -0.09112705, -0.09077968, 0.068719864, 0.018225133, 0.15548776, -0.035981998, -0.05076702, 0.01670187, 0.11247037, 0.101368845, -0.017637733, 0.07450238, -0.1135381, 0.06734429, 0.08396909, 0.15680933, 0.050538167, -0.037975956, 0.022834584, 0.085110895, -0.10440482, -0.083719194, -0.010434096, -0.13423331, 0.050537296, 0.03598095, 0.034354016, -0.09473526, -0.087750755, 0.07890497, 0.08036505, -0.05725751, 0.08225009, -0.09761234, 0.0294502, -0.1520882, 0.0539889, 0.06281917, 0.006908724, -0.019204542, 0.09051619, -0.016807977, -0.052806616, -0.05880362}, 
{-0.032738265, 0.10182515, -0.018026635, 0.061407797, -0.039542947, 0.0035864024, 0.07460514, 0.10514488, -0.031865805, -0.10202441, -0.046575677, -0.020496117, -0.09281373, 0.03543248, -0.034939375, -0.03304011, -0.013339689, -0.13380453, -0.016280586, 0.1056342, -0.00020277359, -0.036023937, -0.12065316, -0.07771476, 0.0467618, 0.03430882, -0.048474815, -0.07654291, 0.06667797, -0.03230507, -0.05257033, -0.111246735, 0.033705205, 0.07538642, -0.10215935, 0.085388094, 0.020874545, 0.023055084, 0.041738927, -0.07764405, 0.010593601, 0.022184387, 0.039894003, -0.022833055, -0.061083894, 0.04504593, 0.048539057, -0.04038134, 0.07693227, 0.07681373, -0.04852082, 0.016639462, -0.07444987, 0.018471122, -0.12709881, -0.044723075, 0.029061053, -0.001846686, 0.10553374, 0.05433917, -0.088136055, -0.032612983, -0.009009789, -0.09806437}, 
{-0.010201122, -0.0071076932, 0.087650865, 0.02125983, -0.0150904665, 0.07070876, 0.038796052, 0.111356296, 0.055660903, 0.07623382, -0.054076787, -0.03583392, -0.03424533, -0.13816856, -0.10344202, 0.0066645653, 0.045352854, -0.11063548, -0.08274059, -0.026002504, 0.030025331, 0.046451777, -0.10732478, -0.029940508, -0.057699587, 0.097462386, 0.08074872, -0.042350877, 0.035101958, -0.038314573, -0.13919908, 0.021576717, -0.04480184, 0.016353525, 0.011977598, 0.08606267, 0.08106995, 0.08904005, -0.07556446, -0.06677146, -0.019193128, -0.0045653656, 0.120602764, -0.07411289, -0.06982106, -0.079370774, 0.016047388, -0.024446342, -0.07411252, 0.09154995, 0.012726705, 0.04228169, 0.098944604, 0.09346588, -0.118222125, -0.019118795, 0.06475531, -0.005677812, 0.06227514, -0.08332469, 0.027678613, -0.0844424, 0.1022092, -0.068862796}, 
{-0.05699447, 0.10473684, -0.042198457, 0.08746283, 0.0053838473, 0.10273308, -0.055699117, 0.11452975, -0.06649045, -0.044404954, 0.083642125, 0.021478975, 0.049496442, -0.07489979, 0.03960857, -0.06400892, -0.041945923, -0.054689113, 0.044388067, 0.09951946, 0.04781597, -0.036421746, -0.12262849, 0.05962096, 0.081772335, 0.10020392, -0.06326591, 0.005414935, 0.123528816, -0.091437764, -0.08575854, -0.05044248, -0.024699189, -0.12171027, -0.07365796, 0.009236112, -0.11068173, 0.13132717, -0.049062036, -0.05462407, 0.06842415, -0.10523938, -0.02495262, 0.015136327, 0.04912165, 0.08151982, -0.065132685, 0.038618863, -0.08778348, -0.033270232, -0.062884904, -0.077264324, -0.09952949, -0.084456116, -0.10434381, -0.12788467, 0.11645476, 0.07099104, -0.018151546, 0.08768083, -0.072572365, -0.11122102, -0.041519295, 0.07589045}, 
{-0.12723015, 0.019806907, 0.10103959, 0.04615294, -0.051319174, -0.05659008, 0.08043006, -0.03898415, -0.043985743, 0.06832458, -0.011554196, -0.0010714236, 0.014850064, -0.077287465, 0.074645326, 0.11134113, 0.019790126, 0.09901872, 0.00021898393, 0.035596684, 0.08916732, -0.09140983, 0.065260604, -0.007883459, 0.025610613, -0.06580444, 0.007680235, -0.10707993, -0.065285616, -0.012114163, -0.049528502, -0.05151852, -0.06610608, -0.0745577, 0.097250566, -0.030688122, -0.049750835, -0.024478406, -0.055161547, -0.05344755, 0.09741564, -0.012459807, 0.112245336, -0.00051255064, -0.03820415, 0.020166269, -0.022368968, 0.048704993, 0.060541674, 0.09089826, 0.124861345, 0.06791844, -0.07597506, -0.0833849, -0.009663843, -0.011124742, 0.059885316, 0.0021287054, -0.071513765, 0.081853196, -0.114735916, 0.06173726, 0.045896582, 0.07252593}, 
{-0.11399142, 0.094897084, -0.054961283, -0.07484885, -0.089120746, 0.03169775, 0.070060834, -0.03974759, 0.011047535, -0.07048101, -0.020810122, 0.01972657, 0.06318787, -0.03659993, 0.06610569, 0.017218808, 0.07285754, -0.08953056, -0.06495873, 0.021729186, 0.047816977, 0.023739547, 0.09921106, 0.018742204, 0.11848803, 0.041529626, -0.051654126, -0.002402517, 0.08290266, 0.09286618, 0.047887336, -0.055240005, 0.058091268, -0.071890295, 0.07253072, -0.0477863, -0.08659309, -0.093194924, -0.033502445, 0.08727709, -0.03534753, 0.04352276, -0.072696604, -0.11104056, 0.088939175, 0.09226462, -0.10270725, -0.06822653, 0.03498307, -0.06751263, -0.048280116, -0.00016543902, -0.06592041, -0.007894143, 0.06872618, 0.035098407, 0.053808965, -0.034271084, -0.038955703, 0.06081891, 0.09014123, -0.009419641, 0.005718958, -0.08178518}, 
{0.07884904, 0.017630907, 0.07217791, -0.02509675, -0.05039999, 0.08040893, 0.07911934, -0.02324446, 0.05663783, 0.110855594, 0.09428748, -0.08603614, 0.014635749, 0.08858376, 0.049487278, 0.047561735, -0.046478905, 0.07626301, -0.077863805, -0.010153465, 0.010509946, 0.018016353, 0.04410401, -0.09762221, 0.004332197, -0.035102226, 0.07979301, -0.023019772, 0.097242385, 0.007059965, -0.10197132, 0.10280599, 0.0032558143, -0.018729314, 0.06239727, 0.04137055, -0.105884746, -0.045896407, -0.10605365, -0.06558102, -0.03340178, 0.024276003, 0.06360828, -0.004749933, -0.026314527, 0.02553486, -0.023440585, -0.065546505, 0.032130286, -0.03187661, -0.07674758, 0.053665355, -0.10877604, -0.060937013, -0.05687907, 0.09343506, -0.05782732, 0.060466796, 0.08356308, 0.0054435953, -0.029024458, -0.01165992, 0.023772439, -0.05065742}, 
{0.09532922, -0.092517935, -0.054916676, -0.049244657, 0.048051015, -0.0025053886, 0.05082126, 0.030625224, 0.11540238, 0.08805701, 0.06337124, 0.02937985, 0.019696062, -0.00013109912, -0.107778504, -0.02161997, -0.10101782, 0.034078293, -0.058790687, 0.0010935739, -0.10098489, 0.04085411, 0.1069469, -0.09511348, 0.05962515, -0.07093473, -0.024248816, 0.036942482, -0.04046121, 0.0058381124, 0.00955459, -0.031555146, -0.0010058135, 0.076674365, 0.099613234, 0.04128066, 0.03165719, -0.015204757, -0.067880705, 0.065937646, -0.015804984, 0.044829875, -0.045682684, -0.05390157, -0.107851826, -0.099342294, 0.10187772, 0.053602114, -0.09548505, -0.024095878, -0.083508395, 0.07797249, 0.111168325, -0.07054819, -0.07047581, 0.059694447, 0.048028637, -0.0662489, 0.11522241, -0.0698781, -0.031197546, 0.08032011, 0.038368005, 0.10743882}, 
{-0.030937709, 0.11381493, -0.044643182, -0.050452348, -0.031205699, 0.057374876, -0.076521985, -0.032670878, 0.06529403, -0.063651145, -0.0043333415, 0.09026632, 0.022180973, -0.09383429, -0.06156054, -0.09397838, -0.07770036, 0.037872672, 0.054553006, -0.0072946995, 0.07638479, 0.004731834, -0.10636836, -0.05740661, -0.0730076, 0.029052004, 0.089094125, -0.06295561, -0.051169097, 0.05298663, -0.018925473, 0.049658388, -0.017325975, -0.11849014, -0.0116643235, 0.020981682, -0.0142755285, -0.062335443, 0.039495215, 0.063594475, -0.07887273, -0.07838887, 0.08667498, -0.039621755, 0.004901851, 0.07513032, 0.046512753, -0.060561936, -0.06849031, -0.027052216, -0.06212092, -0.04401181, 0.09478535, -0.05286475, -0.04249257, -0.04475667, -9.915736e-05, -0.046058357, 0.1065352, 0.057398483, -0.05588004, 0.018408045, -0.0514164, -0.019581072}, 
{0.057712983, -0.08504662, 0.031972315, 0.06608259, -0.083286814, 0.12403906, -0.043347783, -0.08985973, 0.09552204, -0.019437112, 0.030716522, 0.11710759, 0.046757616, 0.08244226, -0.037262663, 0.06301483, 0.02124748, -0.08585802, -0.09937162, 0.03928992, -0.08452096, -0.06467794, 0.041619368, -0.06315529, -0.09213129, -0.01820071, 0.08999392, 0.061131645, 0.095676206, 0.07449744, 0.097353846, -0.048497736, -0.024424791, -0.038379464, 0.026205197, -0.015420474, -0.043859705, -0.03290735, 0.083176985, 0.087784864, 0.04799372, 0.09635693, 0.0093239425, 0.011465363, 0.05211405, 0.027367909, -0.032079406, -0.03377267, -0.085096955, -0.043882832, -0.041726217, -0.08405794, -0.025181971, -0.07210337, -0.08740024, 0.01684407, -0.022427099, 0.0040566176, 0.04961852, -0.065586835, 0.080813326, 0.085739106, -0.09594089, -0.09171625}, 
{0.093150474, 0.018044947, 0.100780785, -0.06997587, 0.059249524, 0.045075785, -0.04849174, -0.017907154, -0.05056097, -0.04013811, 0.10058734, -0.04509238, 0.067617394, 0.006258374, 0.03953587, 0.06961256, 0.06795514, -0.09726553, -0.0032949215, -0.08952167, -0.08387901, 0.034423992, -0.09332277, 0.0060378835, 0.08278054, -0.06857422, -0.07722247, 0.054847833, 0.052017633, -0.047434688, 0.038266886, -0.11328941, -0.045818962, -0.019990552, 0.04914844, 0.017767847, 0.079305515, 0.104714826, 0.09536861, 0.015077987, -0.010602139, 0.10529634, -0.0968692, 0.10924535, 0.09169404, -0.053379167, -0.057140645, 0.048826836, 0.07176925, -0.101738796, -0.044282805, -0.08949844, 0.09776978, -0.0037432835, -0.09744604, -0.103271626, -0.103550464, -0.03813716, 0.12913153, -0.057982437, -0.012720653, 0.118090674, 0.1053224, -0.041020058}, 
{0.04865194, 0.060869753, -0.09643063, -0.08381046, 0.05134563, 0.09116792, -0.027052186, -0.06823608, -0.023776893, -0.044457003, 0.052480824, 0.044947904, -0.027903922, 0.042331107, -0.10593628, 0.08220292, 0.08728298, 0.0073388144, 0.055517964, -0.03652046, -0.097995356, 0.06908053, 0.06574678, -0.03057088, 0.0011264387, 0.01543811, -0.11827037, 0.12167137, 0.0666006, -0.022432089, -0.07099055, -0.008425012, 0.08753492, 0.01288045, 0.00041502714, -0.0049127573, 0.07481623, 0.10364159, 0.07839069, 0.059408735, -0.083535075, 0.027605832, 0.1086262, 0.07156242, -0.08627571, -0.012463976, -0.012476914, 0.07337386, -0.0567947, -0.01365158, 0.029740166, -0.016664362, -0.09137036, 0.024069205, -0.050230045, -0.003135779, 0.11565415, -0.025680743, 0.061576393, -0.06622908, 0.10267561, 0.032552548, 0.08465739, 0.06390363}, 
{0.08978364, 0.0056111147, 0.0923174, -0.050623123, 0.11189824, -0.047201924, 0.03473483, 0.10132975, 0.11434197, 0.09196581, -0.085090056, 0.044500463, -0.04043235, 0.079542845, 0.04792616, -0.027867395, -0.09822335, -0.028945938, -0.015972901, 0.10263026, 0.04045494, -0.08011122, -0.010834415, -0.069788225, -0.05321054, 0.0022644773, 0.062274776, -0.09557295, 0.04047301, 0.04934768, 0.04168875, 0.083687365, 0.03488086, 0.009567783, 0.05064088, -0.020226102, -0.013375476, -0.053555075, 0.004706703, 0.065725416, -0.08783391, -0.111799434, 0.009729484, -0.01234797, -0.10706902, 0.0493029, -0.055600323, 0.05232793, -0.06955919, -0.06920861, 0.027070582, -0.090604104, 0.10844003, 0.028147414, 0.11401088, 0.06557413, -0.087510824, -0.06814867, 0.08664277, -0.05110032, 0.03559393, 0.07795811, 0.07381578, -0.08473271}, 
{-0.048246473, -0.015202067, 0.10975377, 0.111004, -0.09266303, 0.11957576, 0.019296557, 0.081756674, -0.035416294, -0.09329374, 0.014104329, 0.027843248, 0.007495337, 0.05156365, 0.11432707, 0.076543026, 0.05898535, -0.011117005, -0.011344176, -0.026499107, -0.005950856, 0.070478514, -0.00017413312, -0.102305785, -0.0780373, -0.05700414, -0.041005574, 0.006322644, -0.057914782, -0.03151384, 0.11407393, -0.08856942, 0.08373961, -0.037035987, -0.02503109, -0.054261487, -0.042343214, 0.009047723, 0.04585184, 0.048218325, -0.011766098, 0.010828145, 0.064420246, 0.018280499, 0.0017669692, -0.059622735, -0.020658247, 0.022383329, 0.03756386, -0.08029474, 0.09315609, -0.022785325, -0.08794591, -0.009982206, 0.0860764, 0.088354535, -0.07729824, -0.02325514, 0.119939305, 0.05271867, 0.017748157, -0.08605143, -0.019732196, -0.03221854}, 
{0.00070386805, -0.020653432, 0.023386462, -0.063138254, 0.10079553, 0.0066307527, -0.051640358, -0.03514051, -0.033553965, -0.058814116, 0.027558116, -0.06478362, -0.075289644, 0.07143779, -0.04408687, 0.022678602, -0.029039552, 0.047313895, 0.058449008, -0.10281228, 0.1153105, -0.022525162, 0.11057214, -0.017147988, -0.11036014, 0.056202546, -0.06378949, 0.058550302, 0.11983262, 0.049350437, 0.06602725, 0.07745734, 0.050952867, 0.054038163, -0.009869687, -0.09857746, -0.0116489455, -0.10218587, 0.021462113, 0.05622854, -0.08421653, -0.09634685, 0.087068915, -0.08973585, -0.07804106, -0.018724483, 0.081078246, -0.022316044, 0.050107405, 0.10427429, 0.10166165, -0.067596085, 0.07241939, -0.0114449635, 0.09286288, 0.06940452, -0.047947265, -0.06458305, -0.045351915, 0.035153493, 0.075634845, -0.05544925, -0.07136265, -0.0012569502}, 
{-0.085534245, 0.02956571, 0.0270334, 0.09406958, -0.085810885, 0.09617486, -0.06834398, -0.030653816, -0.03262244, -0.091317356, -0.054437593, 0.01629854, 0.011182348, -0.018916925, -0.028489446, -6.9153815e-05, 0.060817424, 0.047832496, 0.102524884, 0.030878767, -0.10384912, 0.06897457, -0.08641397, 0.05936554, 0.07741539, 0.023467094, -0.052286126, -0.05808778, 0.107563876, -0.012590589, 0.049171917, 0.023579448, -0.11285104, 0.069707386, 0.0050431862, 0.11387601, -0.10610657, -0.048687987, 0.048328713, 0.02119126, 0.006834537, 0.039415255, 0.059128344, 0.08918829, -0.03981715, 0.035428777, -0.03128522, -0.013912825, -0.10090378, -0.10138976, 0.11127574, 0.061785325, -0.0995727, 0.09654984, -0.0154856285, -0.09307278, 0.10233636, 0.02396208, -0.06728987, 0.011565477, 0.02079613, 0.0139631815, -0.056385566, -0.022137031}, 
{0.005729669, 0.026726056, -0.005736585, -0.0037487373, 0.10266282, 0.0140587045, 0.07915428, -0.042001855, 0.10318901, 0.060036495, 0.10308477, 0.11182212, -0.0077631464, -0.036383282, -0.11482627, -0.039447747, 0.06510039, 0.029876413, 0.1091681, 0.047502115, 0.031320427, -0.051837135, -0.051066834, 0.0041946396, -0.0885177, -0.006027557, 0.04062323, -0.046568565, -0.0021759372, -0.08001913, 0.06950807, 0.014277756, -0.07488547, -0.021477232, 0.10829918, -0.07779193, -0.054429583, 0.04158113, 0.007757388, -0.0207333, -0.08901571, 0.024096832, -0.06984131, 0.03462096, 0.008396144, -0.120339714, 0.10601854, 0.093618095, -0.074994236, 0.10617624, -0.06323282, -0.048529737, 0.009101152, 0.1130828, -0.03500129, -0.116300285, 0.09518247, 0.022852048, 0.027616741, 0.03953056, -0.054650854, -0.08288523, -0.00823052, -0.065047696}, 
{0.103392854, 0.10959291, 0.10256435, -0.09811992, 0.03843591, -0.091878906, 0.006254509, 0.11854716, 0.065327875, 0.041800678, -0.05989441, -0.059227284, 0.038334448, 0.06622456, -0.09380679, -0.07982707, -0.06877831, -0.058510397, 0.036912616, 0.103600174, 0.083393544, -0.11143293, 0.08537297, -0.03294508, 0.054989267, -0.071768165, -0.043107305, 0.105685346, 0.020406302, 0.034352146, -0.07949829, 0.09584148, -0.03380712, 0.08753892, -0.0516759, -0.08040778, 0.043260425, 0.08834083, 0.07016164, -0.04918803, -0.09971458, -0.013757423, 0.05860716, 0.043289956, -0.07863075, -0.09146787, -0.09039428, 0.033317782, -0.088257805, -0.039683692, -0.04348665, 0.09623139, -0.054777917, 0.021205366, 0.10684467, 0.033390682, 0.07493704, -0.04448794, 0.08802146, -0.02456659, 0.018060477, -0.029690793, -0.034300204, -0.08338295}, 
