namespace weights{
	const ap_fixed<32,24> layer3_weights[n_layer2][n_layer3] ={{-0.4359647, -0.115705386, 0.25823176, 0.0055255173, -0.032064006}, 
{-0.07205284, -0.025742412, 0.07576364, -0.50777525, 0.29836398}, 
{-0.18800357, -0.18747124, 0.013887048, 0.068981946, -0.48576263}, 
{-0.45447785, -0.34408727, -0.3617616, -0.06980164, -0.096093304}, 
{0.6831874, 0.64720315, 0.040130064, -0.01589426, -0.5270583}, 
{-0.4815671, 0.42123163, -0.6682619, 0.5039272, 0.24071854}, 
{-0.3739417, 0.35862997, -0.05569084, 0.021113852, -0.6854961}, 
{-0.4316692, -0.31546664, 0.13379626, -0.20462461, -0.2342436}, 
{-0.53210986, -0.4338441, -0.63726395, 0.36028877, 0.3865536}, 
{0.35518026, -0.16993588, 0.53293616, -0.1100862, -0.04428047}, 
{-0.5242761, -0.63701075, 0.6727386, -0.5676167, -0.16941611}, 
{0.2221397, 0.3193022, -0.042566117, -0.5310882, 0.6517534}, 
{-0.37809232, 0.3838088, -0.43573728, -0.30549222, 0.40083516}, 
{0.5464048, -0.30757213, -0.20696855, 0.5767064, -0.20523271}, 
{0.6933613, -0.60583156, -0.46074387, 0.23205009, 0.42241496}, 
{-0.25431785, 0.46693635, -0.3297402, 0.3573694, 0.33518204}};
	const ap_fixed<32,24> layer2_weights[n_layer1][n_layer2] ={{0.19552846, -0.027709961, -0.24095997, 0.116123386, -0.06420562, 0.017547702, 0.3658547, 0.0684255, -0.07312126, -0.2270107, 0.20220909, -0.42024228, 0.0050343275, 0.25711232, 0.16381729, -0.21333742}, 
{-0.13470246, -0.07727526, 0.10180509, 0.19663914, 0.4064223, 0.051596638, 0.39213806, 0.103839286, 0.117586955, -0.12148172, -0.36908415, -0.23355843, -0.093307, -0.044113006, -0.013781384, 0.062188193}, 
{-0.24095115, -0.08733864, -0.14906234, -0.1574088, 0.037429303, 0.20532885, -0.19612989, 0.1145958, -0.13919033, -0.20796494, 0.0029966533, 0.26944542, 0.13680044, 0.13379565, -0.1909282, 0.0043427944}, 
{0.027013078, -0.18288842, 0.17817491, -0.28727543, 0.34430546, -0.014162613, 0.12844187, -0.38760775, -0.31357327, -0.21554872, -0.041119937, 0.36271715, -0.23843259, 0.027437566, -0.10702331, 0.1912737}, 
{-0.08499688, 0.019516706, 0.18107462, -0.20646378, 0.033907503, 0.21962559, -0.08294216, 0.05838746, 0.016926974, -0.04314661, 0.0037001371, -0.03132403, 0.025850922, 0.17084923, 0.1515055, 0.18398201}, 
{0.012756139, 0.11360091, 0.14142394, 0.16659948, -0.16279325, -0.014955491, 0.07004765, -0.22060448, -0.06407517, 0.25119013, 0.2028352, -0.094294176, -0.058180407, 0.21281442, 0.21205467, 0.087660134}, 
{-0.14523895, 0.0005723536, -0.0036224127, 0.17085598, -0.38029093, 0.22378594, -0.31871176, -0.0035673801, -0.10627641, -0.1274954, 0.20621014, 0.3889234, -0.11412358, -0.15962452, 0.28031123, -0.25712857}, 
{0.09724247, -0.0056198835, -0.19210866, 0.053995408, 0.26823133, -0.061055824, 0.14977492, -0.09211559, -0.1619038, -0.22831762, -0.09911203, 0.36965567, 0.07190099, -0.3882739, -0.03688628, -0.06519758}, 
{-0.13634539, -0.009271115, 0.16818565, -0.22126137, -0.16602251, 0.35542175, 0.16158463, 0.07368263, 0.13124512, 0.16606623, 0.21028973, -0.38940853, 0.21878907, -0.08819606, -0.19457144, -0.095996425}, 
{-0.21925624, -0.22184826, 0.16004518, -0.020990666, -0.04626751, 0.27743995, -0.181034, -0.2651918, 0.09182253, 0.2590384, 0.25561064, 0.19350876, 0.14477274, -0.10333367, 0.17871988, 0.12109786}, 
{0.033986956, 0.20974165, 0.21042147, 0.17344421, -0.16564941, 0.2185701, -0.21244393, 0.15848476, -0.11295417, 0.021287799, 0.26276305, 0.0645438, -0.10800387, 0.26021847, 0.2564579, -0.104863316}, 
{-0.23719826, 0.20898595, -0.2680307, -0.19740567, 0.04497379, 0.16998678, 0.0752151, 0.1759524, 0.22889131, 0.20814991, -0.24047574, -0.24630243, 0.052461654, 0.24950594, 0.0073141158, -0.20462021}, 
{-0.08752152, 0.25599474, 0.11712578, -0.029716803, 0.070375495, -0.13233736, 0.1879908, -0.123237446, -0.20387815, 0.16547656, 0.18612123, -0.18901029, -0.15003435, -0.18645579, 0.10334277, -0.21231408}, 
{0.16784838, 0.27285886, -0.17025056, 0.012916572, -0.23543781, 0.029880982, -0.32645935, 0.22170042, -0.11071821, -0.058735073, -0.019703139, 0.07151488, -0.13479821, 0.329556, 0.43082252, -0.10225374}, 
{-0.10772031, 0.07619354, -0.14982228, -0.016020393, -0.08310328, 0.3017881, 0.26112536, -0.26151735, 0.36027643, -0.1260244, -0.07994479, -0.25214913, -0.1413253, 0.35465112, 0.302868, -0.089596964}, 
{-0.015800888, -0.09968324, -0.019755572, -0.26266593, 0.19963476, 0.06373728, -0.15822367, 0.27188134, 0.081918664, -0.0036910474, 0.3517703, 0.40141574, -0.17400534, -0.1944001, -0.26628736, -0.010874341}, 
{0.026970714, 0.08821502, 0.21454021, 0.16794908, -0.21517517, 0.24419059, -0.09981803, -0.108611666, -0.23383953, 0.23440307, -0.14378847, 0.05023731, 0.08564624, 0.021711117, 0.25240573, 0.22678065}, 
{0.1510961, -0.10130377, -0.23528406, -0.07065573, -0.14182916, 0.15482193, -0.019764692, 0.1675559, 0.16895455, 0.22933769, -0.16013938, -0.17670073, -0.25410104, -0.16705418, 0.25120187, 0.004830092}, 
{-0.036863893, 0.012944728, -0.0094901025, 0.06632057, -0.19885601, -0.22986658, 0.25006044, 0.34063226, -0.075681426, -0.037474155, 0.031543292, 0.25249514, -0.12026249, 0.031231517, -0.24881524, -0.27599993}, 
{0.26110524, 0.1812852, -0.22816111, 0.26996052, 0.004813701, 0.04006228, 0.09316224, -0.06760724, 0.008676738, 0.027898073, 0.036908865, 0.11688146, -0.019121498, 0.08337158, 0.13379511, -0.0905644}, 
{-0.13504954, -0.111788094, 0.093628496, 0.24955893, -0.28342825, 0.4636516, -0.3184484, -0.074194305, 0.10588459, -0.2591601, 0.1847119, 0.035829276, -0.10268316, -0.47715136, 0.057293173, -0.064685054}, 
{0.08874583, 0.19290093, -0.18302715, -0.07081844, -0.022441417, 0.22201201, -0.26374802, 0.063919246, -0.017302692, -0.02778551, -0.11378184, -0.2166806, 0.050427973, 0.2442928, 0.1786831, -0.27259165}, 
{0.24977084, 0.10508087, -0.23304754, 0.14311843, 0.22006209, 0.28252304, 0.40296325, 0.11370501, 0.37720108, 0.19616115, -0.36414954, -0.14225307, -0.060539857, 0.2929877, -0.21124585, 0.0069936933}, 
{0.20803669, -0.09706059, 0.10174972, -0.20690523, -0.023887545, 0.031288505, 0.09403011, -0.15847062, -0.07344188, 0.026289374, -0.13233724, 0.23479742, -0.05858046, 0.19720855, 0.076536775, 0.1326757}, 
{-0.034298185, -0.27167845, -0.07225339, 0.17018138, 0.082497545, 0.44029072, 0.17634772, -0.27866054, -0.038837343, 0.18745792, -0.18325333, -0.13270584, 0.002400905, 0.18747695, -0.43023515, -0.13995303}, 
{0.05818255, -0.19652897, -0.183561, 0.18500593, 0.040960725, 0.30877852, 0.14306457, -0.43646115, -0.028076256, 0.05385509, -0.38244006, 0.36746916, 0.079493076, 0.03578624, -0.17175129, -0.1456174}, 
{0.22056556, -0.19870278, -0.045360267, -0.09227601, -0.17316559, -0.16496432, 0.22032529, -0.13426118, -0.020548165, -0.1466227, 0.038083673, -0.18645063, 0.03163305, 0.23268652, -0.07698327, -0.15607761}, 
{-0.006095946, 0.035686493, -0.23710294, 0.1981028, -0.11350545, -0.26079708, -0.21320012, -0.15020028, -0.016462415, 0.18129295, 0.09200889, -0.2565577, -0.17744076, 0.24018604, 0.052244812, -0.17221454}, 
{0.20627253, -0.16496733, 0.07518566, -0.10175759, -0.036551714, 0.30052072, 0.26757458, 0.3235356, 0.18630467, -0.14666958, 0.29414147, 0.12549238, 0.057415873, -0.1882837, 0.061220493, 0.20041816}, 
{-0.14557369, -0.17442374, -0.2149276, 0.13864829, 0.3852119, 0.31978205, 0.029706426, 0.12388771, -0.17853507, 0.1330953, 0.26160982, -0.0045645447, 0.018560618, 0.0188536, -0.3984577, 0.093956426}, 
{0.07556528, 0.17844048, -0.16390435, 0.14056006, -0.13888292, 0.039184123, -0.23748027, -0.09395315, 0.2302236, -0.14024541, 0.010356337, -0.20113772, -0.08029294, -0.14227708, -0.23207141, 0.10656747}, 
{-0.019649217, 0.09212807, -0.14422989, -0.20940466, 0.35720056, -0.25407645, -0.31543562, -0.27617404, -0.16672368, 0.20393842, -0.06421424, -0.25380972, -0.09368093, 0.14920184, 0.3899309, -0.0055747875}, 
{0.26072788, 0.23135996, 0.2641102, -0.08854246, 0.05641806, 0.16010526, -0.23602103, 0.019103676, 0.19750765, 0.24172783, 0.09275344, -0.2577102, 0.08131054, -0.24712506, 0.13031718, -0.0009071231}, 
{-0.25737104, 0.021417022, -0.21445096, 0.05162505, 0.38794103, -0.08973037, 0.292182, -0.32177398, -0.20854902, 0.088335216, -0.25655386, 0.34521762, 0.0100286305, 0.2761179, 0.31870762, 0.20780466}, 
{0.1224809, 0.19019556, -0.20516574, 0.18852064, -0.08552843, -0.09413309, -0.17269935, -0.06603908, 0.1514345, 0.23018217, -0.05196337, 0.042711042, -0.010808498, 0.011855413, -0.062967815, -0.11869597}, 
{-0.2579041, -0.124928504, 0.1952532, -0.022968428, 0.1683801, -0.22991288, -0.0788843, -0.0038399654, -0.38760963, -0.11471613, -0.15602729, 0.4116625, -0.227126, -0.44577685, -0.30721948, -0.013140744}, 
{0.23523456, 0.24329919, -0.17918286, -0.037881598, 0.08715516, -0.1608697, -0.004691601, 0.14107817, 0.10506755, -0.21773732, 0.18902463, 0.20464882, 0.13482943, -0.13537149, 0.23012817, 0.11829695}, 
{0.14091605, -0.05104682, -0.2143346, 0.0011917353, -0.09290178, 0.26071388, -0.2419043, 0.13234729, 0.044370085, 0.10193449, -0.27287993, 0.114958376, 0.13049537, 0.1149649, 0.1709091, 0.07435456}, 
{-0.08272688, -0.1734666, 0.04886672, -0.20005938, 0.22827876, 0.26571965, 0.13168958, 0.01639843, 0.027573436, -0.14031768, -0.18154696, -0.10540074, 0.22964233, 0.048644274, -0.13040964, 0.2598909}, 
{0.04989353, -0.026317045, 0.053195685, -0.26996437, 0.19438884, 0.15746078, -0.24930194, 0.09007555, -0.07138969, -0.1197961, 0.21140057, -0.25808784, 0.25650275, 0.0362027, 0.18447131, 0.15628001}, 
{-0.03201659, 0.1515038, 0.16259906, -0.03378779, 0.0120763965, -0.16989568, 0.03771259, 0.13923153, 0.22239418, -0.059495017, 0.0030571322, 0.094026744, -0.264158, -0.1329819, -0.13964814, -0.139063}, 
{0.2161619, 0.18230715, -0.16191924, 0.21719083, -0.07369231, -0.095208585, 0.09195722, -0.0630785, -0.075443834, 0.07072213, 0.014328836, 0.039840985, -0.061632216, 0.13276562, 0.25336897, -0.21198389}, 
{-0.019101065, 0.126322, -0.08256039, -0.12971006, -0.059962496, -0.3636705, 0.39648414, 0.46424502, -0.12107452, -0.01974544, 0.32574135, -0.028246963, 0.08916673, -0.3512983, -0.35428697, 0.08451283}, 
{-0.17167234, -0.035470173, 0.27095318, 0.20701943, 0.19002306, 0.17868815, 0.13229834, 0.27314752, -0.21002, 0.08324975, -0.13765661, -0.07460076, 0.27330977, 0.22333038, 0.15214978, -0.077500135}, 
{0.0128572285, -0.16311182, -0.18179989, -0.13503961, 0.14306518, -0.036522046, 0.095510274, 0.19690591, -0.069993645, -0.11774914, -0.20374483, -0.05056593, 0.23845363, -0.021378756, 0.085208565, -0.0586278}, 
{-0.0644467, 0.03142771, -0.067121, 0.025586605, -0.14933598, -0.18186872, 0.25429934, -0.0027378201, -0.037644714, 0.15705928, 0.0446814, 0.17352322, -0.12002593, -0.2625162, -0.1731902, 0.21038511}, 
{-0.2676073, -0.08847344, 0.055546463, -0.07142774, -0.14275707, 0.36496145, 0.1010386, 0.06741646, 0.11645885, 0.17302006, -0.12756537, -0.09308976, -0.16065958, 0.20179842, 0.19143072, -0.06804043}, 
{0.14763704, -0.14427578, 0.13752246, 0.06484718, -0.039760683, -0.45891955, -0.35773152, -0.30564377, 0.041541986, -0.21686342, -0.22362868, -0.25179, -0.014479786, 0.21473089, 0.24655324, -0.11039695}, 
{-0.20439097, 0.08939564, -0.10151231, 0.082582444, 0.21688387, -0.15921313, -0.25121224, 0.22094703, 0.036180228, 0.105897516, 0.09826252, 0.13843149, 0.04694149, -0.18940341, -0.26436526, -0.20755452}, 
{0.021166421, -0.085061595, 0.2632109, 0.09713266, -0.23572792, 0.4533744, 0.13209164, -0.21705896, 0.026310984, -0.13419557, -0.29520705, 0.415261, -0.2238725, -0.25989753, -0.22704656, 0.054097466}, 
{-0.07918674, -0.10308844, -0.0399687, -0.029521078, -0.08838157, 0.20723718, -0.25907, 0.23543179, 0.115711, -0.027044624, -0.1044137, -0.21769604, 0.15068802, -0.20932585, 0.20336011, 0.22433817}, 
{-0.04384917, 0.070997864, -0.25845364, 0.12572478, 0.20626904, -0.2584774, -0.14494933, 0.10812718, -0.11942713, 0.017072529, 0.16558467, 0.075501375, -0.10093251, 0.26553044, -0.1585464, -0.22937799}, 
{-0.08038069, -0.07286507, 0.06989801, 0.26713765, -0.2611708, 0.011680456, -0.022695573, 0.21615075, 0.20646103, -0.028983772, 0.2017606, 0.15473613, 0.060563236, -0.11157923, 0.16532898, -0.056003403}, 
{-0.0116426945, 0.07088876, -0.0768325, -0.12779205, 0.21358337, 0.107047334, -0.17860597, 0.2468177, -0.22546403, -0.0038382113, -0.01042632, -0.18100923, 0.2236439, -0.15595366, -0.14227687, 0.0062187016}, 
{-0.14990664, 0.10681239, -0.19544247, 0.1866531, -0.24186447, -0.15096721, 0.16739678, -0.105066895, 0.13920847, 0.25038952, 0.11883825, 0.11359668, -0.24188733, 0.09161425, 0.1881527, -0.03212753}, 
{-0.13601096, 0.016834527, -0.18976429, 0.19094743, 0.37287864, -0.1959162, 0.38222826, 0.29988354, 0.27547073, -0.1804685, 0.07837005, -0.4197471, 0.26982194, -0.034590095, -0.19994187, -0.14886436}, 
{-0.21163334, 0.19713318, -0.08857536, -0.20578693, 0.33908522, -0.41845986, 0.07634375, 0.328894, 0.11569765, -0.15751126, 0.32745403, -0.11346765, -0.25377378, 0.124048926, 0.3939811, 0.21261065}, 
{-0.047286555, -0.0752157, -0.0079238415, -0.15584908, 0.1415923, -0.060559988, 0.2582719, 0.20522012, -0.18485558, 0.19891217, -0.21997897, 0.021087838, -0.1004398, 0.18727116, 0.10698685, -0.15806188}, 
{0.16698453, -0.16480854, -0.03117548, 0.18302782, -0.40940478, -0.02978206, -0.26308012, -0.05330543, -0.16709955, -0.22892831, 0.23422037, 0.2445478, -0.103881106, -0.22079729, -0.2610458, -0.2611491}, 
{0.077131726, 0.08882654, 0.21834722, -0.22431736, -0.24568044, 0.30851915, -0.107072294, 0.15929146, 0.3310873, -0.16411427, -0.23559391, -0.38314542, -0.27382565, 0.15956482, 0.21351503, -0.25758013}, 
{-0.22102399, 0.033780098, 0.24304348, 0.2005578, -0.23757395, -0.053686265, 0.3213846, -0.092406005, -0.31037804, -0.14071108, 0.33847684, 0.2048625, 0.13959599, -0.046165187, -0.42004973, -0.21103191}, 
{0.25123578, -0.18391469, 0.12077889, -0.23419641, 0.06389599, -0.20355043, -0.4374441, -0.19032237, -0.030075824, 0.12825611, 0.23014913, 0.28609937, -0.05333829, 0.43496677, 0.3250787, 0.08870641}, 
{0.09115566, -0.26366204, -0.09123549, -0.2801531, 0.35522294, -0.31246275, 0.37524307, -0.25124854, -0.059241172, -0.17291938, -0.2406359, -0.3723218, 0.07396951, 0.35081077, 0.24590035, 0.20252414}, 
{-0.11934785, 0.23670638, -0.26675454, -0.18433292, 0.35295683, -0.3275323, -0.22020014, 0.1941749, -0.23480104, 0.05523795, 0.16727185, 0.25205103, -0.07248369, 0.12988208, 0.07508353, -0.2253723}};
	const ap_fixed<32,24> layer1_weights[n_inputs][n_layer1] = {{-0.020610029, -0.11014378, -0.079563946, -0.06253957, 0.049633384, -0.08430402, 0.0078421105, -0.18114306, 0.11739175, 0.014390391, 0.051768184, 0.061552346, 0.022759207, 0.12719786, 0.029803244, -0.095142394, -0.055050783, 0.08654177, -0.06861533, 0.034233615, -0.023607628, 0.09861553, -0.049416658, 0.09109621, -0.19317523, -0.12435791, 0.08665319, -0.060329687, 0.06616211, -0.062265, -0.0922786, 0.0065355287, -0.049697965, -0.030097408, 0.07543803, -0.059747793, 0.05135636, -0.009406298, -0.02193331, -0.08856015, 0.016439883, -0.021855803, -0.0035776647, 0.10135576, 0.05407968, -0.058924813, -0.016244244, 0.12760356, -0.018907726, -0.14034979, 0.045812264, -0.0074721402, 0.08259037, 0.082856715, 0.11089954, 0.038117837, 0.22040637, 0.032108318, -0.020369682, 0.120220385, 0.05720331, 0.03409181, 0.046197336, 0.0024847195}, 
{0.11824053, 0.05335683, 0.055830777, 0.007369188, -0.062685534, -0.08307467, 0.14421763, -0.09265037, -0.054173466, -0.10293072, -0.09442901, -0.09220651, -0.11834833, 0.07107566, 0.09935717, -0.07073267, 0.05312967, 0.06351182, 0.07449167, 0.04981585, 0.11442005, -0.10766571, 0.060484532, 0.0041188374, 0.04473122, 0.063162826, 0.11140297, 0.060140967, 0.14317702, 0.06501585, 0.011692926, 0.10232737, 0.06446685, -0.1144436, 0.061865002, -0.16412425, 0.047220305, 0.080323026, 0.08898887, 0.07808478, 0.07606635, 0.034575965, 0.08089471, 0.08053311, -0.047596946, 0.020547166, 0.06943287, 0.14622177, 0.045653686, -0.051276464, 0.092585206, 0.049661297, 0.08348177, -0.0018375989, 0.016943097, -0.05108936, -0.008780654, -0.055269968, 0.10358003, -0.025447235, 0.0033862763, -0.032060914, 0.06938106, 0.015272238}, 
{0.117603846, 0.053970788, -0.035244286, 0.038406584, 0.0058879554, 0.10965012, 0.04478083, -0.038434543, 0.0635493, -0.013286429, -0.025501309, -0.07958022, -0.028483696, 0.08993621, 0.15502812, 0.023411311, -0.057923313, -0.01777587, 0.07425105, -0.03526687, 0.013909826, 0.103484794, -0.07203049, 0.05548033, -0.047042828, 0.08707041, -0.0027856156, -0.059025478, 0.1277264, 0.023387317, -0.09213027, -0.031290524, -0.036226787, -0.0040583843, -0.040109392, -0.1446258, -0.086253054, -0.03775955, 0.08030321, 0.061158225, -0.11844276, -0.066582896, 0.04560172, 0.02520782, -0.10494451, 0.110255525, 0.032324918, -0.05281218, 0.11050621, -0.11447177, 0.11314395, -0.08855617, 0.07945176, -0.096343756, -0.050304487, 0.059547935, -0.05122102, -0.045565996, -0.047088742, -0.023723481, -0.0990877, 0.008161469, -0.051735926, -0.0519252}, 
{-0.025073322, -0.028407428, -0.10883127, 0.07426705, 0.10218631, 0.03311315, 0.0058254097, 0.08882086, 0.09943711, 0.053972874, -0.044542406, -0.11092963, 0.06255733, 0.14880623, -0.04993297, -0.08263345, 0.089307286, 0.08795306, -0.1172532, -0.093938485, 0.033412896, -0.011097036, 0.04666126, 0.06903584, 0.086729035, -0.04256577, -0.04185187, -0.06135291, 0.1720599, 0.040304244, -0.0061963797, -0.102852024, -0.060001798, -0.084017396, 0.089342974, 0.006950542, -0.030525282, 0.07240234, 0.08511205, 0.02467972, 0.031653054, -0.11801851, 0.019070752, -0.11059363, -0.0039021075, 0.016603291, -0.01854223, 0.0719515, 0.087782264, -0.057152048, -0.07365365, 0.09412844, 0.077536374, -0.047377724, 0.0850631, -0.0643145, 0.03318068, 0.036823247, -0.025151497, -0.014632195, 0.035193283, 0.0048331968, -0.0784709, -0.03625682}, 
{-0.028423658, 0.025862107, -0.084233694, 0.055565476, 0.10106285, 0.0964762, -0.029114403, 0.13599849, -0.00041942685, -0.012644217, -0.08148438, -0.062166885, -0.050277263, 0.07070443, -0.11707065, 0.03685134, 0.020211095, 0.005015254, 0.13771318, -0.10111742, -0.080186255, -0.013865247, -0.12642266, -0.0034873784, 0.052440315, 0.011395975, -0.087782316, -0.07398878, -0.009954578, 0.03818084, -0.09102091, -0.040394213, -0.06806734, 0.12141504, -0.08342522, 0.13363555, 0.08584294, -0.0056017637, -0.06407435, 0.058889925, 0.0068111448, -0.114405036, 0.11420541, 0.10237354, -0.11353737, 0.005089596, -0.06543412, -0.13166894, -0.070252, 0.013504622, 0.092916965, -0.05482816, -0.028124148, -0.0032917967, -0.06644349, -0.04344543, 0.06918454, 0.07841616, 0.15373611, -0.021446832, -0.05602788, -0.09823369, -0.03668199, 0.01740404}, 
{-0.05753585, 0.07138723, 0.08533931, -0.076719336, 0.09506926, -0.11169161, -0.010684334, -0.111012235, 0.09961162, 0.0634709, 0.012602961, -0.093484014, -0.032103546, 0.15140425, 0.12834485, 0.04531992, 0.07466749, -0.06066877, 0.07548826, 0.030523628, 0.12988862, 0.09689765, 0.0073358146, 0.011933029, 0.04101083, -0.031397644, -0.007393688, -0.096716166, 0.15180674, -0.034720425, 0.010665283, -0.010015594, -0.09275644, -0.11435296, -0.016580638, 0.014203456, 0.03152068, 0.015530348, 0.031158641, 0.105801105, 0.05722876, -0.09315705, -0.0028781989, 0.008729492, 0.0804804, 0.11268403, 0.06849468, -0.06534845, -0.055474225, -0.122645274, 0.084324494, -0.103732266, 0.018542351, -0.013062245, 0.009417951, -0.105638675, -0.0038850752, 0.037941102, 0.019635646, -0.048886176, 0.09839096, 0.15590155, 0.020697739, 0.107595555}, 
{0.1550407, 0.036153514, -0.103604704, -0.17372732, 0.06800267, 0.057127476, 0.15072718, -0.0707532, 0.07347561, -0.10192932, 0.044000816, 0.033772126, -0.09716486, 0.08540812, 0.19843496, -0.059260886, 0.075161316, 0.0002360642, -0.106030844, 0.03285919, -0.07734591, -0.05750779, 0.020307578, 0.026964515, -0.10234506, -0.036106218, -0.01855538, -0.073490575, -0.045368135, -0.12656064, 0.09733455, 0.12181011, 0.045955896, -0.014815611, -0.10901228, -0.10677092, 0.096203014, -0.11093565, -0.10311344, 0.0008483827, 0.012412577, -0.10001383, 0.055481784, 0.046904568, 0.06594549, -0.061677895, 0.041092698, 0.026774496, -0.046799727, -0.0049343375, 0.010944828, 0.06462211, -0.0049824007, -0.065928526, 0.0027519464, -0.027021965, 0.1755973, -0.058919806, 0.05774272, 0.12537597, 0.009616886, 0.047598407, 0.0426306, 0.009012797}, 
{0.09442475, 0.041734707, 0.097464964, 0.025192391, 0.097824976, -0.089611, -0.029796833, 0.037008587, -0.011474715, -0.038489867, 0.0047180057, 0.010684691, 0.09768461, 0.071599826, 0.043243665, -0.054837584, 0.04385293, -0.09493392, -0.017117385, 0.018345654, 0.023750523, 0.0045503452, -0.06467418, 0.018414453, 0.00048115282, -0.10595767, 0.03310339, 0.022785082, 0.13814473, -0.16031522, 0.05505906, -0.09065219, -0.073751144, -0.09682262, -0.08047493, -0.10878389, 0.08646946, -0.1124926, 0.083661154, 0.07158305, 0.06642916, -0.1101333, 0.06748738, -0.11351597, -0.10076066, 0.029170588, 0.07238572, -0.0021040242, -0.10951988, -0.1385306, 0.009131141, -0.07328709, -0.0056154947, -0.06961475, -0.08793951, -0.011047552, 0.010839281, -0.012446808, -0.09534732, 0.062060032, 0.06364046, 0.07312594, -0.08131456, 0.068546005}, 
{-0.05934131, 0.030716043, -0.10958446, -0.14241, -0.0033485368, 0.027505472, 0.078978494, -0.10749732, 0.053993784, -0.056975495, 0.01773993, -0.09690177, 0.034917943, 0.1252863, -0.029436043, 0.093516834, 0.09920502, 0.07184443, 0.058632493, 0.110502675, 0.11082131, -0.037935637, -0.09026986, 0.10862896, -0.12820391, -0.11139612, 0.05491911, 0.02519764, -0.038298532, -0.11362428, -0.1034156, 0.060826328, -0.035132855, -0.04147049, 0.049893674, -0.04191917, 0.011086002, -0.0042026117, -0.0019719452, -0.0808081, 0.07115502, 0.006916449, -0.12180363, 0.091232635, 0.056231156, 0.052178845, 0.0077864854, 0.16478314, 0.037427023, -0.06795221, 0.084080964, -0.08728593, -0.015010672, -0.014488945, -0.045991205, -0.029426334, 0.078234255, 0.0016272742, -0.052539643, 0.107685514, 0.030028397, 0.08066391, 0.00095032365, -0.026731508}, 
{0.13150711, 0.013089417, 0.049562976, -0.031172669, -0.090112895, -0.054351907, 0.09531929, -0.11631378, -0.07246851, 0.005926641, -0.08930212, -0.11216265, 0.08055373, 0.1734506, 0.06629837, -0.013334433, 0.107168265, -0.052271735, -0.08083159, -0.051484928, 0.08813748, -0.083765715, -0.06929862, -0.04309939, -0.10300582, -0.07342602, -0.08776632, -0.06722756, -0.06807733, 0.0066698897, -0.0962041, 0.066385426, -0.0037152544, -0.022537552, -0.019595463, -0.05647924, -0.013161242, 0.06968512, -0.039488435, -0.04064434, 0.023903554, -0.11044031, 0.03465235, -0.00013070174, -0.113155425, -0.015531428, 0.11419945, 0.102166966, -0.08602496, -0.011880806, 0.027114332, -0.057387345, 0.004028926, 0.010957389, -0.0014050379, 0.047081374, 0.15675883, 0.09298355, -0.09935966, 0.07790033, -0.01391442, 0.14135896, 0.025756609, 0.02764613}, 
{0.1420106, -0.0719867, 0.11079495, -0.07978521, -0.0008417666, -0.05450745, -0.05463704, -0.047270145, 0.05570664, 0.09785488, 0.096844554, -0.014513515, 0.03401683, 0.07857011, 0.10796186, -0.0796627, -0.06949942, 0.048385054, 0.06306844, -0.051425528, -0.034734663, 0.03490065, -0.012779733, -0.10371291, -0.003912237, 0.03698414, -0.10528858, 0.079978704, 0.10677313, 0.024951868, 0.106785774, 0.08906546, 0.07696177, 0.03174473, -0.08972051, -0.07691679, -0.07406415, 0.034265205, 0.06733112, 0.08254328, 0.03917485, -0.023239117, -0.01849567, -0.09799173, -0.06996906, -0.03628245, 0.022744799, 0.16216585, -0.038304903, -0.09777045, -0.036136158, -0.023590608, -0.0102220755, -0.08992591, 0.05868523, 0.014526904, 0.14766796, -0.09708506, 0.040635496, -0.011655846, -0.07779841, 0.11937575, 0.07490401, 0.13196652}, 
{0.048246704, -0.1476702, 0.024423331, 0.058441542, -0.099369556, 0.0047401562, 0.13154899, -0.0672535, -0.06806107, -0.022729307, -0.06913651, 0.058485493, -0.119694434, 0.06391376, 0.1439676, -0.09761188, -0.03582078, 0.048722893, -0.070345685, 0.0523877, -0.06639316, -0.10939343, -0.13260533, -0.019812144, 0.04126789, 0.064776726, -0.03347189, -0.0873318, 0.0759373, -0.07112675, 0.058768615, 0.1133991, -0.041617163, 0.027600095, 0.074939884, -0.034153868, 0.07287644, -0.08527871, 0.007500939, 0.10918522, -0.011867086, 0.0700167, 0.061696332, 0.03946119, 0.013972253, 0.012968749, 0.047905065, 0.19729008, 0.025857672, -0.13938537, 0.00776235, 0.04126274, 0.036878504, 0.013644583, -0.06947894, -0.03485012, -0.01156112, 0.03064803, 0.031455617, -0.039948475, -0.10422472, 0.17611672, 0.03838554, 0.013515375}, 
{0.070472635, 0.0522585, -0.05744538, 0.054424044, 0.029422775, -0.0016573668, 0.1426086, -0.005540482, -0.013521684, 0.101294294, 0.028634846, -0.07220773, -0.10487944, 0.18828319, 0.04190684, -0.08836919, -0.016796563, 0.03820893, -0.036591996, 0.06867103, -0.079678535, 0.018731281, -0.016954467, -0.07205747, -0.051734414, -0.019698016, 0.05101362, 0.081200734, -0.06938955, -0.14443934, -0.10705589, 0.05398745, 0.04749295, -0.04074786, -0.05825971, 0.060053885, 0.091481835, 0.08606845, -0.019981973, 0.034827232, 0.078357145, -0.008614115, 0.024140503, 0.06207476, -0.04150766, 0.085531995, 0.04403529, 0.11694146, 0.09389402, -0.03516356, 0.07292697, -0.045539826, -0.08991463, -0.029346703, -0.053679403, -0.06388781, -0.009723591, -0.02810269, 0.042605147, 0.02072445, 0.008416492, -0.006237835, -0.040514518, 0.1589588}, 
{0.0510691, -0.13563241, -0.066642106, 0.015113718, -0.05719183, -0.011788137, 0.09660547, 0.058705162, -0.11574507, -0.020356668, -0.05175968, -0.05033458, -0.11215114, 0.15696101, 0.08602891, -0.07274428, -0.027203375, -0.113480195, -0.017675824, -0.022341855, -0.043906666, -0.0017417669, -0.039409377, -0.010504268, -0.0326659, -0.15154314, 0.04344867, 0.10466078, 0.016629014, -0.10577623, -0.023832567, 0.019606471, 0.0011619776, -0.02157828, 0.044255808, -0.1009476, -0.058434688, -0.08063033, -0.0610453, -0.049435012, -0.11058515, -0.089177325, -0.10803555, -0.008690327, -0.027738467, -0.06447832, 0.119058445, 0.014414722, -0.03597077, -0.036320258, 0.036065742, 0.0882647, 0.07555603, 0.08586332, 0.04637684, 0.022830738, 0.026960127, -0.033431884, -0.11703714, 0.07673191, 0.010314547, 0.15422887, 0.041583147, 0.116520934}, 
{0.1398936, -0.068591565, -0.091130555, -0.11145245, -0.04442835, 0.053120583, 0.09387327, -0.08156293, 0.036590647, 0.031676143, 0.009854726, -0.034517914, 0.08490348, 0.060763143, -0.003273059, 0.038454242, 0.009483101, -0.05001431, 0.061575945, -0.07051553, -0.070875876, 0.038833007, -0.06584611, -0.07587491, -0.115922414, 0.004604169, -0.04770545, -0.083132684, 0.041108314, -2.9101993e-05, -0.014817491, 0.1739951, -0.018038012, 0.068993665, 0.00994515, -0.007949609, -0.09320268, 0.0791194, 0.058138892, -0.045563273, 0.0983597, -0.024093445, -0.0062150937, 0.04574679, 0.04404697, -0.0067790896, -0.0844841, 0.12048862, -0.07301997, 0.070203215, -0.10364686, -0.058897126, -0.018302009, 0.047466237, -0.02385895, -0.0227999, 0.14034618, -0.105043195, -0.08739852, -0.008425998, -0.00038749716, 0.088704206, 0.100099936, -0.018399881}, 
{0.12107381, 0.006445645, 0.00014705211, -0.013406022, -0.06142752, 0.085333526, 0.15122288, -0.07577438, -0.1648519, 0.0071886876, -0.092517994, 0.042791426, 0.024174962, 0.18367404, 0.075616665, -0.13807017, 0.0998333, -0.06382544, 0.019962033, -0.0658965, 0.051824715, 0.05142404, -0.09656824, -0.0021329895, -0.018844705, 0.045471422, 0.06183189, 0.04660043, 0.06458905, -0.17744176, 0.03170055, 0.016293429, -0.03980925, 0.1199289, 0.106121674, -0.1417404, -0.037100166, -0.002474673, 0.05009824, -0.06112181, -0.11950641, 0.057220146, -0.16238841, -0.036195368, -0.10963624, -0.044028074, 0.09210395, 0.22776553, -0.040589064, -0.13241999, -0.03046742, -0.020496255, 0.025323398, -0.040387694, 0.11354035, 0.038651485, 0.08948015, 0.01842878, -0.04422367, -0.01645267, -0.17365018, 0.04646692, -0.012595148, -0.011083728}, 
{0.114722714, -0.011554152, -0.108037874, -0.015873523, 0.10834603, -0.09745737, 0.1465953, -0.108116314, -0.10819589, 0.045941945, -0.10591514, -0.10182341, 0.01773848, -0.0039204094, 0.13671277, 0.027069114, 0.026474584, -0.09709649, -0.051324833, -0.092125826, -0.019967243, 0.045746386, -0.052177195, -0.09451944, -0.007856345, 0.05077737, 0.07084811, -0.006506078, -0.031930104, -0.099837236, 0.08251011, 0.019985365, -0.09556869, -0.029333567, 0.10114797, 0.056235302, 0.027546138, 0.03776887, -0.097322054, 0.087087795, -0.09888491, 0.07053849, -0.05104019, 0.085463144, 0.0068490654, -0.03186124, 0.010387216, 0.037767425, 0.0053464025, -0.10121769, -0.09204289, 0.0929592, -0.07398886, -0.043118116, -0.049433306, -0.049578913, 0.094459936, 0.091624804, -0.13399039, -0.08301881, -0.085040614, 0.1444247, -0.037282117, 0.10931584}, 
{-0.030147383, -0.10810825, 0.0068887547, 0.11368244, -0.06405909, 0.01661408, 0.087341964, 0.061954178, -0.059707835, 0.06654841, -0.04124188, 0.07138324, -0.002656428, 0.06669414, 0.10308153, 0.061659504, -0.09280793, 0.0380795, -0.0027944709, 0.09427565, -0.14417662, 0.01854381, 0.06439961, -0.007967725, -0.100617796, -0.08520841, -0.053385485, 0.06325108, 0.010716186, -0.08977669, 0.048860386, 0.10141722, 0.09745067, 0.0303958, 0.095849134, -0.113807715, 0.06584941, -0.018981956, 0.02642569, -0.090747654, -0.06775445, -0.09650087, -0.14329544, -0.04539503, -0.003129989, 0.035885856, -0.05432483, 0.071455985, -0.020944491, 0.055224746, -0.06390247, -0.04329584, 0.061957687, -0.007806708, -0.025817633, -0.08845779, 0.15049538, 0.05445199, 0.024857903, -0.11358362, 0.016281078, 0.13007689, -0.028974876, 0.08607423}, 
{-0.019797508, 0.063015044, -0.08572096, 0.016902048, 0.0016679391, -0.07341041, 0.12993994, 0.0669006, -0.049126286, 0.101724654, 0.0017702681, -0.050458074, -0.07765565, 0.17563769, -0.05573677, -0.04477941, 0.02381318, 0.037366778, -0.092491575, -0.08081482, -0.065301634, 0.03429115, -0.04343244, 0.033749044, -0.16580012, 0.014947878, 0.02848038, 0.08557835, -0.039768334, -0.00327982, -0.048587233, 0.06864971, -0.07545942, 0.15185034, 0.07989051, 0.065795496, 0.095455304, -0.096777216, 0.08695723, 0.046012565, -0.018280944, -0.08427713, -0.075341925, -0.054866012, 0.07613318, -0.093922384, 0.016655933, 0.19795942, 0.09214027, 0.023189433, -0.11120181, -0.073226266, -0.038851537, 0.023021651, -0.012322076, -0.059116717, 0.016035818, -0.04696577, -0.09501222, -0.07559012, 0.0018283075, 0.1255018, 0.0653713, 0.15150812}, 
{-0.08028886, -0.039246235, 0.017055184, -0.024345059, 0.10469741, 0.043119237, 0.021720864, -0.0129227135, -0.041916136, -0.0010597832, -0.0053075864, -0.086529754, -0.08813872, 0.10976388, 0.050440267, -0.12122482, -0.032134034, -0.014969401, 0.06142525, -0.07556023, -0.1239282, 0.091814116, -0.016667351, -0.02803003, -0.048186403, 0.097488336, -0.041500337, -0.041164808, -0.031169899, -0.08894544, 0.0071922764, 0.1156018, -0.07340189, 0.0420479, 0.024993952, 0.10446551, -0.0088541955, -0.08844319, -0.016787589, -0.07941987, 0.06650109, 0.057424888, -0.06651997, 0.07042299, 0.053941086, -0.024153814, 0.1168512, 0.15567107, 0.010410324, -0.06837866, -0.080910444, -0.100324474, -0.011547097, 0.06209807, 0.00272955, -0.019484408, 0.021853913, 0.10805736, -0.09807367, -0.025244348, -0.13833664, 0.086638175, 0.14058892, 0.09370131}, 
{0.031037908, -0.029004667, 0.040964887, -0.046636242, -0.007821292, -0.032747626, 0.0154963285, 0.011861175, -0.016879002, 0.024665732, -0.012375992, 0.0166689, -0.033470213, 0.115471035, 0.004928378, 0.107198596, -0.070403, 0.0067335144, -0.07361303, -0.053714458, 0.08747842, 0.1097409, -0.15031876, -0.049158096, -0.17755903, -0.07653167, 0.064587355, 0.06610985, 0.14372303, -0.14131516, 0.038387805, 0.003048424, 0.003499195, -0.02221383, 0.019318327, 0.050214373, 0.0067767054, 0.041129366, 0.07701531, 0.06578261, -0.059082158, 0.10208143, 0.0015825768, -0.07774779, 0.0101735, 0.07223655, 0.02770965, 0.026245676, 0.08389509, 0.043582235, 0.040063128, -0.096730575, -0.10451735, 0.036217425, -0.09089869, 0.0102461055, 0.11446685, 0.01749064, -0.01554885, -0.014528176, 0.10303123, 0.04330358, 0.042183813, 0.1057063}, 
{0.019502925, 0.083010554, -0.059732363, -0.053736884, 0.006426424, 0.0039367527, -0.042485505, -0.04663222, 0.09679979, 0.058914915, 0.09136216, -0.01410681, -0.029034207, 0.06783298, 0.1262448, 0.02428563, 0.0036387562, 0.10840757, -0.058623407, -0.022190712, -0.002069388, 0.033919305, -0.049703248, 0.019208103, 0.04730858, 0.011033661, -0.0023169965, 0.051628858, 0.033207845, -0.02880802, 0.04293531, 0.023011658, 0.04846075, -0.04396967, -0.038109723, -0.0052577895, 0.11107761, -0.07863309, -0.02377113, 0.03394364, -0.07131117, -0.015883652, 0.0019198469, 0.03375155, -0.025848188, 0.053883344, 0.17737944, -0.06939973, -0.021362416, -0.1306067, -0.069873795, 0.047538314, -0.10323483, 0.0041505527, 0.015947863, -0.10038386, -0.09618457, -0.015892826, 0.033380765, 0.014168051, 0.08742234, -0.07695562, -0.010651181, 0.06889445}, 
{0.05608811, 0.11455401, 0.038498342, -0.13329546, -0.049644694, -0.028378792, -0.061649047, -0.12918596, 0.14597875, -0.048740245, 0.02569508, -0.045063302, 0.09108719, 0.0069012046, 0.03586196, 0.02554244, 0.041611746, 0.020517021, -0.008105603, 0.04395826, 0.011671732, 0.014458075, -0.04158007, 0.0033061877, -0.0024354816, 0.026275033, 0.08916867, -0.041726723, -0.04498133, 0.011215073, -0.100285284, 0.036198676, 0.0869797, -0.112837106, 0.0040558027, -0.04022266, -0.03808879, -0.037291817, 0.09079608, 0.00880149, 0.04871879, 0.021632573, 0.06925565, 0.012727918, -0.10870821, -0.0908862, 0.04999734, -0.009659313, 0.108617604, 0.104615726, 0.06965326, -0.025628619, -0.09861501, 0.026128558, -0.103423655, -0.026960075, -0.09206716, 0.0694149, 0.025938436, 0.024804447, -0.08223317, 0.071406364, -0.095138356, -0.09460452}, 
{0.04850383, -0.021656122, -0.09638554, -0.09308841, -0.036729276, 0.02522716, -0.06127128, 0.048002027, 0.14874044, 0.011774946, -0.013685175, 0.057976127, -0.09104762, 0.03164995, 0.07520165, 0.050130174, -0.100661546, 0.10239439, -0.058711898, -0.07099993, -0.04773769, -0.1005731, -0.015027214, 0.0053358525, 0.06478395, 0.07956324, -0.06382894, 0.0005071759, 0.052003052, 0.073025055, -0.058518406, 0.03183353, -0.0003168285, -0.04113072, -0.08820443, -0.13899468, -0.10273637, 0.07460071, -0.042441763, 0.015225694, -0.11003806, 0.001209011, -0.0009456029, -0.09504049, -0.05341669, -0.0652372, 0.16264245, -0.02442965, 0.0068198144, -0.06265887, 0.078841984, 0.10317532, -0.029158108, 0.05449604, 0.09047581, 0.03153296, -0.061280806, -0.0031833407, 0.04579073, 0.11092081, -0.08049418, 0.068436265, 0.041366156, -0.055312768}, 
{0.037984796, -0.019484464, 0.038165137, -0.087260835, 0.002029851, -0.03554775, 0.1415823, 0.04314708, 0.058500905, -0.0147677325, 0.10532373, 0.051128164, -0.110907696, 0.03495024, 0.012436695, -0.085405536, 0.043954287, -0.021797836, 0.08062328, -0.111053586, -0.05116732, 0.018283531, -0.121509165, 0.05460131, -0.14630945, -0.14630476, -0.018524587, -0.013696097, 0.03619343, -0.12578969, -0.07304784, 0.042221706, -0.035189763, 0.06309382, 0.05294998, -0.007665946, -0.062090725, -0.009929635, -0.083313115, -0.09949975, -0.05058013, -0.03344974, -0.004966362, -0.06061676, -0.055989373, -0.021859512, 0.004399123, 0.089160204, -0.03646949, -0.0032545906, 0.06853637, 0.0034258456, -0.03479033, 0.084314406, 0.007972248, -0.031404927, 0.009516496, 0.040512122, 0.038864728, 0.16121861, -0.027727261, 0.08639798, 0.04992976, -0.03138544}, 
{0.15439682, -0.057824515, 0.101179674, -0.028380819, -0.021220624, 0.0085943565, 0.07158378, -0.17065057, 0.062762946, 0.0127851665, -0.0031470426, -0.061288547, -0.1029333, 0.16350247, 0.114935376, -0.14069709, -0.07373838, 0.05072762, 0.030779498, -0.06364393, 0.027858725, -0.020770356, -0.013310666, 0.012071654, 0.030586718, -0.11305175, -0.05055847, -0.10223252, -0.03787456, -0.14178099, 0.094605, 0.13709074, -0.101767346, 0.058201224, 0.10833756, -0.016935369, -0.10651138, -0.06317536, 0.08784884, 0.105636895, -0.03708601, 0.09893721, -0.036037512, -0.024789322, 0.06670441, -0.060839493, 0.18076561, 0.075338125, -0.10015734, -0.11908508, -0.060977817, -0.0625091, -0.10812079, -0.07315425, 0.08543661, -0.026299773, 0.051438008, 0.06588221, 0.077414215, 0.028487032, -0.027613161, 0.046575826, -0.08235319, -0.036442585}, 
{0.18250181, 0.025231512, -0.0153070465, -0.15635778, -0.09531614, -0.10073856, 0.11120847, -0.23833536, -0.034183364, -0.030004457, 0.07046162, -0.04931388, -0.042992536, 0.10874078, 0.019402966, -0.0427274, 0.095406294, -0.03655763, 0.0018093232, -0.030639201, -0.050325517, -0.053813525, -0.1522725, -0.11239505, -0.14872847, -0.047603153, -0.06829359, 0.08148193, 0.10858804, -0.019377317, 0.014523491, 0.03686879, -0.012615971, 0.019861335, 0.10359603, -0.17928565, -0.00046315044, -0.06540673, 0.06678468, 0.023400292, -0.03083334, -0.08226023, -0.11587678, -0.016426044, -0.049329683, -0.048974924, 0.047014397, 0.10024102, -0.095610574, 0.031039309, -0.095096424, -0.07469835, 0.067267105, -0.11433876, 0.09377742, -0.046737034, 0.038295392, 0.063408464, 0.017923025, 0.069686286, -0.11629916, 0.17676915, 0.096479595, -0.06618547}, 
{0.05419188, -0.13108215, -0.018670335, -0.16441472, -0.019054264, 0.015867531, 0.10559129, -0.0920523, 0.0506848, 0.07466239, 0.10409381, 0.053806394, -0.071723565, 0.053223293, 0.088627666, 0.016471975, -0.07585141, -0.083916485, -0.019799933, -0.0030364543, 0.0144976545, 0.02896823, -0.04275776, 0.10465208, -0.15492558, -0.061716944, -0.062136274, -0.10263256, 0.08622332, -0.023763867, -0.07315022, 0.08997807, -0.11091757, 0.07320935, -0.08950889, -0.203657, 0.021924421, -0.023268752, -0.04603176, 0.07315609, -0.034095597, -0.045859005, -0.12959442, -0.10212138, -0.01878193, 0.045926347, 0.118793845, 0.21311335, -0.084960096, -0.1688891, -0.09740987, -0.052898567, -0.08853851, -0.10123242, 0.006531343, 0.06768593, 0.046580747, -0.062773935, 0.07137641, 0.12622355, -0.12431348, 0.16118942, -0.046321172, 0.011490779}, 
{-0.11314566, 0.03980038, -0.06635989, 0.04734026, -0.0035580844, -0.013837457, 0.1548408, 0.034644824, -0.055082295, 0.09627653, 0.076744266, 0.052698255, -0.08389902, -0.05092889, 0.05623582, 0.061146233, 0.092952736, -0.030133434, 0.04024091, -0.032657072, 0.091917835, 0.014697164, -0.11428842, -0.006269984, 0.007135069, 0.07822175, 0.070684165, -0.038125798, 0.03841851, -0.09746108, -0.067139626, 0.017559823, -0.046541758, -0.028428629, -0.018145677, 0.06980437, 0.018098056, -0.1084484, -0.0021283776, 0.02773264, 0.08424753, -0.02802482, 0.12532736, 0.007993066, -0.04687412, 0.03357938, 0.064414255, 0.030471798, -0.06870441, -0.0041592964, -0.025622182, -0.012770945, 0.06800345, 0.026554838, 0.031120226, 0.017476445, -0.03907433, -0.09129406, 0.024790086, 0.06410679, 0.0654709, 0.0031843407, 0.07212658, 0.0621035}, 
{-0.021087153, -0.094362535, -0.007866919, 0.01781519, 0.042582557, 0.092207864, -0.061994877, 0.13353021, 0.05509877, -0.030746885, -0.049762294, 0.10151748, 0.077909544, 0.054281496, -0.086085595, -0.04295036, -0.030761505, -0.047292426, 0.080349036, -0.08622138, -0.039263465, 0.052604526, -0.025319347, -0.027788542, -0.058855876, 0.023852665, 0.101851165, 0.00014377385, 0.009747715, 0.0147671215, -0.02339612, 0.044867825, -0.05707799, -0.07662856, 0.036979828, -0.002929618, 0.034124196, -0.0041276515, -0.0020406991, 0.10007137, 0.0037676902, -0.005314301, 0.013053223, -0.057425044, 0.020738631, 0.0942792, -0.09796804, 0.03310181, -0.0115064755, 0.033532538, -0.044494227, 0.097855836, -0.006985251, -0.04732347, -0.07250002, 0.079532996, 0.09303998, 0.091383345, 0.120550886, -0.042270023, 0.06122118, 0.012043812, -0.021324677, -0.011949994}, 
{-0.06109438, -0.13155359, -0.03513836, 0.09538475, 0.059980378, -0.09838424, -0.03261803, 0.040605046, 0.015167225, -0.039299678, -0.040159035, 0.103294894, -0.118092835, 0.034744598, 0.124859065, 0.08590419, -0.008716156, 0.0036044195, -0.024163406, -0.069887266, 0.04110052, 0.09013404, 0.026676726, -0.009419985, 0.029944956, -0.09193484, -0.038913257, -0.090076506, 0.11398558, -0.050509676, 0.011569977, 0.024069248, -0.09830727, -0.035183527, 0.07911985, 0.09103296, -0.05257197, 0.0063337535, 0.03209068, -0.088530354, 0.048665527, -0.088477254, 0.015221543, -0.0516949, 0.0987695, 0.005954571, -0.08132379, 0.020116745, 0.09121059, -0.109337725, 0.01630053, -0.09359988, -0.050185405, 0.032908928, 0.01861009, -0.05191327, 0.14186959, -0.027801821, -0.09784562, -0.03470478, 0.041204527, 0.09004448, -0.037197787, 0.016219284}, 
{-0.08799, -0.12853992, -0.011466078, -0.09230267, 0.068440095, -0.11339349, -0.034790102, -0.050762508, 0.024474425, 0.006709546, -0.06660876, 0.090357065, 0.029185232, 0.0009628182, 0.10635024, -0.100991555, -0.042600118, -0.0941546, 0.045560263, 0.08005169, 0.037812844, -0.040366232, -0.04373913, 0.007030092, -0.017609509, -0.026399111, -0.0718013, 0.021211192, -0.030409196, -0.14906767, 0.11147979, 0.105943695, 0.099018246, -0.012936898, -0.08894066, 0.05701164, -0.0034623295, 0.009571403, -0.008688375, 0.028034389, 0.09921837, 0.042782526, -0.08879767, 0.05478846, 0.0189922, 0.09848583, -0.048326988, -0.021589218, -0.050955623, -0.041752636, 0.084993586, 0.058070086, 0.095817946, 0.08751593, 0.097005665, 0.026154194, 0.16291508, 0.05840161, 0.024583375, 0.09077177, 0.025332807, 0.15654705, 0.06729859, 0.05466741}, 
{0.06847607, 0.015848344, -0.10020487, 0.07186603, -0.029768378, -0.07733922, 0.07695903, -0.011280121, -0.032645788, -0.040187657, 0.04056269, 0.021666288, 0.088549934, 0.0015344634, -0.08673333, 0.036502376, -0.04645345, 0.10256763, -0.045089718, -0.07409668, 0.089448005, 0.061309606, -0.06000776, -0.06698455, -0.0694894, -0.04641711, 0.080374375, 0.11168417, -0.108721234, -0.016883232, -0.011188999, 0.08799454, -0.0016534626, 0.019794362, -0.071772754, -0.11914726, -0.06372999, 0.11320512, -0.09644437, -0.091256894, 0.026546624, -0.030271722, 0.07412306, 0.092350766, -0.0026047602, 0.059327126, -0.008053226, 0.1932727, -0.036301047, 0.050506774, -0.036372863, -0.102990866, -0.08043021, -0.041861035, 0.016811714, -0.10415205, -0.03312036, -0.0802086, -0.023756666, 0.016463466, 0.0712663, 0.13359815, -0.06929154, 0.10571558}, 
{0.1271026, -0.11187168, 0.10151133, 0.07794147, -0.084089786, -0.02105134, -0.066126436, -0.02977971, 0.045904145, 0.007829944, 0.077795506, -0.09615983, -0.044777818, 0.045064848, 0.052816775, 0.015331833, 0.030358562, 0.04111202, -0.036860816, -0.00016844273, -0.0049677105, 0.01995933, -0.14810942, -0.012344308, -0.07807601, -0.041959785, 0.011472538, -0.05851396, -0.02451335, 0.007962258, -0.08301239, 0.12011114, -0.01500386, -0.0007531947, 0.09103632, -0.011887168, 0.03700246, -0.050906688, -0.08424104, -0.04391084, -0.026379012, 0.023649674, -0.1333437, -0.09662561, -0.044584483, -0.09438618, -0.053232383, 0.18317364, -0.08409461, -0.006931435, -0.035564966, 0.035895295, -0.035106875, -0.12301206, -0.0956905, -0.04574721, 0.18193758, -0.091441855, 0.08610419, -0.09894415, -0.13396636, 0.057037752, -0.038665935, 0.10160536}, 
{0.018901855, 0.0493219, 0.0902774, 0.10755703, -0.058156926, -0.05887124, -0.018887172, 0.08801166, -0.08199525, -0.08498246, 0.07642555, 0.08386427, -0.11786419, 0.17925335, 0.10675661, 0.0640754, 0.08263543, -0.07342708, 0.07275996, 0.072887465, 0.008103753, -0.032134198, -0.1108857, 0.0970736, -0.09497934, 0.040279463, 0.011170402, -0.03128343, -0.13378124, -0.10988037, -0.098992325, 0.15376298, 0.055556267, -0.024383586, -0.111937836, -0.13127714, -0.078258924, 0.0083462, 0.1119422, 0.068284065, -0.084949456, 0.09190581, -0.03620431, -0.029531958, -0.055281326, -0.0017156824, -0.06318055, 0.14358097, -0.017659828, -0.01339487, -0.079193324, -0.06212504, 0.025014328, 0.033940956, 0.09360309, 0.011817341, -0.009180736, -0.02675757, -0.050865833, 0.09454691, -0.13321069, 0.09721556, 0.0988159, 0.16970827}, 
{-0.03663163, -0.088613026, 0.057941005, 0.012506713, -0.0329649, 0.0670896, 0.081830196, 0.0087845875, 0.0021859857, -0.06697452, -0.09569677, -0.10262955, 0.08986174, 0.17362261, -0.07080872, -0.025573479, 0.03556116, 0.072784096, 0.075422645, -0.0717542, -0.10797844, -0.04340279, -0.13044015, -0.1054833, -0.12749839, -0.06797828, -0.033175774, 0.0070359185, 0.037001275, -0.015739545, -0.08767365, 0.010110255, -0.110608876, 0.13757214, -0.03761483, -0.06393571, 0.1099371, -0.07614906, 0.05497314, 0.025153503, 0.06652966, 0.06495449, -0.1492826, 0.10497604, 0.08486548, -0.100936696, -0.09230261, 0.2084544, -0.053974353, -0.034091223, -0.06528483, 0.086074114, -0.06099846, -0.012780445, 0.073714435, -0.082537495, 0.13151248, -0.053540803, -0.007138885, -0.11185118, -0.15268844, 0.124273, 0.02593293, 0.12627427}, 
{-0.023343602, 0.09502652, -0.073621385, 0.042312328, -0.06903137, -0.018488854, -0.016446346, 0.04494275, 0.020629149, -0.093383394, 0.107705, 0.0062593073, 0.06935139, 0.07460471, 0.040307596, -0.008111266, 0.04244576, -0.021912247, -0.0038629454, -0.0032011867, 0.016157413, -0.08548335, 0.081308596, 0.06430505, -0.120661356, -0.05450431, -0.09283846, -0.08745621, -0.07594116, -0.0407582, 0.02621381, 0.051433235, -0.045631565, 0.028698595, 0.03156741, 0.04131982, 0.1050891, -0.10808678, -0.02005615, -0.05139031, 0.018966945, 0.10058588, -0.16712408, -0.016031565, 0.10945107, 0.01418148, -0.024588102, 0.19543892, -0.022002146, -0.11807426, -0.049942628, -0.080627695, 0.07211767, 0.08961593, 0.017980263, 0.037623037, 0.14225554, 0.07093002, -0.13980275, 0.057484567, 0.011048409, 0.15879528, 0.06880642, 0.16082266}, 
{-0.06122592, 0.068192415, 0.0027047172, -0.020032411, -0.08266154, 0.11282708, 0.03330659, 0.14298998, -0.19839157, 0.075819895, -0.08532407, 0.0935131, 0.1033116, 0.122903936, -0.062485423, -0.018807797, 0.083086126, 0.055785224, 0.07144309, 0.05264078, 0.010125329, -0.038177423, -0.034109708, -0.067746386, -0.15166709, -0.084493965, 0.032755792, -0.107672594, -0.1541714, 0.024553377, -0.09306045, 0.008365302, 0.018367365, 0.08103482, 0.09080438, 0.060008414, -0.062074866, -0.10995833, 0.0836547, -0.03282018, -0.0143435355, -0.09254286, -0.008754579, -0.08257736, -0.066415966, -0.10891938, -0.036926992, 0.14816967, -0.010280214, -0.0030146895, 0.016323656, 0.023618907, -0.06046328, 0.055243727, 0.0615768, 0.011244124, 0.031754505, 0.08327946, -0.11544541, -0.08993245, -0.053511836, 0.17490898, 0.011330852, 0.14728425}, 
{-0.012414467, 0.12703276, 0.059911355, 0.15801267, 0.039769888, 0.04475832, -0.04287173, 0.08224911, -0.08934849, -0.08787193, 0.054916013, -0.023504756, 0.015195784, 0.11192344, 0.08937455, -0.010592524, -0.11272454, -0.055192616, -0.02056725, 0.027947798, -0.14766985, -0.106478736, -0.027497113, 0.06375207, -0.02471746, -0.07801683, 0.03575039, 0.0029966533, 0.05472365, -0.06891461, -0.042517625, 0.19252121, 0.0063817725, 0.11067268, 0.054713167, -0.055348676, -0.09820617, -0.06257142, 0.10495567, -0.07934882, -0.074708596, 0.0145916585, -0.019644516, -0.07437251, -0.10353063, -0.004947342, 0.064384066, 0.0076817255, -0.035506837, -0.0134875905, -0.07904047, -0.09971017, 0.0089901965, -0.0030970045, -0.024842426, -0.11224938, 0.1811951, -0.008341574, -0.12501319, -0.06582687, -0.002770494, 0.03605676, 0.13283142, 0.15897885}, 
{0.07585632, 0.14124013, -0.043978997, 0.1801692, 0.006363958, 0.042692795, -0.09721167, 0.111586645, -0.0014934889, 0.061508674, 0.066870406, -0.049462773, -0.07680475, 0.012764811, -0.042219967, 0.058790922, 0.06571499, -0.02274441, -0.14642544, 0.10177998, -0.014952106, 0.000876382, -0.07474613, 0.09465195, -0.117432535, -0.023184244, -0.06733161, 0.017263621, 0.030693565, 0.06950178, -0.056183197, -0.027479462, -0.0904163, 0.12898824, -0.030821083, -0.022438003, 0.0876703, 0.093925774, 0.010163583, 0.0045619234, 0.03935083, 0.044592895, -0.17168948, 0.057811268, 0.025097385, -0.050848402, 0.00629422, 0.17428695, -0.08198171, -0.002967809, -0.110111535, 0.105695486, 0.09230605, -0.07644422, 0.061832458, 0.05686229, 0.026391737, -0.07438223, -0.12373914, -0.14113337, -0.02172357, 0.16766961, 0.16017632, -0.0049860016}, 
{0.026850304, -0.11809825, -0.07772358, -0.18568186, -0.08540389, -0.102770045, 0.14661227, -0.05552268, -0.004240639, 0.0771627, -0.055611935, -0.093020484, -0.015673114, -0.004499653, 0.0022757673, 0.011821415, -0.019309128, -0.013805389, 0.016916068, -0.10701633, -0.0539191, 0.009843826, -0.07299683, 0.08085409, -0.16769475, -0.15996139, 0.09504193, 0.025231183, -0.05470173, 0.03527134, 0.10727997, -0.07088879, 0.092363074, -9.240281e-06, 0.024428416, -0.012207176, -0.03060846, -0.040512957, -0.08369677, -0.002911359, -0.057604246, 0.023238815, 0.15121165, 0.0332972, -0.06722468, -0.094845295, 0.025193388, 0.04830214, -0.07603657, -0.014455278, 0.0009955168, -0.033837788, 0.07732612, 0.060337897, -0.022407576, -0.052792735, 0.14968474, 0.06632451, 0.084992185, 0.08795745, 0.045288373, 0.084999084, -0.063737676, 0.109672755}, 
{0.016030855, -0.03555153, 0.056281477, -0.031293023, -0.042273432, 0.08034411, 0.083601646, 0.020926278, 0.064166136, 0.10186478, -0.08081273, 0.045538813, 0.013896152, -0.04291862, 0.09006917, 0.06853324, -0.10173998, 0.05129987, 0.0068954355, -0.09606049, 0.14108099, -0.0987368, 0.050195646, -0.092377424, 0.04227997, 0.0991301, 0.0490202, -0.10542658, 0.16404292, -0.09470208, -0.09663795, -0.12542489, 0.10742669, 0.032702472, 0.094185784, 0.020924158, -0.0006040484, 0.029144675, -0.10104368, -0.07571405, 0.02764105, 0.06169225, 0.07632954, 0.038065083, -0.039432533, 0.07675092, -0.0077090957, -0.07350161, -0.0346269, -0.08810077, 0.01788418, 0.049563162, 0.018464537, 0.014591185, -0.098134644, 0.07607409, 0.09406295, -0.081763975, -0.054728337, 0.039591447, -0.1111461, -0.011355434, -0.030983819, 0.057535306}, 
{0.04634417, 0.08745243, -0.07785819, -0.0018584317, 0.042165115, 0.058995947, 0.0910524, 0.045927208, 0.050131436, 0.0455461, -0.056760404, 0.087054506, -0.009851292, -0.01447632, 0.10130289, -0.116307825, -0.008865954, 0.010778204, -0.019553196, -0.06912784, 0.050749183, -0.05902564, -0.03927979, -0.103738524, -0.054224823, 0.0464558, 0.03285989, -0.1054066, 0.17229956, -0.014010775, 0.07943912, -0.02203926, -0.01040379, 0.02920405, -0.11049178, -0.12752013, 0.041860625, 0.055329442, -0.032551393, 0.048228264, 0.0903028, -0.034933433, 0.034724403, 0.06379874, -0.07293275, -0.091712534, 0.130031, -0.0034635267, 0.092302024, -0.03921789, 0.09428753, 0.053352747, 0.09881477, -0.11434139, -0.052529026, 0.08577707, -0.092098676, -0.05096968, -0.010763267, 0.16714735, 0.042078324, -0.017027115, -0.114434205, 0.0018953565}, 
{-0.0020130177, -0.033260193, -0.0046369135, 0.03165116, 0.10675338, 0.07941222, -0.037565455, -0.11204386, -0.052454125, -0.02655753, -0.098407276, 0.04785654, 0.10235947, 0.09365863, 0.1638042, 0.0060681254, -0.093650855, 0.04644388, -0.048914913, 0.09229384, 0.057069283, 0.11169727, 0.017741097, 0.07756156, -0.059973076, 0.052112594, -0.0371895, -0.10035146, 0.0017232725, 0.042897686, 0.087296695, -0.10524775, 0.020191327, -0.051048107, -0.07918271, -0.041119356, 0.06114185, 0.026626483, 0.042880952, 0.08530635, 0.007306822, -0.06373628, 0.052486498, -0.00333543, 0.0720932, -0.10976952, 0.14141233, 0.13578251, 0.04368435, -0.12367465, 0.07325581, -0.06151303, -0.11017219, 0.020948987, 0.052026317, -0.069273196, 0.07771655, 0.100457124, -0.10663492, 0.05877634, -0.057912692, 0.06946977, 0.014326476, -0.018186986}, 
{0.18051173, -0.04419757, 0.054138348, -0.19268915, -0.034643546, 0.026636079, 0.1451536, -0.06643071, 0.016899612, -0.08397661, -0.08834474, -0.062279016, -0.045702077, 0.09582259, 0.2062658, -0.12012155, -0.062180344, 0.09953359, -0.14466879, 0.06495513, -0.00353292, -0.06762317, -0.060518157, 0.08784489, -0.15551105, -0.09679762, -0.07272274, 0.029093832, -0.08262888, -0.18404235, -0.046534166, -0.0008505028, -0.063023806, -0.07927264, -0.11442138, -0.07665043, -0.046497785, 0.075236544, 0.103769705, -0.08253406, -0.08059723, 0.058247358, 0.032754607, -0.025813432, 0.07759528, 0.026178807, 0.13388067, 0.11598652, -0.11079554, -0.15415555, 0.04236208, -0.015841829, -0.0056721875, 0.054814167, -0.07084271, -0.034704465, -0.011938527, 0.025413157, 0.06528914, 0.16573435, -0.138418, 0.05689507, -0.06090831, -0.104765676}, 
{0.14495021, -0.11222535, 0.07654238, -0.19345473, 0.007981688, -0.010992847, 0.061970916, -0.22039418, -0.04093743, -0.09195818, 0.011572206, -0.08159315, -0.028613467, 0.1786789, 0.22583456, -0.05310815, 0.056493845, 0.05213274, 0.008718134, 0.06255402, 0.02689347, 0.024177477, 0.052012276, -0.03931804, -0.11864343, -0.0949314, 0.07346378, -0.06416008, -0.10952264, -0.14366956, 0.06897393, 0.05706221, -0.091017306, 0.0031760936, -0.11374826, -0.24717914, 0.039063737, -0.0039767176, -0.086163044, 0.06499757, -0.11549281, -0.026293354, -0.04629022, -0.019830136, 0.055654407, 0.07569088, 0.08535499, 0.19584881, -0.065751895, -0.032031238, 0.05813256, 0.029170966, 0.0052249995, 0.09079312, 0.081792384, -0.04661774, 0.12111325, 0.014350052, 0.028904494, 0.13066456, -0.029548688, 0.08387976, -0.045848545, 0.06665699}, 
{0.16491199, -0.17507684, -0.02977258, -0.14155295, 0.014867976, -0.07820329, 0.1768564, -0.20804198, 0.016534736, -0.033379905, 0.013786142, 0.063664615, -0.02637767, 0.15258525, 0.10592677, -0.0066167177, -0.10446893, -0.08583993, 0.027971119, -0.04586652, 0.116060086, -0.11353689, 0.02210985, -0.07184064, -0.0792101, -0.045231115, -0.0936337, 0.04630822, 0.109448574, -0.026555246, 0.0129892975, 0.15843461, -0.0069445297, 0.030921923, 0.08910195, -0.1430534, -0.05674099, -0.07042785, 0.05404246, -0.048630364, -0.11827337, -0.0695887, -0.08434211, -0.08825566, -0.10934609, -0.07710394, 0.10588537, 0.14370275, -0.10921289, -0.18873657, -0.053034008, -0.005391964, -0.008111782, -0.033240844, 0.022577673, 0.02198941, 0.13249703, -0.11346621, 0.0066735563, 0.10592891, -0.1250228, 0.21250015, 0.0137304235, 0.078257605}, 
{0.058543857, -0.0054099755, -0.017547667, -0.08319998, 0.06518306, 0.016885549, 0.025937058, -0.015863322, 0.04485729, -0.10500723, -0.043762792, 0.023650542, -0.018032689, 0.15096574, 0.07371972, 0.050733726, 0.06806571, 0.053911403, -0.004168638, -0.07781179, 0.07986666, -0.06863782, 0.0020010166, -0.066841565, -0.09873646, -0.056853067, 0.08750892, -0.042723373, 0.057559304, -0.14025484, 0.10349333, -0.04191129, 0.029169828, 0.11682262, 0.007915265, -0.1406382, -0.07686934, -0.10070136, -0.07413849, 0.0763966, 0.08685659, -0.03007235, 0.04555183, 0.04296826, -0.09688176, -0.11158097, -0.027907997, 0.05639053, 0.07465954, -0.11034009, -0.003117144, 0.013323786, -0.116990514, 0.08281349, 0.0026066303, -0.0012917459, 0.13385662, -0.020444755, -0.082688, -0.011172361, -0.058713496, 0.02778376, 0.0054006237, 0.11304081}, 
{0.031258073, -0.051820498, -0.067971796, 0.07867384, -0.08060138, -0.018823817, 0.09028134, 0.211702, -0.12097153, -0.11145506, 0.056821574, 0.009697743, 0.09154558, 0.055220257, -0.17362942, 0.052886292, -0.0899154, -0.0686084, -0.014893859, -0.019832127, 0.07718371, -0.089809895, -0.09915749, 0.015807748, 0.03664086, 0.07549187, 0.055421352, -0.0597309, 0.09095125, -0.008765756, 0.029154137, 0.044958368, -0.051801268, -0.029552182, 0.00610982, 0.12823445, 0.023337826, 0.00685896, -0.02267506, 0.07784328, 0.01582616, 0.09898607, -0.0036344533, 0.070702024, -0.056768347, 0.011908889, -0.17850097, -0.05354819, -0.051677555, -0.07661379, 0.100949764, 0.03265336, 0.074557126, 0.011180736, -0.049681023, -0.16056788, 0.04054308, -0.06699748, 0.078115374, -0.13790877, 0.011939855, 0.19117942, 0.07906485, 0.09982949}, 
{-0.072691575, 0.04909464, 0.0021966696, 0.1728615, 0.10235998, 0.05547054, -0.038915623, 0.17348585, 0.024280533, -0.08144442, -0.07575403, 0.07801807, 0.0360957, -0.022934964, -0.1750945, 0.023795823, 0.029158778, -0.03905885, -0.02902204, -0.0700588, 0.069107264, -0.0218947, 0.007549054, 0.026983276, -0.06894955, -0.043034807, -0.071434826, -0.0088511035, 0.024512926, -0.060202006, 0.010140777, 0.03369041, 0.07799862, 0.034682773, 0.10099553, 0.11336501, -0.039168872, 0.07902993, -0.07561168, 0.015503421, 0.08439626, -0.022305572, -0.004654779, -0.026685944, 0.08372362, 0.05086662, -0.13482796, 0.064962864, -0.06611752, 0.043384776, 0.00011422485, 0.10145726, -0.093282826, 0.053275604, 0.09851366, -0.0951787, -0.048751187, -0.07895033, 0.058796488, -0.18226136, 0.0697808, 0.035140555, -0.00023387717, 0.05257293}, 
{0.041211054, 0.04487457, 0.011581555, 0.08305887, -0.09103035, -0.043198347, -0.052868422, 0.007628865, 0.004003942, -0.027939975, 0.08831947, -0.05977224, -0.10248286, 0.1123687, -0.0011772376, 0.032058, 0.006637756, 0.06374836, 0.111227766, -0.06098267, -0.08142411, -0.046023734, -0.11856208, 0.009076208, -0.010197462, 0.048106946, -0.06215037, -0.061599977, 0.03867988, 0.0148922345, 0.03855975, -0.031707145, -0.04502505, -0.014561565, 0.043916117, -0.053007357, 0.031936333, -0.10633523, 0.0884106, 0.012003645, 0.008935361, 0.017824948, 0.04937129, -0.08659913, -0.11043208, -0.06927356, 0.085793614, 0.095325805, -0.017522722, 0.03838755, -0.0839301, 0.00840338, -0.062740125, 0.038949344, 0.038956687, -0.117440686, -0.0025198068, -0.030242028, 0.1131767, 0.07956696, -0.0104495045, 0.09578743, 0.08603014, 0.16538517}, 
{-0.025253799, -0.0539692, -0.05655487, 0.09424729, 0.11228576, 0.049556777, 0.018082397, -0.003583938, -0.06427229, -0.091413245, -0.09400262, 0.09632391, -0.012918012, 0.016924275, 0.08133921, 0.002059457, 0.07680177, -0.08399619, 0.06700764, -0.113565594, 0.045265365, -0.04432714, -0.13220504, 0.092515096, -0.078901455, 0.06420436, 0.04183501, 0.0346009, 0.062218267, -0.08546261, -0.025656886, -0.03436082, 0.028302744, 0.033263862, -0.04754982, 0.065547906, -0.05197229, 0.016356006, -0.021203086, -0.022860609, -0.022448255, 0.04007311, -0.016322114, -0.012629904, -0.033102922, -0.052052077, 0.0035011629, 0.0047290837, -0.0874509, -0.0369934, -0.03837791, -0.11734463, -0.04886106, 0.021751396, 0.079620615, 0.034713123, -0.006796332, 0.09273453, -0.003151297, 0.008233256, 0.052220706, 0.12064243, -0.087908976, 0.048614047}, 
{-0.037648104, 0.07598461, 0.05428286, 0.08954712, 0.1054866, -0.104463056, -0.06502549, -0.09765945, -0.09844481, 0.07816008, 0.07563916, 0.0051994026, 0.034854688, -0.0064574378, -0.09680288, 0.064592876, -0.031030504, 0.04625158, 0.07344689, 0.026595578, -0.021845547, 0.09302491, 0.069395825, 0.053599715, -0.07684742, 0.053574715, -0.041026995, -0.10438254, 0.1018125, -0.0031890655, 0.09555495, 0.0017480773, 0.08284798, 0.1231713, -0.048112728, -0.011776809, -0.021592215, -0.03640914, 0.025573239, -0.056493055, -0.056184493, -0.04528578, 0.0062545505, 0.029251853, 0.0124373585, 0.046713218, 0.061434872, 0.10479046, -0.09265342, -0.06583041, -0.08188262, -0.06860936, 0.09826333, -0.11092068, 0.0102604255, -0.059552725, 0.04344362, -0.0036499726, 0.07259852, 0.07591532, -0.0904213, 0.09181886, 0.08244284, 0.031039773}, 
{0.009687289, -0.05965476, 0.0031125844, -0.0058507533, -0.07958485, -0.062138144, 0.11443515, 0.11105071, -0.12505671, 0.041249797, -0.04377056, -0.10317433, -0.0144592635, 0.06097357, 0.07757387, -0.06437847, -0.08768205, 0.035081, -0.016006544, -0.102652565, -0.12102542, 0.07022531, -0.026911387, -0.080170706, 0.0029394873, 0.03072337, -0.08551285, 2.5242567e-05, 0.07574197, -0.05700972, 0.017732546, 0.111423865, 0.051712424, 0.011495093, -0.07246951, 0.094512045, -0.10617031, -0.06958933, 0.050447017, -0.058741238, -0.09646383, 0.014581199, 0.077037185, 0.09554311, -0.07491925, -0.03930196, -0.0038657223, 0.028965093, -0.04261764, -0.057554647, -0.088525824, -0.010471981, -0.015147168, -0.03147965, 0.08570808, -0.029277612, 0.13939556, -0.068792075, -0.07728479, 0.0656463, -0.069584794, 0.14082733, -0.07029519, 0.01260281}, 
{-0.09614392, 0.04042263, -0.005195737, -0.074423596, -0.014739245, 0.03575638, 0.041027926, -0.018997522, -0.047094896, 0.082146384, -0.1150872, 0.025847241, 0.033183496, 0.0114277955, 0.12276787, -0.027142068, 0.047048524, -0.052633215, 0.06433483, -0.056749802, -0.08431677, -0.003958799, -0.11156921, 0.08504628, -0.031666085, -0.072762065, -0.037951715, -0.030002974, 0.027125042, -0.16601457, -0.012048088, -0.016937703, -0.07459361, -0.04407173, 0.06337063, 0.10602231, -0.09681604, -0.103312604, 0.04840754, -0.07361973, -0.098274186, 0.03772212, -0.028900115, -0.1043028, 0.034858897, -0.028632127, -0.03646907, -0.0022043614, -0.045244843, 0.05854691, 0.016747922, -0.10775666, -0.10022251, 0.06715509, -0.012584001, -0.09672261, 0.07180002, -0.10085201, -0.0045707626, -0.0009471558, 0.029303296, 0.1233608, -0.07202767, 0.023049515}, 
{0.118608855, -0.006900516, 0.06906207, 0.087569736, -0.08460292, 0.018738523, 0.0072751716, 0.0679847, -0.09897435, -0.097528614, -0.07942416, -0.09545813, -0.058941502, 0.18449517, 0.09274134, -0.003569564, -0.00027650333, -0.04064879, 0.020401048, -0.004652396, -0.06715207, 0.0072971955, -0.0727833, 0.10860096, -0.009943822, 0.06568027, -0.0976426, -0.05009353, -0.014364345, -0.05976219, 0.014179006, 0.15648389, -0.058465052, 0.14684083, -0.08099821, -0.026256965, -0.032129154, -0.10609288, -0.113031685, 0.044181496, -0.05857178, 0.10068802, -0.07447248, 0.04083046, 0.020020172, -0.0959171, -0.040864132, 0.16897696, 0.073003456, 0.088257074, -0.008558407, 0.04419786, -0.07298238, -0.111924775, -0.081128865, -0.09721933, 0.06694056, -0.08248374, -0.043002788, 0.09558204, -0.15882438, 0.10094955, 0.06765109, 0.083465114}, 
{0.09988216, -0.01679527, -0.07186542, 0.059516445, 0.0056692734, 0.0024993718, 0.100578815, 0.069304354, -0.1448039, -0.101672046, -0.020377642, -0.06419958, -0.059348743, 0.1668231, 0.052656583, 0.078068845, 0.0990344, -0.08951709, -0.0090971915, -0.06513412, 0.017913826, 0.050032496, 0.08798168, 0.057123616, -0.0761762, 0.005890317, -0.04416675, 0.08354996, -0.014628638, -0.10390986, -0.026134185, 0.07008386, 0.094503924, -0.02058332, -0.10091058, 0.07889159, 0.0028600693, 0.09187013, -0.053662457, -0.025715716, -0.05337004, -0.0018933457, -0.07821065, -0.07497261, 0.08484821, 0.11278996, 0.077554375, 0.15467669, 0.05516377, -0.016484853, -0.06797415, 0.061682515, 0.060528625, -0.037796136, -0.013459794, 0.056900952, 0.12014075, -0.069391795, -0.055296257, -0.0125371525, 0.0010697143, 0.024465706, 0.10861977, -0.020410154}, 
{-0.020349436, -0.06506633, 0.08583246, 0.10705712, -0.06542614, -0.031025276, 0.08846608, 0.036333743, -0.014632793, -0.11414961, 0.0011002661, -0.102175266, 0.103867866, 0.13393213, -0.010303061, 0.010266481, -0.0125163, 0.016882509, -0.06924186, -0.076848134, -0.12870207, 0.004696533, 0.040094256, -0.00013358146, -0.12566954, 0.10857189, -0.079926506, -0.035506487, 0.0006628413, -0.024147164, 0.038974315, 0.048246417, -0.09599139, 0.09248012, 0.07862076, -0.041322235, -0.048692204, -0.034720242, 0.04805033, 0.05606824, -0.071743585, 0.0621712, -0.15694372, -0.0019801424, -0.07619019, 0.014566079, -0.010736879, 0.10782108, 0.05305074, 0.03814356, -0.042591043, 0.020896556, 0.03820556, 0.004074904, -0.06321339, 0.029362008, -0.026447993, 0.0029196416, -0.057646737, 0.05821861, -0.09135259, 0.13693783, -0.018019114, 0.007023819}, 
{0.04398176, 0.03442154, -0.049229562, -0.006951209, -0.0966441, -0.006154299, -0.003979801, 0.14753288, -0.017385412, 0.015870368, -0.09918662, 0.10587151, -0.023347305, 0.07507531, 0.12303703, 0.065046616, -0.11024454, 0.092798546, 0.06169195, -0.055385515, -0.10270467, 0.087190896, -0.0986744, -0.086509824, -0.043191954, 0.085697256, 0.010684341, -0.011107422, 0.0746498, -0.0071039177, -0.0026559979, 0.17799897, -0.0058245957, 0.08349396, 0.0141125545, 0.029720075, 0.05198644, -0.062488563, 0.0066782385, 0.11359778, 0.1052354, 0.103264175, 0.019359568, 0.06012954, 0.014402434, 0.096354574, 0.05925383, 0.029949943, 5.093962e-05, 0.049572006, -0.030920051, 0.051853925, 0.06780421, 0.0005005589, 0.058601424, -0.0046571773, 0.066733785, -0.044613183, -0.04441301, -0.07522088, -0.0043095513, 0.05005559, -0.02150575, -0.021810768}, 
{0.03306374, 0.057738453, 0.0660681, 0.1553439, 0.11288287, -0.09656859, -0.037543833, 0.16323191, 0.011132024, 0.023531089, -0.08711546, -0.05155501, 0.053609643, 0.123101324, -0.06960965, -0.03647189, -0.09907723, 0.041879356, 0.060253263, 0.06175457, -0.09443047, 0.065385774, -0.04217948, 0.0016627088, 0.06572411, 0.009384753, -0.07837805, 0.0110701695, -0.0007501694, -0.058222793, -0.020043, 0.08285474, -0.008795686, 0.050776545, 0.065042496, 0.03826468, 0.09199287, -0.050479002, -0.10875785, 0.075954154, -0.024760153, 0.07454182, -0.06752385, 0.0015425371, 0.018962085, -0.085154675, -0.037365574, 0.14049602, -0.052606538, 0.09443534, 0.010992385, 0.062014826, 0.0042929854, -0.032047655, -0.103595644, 0.059264705, -0.0032755039, 0.024543291, -0.14455582, 0.022629295, 0.029770378, 0.04036926, 0.12980881, 0.11381714}, 
{0.16133274, -0.016970325, -0.09495455, -0.14182556, 0.016171858, 0.045154184, 0.08579813, -0.15369347, 0.0516213, -0.039348092, 0.044506487, 0.049574345, 0.077586465, 0.19650404, 0.20923239, -0.12234492, 0.0032573892, -0.109793656, -0.06655, -0.10369829, 0.06816393, -0.056352127, 0.08057042, -0.074368015, -0.012839983, 0.076491594, 0.044652477, 0.053569674, 0.116529636, 0.009403698, 0.06019695, -0.01614718, -0.06910805, -0.08129394, -0.02355711, -0.11248563, -0.06601398, -0.014630452, -0.014967419, -0.009191871, 0.03688941, -0.035241686, -0.13390793, -0.10326993, -0.101481505, -0.10722737, 0.045780588, -0.01146238, 0.106268644, -0.031825006, -0.050478376, 0.075367354, 0.10398069, -0.0063866014, -0.055435997, -0.075413875, -0.06707877, -0.006617826, -0.019089423, 0.15273891, -0.01845722, 0.057244588, 0.035545077, -0.023641836}, 
{0.0721491, -0.048575435, -0.09019818, 0.05045164, -0.09640308, -0.045582414, 0.09495899, 0.0073944055, 0.042907078, -0.11255198, -0.056778584, 0.037527338, 0.048807178, 0.058593705, 0.12333698, -0.059399262, -0.0968405, 0.08536115, -0.114302844, -0.048083626, 0.09282423, 0.04254712, 0.034573834, -0.005281687, 0.108142056, 0.017726818, 0.063930124, 0.08381991, 0.050831117, 0.002993886, 0.044180974, -0.06357894, 0.002851501, -0.016109431, 0.046649605, -0.054257132, 0.016692564, 0.0936289, 0.030264542, -0.09062224, 0.018552965, -0.027318716, -0.024714282, -0.09489384, 0.0074912608, -0.041678734, 0.15151735, -0.056072515, 0.008642696, 0.07923927, -0.0022514611, -0.10749793, -0.07588395, -0.11306158, 0.052130952, -0.067905106, -0.08786576, 0.056377176, 0.055030055, 0.13213222, 0.042733226, -0.13333458, -0.09032982, -0.10874411}, 
{0.15114635, 0.050808713, -0.044994384, -0.14324518, 0.10480897, -0.106268235, 0.05165358, 0.036599386, 0.09595921, 0.05629699, 0.07863275, 0.06696072, -0.07510422, 0.12582713, 0.11068007, -0.040903058, -0.08379888, -0.04602143, -0.0474205, 0.051332995, 0.025852147, 0.062157556, 0.13122237, -0.060777217, 0.037809048, 0.10040566, -0.09076881, 0.110704556, -0.014121377, 0.018391447, -0.0041699708, -0.03176672, -0.11096726, 0.06255125, -0.08867515, -0.08369774, 0.10146637, -0.095826685, 0.022473782, 0.044997185, -0.01844636, -0.0016447634, 0.049175903, 0.029024027, -0.07512275, -0.011658274, 0.13405359, 0.06279172, -0.0695087, -0.058293708, -0.011409171, -0.0310523, -0.058203775, -0.05432664, -0.07229893, 0.08873564, -0.09412569, 0.07149227, 0.053295072, 0.09132929, 0.004450474, 0.07849992, -0.06339955, -0.05110785}, 
{0.052129813, -0.03933168, -0.02479449, -0.009019182, 0.035813883, 0.106394604, -0.030530518, 0.018955892, -0.052444983, 0.026952835, -0.018223638, -0.0835472, 0.08418036, -0.043717444, 0.019996872, 0.009338886, 0.08590988, -0.068058826, -0.05936291, -0.05316501, 0.10296965, 0.09615196, 0.08616444, -0.037335627, 0.062032707, 0.09132016, 0.11232233, 0.058180317, 0.0863688, 0.0024377939, -0.033861235, -0.020636674, 0.014680773, -0.09295271, 0.025811512, -0.08289025, -0.087513715, -0.0058938116, -0.10112208, -0.033963017, 0.070452444, -0.09673199, -0.0611682, 0.050452396, -0.058202773, 0.015502229, -0.010461929, 0.077320874, 0.102555975, -0.102763265, 0.068428114, 0.00416262, -0.098852135, 0.0056111426, -0.08782488, 0.0859187, -0.030052662, 0.039561257, 0.11610646, 0.11873809, -0.030829055, 0.057864826, 0.05793571, 0.06244079}, 
{0.1648289, -0.056919187, -0.03473212, -0.17804599, -0.089402944, 0.045052454, 0.060168404, -0.031348567, -0.063185886, -0.011984037, 0.06737522, -0.00768999, 0.080058105, 0.13660742, 0.13711643, -0.112800054, 0.083805166, 0.036285922, -0.060595397, 0.03699158, -0.0855333, 0.008067086, -0.026644837, 0.012765601, 0.0029931662, -0.149707, -0.110502735, -0.09814419, 0.048024014, -0.033599697, 0.014812857, 0.15407135, 0.01707986, -0.07922279, 0.08500689, -0.098462656, 0.033054754, 0.033398166, 0.035829604, 0.08255719, -0.08687027, -0.101537585, 0.046659827, 0.08868308, 0.05716352, -0.053071205, 0.14222388, 0.1356812, 0.09534864, -0.037028197, 0.02488947, -0.05729113, -0.08417194, 0.059341576, 0.03293112, -0.097663224, 0.021928236, -0.05770064, 0.008380239, 0.120080106, 0.0021517056, 0.1096238, 0.0998699, 0.05235794}, 
{0.18740278, -0.19034196, -0.0646826, -0.12578796, 0.029741377, -0.042697564, 0.15882108, -0.06678082, 0.016793793, -0.038134333, -0.015119274, 0.020261705, 0.07469189, 0.11911821, 0.257057, -0.04176091, 0.04483617, -0.031791613, -0.13149041, -0.010599889, 0.063926324, -0.03815622, -0.07147867, -0.05569551, -0.18255189, -0.17721498, 0.03703803, 0.022411615, 0.03266237, -0.1412692, -0.104787156, 0.13440733, -0.041939437, -0.14323522, -0.008113556, -0.070825055, -0.0131430775, 0.10050857, 0.0926172, -0.090952486, -0.08147381, -0.050225362, -0.101333044, -0.047396597, 0.05265884, -0.030130997, 0.16064058, 0.15387538, 0.009513363, -0.0043047452, -0.011171348, 0.021967083, 0.029804654, -0.055862952, 0.10218066, -0.14025177, 0.1944169, -0.00027657577, 0.08638065, 0.23835436, -0.06638117, 0.21018958, 0.021548433, -0.08995604}, 
{0.20395598, -0.06955269, -0.064077124, -0.10792928, 0.1062174, -0.036473207, 0.15414207, -0.19637813, -0.1129632, -0.017992072, -0.06211159, -0.07761448, -0.0792899, 0.18043146, 0.12570213, -0.04137146, -0.020988487, -0.0587231, -0.11085935, -0.044857472, 0.03394542, 0.08771974, -0.18215586, 0.06326388, -0.10576233, -0.02606844, 0.018865243, 0.05943671, -0.058036108, -0.053930055, -0.053952392, 0.12652732, -0.107673034, -0.090035066, -0.08019957, -0.19918862, 0.01264143, 0.109506816, 0.05713135, -0.07679695, 0.07259914, -0.012259985, -0.06383935, -0.0076656407, 0.021184266, -0.004915543, 0.15614164, 0.108484626, -0.08880917, -0.17823067, -0.023476973, -0.08162985, -0.011044127, -0.0064490354, 0.1077908, -0.16319719, 0.08655281, -0.06341323, 0.112748705, 0.1276223, 0.0092621455, 0.10085604, 0.009165183, 0.11799407}, 
{-0.17090774, 0.030418327, 0.087909445, -0.021672942, -0.00048705935, -0.0057143047, 0.14515238, 0.10467509, -0.19806169, -0.026428618, -0.082058646, 0.033561274, 0.016569113, 0.060432035, -0.1485561, 0.07269861, 0.072333135, 0.09455636, -0.049851425, 0.00051756203, 0.06563143, -0.008848824, -0.056207567, 0.023038983, -0.20044748, -0.14885984, 0.0930395, -0.024332345, -0.028427806, 0.047458436, 0.06433338, 0.15692544, 0.003702946, 0.07613923, 0.0877166, 0.064208955, -0.04205949, 0.08074376, -0.1031062, 0.02866815, -0.048226073, 0.08305394, 0.19884405, -0.023028333, -0.02976168, 0.02838166, -0.07788364, 0.11016466, -0.043401547, -0.039213598, -0.0091720745, -0.11497042, 0.030256748, -0.037682828, 0.021402493, -0.047436345, 0.009946081, -0.07570861, 0.14222193, -0.100564465, 0.08664873, -0.010577074, -0.12587792, 0.067967355}, 
{-0.08665119, 0.054965094, 0.042293623, 0.1771879, 0.024545252, 0.014155015, -0.019624557, 0.051393304, -0.16883667, -0.015109953, 0.027264582, 0.051689163, 0.0014525672, -0.021859186, -0.08207485, 0.05330641, 0.11071731, -0.061990656, 0.16855028, 0.06540057, -0.07259199, -0.012732305, -0.10517541, -0.009794429, -0.030818474, 0.00522804, -0.104874834, 0.08063461, 0.08617913, 0.1027021, -0.06852426, -0.08089156, 0.059118927, 0.14767966, -0.0147600835, 0.03852301, -0.11186965, -0.030379042, 0.094906375, 0.11039442, -0.10865461, -0.10871092, 0.09464978, 0.02415632, 0.046512127, -0.109198794, -0.22255556, -0.08441255, 0.009873837, 0.07946233, -0.10904127, -0.11163973, -0.049124625, -0.016560437, -0.05416248, -0.13936654, -0.038133495, 0.027942562, -0.017160302, -0.13076441, 0.0879587, 0.0024567326, 0.059049074, 0.032088246}, 
{-0.18018873, 0.057654656, 0.0064204857, 0.14967382, -0.10671482, -0.08846569, 0.10485673, 0.21001247, -0.009832967, 0.018451674, -0.0112643335, -0.08679388, 0.002205555, 0.087428465, -0.037849914, -0.016865512, 0.10076261, -0.07191467, 0.033306755, 0.1026386, 0.0029221536, 0.040139362, -0.16529702, 0.0017156303, -0.059237678, -0.06400128, -0.010029107, 0.10228193, -0.0032682065, 0.07104829, -0.10814201, 0.12574767, 0.010479867, 0.048674297, 0.035132565, 0.17363577, -0.04744751, 0.08155489, 0.060461402, 0.015112549, 0.09441818, -0.0259616, 0.010611218, 0.08238248, -0.09930175, -0.109459445, -0.19291171, -0.05896416, 0.033878237, -0.08057012, 0.010022379, -0.101163894, -0.057013653, -0.037097607, -0.033124454, -0.023217678, 0.05606962, 0.05004091, -0.06395198, -0.18165289, 0.067352004, 0.061455842, 0.06278637, 0.05358789}, 
{-0.0020377561, 0.07653082, 0.106997654, 0.1169829, 0.011330977, 0.09075692, 0.056693204, 0.0747833, -0.0007492392, 0.10483664, 0.089175165, 0.009024538, 0.074111655, 0.026045254, -0.08019279, 0.07888337, -0.018180568, 0.11285286, 0.07426702, -0.10589279, -0.074683875, -0.064585656, -0.08430613, -0.102830365, -0.029335758, -0.020347634, 0.058786705, 0.04236883, 0.073426284, 0.0716635, -0.09252507, 0.11113061, 0.05206731, 0.071595415, -0.037912004, 0.06399226, 0.040855214, 0.022209749, -0.079168245, -0.06626286, -0.105922304, 0.049776725, 0.10652387, -0.07342581, -0.034610875, 0.04121253, -0.00076439953, -0.037789255, -0.091029406, -0.0399817, 0.022871435, 0.04988623, -0.109860905, 0.010610637, -0.10398814, 0.05708362, 0.16392742, 0.08060412, -0.00788831, 0.040719356, 0.06592808, 0.14338633, 0.018747978, 0.034937907}, 
{-0.0669867, 0.083298236, -0.029868469, 0.121092975, -0.035131805, 0.06474936, 0.12565026, -0.06986469, -0.054493327, -0.104446314, 0.069986, -0.08562932, 0.09351257, 0.06361836, -0.012561025, -0.061822504, -0.10734736, -0.10471189, 0.10580764, -0.1050384, 0.09151564, 0.112899944, -0.052079145, 0.01779072, -0.09589474, 0.073162206, 0.10673125, 0.11140187, 0.07970773, -0.086649485, -0.059073925, 0.09432699, 0.06287572, 0.116195224, 0.016505895, -0.06552638, 0.072862774, 0.085311025, -0.007682346, -0.04283613, -0.061039664, -0.016056579, 0.0065199444, -0.065767184, 0.013685688, -0.098175965, 0.0012081437, 0.15587425, 0.11292972, -0.048452035, 0.029107317, 0.061613373, 0.05814528, 0.10264424, -0.08981992, -0.013647354, 0.12844712, -0.03081157, -0.004327345, -0.031617824, 0.090876475, 0.04620788, -0.07331445, 0.07328468}, 
{-0.044634353, 0.03922827, -0.042081237, 0.022922594, 0.024857447, -0.08734305, 0.121076666, 0.11965921, -0.01570492, 0.046549626, -0.11844877, 0.08678076, 0.006095857, -0.04142608, 0.03877312, -0.031484477, 0.006544653, 0.0025023296, -0.006993627, 0.058191583, 0.033190586, -0.0964339, -0.033733215, 0.07335363, -0.078250386, -0.095436245, -0.11028226, -0.09966673, 0.037798207, -0.08009292, 0.07952738, 0.1488838, -0.1094405, 0.05280605, -0.093860045, 0.07014093, 0.091289625, -0.056888018, -0.07722472, 0.019958392, -0.071847215, 0.07281256, -0.094407536, -0.097680055, 0.08896035, -0.005852334, -0.04961412, 0.10368173, 0.07980104, -0.011168373, -0.010872684, 0.0044556158, -0.014219823, -0.009746893, -0.09118033, -0.13168997, 0.1349313, -0.061849874, -0.008874947, -0.10518494, -0.052397233, 0.039096765, 0.09188473, 0.15355799}, 
{-0.049850438, -0.09295225, -0.054683294, -0.039068446, 0.07078092, 0.04854296, 0.071033075, -0.072636686, -0.13758858, -0.11031243, -0.11414505, 0.03895694, 0.102648295, 0.075948656, 0.017010046, 0.08893151, 0.035473716, -0.08406937, 0.028174149, -0.08820884, -0.07423189, -0.034727074, 0.002633319, 0.008323945, -0.07568377, 0.07402786, 0.052893326, 0.011621729, 0.082800284, -0.13310273, -0.04823464, 0.13814774, -0.08808249, 0.11289681, -0.07157009, 0.018015824, -0.051809996, -0.11063661, 0.040281013, -0.03219243, 0.011565998, 0.03976422, 0.08132441, -0.020059265, 0.035735935, -0.08189238, 0.029082458, 0.19032474, -0.060175747, -0.03170586, -0.08454865, 0.045531906, 0.036775343, -0.10671626, 0.05198373, 0.079057775, 0.17408834, -0.07880922, 0.08533068, -0.03320348, -0.14403059, 0.0563169, 0.046558917, 0.030820651}, 
{-0.06847315, 0.06997657, 0.012733579, 0.079758056, -0.015948646, -0.003173396, -0.06701315, 0.01379839, 0.043063417, 0.01037803, -0.10615876, -0.08071083, -0.099200726, 0.089368455, 0.017498195, -0.081950344, -0.05294687, -0.10795675, 0.01930532, -0.026405387, -0.13763519, -0.09068137, -0.057957307, 0.061183676, 0.017836686, 0.07246026, 0.02591683, -0.09845573, 0.04030471, -0.0812081, 0.002989389, -0.006747453, -0.018891215, -0.0019326037, 0.025186976, 0.011919004, 0.10042383, -0.010199554, -0.052645363, 0.037383854, -0.014227244, -0.08856033, -0.12302175, -0.014282474, 0.09597075, 0.08727966, -0.03878372, 0.0167133, 0.010020211, -0.10230203, 0.048556462, -0.040012565, -0.07092167, -0.023226209, 0.034561753, 0.07019645, 0.12203849, -0.028262042, 0.027445352, -0.08367564, -0.069646254, -0.0072011114, 0.10822913, 0.11610974}, 
{0.03827702, 0.055167627, -0.002407521, 0.107977316, 0.016609088, -0.03143675, 0.042557158, 0.099090874, -0.048272684, 0.005444067, -0.007210301, -0.049563386, -0.062325984, 0.09431705, 0.0007966213, 0.03600851, -0.0035978926, 0.028993607, -0.093781225, -0.04969713, 0.07163858, -0.10574533, -0.035696793, -0.08442412, -0.0041702376, -0.04481755, 0.0022218302, 0.073382914, -0.0010181558, 0.022974104, -0.069060765, 0.1269137, -0.0009820908, 0.11923138, -0.11035781, -0.11182423, 0.046120986, 0.02086711, 0.031927496, -0.05265702, -0.08298903, -0.10254883, -0.12727368, -0.011203004, 0.025516286, -0.055107918, 0.103739746, 0.059607565, 0.049678177, 0.02379984, 0.074591905, -0.07127088, -0.0760086, 0.09397906, -0.060068954, -0.085845545, 0.000317601, -0.014813499, -0.05246197, 0.028163746, 0.061003156, 0.092846274, 0.14372374, -0.026744086}, 
{-0.0043326635, 0.092965394, 0.03097263, 0.13235909, -0.011169776, -0.07912162, 0.1393484, 0.112146124, -0.1313856, 0.055566974, -0.0051748445, 0.06500912, 0.0982088, 0.120201565, 0.0161172, -0.09104071, -0.045871276, -0.09576978, 0.063873895, -0.01803527, -0.10089262, -0.07715775, -0.11903216, 0.035972074, -0.11801026, 0.0572192, 0.06430192, 0.035855472, -0.08992724, 0.020859074, -0.017857283, 0.0873278, 0.0025098398, 0.117149115, 0.080619335, 0.09923229, 0.036023647, 0.017277122, -0.0471768, 0.035047024, -0.010434864, -0.081862, -0.096700415, -0.041518677, 0.063489854, -0.015812136, -0.009604853, 0.06632645, 0.0011409149, 0.08042336, -0.046928152, 0.1059634, 0.04046532, -0.09263801, 0.030674607, 0.09419229, 0.07560694, 0.030780049, -0.07289163, 0.019266006, -0.01752707, 0.108519755, 0.015854832, 0.024861077}, 
{-0.10949052, 0.10883644, 0.019201785, 0.15379813, -0.06416312, -0.11258705, 0.02627783, -0.030442754, -0.074570335, 0.03117375, -0.061602943, 0.1010309, -0.031724297, 0.12928459, -0.039004825, -0.029097218, 0.07082185, 0.02519457, -0.042638265, 0.103516504, 0.01024404, 0.09781611, 0.10715083, 0.11063598, 0.024669314, -0.009097719, 0.09558152, -0.009469032, -0.048942167, -0.013277357, -0.04607869, -0.025738904, 0.09211837, 0.052645966, 0.09597748, -0.035697293, -0.075372204, -0.09992576, -0.087088525, -0.088696465, 0.01993896, -0.023769267, -0.09781682, -0.011822612, 0.1112338, -0.09463575, -0.018659402, -0.01409254, -0.012500934, 0.04169206, -0.061601333, 0.1006203, 0.10404307, 0.06584781, -0.075072296, 0.087108746, 0.1063883, -0.051698875, 0.05537578, -0.106856994, -0.024241153, 0.05609528, 0.15537326, 0.15813127}, 
{-0.051674657, 0.06068354, -0.06888123, 0.17847352, -0.002592072, 0.023541898, -0.06542337, 0.16797975, -0.1798489, -0.10488322, 0.06318011, -0.10805748, 0.064849935, -0.05127382, -0.055248696, -0.0051473565, -0.0779525, -0.06107981, -0.119979836, -0.09825893, -0.13000765, 0.0018204451, 0.05829655, -0.030346312, -0.08516789, -0.010261757, -0.061288845, -0.0070020035, 0.015520698, -0.030905658, 0.04987669, 0.07233366, 0.09626576, -0.0056717675, -0.08936886, 0.06841862, 0.091659024, -0.05071891, 0.08978777, 0.076484144, 0.032616723, 0.05288702, -0.06086503, -0.009470438, -0.1054506, -0.06817969, -0.04999194, 0.15681735, 0.026050732, 0.098796494, -0.020421803, -0.09607408, 0.06312103, 0.06851318, -0.04218103, 0.05341177, 0.13659331, 0.09461773, -0.060102046, -0.11890836, -0.14339057, 0.054097466, 0.05577036, 0.10392061}, 
{0.07270421, 0.08755794, 0.08827855, 0.14259325, -0.048844628, -0.0184436, 0.03223292, 0.12420329, -0.18972677, 0.0048912005, 0.097544864, -0.06516211, -0.11608633, 0.020919135, 0.08196011, 0.014501125, 0.10109479, -0.09137101, 0.033784095, -0.03750497, 0.040206987, -0.041778997, -0.033524077, 0.106845826, 0.043411218, 0.1249453, 0.024533942, 0.10531637, 0.08262944, 0.0024541637, 0.0529643, 0.097276084, 0.09042327, 0.11095119, -0.11363148, 0.080431186, 0.04129581, -0.057406474, 0.0012310073, 0.09452641, -0.098704055, -0.055315554, -0.1484458, -0.10044579, 0.05247058, 0.10988629, 0.077251785, -0.029542267, 0.10550767, -0.03747611, 0.09209557, 0.08523523, -0.09405908, 0.011932055, 0.039943367, 0.053696472, -0.051747933, -0.08395692, -0.15823421, -0.16015083, 0.008221445, -0.048619054, 0.05965594, 0.14523612}, 
{0.036796313, 0.1022484, -0.08426306, -0.058037493, -0.09210508, -0.07168344, -0.09985292, -0.10323214, 0.029200213, 0.05509065, -0.10356158, -0.078303955, 0.021043725, 0.011166296, 0.089089535, -0.17240086, 0.06418948, 0.04237336, 0.0074939877, -0.014878467, -0.18399353, -0.050418437, 0.12405067, 0.09090783, 0.13269098, 0.034902364, -0.057523735, -0.048257202, 0.077703565, 0.0057394276, -0.06324883, -0.02870931, -0.10379025, -0.06810984, 0.07788136, -0.019957844, 0.09508583, 0.10164325, 0.025003895, 0.049227208, -0.1045113, 0.09765634, 0.03983551, 0.0050488277, -0.032217756, 0.038211018, -0.047078602, 0.06672373, -0.091898225, -0.066623814, 0.07550101, -0.09855502, -0.11315553, 0.038542345, 0.021587044, 0.080657616, 0.06390493, 0.041602574, -0.15311593, 0.04255205, -0.15533888, -0.12098057, -0.009956264, -0.08006523}, 
{-0.059452258, 0.015508735, -0.027754813, -0.029083224, 0.03374602, -0.07153441, 0.046414986, -0.044912413, 0.072235495, 0.07472655, 0.002791231, -0.05347384, 0.038845573, 0.0020943773, 0.17193761, -0.013347508, -0.07397379, 0.039081186, 0.029951558, 0.047253087, -0.0022689903, 0.021183208, 0.082154065, 0.07586455, 0.17531933, 0.17205872, 0.019190684, 0.10746285, 0.14526148, 0.11862114, 0.025980115, -0.17206289, 0.013635159, 0.0947177, -0.10903793, -0.0825252, 0.09102464, 0.027899563, 0.101571515, -0.018048748, 0.05480259, 0.073751256, -0.15293482, -0.038666666, -0.09648826, -0.047056936, 0.11965304, -0.017898586, 0.046269745, -0.06394177, -0.01810614, -0.07774427, -0.05766406, 0.010520156, -0.01508563, 0.08637331, -0.045684084, -2.645985e-05, -0.1363841, 0.11938047, 0.005848918, -0.12819809, 0.055269033, 0.006441078}, 
{0.046951685, -0.033212665, -0.0033575147, -0.04261062, -0.10322796, 0.06077023, 0.07200016, -0.13325226, 0.041289903, -0.07998874, 0.012120085, -0.04903818, -0.052463505, 0.09895262, 0.029726472, -0.088773124, 0.07044888, 0.104916066, -0.10252469, -0.00983198, 0.091221236, -0.061284535, 0.015065133, 0.036539033, -0.0285696, 0.07384193, -0.1081496, -0.027392574, 0.031724457, -0.113927506, -0.11210869, -0.07159819, -0.0015448481, 0.005298272, 0.10544792, -0.108230636, 0.08471462, -0.09220692, -0.056188237, 0.0057429075, -0.07962919, -0.082110114, -0.027044538, 0.10311014, 0.109916896, 0.012270644, 0.071931005, -0.031822335, 0.08044125, 0.035583463, 0.023608997, 0.0015351783, 0.03474478, -0.07690192, -0.08985812, -0.011658386, -0.1716417, -0.109445296, 0.04448968, 0.19100185, 0.06414074, -0.090769805, -0.086946934, -0.049830656}, 
{-0.06338345, -0.0020469904, 0.009957805, 0.023378005, -0.10016534, -0.06054411, -0.07625544, -0.073015906, 0.15331933, -0.08317248, 0.05227469, -0.009678364, -0.07747101, 0.043745082, 0.19417822, -0.08437181, 0.025457006, -0.034519024, 0.013048088, -0.07910635, 0.14869836, -0.023558848, 0.035212215, -0.011581145, 0.009812601, 0.022146553, 0.020886987, -0.0129508525, 0.12224015, 0.081917286, -0.015123665, -0.064357005, 0.09771682, 0.07098192, 0.00949241, -0.16653857, 0.06320615, 0.10872553, 0.080602214, -0.101995945, -0.045507617, -0.042229984, -0.12768044, 0.07869801, 0.051715136, 0.010297485, 0.10143678, 0.09576667, 0.06389694, 0.09663808, 0.0075528026, 0.07459057, -0.037338205, -0.03343273, -0.11021315, 0.005057344, -0.086282395, 0.103330486, -0.09199835, 0.05172315, -0.028963, 0.023564655, 0.043713417, -0.060619082}, 
{0.10154553, -0.067579344, -0.026943415, -0.13791119, 0.04474491, 0.08309913, 0.097604476, -0.100855924, -0.00806537, -0.085653186, 0.02796698, -0.05918511, 0.04709994, 0.08661102, 0.06611985, -0.04742428, -0.10336845, -0.007824868, -0.06362731, 0.089569956, -0.034862086, -0.08465241, 0.034651443, -0.020524882, -0.08280378, 0.044948008, -0.018683836, 0.082743734, 0.03915501, -0.1162323, -0.098445155, 0.09595041, 0.02915807, 0.0025542418, 0.102849096, -0.10136834, -0.0014310628, -0.10676815, -0.09937202, -0.07991879, -0.11989166, -0.039949037, -0.112050295, 0.00038306258, -0.07353389, -0.10818696, 0.04606371, 0.054327678, 0.109671414, -0.17572136, -0.006265782, -0.093911156, 0.10134614, -0.042050883, 0.103619635, -0.098980084, 0.12973067, -0.0030260151, 0.082805924, -0.000862888, -0.023484718, 0.083820626, 0.05180416, 0.090800904}, 
{0.06015554, -0.14768629, -0.028468475, -0.050543323, -0.07773417, -0.054888666, -0.004161427, -0.24781868, -0.049988568, -0.039762724, 0.032052707, -0.070482716, 0.10156733, 0.23372293, 0.04862792, -0.028777944, -0.06900301, 0.07424782, -0.038796026, -0.011083454, 0.06872277, -0.10005684, 0.022099644, -0.10160432, -0.20567402, -0.108667895, 0.007291749, 0.10330661, -0.047645483, -0.13537219, -0.10998777, 0.16380146, 0.108027816, -0.056648653, 0.09941725, -0.25036308, -0.05681582, 0.043498144, -0.023185082, 0.051511556, -0.073440894, 0.052980065, -0.0043961536, -0.0024768475, -0.06723064, -0.05453109, 0.03254334, 0.2309101, 0.04879418, -0.15156335, 0.07342152, 0.018214846, 0.014090707, 0.047238037, -0.059313323, -0.004575002, 0.1364249, -0.0337537, 0.096647136, 0.11338981, -0.009484404, 0.1357806, 0.02799964, 0.06553266}, 
{0.16792761, -0.19825639, 0.10545036, 0.012110234, -0.0076203644, 0.010544367, 0.16206332, -0.16794655, -0.09794773, -0.085453644, 0.016105628, -0.054607272, 0.099893205, 0.059525434, 0.011997704, -0.019140435, -0.037543517, -0.059826303, -0.0703588, -0.08247439, -0.04852378, 0.023673475, -0.086773984, -0.07134978, -0.16935958, -0.23802374, 0.046943203, -0.07206206, -0.07875814, -0.08851296, -0.020502247, 0.18787463, 0.00901892, 0.021468613, -0.09606398, 0.008635851, 0.057032734, 0.07268722, -0.0788604, 0.10474901, 0.045285754, 0.030654103, 0.06316375, -0.064371884, -0.10574807, 0.06329571, -0.06899882, 0.14363569, 0.06452422, -0.16365553, -0.03057281, -0.036393613, -0.1031455, -0.068212144, 0.09453885, -0.092719495, 0.08344884, 0.0006976656, 0.032839987, 0.08222429, -0.05257489, 0.194409, 0.09459903, 0.18995774}, 
{-0.15478434, -0.13680217, -0.087148905, 0.19264013, -0.08085503, 0.0989355, 0.025834646, 0.028781971, -0.22621505, -0.012538373, -0.079974666, 0.10376392, -0.09178763, 0.04459303, -0.1848195, 0.17418085, 0.105074935, -0.026595138, 0.1840437, -0.025756985, -0.023491587, -0.059025776, -0.02128221, 0.060115367, -0.15855671, 0.028387407, 0.025936976, -0.08551832, -0.08219621, -0.07814448, 0.04753594, 0.041094787, -0.10618701, 0.118659146, -0.012046914, 0.23216668, -0.034608006, 0.091744065, 0.07590544, 0.08052768, 0.057500448, -0.03140097, 0.18139216, 0.078997865, -0.019508362, 0.036814332, -0.13942121, 0.14427212, 0.10040839, -0.10338088, 0.06541145, -0.058490586, 0.06242621, -0.054749962, -0.112510815, -0.11306682, 0.029868202, 0.012687476, 0.06152372, -0.13177355, 0.1102505, 0.14658627, -0.124514185, 0.15270169}, 
{-0.23774531, 0.023687428, -0.10711179, 0.09622045, -0.05578064, 0.013059378, 0.15669641, 0.18060063, -0.15874133, -0.030756151, 0.035069156, -0.015911914, -0.05040227, 0.05505666, -0.2239194, 0.16865064, -0.111428075, -0.004107125, 0.035275925, -0.019156829, 0.02683765, -0.020743974, -0.10449788, -0.102848016, -0.10817216, 0.104887635, -0.076699406, 0.08524035, 0.00469747, -0.08183077, -0.087216035, 0.014274563, 0.054968074, 0.08038716, 0.05663446, 0.1890788, -0.05172023, 0.04642637, -0.10544984, -0.027732149, -0.08327993, 0.0027333372, 0.14101762, -0.10810263, 0.0038998798, 0.09040347, -0.09032337, -0.09746667, -0.056862965, -0.08279361, -0.11100452, -0.031809665, -0.001955765, 0.036699038, -0.0580333, -0.007443678, 0.12613192, -0.086487606, 0.13752773, -0.08774644, 0.13989104, 0.014035594, -0.018386403, 0.14951967}, 
{0.00095859834, 0.057065193, 0.056567475, 0.14405882, -0.107101135, -0.08518979, -0.0025517314, 0.04429612, -0.14458904, -0.1003328, 0.042192165, -0.04240354, -0.079577394, -0.06590278, -0.07008385, 0.045435514, 0.04938989, -0.05873107, 0.034061, -0.11145701, -0.0008149748, -0.060522314, 0.0068980483, -0.061402958, 0.043245923, 0.08708467, -0.109804146, 0.0035386458, 0.0872752, 0.0697375, -0.05795253, -0.055834964, -0.07412697, 0.07589481, 0.03409098, 0.20291747, -0.10897363, -0.07629742, -0.07488745, -0.08502215, -0.0017074576, -0.11760533, 0.1316715, -0.026195426, 0.038993537, -0.0082967505, -0.18418758, 0.14108302, 0.036945954, 0.06865937, 0.009336077, -0.04270538, -0.02702145, 0.06608764, -0.09092681, -0.12041156, 0.022700582, 0.084823996, 0.015290332, -0.04754081, 0.008157976, -0.014590683, -0.03151081, 0.15280026}, 
{0.08515388, 0.02703405, -0.074779764, 0.094896354, 0.027084589, 0.106580615, -0.050806355, 0.098118395, -0.051707778, -0.10244571, 0.0019922073, -0.033368997, -0.109675884, -0.06265232, 0.09649159, 0.06757466, 0.00063705666, -0.022188105, 0.04454739, -0.037290953, 0.096514896, 0.031392366, -0.08623061, 0.010002837, -0.021364423, 0.03751075, -0.04543048, 0.06210965, 0.09916979, -0.083272554, 0.047685787, 0.12095194, -0.09291603, 0.1019748, 0.030192753, -0.06155588, 0.103650466, -0.068193406, -0.04032819, 0.00013886392, 0.07043132, 0.08733721, -0.05363251, -0.11759908, -0.018978626, 0.031180412, 0.08692154, 0.07247401, 0.025618762, -0.016539788, 0.025318936, -0.020960433, -0.035864312, -0.1082337, 0.026270717, -0.028166687, 0.0005054698, -0.06656451, -0.05196261, -0.11147523, 0.00964131, 0.12836736, 0.00094737316, -0.003444952}, 
{-0.12247922, -0.11674875, -0.04065738, -0.07730784, 0.083312035, -0.096792996, 0.005282761, 0.0345751, -0.028468441, 0.021524677, -0.04108847, 0.103881806, 0.10582488, 0.024467247, 0.05496322, 0.033938695, 0.0733628, -0.083133474, -0.0626993, 0.07197051, 0.059964404, -0.10211169, -0.11449599, 0.08435005, 0.0029780827, -0.06611149, 0.05331269, 0.09225683, 0.1122862, -0.022441365, 0.022111028, 0.0039097895, -0.036871284, -0.03023592, -0.03601858, 0.016126603, -0.059142545, -0.10725814, -0.037063077, -0.049062386, -0.04083272, -0.0024776245, -0.046218712, 0.06638087, 0.06654741, -0.08329343, 0.084405236, 0.09150348, -0.037466876, 0.015111746, -0.10993285, -0.0055547804, 0.045138992, 0.055712983, 0.07865277, 0.03304685, -0.021179497, -0.07436105, 0.05426873, -0.070214204, -0.029621672, 0.06215481, 0.0715925, 0.057075027}, 
{-0.010348584, -0.054233678, -0.06656738, 0.038484845, -0.059195876, -0.03680221, -0.02799548, 0.14191055, 0.046261434, -0.018456357, -0.07162297, -0.018422186, -0.058224265, 0.10435743, 0.06543547, 0.028704556, 0.0006779021, 0.09694278, -0.06882693, -0.056883574, 0.08330175, 0.09889229, -0.08919537, -0.074384555, -0.13610421, -0.09777214, -0.06422374, 0.03780976, -0.06434206, -0.097129494, -0.008182883, 0.14229217, 0.086640105, -0.02482629, 0.025237344, 0.027517933, -0.085494466, -0.05853828, -0.06789157, -0.028814368, -0.0125777265, -0.114267655, -0.050056517, 0.10184964, 0.016193792, -0.018140353, -0.0430203, 0.011649687, -0.047752105, -0.053294867, -0.10265688, 0.0054189237, 0.09034014, 0.043219164, 0.026884422, -0.0153052835, 0.12960772, -0.06935766, 0.024583356, -0.13541897, -0.122479, 0.08952159, 0.1186299, 0.08274726}, 
{-0.07806016, 0.007228697, -0.07111, 0.109568685, 0.055556267, -0.03620106, -0.031946406, -0.029067758, 0.03260073, 0.061694972, 0.09341433, 0.040498376, 0.023212347, 0.0704109, 0.120914355, 0.0029716196, -0.046807233, -0.07721022, -0.12000201, -0.112542346, 0.07518229, -0.015843779, -0.10637025, 0.042765617, 0.034745313, 0.08337949, -0.040731154, 0.113147974, -0.02122177, 0.057048574, -0.034251295, 0.010775942, 0.11057168, 0.14069033, -0.066739224, -0.09575226, -0.03310585, 0.06017442, 0.05021146, 0.03081359, -0.019021034, 0.03657669, -0.041375685, 0.10211747, -0.05600968, -0.077382624, -0.018310955, 0.10301194, 0.07435571, -0.102771625, -0.0036764517, -0.11024322, 0.03900555, 0.048721988, -0.0887848, 0.064257145, -0.008256669, -0.04988634, -0.08837325, 0.045595713, -0.014222632, 0.11294325, 0.0026383207, 0.005918591}, 
{0.033103537, 0.09623436, 0.014015779, 0.10854852, -0.051573854, 0.0610694, -0.055857424, -0.04650875, -0.16113307, -0.0783022, 0.061394017, -0.098710306, -0.1163103, -0.04138587, 0.12914237, 0.050961792, -0.09521912, -0.012478322, -0.10914869, -0.026144303, -0.13518511, -0.06165165, -0.054822356, -0.10125943, -0.019021392, -0.08436501, 0.014081821, 0.10982524, 0.098468095, -0.12086418, -0.05757617, 0.075862356, -0.05455804, 0.050414234, -0.018920483, 0.063653655, 0.031824827, -0.020355165, 0.050951317, -0.10465791, -0.06709108, 0.0980349, -0.05453588, 0.06465084, -0.100338146, -0.10472054, 0.049072046, 0.17319703, -0.10992089, -0.014592737, -0.045311265, -0.06079268, -0.0030836046, 0.098867565, 0.08061512, -0.013592394, 0.020387366, 0.016693, 0.042067777, 0.0794132, -0.046874035, 0.0070367255, -0.04593089, 0.12690845}, 
{0.103557974, -0.04783002, 0.08058348, -0.0871832, 0.020794436, -0.11099307, 0.01722182, 0.06307641, -0.15762205, 0.0622561, -0.02251341, -0.041736506, -0.050868403, -0.052418243, 0.12967394, 0.08363926, 0.10405259, 0.042405754, 0.0002573276, -0.036345728, 0.07154827, 0.07949562, -0.029026518, -0.03970956, -0.06361712, -0.089015655, -0.058885634, -0.09633201, 0.092619665, 0.044278607, -0.10586544, 0.027886942, 0.10997921, 0.0254206, 0.08838151, 0.05906656, 0.058949485, -0.104224995, -0.08996906, 0.07857643, -0.083984256, -0.041045293, -0.08840627, -0.04252459, 0.0053965, 0.061629698, -0.017201733, -0.030969081, -0.021039546, -0.070105985, 0.10744412, 0.08707282, 0.04698168, -0.025244588, -0.100140855, 0.07602754, 0.098065645, 0.03869998, -0.039134193, 0.1057342, -0.112958685, 0.09709478, 0.13885945, 0.1463663}, 
{0.06787654, 0.10377784, -0.08315022, -0.03064157, -0.07988627, -0.11121485, 0.038352255, 0.04130204, -0.015965218, -0.0723308, 0.090732545, 0.044389307, 0.057422455, 0.15469626, -0.07725489, -0.121307924, 0.06250519, -0.05306313, -0.13081588, 0.055913493, 0.04757011, 0.11129597, 0.024053039, 0.0772261, -0.09948221, 0.062638216, -0.024411537, 0.0746548, -0.05342433, 0.07418269, -0.023580648, 0.048237313, -0.0038778707, 0.17274487, 0.08076345, 0.043918043, -0.04324498, 0.025946274, 0.019646525, 0.026275307, -0.031705447, 0.010699734, -0.16311826, -0.09193403, -0.007103972, -0.0112480745, 0.08124072, -0.030419951, 0.04966037, 0.04569159, -0.089888275, 0.027161807, -0.11682931, -0.0855524, 0.016624376, -0.108726434, 0.047991894, -0.054622635, 0.07320566, 0.08399392, -0.02368454, 0.1158895, 0.075144604, 0.15891385}, 
{-0.10630665, -0.013473199, 0.0059593394, -0.039680347, -0.072571024, 0.040303573, 0.020745963, 0.030305061, -0.17352286, 0.07411917, -0.017568896, -0.08326193, -0.02125376, 0.11063556, 0.06305558, -0.013740843, -0.10073011, 0.03692995, 0.029355878, 0.037633017, 0.010673205, 0.1103923, -0.05773429, 0.10476665, 0.09225593, -0.072669536, 0.028929591, 0.02594456, 0.06388445, -0.11601903, -0.10856164, 0.12209344, 0.061638802, -0.007410172, -0.05591025, 0.11482674, 0.07049833, -0.059205852, -0.0031618178, -0.00096827, 0.09640101, -0.070423245, -0.020607507, 0.066025905, 0.10485141, -0.01688224, 0.017895235, 0.019595774, 0.04024355, -0.079993404, -0.09166729, -0.007739814, 0.005889957, 0.08683847, -0.09589457, -0.01322979, 0.033348743, 0.08147413, -0.111935474, 0.069331035, -0.089760885, -0.043955166, 0.13292387, 0.07662066}, 
{0.046896067, 0.044962835, 0.070548326, 0.013804055, -0.053495016, 0.06254351, -0.109053366, 0.1676063, -0.123169936, 0.078003705, -0.022592578, -0.062334787, 0.03088198, -0.017295163, -0.03508199, -0.037249994, 0.06101714, -0.08124679, -0.003065845, -0.106870905, 0.052079055, -0.04869657, 0.015403322, -0.06046511, 0.006097025, 0.07679727, 0.09933461, -0.029150799, -0.04190198, 0.04554427, -0.11359143, 0.10036981, -0.00049969554, 0.10956365, 0.07252096, -0.0081416685, -0.062052064, -0.05290607, 0.10445081, -0.08333535, -0.010318839, -0.012836952, -0.15777865, -0.09802302, -0.085042976, -0.0985234, 0.068795756, 0.1225435, -0.050510235, 0.1165431, 0.047930986, 0.0065002916, -0.02026477, 0.09586224, -0.031294793, 0.06497126, 0.115497574, -0.002841322, 0.055100262, 0.043614127, -0.12908262, 0.14774196, 0.081920095, 0.070249625}, 
{-0.11815696, 0.04743172, -0.092362024, 0.032865573, 0.0961332, 0.0703865, 0.031752244, 0.13564296, -0.17524768, 0.07175954, -0.03104474, -0.06339063, -0.112076275, 0.06770399, 0.11159506, -0.10030287, 0.043997247, -0.10826539, -0.02556073, -0.06551304, 0.055967465, 0.09133403, 0.007256695, -0.09896809, 0.0038183923, 0.14636512, -0.062140938, -0.031479582, 0.06519621, 0.09447847, -0.07443295, 0.09910276, -0.10750811, 0.1874281, -0.057157595, 0.14225155, -0.09924178, -0.0002528727, -0.08087019, 0.026942685, -0.060240537, -0.09653902, 0.042491384, -0.08713136, -0.11331993, 0.10891524, 0.061444517, 0.019833911, -0.110698886, -0.02206148, 0.059730217, -0.08741169, -0.107996285, 0.04998355, -0.07959434, -0.03835089, 0.015811786, 0.05289414, -0.027604869, -0.019709783, -0.030374056, 0.10484559, 0.12991342, 0.04711826}, 
{0.12347018, 0.087315045, -0.08169853, -0.0328964, 0.054173484, -0.0027951077, -0.016873127, 0.04840306, 0.037818395, 0.028971154, 0.086320974, -0.005723633, 0.042349726, -0.09978474, 0.004757208, -0.09625987, 0.051741377, -0.10218573, 0.007441292, -0.0918533, -0.2772187, 0.019096643, 0.10944077, 0.09509325, 0.14820752, 0.079297066, 0.040265948, -0.03052593, 0.09649611, 0.15762095, -0.10581821, 0.05111894, 0.0020565614, 0.047270183, 0.065707564, -0.13868257, -0.015481457, 0.054100037, -0.054715123, -0.07970726, -0.091704935, 0.056129657, -0.07539018, -0.09968126, -0.05667942, 0.10618316, -0.025498085, 0.010724648, -0.07398173, -0.14108586, -0.06289914, -0.01876883, 0.083979204, -0.04376826, 0.030562937, 0.13972397, 0.028617395, -0.027278615, -0.106849745, 0.07515451, -0.09977286, -0.038090877, 0.09491751, 0.027598018}, 
{0.21405186, 0.1304517, -0.041111775, 0.030005738, 0.09584382, 0.039200485, -0.08349632, 0.064423054, 0.17777209, 0.07758164, -0.091166615, -0.07663892, 0.09535631, -0.101100154, 0.048747793, -0.12613603, 0.11560982, -0.07091038, 0.095872544, 0.015075758, -0.14964472, 0.067471996, 0.0885508, 0.064165905, 0.1942408, 0.04770864, 0.0027576387, 0.04122995, 0.09213102, 0.09261541, -0.0004627183, -0.075908996, -0.0653749, 0.049253296, -0.064427525, -0.092330776, -0.018117502, -0.040747233, -0.01996047, 0.01942344, -0.10067531, -0.013329379, -0.05758104, -0.019613272, -0.006210424, -0.08569119, 0.13958628, -0.14559434, -0.062089533, 0.012286687, -0.008693695, 0.011806594, 0.058144934, 0.025971627, 0.08473235, 0.10692286, 0.026297206, -0.10916454, -0.093540415, 0.009879801, -0.0369512, -0.1335361, 0.07634905, -0.120753966}, 
