namespace weights{
	const ap_fixed<32,24> layer3_weights[n_layer2][n_layer3] ={{0.052665934, 0.32660672, 0.42195788, 0.09775393, -0.26565284}, 
{-0.2551509, 0.15095466, -0.28984648, 0.3036772, -0.24096663}, 
{0.21257427, -0.18597546, -0.40714356, 0.28116912, -0.060602486}, 
{-0.06749512, 0.40145892, -0.324895, 0.09967795, -0.2140727}, 
{0.052719355, -0.22577421, 0.092698425, -0.13963091, -0.13662885}, 
{0.3911262, -0.06053541, -0.40936518, -0.3330401, 0.0036141097}, 
{-0.061290044, -0.23424883, 0.073876336, 0.3045952, 0.08695685}, 
{-0.05357481, 0.2833991, -0.003330976, -0.070512965, 0.14751902}, 
{-0.2864614, -0.18495691, -0.042437322, -0.031714745, -0.40236375}, 
{0.25335574, -0.26310703, -0.10985823, -0.2430698, -0.12328257}, 
{0.13442583, -0.042696137, -0.028191634, -0.33656892, -0.069832794}, 
{0.2912554, -0.09965347, -0.158127, 0.3563848, -0.32083458}, 
{0.11528094, -0.34425825, 0.18948342, 0.20491566, 0.21786271}, 
{0.12784463, 0.041258395, -0.047145873, -0.271369, -0.28998506}, 
{-0.18683541, 0.22259559, 0.1555717, 0.29934606, 0.19011259}, 
{0.029871464, -0.20030567, 0.041924685, 0.19299042, 0.01747641}, 
{-0.28538412, 0.28187978, -0.19361772, -0.23185635, 0.22612792}, 
{0.14284152, -0.21802275, -0.21662438, -0.25187498, -0.099203266}, 
{0.1144798, -0.38843226, -0.20935011, -0.20855486, 0.15256047}, 
{0.16941638, 0.14533742, 0.42292318, -0.33050779, -0.09202478}, 
{-0.18402705, 0.079486154, 0.30746704, -0.23360555, 0.12767226}, 
{-0.37679935, -0.52523375, -0.3983845, -0.057595916, -0.36334625}, 
{0.07415435, 0.006236464, 0.2857353, 0.06296545, 0.15417325}, 
{0.24010892, -0.02857992, -0.3351251, -0.023102906, -0.26472706}, 
{0.2643587, 0.19126743, -0.21370593, -0.23127207, 0.15287825}, 
{0.120576106, -0.023685617, -0.26447436, 0.14837006, 0.03493905}, 
{-0.26915774, -0.15317582, -0.21843956, -0.049400583, 0.22781366}, 
{0.2417442, -0.21157803, 0.017418863, -0.061217654, -0.056549784}, 
{0.16389772, -0.058988567, -0.38349795, -0.31130466, 0.22181804}, 
{0.081891924, -0.21441256, -0.16045505, -0.24571967, -0.29486158}, 
{0.1631659, -0.49802715, -0.27860945, 0.17204423, 0.17951278}, 
{0.28172573, -0.17228277, 0.18449311, -0.16240785, -0.04735823}, 
{-0.192037, 0.011051779, -0.11120419, -0.06764298, 0.2090459}, 
{0.0828597, 0.059352838, 0.15810479, 0.18043804, 0.05203277}, 
{0.34075636, -0.25833648, -0.007817874, -0.34456447, 0.2572315}, 
{0.2787821, -0.37531713, -0.35889146, 0.26909438, -0.3346629}, 
{-0.080448255, 0.06297472, -0.2518292, -0.034793556, 0.037582606}, 
{-0.34449345, 0.3404216, -0.09726334, -0.31019646, 0.3111516}, 
{0.21092163, -0.27095377, -0.09703719, -0.3274176, 0.14313416}, 
{0.1770697, 0.38738677, -0.36816904, 0.13629173, -0.32495683}, 
{-0.18748438, 0.27145958, 0.2234311, 0.024875777, -0.11001634}, 
{0.22920991, -0.3089122, 0.3913992, -0.21960032, 0.2723814}, 
{-0.17179158, 0.014440595, -0.1286022, -0.18540083, 0.00010319008}, 
{-0.2333714, -0.023658425, -0.39793813, 0.1697171, -0.3346713}, 
{0.09526646, 0.034768403, 0.22945601, 0.06814763, 0.11497402}, 
{-0.2601691, -0.08894226, -0.2799799, 0.046135455, -0.07069972}, 
{-0.38421732, -0.10118396, 0.3060436, 0.33163068, 0.24841334}, 
{-0.1575108, -0.058448035, 0.12654255, 0.19118841, -0.38150114}, 
{0.34363425, -0.1341317, 0.053029995, -0.062234152, 0.2152239}, 
{0.082894176, -0.011594074, -0.28993726, 0.2759138, 0.24880596}, 
{0.047599558, -0.035834398, -0.00090016203, -0.27096173, 0.3721384}, 
{-0.3857999, 0.24459334, -0.31309637, -0.22321075, 0.014298317}, 
{-0.08108381, 0.09992134, 0.13691045, 0.041948345, -0.14542268}, 
{0.056214385, 0.27086884, -0.04010896, -0.27977502, -0.16933788}, 
{0.11051791, 0.019387959, -0.32725447, 0.24255762, -0.20641236}, 
{-0.1498022, -0.113366716, 0.15858923, 0.20755295, 0.26410994}, 
{-0.08166859, -0.20521352, 0.2294661, -0.26376474, 0.27077067}, 
{0.31547105, 0.34612486, 0.26307613, -0.25408757, -0.37156153}, 
{0.2687211, -0.30504087, 0.2543439, 0.16020212, -0.3425854}, 
{0.24367072, 0.37328276, 0.21112648, -0.0532628, -0.40401694}, 
{0.2990747, -0.2948816, -0.3140706, 0.073021494, -0.0231118}, 
{0.21556439, 0.14677593, 0.2689769, 0.24463186, 0.10522029}, 
{-0.17579538, -0.17172705, 0.29556865, -0.3291445, 0.13927773}, 
{-0.19775409, -0.14146306, 0.10717286, 0.11820594, 0.060381033}};
	const ap_fixed<32,24> layer2_weights[n_layer1][n_layer2] ={{-0.21089767, -0.11577868, -0.21584749, -0.26455668, -0.16845357, 0.021827849, -0.14147183, 0.056840453, 0.09140344, -0.17341354, -0.1470367, -0.010913427, 0.10247434, -0.1380324, 0.18084937, 0.118553385, 0.18780486, -0.04130919, 0.03173661, 0.055545386, 0.26134354, -0.20117249, -0.050720185, -0.22281732, 0.07761905, 0.0060205124, 0.16837873, -0.14383909, 0.07237161, -0.081374995, 0.23656438, 0.15462612, 0.13650641, -0.048856273, -0.001983771, 0.050243426, -0.06395944, 0.11992006, 0.063077256, -0.2507697, 0.12377693, 0.20595501, 0.13973719, -0.23818885, -0.13265657, -0.15936334, 0.21767288, -0.039498143, 0.038028564, 0.14514492, 0.23188256, 0.014477236, 0.034897987, -0.050261296, -0.18906553, -0.051067878, 0.03254576, -0.22534557, -0.19970468, -0.1668131, 0.13916461, 0.13961451, 0.24566612, 0.04342775}, 
{-0.06355734, -0.13313186, 0.15890731, 0.08314603, -0.034378976, 0.033831336, -0.13938977, -0.11435383, -0.10337244, -0.08931182, -0.010973919, -0.046561863, 0.004940777, 0.10308419, -0.11405112, -0.07994246, 0.0032728896, -0.037283137, -0.03715316, -0.020695379, -0.03011024, -0.04774463, -0.08752619, -0.04658292, 0.13636263, 0.14631788, 0.07468422, 0.1291264, 0.060193904, -0.081955835, 0.11297783, 0.13534746, 0.03789016, 0.1370148, 0.045423925, 0.1475594, -0.09481928, 0.14998807, 0.08737023, 0.0024979394, 0.12280466, -0.10336113, 0.013366925, 0.09892001, 0.045627847, -0.08893048, -0.16534789, 0.14553317, -0.032964375, -0.17263284, -0.15943468, 0.05662462, -0.060084242, -0.0703617, -0.09224819, -0.05469037, -0.015078244, 0.104252815, 0.16256085, -0.040778454, -0.15051346, -0.021068275, 0.09508733, 0.0037962263}, 
{-0.1983268, 0.15751599, 0.017959403, 0.19903362, 0.07784189, 0.068259545, 0.08571756, 0.03134561, -0.03069861, -0.020124733, -0.2515658, 0.030557996, 0.16840526, -0.0531921, -0.047494177, -0.060670093, 0.044314884, -0.026891388, -0.11642002, -0.10323035, -0.058046617, 0.27254024, 0.025732085, 0.14092658, -0.007937472, -0.046000507, 0.15953232, 0.12398274, -0.061697852, -0.17092791, 0.0381488, 0.11245955, 0.083198875, -0.051250268, 0.01863447, 0.13478102, 0.1290014, -0.052570775, 0.19261183, 0.058173817, 0.043306123, -0.16778003, -0.12932308, 0.029288251, -0.13380271, -0.06653065, 0.17709209, 0.17107257, 0.14362013, 0.23671766, -0.11792914, 0.10259741, 0.08304816, -0.10729839, 0.26051593, 0.014780882, 0.15272175, -0.29603267, 0.18205932, -0.11683349, -0.064275384, -0.13642624, -0.06563589, -0.15665124}, 
{0.13053654, -0.09615829, 0.115253136, -0.17490445, -0.11368164, -0.020262346, -0.16935004, 0.039315507, -0.013726473, -0.08874546, -0.16494459, 0.040494442, -0.09073298, 0.02185613, 0.09741835, -0.08712786, 0.16210674, 0.07446973, 0.13007562, -0.037692815, -0.028650537, -0.021385893, -0.0055933148, -0.102932595, -0.14265782, 0.10794081, -0.065700784, -0.04405968, -0.12978697, -0.0668449, -0.0008844584, 0.14075847, -0.12091973, -0.006268084, 0.07552858, 0.07661067, 0.16140409, -0.06025807, 0.0057972074, 0.058000803, 0.15759684, 0.1527626, -0.050241143, -0.08233821, 0.054647103, -0.091504514, 0.11809169, 0.14631312, 0.13635834, -0.0034988672, 0.027506545, 0.08017339, 0.010127038, 0.10521974, 0.017853707, -0.16585, 0.07701023, -0.117056, -0.0038183331, 0.13631843, 0.0904838, -0.07537466, 0.16194527, 0.050514087}, 
{0.20469584, -0.112639494, 0.060312673, -0.17798825, -0.14802213, -0.16248487, 0.09844499, -0.10416311, 0.18326059, 0.08679019, -0.15367168, 0.08443193, 0.20477434, -0.07285934, 0.0055664284, 0.07003419, -0.07942744, -0.038480725, -0.017817264, 0.11923639, 0.15600169, -0.08502203, 0.057367682, -0.04966125, -0.14425856, 0.012446054, -0.112720944, -0.08489348, -0.029414965, -0.023650778, -0.008138588, -0.06742454, -0.138125, -0.07154092, 0.11649722, 0.0073693967, -0.027373955, 0.0774063, 0.0714212, -0.052546587, 0.05423572, 0.063951, 0.10665279, -0.13308872, -0.06193222, -0.1223998, 0.15607496, 0.21682516, -0.055815287, -0.05848644, -0.1332213, 0.0030643044, -0.064961106, -0.15416437, -0.020416068, -0.05626871, 0.07590371, -0.12219779, -0.003564848, 0.19424173, -0.007466216, -0.12474239, 0.058610108, -0.13684762}, 
{-0.018378273, 0.0896603, -0.15359375, 0.011405669, 0.08508952, 0.14855836, -0.01731328, 0.16241884, -0.11698765, -0.06577677, -0.17138757, -0.10077745, -0.068264194, 0.030814573, 0.1553147, 0.030180931, 0.06975148, -0.14232042, 0.00082889484, 0.13538319, -0.17999415, -0.17167258, -0.03279063, 0.14054301, 0.14570613, -0.027011037, -0.052747875, 0.04537016, 0.06964849, 0.07898356, -0.14030084, 0.03302022, 0.0558626, 0.16460262, 0.09443317, -0.10460909, 0.13073586, 0.10524218, -0.14351076, 0.06127577, -0.0552935, 0.007972867, -0.06772688, -0.051912118, -0.029929787, -0.07233583, -0.115854695, -0.071995996, 0.04754193, -0.017478399, -0.033501476, 0.13198848, 0.14557683, -0.13797036, 0.1736822, -0.1360537, 0.0072489525, -0.10504811, 0.062074725, 0.1461495, -0.028541492, 0.11456086, 0.08426849, 0.14743413}, 
{0.07002462, 0.2585029, 0.0501858, 0.25849038, 0.1611373, -0.1257989, -0.0022497056, -0.03061776, 0.06567372, -0.030132174, 0.105535604, 0.14335278, -0.20103776, -0.12583038, 0.079534516, 0.08544098, 0.19106399, 0.16039245, 0.0030836463, 0.008939927, -0.00886551, -0.104532294, 0.13712044, -0.0068173837, 0.057243135, 0.1299499, 0.08135386, 0.06559353, -0.0924584, -0.18237954, -0.14822921, -0.13970986, 0.064075276, -0.16754362, -0.19939752, -0.21809418, -0.059576042, 0.22304536, 0.08113708, 0.13286644, -0.16771737, -0.24652986, -0.10249972, 0.23512508, -0.07606014, -0.13628525, -0.020125112, 0.12929656, 0.10793383, -0.17010738, 0.016649423, 0.15594025, -0.065855496, 0.14535289, 0.07580895, -0.03074354, -0.10686401, 0.12826921, -0.10471504, 0.1140154, -0.15809575, -0.17259832, -0.05971289, -0.10416636}, 
{0.07581152, 0.016992465, -0.004514605, -0.15222172, -0.05598008, 0.13976009, -0.15175718, -0.16164711, 0.033162028, 0.014872491, 0.06280196, -0.04326968, -0.16768262, -0.025878713, -0.032789454, 0.05307582, 0.16819368, -0.055565014, -0.12037932, -0.108240016, 0.038459167, 0.12416975, -0.17199504, 0.05578856, 0.07936807, 0.021230966, -0.029658437, 0.06558724, 0.09154926, -0.04320006, 0.037506223, -0.13880344, 0.015361726, 0.11856453, -0.03631495, -0.09414632, 0.16831963, 0.042277083, -0.1489671, -0.06729305, 0.13233794, -0.041762546, 0.09780423, 0.044635326, 0.13559105, 0.11686693, -0.119507805, 0.1711065, -0.090844326, -0.10618418, -0.026984647, -0.14652364, -0.11964959, 0.012893021, -0.16804251, 0.092257306, 0.074977145, -0.04707305, 0.06575726, 0.16368921, -0.123122066, -0.057871163, 0.090390876, 0.13614447}, 
{-0.2704723, 0.09401681, 0.21171361, -0.17206451, -0.07625098, 0.22736597, 0.057308782, -0.06530337, -0.10761173, -0.037102, 0.016548056, -0.05929938, 0.14649232, -0.05887451, -0.18656954, 0.06116937, 0.07981431, 0.0030835564, 0.18981816, -0.25671354, -0.07497189, -0.026522906, 0.02069448, 0.24071012, -0.12427438, -0.0037335495, 0.108045265, -0.1572164, 0.26936176, 0.0473705, 0.34239897, 0.08918974, 0.0920382, -0.13450772, 0.13519484, 0.18833934, -0.04550861, -0.16091917, -0.0013392175, 0.07165196, -0.0801736, -0.06295641, -0.17052357, 0.08352763, -0.08432864, 0.10561477, -0.1946012, 0.044979043, -0.043446742, 0.18063082, 0.012701561, -0.21408167, -0.13592613, -0.09515954, 0.058945432, -0.04322164, 0.1560645, -0.025808048, 0.14791752, -0.11088828, -0.0411809, -0.06789681, 0.01819263, 0.05037063}, 
{-0.1667076, 0.1491238, 0.111064896, 0.1144581, 0.13940509, 0.07715832, 0.14435817, 0.09037267, -0.17447513, -0.1136287, -0.08426057, 0.14625488, 0.051285848, 0.032649934, 0.057336748, -0.043224916, 0.0952719, 0.05548586, -0.14871082, -0.10100387, 0.1589785, 0.0030489415, -0.08075964, 0.06490235, -0.005863294, 0.06939782, -0.13520633, -0.09319966, -0.14843951, -0.14443675, -0.018409446, -0.057758547, -0.14298508, 0.12615441, -0.115288064, 0.012160167, -0.1461587, -0.15859707, -0.05659896, -0.1489567, 0.11176245, 0.051992565, -0.16259715, -0.048370928, -0.13072784, -0.020115852, -0.10867535, 0.1554238, 0.08104463, -0.010513917, 0.09343712, 0.15026148, -0.020355627, 0.08793236, 0.10586859, -0.08841722, -0.13723418, -0.086622186, 0.14369823, 0.009675652, 0.15859185, -0.114345744, 0.028854445, 0.0060952753}, 
{-0.05906008, 0.14501388, -0.01631096, 0.024558797, 0.11750989, -0.06657905, -0.06663451, -0.003310591, -0.005998497, 0.0057534724, 0.15824406, -0.0065793693, 0.1397243, -0.12536104, -0.023671092, 0.04886742, 0.091062814, -0.12434892, 0.10123707, -0.09682458, -0.041561797, -0.115782835, -0.11609164, 0.06112611, -0.1542882, -0.16579947, 0.014835268, 0.07609148, 0.023142383, -0.12469128, -0.0018407722, 0.032069027, 0.1470677, -0.15018451, 0.14001344, -0.1767921, -0.07512448, 0.18066724, -0.04084082, 0.026975604, 0.078117594, -0.13762647, 0.036148604, -0.075901575, -0.16693899, -0.08591656, -0.09237423, 0.13509761, -0.0058355937, -0.12001217, -0.058368925, -0.14356132, 0.124481514, -0.002055819, -0.13874371, 0.008378179, -0.030763537, 0.16182865, 0.028738543, -0.16909909, -0.17202711, -0.009677008, 0.025700895, -0.13355754}, 
{-0.00062149763, -0.13844986, -0.044496536, 0.08001305, 0.07589738, 0.16857998, -0.0028258562, -0.10228585, -0.03129357, 0.06912707, -0.0809144, -0.14839783, 0.065568954, 0.16177748, -0.13005468, -0.01970534, 0.005546108, 0.016331106, -0.07099775, -0.14757626, -0.08295128, 0.057832852, 0.10259037, -0.05669105, -0.08499574, -0.07680491, 0.12054594, -0.052790023, 0.015291333, 0.058185205, -0.09213339, -0.0061247796, 0.10798086, -0.03017436, 0.036443412, 0.15854464, 0.02234365, 0.06604247, 0.039538965, 0.08066793, 0.14002915, -0.106010154, -0.07438906, 0.0652657, -0.103169456, -0.004781604, 0.07209556, 0.16838796, -0.09631094, -0.011676446, -0.04247518, -0.08686305, 0.14329933, -0.084520526, -0.046566278, -0.07532645, -0.080395155, -0.15388969, -0.15694538, -0.01252529, 0.11853583, -0.12222219, 0.11516391, 0.16187517}, 
{0.03557788, -0.15131202, -0.06631613, -0.16242072, 0.13189916, 0.014519006, -0.08026774, 0.02403365, 0.10993521, -0.14961824, 0.07581334, -0.0015016049, 0.11491208, 0.01176399, 0.111331955, -0.15154536, -0.08828281, 0.011522785, -0.058124803, 0.07135929, 0.08829595, -0.16547923, -0.056739017, -7.584691e-06, -0.048927143, 0.014096394, -0.16522145, 0.042096138, -0.065832786, -0.053886853, 0.1130984, -0.12174909, 0.14407195, 0.1443149, -0.12669165, 0.07809405, 0.0064926744, 0.15164419, -0.12006697, -0.033201933, 0.1396194, 0.1330555, -0.042379037, 0.06491496, 0.02231279, 0.024407148, 0.07427783, -0.11017738, 0.06718907, -0.022183523, -0.08912941, 0.040389746, 0.00067430735, 0.05466467, -0.14563283, 0.08364518, -0.056228742, 0.10865252, -0.15424798, -0.06441977, -0.14964887, -0.021072164, -0.0129452795, 0.012008652}, 
{0.05265165, -0.016586125, 0.06603878, -0.041005038, 0.032301635, -0.068091445, 0.04906287, -0.08136285, -0.068346724, -0.1610047, 0.1574246, 0.028193325, -0.17790927, -0.0546519, 0.011663652, -0.14763822, 0.18396246, -0.033878125, -0.019718425, 0.07584693, 0.14198147, 0.031695098, -0.01262787, 0.020675058, 0.14157613, -0.06141226, 0.15456443, 0.07688465, -0.057264615, -0.18019895, -0.024209417, -0.029829636, -0.01616086, 0.1732563, 0.065921895, -0.096961245, 0.15463753, 0.10515424, -0.010891193, 0.22826013, 0.00806594, -0.13329808, -0.021164045, -0.044883445, 0.1008596, 0.0026231408, -0.11256029, -0.051721618, 0.014135837, -0.017477488, 0.15276548, 0.20869789, -0.08695524, -0.13649125, -0.030261356, -0.06699493, 0.16602473, -0.11583784, -0.13251707, -0.015152163, -0.15855707, -0.1258184, -0.14434361, -0.012815429}, 
{-0.09259949, -0.023579834, -0.054153495, 0.17751028, -0.118625164, -0.19148786, 0.046486724, -0.16529964, -0.17121457, -0.12897134, -0.03653695, -0.017102905, -0.17162742, 0.059941247, 0.18578507, -0.13207355, 0.24361002, -0.14173292, 0.12962657, -0.08579608, 0.14899509, 0.05211715, 0.0033808053, -0.20504805, 0.020756634, -0.097158864, -0.11969447, 0.08388507, 0.1288136, 0.05197356, -0.1575414, -0.12791173, 0.16992427, -0.13684174, 0.04779712, -0.00042552903, -0.15771835, 0.24490248, -0.24317971, 0.17649518, 0.09481098, -0.16693987, 0.045666344, 0.16853619, -0.13015482, 0.07137796, -0.012543714, -0.13801935, 0.07172126, -0.09146894, 0.18010034, 0.26159993, -0.13661855, -0.026882557, -0.16744637, 0.13874106, 0.021522362, -0.037058678, -0.0114782555, 0.09203017, -0.16031925, -0.038898032, 0.17190464, -2.5620491e-05}, 
{0.06384231, -0.16330096, -0.045933574, -0.10206618, 0.017903179, -0.063985996, 0.08285414, -0.08548199, 0.12284808, -0.027894557, -0.038962275, -0.114625186, -0.056578606, -0.06744722, 0.09362422, -0.12082789, -0.15233687, 0.028114602, -0.012222797, -0.020482615, 0.043842584, -0.021936163, 0.108253255, 0.012434125, 0.10652085, -0.14445671, 0.1442513, -0.032099664, 0.13951887, -0.051247075, 0.11001064, 0.05817382, 0.14955921, -0.17244792, -0.11075315, 0.004149735, 0.006708771, -0.16224897, 0.16081654, 0.040890872, -0.08308631, 0.13018714, 0.04389307, -0.060354456, -0.078458, 0.0633519, -0.014769942, 0.16632403, 0.0011587441, -0.04528308, -0.068024166, 0.04784198, -0.018472463, 0.022080138, -0.116153, 0.050375223, -0.15901116, 0.040800422, 0.008475691, -0.11593401, 0.00485, -0.11226323, -0.049043298, -0.09900594}, 
{0.07997622, -0.06329784, -0.11726436, -0.19067615, 0.056351975, 0.19079393, -0.06960657, 0.099203795, -0.03370755, -0.12453854, 0.24387962, -0.047576852, -0.07517425, -0.10199815, -0.02822492, 0.13960828, -0.018769287, -0.10519658, 0.15967315, 0.116469905, 0.22270392, -0.3677436, 0.031049713, -0.121305086, 0.16427818, 0.09316671, 0.13093357, 0.092573375, -0.07417073, -0.042130757, 0.05053355, 0.17038515, 0.055465303, -0.13621739, 0.14957395, -0.2634452, -0.02771619, 0.2177725, -0.2465177, -0.16470781, 0.11300007, 0.007920648, -0.03593282, -0.09249121, -0.13011992, 0.0027710348, -0.13377191, -0.25501078, -0.20120797, -0.07701306, 0.08237587, 0.15920441, -0.15005644, -0.06832237, -0.2748372, 0.040144447, -0.1440161, -0.01785788, -0.025321616, 0.02232736, -0.117872134, 0.07049803, 0.17252116, 0.109614655}, 
{0.012818324, -0.10538647, 0.25440922, 0.06621984, -0.038434044, 0.22988568, -0.12717685, 0.14065628, 0.008203312, 0.03852205, 0.016016243, -0.105180375, 0.21517439, 0.08337073, 0.0014298046, -0.12567174, 0.21004754, -0.044067588, 0.0005545367, -0.0976701, -0.12232502, 0.04625548, 0.003573373, 0.009877786, -0.08193507, -0.1044823, -0.16885987, -0.022882141, 0.25522158, 0.044431224, 0.28421357, -0.11431284, 0.098577306, -0.17149258, 0.22396398, 0.11053711, 0.15391962, 0.066859394, -0.086972095, -0.028072681, 0.16692375, 0.085144855, 0.07091627, 0.0021304293, -0.11090547, 0.16995032, -0.042751674, -0.15655814, -0.023262806, 0.087675855, 0.23167175, 0.121004865, 0.045895804, 0.097183414, -0.08837775, -0.11204594, -0.17469719, -0.15238006, -0.14479929, 0.11281728, 0.20152813, 0.1292062, -0.14328855, 0.09280486}, 
{0.06741301, -0.09769334, -0.062316276, -0.045067713, -0.09507499, -0.1510098, 0.1484852, 0.15473203, -0.037373055, 0.025025442, 0.01551722, -0.16826984, -0.12518159, -0.07612627, -0.12402487, 0.16294868, 0.07192402, 0.11078648, 0.14838447, -0.110486895, 0.18547031, 0.051178075, 0.17177145, 0.028803065, 0.1629096, -0.006547004, -0.047390252, 0.10211897, -0.11279423, 0.13120165, -0.068250865, -0.097181216, 0.16781767, -0.11329595, 0.072443105, -0.035781607, 0.0498448, -0.17118843, -0.017960507, -0.14882924, -0.07726655, -0.09922436, 0.113263376, 0.020510482, 0.1223657, -0.09824721, 0.16576149, 0.043489467, 0.114320554, 0.13145891, -0.09818435, 0.14871846, -0.0003250079, 0.026394052, 0.14888205, 0.0730673, -0.098683365, 0.004785188, 0.116211936, -0.01482291, 0.07032987, 0.0930302, 0.0058696955, -0.14572798}, 
{-0.031051097, 0.025452271, 0.22283824, 0.14594193, -0.11114823, 0.18226773, -0.06477077, 0.14232445, -0.06264037, -0.14449802, 0.19084561, 0.09334155, 0.12062508, -0.14406012, 0.07870354, 0.14314486, 0.08412729, 0.114287026, 0.0012826211, 0.18935524, -0.1532448, -0.13005288, 0.047270983, 0.08680098, -0.077674426, -0.040628854, -0.15252991, -0.15106264, -0.13210785, -0.081744365, 0.1118795, 0.10229904, 0.12614122, -0.123915404, 0.1446739, 0.17909281, 0.038021594, -0.1954645, 0.098678745, -0.09148469, 0.034277875, -0.05756053, -0.14717174, 0.025072154, -0.097215585, -0.03598608, -0.19086748, 0.23060001, 0.1355495, 0.073448546, 0.13235718, -0.026099758, -0.06884379, -0.14691287, -0.02207912, -0.23301473, -0.1822803, 0.21531819, 0.16810691, 0.24422629, -0.06936974, 0.14760862, -0.15429515, -0.07014488}, 
{-0.09992322, 0.010028827, -0.020045042, 0.022461684, 0.09010999, 0.07181288, 0.02389718, -0.13698627, 0.011604045, 0.03228128, -0.11715553, -0.12563258, 0.14827864, 0.02603659, -0.043708168, -0.028558657, -0.0140021425, -0.089474894, 0.023653865, 0.15789011, -0.13232215, -0.13377346, -0.05347263, -0.1517085, 0.12020635, 0.14785443, 0.05432628, -0.02554807, -0.06866401, 0.12276664, 0.0073498636, -0.054452546, -0.16918671, -0.13815898, -0.023320645, -0.061222296, -0.07637785, 0.13194472, -0.06799055, 0.00067505654, -0.0060386807, 0.08882392, -0.12188053, -0.15679887, 0.038721994, -0.10409993, 0.064009264, -0.027958581, -0.12910661, -0.1448879, 0.08105483, 0.068152644, 0.13148753, -0.16229452, 0.022740498, 0.09612904, -0.07889068, 0.013423534, 0.12507434, -0.113370426, 0.07542959, -0.11568327, -0.04752487, 0.13776617}, 
{0.008323561, -0.057251856, -0.15905899, 0.13111955, -0.17629234, -0.06378572, -0.19814423, 0.044340808, 0.1601076, -0.15883453, 0.19294566, -0.21369581, -0.1425367, -0.061483063, 0.14944433, -0.08207631, 0.13923576, 0.053509075, 0.07924053, 0.20365119, 0.15251495, -0.11291293, 0.0007878989, -0.081563324, -0.103510186, 0.026268672, -0.12000775, -0.01420474, -0.056806426, 0.1767573, -0.2578557, 0.122722276, 0.16960208, -0.092366934, 0.048730154, 0.04559436, -0.17186292, 0.2369087, 0.0024259635, 0.16816494, -0.0045889826, -0.1890861, 0.04871536, 0.09894184, 0.16513439, -0.10296428, -0.01694022, -0.050205026, 0.1253368, -0.23331954, -0.10111174, 0.20225771, -0.030936, -0.14831454, 0.057908695, 0.02786031, -0.051700395, 0.2701783, -0.12515871, 0.14954875, 0.005562594, -0.035282988, 0.15540656, 0.11607886}, 
{0.04787907, -0.08076988, 0.018808663, -0.1706601, -0.010480657, -0.0067171603, 0.06963958, -0.12853566, -0.07573346, 0.08340241, -0.15638824, -0.039730996, 0.16753288, 0.050066113, -0.15668963, 0.16378097, -0.07773084, 0.1756791, 0.07245903, 0.033643425, 0.11368768, 0.05910282, -0.019796252, -0.16614646, 0.1291696, -0.030735373, -0.0038938224, -0.17526391, -0.08641043, 0.022238284, -0.007449791, 0.1498404, -0.016289085, 0.035673425, -0.008174926, 0.0970528, 0.053354323, 0.15710883, 0.11461674, -0.17561221, 0.11988835, -0.05101648, 0.10631625, -0.061964802, -0.036576852, 0.14150341, 0.16712289, -0.0044665188, -0.008679599, -0.16545297, -0.14254674, 0.104568854, -0.12479323, -0.101440385, -0.14675963, 0.057215065, -0.13530079, 0.06438382, -0.06981389, 0.09010701, 0.0386903, -0.1590727, -0.0070478767, 0.11045192}, 
{0.0004801005, 0.012048855, -0.14764614, -0.16041592, 0.12827118, 0.103863284, -0.0071508437, 0.14305837, -0.13237157, -0.023765385, -0.1157731, 0.13669796, 0.00820747, -0.07706796, -0.15658823, 0.093654856, -0.07774989, -0.00870274, 0.13587551, 0.15942289, -0.03166628, 0.036717623, 0.09726067, 0.08389749, 0.06865199, -0.054444917, -0.15254702, -0.16959934, 0.024307609, -0.1140825, 0.08787678, 0.0010178536, -0.15547918, 0.10531376, -0.102760166, -0.016438246, 0.08709361, -0.116708584, 0.1407877, -0.11759169, -0.01706256, 0.12892286, 0.16602696, -0.09790287, 0.16634978, -0.00255014, 0.007311344, -0.15337141, -0.12219632, -0.030928493, 0.03573847, 0.033178464, -0.16621473, 0.13287257, -0.09123705, 0.05330211, 0.12514473, 0.0859765, -0.16439652, -0.08561786, -0.17186013, 0.03363791, 0.17078678, 0.040706143}, 
{0.09925304, -0.14100982, 0.018945813, 0.11374818, 0.06259641, -0.13802001, -0.02308096, 0.016992182, 0.053071737, 0.17003535, 0.0922399, 0.03097558, 0.061091945, 0.0604811, -0.08244614, -0.015035853, 0.17104115, 0.020951793, -0.03720306, -0.14263463, 0.120567665, -0.10431092, 0.06805983, -0.116776064, -0.16385518, -0.014554828, 0.06883706, 0.064297676, -0.14856325, -0.117618114, -0.100140825, 0.11306746, -0.023805335, -0.023334473, 0.16958489, 0.022719845, 0.08036463, -0.06162472, -0.0400261, 0.056942374, 0.014673844, -0.13166398, 0.022247046, -0.035814658, 0.0014125556, 0.07199347, 0.15220831, 0.002483666, -0.105682634, 0.10323577, -0.071262315, 0.11565836, -0.0058659166, 0.12854435, -0.13066125, -0.16532552, 0.095238134, 0.0795124, -0.0940949, -0.15615964, 0.05125323, 0.084698185, -0.083666466, -0.15206069}, 
{0.1354187, -0.051385336, 0.07466277, -0.05771651, -0.030796498, 0.11962721, -0.012274419, 0.033141095, -0.15025623, 0.08218913, 0.17739934, -0.046153158, -0.13486403, 0.010413095, -0.14957972, 0.08881061, -0.16542247, 0.028504282, 0.06533073, 0.19928817, -0.07235338, -0.303281, -0.13810426, 0.056658104, -0.12969163, 0.056077804, 0.12315266, -0.026907517, 0.003420322, 0.24532953, -0.15427904, -0.08211632, -0.060726807, 0.07162977, 0.078886285, -0.05829798, -0.14546959, 0.07394702, 0.1667928, -0.08766522, -0.041650772, 0.19610599, 0.13778372, -0.1358651, -0.16184841, -0.12616317, -0.20769812, -0.038449124, 0.22537576, -0.04826674, 0.00455409, 0.053284124, -0.12522206, -0.082357705, -0.15601692, 0.053768296, -0.12949866, 0.191988, -0.123847425, 0.15017477, 0.23060235, 0.018867804, 0.051258747, -0.0295448}, 
{-0.20906897, -0.18555881, -0.1477571, -0.06781667, 0.03881754, 0.14435828, -0.09601696, -0.037172895, 0.059867088, -0.10073683, -0.114467636, -0.111834645, -0.14552817, 0.12893333, 0.0037453144, 0.070014685, 0.1531212, -0.1669572, -0.05344872, 0.15243535, 0.10218627, -0.3431542, 0.016605094, -0.1688407, 0.16054071, 0.05203643, 0.014348596, -0.11036865, -0.075143345, -0.23698878, 0.18965986, 0.026900781, 0.05551572, 0.110198975, -0.07341559, 0.04521927, 0.10592623, 0.2330723, -0.023104068, -0.06652355, 0.022890525, 0.08468606, 0.07060259, -0.19248496, -0.14651003, -0.084307306, 0.14274518, -0.22685382, -0.09456715, -0.2097089, 0.032029003, 0.17534062, -0.05689165, 0.1380333, -0.29044506, 0.06505621, 0.111094736, -0.13321911, -0.18234855, -0.24970755, 0.028799005, -0.17145285, 0.20640215, 0.058345605}, 
{-0.08498411, 0.1477824, 0.02615638, 0.034565825, -0.11256306, 0.06873624, -0.040098153, -0.110004194, -0.119200945, 0.1476294, -0.0013230323, -0.07521641, 0.13048951, -0.08188576, -0.10963671, 0.092962995, 0.09387067, 0.025164068, -0.12276482, -0.07521504, 0.052935783, 0.10435263, -0.04887235, 0.024928946, -0.066570796, 0.15969382, 0.015564457, -0.13688657, -0.0775501, -0.1155004, 0.07724727, 0.08692596, -0.060105983, -0.078269854, -0.08717953, 0.0027498424, -0.03432621, 0.12150863, -0.1524429, 0.015558383, 0.11153565, -0.13267025, 0.16177651, 0.057049226, -0.056730837, -0.041006655, 0.100078724, 0.12730835, -0.12951177, -0.14967638, 0.0002621475, 0.06457458, -0.07427416, -0.06304028, -0.1260028, -0.004670798, -0.08838523, -0.07354133, 0.0742201, 0.056443647, -0.049505066, -0.10667536, 0.0023892396, 0.036169413}, 
{0.22222655, -0.011045969, 0.020254115, 0.078720376, -0.016481102, 0.20406134, -0.2727678, -0.17131642, 0.17427935, -0.01169157, 0.20446019, -0.19557224, -0.13027799, -0.14267057, -0.09574227, 0.04528889, 0.11225513, 0.13691877, -0.1384828, 0.15864263, 0.15293007, -0.26453668, -0.13501848, 0.06446069, -0.10593704, 0.079489686, 0.016400725, -0.028699862, -0.05524894, 0.19223653, -0.07541569, -0.103195265, -0.18042785, 0.13158281, 0.09314246, -0.15890929, 0.12249686, -0.008796581, -0.11599127, 0.17980023, -0.17659904, 0.011676552, -0.0073995315, -0.118589416, 0.014184564, -0.06274684, -0.04695393, -0.044608478, -0.024973497, -0.22002381, 0.042413544, 0.18494552, 0.12587038, 0.09351866, 0.15704879, 0.037910208, -0.1344622, 0.17969334, -0.060676478, -0.051359087, 0.043699577, 0.13572946, -0.13740131, -0.00922241}, 
{-0.1307635, 0.00256197, -0.10953852, 0.09012193, 0.0652155, -0.038681235, 0.019420773, -0.057382807, 0.13500568, 0.10058127, -0.103741765, 0.070407845, -0.1151392, -0.09444131, -0.06439737, -0.16304125, -0.11639798, -0.025349766, -0.067339785, 0.16395645, -0.08969636, -0.0573415, 0.10170005, 0.11938523, 0.09183023, -0.007767543, -0.030885383, -0.15878788, 0.09789913, -0.07841617, 0.15510994, 0.1050535, 0.13428766, -0.12257606, 0.10408678, 0.13440831, -0.16991784, 0.060594622, 0.08163927, -0.019748908, -0.16034755, -0.082917325, 0.0062982654, -0.048907235, -0.04149209, -0.17003408, 0.15957278, 0.17033227, 0.025193332, 0.15209424, 0.13685139, -0.06541954, 0.056162953, 0.097489126, 0.086394206, -0.14462662, -0.12556478, 0.071198665, 0.17142962, -0.015088528, 0.013805483, -0.00033935905, 0.021024805, -0.05690088}, 
{0.059080526, -0.055774864, 0.07731652, 0.19880587, 0.1496297, 0.24501841, -0.076273374, 0.0733742, -0.2712321, 0.024892852, 0.1080989, -0.012494774, -0.15306656, 0.03835161, -0.24310414, -0.12510306, 0.12946688, -0.05644563, 0.14574558, 0.025518695, 0.028849497, -0.19100837, -0.15586685, 0.22149332, -0.14327459, 0.06937284, -0.17001334, 0.090695724, -0.05451865, 0.24804789, 0.011629919, -0.12690823, -0.115439005, -0.02009195, 0.2216104, -0.12764095, -0.028249219, 0.16133188, 0.18097281, 0.26716915, 0.113386884, 0.06549291, -0.023339288, 0.062976964, 0.023084417, -0.007796794, -0.15442182, -0.08530997, 0.009131213, 0.12816721, 0.014701697, 0.15714431, 0.010950797, 0.028295254, -0.048102535, -0.26946494, -0.15785682, 0.17480654, 0.14130081, 0.23958082, 0.008476883, 0.06629763, -0.08084188, -0.14696157}, 
{-0.19530176, -0.1228077, -0.06579884, -0.2254823, 0.032578334, 0.13077375, -0.16555473, -0.11135983, -0.024093421, -0.02686891, 0.04096892, -0.1426422, 0.19181179, 0.046629593, -0.18080322, -0.033034787, -0.08103837, 0.079825304, 0.17876875, 0.050946433, 0.07465332, -0.21254417, -0.14527345, -0.13512307, -0.116517074, -0.11350475, -0.16152897, -0.0016584229, -0.07337575, 0.19999352, -0.018333297, 0.090876624, -0.02077819, 0.16250852, 0.10583313, 0.0058492706, -0.13257645, 0.067011945, -0.015616438, -0.23499861, 0.008551902, -0.0062589147, 0.06721279, -0.25856882, -0.10679792, 0.11521976, 0.102856115, -0.0483044, 0.22406031, -0.17481788, 0.18347394, -0.047334895, 0.10057011, 0.089964256, -0.077827394, 0.054298718, -0.021448495, 0.035963032, -0.050291784, 0.10282527, 0.02196382, -0.072763406, 0.16625747, -0.0840843}, 
{0.17466985, -0.1716245, 0.111871764, 0.021257862, 0.018224, -0.14079791, -0.0741468, -0.1273252, 0.04420504, 0.15038927, 0.17343251, -0.023169562, -0.13297887, 0.11488442, -0.0010845214, -0.09409693, 0.018438607, -0.028818205, -0.07767921, -0.1250985, -0.023335531, 0.14462577, -0.04142344, 0.04428765, -0.14554626, 0.07261379, 0.033125564, -0.078374214, -0.12123853, -0.038187355, -0.12620498, 0.0054377466, 0.16143419, -0.0032797009, 0.10475735, 0.16504861, -0.028379574, -0.096679814, 0.14886157, -0.024521798, -0.011471108, -0.04031518, -0.12079261, 0.078115776, 0.10018195, 0.08131428, -0.09543252, 0.09124456, 0.14066084, -0.06680364, 0.023273915, 0.03629598, 0.14603542, 0.010347009, -0.106283985, -0.092914075, -0.13402197, -0.12928167, 0.15744357, 0.021113843, -0.001308918, -0.14078379, -0.065396525, -0.11783816}, 
{-0.14709857, -0.14808628, 0.15995449, -0.054559525, 0.10623984, -0.03809097, 0.09690422, -0.09419507, -0.19515708, 0.01465252, 0.10271074, -0.16370143, 0.08979747, -0.0946163, -0.05199211, -0.15763688, 0.07860144, 0.16591261, 0.13106477, -0.12507795, 0.19167882, -0.19062506, -0.013737932, 0.038519252, -0.015595518, 0.116399564, -0.0858109, 0.16192017, 0.07524431, -0.14519307, 0.061803643, 0.0870941, -0.12671816, -0.1132546, 0.12275408, -0.07087983, -0.05635982, 0.1753922, -0.039404877, -0.1665572, -0.09827826, 0.22655948, -0.17744072, -0.04496277, 0.062179163, 0.056347013, -0.082049735, -0.041873172, -0.046972964, 0.18259044, 0.19662353, -0.16264465, -0.11105634, -0.066262014, 0.11509266, 0.062171124, -0.067694694, 0.12095904, -0.06951731, -0.19411086, 0.20889418, -0.0046701734, 0.19880599, -0.123365305}, 
{0.05440791, 0.15975203, -0.12734354, -0.05791133, -0.05068913, 0.1008441, 0.15422021, -0.11201764, 0.07155591, -0.11439851, 0.11833738, 0.030003712, 0.10897206, 0.07310623, 0.093777075, 0.12369691, -0.13632515, 0.04152122, -0.02254574, 0.004483968, -0.0508084, -0.06544769, -0.108799644, 0.06361072, 0.0068091154, -0.031903476, -0.07320204, 0.005284071, 0.06587076, 0.16230862, 0.02491659, 0.16307141, -0.114662565, -0.08633192, -0.141906, -0.06879495, -0.111435, -0.012764126, 0.12263663, 0.022409394, -0.10264224, -0.13273859, 0.001060456, -0.16028517, -0.09422619, 0.10965054, 0.13674478, -0.11348203, 0.11562841, 0.041424155, 0.083092436, -0.04984413, -0.026298746, 0.05776204, -0.17465514, -0.11578974, 0.12857468, 0.006035045, -0.16756992, -0.043951496, -0.08436054, 0.027622744, 0.12011342, 0.07607506}, 
{-0.17493184, -0.13805081, 0.16737099, -0.04602039, 0.0063002855, 0.067498386, 0.0639599, -0.096405685, 0.12805778, 0.03320092, 0.17520066, 0.005520507, -0.031689495, -0.0010342449, 0.14117004, -0.1527089, -0.11467881, -0.12006086, -0.061797984, -0.14719811, 0.045748148, -0.029131606, 0.006751299, 0.05492652, -0.04326997, 0.058901444, -0.086929135, -0.10844974, 0.11835505, 0.047113325, 0.077469274, 0.12289735, 0.09519104, 0.024860397, 0.1630884, 0.07505547, 0.15821342, 0.14412922, -0.08074337, 0.050132982, -0.17208305, 0.048443917, -0.13103598, -0.11321257, 0.17563768, -0.12080176, -0.17096624, 0.047376707, -0.16321687, -0.018122196, -0.04000761, -0.029639121, -0.058923826, 0.09132132, 0.1388704, -0.001426199, -0.05491373, 0.0031763671, -0.06078136, 0.047654554, -0.013958113, -0.046670422, 0.057940926, -0.11861345}, 
{0.24491383, 0.1913469, -0.08673554, 0.13676423, 0.17036279, -0.02600154, -0.12197218, -0.13451082, 0.18391642, -0.06698807, -0.09425386, -0.12502785, -0.109627195, 0.030933931, 0.16724586, -0.041772664, 0.089368016, -0.115888506, -0.1608521, 0.0661184, 0.13336147, -0.053484686, 0.055622846, 0.03101416, -0.16451289, 0.080129415, 0.1658193, -0.16906597, -0.10687722, 0.15900427, 0.09229489, -0.10326503, -0.16015503, -0.052595973, 0.12501843, 0.04541475, 0.13254978, -0.057313096, -0.03075909, 0.101096496, -0.1409111, 0.05083363, 0.115009576, 0.09137808, 0.00737077, -0.011266828, -0.060659926, 0.21292563, 0.12876768, -0.092367366, -0.1402911, 0.14774309, -0.076447695, 0.0018931908, 0.16259326, -0.061643925, -0.16230376, 0.08434428, 0.19604102, 0.1940491, -0.057253234, 0.09488034, 0.016646657, -0.16701753}, 
{-0.050832797, -0.116973095, 0.15146826, 0.1049901, -0.10547354, 0.1656629, 0.005734714, -0.06997284, -0.04120094, -0.098792166, -0.030775543, 0.12342941, -0.16034026, 0.009401947, 0.099095024, 0.05088398, -0.01088733, 0.08302511, 0.00017085671, -0.13019733, 0.053424742, 0.03715527, -0.024971843, -0.15909374, 0.1300122, -0.13317434, -0.1331714, -0.002215255, -0.01970061, -0.16776052, 0.018757865, 0.054725837, 0.08993632, -0.039791644, 0.001272987, 0.12202002, 0.10619028, -0.0051275943, 0.14919977, -0.11045321, -0.012500837, -0.05012325, 0.11040343, 0.1547561, 0.07999085, -0.13011196, -0.036851875, 0.01668739, 0.0069553396, -0.17039612, -0.0475345, 0.121650964, 0.09527816, 0.08585228, -0.04798393, -0.12897824, 0.021129547, -0.08970015, 0.06043744, 0.16000082, -0.07113426, 0.1359546, 0.13845482, 0.12546411}, 
{-0.17776673, 0.030913481, -0.060396742, 0.17661372, -0.026577458, 0.14719564, 0.082007945, -0.010154875, 0.10476404, -0.13749751, 0.06346845, 0.056809474, -0.07345908, -0.049214363, 0.08879214, -0.027985215, -0.10621688, -0.121391885, 0.11918765, -0.18452981, -0.17221405, 0.031667292, -0.11935275, 0.1509463, 0.0612671, -0.13462806, -0.14052126, 0.034733813, -0.108934775, 0.04172955, -0.049497094, -0.09430341, 0.06871998, -0.028174603, -0.07882223, 0.03632701, -0.040825665, 0.094480135, -0.15601197, 0.21624017, 0.07786437, -0.19868562, -0.15801643, 0.19298452, -0.1760129, 0.044683456, -0.0069673965, 0.12976114, -0.16691926, 0.23266156, -0.03025845, 0.03552045, 0.109092936, 0.10333146, 0.14606784, -0.009666544, 0.0067768204, -0.004221471, 0.0757065, -0.13877797, -0.1532644, 0.107843824, 0.05257556, 0.069619104}, 
{-0.11249855, -0.017092515, 0.05061431, -0.1006193, -0.054309502, 0.15032601, -0.048236374, 0.077306665, -0.14662005, -0.0028013736, 0.25285187, -0.023479495, -0.19186431, 0.085825995, -0.17338878, 0.04670465, -0.059488423, 0.15031263, 0.09028431, 0.103509925, 0.2548298, -0.14814445, -0.14524664, 0.1366255, -0.07096089, -0.12558477, -0.06539522, 0.15293212, 0.22954686, 0.023564762, 0.053062465, -0.17345762, -0.17395164, -0.012005523, -0.060193308, 0.0458128, -0.02662088, 0.083675735, 0.26005575, 0.10253, -0.023121184, 0.23150823, -0.09658958, -0.24139288, -0.15948337, -0.021989524, -0.21207304, -0.26303822, 0.0657515, -0.06655693, 0.257248, 0.122882254, -0.11919508, -0.070643365, -0.06557424, -0.1292955, -0.15902266, 0.23174171, -0.17746364, -0.0630424, -0.043434404, -0.05782101, 0.13871352, 0.1396832}, 
{0.16552685, 0.056849614, 0.009548873, -0.0048048645, 0.018811569, 0.0457163, 0.066796005, -0.059251346, 0.028560102, -0.14135513, -0.1268224, -0.07113347, -0.021321163, 0.00013837218, -0.085209206, 0.019774705, 0.026526257, -0.05069895, 0.035201684, -0.15490514, 0.07419501, -0.096023165, -0.01158078, 0.012204215, 0.17461975, 0.04486102, -0.12270655, -0.059362866, -0.10200974, 0.16895019, -0.08200061, -0.09035496, 0.08436905, 0.17556639, -0.00097215176, -0.025696263, 0.15022068, 0.10777323, 0.04125081, 0.03688191, 0.044758186, 0.15848501, -0.09113797, -0.1390655, -0.08887565, -0.0025194585, -0.14752956, -0.16335638, 0.024281934, 0.037348256, -0.11724629, 0.10367839, 0.17535286, -0.11893886, 0.13276686, 0.09603013, -0.16515175, -0.14488573, 0.046982646, -0.13205555, -0.017215937, 0.020499125, -0.12436068, 0.16170691}, 
{-0.10074804, -0.048558116, -0.014625108, 0.04003504, -0.123144366, 0.04805385, -0.040516917, -0.029382154, -0.027767263, 0.10614772, 0.20132999, -0.12874645, 0.19981453, -0.17392832, -0.20654377, -0.115927644, 0.09284205, -0.17267592, -0.08800411, 0.056578647, -0.08768146, -0.14929327, 0.137123, 0.08694485, -0.07286557, 0.15287106, -0.134299, 0.018253112, 0.13469337, 0.16064815, -0.028740276, 0.15403917, -0.044674058, 0.011235907, 0.10445187, -0.06536204, -0.11233433, 0.05118888, -0.02458886, 0.047665656, -0.13133505, 0.09127125, -0.1689835, 0.019622283, -0.06154485, -0.115626715, 0.083400756, -0.0431558, 0.06345349, -0.12376808, 0.23077844, -0.13761915, -0.10606294, -0.07130216, 0.16407932, -0.060042243, -0.12897913, 0.19508925, 0.011460714, -0.053983286, 0.13493802, 0.017509943, 0.108673394, -0.0774847}, 
{-0.017589096, 0.106295615, 0.18700807, 0.11827222, -0.16940546, 0.17788924, 0.08350251, 0.12217408, -0.13053982, 0.013941377, -0.1071446, -0.14433156, -0.16650082, -0.0014664531, -0.12073035, -0.02708681, 0.04262643, -0.04063066, 0.008035122, -0.16006404, 0.11310196, 0.10800404, -0.042669, 0.12095757, 0.092683814, -0.079372615, 0.069976285, -0.09000618, 0.0025268204, 0.07573946, -0.017014854, 0.054556455, 0.10837721, -0.08768998, -0.15059496, -0.14478488, 0.07185781, 0.1808978, -0.033154882, 0.20365784, -0.033777054, -0.060059916, 0.019609926, 0.0770604, -0.08273308, 0.044427708, 0.03978967, -0.06972251, -0.034862112, 0.17630053, 0.050080378, 0.15681505, 0.0073915375, -0.1780844, 0.21371119, 0.083821945, 0.14902191, 0.17466027, -0.18468188, 0.11407888, 0.0767706, -0.14418164, -0.09824345, -0.15726174}, 
{0.11819286, -0.018976992, 0.100389466, -0.17778383, -0.16453852, -0.20857581, 0.22599189, -0.17868587, 0.17790762, -0.15216424, -0.113181494, -0.098836794, 0.1860604, -0.10007015, 0.20621578, -0.13754468, 0.09762694, -0.17200756, 0.142507, -0.22768769, 0.16896188, -0.015799036, -0.15497291, 0.12267274, 0.00019865156, -0.06888616, -0.13629204, -0.00034294178, -0.046866596, 0.075225234, -0.10125027, -0.017652681, -0.08438199, 0.03266486, 0.0744181, 0.015141851, -0.046889752, -0.1008511, 0.026716763, -0.14462979, -0.16555485, -0.030855376, 0.0028398768, 0.046113864, 0.061313763, 0.13614835, 0.13970742, 0.005376771, 0.14684689, -0.0111610675, 0.020380972, -0.024690492, -0.022793934, -0.12208858, 0.016607124, 0.050563306, -0.17089519, -0.18381687, 0.046069317, -0.21126479, 0.0071871695, -0.09077803, 0.0232164, 0.088291876}, 
{0.30356854, -0.085857294, 0.17162082, -0.15561353, 0.010136738, 0.048993107, -0.10609216, 0.06201269, 0.024988972, 0.121093616, 0.10826252, 0.21442679, 0.021802884, -0.16215204, -0.15842468, -0.15483588, -0.27455506, -0.17483367, 0.0904841, 0.19567247, -0.06932788, 0.08365393, -0.07927957, 0.16534692, -0.10452508, -0.015870236, 0.04773602, 0.046320926, -0.18755442, -0.0019184303, -0.16040029, -0.17171395, -0.1801885, 0.045560062, -0.018850248, 0.08517956, -0.10969952, -0.059008412, 0.124537475, 0.15642577, 0.1448722, 0.06697409, -0.16802606, 0.048380762, 0.15380548, 0.0018213391, 0.024174541, 0.2827848, -0.031209035, -0.25601876, -0.02510145, -0.2330414, 0.048622124, -0.060879406, 0.03102537, 0.021237593, -0.009824239, 0.26426387, 0.20395096, -0.037706174, -0.0011888917, 0.14262725, -0.10003837, 0.10367541}, 
{-0.03143179, -0.10693366, 0.27952394, -0.039805915, -0.028480649, 0.22645256, -0.057412468, 0.016389702, -0.16062753, -0.09678391, 0.260583, 0.4145754, 0.054190036, -0.083237156, -0.14635156, -0.12436077, -0.17450072, -0.092780605, 0.055310518, 0.072642565, -0.3290454, 0.20481043, 0.10080223, 0.0044027115, 0.026733082, -0.02219209, -0.04118839, -0.054182515, 0.15367447, 0.09819585, 0.038745966, -0.051049765, 0.029300107, -0.14813079, 0.14990346, 0.1445131, 0.10819544, -0.26189092, 0.12642683, -0.007419432, -0.17412853, -0.03227886, -0.0661276, -0.14487652, -0.1574862, -0.07805761, -0.2613717, -0.27321053, 0.023028547, 0.13540418, -0.09292295, -0.10059312, -0.11770471, 0.17374343, 0.13250192, -0.15379596, 0.08403303, 0.2508354, 0.14424026, -0.034939587, 0.108609386, -0.1555056, -0.3392425, 0.16876261}, 
{-0.0033412809, 0.09270275, -0.19046913, 0.19045056, -0.093457766, -0.16683453, 0.04347854, -0.08880634, -0.06698022, 0.16391592, -0.19016595, 0.059835378, -0.15463088, -0.009129718, 0.20530768, 0.071205884, 0.013743769, 0.14642288, -0.072642855, -0.17822395, -0.12776689, 0.12598109, -0.15824042, 0.1184986, -0.020762485, -0.1290774, -0.04940003, -0.054931812, 0.10936726, 0.005659356, 0.034540635, 0.051252045, 0.17051291, 0.11095894, -0.16399916, -0.09796118, -0.14324048, 0.17772773, -0.071776316, 0.17606632, -0.028779933, -0.13520434, -0.013906175, 0.16559443, 0.08042343, -0.10372866, 0.20527777, -0.048753645, -0.15047956, 0.10866719, 0.18912087, 0.21870816, -0.15792005, 0.11281578, 0.110463575, 0.1479429, 0.072629094, 0.036343385, -0.17096591, 0.15700895, -0.12476545, 0.04400193, 0.069490224, 0.17240739}, 
{0.15559827, -0.1697767, -0.03133437, 0.16740303, 0.11453001, -0.10143503, -0.08929948, 0.04101108, 0.09584434, 0.01404649, -0.091605164, 0.030161425, -0.029054105, -0.124070495, 0.08007078, -0.020921275, -0.12937477, -0.15685707, -0.057295524, -0.07533593, -0.16795397, 0.027204782, 0.07661997, 0.06575705, -0.13554245, -0.026305407, -0.17435962, 0.08226828, 0.14051758, 0.0024574995, -0.1328692, 0.007599041, 0.16153093, 0.04018259, 0.0066014975, 0.05310625, 0.1436852, -0.1254242, -0.13802022, -0.15249003, -0.13356543, 0.052280217, -0.12593415, -0.117538705, 0.10018112, 0.028476521, -0.13401185, 0.12783392, -0.13985306, -0.101251855, -0.106021404, 0.05119519, -0.023827925, -0.087722845, 0.012009069, 0.077922985, -0.11861919, 0.13410316, 0.09067704, -0.09416183, 0.09657626, -0.036770508, -0.0067164004, 0.10371412}, 
{0.112789854, 0.105720475, 0.045950145, -0.17052838, 0.13420902, 0.08930053, -0.06638731, 0.12507887, -0.0446658, 0.046101063, 0.12718059, 0.046139836, 0.05574073, -0.10741929, 0.0013187379, -0.11318477, 0.15789448, -0.0680879, -0.0915427, 0.13426916, 0.07212375, 0.12931703, -0.04707171, -0.063460596, 0.06461656, -0.09183697, -0.07686181, 0.15721844, -0.16639099, 0.15764423, -0.13889945, 0.12213899, -0.008248016, 0.08910422, -0.17067058, -0.17373087, 0.05085717, -0.04754156, 0.01166676, -0.1363453, -0.08064454, -0.10176297, 0.055955455, 0.11484788, -0.17601113, -0.056455493, 0.009675235, -0.05021873, -0.1759673, 0.055434227, -0.049475938, -0.0042304546, -0.050698444, 0.11963536, 0.039693475, 0.04622662, 0.06608297, -0.085260965, 0.14092343, -0.0505071, 0.06335181, 0.09348841, 0.1440636, -0.09794835}, 
{0.056536965, -0.052385133, -0.22250418, 0.07676362, 0.0030329674, -0.16191941, 0.20599182, 0.15212749, 0.08808252, 0.035693407, -9.773567e-05, 0.19277309, 0.24700823, -0.1051504, 0.1425213, 0.041595817, 0.10975405, 0.1503908, -0.038961843, 0.17127694, -6.999789e-05, 0.21533382, -0.08586834, -0.20513766, 0.018732803, -0.113399334, 0.1221119, 0.023192804, -0.19913869, -0.25148582, -0.20887598, 0.15713632, 0.094245866, 0.12547581, -0.14309217, -0.10289786, 0.03595282, -0.19752312, -0.21313062, -0.0931475, 0.13470335, 0.05923783, 0.00703373, -0.051654406, -0.1257844, 0.05002089, 0.08801563, 0.11216153, -0.18966012, 0.011586833, -0.12951744, -0.187688, -0.00061011733, 0.124484465, -0.17642304, 0.2730016, 0.062469296, 0.009033191, -0.04369731, -0.20182174, -0.21344113, -0.012046268, 0.19373251, -0.047500942}, 
{-0.11200757, 0.1823626, 0.09438412, 0.08694907, 0.0702405, 0.10762025, -0.010505213, -0.035485268, 0.021324405, -0.044919223, -0.135703, 0.08376476, 0.1021054, 0.1325085, -0.060801566, 0.118957326, 0.036452997, -0.10986951, -0.087666534, 0.08108644, 0.063831694, -0.08709359, -0.17454341, 0.021657318, 0.14123894, 0.040781613, -0.049375996, 0.0905842, 0.239871, -0.23966159, 0.15621518, 0.1591139, -0.14607966, 0.1090701, 0.10157666, -0.018206147, -0.0023060292, 0.039366998, -0.19939038, 0.1210289, -0.010966044, 0.063687205, 0.1618543, -0.082750864, 0.0012620836, -0.10433389, 0.13550004, -0.07803997, -0.20352641, 0.2432998, 0.057753067, 0.18756486, 0.043817256, -0.108821005, -0.10401007, -0.035908002, -0.11129861, -0.23167065, -0.10261261, -0.16851869, 0.043787763, -0.0855428, 0.081873834, 0.092993855}, 
{-0.10402748, 0.15462781, -0.0027956814, 0.11143251, -0.13785976, 0.16947646, -0.010316163, 0.14412363, 0.11895333, -0.08426967, 0.16886295, 0.14126708, -0.06690842, 0.13180934, -0.115862906, -0.06812697, 0.02405481, 0.14765133, 0.14067332, 0.095527425, -0.09157882, 0.102653876, 0.1412357, -0.16291186, 0.021437705, -0.0891236, -0.1694643, -0.10852885, -0.036123812, -0.037136763, 0.0811712, 0.03714469, 0.08103274, -0.15374732, -0.14541556, -0.035992652, 0.059287846, -0.08334531, 0.017398044, 0.17226352, 0.07254627, -0.15043892, 0.055432633, 0.076905474, -0.16755383, 0.13644077, -0.08741429, -0.1482324, 0.09135099, 0.17235006, 0.027570024, -0.09373577, -0.13944298, -0.17488661, 0.05857657, 0.06595349, 0.16842271, -0.103592776, 0.04112041, 0.023418263, 0.057092413, -0.0047555566, -0.10967773, -0.050056204}, 
{0.1701266, -0.061212353, -0.08888117, 0.1446916, 0.077141, 0.17439584, 0.03572835, -0.10833826, 0.0064709336, 0.06055039, 0.13359205, 0.15844862, -0.1709705, 0.16625305, 0.041059002, -0.13080435, -0.089144886, 0.023127869, -0.17676759, -0.02227056, 0.12129222, 0.0012521446, -0.06421119, -0.0035191327, -0.1462912, 0.0039802194, 0.09077503, -0.09066567, 0.09424196, 0.12480827, -0.13215785, 0.16578762, 0.07444377, -0.034594983, -0.11139993, -0.12880321, -0.10613836, -0.0023708493, -0.0075661987, -0.029314399, -0.03868486, 0.11839725, -0.04445389, 0.17238416, -0.1359638, 0.09569825, 0.05853194, 0.08500306, -0.15106775, -0.02370435, -0.09317176, 0.043709785, 0.15801106, 0.13100244, -0.047206447, 0.13250871, -0.048224673, 0.06359053, 0.1280088, 0.052486733, -0.03444439, -0.073451586, -0.06833829, -0.078722134}, 
{0.042083755, -0.14563578, 0.043372184, -0.11144836, -0.028191388, -0.1589716, 0.071641415, -0.16655098, -0.052138053, 0.12852941, -0.09333158, -0.07949035, -0.100583285, -0.12483546, -0.0020744205, 0.05519247, -0.043484762, 0.14039637, -0.12569927, -0.10032484, -0.15000236, -0.123133615, -0.17658429, 0.14735304, 0.024801403, 0.03337723, -0.06984205, 0.08452164, 0.1763234, -0.09637897, 0.17648621, 0.1469812, -0.08254928, 0.13191833, -0.15232317, 0.15747567, -0.031206533, 0.14801522, -0.00044865906, -0.14030403, 0.06826268, -0.10180874, -0.14627671, -0.15742847, 0.12852855, -0.175369, -0.06251292, 0.016243517, 0.057103917, -0.14298747, 0.06983736, 0.10980244, -0.09854788, -0.016010702, -0.10102418, 0.07448293, 0.010209814, -0.14838266, 0.15157731, 0.046967313, 0.07258193, -0.15715484, 0.17463659, -0.022653714}, 
{0.08500733, -0.029870724, -0.053689755, -0.21149977, 0.0032734573, 0.044316348, 0.020065924, -0.053844832, -0.1181105, -0.17611954, -0.004171102, -0.022989837, 0.21826053, 0.12118687, 0.06925553, -0.12736735, 0.18582866, 0.030722957, 0.18877046, 0.18444091, 0.23829283, -0.16187192, -0.14167549, -0.14365925, -0.024823403, -0.0001192364, 0.06666897, 0.014110498, -0.058450904, 0.12835608, 0.2761816, 0.17166275, 0.054244775, 0.1805321, 0.07251034, -0.05839196, 0.07139301, -0.01240949, -0.18709801, -0.09925976, -0.11877807, 0.080669925, 0.073562145, -0.18498331, -0.10130467, 0.15289207, 0.10698087, -0.19577771, -0.13854653, 0.14550751, 0.018807959, -0.1131438, 0.10599928, -0.047995858, -0.21412408, 0.13236338, -0.10465176, -0.17884852, 0.046958014, -0.171322, 0.14383878, 0.020652875, 0.23557343, 0.008147178}, 
{-0.2189433, -0.09101368, -0.20484896, 0.0572015, -0.11735545, 0.03553014, -0.052133895, -0.060218282, -0.15608776, -0.047913596, 0.1634406, 0.08063188, 0.10256066, 0.17048363, 0.022735897, -0.005224228, 0.04012073, 0.012593126, 0.24002685, -0.059593536, 0.064862706, -0.19310313, -0.06744406, -0.19623254, -0.078798875, -0.13731223, -0.09506032, -0.12766324, 0.15958713, 0.10845122, 0.15813597, -0.049435925, -0.13770594, 0.00441845, 0.07636861, -0.23369041, 0.15055402, 0.06803919, -0.0015567475, -0.20370641, 0.124234535, 0.10956939, -0.09199014, -0.03207601, 0.057916686, -0.13596767, -0.024392424, 0.04352146, -0.17164624, -0.15851651, 0.23599221, -0.08993049, 0.08416867, 0.06252705, -0.18023506, 0.1709433, 0.0104968, -0.013607352, -0.027690927, 0.011352843, -0.12813893, 0.049396727, 0.09300975, 0.035443675}, 
{0.14128028, -0.09354628, 0.08328582, 0.12703519, -0.04378645, 0.17418344, 0.12349354, -0.012052432, -0.05598838, 0.04840742, -0.10777472, -0.11513865, -0.11441487, 0.15504716, 0.064706236, 0.08947475, 0.16792025, -0.17202987, -0.13905555, -0.13758995, 0.08661233, 0.16712894, 0.029496267, 0.02518043, 0.048312977, -0.057097897, 0.12890129, 0.07171708, -0.12360187, -0.124828935, 0.010834947, -0.0136846155, -0.004103631, -0.029298723, 0.0021021515, 0.16803236, -0.104526035, 0.15349583, -0.08720048, 0.15207131, 0.15413819, 0.109504506, 0.05778645, 0.11371063, -0.1300846, 0.057019338, 0.05031739, -0.0846463, 0.0031113178, -0.094044834, 0.0067605674, -0.077594705, -0.012986079, 0.024797723, -0.014767751, -0.16641754, -0.13817051, 0.07995953, -0.1265352, 0.039558783, 0.13288055, -0.16312677, -0.021434873, -0.106637634}, 
{0.12512709, 0.025676876, -0.11966725, -0.029648244, -0.13910842, 0.016134903, -0.09736828, 0.044047624, -0.09708126, -0.082289234, 0.002405107, 0.12628116, 0.043720946, -0.16573097, 0.0012309849, 0.019797549, -0.09026215, -0.1507358, 0.08378194, 0.016596079, -0.014644265, -0.05812569, 0.11028607, -0.09302964, -0.007046491, 0.09700973, -0.12115267, -0.011651829, 0.074392065, -0.15847374, 0.094316974, 0.09933342, -0.15253985, -0.016624823, 0.0607135, -0.093943894, 0.07353066, -0.061175518, 0.008585855, 0.09270011, -0.12475012, 0.11551, 0.0474509, 0.12252785, 0.079741076, -0.027523741, -0.04064554, 0.043489397, -0.11318148, 0.10853349, -0.15619618, -0.03627549, 0.081416085, -0.012672171, 0.13694392, 0.10356559, 0.024789125, -0.112790994, 0.07674639, 0.13743754, -0.024972215, -0.17630275, -0.030281082, -0.070628464}, 
{-0.038388524, 0.06712759, 0.15893744, 0.18486188, 0.10699318, 0.07229286, 0.10848357, -0.14029427, -0.045008246, -0.08769356, -0.23510563, 0.013694207, 0.09133385, 0.015765026, 0.017006934, -0.061409682, 0.20307608, -0.12167231, -0.056596708, 0.10177943, 0.06286863, -0.09963972, -0.13202277, -0.085770324, -0.085369736, 0.10254362, 0.10843329, 0.14249748, -0.037657846, -0.19635208, -0.083816186, -0.17542726, -0.11998698, -0.16656263, -0.19763246, -0.05336655, 0.082851425, 0.024166653, 0.1576759, 0.16672127, -0.1393503, -0.18980955, 0.0062582823, 0.26465917, -0.14900984, -0.13133422, -0.12447692, 0.10587238, -0.16590902, 0.014551783, -0.20798127, 0.18025154, -0.087941684, -0.14115113, -0.036498792, 0.043664746, 0.07115028, -0.014637099, -0.19868727, 0.20220996, -0.22168714, -0.17275466, -0.045899637, 0.1674207}, 
{0.004920304, 0.12923087, -0.124075055, -0.06433206, 0.11026366, 0.04871252, -0.1748349, 0.17048506, 0.06329985, -0.029591307, -0.08539082, 0.087597504, 0.11127974, 0.0645476, -0.1629835, 0.00019517541, -0.08531146, 0.026624411, -0.090879776, 0.047777325, 0.10349722, -0.005824268, -0.025255576, 0.053452566, 0.10725181, -0.14562523, -0.13180137, 0.14242668, 0.1719142, -0.004560709, -0.09284028, -0.02027613, -0.15427221, 0.031732947, 0.041352376, -0.11397616, -0.121580124, 0.01693523, -0.1110486, 0.039558575, 0.15322237, 0.084930524, -0.011983529, 0.12823714, 0.07405774, 0.070738, -0.036956593, 0.0962456, 0.11447127, 0.08171056, -0.10446358, 0.04989378, 0.12062858, 0.042618558, 0.09139235, -0.014352441, -0.056129694, -0.10779895, 0.010734513, 0.11160804, -0.16982213, 0.03154692, -0.1264891, 0.15972702}, 
{0.2240704, -0.2504589, -0.2686952, -0.07029892, -0.1131245, 0.24273767, -0.25049964, -0.046251174, 0.14264405, 0.00831233, 0.20094962, 0.02612218, -0.23422974, -0.13994288, -0.22897545, 0.042567685, -0.092201315, 0.038389545, -0.09558704, 0.19549388, 0.13900588, -0.2287956, -0.13964742, -0.09944393, 0.057648517, -0.14385757, 0.015474558, -0.12713403, -0.13965185, 0.13591878, 0.08094771, -0.023907144, 0.13730498, -0.07890139, 0.1863075, -0.10846396, 0.056112036, -0.08499543, 0.22470118, 0.06391905, 0.08024266, 0.012099521, -0.020855423, 0.034441967, 0.040322185, -0.14479685, -0.19590749, -0.11483483, 0.08737452, -0.17609467, 0.1370607, -0.14988509, 0.1045451, 0.00010816815, -0.197504, -0.23915118, 0.12603971, 0.1420923, 0.083630495, 0.2628211, 0.17825603, -0.11619218, 0.25327107, -0.08072651}, 
{0.031897664, 0.047461387, -0.098005205, -0.039305557, 0.17425139, -0.080611624, 0.007195092, -0.14197926, -0.030089792, 0.06861988, -0.05784721, 0.03004611, -0.03670071, -0.103866816, 0.0006110192, 0.13913415, 0.14849363, -0.03138672, -0.011778676, -0.01725862, -0.08354848, -0.07887888, 0.14034887, -0.1091443, 0.1075253, 0.16420285, -0.024395898, -0.18044527, 0.10538605, 0.09911083, 0.042430375, -0.046176497, -0.11269532, 0.08450159, -0.14441338, 0.01620346, 0.10184394, 0.08449795, -0.0023172053, 0.1289156, -0.032984123, 0.07230051, 0.09310493, -0.058971833, -0.09919062, 0.032903075, -0.18522105, -0.053849265, 0.036133103, -0.008840802, 0.13285631, -0.023408992, -0.08951579, 0.1594854, -0.1136354, 0.050215207, -0.0730707, -0.048093226, 0.021333538, 0.05827103, 0.18159086, 0.071734905, -0.07262436, -0.06436143}, 
{0.21846808, -0.049949277, 0.24435505, 0.16409077, 0.0006303489, -0.08159682, 0.14626643, 0.09762426, 0.2347, 0.033983007, -0.14865932, -0.008934397, 0.13766354, -0.10366506, -0.070559554, 0.051784396, -0.14157173, -0.013074093, -0.06731919, 0.15336876, -0.017195769, 0.120976545, 0.043774173, 0.18199469, 0.15759978, -0.0071519506, -0.105637155, -0.14609769, -0.19634332, 0.16776527, -0.2198248, -0.17666505, -0.025587745, -0.108490705, 0.09377638, 0.0065651904, -0.08166361, -0.25268316, -0.079774104, 0.21011019, 0.1015556, -0.022482246, 0.006120478, 0.19820902, -0.036831588, -0.07534111, -0.047077578, 0.037412215, 0.19850376, -0.16225164, -0.1972105, -0.22701915, 0.09993519, 0.11446576, 0.06369606, -0.14981633, 0.072792195, -0.055214286, -0.045379214, 0.110533364, 0.19026223, -0.029683325, -0.15150669, 0.17520036}, 
{0.010050714, -0.12447479, -0.101663806, -0.13573594, -0.00505358, 0.074692965, 0.004862137, -0.072457805, -0.05103406, 0.06457791, -0.12997864, -0.09823667, -0.1426877, -0.14655209, -0.020244962, -0.017114446, 0.04202501, 0.11526598, 0.04563336, 0.02081424, -0.028243344, -0.1264587, -0.097717084, -0.059021518, -0.12165811, 0.07695766, 0.0544284, 0.10306139, -0.09454105, -0.009215443, 0.0055553317, 0.17417519, 0.14115278, -0.13227978, -0.08004306, -0.13716543, 0.15500553, -0.03219331, 0.0667782, -0.079928145, -0.11944914, 0.12202209, -0.15127872, 0.16739619, -0.15621527, 0.029567748, -0.02474483, -0.03714265, -0.031845048, 0.00020831256, -0.09029035, 0.08810199, 0.09483825, -0.044324916, -0.16198504, -0.15386093, -0.16111118, -0.012864181, -0.08578793, 0.13914265, 0.070758745, 0.060293853, 0.049872626, -0.15626273}, 
{-0.03826459, -0.11939201, 0.027321741, -0.021722862, -0.1595425, -0.06331586, -0.08543925, -0.010097955, 0.15605222, 0.07167089, -0.08528796, 0.070247225, 0.102744356, 0.08248879, -0.042585444, -0.022297755, 0.14971177, -0.16303337, 0.11821441, -0.06242612, -0.09756264, -0.08093816, -0.06355251, -0.06349332, -0.027536893, -0.03052865, 0.17159997, 0.14275993, -0.0020231677, -0.17029293, -0.020328166, -0.0054722317, -0.052989747, 0.01722402, -0.007800312, 0.11655189, -0.006055653, 0.15984246, -0.111111484, -0.12183423, -0.16445649, 0.025096508, 0.052157514, -0.040905174, -0.01885207, 0.15015535, -0.051763315, 0.105447166, 0.12886682, 0.0166297, -0.028124765, 0.071841486, 0.111821964, -0.13410586, -0.03792496, -0.07449307, -0.04406623, 0.02922414, -0.10241625, 0.015837768, -0.14808118, 0.024604067, -0.079784855, 0.043458052}, 
{-0.0073421, 0.048435286, 0.06064771, -0.15352555, -0.005663857, -0.050922796, 0.0637434, -0.13430561, 0.0032232702, -0.03766015, 0.01750435, 0.15897803, 0.039900973, 0.052682504, 0.1618823, 0.08459367, -0.16211975, 0.04726188, 0.031456932, -0.004427269, -0.04302232, 0.13996659, -0.06348289, -0.0909781, 0.05368805, -0.017498776, -0.07009269, 0.10562448, -0.020082131, 0.055583894, 0.17068891, 0.05983074, -0.14556172, 0.117807314, -0.019836709, -0.07673365, 0.013873652, 0.007781863, -0.014024243, 0.014704779, -0.017532408, -0.092164785, -0.12185906, 0.02767156, 0.13391085, 0.17485072, -0.06286047, -0.004109487, -0.15534557, -0.033364877, -0.008575916, 0.15861617, 0.12038173, -0.14787804, -0.16457535, 0.036779657, -0.14785427, -0.08985181, -0.1097431, 0.096359655, -0.09775565, 0.14846168, -0.030934602, 0.17454274}, 
{0.077456035, 0.08701892, 0.027809843, -0.10074706, -0.050998777, 0.04870618, 0.06243398, 0.15894842, -0.05595204, 0.0010166615, -0.09992865, 0.018506978, 0.11177742, 0.08331181, 0.18549158, -0.17154269, -0.13856018, 0.03217052, -0.0014768487, 0.1740289, -0.024720179, 0.006447366, 0.14007129, 0.13555598, 0.15741265, 0.08885728, 0.04041335, 0.107756, 0.07359585, -0.06005171, -0.15240191, -0.019358229, 0.15388952, -0.14999641, 0.12095479, -0.024380667, -0.123120174, 0.023342805, 0.10019221, -0.115269236, -0.022884637, 0.10553214, 0.033590626, -0.0130599, -0.09303032, 0.08177887, 0.15432444, 0.11357281, 0.019602684, -0.10112754, 0.13510941, -0.16602157, 0.07550864, 0.13178948, -0.08430803, 0.01995543, 0.088077866, 0.04682606, 0.11380925, -0.08690802, -0.1403955, -0.0340748, -0.15735784, 0.0802936}, 
{-0.09448421, 0.11540191, -0.12161574, 0.04535751, -0.06348689, 0.05500278, 0.05892563, -0.039647713, 0.16503648, -0.08248475, 0.084144756, 0.04144536, 0.09826951, 0.0068008155, -0.053595193, -0.061155163, -0.15311296, 0.14803858, 0.06959368, 0.11933114, 0.057319418, 0.06601992, 0.1559564, 0.065345064, 0.119017884, 0.11297922, 0.06967156, 0.013049975, 0.065429986, 0.00064337254, 0.10781576, -0.09673001, -0.05117154, 0.025440887, 0.13381518, -0.033946753, -0.061165363, 0.008068219, 0.045114323, -0.1211209, 0.12617363, -0.12552314, 0.10348283, -0.068617806, 0.14290614, 0.11438845, 0.12654139, 0.1617366, 0.11632411, -0.05186625, -0.015548021, -0.005994931, 0.0494968, -0.047533974, 0.06711085, -0.10715924, 0.0689313, 0.065599844, -0.011122853, -0.11011079, -0.013530523, 0.121032014, 0.13738261, -0.04259053}, 
{-0.05843383, 0.10256416, 0.17618933, -0.11830758, -0.035694256, 0.09712396, 0.09161642, -0.1812288, 0.15364358, -0.09324383, -0.16024205, -0.12626025, -0.0060893768, -0.13152236, 0.04128828, -0.17401688, 0.018637475, 0.0067658722, 0.17325458, 0.05227536, 0.1643675, -0.011446426, -0.15017407, -0.005130796, 0.041928247, -0.05432737, 0.12187131, -0.03175291, 0.14347771, -0.15806499, -0.17149867, 0.00042358483, -0.12171663, 0.037768807, 0.022918444, 0.039840974, -0.055104643, 0.06466607, -0.07155713, 0.10517097, 0.08582978, -0.11632799, -0.08148791, -0.12479496, -0.12876508, 0.019420937, -0.11138482, -0.06925384, 0.1170567, -0.0071127266, -0.15429488, -0.1426965, 0.079050444, 0.082878284, -0.11781973, -0.07907522, 0.015418469, -0.16155542, -0.03194572, -0.07065855, -0.08679147, -0.04384005, 0.057584636, -0.14287598}, 
{0.11915584, -0.114546366, 0.048739076, 0.13469808, 0.07955201, -0.13565663, -0.038795203, 0.006807983, 0.015256196, -0.1477757, 0.1491604, -0.15692696, -0.14610626, -0.06072838, 0.09609018, -0.03954491, -0.10588236, -0.0075900108, -0.1372633, 0.05525641, -0.033582777, -0.049491063, -0.13106346, -0.12936321, 0.012047887, 0.12714188, 0.06333491, 0.08478387, -0.14839627, 0.10355319, 0.017004102, 0.087620184, -0.15422422, -0.05336284, -0.09858974, 0.03916432, -0.094350144, -0.09151151, -0.15610974, -0.002928272, -0.12734544, -0.09409419, 0.04522264, 0.05961874, 0.1189345, -0.007684171, 0.1415389, 0.15366988, -0.16822244, 0.02242963, 0.16533126, 0.14369707, 0.056891248, 0.055977255, 0.020378381, 0.033274516, -0.041749403, 0.16634043, -0.02393195, 0.0020370036, -0.15073146, 0.07236403, 0.00932537, 0.050287306}, 
{-0.039886296, 0.07826294, -0.11959105, -0.047342077, -0.094365865, -0.092703424, -0.041118756, 0.14131425, -0.023986325, 0.04636368, -0.081306875, 0.062414974, 0.14894651, -0.02781494, 0.17154424, 0.1623302, 0.12257804, 0.12597094, 0.17348464, 0.06747377, -0.17557669, 0.15502374, -0.16592143, -0.015134558, -0.14033206, 0.10650019, 0.13530897, -0.12498551, -0.10641957, 0.113392964, -0.07588131, -0.15260766, 0.017942503, 0.10576545, 0.0012474209, 0.08860268, -0.024241135, 0.16081463, -0.054568328, -0.11179915, 0.029423892, -0.027371928, 0.10297178, -0.16593257, -0.16149446, -0.03840889, -0.01915574, -0.04867278, 0.08478145, 0.1700487, -0.08696947, 0.14777152, -0.042849943, -0.11760176, 0.023744568, -0.15583119, 0.15853868, 0.14168115, -0.0054347515, -0.16953927, 0.09150733, -0.10350617, -0.11165151, -0.027975515}, 
{-0.15379424, 0.074327424, -0.062016163, -0.0675958, 0.13542275, -0.09716982, 0.14090303, 0.08728748, -0.050368972, -0.11301859, -0.14223617, 0.087642804, 0.06327687, -0.10765089, 0.15217173, 0.16299413, -0.045434967, 0.031108499, -0.15760404, -0.148849, -0.10995652, 0.035919234, -0.010706946, 0.15454718, 0.11973536, 0.0035354048, -0.046769768, 0.03101706, -0.09741122, 0.10627841, -0.025792839, -0.11115451, -0.043711036, -0.16629194, 0.053968154, 0.116312385, 0.00087302923, 0.07100107, 0.15790845, -0.016554728, -0.13719672, -0.018240595, -0.13283877, 0.13330488, -0.10896675, 0.09407838, -0.18761536, 0.07359357, -0.18014826, -0.047457565, 0.11513648, 0.14189962, 0.0009164444, 0.037794888, 0.03025733, -0.034719765, 0.059713807, -0.11198862, 0.15896307, -0.152222, -0.1298628, 0.050416276, -0.073748045, 0.041196354}, 
{0.096263155, -0.06298835, 0.102162175, 0.08744441, -0.1320448, 0.19515666, 0.05373844, -0.06801788, -0.17955366, 0.10907595, 0.22054598, 0.064115874, 0.07386968, 0.13084687, -0.12331794, -0.13199098, -0.21159777, -0.060957372, -0.01426602, 0.045807693, -0.085526004, 0.02058851, 0.06475185, 0.08769072, -0.1496139, -0.15535265, 0.086480305, -0.16027384, 0.07690883, 0.14684671, 0.066791944, 0.07114368, -0.02930628, -0.062316813, 0.18251069, 0.24532264, 0.08480249, 0.008745996, 0.19136688, 0.1687839, -0.020288438, -0.04239394, 0.15277211, 0.14009868, 0.113000885, 0.13253339, -0.123018034, -0.11225915, 0.035276394, 0.16314435, -0.15877734, -0.08070085, -0.036394596, 0.060649615, 0.063319944, -0.20481007, -0.14427775, 0.00076602434, 0.12819642, -0.05083474, -0.038034085, -0.06814606, -0.08759605, -0.10918203}, 
{0.14118823, 0.03937525, -0.15109025, 0.028484492, 0.12081124, 0.06184717, 0.054821238, 0.0046268594, -0.032242283, 0.16413684, 0.1685451, 0.019163119, -0.067860976, 0.03896278, -0.05809514, -0.040857404, 0.034020755, -0.1754473, -0.05157765, 0.03738216, -0.015000881, -0.022305857, 0.16297702, -0.1743088, 0.020972025, -0.05143702, 0.10086082, -0.013920732, -0.0016039461, 0.009852097, -0.11273608, 0.04016851, -0.17411089, -0.057846427, -0.17007904, 0.077315755, 0.12792425, -0.020355027, -0.113947354, 0.05717663, 0.12518917, 0.018902225, 0.16125032, -0.05366837, -0.04574029, 0.032876402, -0.057208534, 0.037076, -0.15554337, 0.13583149, -0.03497387, 0.041797847, 0.139291, 0.09232669, 0.13383768, -0.101235375, -0.13159882, -0.061390467, -0.11080672, -0.15157716, -0.046326596, -0.12858607, 0.08870407, 0.043690432}, 
{0.1288863, -0.15642557, 0.0395284, -0.0087674605, -0.16946965, 0.0070668296, 0.06666033, 0.047807235, -0.023038588, 0.0266283, -0.0069936654, -0.12922941, -0.13002409, 0.16438012, 0.14509828, -0.0005123764, 0.128918, -0.025408149, -0.13443394, -0.15061618, 0.15050715, 0.13298212, -0.016440183, -0.1479542, -0.1352681, -0.16046658, 0.17172869, -0.094574995, 0.058779083, -0.0062228935, 0.073835805, 0.13891017, 0.059041604, 0.1630205, 0.054388657, 0.0064297635, -0.11507046, 0.13976018, 0.14728475, 0.050411675, 0.08853121, 0.076526865, 0.080933906, 0.07532471, -0.14533362, -0.12394642, -0.038902763, -0.11751887, 0.14429253, 0.13885693, -0.15535736, -0.10104894, 0.14396986, -0.11519576, -0.16788131, 0.08224183, 0.020385416, 0.14394385, -0.04423752, -0.0590957, 0.13022701, 0.055524096, 0.16544993, -0.09239647}, 
{0.2500931, 0.07672645, 0.084929116, 0.13957858, 0.11238785, 0.17983562, 0.07335578, 0.036382154, 0.22586773, 0.09217508, 0.13260336, 0.09068977, -0.20304212, 0.10312174, 0.14388615, -0.024236202, 0.034864288, -0.094190896, -0.17583542, -0.041400198, 0.05717405, 0.10588537, -0.0030260235, 0.22060741, 0.07822441, -0.16654134, -0.021349788, -0.15554753, -0.05072929, 0.17384203, -0.15520047, 0.000119641714, 0.07193234, 0.060824376, -0.17844728, 0.19702993, -0.121333525, -0.062383465, -0.06298511, 0.22772627, -0.031646576, 0.055885386, 0.049868345, 0.2482517, 0.06390764, -0.15114462, 0.064567916, 0.19400267, -0.017838338, 0.114348315, -0.08505814, 0.17143999, -0.090935074, 0.16436547, 0.11595793, 0.03825749, 0.07006015, 0.22547787, -0.0038181096, 0.19067635, 0.16733755, -0.18012701, -0.16050173, -0.07980088}, 
{-0.06177445, -0.1000191, -0.066769876, -0.006336699, -0.035898194, 0.008225761, 0.16393636, 0.1313022, 0.01584191, 0.061360493, 0.022561783, 0.13363147, 0.059461832, -0.1482741, -0.16284251, -0.077437624, -0.032899886, -0.09306377, 0.09548041, -0.021435026, -0.09050062, -0.012924003, 0.0834444, 0.16392705, 0.12190356, -0.035332076, -0.14245693, 0.047880985, -0.071407706, 0.03317612, -0.009108737, -0.13928677, -0.16067956, 0.1146692, 0.014376287, 0.08057358, 0.13014244, 0.002668027, 0.13908124, -0.199816, 0.14348482, 0.22909588, -0.061555732, -0.1165051, -0.17408887, 0.06256817, -0.024362843, 0.19722255, 0.032621115, 0.03846657, 0.12335442, -0.20229489, -0.014572253, 0.11987541, 0.120764874, -0.0077218614, -0.089966945, 0.045339514, 0.111420244, 0.12712911, -0.11661502, 0.0076991664, 0.19363397, -0.15114245}, 
{0.00017932404, 0.16207248, 0.024431817, 0.015002018, -0.12665106, 0.15444125, 0.049864992, 0.045804273, 0.033575166, -0.12122984, -0.052033167, -0.17426687, -0.0885549, 0.052179486, 0.108866915, -0.07079271, 0.11297688, -0.017258242, 0.07853623, 0.0669769, -0.15029344, -0.12567317, 0.15195383, 0.13214862, 0.09248833, -0.09800061, 0.12825458, 0.16608088, 0.123504244, 0.14166883, 0.085614726, 0.039320745, 0.141476, -0.009776244, -0.1081831, 0.17302753, -0.11603558, 0.0480545, 0.12365434, 0.028604448, -0.057763986, 0.1246931, 0.15992127, 0.113231346, 0.03622517, -0.03892164, -0.015693469, 0.020631546, 0.12603761, -0.17796546, 0.08067175, -0.05776573, 0.06826691, 0.028257703, -0.083530076, -0.1046592, 0.028170453, 0.15098277, -0.16888829, 0.018218488, 0.13453558, -0.1325496, 0.16988483, -0.04284681}, 
{-0.07406897, 0.16150829, 0.14769161, 0.1625467, -0.07653484, 0.033710785, 0.019190144, 0.14942786, 0.023747114, -0.052043475, 0.048650295, 0.21908382, 0.020902468, -0.17037445, -0.049666174, 0.1558275, 0.08995632, -0.0390342, -0.24817048, -0.015169583, -0.20141025, 0.18179458, -0.0051383376, -0.10067867, 0.13059577, -0.17480688, -0.019360706, -0.018003238, -0.10211504, -0.10881264, -0.04567973, -0.0066903774, -0.017276848, -0.07337535, -0.027169997, -0.015667781, -0.0877427, 0.17911047, -0.112427145, -0.029482612, 0.012837207, -0.17425257, 0.062802814, 0.19907194, 0.095407024, 0.08315526, 0.25582668, 0.22348677, 0.02517412, -0.022097837, -0.15610048, 0.06572812, 0.07342357, -0.070127584, 0.084020644, -0.05274169, -0.06617077, -0.027215973, -0.04165622, 0.031171001, -0.17403118, -0.16717632, -0.21302843, 0.1717115}, 
{0.07509826, -0.16669704, 0.12460981, -0.16339387, 0.16681828, -0.14121704, -0.08734638, -0.12535599, 0.067875944, 0.088643596, -0.028108848, 0.06633887, 0.0069568953, -0.122932285, 0.006697871, -0.115477644, -0.121206954, -0.06334351, -0.07812873, 0.0665628, 0.0409669, -0.0254717, 0.12268682, 0.11305865, -0.021013614, -0.16759281, 0.12874316, 0.096380636, -0.021143366, -0.058940433, 0.02659286, 0.08594318, 0.090893984, -0.05912528, -0.032642487, 0.17674318, -0.008909002, 0.10126457, 0.099057496, -0.100815795, -0.063610554, 0.121252425, 0.14443594, 0.095503114, -0.020431861, -0.042368203, 0.16933765, 0.12081518, 0.1228302, 0.06739693, 0.120658435, -0.1478835, -0.0420359, -0.0007075101, -0.019615816, -0.16206643, -0.040842347, 0.13040549, 0.033238787, -0.00896225, 0.013835931, -0.044586435, -0.16721757, -0.05899216}, 
{0.2505627, 0.26471493, 0.080248825, 0.04280995, 0.15977167, -0.13798666, -0.06632654, -0.0910473, 0.27165586, 0.095216736, -0.15936151, 0.18772241, -0.1486364, -0.16013876, 0.10388657, -0.15455523, 0.059534464, 0.078504905, -0.11709868, 0.068509735, -0.16948704, 0.240368, -0.088916786, -0.0069755353, -0.16160758, 0.14405277, -0.123070315, 0.07436679, -0.12466312, 0.025129816, -0.3066592, 0.06743955, -0.05339524, 0.0647915, -0.24327776, 0.023569271, 0.002039656, 0.05084207, -0.0155583555, -0.074018314, 0.14140828, -0.18912356, -0.084401555, 0.046471965, -0.15746939, -0.14252682, -0.08822057, 0.07356318, -0.18488872, 0.118082546, -0.035186384, 0.08118405, 0.15635581, -0.14701287, 0.23608655, -0.020627432, -0.10301657, -0.12203801, 0.025869507, -0.044753734, 0.007681253, 0.011656513, -0.13261922, 0.12663992}, 
{0.015779972, -0.01367885, 0.07958998, -0.18249618, 0.15445586, -0.057363894, 0.21548212, -0.140258, 0.21508902, 0.016374394, -0.23104742, 0.23382698, 0.22075187, -0.05747001, -0.030301858, -0.051750347, -0.2190697, -0.18080227, -0.2805153, -0.016465625, -0.15937078, 0.030391436, -0.13848928, -0.13273734, -0.17149559, 0.024617895, 0.05476372, -0.040455446, -0.27227178, 0.07556547, -0.2561368, 0.024968514, 0.13893631, 0.0708891, -0.22538023, 0.048914194, -0.14911568, -0.14387947, -0.1183524, -0.022175975, 0.13323005, 0.12061393, 0.12531832, 0.18814048, 0.07253978, -0.16649796, 0.008495918, 0.14360471, -0.033063896, -0.02505172, -0.29288256, -0.22669815, 0.14919533, 0.09540296, 0.0026553764, -0.0018627138, -0.13166629, -0.1563864, 0.2567989, 0.25716472, -0.06769567, 0.015049155, -0.14301142, 0.058200303}, 
{0.1517718, 0.03021508, -0.037830375, -0.038257238, -0.1497228, -0.0005042409, 0.045701414, 0.085936196, -0.009103029, -0.17135568, 0.093158275, 0.049689155, 0.16083649, 0.0013004392, 0.08697104, -0.032615587, 0.016186794, 0.03564479, 0.09843254, 0.07688069, -0.01763341, 0.18702188, -0.08737088, -0.016448354, -0.024243457, 0.040871266, -0.009186879, -0.13690685, 0.12371934, 0.055183984, -0.07114755, -0.15689765, -0.06574209, -0.0049830195, -0.021570342, 0.1352418, -0.082431644, -0.09286777, 0.10480081, 0.017473646, 0.07962396, 0.12275627, -0.133744, -0.15685752, 0.08169483, 0.008884296, 0.07861721, 0.15077235, 0.15828495, 0.092016816, -0.04777923, -0.055513263, 0.068991244, -0.07650662, 0.0902277, 0.14202191, 0.15938418, 0.14618279, 0.15384477, -0.048856962, -0.048079193, -0.04592061, 0.08909539, -0.14848873}, 
{-0.14113158, 0.112947404, -0.06569427, 0.21904029, 0.16849883, -0.06188218, 0.07303964, -0.17052406, -0.026799452, 0.12300511, -0.07657112, 0.006883057, -0.20550177, 0.12136261, 0.16924274, 0.09231104, 0.10318787, 0.028461406, -0.14965104, -0.14055781, -0.11834286, 0.14646868, 0.1226155, -0.0036671907, 0.05066536, -0.11278952, -0.12432296, 0.015386532, 0.0375931, -0.23454468, 0.049337562, -0.04822304, -0.15305196, -0.07714826, -0.15052876, 0.05822269, 0.08843602, 0.051803995, 0.11177298, 0.22770521, -0.051897552, -0.05697289, 0.16285661, 0.2530637, -0.13884975, -0.17588305, 0.13107768, 0.060561296, -0.099592365, 0.2649287, -0.12286646, 0.007800713, 0.00037592862, 0.11797423, 0.0644414, 0.040546395, 0.040351953, -0.028451448, -0.13956802, 0.055869356, -0.047464, 0.0034829048, -0.16419072, 0.17988071}, 
{-0.06933548, -0.1537088, -0.1630404, -0.012536079, 0.114815935, 0.04446113, 0.17534323, 0.03647767, -0.0042405576, -0.07339911, -0.17012836, 0.060064733, -0.050435826, 0.0055038333, 0.05495578, -0.16719182, 0.12231837, 0.112488285, 0.07734768, -0.09757168, -0.08522573, -0.14011542, 0.035660446, 0.14852275, 0.10375546, -0.044446766, 0.0319895, -0.103044994, 0.12695308, -0.08986534, 0.120673075, 0.14597456, -0.0011929274, 0.07047336, 0.062276766, -0.03199692, 0.15655275, -0.090436265, 0.1084768, -0.15693104, -0.02909705, 0.1290933, -0.143772, 0.012853518, 0.1514407, -0.08650396, -0.14704044, 0.113030925, -0.00812225, -0.10375412, -0.114154905, -0.09296326, -0.108038135, 0.07618405, -0.09446904, -0.08058401, -0.032380447, 0.12769546, 0.024046421, 0.15386416, 0.103536144, -0.0016661882, -0.11394898, -0.1747367}, 
{-0.007764753, 0.117343545, -0.1280398, 0.086373836, 0.14443947, -0.13308978, 0.0049973126, 0.12710999, 0.023678344, 0.07658772, -0.15833335, 0.14445119, 0.0063765626, -0.0025205463, 0.18585767, 0.04127133, -0.010102226, -0.11664162, -0.21095626, -0.052949008, 0.02545344, 0.14209549, 0.012727544, -0.049847912, 0.0021527114, -0.14757289, -0.14711948, -0.12367117, 0.07411085, -0.19999121, -0.15549658, -0.07574676, -0.085276164, 0.17303012, -0.05290509, 0.09393158, -0.10521261, 0.17616925, -0.14910877, 0.096794195, -0.073666476, -0.13710622, -0.054177992, 0.11990485, 0.12614636, 0.06217423, 0.21817884, 0.19790852, 0.040436566, 0.034862425, -0.03792675, -0.002702846, 0.02004717, -0.088228986, -0.057505976, 0.11809508, -0.15482219, -0.06334799, 0.13507608, 0.018313158, -0.26508552, -0.1879969, -0.118029214, 0.020646349}, 
{0.056198098, -0.1268404, -0.144907, -0.031847768, -0.11298217, -0.15758082, -0.19772893, 0.124561675, 0.03234773, 0.0036861151, -0.043433353, -0.18893069, -0.21688044, -0.15335628, -0.1002833, -0.060573198, 0.12994342, 0.048725124, -0.12986144, 0.09225376, 0.29027194, -0.2206922, 0.080855235, -0.17752387, 0.04132787, 0.16872793, -0.006772876, -0.035685018, 0.12738551, -0.13572086, 0.02047076, 0.15393592, 0.105790764, -0.065617256, 0.060273852, -0.18949947, 0.088366225, 0.18392083, -0.09286055, -0.024275573, -0.036408354, -0.11352318, 0.008902197, -0.086563945, 0.0907986, 0.117050484, -0.04077191, -0.09252202, -0.2656255, -0.0758293, 0.06254364, 0.13950355, -0.053737983, -0.06459846, -0.054981116, 0.14213724, -0.015319118, 0.20034319, -0.07531475, -0.033585303, -0.16220151, -0.17251278, 0.1509056, -0.13429092}, 
{0.03932549, 0.017931914, -0.02727145, -0.042863864, -0.17231844, 0.07269859, -0.027394645, 0.12972172, -0.14060166, -0.042771503, -0.15783039, 0.085414566, -0.0528135, 0.03658852, 0.005492062, -0.15374534, -0.039366998, -0.04733862, -0.086864315, -0.16522638, -0.023449926, -0.07472969, 0.14664038, -0.09141086, -0.13967979, 0.0313541, 0.087436035, -0.050909266, -0.14490211, -0.020376736, 0.079548985, 0.11868149, -0.046234075, -0.16716287, 0.01575841, -0.12584618, 0.08275099, -0.059768938, -0.00893463, -0.13990965, -0.038966283, -0.08514209, -0.07581823, 0.11753638, -0.06081263, 0.16735594, 0.054506004, -0.040886, 0.011199205, -0.11707777, 0.155709, 0.10192594, -0.027756318, 0.0656489, 0.0037764013, 0.08561227, 0.16585049, 0.05956975, 0.14495842, 0.0055547804, 0.12079088, -0.063212514, 0.15065525, -0.10233913}, 
{0.05883734, 0.07882957, 0.16952972, -0.08715171, -0.11977658, 0.11995874, -0.017018184, 0.14418261, -0.033504426, 0.14433323, 0.15127383, -0.09955975, -0.1406308, -0.090486206, 0.05005081, 0.10299249, 0.09494324, 0.110050276, 0.06842482, 0.1634212, -0.09183528, 0.010071784, 0.07358195, -0.1537321, 0.12950878, -0.09782271, 0.01271452, 0.17345043, -0.16316044, -0.14330329, 0.16783275, 0.09364472, -0.07914942, 0.13320445, 0.16917099, -0.08876535, 0.088218525, 0.068295255, -0.112150826, 0.130621, -0.10789888, -0.16328368, -0.077931374, -0.108973496, -0.06307158, -0.008779824, 0.020880356, 0.008349791, 0.07153137, -0.038579702, 0.16546987, 0.024591416, 0.09492411, -0.091648445, -0.075058475, -0.104089186, -0.04775314, 0.023876056, 0.13823314, -0.087575376, 0.16321535, 0.10791807, -0.15217721, -0.129608}, 
{-0.025380189, -0.08461681, -0.17028989, 0.14843698, -0.09812166, -0.13323177, 0.1445681, 0.04462682, 0.1697674, 0.1624745, -0.17635147, -0.041523937, -0.13501424, -0.1292034, 0.11441593, -0.16086853, 0.01567631, -0.16452916, -0.1339697, 0.04591773, 0.01000356, 0.09572074, 0.11854805, -0.06641319, 0.09859331, 0.17502145, -0.07888204, -0.06445505, 0.05363753, 0.16760522, 0.0345282, 0.0324755, 0.13322805, -0.12401026, 0.14440826, 0.06899319, 0.07558237, 0.09557977, -0.039235473, -0.0014157266, -0.12187047, -0.07945507, -0.026619967, -0.11307829, -0.12601376, -0.08949677, -0.11568231, -0.022868993, -0.18241523, 0.18159401, -0.048722234, 0.061573587, -0.1721773, 0.13056618, -0.032091383, -0.01599232, -0.0067134975, 0.14009249, 0.012718431, 0.03245135, -0.073178254, -0.027400166, -0.0978173, -0.011027998}, 
{0.13521196, 0.11865701, 0.06293765, -0.037999682, -0.005280122, 0.13325973, 0.26726812, 0.15092108, -0.07458534, -0.030305147, -0.1539514, 0.25731453, -0.09087646, 0.030994251, 0.051499184, -0.0030344874, -0.042422216, -0.10797405, -0.11814522, -0.0012294255, -0.19787759, 0.20101029, -0.1511898, -0.06924281, -0.161811, 0.1324249, -0.019349158, -0.11241249, 0.098385744, 0.102578886, -0.025962515, 0.07128971, 0.008897078, 0.15797976, -0.07226782, 0.25830802, -0.09171129, -0.22788939, 0.030150212, 0.20551668, -0.13920502, 0.15796737, -0.147918, 0.1866878, 0.14710309, -0.15886694, 0.17653567, -0.068270214, -0.13225721, -0.1095692, -0.026539002, -0.04359633, 0.08576947, -0.1430941, 0.26161447, 0.10637686, 0.1107583, -0.113959, -0.073043056, -0.044580985, 0.104989976, -0.18534933, -0.20654002, -0.1496908}, 
{0.14151631, 0.0070746522, 0.07190052, -0.028581573, -0.0120860785, -0.15599178, -0.09449899, 0.16399056, -0.13401829, 0.08399998, 0.15390806, -0.01509045, 0.08971564, -0.096612126, -0.07530346, -0.086516015, 0.057338737, -0.10696731, 0.0607347, 0.047298774, 0.01894066, -0.0033276484, 0.13383417, -0.16497836, 0.1523265, -0.1630259, -0.1407916, -0.17681617, -0.009212798, 0.13289069, 0.055335548, 0.047840647, -0.022329364, -0.13457775, 0.0417947, 0.06845761, -0.10401501, -0.12388291, -0.02589155, -0.04242734, 0.13649358, -0.117352076, 0.11136176, 0.071996905, -0.13333897, 0.14242755, 0.027698377, 0.13550344, 0.05627983, 0.17418158, -0.08359801, 0.03212594, -0.16156861, -0.054272722, 0.016899547, 0.15950552, 0.14040294, -0.10075768, 0.13282472, 0.08453483, 0.15734403, -0.03976336, -0.12468958, 0.07015759}, 
{0.15050407, 0.15503721, 0.12712921, 0.16908032, -0.068268664, 0.09963495, 0.0057759783, -0.031176955, -0.031530138, 0.1649649, 0.037567746, -0.16680016, 0.0060087442, -0.11444846, 0.071259364, -0.015995234, 0.14481553, 0.012840718, -0.1446068, -0.031685002, 0.053988308, -0.06771203, -0.17661986, -0.11544956, 0.086266845, -0.04118055, -0.15385686, 0.04365647, 0.10042467, -0.05068159, -0.15370098, 0.16116594, 0.08805013, 0.044771075, -0.16577409, -0.12610304, 0.14635561, 0.16802761, 0.01458812, -0.07793544, -0.09415863, 0.07113353, 0.0037175147, -0.04230182, 0.08388446, -0.0033569485, 0.025949042, 0.06532658, 0.16434065, -0.05792141, 0.07516039, -0.11150023, 0.031404823, -0.0998501, 0.06427723, -0.059626468, 0.15777458, 0.13784197, 0.13238393, 0.16067962, -0.09929753, 0.15235765, 0.13760462, 0.12457888}, 
{-0.20665242, -0.009770713, -0.030194374, 0.0018835824, 0.07344602, 0.005062359, -0.043237787, 0.0948171, -0.16937296, 0.1356235, 0.06779172, 0.019221703, 0.07081497, -0.12506613, -0.09444366, 0.061714783, -0.06744134, -0.08377427, -0.05506938, 0.08378774, -0.068389066, 0.1121183, -0.0012954324, 0.07119121, 0.026594276, 0.06525038, -0.0481942, 0.1531822, 0.21812192, 0.024819314, 0.18979497, 0.10921558, -0.15576616, -0.018056357, -0.124223866, -0.058561146, -0.03498955, 0.11562454, -0.15087737, 0.22411405, 0.14270693, -0.16653138, -0.028026626, -0.072939, 0.033784613, 0.12376867, -0.0492239, -0.11521151, -0.15849102, 0.1310985, 0.21818231, 0.04148197, -0.14568964, -0.039705157, -0.006117956, 0.13926603, 0.07033804, -0.14578114, -0.11599202, 0.0032685534, 0.1920253, -0.1453514, -0.0566635, -0.085780606}, 
{-0.12641071, -0.115925334, 0.16347717, -0.10157112, -0.13526365, 0.08787204, 0.040673, 0.14517047, 0.11855082, -0.08004635, 0.12094207, 0.12380594, 0.06344327, -0.053986616, -0.0368207, -0.16886893, 0.10790755, 0.12162085, 0.095206365, 0.12678373, 0.16798404, -0.123066016, -0.14251295, -0.04807486, -0.028219352, 0.041091412, -0.14101104, 0.029223785, -0.08670428, -0.17161901, -0.031202083, 0.09588236, -0.05478759, 0.03539075, 0.06778069, 0.1511652, -0.12891899, 0.12300776, -0.11538614, 0.07254953, 0.017710105, -0.17326346, 0.14622253, -0.1378877, -0.047275618, -0.09994931, -0.04099042, 0.11873378, -0.14206177, -0.06710328, 0.014187319, 0.022225052, -0.096676774, 0.11361075, -0.052002423, 0.055509087, -0.07265965, 0.009210892, -0.071940705, -0.008488923, -0.09479345, 0.07325713, 0.08441018, 0.11849048}, 
{0.17227845, -0.0034163112, -0.095451035, 0.06132979, -0.074868694, 0.030517751, -0.052917667, -0.14454962, -0.027977733, 0.0059832036, -0.04068494, 0.048828878, -0.10959523, 0.018577188, -0.19104253, 0.05930513, -0.044767737, 0.026189618, 0.014586656, 0.26108176, -0.15608244, 0.015740762, 0.11041619, 0.04797661, -0.107714355, 0.080312595, 0.0654082, 0.01555871, 0.035591513, 0.1430816, -0.03628468, 0.038948245, 0.026007239, -0.14821805, 0.03308642, 0.1670352, 0.11779277, -0.106270455, -0.03589894, 0.05528702, -0.07478234, 0.063632, -0.16538036, -0.11368534, -0.10929664, -0.017327785, -0.1659339, -0.040178265, 0.012609467, 0.01946122, 0.08705363, -0.027968053, 0.014096739, 0.16505405, 0.107714705, -0.03465107, 0.037900202, 0.227895, 0.27264625, 0.094450414, 0.04759318, -0.13071214, -0.03455168, -0.12694201}, 
{0.123096675, 0.1763049, -0.012459412, 0.15661354, 0.07557504, 0.069875166, 0.1567023, -0.12025208, -0.17364335, -0.0965524, 0.01445297, 0.03341368, 0.17596075, 0.0941778, 0.15383635, 0.054200217, -0.018651174, 0.07987474, -0.070056476, 0.10228645, 0.00793567, 0.17225759, -0.017177284, 0.100204326, -0.013570532, 0.1271532, 0.06356275, -0.1504841, -0.008455866, -0.0056622224, -0.15789975, -0.16990578, 0.15678333, 0.17342164, -0.053255353, -0.07444573, 0.07160872, -0.015533244, -0.011245787, -0.17500338, -0.12052578, -0.007922813, -0.12357232, 0.035014927, -0.09504144, -0.054039426, 0.12988155, 0.09301821, 0.14672048, -0.021599056, 0.0072637103, 0.09114152, 0.09771015, -0.0977259, -0.11452854, 0.04267484, -0.10438931, 0.11933974, -0.054983765, -0.16801688, -0.1567678, -0.08381503, 0.012049495, -0.13316233}, 
{-0.22073914, 0.071027, 0.21450369, 0.22417298, 0.10629584, 0.08127729, 0.18602006, -0.13999408, -0.13166213, 0.17629762, -0.04952506, 0.15879652, -0.063564986, 0.007058203, -0.03730327, 0.0053763837, -0.022334341, -0.11836462, 0.23271693, -0.023456542, -0.08039956, 0.28373218, -0.008483395, 0.014582396, 0.18133098, -0.11670759, 0.044639617, 0.00011121924, 0.06869452, -0.007910296, 0.12378252, 0.17560232, -0.06123039, 0.16911449, 0.06272857, 0.23051001, -0.048277065, -0.0053396146, 0.10783681, 0.10706755, 0.0897959, -0.07676233, -0.1612412, 0.1678548, 0.12640195, 0.07181962, -0.011949117, -0.15311079, 0.0078091105, -0.036895026, 0.14699101, -0.03180131, 0.04488425, -0.1334046, 0.042619973, -0.036111586, -0.04097175, -0.15496539, -0.19294517, -0.12577428, 0.26689258, -0.10974455, -0.22083917, -0.0072703785}, 
{-0.17431882, -0.05847846, 0.054237217, 0.010234937, 0.10320963, -0.047265247, -0.03955874, -0.11091369, -0.11837128, -0.10434847, -0.1601571, -0.042970777, -0.025738746, 0.17656748, 0.09511717, -0.004923299, 0.06446132, -0.012925088, -0.027928486, 0.038312703, 0.12064852, -0.034769386, 0.032817304, 0.16826822, -0.06398823, 0.06518014, 0.1500655, -0.026405126, -0.14647855, -0.07011242, -0.05482664, 0.016755477, -0.1195454, -0.0031471103, -0.018734694, 0.13831149, 0.011136666, -0.006693125, 0.17292528, -0.09008783, -0.14487043, -0.06507667, 0.07017858, -0.062717795, -0.040324837, -0.08414235, -0.025339529, -0.1371337, -0.0024695545, 0.070151746, -0.07583807, 0.14355333, -0.14726809, 0.10447402, 0.056370527, -0.049658254, -0.11374929, 0.153167, 0.026513785, 0.06122057, 0.023054749, 0.04223278, 0.016021281, -0.08165939}, 
{0.18016689, 0.23944126, -0.016333405, -0.008047017, 0.05595365, 0.00805453, -0.079518676, 0.054390598, 0.1508892, -0.006541446, 0.096778646, 0.16027434, -0.0963138, 0.0063063055, 0.21674897, -0.15068907, 0.20680691, -0.16188917, -0.16094252, 0.089096636, 0.051596105, -0.17271958, -0.16068974, 0.16027711, 0.1660199, -0.0043791924, -0.13497402, -0.09185824, 0.07180482, 0.12414568, -0.044511482, 0.012081792, 0.005711471, -0.100815035, -0.0025205896, -0.19352451, -0.1224615, 0.17474781, -0.15560456, 0.087031335, -0.15439232, -0.03913397, -0.11568109, -0.074625276, -0.06563335, -0.0132229775, 0.20712821, 0.014628411, -0.18938732, 0.054979887, -0.16371028, 0.2182717, -0.12611355, -0.17417972, 0.045436, -0.11058864, -0.09015731, 0.08365615, -0.024258517, -0.07358468, -0.12776312, -0.1404446, -0.18135709, 0.13346238}, 
{0.1347701, 0.11192931, -0.18951683, 0.0370205, 0.08331753, 0.09246149, -0.21057777, -0.12135659, 0.06121349, 0.009451762, -0.010181937, -0.08288175, -0.056901827, -0.12611015, -0.20064145, -0.1516739, -0.1775525, 0.11118476, -0.09228057, 0.24087511, 0.09471325, -0.2546683, -0.12911598, -0.0705971, -0.09983582, -0.10217031, 0.10270025, 0.073344335, 0.08038064, -0.03896324, -0.030997891, -0.08296005, -0.035736293, -0.14327681, -0.050697315, 0.101195924, -0.1677023, 0.11052888, 0.086671874, 0.009678884, -0.07459039, 0.03724769, 0.06345786, 0.07807689, 0.08107819, -0.14924793, -0.142451, 0.20183463, 0.044843003, -0.23592082, -0.12341638, -0.077113874, 0.06870485, -0.12540776, 0.034566466, -0.24415676, -0.02160018, 0.26739085, 0.0043734615, 0.11619452, 0.14901036, -0.06174845, 0.20067015, 0.057244167}, 
{0.076517485, -0.13236763, -0.16901274, -0.09529675, 0.007928073, -0.12863837, 0.15546311, -0.035345323, 0.022363365, -0.13380039, -0.07242237, 0.11049148, 0.1462423, 0.023470566, 0.081627555, -0.10655701, 0.16520776, -0.16760242, -0.15982068, -0.06572949, 0.11825556, -0.105698004, 0.16632457, 0.18198141, 0.008780174, -0.1760384, -0.038768813, 0.14004534, -0.1321612, -0.09207655, 0.09806122, -0.01953355, 0.052567746, -0.029013261, 0.08353833, 0.01264442, -0.05212178, 0.03656192, 0.0518481, -0.15421313, -0.16809107, -0.015951546, -0.08400486, 0.15830608, -0.018529192, 0.1115648, 0.019932374, 0.16158596, 0.10752088, -0.069848165, 0.16976522, -0.095754966, -0.12005378, -0.16183113, 0.068543, -0.03196759, 0.045460917, 0.100915834, 0.02522029, 0.11357932, 0.059685796, 0.09641285, -0.085467614, 0.121168114}, 
{-0.12944596, -0.1520903, 0.24010274, -0.15238115, -0.14086232, 0.022080816, 0.10558559, 0.03428175, -0.10845381, -0.027759984, 0.05408741, 0.030778734, 0.25479123, 0.0069515705, 0.032453764, -0.12691739, -0.22925274, 0.060302153, 0.19297089, -0.046863075, -0.14811255, 0.08545964, -0.06333496, 0.11729109, 0.058402024, -0.16673246, -0.03719333, 0.14891501, 0.23729125, 0.1296789, 0.2556532, -0.031230483, 0.15007879, 0.041629367, 0.073600546, 0.098731644, -0.074727796, -0.12512158, -0.04339634, 0.16643997, -0.021248057, 0.22434177, -0.08470557, 0.081843734, -0.05309774, 0.16213404, -0.0927748, -0.1974083, 0.12434016, 0.21914572, -0.0076611745, 0.04636084, -0.093155295, 0.08282568, 0.2593546, -0.019563664, 0.14763135, 0.11478083, 0.014607369, -0.0113975685, 0.28627345, 0.14803845, -0.14597808, 0.13464242}, 
{-0.04486346, -0.06863119, -0.1410882, -0.1936105, 0.028951898, -0.18757445, 0.089977376, 0.10430029, 0.12710239, -0.108407214, 0.036544155, -0.039928168, 0.101673625, -0.12521559, 0.15375026, -0.16342086, -0.046856403, 0.0745825, 0.121527664, 0.18856947, 0.2414266, 0.15533921, -0.13629532, 0.00195104, -0.05509985, -0.1004864, 0.028944775, -0.095464885, 0.022401681, -0.10710335, -0.04571816, -0.14823261, 0.12439335, 0.01607245, 0.07481105, -0.026155831, 0.16592412, -0.10754161, 0.14785661, 0.017778112, -0.0015198698, 0.058211587, 0.1591436, 0.052375045, 0.090675905, -0.10806279, 0.20537561, -0.038845204, 0.15867588, -0.08968185, 0.1509637, 0.07227393, 0.11069391, 0.14640678, -0.07669308, 0.03848454, -0.047195792, 0.20524651, -0.031418387, 0.15794516, 0.10793409, 0.13790649, 0.20468697, -0.010559063}, 
{0.012734988, -0.19611536, -0.17681563, -0.2539399, -0.06516644, -0.25850558, -0.018212223, 0.08758334, 0.09800416, 0.034563825, -0.037314143, -0.34170043, -0.06914919, -0.16440423, -0.002678955, -0.17270724, 0.021280395, -0.07283712, -0.20971106, 0.26213613, 0.18322122, -0.19633205, -0.17580268, -0.28154442, -0.17755093, -0.00042480993, -0.1113596, -0.10311441, 0.06550182, 0.041705765, -0.02047534, -0.05876512, -0.16645695, 0.11651123, -0.04046797, -0.15255669, 0.0069420934, 0.11284464, -0.01452658, -0.09168196, -0.033537433, 0.071670875, 0.05549419, -0.011929894, -0.02713722, -0.0838882, 0.08883293, 0.11760943, -0.28345037, -0.004923616, -0.07977993, 0.2160257, -0.12656064, -0.1703354, -0.07512098, 0.083876826, 0.1579851, 0.0238223, -0.08378156, 0.025919227, -0.23659706, -0.11758088, 0.17624883, -0.13218817}, 
{-0.0030888002, -0.1976607, -0.09401799, -0.105014905, -0.08730901, 0.08827482, 0.039633557, 0.12837726, -0.024537476, -0.14565524, -0.06625091, 0.12872003, 0.022280825, 0.07722171, -0.09768737, 0.12552832, -0.08056723, 0.14697511, 0.23224226, -0.104807205, 0.032503176, 0.13153915, 0.02068238, -0.2124983, 0.046525232, -0.095725395, 0.065064326, -0.07812921, 0.112922534, -0.0502846, 0.22747439, -0.11422936, 0.00392887, -0.0821118, 0.15101857, 0.0073572244, -0.025447637, -0.11360687, -0.014434712, -0.17161986, -0.15820636, 0.26232627, -0.17794676, -0.023175452, 0.11299227, -0.08256429, 0.23824294, -0.111719996, 0.041668996, -0.08236796, 0.24482839, -0.19974944, -0.14428051, -0.02594191, -0.19771132, 0.17266198, 0.1385261, -0.25138584, 0.1207111, -0.19065021, 0.07763329, 0.07907802, 0.25482664, -0.1428832}, 
{0.050591446, -0.00293965, 0.088864125, 0.1551362, 0.13073783, 0.0053453706, 0.050879244, -0.13532515, -0.1495173, -0.12566403, 0.052170273, -0.12134973, -0.13186556, -0.15611432, 0.046091326, 0.17201011, 0.08897779, 0.11527337, 0.17828947, 0.017695887, 0.123644084, 0.04379716, -0.008014262, -0.12774207, 0.1703487, 0.044797793, -0.072755955, 0.05629971, 0.054782864, 0.1594802, 0.0945691, 0.101410024, -0.13825436, -0.12574275, -0.074519575, -0.007528365, 0.039280653, 0.1426794, 0.050216667, 0.13540362, -0.026634112, -0.027062945, -0.0588555, 0.028470771, 0.017078698, 0.079237, -0.18535732, -0.11377269, -0.031286478, 0.13656588, -0.1398394, -0.03714013, -0.02189917, -0.07917982, -0.0050729048, 0.15723674, 0.1135625, -0.12053619, -0.121375814, 0.11365205, -0.05798419, 0.16046442, -0.09245293, 0.14459826}, 
{-0.18866143, 0.13141909, 0.27498493, 0.11713762, 0.15616323, 0.024346456, 0.16158855, -0.16046582, 0.042003367, 0.080262676, -0.057702236, 0.2098052, 0.010576364, -0.036570698, 0.13160318, -0.1594334, -0.15701948, 0.16351649, 0.17901632, 0.057217784, -0.09326991, 0.28164503, 0.033150136, -0.07763166, -0.03663105, 0.0032940817, -0.060740523, 0.15636694, 0.09062606, 0.16952085, 0.16846931, -0.110932425, -0.09207671, 0.06886453, -0.07296434, 0.22761394, -0.09316826, 0.01357884, 0.108884454, -0.07051059, 0.1303991, 0.16576059, 0.16262566, 0.1429693, -0.022593364, 0.06724374, 0.05451446, -0.09299962, -0.010167413, 0.26466954, -0.13186976, -0.01445824, 0.07038273, 0.16096643, 0.08748465, 0.23368879, -0.16826321, -0.22465552, 0.14066568, 0.0518863, 0.039390925, 0.07258353, 0.13870351, 0.082896814}, 
{0.03519079, 0.0760483, 0.095286146, 0.09536168, 0.05979179, -0.115326025, -0.11458841, -0.0746644, 0.15504746, 0.09022598, 0.07814637, -0.07991998, 0.04351956, -0.07830686, -0.15477389, 0.15020083, 0.04698355, -0.11414302, -0.06536921, -0.14813676, 0.10037878, 0.06427415, -0.14418626, -0.14152703, -0.12848702, -0.10221525, -0.11618933, 0.15516588, 0.07793255, -0.15077585, -0.07777389, 0.07376963, -0.09509308, -0.08126163, 0.07554068, -0.0719659, 0.022418126, 0.10542834, 0.08546709, 0.11657529, -0.16078155, 0.098396525, 0.08565393, 0.025554651, -0.17097016, 0.10256587, -0.03776752, 0.15401554, -0.13695033, 0.0541326, 0.13387606, -0.023753911, 0.01658018, 0.12157017, 0.08354534, -0.026228903, -0.14537759, 0.053504407, -0.12923792, 0.10498967, 0.042305935, 0.023244113, -0.14837614, 0.015842916}, 
{-0.061438173, 0.055814862, 0.019933611, -0.08819519, -0.00885649, -0.12337436, 0.0064816326, -0.06652838, 0.030261815, -0.00086325407, -0.12980846, -0.14637335, -0.10374641, 0.025388166, -0.12293565, -0.1380464, 0.07729842, 0.08453436, 0.10966398, 0.12929805, -0.06979876, -0.010808095, 0.028175667, 0.15505324, 0.062811404, 0.10344492, -0.005783558, 0.13637172, -0.15147185, -0.08311169, -0.0021591783, 0.035441488, -0.0142584, 0.10450564, -0.0638684, 0.087856635, -0.16180365, 0.028312862, 0.0069566816, -0.16444634, -0.03901875, -0.11971842, 0.029677242, 0.037640333, 0.15811665, -0.053119108, 0.1595736, -0.05776891, -0.05436358, -0.01300247, -0.04366401, 0.025523588, 0.09794621, -0.146252, -0.0125823915, 0.08894928, 0.12628092, -0.008741811, 0.015146315, 0.032861188, -0.10844557, -0.14155534, -0.082189724, -0.1361773}, 
{-0.16811396, 0.071373746, -0.10772566, 0.17253368, -0.17107135, 0.081628665, -0.1309234, 0.15158464, -0.004321575, -0.13773122, 0.067711264, 0.06172158, 0.014183089, 0.09843172, -0.11498727, -0.036103368, 0.0023492277, 0.09009482, -0.10044462, 0.11007585, 0.13063402, -0.16589758, -0.13043413, -0.15570273, 0.10681276, -0.08839909, -0.033594072, -0.08118878, -0.1460679, -0.068582155, -0.062063597, -0.057866186, -0.07611409, 0.013097674, -0.117080234, 0.12227307, 0.0064128935, -0.17368059, -0.11422057, -0.010410607, 0.024880797, 0.084496215, -0.0833982, -0.1226507, 0.12360434, 0.09777816, -0.06378496, -0.01066564, 0.06423104, -0.1014435, -0.096838914, 0.14823763, -0.10477626, -0.00043174624, 0.038617685, -0.06621624, -0.0014584064, 0.09398599, 0.12616836, 0.014414892, -0.09735522, 0.17529492, 0.17184378, -0.018645853}, 
{-0.14292689, 0.12893313, -0.025663719, -0.11540758, 0.13105832, 0.05759835, 0.066598, -0.05536291, -0.010467382, 0.025036529, 0.09150772, 0.084849626, 0.09060122, 0.02503097, 0.16369092, 0.17044376, 0.16722998, -0.15244338, 0.17758733, 0.1590527, 0.14119382, -0.028732613, -0.09590157, 0.1433695, 0.1284853, 0.1405914, 0.13289587, 0.006049898, -0.067143135, 0.11068269, -0.09579862, -0.097688094, 0.012352608, 0.060135342, 0.05991154, 0.07123477, -0.1520372, -0.021153586, -0.16240096, 0.121437095, 0.16496031, 0.044115085, 0.02581004, -0.09849193, -0.07987704, -0.043708265, -0.13993864, -0.1772877, -0.14182189, -0.07714556, -0.1679766, 0.031334396, 0.11654399, 0.03629716, 0.105426386, -0.1540312, -0.058039855, 0.046413507, -0.14539184, 0.10731368, 0.09708393, -0.028078228, -0.053431693, -0.05618545}, 
{0.09078927, 0.08435891, -0.03229317, -0.07490674, 0.014291614, -0.16448243, 0.0326222, 0.030672098, 0.100502096, -0.16833422, 0.0044120643, 0.060396746, -0.16655718, -0.08142893, -0.018412475, -0.10073274, 0.1381175, 0.095966294, -0.09254554, 0.15944687, -0.019984026, 0.0948831, -0.08857826, -0.0029706226, 0.12699497, 0.12067579, 0.124469325, -0.10146483, 0.12142225, 0.16937469, 0.09633084, -0.048448727, 0.04817642, 0.0061626285, -0.060807157, 0.022712076, 0.06417097, 0.1218022, -0.0738911, 0.020389058, 0.010087296, 0.16606903, 0.059160925, -0.12244873, 0.006713107, 0.032961026, 0.0681724, -0.11266167, -0.06455658, -0.056507565, 0.0651551, -0.15128347, -0.13206924, 0.04460271, 0.039200693, 0.16673908, -0.13146344, -0.12474407, 0.06530771, -0.16355383, 0.11199415, 0.053958505, 0.08565798, -0.025642354}, 
{-0.005621257, 0.059053425, 0.23742814, -0.17205732, -0.071257256, 0.24840543, 0.076060824, -0.15106699, 0.15061569, -0.1064237, 0.026615774, 0.34023136, 0.28538385, 0.009151429, -0.12382344, -0.045013845, -0.03022133, 0.04356086, 0.017032161, -0.1104666, -0.1125825, 0.05657283, -0.15042682, 0.038225453, 0.095770694, -0.071760945, 0.031099066, 0.006805241, 0.14501524, 0.26576716, 0.038181167, -0.1513146, -0.11528868, -0.09465474, 0.13385613, 0.2273958, -0.11626208, -0.2882286, 0.11651103, -0.02569254, -0.07357979, 0.04694428, 0.0006731827, -0.028926358, -0.13563809, -0.16486363, 0.041557293, 0.042475987, 0.2994423, 0.10992872, -0.2317245, -0.24987675, 0.03967734, 0.06359545, 0.15956576, -0.024593372, 0.0007029752, -0.15412615, 0.19574717, 0.012459561, -0.05046166, -0.025988, -0.14349765, -0.09148161}, 
{0.06858498, 0.08067189, 0.028732479, 0.09581809, -0.09187305, 0.11993943, -0.10682123, 0.14451455, -0.11824821, -0.06749843, 0.15192808, 0.0041708946, -0.050183415, -0.007743478, -0.031852484, 0.1115012, 0.14688732, 0.06127499, -0.04114835, -0.1584257, 0.16314633, -0.049325004, 0.039253682, -0.10201476, 0.122075304, 0.15337585, 0.14398165, -0.04306282, 0.05942604, -0.16158026, 0.1134779, -0.019989789, -0.16894004, 0.10311453, 0.12023799, -0.11839867, -0.15231036, 0.13161002, 0.12516932, 0.14481397, -0.13105348, 0.080826744, 0.017550573, 0.07337378, -0.06679011, -0.072727084, -0.12110947, 0.15286075, -0.08786741, 0.17514928, -0.120558485, 0.03762892, -0.13414128, -0.10171817, -0.028763741, -0.066972904, -0.12373139, 0.09050356, 0.1689998, 0.16136609, 0.016078264, 0.17066415, 0.14860229, 0.010421738}, 
{-0.16785395, -0.15525569, -0.1087105, -0.07453637, -0.08353391, 0.12094194, -0.16796845, -0.059309244, -0.016461492, 0.054607898, -0.042414546, -0.03754455, -0.08017925, -0.09849309, 0.035110604, -0.07030891, -0.04963546, -0.005396068, 0.005334101, -0.075271055, 0.08781148, 0.04733224, -0.04742603, -0.022307513, 0.090244934, -0.06102805, -0.12905015, 0.14480048, -0.03461855, 0.039491605, -0.12501301, -0.0767836, 0.041196544, 0.10801824, -0.021503156, 0.056938156, 0.06959237, 0.05772604, 0.08344918, 0.104906045, 0.0117139965, 0.12206242, 0.116531536, -0.1291518, 0.045499206, -0.014811084, -0.0073497, -0.006619528, 0.16554014, -0.00462849, -0.06621782, -0.10715055, -0.08565686, 0.14010741, -0.05659487, -0.04757964, 0.023118837, -0.11385907, -0.083644964, -0.0761707, -0.12694179, 0.046064362, 0.04104756, -0.05452519}, 
