{{0.002305633, -0.062347636, 0.090045534, -0.033752114, -0.10844364, 0.22529495, 0.030906305, -0.06299099, -0.022416063, -0.19525456, 0.09898773, 0.058461502, 0.046583585, -0.026367662, 0.023374915, -0.0035826864, -0.005899729, -0.038836095, -0.14292812, -0.10897554, 0.01687853, 0.0768612, -0.10770735, -0.093417674, 0.037166055, 0.10040207, 0.04164727, -0.113804445, -0.12048776, -0.10630178, 0.0029566677, -0.015810655, 0.06920332, -0.1549688, 0.0823621, -0.06741427, 0.16357005, -0.11075384, 0.031202493, 0.029711932, 0.017827805, 0.0008211475, 0.06402269, 0.09135877, -0.08702183, 0.0013716072, 0.00872346, -0.0248904, 0.06217888, 0.024145653, 0.00465169, 0.06183359, 0.029932618, -0.07925688, 0.04932724, -0.07283287, 0.012303417, -0.064874314, -0.095833845, 0.08953884, 0.032532245, 0.023841187, 0.0065971958, 0.09722823}, 
{-0.027041964, -0.006504208, -0.021899361, 0.066241845, 0.03639141, 0.1291889, -0.039257392, 0.076058, 0.043853343, -0.081052534, 0.03950196, 0.0043177307, 0.11596466, -0.07681588, -0.012651511, 0.023969283, -0.03990435, 0.07366049, -0.023708047, 0.019079322, -0.020363465, 0.063936114, 0.03805472, 0.04654197, -0.026871288, 0.008591481, -0.099872164, 0.005001816, -0.11134217, -0.073332675, 0.08007875, 0.06972094, 0.106829286, 0.08270594, 0.03748448, -0.012168867, 0.015157907, -0.06358799, 0.10804598, -0.004131928, -0.048659496, 0.0822791, -0.099420875, 0.0970113, 0.07619472, -0.113185816, -0.0026391894, -0.09491833, 0.06806213, 0.10325836, 0.03050957, -0.11332103, -0.08709107, -0.07916071, 0.04277706, 0.03590828, 0.048490323, -0.033202037, 0.060651552, -0.026202044, 0.009545974, -0.031823754, 0.10107645, -0.04657859}, 
{0.10142007, 0.01684615, -0.01336913, 0.031904012, -0.014320764, -0.048449904, 0.0413423, -0.05333091, 0.044839367, 0.059837002, -0.07689084, -0.089921266, 0.078255385, 0.045586817, -0.021138206, -0.1406606, -0.11473284, 0.074185856, -0.10801758, 0.07909141, -0.059698146, 0.057959396, 0.094145566, -0.007962451, -0.048958305, 0.0027250499, -0.06528165, -0.039345156, -0.05887696, -0.030190155, 0.040811248, -0.10132519, 0.09834278, 0.06589345, -0.056602072, -0.06797638, 0.08031672, 0.10055657, -0.05920327, -0.09467378, 0.029025175, 0.04304214, -0.091648266, -0.064404376, 0.032963783, -0.0046405494, -0.10861454, 0.06352518, 0.01798794, -0.0024375918, 0.06025409, -0.07126125, 0.02151443, 0.0585925, 0.09479624, 0.07319538, -0.06279162, -0.020539341, 0.09322515, 0.08618773, -0.074923664, 0.03181422, 0.11520947, -0.036226843}, 
{-0.057222433, -0.08613148, -0.06140687, -0.0059307665, 0.1378803, 0.043578275, -0.0554973, -0.0967616, 0.0652985, -0.093369335, 0.007903483, 0.021927908, 0.13253511, -0.08303444, 0.025872558, 0.04193898, 0.0073070563, 0.09271927, -0.09163506, 0.056013748, 0.08525574, 0.02193917, -0.0862768, 0.045279067, -0.005786671, 0.009896368, 0.0024277573, -0.08641012, -0.08253919, 0.06233625, -0.03399799, -0.12109717, -0.07586597, -0.0067223874, 0.0018576969, 0.099032275, 0.0037055153, -0.060219448, -0.08640019, 0.0470853, 0.074489765, 0.0056524044, -0.07573485, -0.054864336, -0.08629437, 0.1118786, -0.10503279, -0.08747738, -0.030465927, 0.05611674, -0.083275706, 0.0222191, -0.0538492, 0.091897845, -0.098957025, 0.014338464, -0.057312597, -0.051802572, 0.047985084, -0.02304002, 0.011493087, 0.09944475, 0.0044413335, 0.09845677}, 
{0.093620285, -0.08317254, -0.011697467, 0.085249886, 0.19991633, -0.1241401, 0.024647469, 0.07962902, 0.074274614, 0.15136051, 0.0053054616, -0.015940242, -0.15008837, 0.018601485, -0.088518456, 0.01047639, 0.07308025, 0.14313124, 0.08984168, 0.07438603, 0.10852474, 0.033985887, 0.030508876, -0.12456714, 0.15217887, 0.009221934, 0.080882035, 0.035053592, 0.14791714, 0.09439315, -0.023101099, 0.012260921, -0.043228164, 0.038245272, -0.08962422, 0.050095856, 0.09449977, -0.048239388, -0.10291621, -0.08702015, 0.034174863, -0.040016484, -0.11183507, 0.095946655, -0.055262536, 0.00027900934, -0.10034593, 0.040566295, 0.030288532, -0.026851648, 0.074201696, 0.045103237, -0.07931948, 0.07341029, 0.06277023, 0.039002165, -0.0057122763, 0.057968486, 0.035787474, -0.0078003732, -0.004001826, 0.07112472, 0.1362557, 0.011083496}, 
{-0.03584546, 0.01436609, 0.018866677, -0.06379709, -0.043838892, 0.0267429, 0.05347717, 0.050560877, -0.08683446, -0.08519929, 0.06580451, -0.093572855, 0.11907013, 0.049334805, -0.08281729, -0.028103031, 0.040815815, -0.0061922977, -0.17784359, -0.065567054, -0.113264225, 0.03389793, 0.08629258, 0.004237752, -0.004952023, -0.10028062, -0.1011454, -0.10961063, -0.09245881, -0.023685567, -0.11549686, -0.084929556, 0.027474374, 0.036849, 0.086167164, 0.10117075, -0.027545271, -0.072564274, -0.019757565, -0.0664072, 0.095437996, -0.095365666, -0.01614496, 0.086143546, 0.02517505, 0.1057668, 0.054517016, 0.06615434, 0.021597568, 0.07634468, -0.013853246, -0.08500792, 0.06478208, 0.05546862, 0.1089578, -0.054629017, 0.04433558, 0.07970375, -0.022632804, -0.04785734, 0.033821926, 0.053537678, -0.05129456, -0.0071362182}, 
{0.004335667, 0.10943003, 0.086777404, -0.044576213, -0.008017703, 0.03765751, 0.051603664, 0.093568414, -0.07405311, -0.04690267, 0.017491018, -0.055921216, -0.045132227, -0.05877045, 0.10923472, -0.20072135, -0.111826226, 0.10777912, -0.16170424, 0.02351286, 0.0045323744, 0.00607614, -0.10715219, 0.1274149, -0.067565545, 0.02273029, -0.008505888, 0.08691925, -0.13722262, -0.059478894, -0.032549705, 0.09463965, 0.0009987131, -0.0020977187, 0.012144722, -0.11214436, -0.09854367, 0.006182745, 0.1044979, 0.020408869, 0.08887043, 0.029316446, -0.068083964, 0.0025132112, 0.028146312, 0.018450439, -0.038185038, -0.025342524, 0.02988481, -0.056158543, -0.051530056, 0.08207488, 0.11121583, 0.081841305, 0.08265869, -0.07454631, 0.03195968, 0.06104317, -0.07513844, 0.115749106, 0.09972896, 0.10565062, 0.055906706, -0.071715474}, 
{-0.09449912, 0.030189961, 0.010395702, 0.029734105, -0.013184975, 0.047237035, 0.066550165, -0.089996964, -0.0043431893, -0.09919194, -0.014417169, -0.06911081, -0.024130352, -0.11561064, 0.03037025, -0.1751959, -0.056968573, -0.037017252, 0.004573018, 0.04645394, 0.085170045, 0.04722656, 0.097376764, -0.009261394, -0.14642444, 0.088441566, -0.096369214, -0.08604708, -0.03030855, 0.06623171, -0.024527421, 0.0029309865, -0.051392343, 0.031948775, -0.033805013, -0.07457887, 0.016247854, -0.010947786, 0.12145125, 0.05211459, 0.027854443, -0.00033000502, -0.056064803, -0.01171262, -0.08377013, 0.104039684, -0.092359066, -0.14706971, 0.07743115, 0.13151747, 0.06484207, -0.043480717, 0.07513742, 0.0091867745, 0.022589818, -0.09004324, -0.10556139, -0.022933152, 0.052983344, 0.16838276, -0.09699669, 0.044322968, -0.03255507, 0.0495963}, 
{0.037336662, 0.055901825, -0.05927423, -0.010174774, 0.051510885, 0.17395839, -0.006288964, 0.05237107, 0.08534494, 0.019910693, -0.10626294, 0.031958833, 0.038774814, -0.0661046, -0.00753583, -0.051142484, -0.020763995, 0.0056316997, -0.16397794, 0.068510905, -0.11205653, 0.09681589, -0.113121234, -0.010332004, -0.08294712, -0.046056323, 0.037695885, -0.080193855, -0.1411519, 0.020713821, 0.007051789, 0.011790044, 0.031272426, 0.03224398, 0.035006516, -0.095388636, 0.06627242, -0.097380616, 0.016153546, -0.018472828, 0.006859107, -0.031641442, -0.051062074, 0.11651834, -0.07908773, 0.019434154, 0.061070323, 0.032938138, -0.06750383, 0.08695173, 0.004658904, 0.03161833, -0.107591316, -0.0111296475, -0.0024889633, -0.04924222, 0.01976402, -0.047617108, -0.119556405, 0.07735277, -0.07480392, -0.11279015, 0.12758757, -0.059446637}, 
{0.09259073, -0.057301443, -0.049191434, -0.092123196, -0.1279081, 0.026054898, -0.06672889, -0.027141444, -0.09653473, 0.063487, -0.036134023, -0.048580095, 0.022982227, 0.007740334, -0.06175874, 0.0344658, 0.13442278, -0.0008280619, -0.07865559, -0.026482027, 0.08284779, 0.058127493, 0.07939306, -0.049035568, -0.12896621, 0.0692002, -0.00055066874, 0.07791738, 0.07111408, 0.03348431, -0.012948545, 0.047593843, -0.0067316145, -0.11930584, 0.11002924, -0.037079584, 0.08381877, -0.053980913, 0.063139334, 0.0925677, 0.003481456, 0.08023969, -0.07695282, 0.039875846, 0.0385257, -0.06986159, -0.061861306, -0.12006418, -0.059362855, 0.09821119, 0.07659943, -0.08402807, 0.08267689, -0.057851784, 0.10259926, -0.07370438, -0.05931816, 0.033314064, 0.09957669, -0.02156029, 0.03485675, -0.03932474, 0.14043581, -0.04968967}, 
{-0.083386585, -0.07435538, -0.09673133, -0.0068957806, 0.0025616004, 0.030887824, 0.11963286, -0.102857314, -0.068648614, -0.09021062, 0.08548321, 0.008495562, -0.09028435, 0.032439135, 0.010838881, -0.0017173841, -0.012377337, -0.082629435, -0.044060733, -0.021421077, 0.05384715, 0.076995306, -0.084311426, 0.12377553, -0.006596912, 0.09983249, 0.024623549, 0.031913474, -0.084637836, 0.071487755, -0.071220905, 0.009342409, 0.058530033, -0.09410468, -0.053010214, -0.05936393, -0.01718962, 0.1065917, -0.0028803626, 0.04884173, 0.013902498, 0.08799976, 0.10344963, 0.017034817, 0.05357513, -0.021349274, 0.029146, -0.086741395, -0.027921522, -0.032431383, 0.085138395, -0.03810037, 0.11321959, -0.026103824, 0.040984213, -0.06261216, -0.10736504, -0.10211987, 0.07445912, 0.16204071, 0.05894479, -0.015214644, 0.13344626, -0.11973952}, 
{-0.085029654, 0.105463594, -0.00093712774, 0.06813733, 0.004056254, 0.20017289, 0.10814307, -0.032651164, 0.09662479, 0.02495236, 0.10340838, -0.046207286, -0.1189954, 0.041057266, 0.04233101, -0.026006395, -0.01208071, 0.044284802, -0.050188392, 0.08027229, 0.065768614, -0.01099122, -0.0024941713, -0.045582015, -0.03934729, -0.063535154, 0.031573806, -0.08874037, -0.115267664, -0.047345594, -0.0846147, 0.020188455, 0.08685127, -0.037878565, 0.03653259, -0.08143563, 0.067413785, -0.05636297, -0.072457775, 0.047367096, 0.058205146, 0.00238428, -0.08792119, 0.041000415, 0.005584955, -0.01865808, 0.07676041, -0.15572178, -0.10626917, -0.029676465, -0.035101216, 0.100746185, 0.00532981, -0.104479894, -0.025527783, -0.011826262, 0.0895952, 0.0053928015, -0.0696517, 0.02241111, 0.08754867, -0.04072125, 0.05434751, 0.005512666}, 
{-0.012990735, -0.0020988286, -0.09700552, 0.030047253, -0.16212429, 0.12933715, -0.0026278177, -0.021310553, -0.112597734, -0.15942052, -0.025946382, 0.102144554, 0.046909045, -0.017559018, -0.11042552, -0.13359347, 0.14251989, -0.06231938, -0.0041039973, 0.075124264, -0.021258064, 0.096186675, 0.113689065, -0.029241078, -0.06957346, 0.012252539, 0.023615515, 0.04923675, -0.08606667, 0.040545896, -0.074080564, -0.027443511, 0.08137365, 0.08054306, 0.087045066, 0.07840393, -0.047802955, 0.09483464, -0.07310063, -0.014924556, -0.0004098235, 0.13589865, 0.022762502, 0.14939801, -0.09634278, -0.01875715, -0.023923524, 0.0028858718, 0.07120437, 0.03652852, 0.056932773, -0.01145827, -0.048928946, -0.08574316, -0.11005393, -0.0774629, 0.066211656, 0.00065856124, -0.068427905, 0.22996567, 0.034750417, -0.09955028, -0.026344659, -0.08986394}, 
{0.049638838, -0.10008631, 0.0033403458, 0.11222188, -0.053861562, -0.005221201, 0.110217474, 0.057403594, 0.009686254, -0.10925657, 0.099974476, -0.08063944, -0.1281023, -0.0785401, 0.024648026, -0.04343894, 0.035672672, 0.05303925, 0.0062705907, -0.10418719, -0.08620005, -0.11447696, -0.084105864, 0.052248333, 0.014078403, -0.11046567, -0.12210865, 0.03139226, -0.05891959, 0.081830725, -0.04276426, 0.15659894, 0.022350729, 0.05265416, 0.14932458, -0.010732898, 0.06708383, -0.056162156, -0.030403104, -0.04779093, 0.010844165, 0.027188106, -0.06685089, 0.02223015, 0.05423999, 0.045322, 0.100623205, -0.15182205, 0.04067158, 0.0016334854, 0.021753507, 0.011658697, 0.0004511103, -0.04203227, -0.09959629, -0.052607108, 0.039324377, -0.026582923, 0.024871053, 0.1099564, 0.026998073, 0.034546386, -0.05792555, -0.104127005}, 
{-0.09048219, -0.09107812, -0.09253012, 0.0777466, -0.16276397, 0.13916463, 0.20443603, 0.04903771, 0.110585555, -0.10551137, 0.14942123, 0.051406488, -0.117842786, -0.018528873, -0.02793058, 0.0349621, 0.09581788, 0.06372358, 0.033177618, 0.094737545, -0.10592994, -0.11147051, 0.08920632, 0.10176915, -0.08230125, 0.10631305, 0.05430197, 0.10463772, -0.041428108, -0.021706738, -0.032652978, 0.052780803, 0.027134344, -0.0086791525, 0.17612943, -0.09627998, 0.09734986, 0.08687976, 0.0066678906, 0.07100752, -0.1631207, 0.08737374, -0.10853902, 0.07903125, 0.046552986, -0.024658553, 0.09029205, -0.027096624, -0.044750653, -0.0059896368, -0.09078316, -0.025245205, 0.08877753, 0.02683036, 0.08815467, -0.029360726, -0.071522385, 0.050992887, 0.08154874, 0.13906898, 0.044761226, 0.054555286, 0.050538097, 0.043909993}, 
{-0.08746744, -0.013522506, -0.03434763, -0.085384145, -0.0864565, 0.11229502, 0.15579404, 0.08688335, -0.06372356, -0.13129613, 0.017272098, 0.093861684, 0.07717363, 0.02941196, -0.0093306005, -0.022190467, 0.15451087, 0.05660719, 0.086270854, 0.030151047, 0.028489545, 0.028397858, 0.105755776, -0.04149498, -0.0863487, 0.0076319426, 0.050168093, -0.08664533, -0.006748472, 0.03520249, 0.055255346, -0.005987935, -0.05418555, 0.07836902, 0.06758323, -0.022483766, 0.04275578, -0.04735831, 0.13629341, 0.013891488, -0.15325767, 0.0842225, -0.0047253883, 0.17840894, 0.04427384, -0.07327102, 0.035741538, 0.013999112, -0.013632421, -0.122144714, 0.07740088, 0.08581752, 0.10151827, -0.012978263, 0.11337647, 0.06499757, -0.0101508675, 0.051453568, -0.08615466, 0.23278426, -0.037663683, 0.10479111, 0.10219944, 0.06369695}, 
{-0.028809076, 0.050454766, -0.0071570138, -0.045334935, -0.1658406, 0.15801013, 0.14794835, -0.02383677, -0.031836346, -0.14776978, 0.16526332, -0.007162288, 0.11503046, -0.035526644, 0.02020584, -0.14523666, 0.1492145, -0.03902427, -0.015968107, -0.105692305, 0.062599674, -0.016101275, -0.094670236, 0.06184849, -0.02032522, -0.04927413, 0.07229506, -0.029948708, -0.12006355, -0.095077425, -0.012938662, 0.064139955, -0.069597006, 0.006810113, 0.17412618, 0.032265346, -0.092573635, -0.0012505278, 0.053767264, -0.012495294, -0.15882257, 0.22211687, 0.07188282, -0.034312543, 0.03028667, -0.052016776, -0.02130375, -0.08691711, -0.09402046, -0.093959786, 0.08684972, -0.07039885, -0.080960035, 0.050887957, -0.055565562, 0.07903047, -0.040769905, 0.06586188, -0.110168636, 0.18603514, 0.055204764, 0.04244398, -0.017220048, 0.07015318}, 
{-0.074699216, 0.020226717, 0.07864476, -0.0501118, 0.004433562, 0.12048004, 0.11662969, -0.034835555, -0.0006245971, 0.052096054, 0.054583635, 0.03918749, -0.030460319, -0.09822518, -0.06515239, -0.086222984, 0.1246988, -0.020879116, 0.0813414, -0.087266885, 0.10946268, -0.12767401, 0.017736182, 0.005938389, 0.11626502, -0.016910054, -0.09083141, 0.08481263, 0.03181485, -0.03356407, 0.047335852, 0.07911838, -0.033380687, 0.02127158, 0.06573724, 0.01648912, -0.0500761, 0.026003703, 0.09608543, -0.057822153, -0.026584161, 0.047684688, -0.06475779, 0.074080534, 0.08594981, 0.07412894, -0.06903726, -0.16357797, -0.04579024, 0.008440312, -0.046652194, -0.0924521, -0.072660625, 0.07049945, 0.054251358, 0.08265002, -0.030447558, -0.0049219574, -0.011339429, 0.14280958, 0.0916851, 0.09916076, 0.034942005, -0.099753484}, 
{0.027835606, 0.07016046, -0.094947524, 0.012993768, 0.043482926, 0.08469128, 0.120075345, -0.033779874, 0.08660917, 0.025642497, 0.1549964, -0.0123982355, 0.02900561, -0.008150075, 0.015632719, 0.053774823, -0.014033959, -0.0019025923, 0.01690521, -0.066608965, -0.09857166, 0.057887193, 0.06161426, 0.10679495, 0.069429606, -0.04298508, -0.08511843, -0.00049145444, 0.017800607, 0.0022840798, -0.11703463, 0.098052144, -0.008714408, 0.016583165, 0.10716478, -0.006977252, -0.050585415, -0.028408319, -0.029690826, -0.112765044, -0.13332441, 0.05224957, -0.06713692, 0.14407006, 0.06656839, -0.057661623, 0.07415646, -0.071163654, 0.043006245, 0.031594988, 0.014473731, 0.08122814, -0.030038163, -0.10911342, 0.10054146, -0.02252841, 0.053840887, 0.09900083, 0.007746611, 0.008046305, 0.019909263, -0.11485269, 0.029285647, -0.016344192}, 
{-0.09933421, 0.0856747, -0.11071649, 0.05013883, -0.09308984, 0.041056253, 0.00668378, -0.10484655, 0.11014098, 0.012445974, 0.077887975, 0.0786477, 0.07561489, 0.11094091, -0.011259221, 0.10791818, 0.0009940572, 0.18050809, 0.07479091, -0.016210547, 0.040407166, -0.15291226, 0.10085094, 0.0129741905, 0.02837356, -0.113063894, -0.023200257, 0.070609465, 0.10500409, -0.07199827, -0.10779356, 0.21326466, -0.01819691, 0.105214514, 0.08768647, -0.060881488, -0.083001755, 0.09079784, -0.06655284, -0.064537935, 0.06765214, 0.13173777, 0.08942492, -0.03670169, -0.0048003197, 0.0645359, -0.05381385, -0.16297875, 0.08112619, -0.16427678, 0.038901683, -0.11212162, 0.030580506, 0.08285801, -0.11127002, 0.07448441, -0.023557292, -0.072765954, -0.07754494, 0.1251383, -0.08581382, -0.016096558, -0.0027505076, 0.011755188}, 
{-0.0751266, 0.09690215, -0.026258333, 0.078691006, -0.16313243, 0.15841249, 0.16437708, -0.0060063004, -0.06189392, 0.00975708, 0.12771225, 0.07111502, -0.059750654, -0.17173633, 0.072971225, -0.08955192, 0.19719401, 0.039156016, 0.0038307607, 0.03414356, 0.024928644, -0.049386594, -0.022089176, -0.09742024, -0.1317435, 0.055263817, -0.07078723, -0.058285747, -0.010379054, -0.072798274, 0.00035453556, -0.015484803, 0.042507842, -0.040918924, 0.16510119, -0.009644725, 0.00559143, 0.064854175, 0.041234367, 0.05895269, -0.13143729, 0.04958214, 0.058142174, 0.042144883, -0.07015358, -0.019808054, -0.07096891, -0.06287185, -0.051834736, -0.06352071, -0.010260251, 0.06863864, 0.08332005, 0.016603008, -0.05992309, 0.10467006, 0.09243179, 0.10468861, -0.052211765, 0.10256964, -0.045025945, -0.118903466, -0.03476703, 0.04527781}, 
{-0.010531702, 0.07178967, 0.09088371, -0.051753335, -0.0867325, 0.02888571, -0.0025431698, 0.056393698, 0.017126247, -0.023562241, -0.06737963, -0.05546067, -0.062458314, -0.050193217, 0.03631726, -0.11418065, 0.026894419, -0.04983406, -0.054875657, 0.05233536, 0.052707225, 0.17618597, -0.105213456, 0.022106964, -0.10156187, 0.040345654, 0.07385266, 0.06291418, 0.018222312, 0.05073586, -0.0029254633, 0.028139241, 0.1045375, 0.09648203, 0.012649005, 0.094381765, 0.040153705, -0.005987726, 0.107071385, -0.017359488, 0.12675147, -0.012837457, 0.07701956, 0.061522134, -0.056362405, -0.011062682, 0.09614703, -0.050876986, -0.0791692, 0.16629376, 0.008599233, 0.06993247, -0.015413269, -0.027543753, -0.029575989, -0.059333492, -0.07240397, -0.02865102, 0.017301152, 0.054063585, -0.010974787, -0.086904116, 0.0910233, -0.10820287}, 
{-0.0642337, -0.10663777, 0.018897273, 0.051330715, 0.12220374, -0.02143933, -0.074810974, -0.08332076, -0.04784502, 0.0094068665, 0.060695928, 0.10239422, 0.09903814, -0.037738815, -0.006604925, 0.04418654, 0.008701051, -0.0716097, -0.1468212, 0.022252403, -0.02657757, 0.10227191, -0.07798298, 0.09803399, -0.17196734, 0.09767461, 0.101443835, 0.020110346, 0.019828577, -0.052498985, -0.10565149, -0.07022218, -0.025335014, -0.041809354, 0.08699715, -0.10503845, 0.02741701, -0.05966187, -0.054842208, -0.027072497, 0.10042535, 0.07962723, 0.06267187, -0.07072689, -0.06442152, 0.02304776, -0.037354067, 0.037558205, -0.07830687, -0.029921401, 0.059290152, 0.043048363, 0.039576948, 0.008140884, -0.030191131, 0.027613476, 0.020203626, -0.020818958, 0.0617041, 0.019917697, 0.10777111, 0.08527628, 0.033785053, 0.05466072}, 
{0.030219357, -0.012123078, -0.028860716, -0.10978305, 0.10393688, 0.051560454, 0.06259891, 0.10053106, -0.09934898, 0.016190074, 0.035438363, 0.055682823, -0.008907522, 0.00030822746, -0.10508232, -0.12709202, 0.011652359, 0.017628303, -0.17663051, 0.10594892, 0.06056848, 0.16020407, 0.0626829, -0.04153737, -0.02441281, -0.097573295, 0.055314057, 0.0867365, -0.042460628, -0.019655794, -0.10221809, 0.016383585, 0.08243711, -0.105593055, 0.00619638, -0.03372319, 0.028367883, -0.032365024, 0.046370614, 0.087829605, 0.056615394, 0.05801054, -0.098723225, 0.0021587822, 0.10038532, -0.067951135, 0.07923712, -0.09078575, 0.044375792, -0.04721889, -0.06098878, -0.0033319127, -0.10690772, 0.0724711, 0.0070934743, 0.049104363, -0.051230308, -0.02154258, -0.03500068, -0.015820043, 0.06998944, -0.10202998, -0.019591363, 0.09953188}, 
{-0.059397336, 0.0895433, -0.107856125, -0.05339053, -0.021786885, 0.09952303, 0.06210888, -0.058597818, -0.009274505, 0.00024792732, -0.11186466, 0.060012862, -0.08517581, 0.042488378, 0.06662947, -0.09698813, 0.104838885, 0.014846177, 0.007473127, 0.016360432, 0.061559007, 0.038732383, 0.029937044, -0.050216965, -0.062202454, 0.0071462616, 0.070960365, -0.119967006, -0.11064137, 0.036906347, -0.07888266, 0.03606993, 0.09111464, -0.03874137, -0.0689817, -0.024027556, -0.053150833, 0.08388482, 0.12415427, -0.07915977, -0.02103971, 0.06797958, 0.08642575, 0.0002257427, -0.064921156, 0.04929568, 0.032241017, -0.0029662976, 0.058924142, 0.019693265, -0.09962037, -0.0639094, -0.050664693, 0.024258092, -0.032333165, 0.004592426, -0.10925357, -0.025125867, 0.043888964, 0.027313784, 0.041094482, -0.056603093, -0.061266907, -0.048775382}, 
{0.037723985, -0.110668115, -0.056177597, -0.07455487, -0.17424235, 0.16435334, 0.053178806, -0.065250546, -0.110220015, -0.17448382, 0.019321073, 0.034864068, -0.05057099, -0.12721436, 0.05028689, -0.017628647, 0.11126013, 0.023905737, -0.0666674, 0.0857832, -0.00019869953, 0.034573875, -0.0027023554, 0.071350195, -0.083676934, 0.052465692, -0.11686491, 0.007894325, -0.013854571, -0.04903625, -0.06055431, -0.024277154, 0.10080403, -0.17234063, 0.09438981, 0.0043053585, -0.0068878504, -0.09551365, 0.04562249, -0.09321018, -0.12912226, -0.011319803, 0.00899481, 0.13983983, 0.09090035, -0.030570664, 0.04637541, -0.032087356, -0.06836664, 0.051545393, -0.08488694, -0.047616564, 0.11156359, 0.085176125, 0.018993288, 0.011637941, -0.07430517, -0.069777295, 0.09199484, 0.260226, 0.037536368, -0.0780419, 0.050331917, 0.07443522}, 
{-0.054917075, -0.072646774, -0.066142276, 0.1000631, -0.09378482, 0.22236332, 0.019077739, 0.1039125, 0.025743917, -0.23003358, 0.017393056, 0.06952815, 0.111653335, -0.023440206, 0.0462344, -0.15108967, 0.049203686, -0.0029328389, -0.12641728, 0.017027052, 0.035816967, 0.19965872, -0.107915245, 0.15033808, -0.13687807, -0.007020794, -0.01620236, -0.11153885, -0.12282397, 0.033417314, 0.038585607, 0.015471876, 0.024452344, -0.13979635, 0.14463134, 0.048707526, -0.0005039971, -0.110914856, -0.009103913, -0.028416805, -0.07317318, 0.15143415, -0.0014653481, 0.11388638, -0.04214099, 0.084124655, -0.04341931, -0.09824156, 0.031909283, 0.09101256, -0.10124029, 0.028410966, -0.025806218, -0.021765709, -0.019988477, -0.031589247, -0.037105717, -0.024068449, 0.1016902, 0.20773844, 0.009799197, -0.06585756, 0.03515642, -0.11650341}, 
{-0.09043913, -0.06863988, -0.111658715, -0.027853802, -0.19001105, 0.05836106, 0.106360406, 0.007650517, -0.10760457, -0.105599515, -0.08306087, 0.110773414, 0.050931647, -0.06375792, -0.07124293, -0.021597737, 0.10284939, -0.026996046, -0.10797665, 0.10326459, 0.02085188, 0.014257416, -0.057142813, 0.07381091, -0.07940226, -0.072096705, 0.0767459, 0.09696774, -0.10792191, 0.024403244, 0.05986409, 0.06543492, 0.10748012, -0.11639997, 0.13438226, -0.06579122, 0.089620784, 0.08075315, 0.020083155, 0.10573679, -0.039143812, 0.03024075, -0.04296788, 0.042454787, 0.035532624, -0.039713517, -0.06376596, -0.2015229, -0.042607468, 0.09986072, -0.008690492, -0.016942335, 0.10552038, 0.047972873, -0.09139115, 0.090179265, -0.087835744, -0.08046245, 0.077929735, 0.20106891, 0.108716294, -0.052670613, 0.13882029, -0.017446466}, 
{0.10372199, -0.07340382, -0.00019728075, -0.063069165, 0.020729356, -0.0044968743, -0.031170147, -0.053354632, 0.10199951, -0.03704301, -0.051911477, 0.083239675, 0.029283129, 0.005918073, -0.092912935, 0.032139987, 0.14457116, -0.048662018, 0.06425625, -0.017141743, -0.06418909, -0.11940209, -0.101595834, -0.08971328, -0.0903128, -0.088826194, 0.10108788, 0.066289686, -0.07297756, 0.06566779, 0.012108902, -0.060716085, 0.11165233, -0.049170453, -0.075205415, -0.040401507, 0.14493375, 0.10726026, -0.0005987493, -0.11195161, -0.019090157, -0.08101133, -0.10912397, 0.0043579596, 0.011879265, -0.055284712, 0.11305608, -0.03784508, -0.033055674, -0.06980176, 0.0056555555, 0.10572578, -0.043346807, -0.05317328, -0.083712414, 0.015895233, -0.10969943, -0.010764753, 0.066644676, 0.092733145, 0.058015615, 0.061431978, 0.018277476, -0.048980176}, 
{0.07569615, -0.047273397, -0.08949471, -0.10332672, -0.061963834, -0.008875353, 0.042704422, 0.044938028, -0.10683091, -0.069977, 0.09998796, -0.0397233, 0.046818443, 0.041320268, -0.029543296, -0.015431946, -0.029803364, -0.045511205, -0.02275822, -0.021175867, -0.07316643, 0.07136549, -0.09102693, 0.058228526, -8.528554e-05, 0.040264457, -0.00090990576, -0.020268552, -0.045506682, 0.05829045, -0.07543442, -0.056228865, -0.01123444, -0.020576952, -0.04581412, -0.07839585, 0.022630742, 0.09895025, -0.016161751, -0.026691847, -0.12651013, 0.027897324, -0.011015881, 0.14619519, -0.09227708, -0.094826534, 0.033869043, 0.016110845, -0.09102056, -0.06224363, 0.10273749, 0.005732102, 0.06722233, 0.10617845, 0.056588784, 0.04630971, -0.105327, 0.0034210144, -0.035781097, 0.09138644, 0.06888576, -0.10139711, -0.05176894, -0.050234877}, 
{0.01582731, -0.03698708, 0.012460825, -0.035736233, -0.091185324, 0.14681374, 0.021265384, 0.094976544, -0.049585782, 0.007751526, 0.07057839, -0.08074309, 0.027900882, -0.15083711, -0.09734553, 0.049552597, -0.04720357, -0.0038695475, -0.11394518, 0.05120899, 0.049970224, 0.022135375, 0.06151831, 0.039550982, 0.08852366, 0.003401652, 0.08021809, 0.054878354, -0.009835527, -0.10738377, 0.06437247, -0.09016557, 0.036941126, 0.076477796, 0.06794287, -0.06376528, 0.1399992, -0.03264235, 0.050774854, -0.027440757, 0.054943345, -0.035215866, -0.008518127, 0.1132575, -0.010374181, 0.04163742, 0.033697218, -0.04753583, -0.027090695, -0.018893087, 0.095225476, -0.033532057, -0.03284677, -0.0166426, -0.111624315, -0.019643128, -0.081186324, -0.043799564, 0.022710165, 0.15519641, 0.07039949, -0.013519748, 0.07982278, 0.0540893}, 
{0.0642189, 0.10966471, -0.023325616, -0.05015613, -0.15054184, -0.00015271334, 0.15038888, -0.00077208877, -0.04385613, 0.063191205, 0.13056748, 0.00034621358, -0.12234514, -0.061508045, 0.041931495, -0.03841691, 0.1719762, 0.113290854, -0.11569235, 0.07161906, -0.10597001, -0.020602398, -0.028610379, -0.05341278, 0.03942782, -0.010905005, -0.10568416, 0.00027338724, -0.10023409, 0.020099849, -0.030412668, 0.10141922, -0.102060884, 0.034672987, 0.031368837, 0.092965804, 0.14443576, -0.04201164, -0.04928655, -0.05981329, -0.1460661, 0.1313925, -0.057960145, 0.0549198, -0.1128146, -0.08359166, -0.0646165, -0.10596609, -0.010663148, -0.044626925, 0.04941726, -0.06450778, 0.010808729, -0.092773765, -0.07287541, 0.102666885, -0.05556082, 0.02434361, -0.057515323, 0.0128193125, 0.016263708, 0.098471574, 0.015503893, 0.088213734}, 
{-0.10777271, -0.07983287, -0.054618977, -0.03485979, -0.07851672, 0.1639664, 0.077233516, 0.004594974, -0.030262053, 0.06493925, 0.094303966, 0.026758224, 0.06511184, -0.023313675, -0.030311398, -0.021389343, 0.13594009, 0.111672275, 0.060554545, -0.10884087, -0.016878441, 0.036284912, -0.017485037, 0.014682503, -0.045250602, 0.08961578, -0.11090754, 0.053765222, -0.056462172, -0.08047986, -0.0889998, 0.1086084, -0.10720435, 0.04865516, 0.093182445, -0.09839911, 0.1205043, 0.06952307, 0.08998058, -0.07376963, -0.030153034, -0.04648077, 0.1076743, 0.08348126, 0.011403695, -0.027770132, 0.08976878, 0.06138834, 0.087687306, 0.0755163, -0.037113823, -0.046962053, -0.09036069, 0.039315984, 0.010471433, 0.050864562, 0.018027505, 0.08591319, -0.07689141, 0.21627848, 0.10019638, -0.0044742445, 0.113881566, 0.06677052}, 
{0.049245857, 0.07515398, -0.09969735, -0.085247725, -0.1724142, 0.1406192, 0.1615101, -0.0013749674, -0.042558424, 0.05162269, -0.019438257, -0.01884567, 0.10253458, -0.043863766, -0.012014441, 0.010876251, 0.10790333, -0.0050411066, -0.06798491, 0.060183547, -0.09842127, 0.08298055, -0.099402934, 0.13491805, 0.045358315, -0.07538297, 0.07727009, 0.059282266, 0.013544181, -0.011795729, 0.07320845, -0.056280524, -0.0913853, -0.0029378734, 0.18583113, 0.100429304, 0.031061064, -0.039377436, 0.047377646, -0.10138553, -0.06945728, -0.017100293, 0.050205167, 0.16088228, 0.013384879, 0.002737902, 0.046858862, -0.1704701, 0.105304584, -0.04360369, -0.117863804, 0.09944052, -0.10430343, -0.06075217, -0.033353895, 0.06256437, 0.01133765, 0.060773306, 0.051012598, 0.012495897, -0.02966223, 0.012034439, -0.07709856, -0.049914695}, 
{-0.060677618, -0.06107805, 0.094283596, 0.07237506, -0.014074093, 0.19806828, 0.19775179, -0.01851347, -0.1090313, -0.06879969, 0.124470815, 0.032719135, 0.036963858, -0.014460644, -0.030068368, -0.08565461, 0.11683554, 0.1534285, -0.09459398, 0.026564987, 0.09071244, 0.031428535, -0.07100332, 0.10929158, 0.0219444, -0.0022969022, -0.122887015, -0.07625523, -0.02556553, -0.027150795, -0.09571963, 0.11619236, -0.029318511, 0.050521605, 0.080254056, 0.03925135, -0.10607194, 0.09076561, 0.04204475, -0.0709742, -0.07341492, 0.1593493, 0.043899197, 0.07832346, -0.045190997, -0.018558227, 0.0133150965, -0.104789436, -0.06711507, -0.05504069, -0.04762028, 0.1053281, 0.076504335, -0.044164933, -0.077581726, 0.020889401, 0.067738675, -0.11588727, -0.0811124, 0.023826383, -0.020795979, -0.0976851, 0.07863407, 0.07326571}, 
{0.032788996, 0.003727585, -0.029819494, -0.111611225, -0.14188497, 0.038773116, 0.050825108, -0.10161411, -0.009984426, -0.14914879, -0.03037627, -0.06601556, 0.0664525, -0.096012674, -0.063838914, -0.13187808, -0.009128778, 0.0577412, 0.03581271, -0.06269208, -0.014557816, -0.13614298, -0.064623445, 0.0020812228, -0.06304687, 0.076587185, -0.12249989, -0.0486072, -0.019730585, -0.0027666688, -0.029427411, 0.06702618, -0.07646622, -0.085330755, 0.089796245, 0.07657874, 0.018998772, -0.10396686, 0.13409247, 0.044311002, 0.03218751, 0.026700035, -0.07115842, 0.026763191, -0.0632427, -0.043173917, 0.021780625, -0.033734884, 0.08285199, 0.015731834, -0.061413173, -0.10199031, 0.004068978, 0.079063594, -0.10883609, 0.1044752, -0.102838516, -0.107021324, 0.09812235, 0.07997267, -0.07735394, 0.062957436, -0.06137546, -0.104724094}, 
{0.062168494, -0.10961225, -0.10677733, -0.02711685, -0.014965905, 0.015059029, -0.0084637, -0.09107766, -0.112952955, -0.0907833, 0.028592497, -0.007136859, 0.05327192, 0.01951439, 0.08433671, -0.0048119538, 0.13084193, 0.027480556, -0.034367904, -0.03739014, -0.05580903, -0.023892744, -0.092512384, 0.08018902, 0.012383743, -0.029427037, -0.021178229, -0.00080296077, 0.03145136, 0.022100508, -0.10361594, 0.15145198, -0.0602021, 0.06973367, 0.0651226, -0.038188424, -0.03618974, -0.0345309, -0.07307847, 0.07227789, -0.11981894, 0.08787835, -0.0494101, 0.15972444, 0.005834408, -0.09411569, -0.08593267, -0.15974578, -0.022743704, -0.06626306, 0.044961147, -0.0976032, -0.08527747, -0.07408313, 0.08726023, 0.0015847608, -0.07144035, -0.10306868, 0.039688703, 0.20035692, 0.10998504, -0.10890368, 0.053766947, 0.012512272}, 
{-0.0075907037, -0.101340145, 0.10131336, 0.02684544, -0.13061339, 0.06061529, 0.07665424, -0.08900722, -0.023153394, -0.13938408, -0.009677345, -0.08561048, 0.007006082, 0.055485524, -0.002707459, -0.08061289, 0.07560338, 0.08708705, 0.12076114, -0.021565912, 0.043464392, 0.03545409, -0.0071474835, 0.14861813, 0.0585285, -0.081782356, -0.11849409, 0.048073735, -0.009341745, -0.081657976, 0.0059273425, 0.10407115, -0.026046023, 0.08006211, 0.08078355, 0.06431892, 0.018636156, 0.04860553, 0.043261427, -0.0343306, -0.10293103, 0.061539274, -0.100420296, 0.1534417, 0.0197746, 0.003250368, -0.107421055, -0.105784334, 0.040185645, 0.039809622, -0.043553878, 0.099339336, -0.0027097315, -0.078258924, 0.045337185, 0.07529448, -0.072543524, 0.037845235, 0.08740839, 0.11864694, 0.026671708, 0.0021342607, 0.06714232, -6.1469664e-06}, 
{0.0963154, 0.067677036, -0.06041856, -0.015196137, 0.06563739, 0.15625347, 0.0035695257, 0.015055776, -0.06288545, -0.09820252, 0.061787628, -0.0077088624, -0.0796744, 0.021213286, -0.10743019, 0.077947006, 0.030055473, 0.08300298, 0.1447623, -0.016543014, -0.008449115, -0.1203563, -0.08706261, 0.17582045, 0.10441839, 0.062343, 0.03402138, -0.046380773, -0.05247623, 0.039822638, 0.026686823, 0.16049898, -0.08645801, -0.022944337, 0.01870596, 0.00095550634, -0.09113223, 0.0406954, -0.03748955, -0.095482446, -0.00743338, 0.12842983, 0.074220255, -0.062121917, -0.034085996, 0.0998223, -0.016142465, 0.021276794, -0.10962055, -0.033826698, 0.05361215, -0.072944745, -0.06437399, 0.09488258, 0.017108783, -0.023696192, 0.019471347, -0.06419671, -0.07326318, 0.16373593, -0.023967855, -0.048803773, 0.060508557, -0.121432625}, 
{0.106962375, 0.003995694, -0.018547988, 0.061785698, 0.054153316, 0.12797922, 0.13300815, 0.047293916, 0.07864551, -0.03659377, 0.15982564, -0.10005844, -0.036456574, 0.091357924, 0.008733682, -0.009998216, 0.029034058, 0.1058518, 0.07864847, -0.018239032, -0.0822303, 0.025599536, -0.08398955, 0.09580826, 0.013975253, 0.02817431, -0.01473441, -0.116899446, 0.08169246, -0.090375416, 0.0465773, 0.09597149, -0.10063936, 0.15001705, -0.05148835, 0.09299069, -0.1711718, 0.025186017, 0.025646636, -0.042659633, 0.051840305, 0.07034661, -0.085059054, 0.13403143, -0.007889964, -0.00023435056, -0.023039304, 0.04680962, 0.075989336, 0.040055677, -0.032607794, 0.057674557, 0.006646432, -0.104596235, -0.05122921, -0.06941181, -0.10336143, -0.09471782, -0.019919233, -0.026139628, -0.032501183, -0.033176623, 0.023091985, 0.06457852}, 
{-0.11939637, 0.11071122, 0.07248806, -0.064643644, -0.115114786, 0.008377889, -0.00042857887, -0.11047977, 0.019973129, -0.17966804, 0.07489117, -0.0049362555, -0.008915546, -0.16359514, 0.10018575, -0.14148825, 0.105637066, 0.035228252, -0.016973399, 0.09355556, 0.011202715, 0.07050762, 0.014659345, -0.047092915, -0.036296416, -0.05420217, -0.0503195, 0.06360434, -0.010107785, 0.024849206, 0.09107578, 0.036032334, 0.03379777, -0.067846164, 0.054848623, -0.07471964, 0.1116516, 0.0030861795, 0.10522115, -0.071214736, -0.12074506, 0.039093856, -0.026075296, 0.026558777, -0.037745044, -0.07205899, 0.06918377, -0.11064604, -0.013077886, 0.049696654, 0.08470691, 0.06821105, -0.038165897, 0.015727282, -0.04681792, -0.06554505, -0.09140337, -0.11678931, -0.041940413, 0.2016885, -0.050489552, -0.10057189, 0.100745924, -0.10191574}, 
{-0.037401713, 0.07734752, -0.11419684, 0.06676972, 0.037907925, 0.119067065, -0.012418935, -0.10614466, 0.028531924, 0.022475736, 0.023821322, -0.0336088, 0.018919295, 0.1274967, 0.08344686, -0.045818496, -0.0075204507, 0.058424775, 0.01436014, 0.009120078, 0.010074325, 0.020472273, -0.06511685, 0.13720968, -0.083421424, 0.054461032, -0.11309153, -0.07683967, 0.04869643, -0.005583115, -0.028060686, 0.09213348, 0.06258796, -0.010895982, -0.07036951, -0.006374327, 0.08064298, 0.021512568, -0.04545375, 0.0051545277, 0.16583674, -0.13745654, -0.08029852, -0.11381641, 0.05858302, -0.0030844137, -0.013018742, -0.08617035, -0.08537874, 0.08536632, -0.034388665, 0.091162525, 0.008468993, -0.10776366, -0.047540285, -0.07438922, 0.035832934, -0.088347904, 0.049599923, -0.05395962, -0.06480366, 0.05721338, 0.11237638, -0.02115588}, 
{-0.06833446, 0.076501325, -0.0015730807, 0.095484525, -0.00026526905, -0.028056676, -0.06750009, 0.01741688, -0.09137502, 0.01613499, -0.06497172, -0.07667601, 0.10627226, -0.028023286, -0.055670783, -0.0042843227, -0.10986886, -0.0015296217, -0.061310194, 0.088746466, 0.057742015, 0.14829138, 0.015638575, 0.122199245, -0.1713589, 0.04540187, 0.056096323, -0.017326003, -0.018376015, 0.021563992, 0.08781356, 0.102651484, -0.024705023, -0.035712257, 0.030699143, -0.10265219, 0.08542358, 0.037020996, 0.020270871, 0.0065537915, 0.15464586, -0.02021666, 0.031102136, -0.08537233, -0.009084642, 0.1094026, -0.04119704, -0.0014507234, -0.02151546, 0.049244754, -0.0026942054, 0.08292858, -0.006954506, -0.055663165, -0.099542394, -0.09489016, -0.0094922725, 0.09635419, 0.008837997, 0.085724436, 0.079909965, -0.06670967, 0.0629309, 0.0025995304}, 
{-0.10153332, 0.021178573, 0.047609095, -0.042773746, -0.08825131, 0.07736969, 0.011804656, 0.1132265, -0.10074455, -0.00686772, -0.13674761, 0.069086984, 0.024016032, 0.023677424, 0.0467249, -0.102748305, -0.110356316, 0.0147720715, -0.16938886, 0.0276629, 0.06701286, 0.04058123, 0.07413334, 0.05049377, 0.008788555, -0.04571914, -0.072351284, -0.09797046, 0.058916964, -0.099948205, -0.043785036, 0.059587914, -0.013773613, -0.039846707, 0.02297615, -0.020204553, -0.08578101, -0.037428513, -0.05817701, 0.10216573, -0.030804161, -0.023697464, 0.044128623, -0.055912167, 0.031112626, 0.058373332, 0.018552542, 0.0029772094, 0.042533476, 0.042227767, -0.05711612, 0.03559638, 0.045214072, -0.05034578, -0.022940591, -0.029481828, 0.08291042, -0.045021538, -0.11196233, -0.028595127, -0.043614425, -0.061116904, -0.05162515, 0.0915072}, 
{-0.051925696, -0.09867262, -0.001129468, -0.09118885, -0.16527762, 0.24800621, 0.1759549, -0.06022612, -0.0071304888, -0.07194934, 0.049697835, -0.08679496, 0.06553845, -0.0769288, -0.045247503, -0.16866975, 0.02198607, -0.036473148, -0.10569691, -0.089347765, 0.039593652, 0.095282674, -0.100861, 0.15134072, -0.10008074, 0.08480695, 0.058092486, -0.11854246, -0.00213148, -9.7468495e-05, -0.0040806397, -0.009466355, 0.07601972, -0.10989476, 0.08211685, 0.038037483, 0.09962259, 0.06295267, 0.10090452, 0.022787869, -0.012375173, 0.08959437, 0.040818714, 0.1066436, -0.0010927096, -0.11121867, -0.033354253, -0.20090972, -0.08245012, 0.01283994, 0.09530863, -0.09409062, 0.09727518, -0.09250745, -0.005719103, -0.0810177, -0.0023621018, 0.060712375, -0.087995954, 0.14592507, 0.056635424, 0.04099431, 0.14745593, 0.024576869}, 
{-0.107522145, 0.045262933, -0.0017069073, 0.09430374, -0.1464126, 0.27917075, 0.18955109, -0.110187046, 0.019933745, -0.08128176, -0.028902726, 0.021654248, 0.113797165, -0.014838105, -0.028527312, -0.08386519, -0.047942244, 0.053253677, -0.11831226, 0.020569984, 0.10762067, 0.015718497, -0.01977408, 0.19318974, -0.18150498, -0.03237644, -0.10358401, -0.019508598, -0.15842676, 0.0712785, -0.0682146, -0.021138314, -0.09747255, -0.11532002, 0.19023418, -0.03874765, 0.022691334, -0.06034362, 0.105308816, 0.013821438, 0.0041810703, 0.055276204, 0.09200721, 0.21141647, -0.023571342, -0.08871049, -0.06706136, -0.07315291, 0.004735968, -0.06774624, 0.0026403079, -0.081309095, 0.019419104, 0.08551282, 0.09115891, 0.02267091, -0.0072870175, -0.041761313, -0.08771408, 0.23664129, -0.080739215, 0.04405954, 0.060288686, -0.09644909}, 
{-0.04858279, 0.03276798, -0.11906756, -0.10231348, -0.040919084, 0.19426757, 0.19624272, 0.059074447, -0.063223675, -0.15170138, 0.065348245, -0.052565273, -0.049779505, -0.045189377, -0.04611434, -0.24170113, 0.097414434, -0.12216765, -0.1534702, -0.08233202, 0.10620797, 0.050993077, 0.027613178, 0.08111514, -0.09835878, -0.02262219, 0.061151505, -0.052023817, -0.22146872, -0.040706076, -0.08154204, 0.13331546, -0.007126905, -0.012699032, 0.097728215, -0.08614666, 0.109065376, 0.06971632, -0.0005835524, 0.017802551, -0.04389724, 0.04362774, -0.04553672, 0.19138166, -0.011012286, -0.039564833, -0.11133628, -0.029631393, 0.00029458877, -0.104525305, -0.078053385, -0.0924581, 0.031644642, 0.10611734, -0.10151561, -0.08255542, -0.031249205, -0.06272824, 0.05567042, 0.20767327, 0.039261535, -0.07739714, 0.16030519, -0.01163577}, 
{0.06881787, 0.05265881, -0.053069714, -0.036469273, -0.10400941, 0.08648669, 0.18114789, 0.0964624, -0.07879473, -0.1365947, 0.122024395, -0.014877923, -0.10820366, -0.023798754, -0.091025576, 0.0313208, 0.10521016, -0.06995081, -0.12223232, 0.015119192, -0.012369059, 0.036649887, 0.058080822, -0.043241337, -0.04372645, 0.023450732, -0.044996653, 0.01470538, -0.019032102, -0.047671914, 0.10736203, -0.021328183, 0.036143392, -0.0628894, 0.17606202, -0.03758168, 0.05131204, 0.09590018, 0.08144236, 0.0032357275, -0.10859674, 0.058297854, 0.036783896, -0.031213447, -0.04081119, -0.11348139, -0.096846975, -0.00035581773, -0.09357083, 0.0020924353, 0.026780222, -0.04278688, 0.021728069, -0.10770624, 0.009883709, -0.06625004, 0.069749326, 0.09308434, -0.081579484, 0.14624935, -0.09752515, -0.015988862, -0.031185526, 0.011592812}, 
{-0.072461024, -0.10779574, -0.09761586, 0.06474756, 0.1446686, -0.079238996, 0.02200627, 0.0816517, 0.05626738, 0.0406754, 0.0216055, 0.032000184, -0.061757427, -0.120706506, -0.06110565, 0.15472956, 0.009838444, -0.08390522, 0.27090812, 0.032132924, -0.07794451, -0.1154992, -0.014386013, -0.13013235, 0.044043146, -0.10604229, -0.11831907, 0.06824166, 0.0030295646, -0.03511841, -0.10038491, -0.017597528, -0.052675296, -0.07838717, 0.09019752, -0.09999967, 0.06642166, -0.090678416, -0.027369983, -0.04180242, -0.012175635, 0.030311981, 0.09318469, 0.11261789, 0.068071455, -0.06116264, 0.02506569, -0.01807277, -0.07354343, 0.08208091, 0.03231661, -0.08305805, -0.06403038, -0.067293376, -0.08734072, -0.0058282316, 0.082320035, 0.087009, 0.046409413, -0.014313043, -0.1077712, -0.120791085, -0.046083335, 0.048621416}, 
{-0.012384927, 0.1062738, -0.08666978, 0.08618051, 0.09711681, -0.10625296, 0.046841785, 0.010400727, 0.048110545, 0.004526249, -0.092944875, 0.09222199, 0.022475589, 0.009920369, -0.10532914, 0.0786424, -0.0083434135, 0.053815827, 0.05963418, 0.07560786, -0.06015891, -0.10060182, -0.072992586, -0.114831984, 0.06970082, 0.08265032, -0.07277828, -0.118017554, 0.011156984, -0.008420624, 0.09451641, 0.08660256, -0.071076035, 0.10010619, -0.022405187, -0.097858064, 0.03826256, 0.0038250834, -0.059499636, 0.011717215, 0.005364567, 0.057817604, -0.0069195936, 0.14972211, -0.03903152, 0.039120197, 0.108230725, 0.09221587, -0.061863646, -0.015182896, -0.11786919, 0.047055885, 0.0381431, -0.105376884, -0.018426739, 0.009274289, -0.046735708, 0.026864992, -0.00046992276, -0.062165163, 0.08860472, -0.0231162, -0.07009021, 0.08788907}, 
{-0.115301706, -0.06782664, 0.10000243, 0.044743165, 0.030980397, -0.047184087, -0.04342949, -0.08453081, 0.005516067, -0.12050007, -0.04904553, -0.08068802, -0.054202765, -0.14430776, -0.061285537, -0.042457424, 0.18474971, 0.008734828, 0.03404556, 0.08606375, -0.05075752, -0.04156741, -0.039360926, 0.10694263, 0.111915074, -0.04773321, -0.117934704, 0.028554453, -0.119986884, -0.021183103, -0.04454263, 0.06516977, -0.10476552, 0.024598747, 0.047193624, -0.06519134, 0.03685204, -0.090448424, 0.1131901, -0.08657186, -0.15298316, 0.053692672, -0.117074035, 0.12969278, -0.07524833, 0.042409584, -0.023132674, 0.036717303, 0.051836856, 0.023680152, -0.036178786, -0.11649944, -0.041269295, -0.025071599, -0.054819394, 0.006531805, 0.049607154, 0.019441426, -0.10329472, 0.18213613, 0.05637376, 0.029574456, -0.025976565, 0.06591515}, 
{0.0881715, 0.10348728, -0.05302822, 0.014869332, -0.006301108, 0.09581098, -0.019346574, 0.0026168227, 0.00027591735, -0.037960827, 0.03357966, -0.052761156, -0.06484544, -0.13274582, -0.075894296, -0.022659816, 0.08870867, 0.04155854, 0.07106155, -0.07797314, 0.06879632, 0.0109043, 0.01903662, 0.08841794, 0.12213689, -0.007449858, 0.09362193, -0.030850237, 0.053837355, 0.016995564, -0.013942694, 0.030228069, 0.02209042, -0.11078639, 0.045755323, -0.05212547, -0.028135708, 0.038916513, 0.034593347, -0.073413305, -0.013987848, 0.08416795, -0.017384712, 0.022488058, 0.052084878, 0.0952514, 0.01129736, -0.13525559, -0.062291514, 0.043381415, 0.05661397, -0.003243365, -0.03907308, 0.09356101, -0.038844503, 0.04138203, -0.113713324, 0.034635473, 0.065674126, 0.023329124, -0.091985606, -0.029033061, 0.14805885, -0.0069478387}, 
{-0.07356726, 0.09269932, -0.047774807, -0.102396116, -0.060191277, 0.12908044, 0.15009367, -0.06061558, 0.0019142181, 0.03583396, 0.07717722, -0.07737231, 0.023504034, 0.05150665, -0.08336628, -0.026977826, 0.13261805, -0.014979691, 0.11790975, -0.10222224, -0.0073717237, -0.08870733, -0.024433501, 0.02751443, 0.0370669, -0.006126322, 0.061183367, -0.023916379, 0.042772833, -0.102466635, -0.024494091, 0.063586555, 0.018303737, 0.008046464, 0.11789412, -0.039825153, 0.04866841, -0.096723944, 0.026209194, 0.0122642815, 0.037892547, 0.05849696, 0.01857188, 0.10739894, -0.050791085, 0.07559517, 0.031807035, -0.093968555, 0.05128836, 0.01072411, 0.078434415, -0.04453386, -0.033219777, -0.10994171, -0.082936965, 0.09407936, 0.09541457, 0.057187863, -0.11384607, 0.15645401, 0.032540247, -0.05170959, -0.06364632, 0.03236092}, 
{0.0913246, -0.010517873, 0.035716593, -0.11184403, -0.12515685, 0.15230735, 0.18089724, -0.09627232, -0.018892951, -0.057900034, -0.03387072, 0.023129836, -0.024292372, -0.005637817, -0.070108905, -0.056490164, 0.024216007, 0.033036597, -0.1054847, -0.0094664665, -0.045497037, -0.10106183, -0.09170079, 0.10255102, 0.1300206, -0.094709784, 0.03497839, -0.07946839, -0.11220438, 0.08081938, 0.08170492, 0.11671383, 0.06530042, 0.01768619, 0.108747356, -0.08660304, 0.027615597, -0.05277257, -0.07382441, -0.10922726, 0.021911072, 0.091045104, 0.031903468, 0.14487424, 0.06386754, -0.10050887, -0.057628386, -0.011593437, 0.025739007, 0.007454939, -0.034738347, -0.10036108, 0.031036094, 0.068067774, 0.04507108, 0.032070354, 0.08104625, 0.009592674, 0.091116875, 0.081988014, -0.09305072, 0.062916346, 0.067087285, -0.07863247}, 
{-0.11779829, 0.078590855, 0.011963465, 0.018675134, 0.05356202, 0.13327816, 0.041900247, 0.10010491, -0.07508962, -0.023508612, 0.11672785, 0.038260356, 0.09352788, 0.029172188, -0.0324912, -0.0073990445, -0.002365975, 0.039386474, 0.022879427, 0.090750985, -0.07175716, 0.06339326, 0.056751534, 0.09959223, 0.09391657, 0.0281661, 0.059499845, -0.0387929, 0.015175622, 0.1066927, -0.020215375, 0.09494339, 0.019275874, 0.054055598, 0.120108075, 0.08353861, 0.072816916, 0.058179215, 0.059211105, -0.05241532, -0.15979177, 0.12273994, 0.035513375, 0.096286096, 0.10288195, -0.043132, 0.08174063, 0.057551116, -0.07211005, -0.062792554, -0.015053468, 0.076617785, -0.026016824, 0.10249974, 0.015342072, 0.095455736, -0.029310431, -0.08340011, -0.031590004, 0.039503742, 0.054492265, 0.04710761, -0.103028856, 0.09055217}, 
{-0.098459855, -0.026666522, 0.08017652, 0.0043386593, -0.13457756, 0.16917208, 0.074471846, 0.043958396, -0.07495324, -0.09235108, 0.076620676, -0.054823246, 0.008630578, 0.035729814, -0.08894795, 0.02257493, 0.13987921, 0.109621584, -0.028068922, -0.039676715, -0.0227651, -0.012049356, 0.06857115, -0.00012276361, 0.08595328, -0.028943613, -0.11603523, 0.090713695, -0.1309149, 0.012848511, -0.05567102, -0.0025400475, 0.020240813, 0.016619436, 0.030359628, -0.01265611, -0.019151539, 0.0699352, 0.0009622269, -0.055994634, -0.02469751, 0.1761125, 0.03745506, -0.020497236, 0.012561694, 0.07265234, 0.025545478, -0.080052026, 0.10353839, -0.14200734, -0.03356122, -0.028349103, 0.020226762, -0.027726352, -0.0683923, 0.04585679, 0.05707429, 0.08891807, -0.030777844, 0.08276701, -0.10921772, 0.07847617, 0.106412284, -0.086018726}, 
{-0.04876184, 0.095416054, -0.01348296, 0.10662472, 0.03624913, 0.16611853, 0.1552894, 0.051152512, 0.09920998, -0.03456857, 0.08987155, -0.11275477, 0.12158823, -0.06347961, -0.043630615, 0.09561806, 0.13398668, -0.046071302, -0.09863369, -0.110981345, -0.10705499, -0.015127727, -0.0010086894, -0.03752346, 0.12243692, 0.068356454, -0.002372568, -0.027339231, -0.03090592, -0.05589874, -0.10615613, 0.021640496, 0.00071667135, -0.06385669, 0.027817084, -0.08699723, -0.14633915, -0.036802478, 0.04113082, -0.018954687, -0.12953876, 0.11790681, -0.06003548, 0.06680037, -0.08763038, 0.08199629, -0.03012281, -0.0976497, 0.06988446, -0.08204624, 0.042694382, 0.0177088, -0.05847053, -0.00065152347, 0.08731298, -0.09489854, 0.10413031, -0.05353176, 0.0727625, 0.13154423, -0.07299796, 0.008663008, -0.12122749, 0.013774568}, 
{0.07624544, -0.06718372, 0.056128666, -0.09257187, 0.039789632, -0.021329002, 0.16549551, 0.024806589, -0.11096385, -0.039969753, 0.16327433, -0.06103345, 0.035442304, -0.027803594, -0.023601957, 0.07518074, 0.049989343, 0.08009636, 0.10551203, 0.057034124, 0.009551749, -0.00380453, 0.05637385, 0.1297444, 0.028051835, -0.06183902, 0.04308952, 0.06877609, -0.025826575, -0.089698926, 0.045281835, 0.1541991, -0.091895945, 0.13175187, 0.08466155, 0.05116858, -0.15046918, -0.07080212, 0.07357854, -0.029432192, -0.0770649, 0.16377147, -0.0856182, 0.007117573, 0.057776332, -0.029449053, 0.06836568, 0.035771165, 0.0331205, -0.14207466, 0.090521686, -0.06307285, 0.018556848, 0.005529374, 0.052780405, 0.10175732, 0.010010453, -0.1121365, 0.012011832, 0.17356196, 0.021123886, -0.061255656, 0.041838393, 0.074420676}, 
{-0.044550184, -0.032253057, -0.09532629, 0.073259234, -0.078375876, 0.046668105, 0.13949102, -0.018869556, -0.08374205, 0.00033275448, 0.039594244, -0.041909777, 0.09656101, -0.04947895, 0.08340041, 0.036009636, -0.027613921, 0.16058537, -0.041244835, -0.04513712, 0.09752062, -0.098050125, -0.0043492317, -0.006477389, -0.014618137, -0.038361236, -0.030505948, 0.022976408, 0.029009588, -0.08570051, -0.04883192, 0.17753395, -0.10402046, 0.1497195, -0.004267106, 0.045467664, 0.010729939, -0.0018678084, 0.046116106, -0.091646574, -0.06896409, 0.105029725, -0.071739025, 0.014187174, 0.07956289, 0.05561006, 0.083473295, -0.042789888, 0.04216276, -0.085469104, 0.066888444, -0.039171666, -0.101893246, 0.019093439, 0.030724332, 0.056018114, -0.039969683, -0.091806136, 0.10503348, 0.13462043, 0.072794914, 0.045138367, 0.055670325, -0.092182815}, 
{0.06811902, 0.051339522, -0.051412232, -0.06593793, 0.02916981, -0.07884269, -0.03132918, 0.09768814, -0.06991359, 0.11707968, -0.04200493, -0.109361924, 0.01578582, 0.02253719, -0.008797452, 0.06754922, 0.06301338, 0.17738174, 0.104821555, -0.017542051, -0.058475733, -0.057871684, 0.10223225, 0.10983241, 0.025954539, 0.05598423, -0.0008015961, -0.1069913, 0.081922546, 0.04393904, -0.07017667, 0.22635691, -0.026569493, 0.17559949, 0.15437254, -0.07953992, -0.009006638, 0.092504114, -0.017071852, -0.03620114, 0.041892525, 0.10478701, -0.035611916, 0.023757266, -0.016639046, -0.09138847, 0.0084463805, 0.04077584, -0.08580174, -0.028674098, 0.0039493414, -0.11259289, 0.06100495, 0.008738071, 0.061060295, -0.010536149, -0.098498315, 0.003042416, -0.033637278, 0.16006863, 0.043265253, -0.037993945, -0.014099242, -0.07274843}, 
{-0.053520262, -0.11016435, -0.03367464, -0.056931317, -0.06122297, 0.057778664, 0.0007523482, 0.018589899, -0.013121821, -0.12157983, -0.12225279, -0.038310483, -0.05746289, -0.025587875, -0.035412, -0.09690437, -0.11564658, 0.070810884, -0.19515808, 0.10737711, -0.0670668, 0.15899915, -0.022178456, 0.08092995, -0.105733275, 0.052677497, 0.07617002, 0.051418398, 0.035760723, -0.04465457, 0.10142509, -0.015577436, 0.06738813, -0.07882382, 0.01970021, 0.0681541, -0.13237166, -0.08111715, -0.06468986, -0.10054797, 0.019559067, 0.016722837, -0.07535614, 0.037079316, -0.055103607, 0.08713591, 0.054346383, -0.05175329, 0.0063810633, 0.02308592, 0.065808564, -0.0708627, -0.06299889, 0.038228095, 0.046936527, 0.048704132, 0.03101231, 0.058522757, 0.08304077, 0.14793566, 0.07350218, -0.034478527, -0.016761689, 0.0076219984}, 
{-0.113217205, -0.02085372, 0.010534988, -0.07885831, 0.056126274, -0.016305374, -0.12922896, 0.058009446, -0.055212162, -0.06464225, -0.0029096627, -0.029405244, 0.0148101235, 0.15808295, 0.0663923, 0.04378897, -0.05077822, 0.07444032, -0.18873897, -0.10416074, -0.0029067844, 0.17754449, 0.03665054, 0.13029629, -0.18146095, -0.11044298, 0.041671816, -0.038903225, 0.080487244, -0.09839516, 0.049890496, -0.004285358, 0.01727283, -0.068228446, -0.021394836, 0.041330107, -0.08858258, 0.09308784, -0.1026621, -0.07985255, 0.13069619, 0.05265188, 0.106795266, -0.07181163, 0.044974297, -0.027522117, -0.048521593, -0.00057176466, 0.008376049, 0.09155405, -0.101685345, -0.01954647, 0.09637469, 0.057370394, 0.034455523, 0.0679363, 0.09024913, 0.075340874, 0.034066882, -0.058513872, 0.100479454, -0.05859734, 0.13672861, -0.01738441}, 
{-0.08763345, -0.010633938, -0.021864615, -0.034983605, 0.011233457, 0.034591965, -0.10874989, -0.011819236, -0.048596554, -0.06446999, -0.07305038, 0.053478718, 0.06152332, 0.114827655, 0.066704005, -0.12759478, -0.06851062, -0.058529425, -0.09651453, -0.066987686, -0.087005, 0.0059815426, 0.07131936, 0.14670475, -0.14899722, 0.011204235, 0.030353418, 0.002579471, -0.014441253, -0.033272125, -0.055935923, -0.07272358, -0.024324372, -0.083965175, -0.13223729, -0.05408192, 0.12223539, -0.065168366, -0.025542758, -0.040424332, 0.12598945, 0.032875195, 0.09189275, -0.0016471015, 0.063357145, -0.10271883, -0.06770526, -0.08244381, -0.11887646, 0.071502, -0.08666438, -0.05523991, -0.08433525, -0.0322302, -0.075164124, -0.0023523197, 0.07333246, -0.0037665076, -0.0265563, 0.0010520925, 0.10267629, -0.058524966, 0.12874845, 0.08352464}, 
{-0.037355028, 0.06788859, -0.09066454, 0.054193005, 0.10718216, 0.012484133, 0.0063712555, 0.0034357607, 0.10332282, -0.109884165, 0.008359894, -0.08885719, 0.062816374, 0.09636984, 0.06727411, -0.027616585, 0.032357667, -0.05264516, 0.012814172, -0.008911654, -0.07547027, 0.07995289, -0.08794154, 0.1504881, -0.18480667, 0.043350384, 0.09034305, -0.051916637, -0.059089597, -0.040305607, -0.11784313, -0.057293758, 0.021810338, 0.039970268, -0.060749598, 0.09362537, 0.058551863, 0.06406663, -0.079355076, 0.056430757, 0.046307463, 0.07838126, 0.004010808, 0.057737667, -0.03561347, -0.056077812, 0.016559824, -0.104609534, 0.05362047, 0.18342182, 0.07248767, -0.04336246, 0.10414463, 0.064429685, -0.109275684, 0.034233287, 0.09769517, 0.07367184, 0.06354682, -0.038136233, 0.022942841, 0.09896043, 0.1156598, -0.030474002}, 
{0.093982354, 0.014196858, -0.01155592, 0.0069183335, -0.07004836, 0.056929488, 0.097381294, 0.079368874, 0.0317972, -0.06389498, -0.009024846, 0.046616554, -0.027909191, -0.09135986, 0.025220498, -0.065478005, 0.049881216, 0.114671595, -0.055389762, 0.006427514, 0.11190343, 0.063043736, -0.049878806, 0.12541696, -0.09084302, 0.01929155, 0.09520676, 0.0768114, -0.1420705, 0.01639697, 0.07396669, -0.017922478, -0.09541722, -0.10213367, 0.047459748, -0.027475968, 0.111318775, 0.031805947, 0.13884296, -0.051028393, 0.009087396, -0.020556578, 0.011532049, 0.034772605, -0.11299343, -0.021541357, -0.051848415, -0.06433099, -0.062118478, 0.117506035, -0.002922813, -0.0076375958, 0.05976139, 0.07015765, -0.009616062, -0.019946106, 0.037700024, 0.06663845, -0.04171352, 0.2670315, -0.07766583, -0.085946396, 0.119736455, -0.018539108}, 
{-0.08915137, -0.06484875, 0.10077694, -0.06721601, -0.07507976, 0.28294203, 0.18567057, 6.349385e-05, 0.109579384, -0.22383039, 0.08208586, 0.11048408, 0.12341845, -0.115087144, -0.024025545, -0.26493356, 0.15221837, -0.124386236, -0.1692647, 0.02488721, -0.10673415, 0.09458274, 0.08915739, 0.24120645, -0.08877726, -0.0680425, -0.0057955193, 0.018693306, -0.10286126, -0.036359012, 0.044189602, 0.08876425, 0.09051952, -0.067701906, 0.19416898, 0.030157298, 0.043516085, -0.07569484, 0.12878127, 0.08955309, -0.14383025, 0.13271812, 0.013656528, 0.07935348, 0.035570815, 0.007386312, -0.06151753, -0.052013934, -0.0031354656, -0.04445511, 0.0073415083, -0.06533471, -0.00788945, -0.112516806, 0.102643624, -0.029356904, -0.056826267, 0.097896785, 0.013809319, 0.13081035, -0.035523348, 0.085769184, 0.100648955, -0.09755235}, 
{-0.055694766, -0.1093048, -0.07708494, 0.092405915, -0.18612415, 0.092808336, 0.24160203, -0.022859395, -0.1073857, -0.09184003, -0.021504974, -0.0025280267, 0.083579995, -0.05101915, 0.047064498, -0.11365856, 0.12786582, -0.0022506206, -0.1059935, 0.07051031, 0.10050467, 0.040865112, -0.07733038, 0.13191882, -0.117121324, -0.021876514, -0.123302996, 0.049677487, -0.18186778, -0.09678275, -0.023013793, 0.062383518, -0.07953025, -0.12873091, 0.03870125, -0.08936284, 0.10130182, -0.033477202, 0.08794217, 0.09177996, -0.13770363, 0.0679242, 0.09753292, 0.13397747, 0.05779165, -0.061382297, -0.11026434, -0.23806374, 0.0026903322, -0.08001238, 0.064010486, 0.0424899, -0.092665784, -0.015401967, -0.08105019, 0.08098614, -0.10439078, -0.0811285, -0.061940953, 0.12812169, 0.03832537, 0.076411374, 0.0007089201, 0.09473938}, 
{-0.092012, -0.00436157, -0.036654595, -2.1658838e-05, 0.09881194, -0.11406963, 0.03264721, -0.06794877, 0.07340641, -0.10365467, 0.028579935, 0.08675194, 0.0113613, -0.04983365, -0.03565137, 0.020396762, 0.1880351, -0.015595363, 0.27866298, 0.05859028, 0.030553713, -0.16003707, -0.0799469, -0.038292877, 0.055063136, -0.08878024, 0.031011758, -0.08590003, 0.07861644, -0.07047879, -0.07442263, -0.10515055, 0.035829872, 0.068283156, 0.065511316, -0.07093259, 0.21087758, -0.019599669, 0.045519866, -0.070777014, -0.009638483, 0.022258652, -0.09439061, 0.16699165, 0.095196545, 0.0030464306, -0.04082439, -0.05390595, -0.0023281986, 0.0029639408, -0.06834351, -0.044886157, -0.09034774, 0.037325874, -0.024356961, -0.04867071, -0.057373513, 0.09821846, 0.04000021, 0.0013141423, -0.002592802, -0.03808015, 0.06414945, 0.06657299}, 
{0.033021934, 0.06525867, -0.061644267, -0.0039023757, 0.16941516, -0.18777612, 0.07238413, 0.07552959, -0.012237057, 0.119201876, -0.0804743, 0.08403024, -0.055387415, -0.106983185, -0.10063416, 0.11386136, 0.23674366, 0.032517362, 0.24887155, -0.042423982, 0.09465963, -0.13121843, 0.0036766455, -0.02595322, 0.10311053, 0.07894333, -0.06696408, 0.07234979, 0.07377566, 0.08981708, 0.06163722, 0.031235708, -0.008905001, 0.090074226, -0.049268425, 0.06501295, 0.21503156, 0.009578481, -0.032691095, 0.097470984, -0.055668626, -0.1205608, -0.10822802, 0.005173431, -0.0723422, 0.009056203, 0.022566453, 0.08001254, 0.03014705, -0.09912217, 0.07046419, -0.0703981, 0.05892408, -0.045950077, 0.004021421, -0.015657686, 0.0414864, -0.08418645, 0.01060684, -0.052516706, -0.020569429, 0.09195988, -0.05976854, -0.11641383}, 
{0.00774503, 0.102584034, -0.015256428, -0.08535628, -0.016539842, 0.016684528, 0.11053043, 0.08740406, 0.010157101, 0.05873709, 0.09332708, -0.05698654, 0.027344692, -0.098877735, -0.056754332, 0.05785738, 0.17840232, 0.06892091, 0.1236713, 0.015823223, -0.046615094, -0.19816846, 0.085858434, -0.11690147, 0.09331014, 0.006606117, -0.0442256, -0.083315946, -0.021561662, 0.068847016, -0.063051306, 0.03514796, -0.080430545, 0.05850576, 0.11827858, -0.013739127, 0.09401812, 0.025103778, 0.12631917, 0.07667403, 0.0050824503, 0.0018806435, -0.02861758, 0.0151392175, -0.005505927, 0.08546071, 0.062865436, 0.1429613, -0.013566057, 0.008105369, -0.052938957, -0.06438726, 0.10601531, 0.03474088, -0.054084152, -0.093501635, 0.049161494, -0.07684542, -0.030287756, -0.004977295, 0.030175105, -0.100291036, 0.12717722, -0.097723074}, 
{-0.055596855, -0.048189394, 0.013834048, -0.005614914, -0.056133706, 0.15137447, 0.02678327, -0.061601847, -0.048817515, -0.006141542, 0.12935124, 0.03943461, -0.09767384, -0.07812973, -0.038839296, -0.08008073, 0.075626284, 0.11162327, -0.023765579, -0.07553371, -0.0381431, -0.006092153, 0.0856128, 0.046869233, -0.06887576, -0.012123488, -0.066367544, 0.000650558, -0.07011467, 0.0009331554, 0.102259085, -0.086655095, -0.063904636, 0.028098159, 0.040825415, -0.10730906, 0.17233104, -0.09338186, -0.036707878, 0.010616183, -0.12079837, -0.087712474, -0.11420158, 0.08132705, -0.014290333, 0.06781484, -0.0640294, 0.08366925, -0.031546775, 0.019509, -0.059321336, -0.117609754, -0.04058551, 0.04415278, 0.06558499, -0.062753364, -0.08639678, 0.07250486, -0.019317783, 0.0158503, -0.06580416, -0.055464502, -0.049596276, -0.047752913}, 
{-0.06573762, -0.099388294, 0.085781254, 0.10004461, -0.10416875, -0.03387632, -0.0053934506, -0.08729991, -0.07811122, 0.067968726, 0.015436747, 0.080219865, 0.061084293, -0.1241265, -0.045990415, -0.0029353388, -0.033103924, 0.06318883, 0.035504553, 0.05449836, 0.06317666, 0.05075376, -0.044244505, 0.12998182, 0.099029474, 0.049521282, 0.09746181, -0.06407674, -0.020801624, -0.054066803, -0.10150401, -0.0613511, -0.11072665, -0.04557209, 0.110644795, 0.008813082, 0.014763018, 0.050880715, 0.0763113, 0.012860522, 0.05565019, 0.12731113, 0.020083716, -0.028591298, 0.03247215, 0.02580589, 0.029184014, 0.032806654, 0.08019475, -0.06474743, -0.043224514, 0.0867602, -0.019189686, -0.006917171, 0.024734572, -0.02477952, -0.07568573, -0.039232012, -0.10109338, -0.007201239, -0.1085537, -0.1037164, 0.03304918, -0.101647176}, 
{0.08304324, -0.026326627, -0.107167006, 0.027180344, 0.028742379, 0.0630657, -0.03612072, -0.03205969, 0.021738783, -0.05465519, 0.075697936, -0.011638187, -0.12558371, -0.06411417, 0.08589247, -0.07073332, 0.17532608, -0.04498147, 0.11134224, 0.03516466, -0.10165236, 0.0019031406, 0.10830872, 0.095173895, -0.08532892, 0.0014158562, 0.019947065, -0.004635555, 0.026695766, -0.11242433, 0.07534767, -0.04791424, 0.10871811, 0.108610205, 0.04260998, -0.051219128, 0.12738921, 0.00797984, 0.056675244, 0.04211989, 0.05536355, 0.008339367, 0.07019902, 0.14608438, -0.026423499, 0.103194475, -0.09273242, 0.031137858, -0.02211861, 0.090073876, -0.07196046, -0.018427294, -0.09911422, -0.024072394, 0.0014146641, 0.063258216, 0.10483832, 0.07594078, 0.034763373, 0.088307455, 0.036277026, -0.013604397, 0.0926458, 0.035305474}, 
{-0.073891774, -0.04602292, -0.09954929, -0.105589114, -0.010043253, 0.17227346, 0.035805084, -0.07666446, -0.105441004, -0.0036148338, 0.13763274, -0.001213327, 0.023950383, 0.019677594, 0.08404985, -0.057077326, 0.039255973, -0.0253544, 0.020557914, -0.06807033, 0.026099965, -0.048119377, 0.009008408, -0.026808469, 0.14660494, 0.05620706, -0.10437874, 0.0364724, 0.017590366, -0.041617572, 0.026769517, -0.041278, -0.0049701706, -0.04178711, 0.14069466, -0.071502015, -0.0034535192, 0.0802529, 0.10503584, -0.04269816, -0.10360133, -0.03428789, 0.024931302, 0.12702852, 0.089211345, -0.04185409, -0.090157, -0.04952873, 0.019564427, 0.06778112, -0.027427897, 0.056465987, 0.041189805, -0.0068432614, 0.07915583, -0.067945465, 0.0151886325, -0.019254861, -0.084887534, 0.07473597, -0.01248692, 0.00677013, -0.06874818, -0.11117299}, 
{0.028352372, 0.034921795, 0.022959445, 0.036665395, 0.017176034, -0.022052413, 0.13562971, -0.0006487295, -0.095518775, -0.031694807, -0.036961835, -0.0030927137, -0.021239733, 0.06772327, -0.102252804, -0.010602747, 0.15425406, -0.049060762, -0.018662322, 0.020956315, 0.05128634, -0.1005307, -0.058578514, 0.12308111, -0.0448083, -0.10593769, -0.1061049, -0.038104054, 0.0050713276, -0.09874152, -0.07832258, -0.03346867, -0.08570133, -0.009955247, 0.060848802, 0.02596868, -0.096384935, 0.0028459132, 0.015155681, -0.073538944, -0.036185727, 0.18317315, -0.0379392, -0.047360525, 0.09940876, -0.070548326, -0.04866553, -0.15610048, 0.043371577, -0.10111519, -0.042059414, -0.045769002, -0.03541921, 0.0011642054, 0.019692421, -0.09010975, -0.0379142, -0.09080663, 0.025602456, 0.08086327, -0.07924497, 0.016379531, -0.041546106, 0.012431588}, 
{-0.04598627, -0.082169384, -0.1056305, 0.09106369, -0.15451664, -0.011299016, 0.021418432, -0.05653448, -0.07773188, 0.030969007, 0.060606908, -0.017075598, 0.0040658456, -0.017341113, -0.022035658, -0.07558263, 0.006440027, 0.13211277, -0.058789045, 0.09916156, -0.06602393, -0.12246498, 0.025127307, 0.05564555, 0.032421533, -0.0022707954, 0.03415018, 0.074667506, -0.08977231, 0.08228324, 0.014195407, 0.14832138, 0.07196738, 0.04517226, 0.082494244, -0.0677394, 0.010463466, 0.099465996, 0.10033395, 0.05858323, -0.07606578, 0.07652928, 0.05367165, -0.0076285433, 0.05423948, 0.00046212226, 0.032743067, -0.14935784, 0.10279686, -0.13918754, 0.017922355, 0.00057775044, -0.0021503642, -0.03448361, 0.047756046, 0.096405685, 0.048999686, -0.1038508, -0.03315076, 0.06138253, -0.012293637, 0.066488445, 0.072737835, -0.070857115}, 
{-0.10375756, 0.10815576, -0.06133696, -0.06106344, -0.05642805, 0.11876814, -0.005134397, -0.055448957, -0.08480797, 0.07912688, 0.14019051, 0.097832024, 0.016530976, -0.03958653, -0.09975864, -0.021988234, 0.01567776, 0.0524521, -0.080337815, -0.04160295, -0.09217197, 0.04885064, 0.045995757, 0.07372745, 0.14604463, -0.06366646, 0.08337869, -0.009509603, -0.018858477, -0.10186535, -0.080910824, 0.17898771, 0.062260658, -0.010738468, -0.013489626, -0.04672408, 0.013865296, 0.10348351, 0.008786067, 0.06988898, -0.013936456, 0.20072412, 0.026753291, 0.1383312, -0.0664383, -0.032224692, -0.06288193, -0.06203505, -0.08081197, 0.04804312, 0.09202384, 0.10343931, 0.099382356, -0.056175333, -0.091784894, 0.083159655, -0.074318536, -0.07239818, 0.07933737, 0.19475342, -0.0768659, -0.09263469, -0.066748634, 0.011808123}, 
{-0.09999286, 0.028466284, -0.06896786, 0.024831504, -0.090248175, -0.021533797, 0.09754245, 0.064648986, -0.090985805, 0.021459635, -0.049903296, -0.029008843, 0.1151983, -0.004917041, -0.020799853, -0.054428205, -0.002109931, 0.043470807, 0.07603226, 0.028402843, 0.049788162, -0.027108254, -0.060269687, 0.14791423, -0.000547627, 0.037241638, -0.0064219674, -0.027421474, 0.06141299, -0.07405892, 0.09428158, 0.17074391, 0.018097743, 0.11558149, 0.0094383955, -0.08716195, -0.026336493, -0.09560358, 0.091288835, -0.014445223, -0.010048824, 0.13920844, -0.004444601, 0.10595126, 0.013274968, 0.020802855, -0.06999392, 0.03331562, 0.06049648, -0.036753766, -0.104287714, -0.013422725, -0.062440332, -0.05390855, -0.109390885, 0.037936077, 0.026604367, 0.0002355072, -0.021110276, 0.18359224, -0.029230721, 0.09447603, -0.114315614, -0.063506216}, 
{0.10423673, -0.03592425, 0.09266586, 0.028371006, 0.047910564, -0.05131888, 0.086171746, -0.05763961, -0.04397046, 0.056232415, 0.012506633, 0.105422676, 0.045511127, 0.11657593, 0.110780105, -0.035492085, -0.059987295, 0.10894678, 0.12923932, 0.061375115, -0.09544804, -0.13691606, 0.030229032, -0.06005342, 0.19367726, 0.055816025, 0.045986537, -0.066292934, -0.038047116, -0.039601192, 0.055197593, 0.019377774, -0.010784522, 0.16998626, -0.003966784, -0.047662552, -0.06633971, -0.099593095, 0.03118693, 0.06511423, 0.05652355, 0.14798148, -0.0011815045, 0.078740545, -0.045313112, 0.07391387, -0.032475993, -0.108011484, -0.09216481, -0.14024732, -0.11421232, -0.11211443, 0.06329462, -0.06607384, -0.012368873, 0.11201416, -0.11755585, 0.06857285, 0.055003185, 0.17578596, -0.0040543377, 0.030002868, -0.088213645, 0.10314318}, 
{0.047551572, 0.046560526, -0.0748064, -0.03198351, 0.05534338, -0.089989595, 0.12750465, -0.112426765, 0.0579108, 0.042293627, -0.06327273, 0.019558325, -0.047863502, 0.02468981, -0.07327244, -0.010726806, -0.061776508, 0.18208054, 0.04435895, 0.058223054, -0.020079225, 0.07291464, 0.05969514, -0.036486547, 0.065378174, -0.0664944, 0.08271567, -0.062044606, 0.14723252, 0.07174949, -0.03800916, 0.121096775, -0.06981029, 0.006119928, 0.056427956, 0.026559642, -0.05882118, 0.022064969, 0.08739966, -0.03991197, 0.10078195, 0.058607772, -0.08967763, -0.08304777, -0.07005283, 0.043647826, 0.06464389, -0.05018047, -0.030834014, -0.020442683, 0.027294505, 0.017923241, 0.017168865, -0.013102084, -0.08914254, 0.10504517, -0.085731134, 0.034184847, 0.099864595, 0.032891676, 0.02798158, 0.09704992, 0.0682015, -0.08031513}, 
{0.07905772, -0.04794921, 0.066631466, 0.013241604, -0.17513238, 0.14697167, -0.02119443, 0.08414954, -0.017644487, -0.013828103, 0.15088648, 0.11287139, 0.14574048, 0.04738702, 0.044698387, -0.08864325, -0.020590238, -0.017032491, 0.033498976, 0.020102698, -0.038186744, -0.0022250852, 0.10577586, 0.039507654, 0.049345557, 0.05103126, 0.038909525, -0.09177684, -0.04350297, -0.016962297, -0.051771853, 0.1334538, -0.04986465, 0.0144011, 0.052260343, -0.06493438, -0.09138876, -0.06799183, 0.13352825, -0.070539735, -0.015509245, 0.20954394, -0.008202017, -0.098619096, 0.035391152, -0.027110748, -0.09433521, -0.024068411, -0.043750282, 0.011555954, -0.021875234, 0.0706329, 0.08303581, -0.0437283, -0.02885314, 0.036169365, 0.05626238, 0.0225006, -0.04473619, 0.021802913, -0.025050916, 0.058407318, -0.08122153, -0.018833466}, 
{-0.0077903396, 0.10376182, -0.06826491, 0.011739224, -0.06685938, 0.10845581, -0.090132125, -0.039834484, -0.07626714, 0.10856478, 0.035985492, 0.054945543, 0.104313746, -0.021575907, 0.09092149, -0.023708416, -0.072904944, 0.13028441, -0.10968191, 0.07822073, -0.025191754, 0.11376987, 0.027154759, -0.005616523, -0.15490207, 0.067415655, -0.027044311, 0.037097074, 0.08030484, -0.00091174245, -0.05633988, 0.00043279925, 0.029390678, 0.10863599, -0.06060906, -0.096769586, -0.082528025, 0.06298728, 0.04416536, 0.0734418, -0.0062810155, 0.09457637, -0.0039109588, -0.110039614, 0.07466386, 0.060880214, 0.06025426, -0.09300686, 0.030709613, 0.030121043, -0.042124588, -0.113300234, -0.009610206, -0.087607875, 0.101725996, -0.010013327, -0.073243834, 0.05026188, 0.0772432, -0.12080298, -0.071695045, -0.10829585, 0.055747297, -0.11008493}, 
{0.036193248, 0.008971259, 0.08095162, 0.025354698, -0.0068375836, -0.06985683, -0.014081981, -0.034154452, -0.05370459, 0.1415026, 0.01859304, 0.09070167, 0.12809421, 0.16202343, -0.021192618, 0.028197162, -0.15332875, 0.12488899, -0.13777685, -0.07079815, 0.004943274, 0.16268694, 0.047059402, 0.13296689, -0.1870853, 0.0030340701, 0.05143851, -0.04087034, 0.08234131, 0.09906739, 0.09166762, 0.049626574, 0.010890417, 0.12653609, -0.16651452, 0.06003394, -0.10784619, -0.06391494, -0.08891595, -0.019312859, 0.20300263, 0.018007437, -0.115372114, -0.04923042, -0.05667389, -0.026486881, 0.05887942, -0.09227059, -0.06490384, 0.17769475, 0.08561136, 0.08606848, -0.036997333, -0.046725526, 0.00028784573, -0.10353527, 0.0050392365, -0.10714461, -0.02886683, 0.0011366474, -0.028260827, -0.023632662, 0.10338415, 0.04088247}, 
{-0.036817845, -0.04817882, -0.013206478, 0.08886126, -0.04280447, -0.06846742, 0.012553517, 0.10134457, 0.04489985, -0.08419737, 0.018094616, 0.015022159, 0.12253626, -0.03882851, 0.017045483, 0.002132128, -0.02146667, 0.13667464, -0.18968974, -0.011620009, -0.041109033, 0.13503416, -0.019310497, 0.11881769, -0.11442057, -0.018409654, -0.095448904, 0.016055578, 0.0023580466, 0.012291163, -0.099402934, -0.07717951, -0.08645967, 0.05397447, -0.12922035, 0.030453932, 0.09756834, -0.02571214, 0.047940813, -0.07332386, -0.022303209, 0.05724813, -0.0701581, 0.017897913, -0.041068643, -0.067951545, 0.10072376, -0.031556513, 0.003035543, 0.18162891, 0.055003982, -0.07398739, 0.09459613, 0.06978239, -0.013033241, -0.08708864, -0.007284127, -0.004718689, -0.08875071, 0.1059473, 0.026887804, 0.09251513, 0.03649005, -0.07293286}, 
{0.021992832, -0.09447321, -0.11877159, -0.085966565, -0.16367608, 0.075294726, -0.024948506, -0.113692395, -0.07280795, -0.10441055, 0.009434494, 0.09545305, 0.016036866, -0.06912214, 0.02024813, -0.10679875, 0.017678382, 0.07875627, -0.09606126, 0.018967552, 0.035711095, 0.15075785, 0.034002006, 0.021930134, -0.11798431, 0.0047135577, 0.060765043, 0.0684831, -0.22111486, -0.090740144, -0.0343268, -0.02381803, 0.10062176, -0.0062736, 0.13723801, -0.012897319, -0.06275781, 0.011927709, 0.023196183, 0.07380383, -0.08041905, 0.10279926, -0.060290314, 0.14723505, -0.09319934, 0.007055439, 0.014035001, -0.20698203, 0.106440075, -0.049263988, 0.011118132, 0.05126755, 0.04013917, -0.08682807, -0.061227597, -0.07462539, 0.06665883, -0.039568752, 0.059565753, 0.09164016, 0.011723235, -0.1135344, 0.13190722, -0.07679279}, 
{-0.050688725, 0.051685497, 0.04979935, -0.030864552, -0.06552274, 0.17181823, 0.17849925, -0.051640604, 0.025787562, -0.10832708, 0.012791773, -0.08891417, 0.032276545, -0.028454913, -0.056633495, -0.10070769, 0.025551358, -0.037993137, -0.30897033, -0.10493949, 0.02425982, 0.1622335, -0.06469741, 0.19310316, -0.18740156, 0.03604777, -0.0014510101, 0.001439485, -0.15451753, -0.07786965, 0.077811055, -0.06188572, 0.042409122, -0.098281324, 0.1511576, 0.02398613, 0.060221232, -0.09221104, 0.15700902, 0.09689291, -0.13135034, 0.13721539, 0.02205844, 0.23316276, -0.010476284, -0.07194914, 0.05031319, -0.18366852, -0.086327285, -0.059624594, 0.056215122, -0.056849424, -0.025750391, -0.006158285, 0.080568895, 0.07166751, -0.027219223, -0.038980287, 0.008274391, 0.14546975, 0.019579276, 0.06996829, 0.12565543, 0.007778621}, 
{-0.035778068, -0.047144152, 0.08896673, 0.020807937, -0.21613976, 0.14555255, 0.18288726, 0.024956807, -0.08275491, -0.14613122, 0.0034660518, -0.0085565075, -0.071673356, -0.20834269, 0.08220929, -0.1093472, 0.10463019, 0.0063084285, -0.06797873, 0.082763255, -0.0016569868, 0.060858186, -0.010705732, 0.08070343, -0.11405098, -0.09824339, -0.09701021, 0.048355065, -0.034552455, 0.02009818, 0.10486007, 0.008164005, 0.057048842, -0.09057521, 0.22669485, -0.09233742, 0.17880334, -0.08706757, 0.022446392, -0.054384958, -0.16598867, 0.08232136, 0.01571487, 0.103230014, -0.10450961, -0.07678795, 0.10373658, -0.20757236, -0.02443803, -0.08143407, 0.05380249, 0.09495927, -0.020855159, -0.030343331, -0.035651237, 0.092026025, 0.035458386, -0.0077556716, -0.083516076, 0.24945799, -0.073366016, -0.048695486, 0.19637614, 0.00013451913}, 
{-0.11772913, -0.08295711, -0.053419802, 0.030331165, -0.048532758, -0.16325866, 0.030042572, -0.07572637, -0.07602525, 0.11144433, 0.122316316, -0.04020828, -0.13385564, -0.067647256, -0.021686621, 0.049844958, 0.24168341, 0.069150776, 0.19025719, 0.007289867, 0.11257312, -0.07144323, -0.068341225, 0.0016680743, 0.22850326, 0.073470026, -0.038316954, -0.08075321, 0.026272828, 0.06808981, -0.060451627, -0.11086492, -0.033444203, 0.00069739384, -0.039604627, -0.026380377, 0.026780443, -0.05699988, 0.06590762, 0.059594497, -0.1659879, -0.12671785, 0.10651839, 0.15534966, -0.09312649, 0.046634376, 0.10638289, 0.117752686, -0.10808014, -0.15554318, 0.051368628, 0.07196444, 0.019752204, -0.039299086, 0.074824855, -0.094553135, 0.09925833, -0.09920799, -0.049628925, 0.03655908, -0.02818036, -0.116842136, 0.004243106, 0.040679004}, 
{-0.0693542, 0.06878282, -0.03542755, -0.019655712, 0.03815125, -0.25923, 0.033218578, -0.08481445, -0.08913432, 0.05697607, 0.07846254, -0.1106644, -0.10235583, 0.014981686, 0.06381807, 0.2215216, 0.16895603, 0.005816791, 0.13992183, -0.045645677, 0.041590944, -0.15534978, -0.049483165, -0.16054158, 0.14101924, -0.024732538, 0.036538493, -0.026920121, 0.14447936, -0.024171785, 0.09924359, -0.141721, 0.017413959, 0.027203323, 0.15156873, 0.08713479, 0.11977124, 0.042280287, 0.111590736, -0.015819214, -0.1614382, -0.15232182, -0.022337405, 0.011345332, 0.033232406, -0.11193833, -0.0017573535, 0.15959366, -0.013002211, -0.11421721, -0.048464045, 0.02953489, 0.02459015, 0.10844287, 0.06892648, 0.08350322, 0.0958703, -0.04174661, -0.08403449, -0.12243936, -0.03989397, -0.109321386, -0.04786186, 0.035649985}, 
{0.019178135, -0.003041014, 0.06478712, -0.068705976, -0.004040469, -0.0360167, -0.06784047, -0.06761761, -0.044065513, 0.039277293, 0.09797291, 0.026006281, -0.13712525, -0.13738577, 0.06614186, 0.033088747, 0.062963694, -0.035351448, 0.047172274, -0.085272916, 0.025452405, -0.010904197, 0.032960907, -0.07252404, 0.14282165, -0.035470538, 0.008674696, -0.021238638, 0.0053896494, -0.07701653, 0.08232295, 0.0007325905, 0.09099159, 0.083820306, 0.006786021, -0.06732209, 0.19374579, -0.008380935, -0.06420246, 0.06706008, 0.022469312, 0.0028985634, -0.07322989, -0.006853459, 0.027148709, 0.10310064, 0.07262316, 0.02923434, -0.08038171, -0.13383876, -0.039412282, -0.0064195017, -0.0014486089, 0.10907091, -0.06868675, -0.10209933, 0.053057883, 0.0988018, 0.030069668, -0.048269972, -0.109058276, -0.07475673, -0.041528497, -0.059710424}, 
{-0.024803797, -0.021262325, -0.031658694, -0.0023685843, 0.08619773, 0.07626932, 0.04200015, -0.071191415, -0.013274185, -0.11565961, 0.0188653, -0.020451926, -0.064214, 0.048460398, 0.048710912, 0.08414946, 0.17949216, 0.027488273, 0.10249193, -0.08737925, -0.010062233, -0.06382877, -0.0057178065, 0.09241408, 0.11963909, 0.0537121, -0.058520753, -0.016215894, -0.008762813, -0.09316464, -0.049207836, 0.12283454, -0.07119722, -0.007824358, 0.14209285, 0.030173851, 0.007864381, 0.10199435, 0.08854615, -0.022354707, -0.15172902, -0.023468593, -0.09276904, 0.14328639, -0.0005570352, -0.026339725, 0.06910783, 0.06303279, -0.10305618, 0.020775314, -0.076547936, -0.02542739, 0.019433826, -0.05905194, 0.103605896, 0.014684543, 0.09882102, -0.01819073, -0.033227205, -0.011401085, 0.107118264, 0.047350246, 0.018741906, -0.09390796}, 
{0.06749604, 0.06327011, 0.059973598, 0.10822263, 0.08616918, 0.12891921, -0.065095335, -0.03918194, -0.030387148, 0.00740883, 0.13757756, 0.033281893, -0.013182064, 0.04091965, 0.020272046, 0.08254262, -0.041115962, -0.030329198, 0.04005239, -0.11133406, -0.008013025, 0.0072873617, 0.0930499, -0.08274637, 0.10202171, 0.006133154, -0.09532338, -0.023802035, 0.09463188, -0.040210173, -0.089584954, 0.07719578, -0.03810349, 0.014343663, 0.12259904, -0.021011619, -0.01502553, -0.04011607, 0.0005619212, -0.11286034, -0.13357192, 0.0700147, 0.054351322, 0.12878673, 0.05683106, -0.06613178, -0.052341387, 0.027488751, -0.0403748, 0.054996856, 0.039045747, -0.11136622, 0.04633075, 0.01578267, -0.050823808, -0.112828754, 0.06517284, 0.0444302, -0.0014875714, 0.11316763, 0.027876496, 0.06800968, 0.0008638764, 0.007153992}, 
{0.056460798, -0.0039670393, -0.07656586, 0.10824533, -0.102349296, 0.14867103, -0.017682316, -0.014301449, 0.057010323, 0.09052648, -0.07011343, -0.009407893, 0.043285742, 0.063897125, 0.088956416, 0.052221876, 0.08306428, 0.11951111, 0.01671306, -0.030290762, 0.018594638, -0.043283973, 0.076177344, -0.030389179, -0.07781107, -0.068788126, -0.02466733, -0.06146338, 0.024625942, -0.016222961, -0.020959856, 0.1020593, -0.013578922, 0.05497818, 0.04974464, 0.058356088, 0.051031314, 0.051490426, 0.102043785, -0.03543426, 0.03586739, 0.09537803, -0.040964868, -0.04440291, 0.036170363, -0.0065999925, 0.0040776506, -0.09474354, 0.10422723, 0.072221085, 0.1065131, 0.06202842, -0.107059464, 0.016098708, 0.102563724, -0.07509241, 0.082034804, 0.057807084, -0.0075473054, -0.016951282, -0.06455578, -0.097917505, -0.012035558, 0.0406898}, 
{0.016651241, 0.104213715, -0.026167631, -0.016388074, 0.03430048, -0.03882105, -0.0025772795, -0.06958367, -0.017557047, 0.049856633, -0.004497624, -0.10759679, 0.03764322, 0.014039201, -0.08229597, -0.04883265, 0.15952374, 0.05484363, 0.12489409, 0.0006709661, -0.09767445, 0.0616253, -0.009195283, 0.019020982, 0.011914418, -0.04830025, 0.011244442, -0.020580927, -0.04714172, 0.095378816, 0.073727086, 0.16127609, -0.07446434, -0.04552586, -0.05460599, -0.05058515, 0.07344867, 0.059754238, 0.006689006, -0.05594689, 0.05917785, 0.12942134, 0.096364945, 0.03963304, -0.10002591, -0.06459761, -0.055752877, -0.111650765, 0.032320637, -0.08570821, -0.05563307, 0.032953467, 0.06828058, 0.06478539, -0.0013199896, -0.07370207, 0.013842634, 0.07242304, -0.08911035, 0.1132672, -0.08654903, -0.029722108, 0.028913064, -0.046963174}, 
{-0.05152697, 0.09864983, -0.002210287, -0.058145784, -0.08027349, -0.043335255, -0.0001877095, 0.05760792, 0.027776152, 0.03874328, -0.065074034, 0.09165427, 0.11807128, 0.04165372, 0.06392448, 0.06680943, 0.14299358, 0.14795136, 0.09486336, -0.034672353, 0.102044344, -0.049640212, -0.029435903, 0.053556666, 0.13628836, 0.090121105, -0.040649712, -0.027683724, 0.07760791, 0.06766167, -0.026077233, 0.1350721, -0.0692583, 0.0058354097, 0.13802193, 0.04543797, -0.11556109, -0.09068392, 0.002647851, -0.013940051, -0.10966165, -0.0071778977, -0.02093394, -0.010205759, 0.019082755, -0.10747444, -0.078780524, -0.06480196, 0.0066976515, -0.068027936, -0.10292912, -0.049978975, 0.044157773, -0.10818886, -0.1039834, -0.09611738, -0.0028073795, 0.070344724, -0.057900537, 0.15723985, 0.04700336, -0.10149789, 0.051144246, -0.07365945}, 
{0.061451364, -0.09275753, 4.4613465e-05, -0.06423602, -0.12738685, 0.00044480767, -0.02846853, -0.10484837, 0.11016373, 0.0521883, -0.009657126, -0.08361443, -0.03044227, -0.004362461, 0.01644823, -0.07358443, 0.037117787, 0.11996463, -0.052105423, 0.079803884, -0.05953816, 0.05191821, -0.022213347, 0.06763554, 0.046107408, -0.006020069, -0.116319254, -0.022122815, -0.07458194, -0.02699799, -0.05152422, 0.14969024, -0.0931478, 0.050493896, 0.009065179, 0.07196745, -0.034500845, -0.08211285, 0.09384711, -0.06433384, -0.13006549, 0.088581815, 0.044888586, 0.09207156, -0.031680018, -0.112102374, 0.109350696, -0.06822613, 0.092096075, -0.12472775, -0.049955532, -0.020227445, 0.05380872, 0.058390632, -0.096208274, -0.04377623, 0.055437665, 0.036914237, -0.04579811, 0.14704597, -0.026184209, -0.121075645, -0.10972254, 0.046764426}, 
{0.04228694, -0.07489352, 0.071377985, 0.10212329, -0.02910763, 0.0068703047, -0.05444545, -0.037610516, -0.03468752, -0.10907362, 0.1173752, 0.060611814, 0.10471102, 0.093558, 0.096189246, 0.058449756, 0.0027914797, 0.12046489, -0.014488581, -0.0919578, -0.04494556, 0.044251736, 0.017606765, -0.035244137, -0.0063637393, -0.025467537, -0.009371914, 0.100012645, -0.053322934, -0.054780003, -0.08649846, 0.11080709, -0.04748793, 0.06002187, 0.06443676, 0.03831761, -0.14562611, -0.07715854, 0.09352511, 0.112153396, -0.037481844, 0.034157883, 0.10890661, 0.0034111114, -0.074726, -0.09060915, 0.0017468035, -0.153112, -0.103935055, 0.057721533, -0.030177122, 0.06711952, 0.0025444627, -0.017341591, -0.10025202, -0.088006206, 0.07240834, -0.059992753, -0.06745751, 0.024270078, -0.106901295, 0.06925886, 0.041804023, 0.07997712}, 
{0.083582394, -0.055082217, -0.11663599, -0.08895628, -0.023076998, -0.04017312, -0.032897174, 0.014661685, 0.004914321, 0.12517259, 0.112016134, -0.06728961, 0.07078632, 0.036337905, -0.020358771, 0.038011517, 0.08644189, 0.13407905, 0.028062696, -0.017486949, -0.028696842, -0.1299379, -0.05404495, 0.027200893, 0.14455022, 0.07694599, -0.09443393, 0.0017057225, 0.04935013, -0.07730842, 0.052923206, 0.17451, -0.049833395, 0.044965994, 0.09764154, -0.034550242, 0.05133715, -0.0019804016, -0.032698445, 0.05187224, 0.04350745, 0.09162695, -0.08021875, -0.057530582, -0.0977065, 0.014962137, -0.007898502, 0.022676751, 0.06917821, 0.06216394, 0.026054965, 0.038556907, -0.10427569, -0.056382682, 0.09620708, -0.037027292, -0.047275566, -0.020155368, -0.115697674, 0.041325696, -0.098779306, 0.021201162, -0.119535096, 0.02677343}, 
{0.015013489, 0.07284543, 0.08676839, -0.058967866, 0.018112283, 0.108003885, 0.0919464, -0.076201715, -0.050419465, -0.04001262, 0.14642087, -0.0841882, 0.07325084, -0.035110574, 0.046721265, 0.046342567, -0.0070889285, 0.0105422465, 0.03526868, -0.0961189, -0.037237242, 0.017328957, -0.006473027, 0.1503096, 0.07892735, -0.032784738, 0.011824393, 0.047207594, -0.008330528, 0.078764126, -0.05783207, 0.13020392, 0.00062926114, 0.0037874153, 0.06917636, 0.09193404, -0.08415884, -0.10435136, 0.012681755, -0.111232445, -0.10108019, 0.20579071, 0.09087847, -0.091168925, -0.035030834, -0.08724615, -0.031344786, 0.071320936, -0.054174893, 0.048426844, -0.07509094, -0.0014257395, 0.044404134, -0.100974, 0.095624104, 0.101974666, 0.025875008, -0.044874884, -0.05689389, 0.092443354, -0.11196866, 0.10200792, -0.10619396, 0.07909277}, 
{-0.0062606987, 0.06007348, 0.06384598, 0.0388567, 0.05558716, -0.10099757, -0.099810705, 0.09480061, 0.013144568, 0.15425165, 0.01891131, 0.110308886, 0.1006384, 0.10298728, 0.06254238, 0.107213505, 0.124383174, 0.07045221, 0.004728215, -0.056687795, -0.07702206, 0.07299596, -0.08251636, 0.052606218, 0.06058504, 0.008237161, 0.066666834, 0.10068928, 0.112559095, -0.04137381, -0.0949596, 0.06949682, -0.02786494, 0.01614667, 0.025391415, -0.021923335, -0.15564385, -0.065446824, -0.09348519, 0.004031673, 0.027106227, 0.17545673, -0.09432533, 0.08288509, -0.08996461, 0.1031293, -0.017060064, -0.11521876, -0.08438076, -0.026297454, 0.08307058, -0.021664487, 0.07716526, -0.07144288, -0.077947244, 0.043809116, -0.04368694, -0.036774833, -0.051361706, 0.06407708, -0.05982839, 0.070358634, -0.13110922, 0.08202644}, 
{-0.096905656, -0.049008705, 0.006018903, 0.056315556, -0.08213991, 0.10826298, -0.030059902, 0.026146963, -0.09046654, -0.06726453, 0.053381346, -0.088966094, 0.15234837, -0.04714729, 0.034901023, 0.11200795, -0.15554744, 0.003568898, 0.07460923, 0.06389617, -0.065921396, 0.058672447, 0.047636777, -0.18423104, 0.17539485, -0.011989415, 0.040624604, -0.011440697, 0.054878633, 0.07056016, 0.045343738, 0.15528445, 0.08442038, -0.081182614, 0.14162628, 0.0004831892, -0.14214855, -0.10158797, 0.18439765, 0.09676111, 0.13286777, 0.14410144, 0.047326148, -0.05871081, 0.005677946, -0.050308794, -0.04920364, -0.06506081, 0.02406648, -0.2266663, 0.036692936, -0.009542832, 0.10752855, -0.09023874, -0.10828033, 0.08715902, -0.044034373, -0.00018725565, -0.06938911, -0.02554486, 0.06316836, 0.056749076, -0.011384316, -0.07320596}, 
{-0.110559516, -0.090736836, 0.0013270989, -0.0914322, 0.024631158, 0.0010628883, 0.0521873, -0.060513612, -0.03256739, 0.08500843, 0.073501974, -0.1111157, 0.13307801, -0.068457365, 0.07667503, 0.11144661, -0.099169515, 0.063294575, -0.06575054, -0.08805695, -0.018083423, 0.14414026, 0.0648167, -0.04076024, -0.017612461, -0.016749933, 0.039702307, -0.053191796, 0.07944402, -0.019741982, 0.078132056, 0.012392836, 0.05780211, 0.103730015, -0.07879993, -0.08759244, 0.026561607, 0.104481936, 0.12573595, 0.10884589, 0.16818905, 0.08216629, 0.055230983, -0.020566698, -0.08035908, -0.08270684, 0.010277018, 0.1500532, -0.03756383, 0.00029152242, -0.06624751, 0.041990325, 0.07747626, -0.099079706, -0.041821204, 0.02493225, 0.10518887, 0.024119217, 0.11371833, 0.0636117, 0.03726709, 0.08294835, -0.13070744, 0.048504476}, 
{0.068509564, -0.032001346, -0.05431692, -0.004807584, 0.025379416, -0.081483446, -0.08860096, 0.11027424, -0.062592454, 0.065471224, -0.08469643, -0.07446267, 0.13146926, 0.023080507, 0.029922128, -0.04608229, -0.06867838, 0.08280842, -0.08161896, 0.035126463, 0.047896743, 0.147676, -0.03867758, -0.02716571, -0.029378222, -0.017003126, -0.035395034, 0.020939775, 0.0801322, -0.035405166, -0.029349312, 0.048480153, -0.10833247, 0.030144524, -0.14901821, -0.034858085, -0.120041676, -0.07188244, 0.060483683, 0.09091678, 0.14579462, -0.026936095, -0.0004549618, 0.063725516, -0.02890405, 0.060419068, 0.012092873, -0.048010044, -0.03583746, 0.06884319, -0.029692043, 0.10554701, -0.019183397, 0.018402249, 0.01396063, -0.09660796, -0.07530691, 0.038830545, -0.039528627, -0.022879506, -0.10371654, 0.06926773, 0.03376674, 0.048061598}, 
{0.05732364, -0.10436996, 0.0251009, 0.025572792, 0.06361164, 0.08910524, -0.15080963, -0.00042429566, 0.018563733, 0.08154097, -0.11416241, -0.040206708, 0.14715588, 0.14749523, -0.10453781, 0.041047193, -0.13305748, -0.08076717, -0.032962747, -0.075807214, -0.043239124, -0.0052232863, 0.108898595, 0.17765446, -0.2075143, 0.057766408, 0.073901966, -0.12039493, 0.059274394, 0.11120398, 0.0710262, 0.020431554, -0.05624699, 0.05771397, 0.03380874, 0.099623926, -0.13452668, -0.009815246, -0.07904478, -0.006650768, 0.13006298, -0.15848994, 0.08689642, -0.054336246, -0.022188649, 0.0022441745, -0.031979337, -0.1392838, -0.051381037, 0.21357699, 0.0011514399, 0.0796892, 0.055910558, 0.026046067, 0.075721055, 0.042236045, 0.026401622, 0.05391924, -0.087654874, -0.083070345, 0.075881064, 0.087647334, 0.1451264, -0.013280191}, 
{-0.026163327, -0.06466398, 0.09241144, 0.1052499, -0.13890976, 0.1463062, 0.126444, 0.007023506, -0.07627649, 0.016878065, 0.05274668, 0.06689079, 0.060403805, -0.14077923, 0.07649411, 0.013189484, -0.037666462, -0.104015626, -0.0066683115, -0.053937633, -0.10713955, 0.16175945, 0.055036098, 0.12923892, -0.011313793, 0.01994057, 0.09593237, 0.06336841, -0.029156871, -0.04306048, -0.027330384, 0.045071557, -0.013467059, 0.0073954426, -0.047650464, 0.09734059, 0.14460152, -0.07371265, -0.09522157, -0.015405111, 0.06897383, 0.050693497, -0.102460906, 0.07861061, -0.0889302, -0.07975313, 0.042692438, 0.008190152, -0.07595199, 0.15206064, 0.033236314, -0.10835479, 0.07207686, 0.07638413, -0.07920412, -0.041438527, 0.071270145, 0.024100069, -0.0890285, 0.21763836, 0.09112936, -0.04390455, 0.1861245, 0.048309106}, 
{0.06498596, -0.049851693, -0.09633149, 0.08541958, -0.14713314, 0.2723472, 0.08523962, 0.048558325, 0.046689227, -0.13653515, 0.17606007, 0.061789274, -0.1566724, -0.02944124, -0.09912287, -0.14583986, 0.20862474, -0.07078849, -0.090827234, -0.0008890593, 0.107360005, 0.010850201, 0.09818806, 0.20676807, -0.1747049, -0.06657259, -0.08824695, -0.03692781, -0.07559365, -0.010860808, 0.07746475, -0.07644483, 0.038265124, -0.03978172, 0.07395985, 0.025312679, 0.038485534, 0.042961553, 0.10042724, 0.019236535, -0.1515109, -0.040300954, 0.035256132, 0.038572043, 0.074829206, -0.06863414, -0.037820145, -0.0075609824, 0.012519575, -0.03325251, -0.11693968, -0.11639972, -0.018689774, 0.04854545, 0.07581404, 0.10711889, -0.0062977048, -0.025600214, 0.014572217, 0.09097541, -0.09314758, -0.05766668, 0.23670095, 0.093782224}, 
{-0.107761584, -0.027726538, 0.034056295, 0.06447029, -0.030015856, 0.03511114, 0.10860701, -0.02051662, 0.062878296, -0.10233136, 0.11646571, -0.0029729605, -0.090466954, -0.16746229, -0.060401317, -0.00027171097, 0.24100654, -0.14873615, 0.051857635, -0.08695537, -0.0050482824, -0.13412152, 0.065816954, -0.05108421, -0.11240279, -0.014901511, -0.06770457, -0.0251133, 0.01977414, 0.019834593, 0.021536615, -0.12845525, -0.087260224, -0.21437791, 0.111333735, 0.009663, 0.094998956, 0.035383314, 0.13069995, 0.01258336, -0.22024997, -0.13251479, 0.08108018, 0.03206873, 0.054420695, -0.10504306, -0.050836146, -0.09439203, 0.051701043, 0.028746495, 0.08860304, -0.05492893, 0.06646566, 0.033805653, -0.060081072, -0.09731734, -0.061373763, 0.04738845, -0.08530266, 0.23826465, -0.10020929, -0.053261776, 0.20994867, 0.0076278984}, 
{0.08530077, -0.06365987, -0.11264963, -0.06703977, 0.1035625, -0.06490511, -0.00839465, -0.08060397, -0.07576685, -0.04857999, -0.04337271, -0.044949844, -0.15890802, -0.021130452, -0.09585691, 0.16847081, 0.2669749, 0.008562008, 0.27341682, -0.0756697, -0.10445159, -0.2711238, 0.11234237, -0.023136862, 0.15825701, -0.07473611, 0.037465513, 0.076033704, 0.114879616, 0.045395687, -0.0122457445, -0.01483563, 0.053524345, -0.0462363, 0.10234922, -0.091717064, 0.10874415, 0.04790044, 0.07429475, 0.05314961, -0.18414147, -0.0820132, 0.060039822, 0.10321355, 0.09328334, -0.06664766, 0.10716897, 0.084348455, -0.016229682, -0.14325346, 0.07948735, -0.06952415, -0.044028178, -0.025509804, -0.08531567, 0.06598976, -0.050998297, 0.026492482, 0.012100291, 0.13365036, 0.013115227, -0.0030720364, 0.096192986, 0.024395922}, 
{-0.0122803, 0.06555091, 0.023872297, 0.029626086, 0.08447112, -0.13798384, -0.08851371, 0.045195043, 0.061633244, 0.13959303, -0.010267545, 0.05387135, -0.046427544, -0.08697444, -0.09533859, 0.13219362, 0.06568701, 0.051705573, 0.21376435, 0.008936773, 0.042989552, -0.087878324, -0.11087045, -0.09788793, 0.22286838, -0.043680474, -0.022018153, -0.03603155, 0.19688123, 0.007853717, -0.053630665, 0.005797483, -0.10454003, -0.086682774, 0.13584866, -0.06876643, 0.23546986, -0.00992462, -0.05398261, 0.035697103, -0.05011393, -0.13458574, 0.060033247, 0.083662614, 0.083873436, -0.011329219, -0.06525032, 0.20843147, 0.07527296, -0.12216534, 0.091657534, -0.113129295, 0.019030705, -0.004839167, 0.033272132, -0.10668205, -0.11768863, 0.099089116, 0.061135434, -9.0679845e-05, -0.06028842, -0.06796048, 0.048149526, -0.033989087}, 
{0.015708314, -0.028424911, 0.038443256, -0.05461351, -0.00956226, -0.028993903, 0.10472489, -0.08368251, -0.02962143, 0.10944511, -0.018105203, -0.0073216483, -0.0567688, 0.0492758, -0.06726469, 0.08423945, 0.07798433, -0.03181916, 0.09603674, -0.112870075, -0.0726953, -0.04711718, -0.078320764, 0.04025525, 0.17333922, 0.030545771, -0.07762305, -0.020027293, 0.03628959, 0.06699471, 0.093299955, -0.048148453, -0.04272972, -0.046182465, -0.07530586, -0.025389781, 0.018249027, -0.059587583, 0.0014859785, 0.021337777, -0.04362018, -0.11854954, 0.04602558, 0.007163103, -0.10315907, -0.053859126, 0.08651455, 0.12059067, 0.059690684, 0.09036681, 0.00116683, -0.106981516, -0.027305089, -0.054864157, -0.113322675, -0.011338465, 0.03116563, -0.08462572, 0.01062727, 0.0849171, -0.04149828, 0.05690323, 0.08759343, 0.0065976297}, 
{-0.10101501, 0.08841722, 0.08771451, -4.5083463e-05, -0.10476287, 0.07363606, 0.026537474, 0.08637178, 0.05197285, -0.068491735, -0.06295354, -0.0074545518, -0.094999515, 0.019896647, -0.057137854, 0.08143703, 0.08095766, -0.03343709, 0.11888152, -0.08253948, -0.0010208115, -0.07622958, 0.06441371, -0.056040227, 0.049860504, 0.045064956, 0.02953598, -0.065963686, 0.08424899, 0.07012607, -0.046100583, 0.08764938, 0.09626998, 0.0070640384, -0.041729383, 0.098633304, 0.054182373, 0.054848, -0.031035159, -0.0009602979, -0.12323907, -0.018542062, -0.020905333, 0.052144516, 0.112024456, -0.10742786, -0.080148965, -0.009433181, -0.10328151, 0.015284392, -0.05508136, -0.10839067, 0.007203959, 0.1064257, 0.0004613623, -0.012735799, 0.06609039, -0.086225934, -0.07686045, -0.073479295, -0.088454574, -0.057192758, 0.10252145, -0.056566354}, 
{0.020911204, -0.1030128, -0.006593733, -0.016712196, 0.034090728, -0.04888613, -0.09836332, -0.10466347, -0.059594337, 0.07567127, 0.007530151, 0.04656115, 0.050247326, 0.014785534, -0.11140669, -0.06256541, 0.09051322, -0.005268638, 0.120525815, 0.0193897, -0.009433545, -0.09161874, -0.023950912, -0.060557157, -0.030836217, 0.06799972, -0.0019634431, -0.028190445, 0.02423905, -0.016792685, -0.03148859, 0.03981655, -0.056822922, 0.009824899, -0.07955279, -0.044485375, 0.050904017, 0.007902384, -0.034281023, 0.02495119, 0.08798917, -0.095207095, 0.035870567, 0.033783894, -0.0042338744, -0.04570902, -0.10586506, 0.10304665, -0.046949744, -0.04583687, -0.07506983, 0.06671338, -0.098244205, -0.09771496, 0.1100741, -0.01027815, -0.05998563, -0.038019747, -0.100484535, -0.04118184, 0.09499964, -0.039804127, -0.062004305, 0.10058492}, 
{0.019487128, -0.08462098, -0.07091005, -0.08523254, -0.06212088, 0.029539036, 0.00094090746, 0.01972206, -0.02554334, 0.011778103, 0.067672186, -0.09268674, -0.03222661, 0.01113616, 0.096517384, 0.047884814, 0.13980979, -0.06399036, 0.029337604, 0.037811026, -0.014318854, -0.031911787, -0.0491203, -0.002278242, 0.060358502, 0.07560609, -0.074498564, -0.030716578, -0.04748667, 0.10151632, 0.03593934, 0.08901684, -0.07694729, 0.07953924, 0.004399944, 0.05676482, 0.10577459, -0.11081292, 0.0827441, -0.017674796, -0.049770307, 0.11255731, -0.05270024, 0.10544289, 0.08930303, -0.01932744, -0.052662037, 0.060255714, 0.08991248, 0.07383374, -0.030064665, 0.085173555, -0.026404656, -0.050619036, -0.097240254, -0.07987348, 0.08228512, -0.07545907, -0.00410073, 0.05900921, 0.0881844, 0.06951089, 0.031336993, -0.016927827}, 
{0.10330132, 0.11335534, -0.06748147, 0.029971227, -0.049053002, -0.0009477634, -0.027856914, 0.07281658, -0.060845513, 0.09076928, 0.09280643, 0.027040094, -0.017581645, -0.041988134, -0.08960487, 0.061495468, 0.15996772, 0.032986682, 0.019403657, 0.08066312, 0.045124903, 0.047539853, -0.058127783, 0.11055195, 0.07360949, 0.040758014, -0.09032843, -0.05325308, 0.057619546, 0.049498826, 0.095417894, 0.067292504, -0.107843995, 0.0998411, -0.009706052, 0.061536547, -0.02205542, 0.10772872, -0.016592378, -0.012502968, 0.0030072418, 0.034368023, -0.07154441, 0.012437821, 0.06531645, 0.02230613, 0.09689219, 0.0059946715, 0.060842678, -0.021995336, -0.06385938, 0.002068496, -0.036913097, -0.065962, -0.021126412, 0.06029357, -0.09581087, 0.0904591, 0.091435924, 0.09170835, -0.09158107, 0.09434584, -0.06437607, 0.0073893988}, 
{-0.03562057, -0.09378192, -0.10321338, -0.002817884, -0.0990998, 0.047172192, 0.015641998, 0.03762047, -0.0022190958, -0.08441006, -0.008305965, 0.00746426, -0.014223209, 0.038023088, 0.09114911, -0.038383633, -0.030162323, -0.0012680409, -0.0033681507, 0.10402576, -0.08389336, 0.049035076, 0.04030539, 0.14552467, -0.029949307, 0.040728927, 0.09520772, 0.07399412, -0.0049765776, 0.010315083, -0.05840255, 0.16357139, -0.008322179, 0.09261311, 0.09549389, 0.08784538, 0.016018985, -0.09581077, -0.0023000473, -0.06701185, 0.0024289668, 0.09082124, 0.049282514, -0.005462825, -0.0031576976, 0.08443077, -0.06243537, -0.09530307, -0.10907212, -0.101180315, -0.047466066, -0.062659144, -0.042570792, -0.081095815, -0.09633416, -0.0852593, 0.10182093, -0.05234868, -0.02787789, 0.007009695, -0.03329119, 0.009960109, 0.060583636, -0.066928424}, 
{-0.024317129, 0.07492809, 0.044732105, -0.029774286, -0.11625889, 0.025313813, -0.059105136, -0.08410008, 0.0616917, -0.07582277, -0.015028162, 0.08142932, 0.04644883, -0.09401697, 0.08633864, -0.08334112, -0.0482983, 0.0029174027, 0.08713561, -0.098139174, -0.036804646, 0.059621207, -0.08042331, 0.068100825, 0.046456967, 0.06937887, 0.013636472, 0.095405184, -0.036829643, -0.017307028, -0.069624975, 0.12680107, 0.048184216, -0.0110451365, 0.13124378, 0.0029680128, -0.044443022, -0.031959757, -0.038284615, -0.04856944, -0.0028703583, -0.018044038, -0.009062438, 0.076772325, 0.097680315, -0.08469047, -0.07336808, -0.023915045, 0.00141661, -0.0869874, -0.10561019, 0.08338798, -0.066267475, 0.0123731345, 0.06671661, 0.09771606, 0.028412774, -0.08798997, 0.0611474, 0.0365018, -0.10395219, -0.06937912, -0.037596975, 0.03106942}, 
{-0.003556415, -0.078620106, -0.12220605, -0.04446891, -0.014342381, 0.13708709, 0.04648983, -0.08185063, 0.01464574, -0.0018220539, -0.0005473346, 0.014432266, -0.009289506, -0.036368288, -0.012169436, -0.087371014, -0.00784103, 0.095375665, -0.058508024, -0.018484104, 0.06344485, 0.049993206, 0.1072249, -0.0069848406, 0.030558167, -0.042759866, 0.03045251, 0.0016301591, -0.090513684, 0.00038065016, 0.07223972, 0.049281713, -0.03451582, 0.118082404, 0.062835105, 0.023645474, 0.09817906, 0.012389943, 0.11520958, 0.053613633, 0.1139053, -0.022924103, -0.099858336, 0.021646695, 0.0055992156, 0.015098527, 0.07476458, -0.08305241, 0.0068438137, -0.026244197, -0.102730975, -0.027218748, 0.025192142, 0.037909836, 0.0005298704, -0.10081618, 0.04700108, -0.04907422, 0.06020675, 0.07520677, 0.088865, -0.0442224, 0.077483006, -0.054645527}, 
{0.06099315, 0.012730971, 0.07848866, 0.11130616, -0.04702302, 0.008345025, 0.096086234, 0.1052715, -0.026316732, -0.056314632, 0.059004083, -0.109084055, 0.08843617, 0.011842721, 0.09180325, 0.040117666, 0.031314943, 0.081666805, -0.009110889, 0.03848131, 0.09864944, -0.10306644, 0.09961465, -0.049008403, 0.076949716, 0.07107578, -0.04265214, 0.024286086, 0.06354933, -0.07779946, 0.05013305, 0.03444485, -0.08482562, 0.019890836, 0.090224765, 0.10503851, -0.07430695, 0.016207457, -0.082940295, -0.040647894, 0.0945887, 0.10199828, -0.02994744, 0.04684674, -0.051294222, -0.065836504, -0.024625205, 0.01149206, -0.041492313, -0.013004992, 0.1045774, 0.03091391, -0.07282509, -0.016263932, -0.0793158, 0.025934368, 0.028166959, -0.011118727, 0.017507406, -0.038410172, -0.08580598, 0.04517849, 0.055223603, 0.0002927504}, 
{-0.096597575, -0.004842855, -0.026560323, 0.006646298, -0.011359731, -0.049457785, 0.06573552, -0.028111033, -0.100269094, -0.042436432, 0.08853278, 0.008193776, 0.062183216, 0.08781201, 0.04321459, 0.011647195, -0.08263391, 0.057637006, 0.14543727, -0.01708626, 0.08476877, -0.029884476, 0.078553244, 0.0011539093, 0.19052552, 0.057641104, -0.1146707, -0.118884854, 0.106697746, -0.016665645, -0.10513557, 0.09481861, -0.008956537, 0.17054605, 0.020510513, -0.07319684, -0.122898094, -0.099900186, 0.09967264, -0.007641241, 0.104566544, 0.14905755, -0.07365409, -0.06802409, 0.07386872, -0.075305596, 0.053623527, 0.013490188, -0.09605497, -0.03246692, 0.046539728, -0.009695198, 0.046480194, 0.050064385, -0.09530969, 0.05028504, 0.013255831, -0.012110948, -0.068727896, 0.011879629, -0.079701945, -0.017643793, -0.0048992056, 0.0818534}, 
