{{-0.06711553, -0.10516588, -0.07808399, -0.08850128, -0.0023451739, 0.1032418, -0.045721833, -0.033981375, 0.026369482, -0.055791568, -0.049448617, -0.040011022, 0.1292695, 0.08717561, 0.16958068, 0.08174364, -0.117755786, 0.111917, 0.24028563, 0.0151373185, -0.045144096, -0.030255133, 0.057804924, 0.07508883, 0.062124297, -0.035976306, 0.0100533385, -0.078296065, 0.13849144, 0.045349896, -0.09121221, 0.047608636, -0.023554862, -0.09376355, -0.030844918, 0.1464367, 0.068013676, -0.01031375, 0.068091854, -0.03616896, -0.070653275, -0.022960842, 0.011057173, -0.031545572, -0.0019120798, -0.053898048, -0.1239747, 0.089826494, -0.0020498738, 0.017674278, -0.08188105, -0.0136194825, 0.14090213, 0.06734544, -0.049303498, -0.038731672, -0.05501705, -0.061117645, -0.09294465, 0.063594304, 0.08609256, 0.06995316, -0.058973085, 0.16415712}, 
{0.0013216919, 0.0001287093, -0.11414158, -0.10074693, -0.09740184, -0.0520811, 0.015475176, -0.11136167, -0.008965783, -0.040306687, -0.022966757, -0.017212713, -0.021224147, -0.08599455, 0.0057755653, -0.07953857, -0.018346624, -0.027676065, -0.03833844, -0.0025677853, 0.055083185, 0.080910385, -0.11313175, 0.016568363, -0.07883068, 0.05650247, 0.011612405, -0.008577657, -0.041811164, 0.029861765, -0.08232587, -0.06940327, -0.10928032, 0.086735874, -0.015760241, 0.0044757086, 0.031827223, 0.0024874683, 0.03469761, -0.07617419, -0.028293744, -0.054593634, 0.044569142, -0.09325044, -0.044129796, -0.032973476, 0.06813714, -0.008139535, 0.025516262, 0.10868343, -0.0062674135, 0.027184501, 0.15515779, -0.03620822, 0.05856579, -0.0047504622, 0.01434421, -0.043928154, 0.05548553, 0.09752699, -0.0569569, -0.07361346, -0.044881, -0.015055169}, 
{-0.037802286, 0.087902, 0.04482686, 0.050734237, 0.082220055, 0.027790057, 0.021373011, 0.10545977, 0.08344567, -0.037835818, -0.104806, -0.10149973, -0.1202678, 0.104850605, 0.085380875, 0.10422665, 0.091113314, -0.02138124, -0.08319282, -0.10507908, 0.0470908, 0.033930667, 0.0736035, -0.050224803, 0.04020677, -0.10154518, -0.062457606, -0.084156044, -0.09402214, -0.10287576, 0.039794475, -0.038222715, -0.088248774, 0.022124935, -0.039770797, -0.06201285, 0.09220524, -0.12337334, -0.058632605, 0.06271955, -0.10963903, 0.11989681, -0.10825178, -0.08766656, 0.0518896, 0.023145206, 0.06134151, -0.11472217, -0.0016906727, -0.076669835, -0.07503103, -0.020802751, 0.026154535, 0.10351363, 0.058442954, -0.0032344023, 0.009765799, -0.026557941, -0.11176787, 0.05047044, 0.03481604, -0.060923506, -0.101923205, 0.097209245}, 
{0.013945993, -0.03834457, -0.017806033, -0.01107742, 0.09404933, 0.035357017, 0.07780712, 0.06157139, -0.076619044, 0.045095276, -0.077096246, 0.10275391, 0.07842763, 0.01937157, 0.10244914, 0.058263153, 0.09990618, 0.13372616, 0.10155422, 0.002919482, 0.042036846, -0.059998915, -0.06257215, -0.06062035, -0.08304273, -0.01532801, -0.07639602, -0.02554808, 0.0030139051, -0.020230193, 0.026219368, -0.0012349318, 0.06214866, 0.15192984, -0.112480834, -0.010570198, 0.009223884, -0.013593459, -0.036252145, -0.07834785, 0.06827618, 0.070977755, -0.07687522, -0.0638124, -0.004981719, 0.033021282, -0.08739742, 0.04533863, -0.023196286, 0.08258146, 0.07420665, 0.048900664, 0.105129555, 0.04375337, -0.02855612, 0.0063118404, 0.08472494, -0.0108073475, -0.07600711, -0.078481786, 0.07426454, -0.0071147163, 0.0893668, 0.03557183}, 
{0.11578133, 0.04454694, 0.057996552, 0.026261292, 0.105730794, 0.08998754, -0.039735015, 0.065885164, -0.078039676, 0.08681402, -0.0970869, -0.034929015, -0.019139864, 0.03303878, 0.03794154, 0.084445596, -0.0015579585, -0.030950457, 0.12962829, -0.102484114, 0.101814225, -0.2010073, -0.10804607, 0.11112785, 0.02764224, 0.12466091, 0.13500798, -0.1495833, 0.07177414, 0.08081155, -0.09858763, 0.063594855, 0.06801593, 0.013530359, 0.0754084, -0.11834497, -0.10998072, -0.050904356, -0.08478806, 0.049229965, -0.0495376, -0.13893703, 0.10239685, 0.025115732, 0.004700847, 0.11275671, 0.09096824, 0.015466292, 0.020099083, 0.030654138, 0.0007606447, -0.059303373, -0.11817504, 0.009417139, 0.03503624, 0.18682452, 0.19768889, -0.0036056086, -0.09404474, 0.025347961, 0.0026620668, 0.041962843, 0.20453481, -0.08561602}, 
{0.092416584, 0.014906338, -0.05145895, 0.04791449, 0.013139977, 0.04316391, 0.078366436, -0.10132155, -0.052585635, 0.07600912, 0.08834575, -0.0035570844, 0.09092895, -0.064613335, -0.04151, 0.088781565, 0.079313755, -0.04236769, 0.11298864, 0.042483013, -0.0013556108, -0.004086668, 0.043631732, 0.10825805, 0.03138424, 0.014507966, -0.123399176, -0.0052427026, 0.0020634083, -0.05137521, -0.029479854, 0.024061868, 0.103695765, -0.015689693, -0.01653318, 0.03139289, -0.0138441995, 0.059652265, -0.010467548, 0.0009871561, 0.07125673, 0.111891694, -0.07285552, -0.04372427, -0.092164755, 0.07338373, -0.038665947, 0.036667254, 0.016007284, 0.13244198, -0.021952912, -0.058810294, 0.13235565, -0.08411039, -0.10157123, -0.14850456, 0.00086728454, 0.052082215, -0.02457209, 0.10995302, -0.11876167, -0.11326892, -0.054692894, 0.091507}, 
{0.088843204, -0.11885671, -0.1097355, -0.14320503, -0.1273606, -0.13124149, 0.050293155, 0.054113433, -0.03162203, -0.025618838, 0.08842659, 0.020379437, -0.0648918, -0.111404836, 0.017006567, -0.089989476, 0.033216413, 0.08062514, 0.15623438, -0.097148985, 0.0676516, 0.16865052, -0.009188074, 0.087604955, -0.032069843, -0.06546584, -0.14395706, 0.120938964, -0.096850865, -0.076482, 0.0730816, 0.10331287, 0.062862575, 0.052011985, -0.10657543, 0.15166174, 0.06851733, -0.07774782, -0.019087154, -0.1430523, -0.0033521429, -0.051503357, -0.097148836, 0.039392844, 0.08396761, 0.0363251, 0.027733948, 0.005627185, -0.10635064, 0.08751004, -0.102928996, 0.10138196, 0.14970759, 0.014539599, 0.02790353, 0.015436656, -0.11344316, 0.008312012, 0.09387843, 0.09020948, -0.023042308, 0.0047562285, -0.17939728, 0.15791382}, 
{0.09759855, 0.005311162, -0.07854959, 0.094395876, 0.037900377, -0.052603114, 0.050276335, -0.08479707, -0.09057203, -0.048312005, 0.077942565, -0.02773285, 0.05526603, -0.0042282026, 0.021454105, -0.038051866, 0.013271493, 0.16539389, 0.08965177, 0.070130356, 0.007610902, 0.12161219, 0.0922803, -0.04414758, -0.08726851, -0.12492123, 0.004490223, -0.08988467, -0.078154065, 0.016450806, -0.014557786, -0.11113276, 0.050954655, -0.038670737, -0.100423746, 0.071263194, 0.1679443, -0.068907335, -0.007198712, -0.0076992987, 0.042718366, 0.04327421, -0.030136263, 0.073254205, 0.04483117, -0.06163622, 0.112622924, 0.044707682, 0.031140197, 0.090678, -0.097628474, 0.019671515, 0.11580863, -0.077210814, -0.020689998, -0.08205272, 0.0014553247, 0.092848316, 0.020466328, -0.00011390045, -0.0017668717, -0.103838, -0.0056433883, -0.0095625315}, 
{0.030537853, -0.029969832, 0.030825472, -0.024532525, 0.091113836, -0.061168615, 0.068044625, 0.060575016, 0.03585279, 0.050780427, 0.069878235, 0.029287737, 0.03206043, -0.073872924, 0.076496504, -0.051832553, 0.054402206, -0.036065824, 0.111853704, -0.11193805, -0.10991796, 0.104899734, -0.06281053, -0.09224869, 0.030328266, 0.06550616, -0.02639869, -0.04942908, -0.04700272, 0.05722388, -0.065457754, 0.10567669, -0.09108284, -0.028692516, -0.0072524613, 0.07974442, 0.164259, -0.016740598, -0.049001694, 0.024532065, 0.03593266, 0.01964902, 0.04102282, 0.07468791, -0.02971553, -0.050580025, -0.07682912, 0.047950815, -0.052012123, -0.024427196, 0.0144604, -0.036087297, 0.08628294, -0.002540879, 0.045196105, -0.15130919, -0.07244167, 0.11091504, 0.06649521, -0.018686324, -0.108537264, 0.051892206, -0.0091012055, 0.056067944}, 
{-0.012622711, 0.0027085405, 0.10034521, -0.0026506511, 0.03310862, 0.04911046, 0.005581269, -0.026625872, -0.107509114, 0.047152236, -0.016759241, 0.051104628, 0.04736232, -0.05237551, 0.07761191, 0.056273535, -0.07593492, 0.07301186, 0.000695797, 0.014047952, 0.023564816, -0.049916964, 0.09488991, 0.10492076, -0.00673204, -0.023727214, -0.025598207, -0.08031342, -0.085632, -0.07871578, 0.05622074, 0.10186169, 0.019341186, 0.10703661, -0.03839176, 0.094113745, 0.052324094, -0.102875285, 0.056676786, -0.017033854, -0.030169763, 0.11303651, 0.0033684357, -0.018352972, 0.07783422, -0.07073365, 0.053199902, 0.07887061, 0.08122067, 0.1367288, -0.075252205, 0.096428156, 0.026872117, -0.023689903, 0.044663116, -0.056311805, 0.008787217, 0.03741195, -0.01808022, 0.043897912, 0.031364743, 0.09933362, -0.052126843, 0.1248702}, 
{-0.04620082, 0.013794977, -0.04019128, -0.09819364, -0.024335649, 0.043809686, 0.10248008, -0.032438047, 0.024522826, 0.010666108, 0.0002911246, -0.052991454, 0.018779872, -0.04651479, 0.03514876, -0.056859605, -0.002139361, 0.1285737, 0.14383022, 0.07126613, -0.0025096461, -0.04794578, 0.08959786, -0.11125397, 0.011689729, -0.025240572, 0.03398405, -0.017904783, -0.010790252, 0.050409093, -0.086805455, -0.116624095, -0.05912571, 0.13321869, 0.02696066, 0.11392947, 0.030351505, -0.063299954, -0.05089216, 0.009881879, -0.018719219, 0.08236808, -0.031911403, 0.038430057, -0.038917676, -0.08470921, 0.10969478, -0.059422463, -0.008916981, 0.13878639, 0.10750732, -0.018340953, -0.025717642, -0.022015348, 0.014082923, -0.02301516, -0.06810297, -0.015433026, 0.044838876, 0.080751866, 0.09950568, 0.119876, -0.07791886, -0.0137397945}, 
{-0.084394, 0.0064864545, 0.012081744, 0.041297983, 0.018166892, 0.063006185, 0.044904068, 0.08440004, 0.01742518, -0.04509003, -0.08710142, -0.06233642, -0.012822599, 0.055890746, 0.13666177, 0.09625849, 0.077796094, 0.08039161, 0.17412792, -0.04681846, 0.077766165, 0.048469003, -0.04704079, -0.0067430884, 0.09099862, -0.03511659, -0.08920294, -0.08711523, -0.060993493, -0.12508883, -0.030607238, 0.09428446, 0.045638233, 0.017275937, 0.09272496, 0.13971838, -0.03544936, 0.09279158, -0.120771885, -0.07460226, -0.1099846, 0.0026230095, -0.062110137, 0.11721831, 0.072477385, 0.058738995, -0.0812841, -0.01427996, -0.11868545, 0.03968352, 0.09896226, 0.0001302138, 0.00036982566, 0.0830227, -0.042828176, 0.07998527, 0.113736026, -0.10039178, 0.0028233603, 0.0088602165, -0.005077909, -0.06957063, -0.029831758, 0.1400381}, 
{-0.044937525, -0.08406335, -0.11671356, -0.058677133, 0.022604484, -0.017940093, -0.036523584, -0.017301101, 0.016427979, -0.0132832425, 0.07711328, -0.007341949, 0.14927724, 0.0505901, 0.07299958, 0.059450433, 0.00951659, -0.019772332, 0.11555469, 0.04989151, 0.07910372, 0.058074053, -0.046696052, -0.107433416, -0.005270164, -0.12155205, 0.016317632, 0.03873437, -0.056303736, -0.13290578, -0.046846576, -0.116598636, -0.0032142848, 0.12312647, -0.10062489, 0.11465854, 0.06569143, -0.091373876, -0.057063878, -0.014260479, 0.10470319, 0.08929384, 0.022700714, 0.023732783, -0.107322745, -0.013146505, 0.082217254, -0.031130144, -0.043776885, 0.070964366, 0.08461797, -0.07785683, 0.018286573, -0.09753407, -0.06408335, 0.044890802, 0.06320707, 0.098140225, 0.10756613, -0.10130287, 0.028502202, 0.03986733, 0.012646318, 0.024630709}, 
{-0.046169106, -0.079891056, -0.008468677, -0.12553465, -0.1085684, -0.005152566, -0.021608861, -0.056486614, -0.025690638, 0.097850196, -0.0023106167, -0.0074162646, -0.031640213, -0.035389874, 0.018138852, -0.03896437, 0.034257893, 0.09577972, 0.047156263, 0.10396932, -0.04884211, 0.118108965, 0.026478041, 0.088766694, -0.066638805, -0.011100686, -0.029191824, -0.011004706, 0.17245936, 0.009806572, 0.01227355, 0.05307822, 0.0010550544, 0.11431, 0.07193347, 0.14490081, -0.018172463, 0.051033046, -0.018759772, 0.021863934, -0.029304221, 0.15750282, -0.091808744, 0.042211544, -0.05435546, -0.08051102, 0.06275671, -0.062828414, -0.012140328, -0.018879373, 0.06325726, -0.041520946, 0.048246, -0.06748676, 0.025098013, -0.039900474, 0.04297122, 0.0881201, -0.11011972, 0.030760884, 0.0958669, -0.022051958, -0.10301313, -0.046765357}, 
{0.019654578, -0.11260857, 0.0107164, -0.13545516, -0.11623937, 0.03451743, 0.087090775, 0.04868245, -0.07102251, 0.040915, 0.052050725, -0.04024139, 0.115716524, 0.027142808, 0.028404962, 0.03954859, 0.081195526, -0.03372952, 0.035082106, -0.09839776, 0.08523281, 0.013461519, 0.104406305, 0.030991495, -0.039069667, -0.016333621, -0.120034255, 0.027274894, 0.118988365, -0.16063637, 0.07127273, -0.01326498, -0.071403705, -0.013445765, -0.0748816, 0.0037331246, 0.022326345, 0.10133893, 0.099208966, -0.0455681, -0.10993965, 0.08285661, 0.056503862, 0.1664659, -0.03336759, -0.123914465, 0.08950781, 0.09119408, -0.1408439, 0.14520723, 0.10004312, -0.051373553, 0.038793318, -0.10409697, -0.10280922, -0.11068289, 0.008255414, 0.061718762, -0.04436721, 0.027262257, -0.086211964, 0.09627795, -0.048617598, 0.15573435}, 
{0.0037065314, -0.10888236, 0.09773983, -0.01696579, -0.078298725, -0.16774231, 0.003213058, 0.01844331, 0.0765681, 0.095372364, -0.120571986, -0.005427353, 0.14083043, -0.115768515, -0.035237513, 0.024620846, -0.058352895, 0.08213802, 0.1816043, -0.047241393, -0.0035298616, 0.056648318, 0.011004215, 0.098580465, -0.0053629507, 0.023492238, -0.08650545, -0.04256579, 0.06594868, -0.14148052, -0.09166138, 0.081303366, -0.065469906, 0.025480485, 0.10197334, -0.013088017, -0.079839, 0.031247783, 0.039409798, -0.13568789, -0.055702124, 0.14582533, -0.043763485, 0.050785575, 0.026002988, 0.054538563, 0.027882887, -0.037289537, -0.0098179355, 0.10838592, -0.047503598, -0.04187014, 0.13290913, 0.009446204, -0.07499995, 0.022141863, 0.018686121, -0.03681305, 0.091905355, 0.10258772, 0.07421993, 0.046899546, -0.097076446, 0.04049175}, 
{0.020833755, -0.06575779, 0.009244708, -0.16633867, -0.044317473, -0.17364936, -0.030620726, 0.0746316, 0.080186814, -0.045507807, 0.095558636, 0.01575846, 0.124729484, 0.008157492, -0.04385881, -0.08338144, 0.08277478, 0.15355808, 0.071065396, -0.029033847, 0.074161425, 0.09140749, -0.08784844, -0.036200464, -0.006756651, 0.034193255, 0.04335303, 0.076617666, 0.14007683, -0.16028701, -0.08901498, -0.087990336, -0.012086667, -0.04527307, -0.08808205, 0.097470984, -0.075137004, 0.04534553, -0.048687134, 0.06260016, -0.09295431, -0.021546142, -0.04449776, 0.09552642, -0.10667521, -0.06355829, 0.14002869, 0.0029132338, -0.013278806, 0.07419277, 0.052332148, 0.08287051, 0.054310996, -0.059379555, -0.04477367, -0.05775811, 0.015476502, 0.027121348, 0.0061442703, -0.09359988, -0.075360276, -0.05318932, 0.085260004, -0.044029433}, 
{-0.024253692, 0.015290726, 0.0038504412, -0.16416483, -0.12099151, -0.016549971, 0.0032111504, -0.05373731, 0.0019773394, 0.06793593, 0.07466578, 0.023998287, -0.019127287, 0.047823, -0.04158747, 0.04032266, -0.039995234, -0.037386797, 0.04929961, -0.089331135, 0.027808666, -0.040154077, -0.024545075, 0.0289675, 0.09792285, 0.10144403, 0.07385213, -0.026995942, 0.15807542, -0.11139614, -0.10346337, -0.07277481, -0.076027036, 0.014680443, 0.019448709, 0.070636526, -0.0019037449, -0.02991102, -0.0104093, -0.022644123, -0.08760975, 0.05696092, -0.11366517, 0.08886447, 0.029275343, -0.093740866, 0.13566047, -0.07583697, -0.011849738, 0.028550072, 0.06536588, -0.07422674, -0.048256665, -0.08027525, -0.06771019, -0.047149345, 0.02812992, 0.021500269, 0.057550594, 0.03416593, 0.10330413, -0.10946622, -0.02750851, 0.017332433}, 
{-0.07425646, -0.041580647, -0.085730076, -0.024506941, -0.12067019, -0.0050325617, -0.10218713, -0.11409817, 0.042346746, 0.07864668, -0.076076664, -0.0959465, 0.116935775, 0.09670611, 0.0022631022, 0.087033406, -0.07638736, 0.099259324, -0.003932052, 0.08870535, 0.014216751, 0.10828379, 0.015875224, 0.07117003, 0.016133275, -0.08109854, 0.09813935, 0.13768992, 0.15417469, -0.0069125826, 0.04563588, 0.023729263, -0.050245628, -0.05677744, -0.04756559, 0.15286937, -0.011174987, -0.000980381, 0.02033417, -0.070568055, 0.07767819, -0.010752085, -0.091582134, 0.1681208, 0.019414008, -0.15983005, -0.0066704415, -0.005313365, -0.11049133, 0.06923018, 0.04700233, 0.092418015, -0.012364013, 0.08822483, -0.07176952, 0.041451026, -0.032762975, 0.10538456, 0.01737608, -0.06299235, 0.08099409, -0.15785898, -0.09035627, -0.06506556}, 
{-0.09920228, 0.08388962, -0.07774991, 0.006405759, -0.09406542, -0.13748804, -0.011092312, 0.07735915, -0.07887848, 0.13565478, 0.079559155, -0.11617843, -0.06442548, 0.038062904, 0.04625756, 0.02918306, -0.09803199, -0.053076394, 0.08636277, 0.01812591, 0.0516883, 0.0023636718, 0.10145849, 0.07530232, 0.005759273, 0.11335267, 0.004209282, 0.025139442, 0.21802792, -0.15455961, 0.0046448335, -0.038325388, 0.08419612, 0.15267459, -0.103830114, 0.06795685, 0.022907855, 0.056810506, 0.035775308, 0.038210597, -0.0063649863, 0.07793558, -0.06357635, 0.20175894, -0.021377005, -0.038978726, -0.016441582, 0.011640989, 0.09454452, 0.0076120356, -0.053225823, -0.07870445, -0.15295088, -0.033939347, -0.054713514, 0.056025386, 0.017355952, 0.011156176, 0.066485256, 0.11255871, -0.06203494, -0.037425905, 0.1071953, 0.032472935}, 
{0.07830179, 0.08788019, 0.062069368, 0.056234404, 0.09150921, -0.072608724, -0.027919533, -0.058198538, 0.067796975, -0.072132304, -0.116638206, 0.056377426, -0.01459759, 0.019746875, 0.105999224, 0.06354131, 0.027557498, -0.10160209, 0.078843884, -0.07589116, 0.11158775, 0.014200008, 0.024510728, 0.007239066, -0.08421831, -0.04183594, 0.040698323, -0.03325743, -0.049437225, -0.08143361, 0.07135095, -0.07698329, 0.019430518, 0.06835171, 0.0059790337, 0.10740683, 0.09364062, -0.02478097, -0.027864266, 0.02717636, -0.06344292, 0.06160948, 0.08227941, 0.1347374, 0.056018487, 0.047513932, -0.014105127, -0.037952755, -0.201615, 0.020057797, 0.040983915, -0.078746825, -0.027919153, -0.09077176, -0.04155899, 0.04882414, -0.033182897, -0.0033491596, -0.030692287, -0.0060757576, -0.06959665, -0.019701146, -0.027300013, 0.21288112}, 
{-0.029779023, -0.07769464, 0.06343327, 0.008492159, 0.09861518, 0.07508799, 0.0037969267, -0.029943755, -0.005758524, 0.033438772, 0.0661434, 0.10626662, -0.00915909, 0.06266183, -0.009092716, 0.0061200857, 0.08609152, 0.1544253, 0.06322351, 0.0010238431, -0.06274927, -0.054274436, -0.053756736, -0.012640208, 0.08854069, 0.09297227, -0.08824088, -0.026189664, -0.0064038984, -0.12010912, -0.05641012, 0.076136425, -0.009918764, -0.032609913, -0.062033996, -0.041575998, -0.017563768, 0.044502933, 0.103502885, -0.122941844, 0.10107605, -0.009130376, -0.10255703, -0.088395454, 0.0059598833, 0.014072407, -0.05213705, -0.04301257, -0.03117432, -0.0013176589, 0.009124711, 0.0406342, 0.023486564, -0.07095473, -0.07792849, -0.11432623, 0.043204084, 0.12241174, -0.00864394, -0.05458429, 0.098921284, 0.07495733, -0.018154293, 0.045467798}, 
{0.0841586, -0.043383803, -0.06803525, 0.010785317, -0.05477322, -0.10209152, 0.07573684, 0.010647889, -0.041248173, 0.010679263, -0.045415178, 0.012464209, 0.08984819, -0.069534, 0.048665956, -0.018833116, -0.015099299, 0.0008897256, 0.008661836, -0.001711681, 0.076180756, 0.07421464, 0.10024856, 0.043191537, -0.08280595, 0.09217841, 0.0011610797, 0.023986585, -0.024843311, -0.028588722, -0.033421107, 0.043481957, 0.084078535, 0.010085788, 0.02999627, -0.11639949, 0.16526839, 0.08389235, 0.050771616, -0.067018926, 0.049689397, 0.10055249, -0.06186442, 0.008854368, 0.048022956, 0.12362935, 0.044369765, 0.038545936, 0.06350111, -0.08926876, 0.07330203, -0.09253676, 0.073504135, 0.013396114, -0.0016189528, -0.014039858, 0.07468443, -0.07317198, -0.057350274, -0.075786814, -0.093298286, 0.012941009, -0.03194586, -0.061401155}, 
{-0.007932537, -0.037290715, 0.09871524, -0.053152185, 0.05651729, 0.067878075, -0.013501018, -0.074619, -0.015204512, 0.06908557, -0.0020777963, 0.07401671, 0.04695598, -0.113134615, 0.13588314, -0.038760215, -0.11645823, -0.022217568, -0.005259025, 0.032422375, -0.068416156, 0.10218292, 0.004278829, 0.09253231, 0.002348075, 0.043446552, -0.019886278, -0.11662809, -0.10894754, -0.035455745, -0.09381077, -0.008873558, -0.104626596, 0.01594958, 0.073828414, -0.007516999, 0.13081875, -0.123157814, -0.081141114, 0.08856446, 0.04680772, -0.031050876, -0.06488838, -0.021510351, -0.066526525, -0.09902926, 0.09326785, 0.05296736, -0.061694738, 0.06212039, 0.012610272, -0.076764196, 0.059883926, -0.045490205, 0.012930163, 0.0029854141, -0.07126184, -0.010067926, 0.0036095679, -0.024974907, 0.057427842, -0.006372502, 0.019200519, -0.010731598}, 
{0.13232169, 0.07103411, -0.053356394, -0.0007729524, 0.045239013, -0.0894338, 0.08455544, -0.057642844, 0.069022804, 0.100066066, 0.031353995, -0.10958904, -0.02350674, 0.09813109, 0.033970643, -0.0035244673, 0.05546817, 0.1260963, 0.1348315, -0.0032266262, 0.05787182, 0.16942677, -0.094596244, 0.04674697, 0.020783199, 0.039138604, 0.02619208, 0.05512661, -0.030082546, -0.02880723, 0.056542754, 0.036909528, 0.044482633, -0.0043087574, -0.047385275, 0.14989297, 0.17568637, 0.01262384, 0.016105453, 0.010514216, 0.05985707, -0.059128504, -0.01607886, -0.104264766, -0.032569043, 0.021372225, 0.084448546, -0.016154014, -0.080985755, 0.09700376, -0.0027498603, 0.09890129, 0.13611294, -0.053453483, 0.041635048, -0.051889013, 0.07111686, 0.09392097, -0.092728466, 0.07256212, 0.06634485, 0.029173575, 0.038198534, 0.13076496}, 
{0.1304162, 0.01690478, -0.115357205, -0.13618237, -0.0075573353, -0.10712743, 0.073134564, 0.07705093, -0.09165867, -0.064374745, 0.06864165, 0.03540286, 0.009753156, -0.02652553, 0.17738424, -0.011792801, 0.056118544, 0.20643176, 0.19924325, -0.019000618, -0.072878554, 0.21772878, 0.002544476, 0.06582466, -0.04997035, -0.16906655, -0.10925293, 0.020089861, -0.030497765, -0.06239588, 0.028164223, -0.105484635, -0.015470207, 0.09798499, -0.076423116, 0.1162651, 0.11120967, -0.17814901, 0.08046176, -0.04655856, 0.0642277, 0.16506757, 0.06980697, 0.005304932, -0.081270784, -0.0103470115, 0.013365989, 0.019740937, -0.13658158, 0.109106004, -0.04520773, -0.040654533, 0.19158503, -0.05768231, -0.056080483, -0.0180212, -0.13047627, 0.06843325, 0.047029555, 0.06481199, 0.045599084, -0.002282469, -0.029164419, 0.18004291}, 
{0.05547173, -0.05185297, -0.07756532, -0.03363067, -0.111888595, -0.10278412, 0.033951756, -0.038764108, 0.10491298, 0.04676809, 0.039973777, -0.08119979, 0.17413154, 0.050673462, 0.14427172, -0.03245707, 0.06836221, 0.20629655, 0.047139086, -0.02871555, -0.029045358, 0.05456512, -0.013803562, 0.058154076, -0.07526881, -0.06952691, -0.210043, -0.07561078, -0.0563552, -0.16025884, -0.09151766, -0.01728738, -0.012361795, -0.029370554, 0.008986015, 0.015708424, 0.19460265, -0.1624356, -0.062104024, -0.1582672, 0.1122282, 0.013251433, -0.054838277, -0.10224007, -0.033101566, 0.054781813, -0.019496387, -0.06173175, -0.18265407, 0.16808729, -0.06747815, -0.053210016, 0.15942025, -0.034772977, -0.10142821, -0.15082142, 0.02367848, 0.050460316, -0.06587953, 0.05539296, 0.0750852, -0.07876371, -0.21457292, 0.061662592}, 
{0.07367322, -0.07215869, -0.052884314, -0.11744544, -0.11109382, 0.047679838, 0.10453642, 0.048168164, -0.111572914, -0.109930724, -0.09449529, 0.015117165, 0.1307546, -0.030484602, 0.06459597, -0.08267949, -0.052002043, 0.10884041, 0.059797518, -0.0346571, 0.06695296, 0.094400056, -0.047431707, 0.04902315, 0.021340247, -0.083349794, -0.1655835, 0.034540497, -0.04234288, -0.07616004, 0.086315334, -0.008597944, -0.08438356, 0.09031477, -0.035134647, 0.17285499, 0.19278304, -0.12824947, -0.056777995, -0.0024521875, -0.012645334, 0.056244083, 0.040552676, -0.10857003, -0.10530252, 0.05148542, -0.0519753, -0.09359376, 0.03965877, 0.034612726, 0.017931297, -0.042769164, 0.00274071, -0.029055312, 0.06778342, -0.18873523, 0.014813992, 0.10469081, -0.036945008, 0.026812606, -0.06592828, -0.08261117, 0.019668052, -0.021865938}, 
{0.029210577, -0.06642048, -0.11604946, 0.077837594, 0.057769414, 0.016180824, -0.10089751, -0.057650115, -0.017364204, 0.03987449, 0.009639418, -0.10519241, 0.06957103, 0.060723376, -0.089795545, -0.062511824, -0.010733193, -0.012880312, 0.044892244, 0.08048917, -0.03634215, 0.07124124, -0.00265108, -0.07595974, 0.101246886, -0.020438358, 0.14527677, -0.11281945, 0.15182063, -0.00482997, 0.0037574917, 0.028772688, 0.05672489, 0.14984302, -0.09305134, 0.023895027, 0.0773012, -0.067064516, -0.10585334, 0.08534063, -0.03256408, -0.019031744, 0.047162134, 0.12166934, 0.019216314, 0.06935794, 0.05631366, 0.0069263577, 0.016763303, -0.020902866, 0.069653615, -0.060547285, 0.079360746, 0.109834164, -0.05182002, 0.093195505, 0.013979886, 0.07597086, 0.068295375, 0.098456986, -0.09991542, 0.033394217, 0.14690384, -0.08845496}, 
{0.032933652, -0.0892179, 0.042474847, 0.044802573, 0.018292656, -0.120991595, -0.0035488314, -0.10777006, -0.026572071, 0.052068267, 0.05667132, 0.039414547, -0.0020278124, 0.07828381, 0.10879741, -0.044749163, -0.0008977848, 0.04339913, 0.15731446, -0.037067384, -0.10034818, -0.09364112, -0.095702216, 0.044549674, 0.06446139, -0.032823652, -0.013823809, -0.018053671, 0.12050231, 0.07604781, 0.08244692, -0.051340446, 0.057358682, 0.044484988, -0.05405919, 0.103303276, 0.08086104, 0.07539204, -0.12192342, 0.051579088, -0.08531236, 0.08262822, -0.046234734, -0.054641176, 0.03314711, 0.0023322576, -0.09680457, 0.099696115, -0.11508978, -0.064384125, 0.031125471, -0.00495667, 0.049225897, -0.0030406564, 0.041460063, 0.04874499, -0.015345819, 0.07378942, -0.11172016, -0.0034485657, 0.0069004516, -0.0030728208, -0.055495813, -0.0719722}, 
{0.040008947, 0.014314096, 0.01901737, -0.13612188, 0.0024959755, 0.07824074, 0.052318074, 0.09740492, 0.10188183, 0.015973864, 0.022894379, -0.020192426, 0.0042316383, -0.03789014, 0.04732056, -0.027532257, 0.01234578, 0.123615436, 0.049841292, 0.08497201, 0.0939018, -0.007592178, 0.07205115, -0.03209041, 0.10320286, -0.13183787, 0.0584051, 0.022147698, 0.10643517, 0.0727796, -0.046941847, -0.0614325, -0.018557847, -0.045292992, -0.09269026, -0.04489828, -0.051108606, -0.07329816, -0.062120553, 0.075065784, -0.108532496, 0.06995926, 0.04427407, 0.13355285, 0.07476184, 0.043529052, 0.10925949, -0.008314544, 0.033825558, -0.07546919, 0.10679808, 0.08282226, 0.0032171826, 0.027040422, -0.08103667, -0.0906864, -0.0688637, -0.055659633, 0.042895615, -0.0070040203, 0.07263421, 0.01626689, 0.039370388, 0.027493052}, 
{-0.10525281, -0.02174667, 0.038636617, 0.06659625, 0.016174467, -0.074378274, -0.034418497, 0.032983948, -0.010040708, -0.096646756, -0.05181781, 0.0075463387, -0.04189041, -0.06934286, 0.088619575, -0.0907165, 0.032659177, 0.06441613, 0.1694391, -0.005705473, -0.10281695, -0.031401787, -0.039363284, 0.089483246, 0.0653616, -0.045387506, 0.055700783, 0.11414414, 0.068587355, -0.0527975, -0.049780607, 0.041265164, 0.08534701, -0.016724328, -0.095082276, 0.048963904, 0.00013391746, -0.06229981, -0.09490382, 0.07530294, 0.09458554, -0.0090507325, -0.113071114, 0.050823282, 0.10558635, -0.029528448, -0.042657614, 0.097827934, -0.011005694, 0.026171269, -0.0990758, -0.060677852, 0.10380093, 0.015363336, 0.005366706, -0.0691605, -0.02495157, -0.074228086, 0.014526144, 0.04140705, 0.06299084, -0.043296874, 0.036227435, 0.066540115}, 
{-0.018612687, -0.047257587, -0.11473435, -0.09547962, -0.13491751, -0.00038606048, -0.04154669, -0.033191703, -0.045186117, 0.028607545, -0.10342563, -0.0039036712, 0.130157, -0.022464527, -0.0690606, 0.076055914, 0.05329731, 0.092526704, 0.14685108, -0.10748353, 0.069229394, 0.11287584, 0.07394878, -0.09492641, -0.012387401, 0.016732115, -0.02629104, 0.034345448, 0.13606586, -0.11117514, 0.084952965, 0.01679793, 0.017496675, -0.07103422, -0.11444266, 0.121655904, 0.05643218, 0.0076882015, 0.05845576, -0.04170217, 0.02712658, 0.090532124, -0.04075398, -0.056213126, 0.047585636, 0.07615154, -0.040103145, -0.06589731, 0.022277283, -0.06789038, 0.05970514, 0.091184884, 0.06430176, -0.105368644, -0.092917964, -0.08417899, 0.08645327, 0.1090969, 0.109170035, -0.07280469, 0.080765344, 0.08120413, 0.018101567, -0.020807289}, 
{-0.03325507, 0.049121637, 0.08241252, -0.124001585, 0.0032132869, -0.05451313, -0.07997135, -0.024854401, -0.08047758, 0.01739611, 0.09176152, -0.11225989, 0.10514517, 0.08254924, 0.01581581, -0.00856968, -0.07281667, 0.072375715, 0.17081167, -0.038620707, 0.041948438, 0.117820635, 0.025623819, -0.086730786, 0.01210224, -0.09562581, -0.054949276, -0.019741712, 0.17688332, 0.01714273, 0.070340544, 0.0034050008, -0.08805218, 0.07540741, 0.084331036, -0.04873315, -0.009760583, -0.06803041, -0.03927104, -0.09972624, 0.060481057, 0.090108775, 0.04019945, 0.013906037, -0.029700734, -0.0072631147, 0.10377383, -0.081236735, -0.024144368, -0.045215573, -0.05709667, 0.009356737, -0.011398828, -0.04031767, -0.10447024, -0.091049656, 0.03567097, -0.029845323, -0.04013201, 0.011344064, -0.08369256, 0.035856575, -0.0026248293, 0.0116211735}, 
{-0.022845872, -0.030773452, -0.043202806, -0.032302253, -0.15847498, 0.006581947, -0.09411985, 2.7227667e-05, 0.07356614, 0.098510645, 0.017713116, 0.016104406, 0.124855466, 0.03562548, 0.10146603, -0.05572246, 0.01732782, 0.048610743, -0.011157449, 0.03703479, -0.007951483, 0.019049216, 0.06420117, 0.10496245, -0.10394934, 0.047650687, 0.08157965, 0.014620725, 0.05448119, -0.10731542, -0.021782488, -0.096760124, 0.014002845, 0.004119327, 0.044927463, -0.010111584, -0.07486342, -0.0858092, 0.049806934, -0.04602262, 0.0925401, 0.15952878, -0.11231856, 0.03411108, 0.0029182732, 0.026684873, 0.07116606, 0.04672211, -0.12662196, 0.14852408, -0.080584295, 0.026501194, 0.01685076, 0.008935988, -0.020543449, 0.026680933, 0.050732795, 0.035577163, 0.08063564, 0.016450148, 0.057145063, -0.032880362, 0.0955938, 0.016794369}, 
{0.08335195, -0.04969155, 0.074599594, -0.16852245, -0.082753055, -0.1354046, -0.057602745, -0.064983, -0.089647084, 0.06514092, 0.030372815, 0.06684079, 0.06995579, -0.06316372, -0.11498919, -0.016612746, -0.025973573, 0.012080677, 0.10023908, 0.039482873, 0.0570509, 0.062282797, -0.05888232, -0.029721469, -0.11712641, -0.045658093, -0.10687321, 0.04224531, -0.0022873667, -0.050314218, -0.06118864, -0.1050292, 0.0983744, -0.058515273, -0.07216345, 0.014331225, -0.033023335, 0.020286992, -0.0823397, -0.0874467, -0.07135333, 0.1084648, -0.11246845, -0.008347408, -0.02612719, 0.037741657, -0.04233474, -0.06966886, -0.14585015, 0.0139292795, 0.075929135, -0.0911559, -0.09776271, -0.05891028, -0.09149241, -0.1377789, -0.07239145, -0.00796095, -0.06452563, 0.022572659, -0.09008429, 0.036656868, 0.07236358, -0.020206945}, 
{0.0674923, -0.11777288, -0.0040048053, -0.08233241, 0.026822599, -0.12228095, -0.046302546, -0.09076521, -0.0046436936, 0.05303419, 0.09330031, 0.01124263, 0.13842466, -0.05609929, -0.008349994, -0.097854175, -0.11476382, 0.10484328, -0.0028651424, 0.06617335, 0.08590095, -0.044472218, -0.039082374, 0.09240882, -0.017036984, 0.08255455, -0.027134676, 0.15035418, 0.03389595, -0.14639133, -0.08230583, 0.10800574, -0.02597268, -0.07548615, 0.06228115, 0.11044355, 0.09551016, 0.033706695, 0.042668372, -0.096242666, -0.07687585, 0.03085247, 0.055772316, -0.0031964178, 0.10029285, -0.0582887, 0.033530403, -0.00018977714, -0.053597573, 0.029217519, 0.03980966, -0.06884152, 0.08687051, -0.09106395, -0.028717147, -0.06967416, -0.122786105, -0.06801842, 0.09844001, 0.09004794, 0.08914038, -0.021684786, -0.017444571, 0.0018520649}, 
{-0.0246201, -0.09080038, -0.11176444, -0.024500147, 0.012147692, 0.026645519, -0.033308007, 0.042624407, -0.060013402, 0.0027451965, 0.045862883, 0.08944139, 0.100832686, 0.090892136, 0.01687999, 0.0023885444, 0.015519074, 0.11068139, 0.10920618, 0.04280614, 0.009440079, -0.010015045, 0.040429533, -0.06311308, -0.045195024, -0.06334614, 0.016380578, 0.09801417, 0.081017956, 0.005387508, -0.11255869, -0.022639966, 0.069378644, 0.05627232, -0.115082316, -0.0007445358, -0.09308693, -0.013713001, -0.06223102, 0.04133046, -0.102795176, 0.08013363, -0.09102673, 0.17371362, -0.015120439, -0.0821196, 0.048727885, 0.066015825, -0.07753178, 0.002362616, -0.059930846, -0.08580536, -0.012524081, -0.0333713, -0.09226117, -0.03729533, -0.048845697, -0.055584818, 0.076109946, 0.03761408, 0.006684497, -0.13344541, 0.1329677, 0.03499798}, 
{0.02009388, 0.09374175, 0.016715577, -0.01942912, -0.03637678, -0.19544742, 0.070881575, -0.11005356, 0.070653826, 0.07584973, -0.08932453, 0.008902097, -0.0140831955, -0.06414875, -0.15106387, -0.067505985, -0.07304513, 0.107173964, 0.15414597, -0.0020957591, 0.029602557, 0.02660797, -0.07012705, -0.07828731, 0.024399815, 0.08013596, 0.14615157, 0.040855665, 0.014367582, 0.017244449, 0.08692931, 0.0636334, 0.019947618, 0.0037685616, -0.09732391, 0.15114146, -0.023581324, 0.044272736, 0.028953673, -0.07761411, -0.019578144, 0.09426937, 0.01821405, 0.0990558, 0.0018606782, -0.12425167, -0.00666464, -0.06922467, -0.025945125, 0.024431901, -0.082683116, 0.09655534, -0.026466401, 0.037403926, -0.00556334, 0.012661626, -0.031211706, -0.042580962, -0.072269276, -0.045943376, 0.0996795, -0.045911163, -0.056236245, 1.2252007e-05}, 
{-0.06892904, -0.035610758, -0.07384555, 0.009536618, -0.14035651, -0.13004836, -0.012457163, -0.018684909, 0.11078596, 0.14370304, -0.031192256, -0.026106928, 0.06390404, 0.11053088, 0.028702945, 0.08559483, -0.073680334, -0.04364053, 0.114937514, 0.029715575, 0.06555222, 0.026897054, -0.03347568, -0.005974874, 0.0058198334, -0.010760695, 0.08168238, 0.11005624, 0.17845283, -0.07211517, 0.014164746, -0.0089595895, 0.07730739, 0.15577255, -0.031959772, 0.11974064, -0.099892564, 0.060411178, -0.01762447, 0.013897198, 0.11159918, 0.013510606, 0.08683546, 0.1041738, 0.055483773, -0.05381921, 0.06533578, 0.004737373, -0.019563295, -0.013470349, 0.106556, 0.03285344, -0.015554066, 0.10602261, 0.06649698, 0.05150942, -0.1325753, 0.10485025, -0.018168226, -0.0826927, -0.082989275, -0.16765742, 0.0054606525, 0.044500876}, 
{0.06670101, -0.07766881, -0.07436017, 0.05068194, -0.037695955, 0.111491434, 0.07242409, -0.11360301, 0.10513793, 0.09030764, -0.034071445, -0.07576142, 0.08981228, 0.07477482, 0.102590084, 0.027370691, -0.09509076, 0.027854891, 0.16298945, 0.08629536, 0.049171403, 0.11536257, -0.003008656, -0.0015914589, -0.087073736, -0.17202935, 0.018087702, -0.055503536, 0.094063655, 0.08406302, -0.09883963, -0.009672256, 0.053016707, 0.017003449, -0.024216145, -0.031289127, 0.16788146, -0.014008749, -0.03158346, 0.02874946, -0.10325103, -0.09779472, -0.123475686, 0.043968186, -0.08061819, -0.030024562, -0.019220881, 0.03943873, -0.16902153, -0.015526914, 0.08428712, 0.09382221, -0.014966961, 0.06682375, -0.006701973, -0.075056314, 0.13361807, 0.100075275, 0.08067837, -0.0636885, 0.03795273, -0.020829385, -0.039069507, 0.006251905}, 
{-0.037253264, 0.034303542, 0.07842775, 0.039373327, 0.08590739, -0.071672216, -0.10363004, 0.067320384, 0.107367486, 0.12694737, -0.0509118, 0.07269717, 0.07351105, -0.10971268, 0.15956134, -0.028939813, 0.02240742, 0.066234425, -0.016861282, 0.06926341, -0.112289965, -0.049785536, 0.085343316, 0.091004625, -0.10607623, 0.08376407, -0.026917933, 0.09162941, 0.045040634, -0.001520292, 0.07235296, 0.045391, 0.099648476, -0.00014112852, 0.05971061, 0.006210836, 0.0391121, -0.1262443, -0.013166559, 0.016522449, -0.046940707, -0.0059168907, 0.0044652587, -0.15132162, 0.049985245, 0.011014972, -0.011282938, 0.10016754, 0.040796995, -0.032832213, -0.06851983, -0.00407134, -0.024519278, 0.0656153, 0.096901864, -0.059442207, -0.012338626, 0.08491411, -0.055322833, -0.10395859, 0.09969174, -0.031730108, 0.039129253, -0.10415622}, 
{0.070004, -0.03308639, -0.11076002, 0.05441912, -0.06732405, -0.09642102, -0.09810961, 0.02676415, 0.07915726, 0.10064799, 0.09023047, 0.05942697, -0.012891445, 0.09155778, 0.04820282, -0.04454734, -0.08133124, 0.15680519, 0.06973306, 0.05782013, -0.04725816, 0.04719735, 0.017515603, 0.07186493, -0.049092393, -0.059870735, -0.10285678, 0.104480505, 0.028991595, 0.0831014, -0.011383228, -0.1056614, -0.10806596, 0.08768417, 0.087492906, 0.06335574, 0.01603787, -0.0461395, 0.020555012, 0.08572997, -0.10955442, 0.021752775, 0.00691857, -0.10427471, 0.015871868, 0.038852654, 0.0287241, 0.018381292, 0.029448658, 0.08241099, -0.08893079, 0.039408028, 0.1268308, 0.022519052, -0.047879133, 0.031418707, -0.07637426, -0.03833438, -0.092530146, 0.114046626, -0.014199459, 0.06625659, -0.030708283, -0.07528325}, 
{-0.038673244, -0.0014440131, 0.04036419, 0.055954147, 0.019687885, -0.101416, 0.099099234, 0.015718568, 0.11019501, 0.015154209, 0.074011475, -0.01917743, 0.031482607, 0.03910057, 0.059671547, 0.0627221, 0.029850055, 0.08386079, -0.046926852, -0.09990384, 0.08749032, 0.06550756, 0.10331378, 0.047977358, 0.05816236, -0.030837921, 0.05089686, 0.07680915, -0.04748456, 0.058420625, 0.0011713356, -0.029753271, 0.06580146, 0.008283791, -0.043469116, 0.0030010825, 0.013182678, -0.12171698, 0.023922917, -0.10495737, 0.052818716, 0.016475305, 0.016332503, 0.06624066, 0.086606994, 0.06321231, -0.03884207, 0.067947604, 0.042176645, -0.028830614, -0.00040596724, -0.048475772, 0.13848586, 0.00976672, -0.032395434, 0.044777554, 0.064317845, 0.045929782, 0.0867203, -0.016835602, -0.012533935, 0.08110444, -0.13734728, 0.043120526}, 
{-0.079013824, 0.092488796, -0.115157165, -0.07073354, -0.15269014, -0.10771651, -0.076586455, -0.022168657, 0.0705159, -0.06869614, -0.053712737, 0.023883471, 0.14561029, 0.05803421, 0.10855748, 0.0034454614, -0.041925166, 0.08332853, 0.20203142, -0.0810128, 0.019482434, 0.16220316, -0.11229351, 0.0013218597, -0.011800322, -0.16242334, -0.02259472, -0.025366224, 0.055041444, -0.073505, -0.0044575706, 0.0046785534, 0.08473201, 0.059399445, -0.07816647, 0.0019548794, 0.17551683, -0.15675832, 0.09084887, -0.078304105, 0.090124056, 0.11575292, -0.0058227577, 0.0019795026, -0.02771569, 0.06986993, 0.079822384, 0.03803397, -0.16663796, 0.015557918, -0.108253546, -0.05879874, -0.0121425195, 0.11231148, -0.025045242, -0.08426112, -0.09275874, 0.06928773, -0.031109594, 0.04871017, -0.063246496, -0.021496747, -0.07282775, 0.06772464}, 
{-0.035590637, -0.05669968, -0.043258198, -0.13731574, -0.055319216, -0.15089683, 0.08431537, 0.042769793, -0.091099106, -0.114131615, -0.027905121, -0.064938694, 0.12055495, -0.033936504, 0.15627305, 0.03410521, 0.011964257, 0.2180505, 0.17645092, -0.00432647, 0.105186895, 0.10259914, -0.002094712, 0.02105622, -0.10375591, -0.12509453, -0.20273566, -0.01901483, -0.007264893, -0.018610898, 0.08420493, 0.015174563, 0.10676284, 0.026293017, 0.0046007535, 0.21830998, 0.08387106, -0.041075233, -0.050298803, -0.09629961, -0.07352191, 0.05139828, 0.0528215, -0.035220772, -0.024038315, 2.462406e-06, -0.028068598, -0.05856826, -0.11725702, 0.083838195, -0.020886123, -0.09418721, 0.19175553, -0.08460591, 0.094203286, -0.14354983, -0.1712288, 0.058824014, -0.011350393, -0.11743049, -0.11677361, 0.12818278, -0.117914885, 0.040725086}, 
{-0.060151912, -0.017208047, 0.030445458, -0.18511735, -0.18393092, 0.010036914, -0.028416114, -0.058827754, -0.09987606, 0.08310391, -0.07090822, 0.07292215, 0.14978412, -0.046560783, 0.04246476, 0.061517015, -0.03758103, 0.21970262, 0.11439457, 0.029760519, -0.0033128038, 0.15591066, -0.05816642, -0.10503666, 0.06978753, -0.05731809, -0.053702433, 0.10223131, 0.019964872, -0.065461785, -0.06629282, -0.108505234, 0.0067423806, 0.054329544, 0.00071048, 0.13337584, 0.22746529, -0.055868126, -0.056670263, -0.15868805, 0.08527006, 0.14551745, 0.08940285, 0.0047640693, -0.07303998, 0.06525313, 0.023108903, 0.04786213, -0.10407282, 0.11311803, -0.05070802, -0.028694183, -0.0020003642, 0.06735964, -0.09922923, -0.09680044, -0.116220765, -0.06971597, 0.025790513, -0.06547749, -0.045098536, 0.13024077, -0.10348665, 0.038438383}, 
{0.029342659, 0.067938976, -0.099721685, -0.044787068, -0.039599575, 0.007876992, 0.07859756, 0.039446946, 0.10027915, -0.02090659, -0.062099893, -0.10226343, 0.14954579, 0.0062235612, 0.089612044, -0.03678187, -0.10516906, -0.074948065, 0.014131298, -0.08883726, -0.08098953, 0.16624717, 0.0725116, -0.05315829, -0.11779148, -0.04056713, 0.043414216, 0.10256804, 0.13415177, 0.004712608, 0.040463433, -0.08786217, 0.09753187, 0.14584748, 0.040036306, 0.12515818, 0.16064449, 0.056041457, -0.06954763, -0.086120866, 0.07861547, 0.04874324, -0.054047972, 0.11249391, -0.02289629, -0.070159525, 0.09600375, -0.015927687, 0.009396865, -0.011066394, 0.033362627, 0.0033772215, 0.049047794, 0.06332989, 0.023367863, -0.08081601, 0.094168834, 0.044095974, 0.039708883, 0.014624657, -0.09907934, 0.0370826, -0.14656642, -0.023389876}, 
{-0.01529321, 0.09355646, -0.04189946, 0.012036515, 0.09633538, 0.012250269, -0.037382647, -0.10794622, 0.1034368, 0.14546439, 0.073508464, -0.098072045, 0.09868512, 0.05072378, 0.08931261, -0.09734705, 0.061841216, 0.027272332, 0.008040015, -0.050053664, 0.0773679, -0.11794516, 0.014554991, -0.042231977, -0.06290974, 0.008307977, 0.13379325, 0.050095428, 0.23519059, 0.12036666, -0.031230725, -0.026124878, 0.06076643, -0.0697817, -0.11216881, -0.0879687, -0.13712478, 0.11857466, -0.0956962, 0.10430716, -0.07318746, -0.05465565, -0.091655605, 0.07458459, -0.03813225, 0.13393511, 0.010771373, 0.083924346, 0.10503462, 0.0071050185, -0.050507277, -0.008341916, -0.014772878, 0.0095098615, 0.08587899, 0.0768529, 0.10744393, -0.12399938, 0.014031574, 0.12002816, 0.022111963, -0.102793746, 0.19975907, -0.097247615}, 
{0.051823776, -0.0041547357, -0.0057811304, -0.061379336, -0.03535122, 0.09138289, -0.08832918, 0.010744962, -0.009465478, -0.09112169, -0.08675553, 0.08742581, 0.11487464, 0.038615055, -0.079086035, -0.021822937, -0.06019613, -0.03395722, 0.104371704, -0.11242396, -0.05352194, -0.013274641, -0.09019729, -0.042244285, 0.091287635, 0.037644822, 0.05741042, -0.090797484, 0.070691735, 0.06999163, 0.035341054, 0.038003266, 0.107847765, 0.120394394, 0.039237063, 0.11038693, -0.2015429, 0.05512187, 0.015277082, 0.18461634, 0.003510967, -0.10164069, 0.06416417, 0.038710218, 0.07020065, 0.021254238, -0.074302755, 0.09607159, 0.073965766, -0.056966968, -0.012638092, -0.08010713, -0.013072635, 0.039425775, 0.08522334, 0.08026167, 0.18180023, -0.06284798, -0.098889135, 0.11925614, 0.063273974, -0.04269913, 0.00013894202, 0.007363527}, 
{-0.09989867, 0.023717249, 0.009250337, -0.040842716, -0.08648475, 0.02170909, 0.10021333, -0.0007085116, 0.031022668, -0.047161356, 0.046644773, -0.11537558, -0.029692646, 0.019090911, 0.02416988, -0.058758046, -0.00022247329, -0.097677946, -0.03293997, -0.11247358, -0.07854034, -0.016917443, -0.014366034, -0.08006763, 0.105287105, -0.055016562, 0.05969564, -0.07214203, 0.12830763, -0.078605704, -0.02364891, -0.010134549, -0.087354705, -0.057885945, 0.102419, 0.061350428, -0.04319753, -0.0876525, -0.06342101, -0.014868663, -0.00777214, -0.0033403477, 0.033594035, 0.015681984, -0.04036384, -0.05292251, 0.104185395, 0.0447312, -0.04086428, 0.059525367, -0.0089704245, 0.045582607, 0.06357522, -0.068833515, 0.028054355, 0.05526997, -0.07125469, 0.03495264, -0.0052932873, 0.014597436, 0.06302423, -0.06988775, -0.039153066, 0.12610814}, 
{0.033065353, 0.10450526, 0.02848671, -0.03547223, 0.037976485, -0.08578268, 0.055312164, 0.054385327, -0.11023693, -0.027904032, 0.045190286, -0.0913837, 0.052097652, 0.08021905, 0.02474218, 0.07540853, -0.0213166, -0.008173887, 0.08440429, -0.04207238, 0.030460179, 0.08090601, 0.088655084, 0.066951826, -0.029688004, -0.04635598, -0.04124725, -0.031602595, 0.17680404, 0.0048613832, -0.07882789, -0.021728462, 0.08859222, 0.08207899, 0.06857562, 0.024038572, 0.06778037, -0.033590496, -0.017345287, 0.08880948, -0.05474782, 0.035660192, 0.08919354, 0.1532975, -0.09209348, 0.047707167, -0.01874839, 0.09882151, 0.07750479, 0.06399362, -0.036890537, 0.09464282, -0.10119998, -0.06896815, -0.029492773, -0.09130273, -0.06395186, -0.06716712, -0.08115481, 0.08228964, -0.00038011099, -0.063620664, 0.07766421, 0.11619729}, 
{-0.09997726, 0.055867158, 0.060197607, -0.02902488, 0.04104928, 0.06849519, -0.026092442, -0.11029308, -0.029604487, 0.07188737, -0.11405937, 0.056315217, 0.08401583, 0.05395462, 0.04115033, -0.06484411, 0.026137393, 0.065382145, 0.02599585, -0.059520558, -0.08841234, -0.006971267, -0.014589568, 0.034693703, 0.10094721, 0.07749865, -0.04468847, 0.110659994, 0.15923287, 0.07392012, 0.05393222, -0.0788219, -0.06949336, 0.07518736, -0.0770728, -0.017942227, -0.098769344, 0.04912497, -0.0058111204, -0.07381587, -0.00029248, 0.10845132, -0.011662152, -0.023251157, -0.035790727, -0.10238698, -0.076504104, -0.11064105, 0.059381947, -0.031633202, -0.00289049, -0.036778107, -0.068239234, -0.04088848, 0.07092854, 0.08048226, 0.076103464, 0.114726685, -0.056347303, 0.01885763, -0.04722818, 0.019347945, 0.1262645, -0.005526458}, 
{0.04861435, 0.09966261, 0.09403171, -0.04224469, -0.078220494, -0.13460606, 0.05703534, 0.038598906, -0.0006657541, -0.07045221, -0.12004613, -0.08632019, -0.06650156, 0.015746536, 0.028639913, 0.021824703, 0.0897162, -0.03717934, 0.13440418, 0.024617234, 0.110978216, 0.045955162, 0.02165812, -0.0061593205, -0.03168505, 0.021902757, 0.069830604, 0.14331084, 0.059191633, -0.07166687, -0.078662805, 0.031695127, 0.07629123, 0.09232178, 0.07585949, 0.12754436, -0.0620764, 0.031414405, -0.025014015, 0.02954729, 0.024441302, -0.068720184, -0.0142766815, 0.008788705, 0.030358434, -0.0056157326, 0.059818663, -0.11713408, -0.033282083, 0.1004044, -0.11014784, 0.08925472, -0.088248104, -0.06384325, -0.06641916, 0.08905014, 0.0038206803, 0.10688417, -0.056799877, 0.03995733, -0.0135339275, 0.0018733443, 0.028817676, 0.11187671}, 
{-0.09852919, 0.09713145, 0.08261202, -0.009696266, 0.05576693, -0.09280802, 0.021598274, 0.057732254, -0.0980618, 0.0060700406, 0.088256426, 0.05284213, -0.04404433, 0.07630848, -0.117204115, -0.038776673, -0.09516047, 0.0154543435, 0.059892382, 0.08603178, -0.0001605004, 0.13983789, 0.02032089, -0.01398804, -0.004064925, 0.054281287, 0.049909078, 0.1593998, 0.17756778, -0.074550435, 0.104996294, 0.062059645, -0.04698102, 0.08900822, 0.07947244, 0.104529575, 0.06870369, -0.012203326, -0.07985491, -0.06314205, 0.027332902, -0.04284984, 0.090529166, 0.17290497, -0.02097825, 0.04892001, 0.01194533, -0.039915994, -0.03488027, 0.022876184, -0.110041074, -0.04473319, 0.025302712, -0.076423325, 0.09574319, -0.06592601, -0.11206031, 0.052933604, -0.027600579, 0.025450043, 0.08766846, 0.08484148, -0.04652761, 0.13247699}, 
{-0.09075666, 0.027975721, 0.00818478, -0.06875661, -0.017503599, -0.10807072, 0.04365625, -0.04030738, 0.062139124, 0.049822327, -0.038286023, 0.056439903, 0.0064437883, 0.034505997, -0.11640331, -0.00094267726, 0.0063649737, 0.120180905, 0.04898356, -0.04395801, -0.011120923, 0.1369966, -0.10849647, -0.002946198, 0.102082126, -0.087945595, 0.040650133, 0.12272755, -0.0074272268, -0.043701045, -0.093917884, 0.097313814, -0.012200512, -0.012864072, 0.01851564, 0.07198647, 0.050775025, 0.07934692, -0.12150245, -0.10289329, 0.090727, 0.093843766, -0.062419742, 0.025364012, -0.059237655, -0.04704904, 0.039348055, -0.08604828, -0.03467398, 0.054492395, 0.10827513, -0.03833255, 0.08556159, -0.03192804, 0.08517064, 0.018051075, 0.07068525, 0.10544236, -0.04479544, -0.0487072, -0.044943478, -0.035742205, -0.101577744, -0.07212261}, 
{0.022747165, 0.09461121, -0.07417202, -0.18527572, -0.16483143, -0.015090095, 0.030577082, -0.066672295, 0.019074023, -0.028734958, -0.019920561, -0.11300863, 0.0034172114, 0.0513501, 0.051738318, 0.068171665, -0.10869627, -0.0677045, 0.091515996, 0.03648196, -0.068123296, 0.010502537, 0.043729942, 0.09764013, 0.031614285, 0.030708442, -0.06675423, 0.021796178, 0.17762, -0.06313495, -0.05684949, 0.04755404, -0.033964127, -0.020561252, -0.010345385, -0.03041083, 0.09591667, -0.03158868, -0.08994671, 0.057798274, -0.0100951195, 0.09746196, -0.004002205, 0.14575896, -0.051680323, 0.00047662912, 0.054865286, -0.009247159, -0.04109317, 0.025880897, -0.08452907, 0.051633015, -0.056949887, 0.103955775, -0.08370643, -0.0015088482, -0.021178247, 0.080010094, -0.066700555, 0.09669462, 0.102674246, -0.008726494, 0.11386614, -0.018466875}, 
{-0.07979309, 0.047768712, -0.07177715, -0.18106723, -0.16987567, -0.020582123, 0.034977954, -0.03315806, -0.08926739, -0.025761561, 0.04623324, 0.09737597, 0.09908767, 0.01767984, 0.014843411, -0.033876255, 0.10020051, -0.03895801, -0.033115752, -0.08706813, -0.0013122037, 0.029306103, -0.032778647, -0.10353638, 0.06735131, -0.05620567, -0.024716515, -0.000640876, 0.013963474, -0.09855281, -0.10362881, 0.03164382, 0.075975165, 0.06809572, 0.07648255, 0.1243762, -0.016546374, 0.04904565, -0.11877332, 0.047859836, -0.07224199, 0.056088556, 0.0021178795, 0.036535308, 0.007682644, 0.044469804, 0.15299827, -0.115803696, 0.07249628, 0.07814247, 0.047948048, 0.016219303, -0.112046674, -0.06946118, -0.033109196, 0.11149106, -0.044849627, 0.07969697, 0.084570006, -0.086959705, 0.024316398, 0.0060633603, 0.017086413, -0.06211244}, 
{0.02844896, -0.06949645, 0.0040851426, -0.09503911, -0.1625909, -0.13677293, -0.014355481, 0.06583549, 0.06324667, -0.027231272, 0.021843296, -0.053080406, 0.116159715, -0.015884893, -0.061111234, 0.08329582, -0.069830954, 0.06057208, 0.020917255, 0.0638421, 0.006031975, -0.039414495, -0.11889745, 0.010371171, -0.1163712, 0.08928001, 0.11184987, -0.035000496, 0.074303605, 0.055604316, -0.11083244, -0.0017050521, 0.021875858, -0.045507465, 0.046674915, -0.0643131, 0.006999594, 0.02097439, -0.0074136904, 0.11410023, -0.06142874, 0.016967129, -0.069665186, 0.082627535, 0.06283836, 0.03727081, 0.18976614, 0.060081642, 0.02909526, -0.025039837, 0.008950226, 0.043453217, 0.025851307, 0.003809303, -0.01726451, -0.025478171, -0.09700656, -0.0689763, 0.089362115, -0.016850019, -0.11636293, -0.03993328, 0.022547176, -0.11264809}, 
{-0.098358974, -0.020424131, 0.016359208, -0.067984745, -0.12276025, -0.10365426, -0.012898269, -0.00084584166, 0.00090067834, -0.056343824, 0.0005478298, -0.073514454, 0.044031307, -0.081764415, -0.16557883, -0.0677301, -0.057691447, 0.08421333, 0.053333677, 0.09834233, -0.068853416, -0.13475882, -0.003488922, 0.05492252, -0.013005973, 0.11765297, 0.14515087, 0.0100540705, 0.02113427, -0.14154753, -0.09917522, -0.087333106, -0.109828845, 0.03541352, -0.040367067, -0.023586974, -0.07190606, 0.17747368, 0.05862007, 0.12809664, 0.104974225, 0.09245683, 0.026822994, 0.15809834, 0.06759696, 0.04944656, 0.14650142, -0.079214826, 0.084875956, -0.05300589, -0.089496695, 0.04787913, -0.13538079, -0.10316943, 0.10101748, 0.07344394, -0.054194883, -0.04027597, 0.07382716, -0.07958383, 0.04059756, -0.0028723788, 0.010220166, 0.052857555}, 
{-0.048766594, 0.09493985, 0.027696783, 0.031410966, -0.04837709, -0.045328733, -0.06469126, -0.053054597, -0.0893581, -0.03777658, -0.015091434, -0.026006376, 0.111179374, -0.09478657, 0.0748224, -0.109351434, 0.032852367, 0.03622723, -0.041073818, -0.003945011, -0.08516612, 0.07021045, 0.014886469, -0.080997616, -0.11370437, -0.034404773, -0.1420785, 0.046317276, -0.05674503, -0.04639319, -0.054542884, -0.024813514, -0.04443141, -0.016601218, 0.082346536, 0.1440587, 0.026964981, -0.1065902, -0.1006015, -0.015247557, 0.037242725, 0.10033175, 0.01789874, -0.13070317, -0.098861404, 0.067197435, 0.06177459, -0.106364615, -0.10570155, -0.053728998, 0.012396932, 0.09911515, 0.15901099, 0.052914873, -0.05413644, -0.09393266, 0.124851145, -0.0077048647, 0.038224623, 0.074369654, 0.074869104, -0.1347672, -0.20441803, -0.11664153}, 
{0.025068838, -0.03516681, 0.10246794, 0.17243116, 0.078828104, -0.07332814, -0.099555075, -0.10642932, -0.0006290972, 0.09613649, -0.07375479, -0.039720662, -0.09866165, 0.036950756, -0.004872026, 0.08166142, -0.04245166, 0.008478867, 0.043347713, 0.03221584, -0.03074941, 0.10480853, 0.07797179, 0.074352935, -0.055834677, 0.04528927, 0.08780222, -0.122766405, -0.11637642, -0.14066857, 0.03349854, 0.09495334, -0.0674178, 0.020761192, 0.08020248, 0.0008677944, 0.06975737, -0.077874914, 0.097517736, -0.074535854, -0.05631645, -0.08079553, -0.042135216, -0.08967495, -0.077583864, 0.09725093, 0.059250854, -0.08969533, 0.10719624, 0.06533689, -0.106782794, -0.003955163, 0.061584685, 0.0012145787, -0.033047237, -0.08093441, 0.088280864, -0.01122692, -0.065028116, -0.053079735, 0.070633486, 0.0373831, -0.112426266, -0.18566108}, 
{-0.0067895553, 0.030410556, 0.01721134, 0.14273913, -0.033261977, -0.03125938, 0.08179951, -0.0737926, -0.05281443, 0.1120677, -0.09438726, 0.09056628, -0.1422705, -0.06259721, -0.023185346, -0.051522776, 0.02744277, 0.11292157, 0.055486705, -0.040938858, 0.08656339, -0.07148138, -0.11463103, -0.09232892, -0.10769701, -0.029616753, 0.0145365475, 0.007538805, 0.07017493, 0.08403354, 0.09811905, -0.038398158, -0.015920639, 0.0023081333, 0.10274345, -0.092472635, 0.15026718, -0.07396988, -0.0023664671, -0.038333643, 0.000119537115, 0.03074829, 0.037504286, 0.015937636, -0.09149195, 0.045689043, 0.08628154, -0.054887667, 0.054086074, 0.085663624, -0.08347825, 0.08175227, 0.036616057, -0.030183673, -0.082957, 0.024375876, 0.064263456, 0.0207605, -0.04150986, 0.07228806, -0.06510557, -0.03302684, -0.068355516, -0.124054104}, 
{0.17006591, 0.10148392, 0.06757643, 0.06742083, 0.050868206, 0.08699905, -0.068242036, -0.105127744, 0.057355344, 0.0068557435, 0.040898927, 0.06064523, -0.07218635, 0.053984523, 0.061392434, -0.10133629, -0.052938204, -0.048725873, -0.053265933, 0.025633035, 0.10952072, 0.033733245, -0.0043053906, 0.04295659, 0.073989615, 0.025645144, -0.06465281, 0.058060914, -0.07540698, 0.04415887, -0.080814935, -0.095357314, -0.01446759, -0.0023887076, -0.07538509, -0.08433409, 0.08817461, 0.013320671, -0.024746832, -0.024325257, 0.0057393014, 0.10142434, -0.07758251, 0.04335325, 0.081136286, 0.07206272, 0.031241229, 0.07073035, 0.107142724, 0.08857133, -0.076847054, -0.11012159, 0.1153616, -0.012770101, -0.06098657, -0.07213184, -0.004733815, 0.13735935, 0.09647021, -0.062130198, -0.024542764, -0.05738026, -0.12654556, -0.046091653}, 
{0.07606554, -0.04291007, 0.008923009, -0.025252873, -0.17758027, 0.04642065, -0.063106954, -0.09588452, -0.022791937, 0.03458065, -0.05537078, -0.10697541, 0.1632555, -0.07887524, 0.1266247, -0.055506814, -0.043466594, 0.041226365, 0.012258023, -0.061789837, -0.09239808, 0.16640839, 0.0057490943, -0.07975283, 0.047904175, 0.01983204, -0.2040684, 0.06517683, 0.059946477, -0.15585712, -0.066351354, 0.07384246, -0.068046786, 0.12874779, -0.019800734, 0.17908597, 0.2178451, -0.055343118, -0.12026131, -0.19335587, -0.0869251, -0.0021016982, 0.0789783, 0.009307903, 0.011718437, 0.046266224, -0.033873465, -0.111638956, -0.046247974, 0.12697747, -0.0097421035, -0.058292486, 0.17770065, -0.018731259, -0.013385791, -0.058913004, -0.0173757, 0.12363183, 0.064360574, -0.056288, -0.08116538, 0.048013363, -0.039710775, 0.093289845}, 
{-0.010182293, 0.077150404, 0.016394233, -0.1744404, -0.08609655, -0.1203189, 0.058108583, 0.01722794, -0.07701027, 0.046342686, 0.0032278884, 0.099348016, 0.17559515, 0.06690688, 0.039709143, 0.090975076, -0.00906846, 0.118610576, 0.21490599, 0.021836346, -0.025180042, 0.17824222, -0.06465346, -0.006972231, -0.018711394, -0.10133241, -0.2642913, 0.09297404, -0.08357695, -0.1516555, 0.083541185, 0.08505693, 0.082085714, 0.08796334, 0.020214643, 0.22953863, 0.18332282, -0.10611944, -0.051390857, -0.0925543, -0.05329008, 0.0725225, -0.08421725, -0.103055574, 0.07652074, 0.037208952, -0.0439823, 0.0018890485, -0.13066931, 0.21477309, 0.0629631, -0.08350802, 0.17660388, 0.074714616, 0.073933505, -0.15999067, 0.052242707, 0.034202673, 0.02376704, -0.080724455, -0.033004727, 0.15065467, -0.20236036, 0.0026325004}, 
{-0.012601587, 0.0054556355, -0.041247748, -0.14241613, -0.079467654, 0.040492006, -0.06307192, 0.05022474, -0.043077208, 0.09052296, 0.0818026, -0.0001350845, 0.059267074, 0.05946116, 0.13723288, 0.08864465, 0.04644147, 0.17861977, 0.03799058, -0.04504594, -0.022023596, 0.15100424, -0.11641176, -0.038177885, 0.098484606, -0.04012243, -0.14045198, 0.0837478, 0.060548946, -0.052670226, -0.09526278, -0.03295087, -0.08655521, -0.0032295806, 0.049833074, 0.24175791, 0.08533867, -0.12321413, -0.07274535, -0.23270279, 0.0816644, 0.10914647, 0.029326139, 0.019902393, 0.0028439388, 0.079642944, -0.09097973, 0.09660153, -0.0921734, 0.092734575, 0.100679785, -0.037165992, 0.02622416, 0.012503758, -0.015159904, -0.09611368, -0.00079286995, -0.085688084, -0.099446066, -0.057600696, -0.047201034, 0.02063656, -0.15040246, 0.14497939}, 
{-0.087533094, -0.008513481, -0.05511429, -0.05149948, 0.034287635, -0.0453576, -0.059856582, 0.079062045, -0.014184736, 0.0060211215, -0.060789112, 0.10341223, 0.049819987, -0.10386562, 0.019142782, 0.043177664, 0.023147447, -0.007626925, 0.122348666, 0.053395823, 0.09348011, 0.010766067, 0.061453816, -0.11117114, 0.07492246, -0.016303172, 0.05506777, 0.0071471785, 0.16045326, -0.07830612, -0.0007333979, -0.09898707, -0.08876373, -0.041774098, 0.039345276, 0.1626757, -0.06518186, 0.11017915, -0.11173429, 0.091807604, -0.016759582, 0.06684999, 0.01755895, 0.09585137, 0.092625305, 0.068856284, -0.05696322, -0.014306821, -0.059597563, 0.03801747, 0.0116684735, 0.09409647, -0.033952344, -0.05244354, 0.04654977, 0.10601826, 0.22128215, 0.016559359, -0.09283255, 0.07120152, 0.08206073, -0.011567892, 0.16578321, 0.062464233}, 
{-0.1396957, -0.039594512, -0.083251394, 0.03953225, 0.014919451, 0.023184197, -0.10604338, -0.018269043, -0.049914755, 0.098846205, 0.07285761, 0.10612447, 0.021487841, -0.08131175, -0.040936753, -0.10664978, -0.0117974365, -0.06706302, 0.0014920153, 0.06249806, 0.05237229, -0.21192078, 0.019868067, -0.012438603, -0.01655604, 0.064912714, 0.21099155, 0.010073305, 0.13668863, 0.0644778, 0.08731285, -0.046194658, -0.04791283, 0.114183724, -0.08199601, -0.01882239, -0.08336036, 0.01874516, -0.0338452, 0.16883011, -0.08965392, -0.10462788, -0.017480502, 0.2728593, -0.043899342, 0.10184839, 0.074366584, -0.027019981, 0.0020043722, -0.01572465, -0.061015315, -0.0020824224, -0.076214656, -0.069247566, -0.087141275, 0.040562462, 0.17916605, -0.08049695, 0.06647466, 0.093694374, -0.05231864, 0.09119454, 0.135799, -0.034530994}, 
{-0.012134659, 0.03753674, 0.0044395276, 0.039838605, -0.028309666, 0.074821725, 0.009387762, -0.043718785, -0.031463265, 0.093022525, -0.120923415, -0.032174353, 0.12182762, -0.07053544, 0.06635662, -0.0062365606, 0.03767986, -0.0057298033, 0.1304949, -0.07834435, 0.04229197, -0.05621843, -0.01417674, 0.07131085, -0.05353204, 0.0025393418, 0.030818963, 0.013000569, 0.12792827, -0.08095773, 0.07381746, 0.07225704, -0.09887252, -0.020728638, -0.013141073, 0.051549155, -0.18168026, 0.07542736, 0.09746439, 0.010865327, 0.005745508, -0.07690591, 0.04797781, 0.09641707, -0.07668263, 0.045099817, -0.08665723, -0.11895166, -0.053921167, 0.021868581, -0.051452477, -0.053424228, -0.04497184, 0.089166805, -0.114484504, 0.07129754, 0.15532643, -0.14071956, -0.054004878, 0.019655554, 0.05838762, 0.062294245, 0.217342, -0.016139373}, 
{0.034771267, 0.014229559, -0.09909141, 0.020158175, -0.033777755, -0.030628359, 0.018045273, 0.07758594, -0.073222056, 0.06701, -0.08237665, -0.04910851, 0.025098676, -0.0714715, -0.051370967, -0.030897222, -0.008408386, -0.12405777, 0.17667028, 0.054232016, -0.032448284, 0.026659654, 0.08792122, -0.033464946, -0.11763951, 0.0017313563, 0.04048553, 0.104762584, 0.120194264, 0.0020673287, 0.057768658, 0.076897554, 0.09602071, 0.045228995, -0.041309018, 0.1053635, -0.11176227, 0.127656, -0.0797056, 0.13297263, 0.0015687644, -0.033230156, -0.098191425, 0.16734202, 0.008198038, -0.010014908, -0.08046535, 0.100406095, -0.08702081, -0.054311104, -0.10421577, 0.11161195, 0.037035987, -0.08831761, 0.03607142, 0.13615598, 0.04496206, -0.09878627, 0.10866508, -0.047131304, -0.044265464, 0.020694425, -0.048992015, 0.091973975}, 
{0.08566853, 0.02912432, -0.07026845, -0.12936084, -0.013208778, -0.07025735, -0.041058555, 0.10036892, 0.011415631, 0.06035066, 0.051746972, 0.014947355, -0.044766903, 0.07036183, 0.093739964, 0.109224096, -0.041122865, 0.002892673, 0.18071677, -0.101374716, 0.07867725, -0.06740321, 0.032896034, 0.039859027, -0.119251676, -0.06562265, -0.10065035, 0.13506217, 0.17544766, -0.10871704, -0.07427977, -0.07021908, -0.013280638, -0.036633804, 0.025815522, 0.07279223, 0.052525006, -0.008980183, 0.08589556, 0.112127885, 0.054675326, 0.02408258, -0.0604257, 0.037485663, 0.041043073, -0.03417513, -0.060306866, 0.019925328, -0.09417731, -0.073118396, 0.010935284, 0.08086677, 0.06993043, -0.09105757, -0.011708862, -0.02033395, -0.100111306, -0.013688755, 0.018093318, 0.085260116, 0.077992536, -0.090003826, 0.079346664, 0.104784176}, 
{0.0420318, 0.08382446, -0.11510425, 0.0070345774, -0.01722454, 0.066186264, -0.11681855, -0.1107432, 0.11175248, -0.030813498, 0.02856489, 0.024127003, -0.02799481, 0.05009556, 0.022791842, -0.020353295, 0.010350064, -0.075702496, -0.03168773, 0.00093266397, -0.037108436, 0.06888658, -0.11743401, -0.029771462, 0.09769852, -0.0091014085, -0.091756545, -0.058128085, -0.009915598, 0.06689798, 0.0158671, 0.08998436, -0.058543704, -0.05250935, -0.0739273, -0.04829858, 0.0053136554, 0.0009488374, 0.072676286, -0.11161106, 0.07973294, -0.005146586, 0.0007846069, 0.14894743, -0.045447886, -0.03342834, -0.046218887, -0.042869996, -0.016616246, 0.038699117, 0.045739204, 0.028835684, -0.10735765, 0.042936176, -0.045999814, -0.10206471, 0.041159663, -0.09081328, -0.033191197, -0.10787767, -0.060877856, -0.038245652, -0.0007557985, 0.04305445}, 
{0.044333354, 0.09644722, 0.04869238, -0.046425283, -0.1533623, -0.05663603, -0.1158001, -0.10266485, 0.04769729, -0.0266983, -0.11253187, 0.01276479, 0.13010997, -0.0017692456, 0.069914356, 0.015179709, 0.014030475, 0.07248469, 0.1761015, -0.054143522, -0.030790083, -0.0043405816, -0.006113349, -0.060582098, 0.0448572, 0.08736129, 0.08748633, 0.144398, 0.063817054, -0.008245823, 0.05801475, -0.09368663, -0.026619002, 0.069795184, -0.09422263, 0.10192572, -0.092614084, -0.05788024, -0.118389584, 0.111097045, 0.030159757, 0.088551134, -0.09906432, 0.12637766, 0.06611782, 0.023626247, 0.019783888, 0.057851467, -0.014701686, 0.06342041, -0.012156233, -0.05911256, -0.09747767, -0.065777645, 0.10268674, 0.06377681, -0.01836083, -0.008161549, -0.060833935, 0.07078711, 0.07021784, 0.037785977, 0.02934951, -0.011280851}, 
{-0.10960842, 0.10227267, 0.05929945, -0.044396825, -0.086951315, -0.017463028, 0.10041396, -0.111102216, -0.05071482, 0.11098995, 0.037448455, -0.013768407, 0.14910232, -0.024658257, -0.06673525, -0.028918989, 0.06771288, 0.028535036, 0.16970307, -0.115935564, 0.108172014, -0.0052299392, 0.048055347, 0.04370308, -0.0251638, -0.0313209, 0.11476761, -0.056398597, 0.11127181, -0.11460904, 0.06252207, -0.011923136, 0.0044635087, 0.085407734, 0.014696322, -0.011118805, -0.010339842, -0.07212255, 0.08871648, 0.055871088, -0.07919715, -0.029059893, 0.06262335, 0.17286466, 0.0665582, -0.027975295, 0.036258385, -0.0005194515, -0.021742372, 0.09035718, 0.10983129, -0.010969691, 0.10457784, -0.04840938, -0.048041437, -0.09418998, -0.1286184, -0.066903055, -0.055059552, -0.07040856, -0.052057892, 0.04901248, -0.07401447, 0.0542215}, 
{0.0962572, -0.114093706, 0.054987784, -0.13444288, -0.093182385, -0.16651641, -0.061200038, 0.079928644, -0.05898508, 0.07226773, 0.0036317215, 0.106344976, 0.11724889, -0.076621965, -0.066299416, -0.061653577, 0.045723107, 0.057434764, -0.022752834, 0.07013913, -0.0028871, -0.03190587, -0.0076922164, 0.057179034, -0.011331615, 0.013733054, 0.063500896, -0.01328554, 0.08452467, -0.07750765, -0.0011666194, -0.0027964509, -0.09653934, 0.13711415, 0.049980506, 0.14120494, -0.054731146, 0.14297281, 0.01211994, -0.11689592, -0.0563299, -0.030866602, 0.08860068, 0.062029786, -0.019674823, -0.09678749, -0.008336612, 0.10414516, 0.029301824, 0.10408898, 0.081277, 0.07802552, 0.0904423, 0.035935014, -0.10836201, -0.063548155, 0.07670976, 0.10047465, -0.086349, -0.09465804, -0.028877202, -0.09772972, -0.0756528, -0.07568398}, 
{-0.07141591, -0.0810613, 0.057084464, -0.15146326, -0.073752925, -0.08107478, 0.04504707, 0.072803274, -0.0443632, 0.002238946, 0.009984617, 0.019513398, 0.059168007, 0.047058444, -0.03675119, 0.10752188, 0.007011912, -0.06439172, 0.18178126, 0.042473633, -0.011183575, 0.09608158, -0.030800976, 0.09510738, -0.112100944, 0.051889703, -0.0091761835, -0.02407577, 0.028391976, -0.052236658, 0.015290052, -0.067079335, 0.083531335, -0.032543335, 0.053737506, -0.047527928, 0.09525038, 0.0322148, -0.07559744, -0.05313791, 0.028056711, -0.022964051, -0.09878397, 0.07826796, -0.03880419, -0.06826036, 0.1334809, 0.09435066, -0.09962914, 0.07550396, -0.06734576, -0.09141447, -0.06539852, -0.073291495, -0.086538404, -0.004923244, -0.1036328, 0.024977708, 0.01789397, 0.06132148, 0.0011224439, -0.05592687, -0.06514847, -0.006513956}, 
{0.037744727, -0.084637836, -0.02081263, 0.00057365804, -0.16845894, 0.038800962, 0.03622839, 0.057611402, -0.10519592, -0.06291734, 0.09536684, -0.056222923, 0.07252285, -0.060684886, -0.06292465, -0.0141990185, -0.07642385, -0.0601385, -0.02895675, 0.079138376, -0.013725735, 0.11570039, 0.083574265, -0.012851596, -0.06256777, 0.09733092, 0.053455003, 0.16219237, 0.11860252, -0.08288843, -0.06775072, 0.077857204, 0.09290075, 0.081687964, 0.03152453, 0.035695445, 0.03883442, 0.13685147, -0.05233151, -0.060847435, -0.1082716, 0.040805157, 0.07057238, 0.21023643, -0.05692847, -0.15824524, 0.17109382, -0.101852596, 0.051018722, -0.0046149404, 0.035683855, 0.09240313, -0.10098523, 0.0630022, -0.09358295, -0.011925951, -0.058275327, -0.07310551, -0.009439968, -0.024492018, 0.060120147, -0.016292721, 0.1399865, 0.08177625}, 
{-0.028597223, 0.013752572, 0.096574135, -0.112133525, -0.03522437, 0.009307499, -0.031423118, 0.034079287, 0.0790568, 0.053728856, 0.09323076, -0.11049819, 0.091361836, 0.04930072, -0.057585716, -0.113432124, -0.07287496, 0.051758107, 0.13239717, -0.045834444, -0.027876139, 0.07794104, -0.06478359, -0.07444851, 0.100384094, 0.02752579, -0.015690152, 0.005303389, 0.1576483, -0.065320015, -0.0016498044, -0.047178097, -0.071550354, -0.06549199, 0.09817634, 0.10956343, -0.086326025, 0.01549749, -0.02061704, -0.052585486, -0.07772811, -0.03408636, 0.079078645, 0.17631675, -0.07462802, -0.086572126, 0.17899643, -0.09795046, -0.027738793, 0.0044295937, -0.0904966, -0.107870266, -0.0888348, 0.057320103, -0.0040331786, 0.077359416, -0.14039549, 0.07425446, -0.094590716, -0.093282565, -0.03604125, -0.15722851, 0.12350724, -0.028259201}, 
{0.039497107, -0.048894845, -0.05735144, -0.037396416, 0.00633075, 0.027206942, -0.033475477, 0.098972514, 0.0833267, 0.031315617, -0.058493998, -0.11353153, 0.06090476, -0.033405427, -0.043210093, 0.113624975, 0.08587367, 0.070183255, 0.023863323, -0.066887364, -0.023891859, -0.0775668, -0.058153115, -0.028907903, -0.041957866, 0.08228025, -0.02543244, 0.06228389, 0.017048588, 0.05372832, -0.07435365, -0.00046246682, -0.09704923, -0.06207861, -0.0933749, -0.07600445, -0.04083958, 0.1825917, -0.10577979, 0.13422865, -0.028646626, 0.09379822, 0.073051654, 0.20043097, -0.008999132, -0.10423188, 0.076082334, -0.00013614431, -0.054776713, -0.02696332, -0.028615154, 0.044488892, 0.033006802, -0.08041018, -0.075435005, 0.14198361, 0.05921231, 0.13075837, -0.042976245, -0.06681339, -0.09839338, -0.1454823, 0.051910494, -0.052487787}, 
{0.032925576, -0.05890101, 0.080479525, -0.15230836, 0.026667524, 0.07113935, 0.044245716, 0.022563241, 0.028834075, 0.0044767936, -0.10002703, -0.05765365, -0.03657523, 0.11484624, -0.07776283, 0.04959871, -0.013267713, 0.07345547, 0.027445942, 0.09548966, -0.10689918, 0.024261259, 0.009864762, 0.10197711, 0.026734972, -0.030898582, -0.16555807, 0.10679367, -0.13728245, -0.12552695, 0.07878782, -0.0038171895, -0.052939445, -0.081746206, 0.09672472, 0.017346852, 0.08521818, -0.101181544, -0.11728332, -0.22365373, -0.06283131, 0.19811639, -0.0473075, -0.029677475, -0.0036701635, -0.101144604, 0.00037719085, -0.031198941, 0.10798889, -0.008075229, 0.014568552, -0.07185975, 0.08426442, -0.026703373, -0.11523918, -0.18247597, -0.14835066, -0.05323569, 0.013047695, -0.024299247, -0.061933633, 0.07728365, -0.19394459, 0.009187901}, 
{-0.0036475274, -0.07823957, 0.06305097, -0.034844667, 0.0770288, -0.11869538, -0.0048491945, 0.10311927, -0.07677445, -0.049404908, 0.075496756, -0.02412901, -0.14795436, -0.08706885, 0.135935, 0.013299972, 0.0487561, 0.12921345, -0.17415696, 0.06270655, -0.09678942, -0.108452596, -0.07025062, 0.00872159, -0.059517805, 0.052753087, 0.07259696, -0.0911074, -0.019281864, 0.08304435, 0.042161644, -0.007812542, 0.11206105, 0.13286217, -0.064101905, -0.02212499, 0.06305493, -0.088973805, 0.10139171, -0.042095877, 0.075545475, -0.038296804, 0.014658142, -0.092785455, -0.0051236227, -0.014735829, 0.006317342, -0.07184334, 0.11275906, 0.0114055425, 0.02805765, -0.06413205, -0.010036529, -0.10278297, -0.10118437, -0.027802667, 0.073685355, 0.06679824, 0.075696975, 0.00086317793, 0.03670291, -0.12165776, -0.1057229, 0.009530373}, 
{0.1806841, -0.0023305262, -0.0057058325, 0.0058065583, 0.12805112, -0.05614258, -0.02997298, 0.07797118, -0.021062918, 0.030464886, 0.09222482, -0.03653613, -0.038645532, -0.07807551, -0.01054533, -0.10734848, -0.032814626, 0.03481545, -0.056778148, -0.113038056, -0.043788537, 0.09515656, -0.10486749, 0.076447055, -0.04300552, -0.027459636, -0.100728594, -0.04833296, -0.18391323, 0.022651587, 0.059494182, -0.010605088, -0.11130391, 7.981136e-05, 0.02517823, 0.01986446, 0.15280055, -0.11635078, -0.019137109, -0.020850293, -0.10153573, 0.12709975, 0.066438295, -0.020792475, 0.02639459, -0.0031513835, -0.05209106, 0.09313188, 0.017223518, -0.04271548, 0.099320546, -0.0034900904, 0.051161014, 0.1090451, -0.029790616, -0.11497397, 0.026718311, 0.11948449, -0.07910755, 0.098132186, -0.104842, -0.018982079, -0.0826189, -0.06465602}, 
{0.19046748, 0.10528611, -0.044731822, 0.04820665, 0.049516115, -0.09724416, -0.104031056, -0.09994809, -0.015258357, 0.033093788, 0.02678691, -0.03164544, -0.010133566, -0.025682652, 0.10781059, -0.043358818, 0.029978003, 0.15607482, 0.0355087, 0.062445734, 0.071724266, -0.07120628, 0.02977352, -0.10410293, -0.1134606, -0.04944281, -0.051546663, 0.06459468, 0.006799089, -0.10596444, -0.03482403, 0.08509491, 0.08450413, 0.042270903, -0.1022808, -0.13333201, 0.043335885, -0.08372524, 0.09058474, -0.07527624, -0.079506174, -0.038423676, 0.036890455, 0.0500998, 0.062413782, -0.06564018, 0.051653657, -0.070834614, -0.07961933, -0.076180205, -0.008932576, 0.050371915, 0.0018363156, -0.041286267, 0.0732372, -0.1170379, -0.08374053, 0.0424995, 0.040002465, 0.061712027, -0.11728649, 0.044128437, -0.06201852, -0.09274273}, 
{0.046050232, 0.09968168, 0.08966526, -0.082073316, -0.12815598, -0.092291005, -0.058709733, -0.032347646, -0.06594834, 0.007375122, 0.09029626, 0.07453204, 0.16564715, 0.053363916, 0.101607725, -0.01587978, -0.044940658, 0.0039696638, 0.09344417, -0.092615254, -0.09680994, 0.14381845, -0.10609332, -0.07277474, 0.10617345, 0.01798415, -0.012049025, -0.0736949, -0.08889757, -0.15426326, 0.10291229, 0.0858482, 0.029539227, 0.05469692, -0.019133152, 0.038833126, 0.15393335, -0.07073163, -0.0973923, -0.10143712, 0.051793247, 0.06307675, -0.052878805, -0.06801045, 0.10946186, -0.11385383, -0.017628085, -0.09264922, 0.022743408, 0.16340446, 0.004408337, -0.022524863, 0.13696516, -0.10626016, -0.044988316, -0.16925003, 0.0072217663, 0.04488513, -0.014869571, 0.0001571115, 0.068378, 0.083971165, -0.056635816, -0.02505915}, 
{0.020999257, 0.044416063, -0.095351204, -0.14795828, -0.04691894, -0.15069474, 0.008275515, 0.041984927, -0.08254615, 0.07325142, 0.032320797, 0.07737811, 0.2575462, 0.10639728, 0.16913618, -0.0009510517, -0.00552836, 0.030422937, 0.23549938, -0.12375717, -0.021398097, 0.10314089, 0.08496036, -0.06847399, -0.061857294, -0.16375415, -0.174035, 0.12409689, 0.08456322, -0.15914288, 0.0867583, -0.035846688, -0.011149824, -0.071943946, -0.062144604, 0.22884715, 0.14650744, -0.17823978, 0.009792829, -0.080457546, 0.024749026, 0.17878568, -0.018459976, 0.03375526, 0.05391349, 0.07218314, 0.0024025335, 0.09265367, -0.16836774, 0.14044446, 0.085725725, -0.10833982, 0.108942345, -0.048574023, 0.004006525, -0.13863584, -0.056331433, 0.01746913, -0.06987986, -0.039242696, -0.083441265, 0.10632205, -0.059177056, 0.15700151}, 
{-0.16512017, -0.122751586, 0.02479138, -0.12583883, -0.13167228, 0.009552036, 0.086268775, -0.08453609, -0.0024323836, 0.05270357, -0.00088829285, -0.023705281, 0.25089794, 0.022419903, 0.0029843599, 0.07339853, -0.029237552, 0.12548532, 0.27698734, -0.0835846, 0.11365639, 0.15424526, -0.06384896, -0.05323889, -0.06147355, -0.2537342, -0.17839876, 0.12406654, -0.03143115, -0.1457853, 0.026638955, -0.04693126, -0.10065997, 0.082825616, -0.118793055, 0.21653023, -0.026630651, -0.16155657, -0.017051348, -0.24784203, 0.08404662, 0.14431776, 0.09959955, 0.13093537, -0.07655612, -0.066188395, -0.08378147, -0.0120727075, -0.12889376, 0.047888815, 0.026876122, -0.058115147, 0.06062534, 0.03513752, -0.044644106, -0.059278756, -0.06594352, 0.08701844, -0.035074435, -0.019491673, -0.12025222, 0.043747332, -0.11168146, 0.05861581}, 
{-0.21356048, -0.02402143, -0.046124663, 0.035375692, 0.16357973, 0.04633841, -0.03570049, 0.04980409, 0.09263331, 0.13012524, -0.11033821, -0.10194689, 0.008311344, -0.026128642, -0.11927647, 0.10690032, -0.048454955, -0.26227412, 0.14906485, 0.030445036, 0.069951415, -0.039705396, -0.0802206, 0.0037957206, 0.0052606114, -0.06693247, 0.12238459, -0.04460087, 0.07132265, 0.11164087, 0.065545306, 0.11210809, 0.0964665, 0.008943162, -0.09356409, 0.12501657, -0.21676877, 0.048339527, -0.11321821, 0.05932105, 0.056631535, -0.12563974, -0.065328725, 0.25625673, -0.10645788, 0.12653747, -0.16240504, -0.04702371, -0.051599488, -0.014956727, 0.06786828, 0.08728568, -0.029210925, -0.042054288, 0.044582393, 0.2002045, 0.1646916, 0.013790928, -0.09781608, -0.023593716, -0.011908044, -0.05259522, 0.27798316, 0.08105381}, 
{-0.04888913, 0.08041102, 0.02263732, 0.03208629, 0.019976923, -0.02292213, -0.11615934, 0.06732584, 0.11058301, 0.14558272, 0.031936724, 0.080466814, -0.039584592, 0.027261505, -0.091738604, -0.05989419, -0.08340932, -0.21674997, 0.06886131, -0.015819415, 0.037368625, -0.19149174, -0.08695098, 0.0012076646, -0.061740093, 0.1622639, 0.102364235, -0.14064457, 0.0869837, 0.07179167, 0.00457827, 0.038422924, 0.03003797, 0.0655547, 0.045393944, -0.03542973, -0.0835807, 0.18928337, -0.033951096, 0.28014934, 0.027978793, -0.058447085, 0.054443806, 0.1512982, -0.06543211, 0.098902576, -0.053309698, -0.11330101, 0.11354396, -0.028402658, -0.049872406, -0.07246149, -0.21895634, 0.11360897, -0.09806578, 0.060080238, 0.031376533, -0.06667222, 0.032938525, 0.09511482, -0.023685135, 0.10455188, 0.18928652, 0.012754525}, 
{0.038678847, -0.04675563, 0.0375697, 0.09647915, 0.04081772, 0.08095285, 0.08510635, -0.1003449, 0.10377304, -0.10015713, 0.03550262, 0.030538406, 0.0024725555, 0.07085327, -0.049387597, 0.0017863885, 0.03831447, -0.009959868, 0.06918673, -0.107083954, -0.021165289, -0.11853567, -0.007641906, 0.050727025, -0.040883057, 0.028025687, 0.09000123, 0.03264176, 0.13599601, 0.12012565, -0.0797133, 0.096777, 0.03133817, 0.05818866, 0.036657453, 0.10094703, -0.11693093, -0.007972715, 0.012589921, 0.18833856, 0.0040445253, 0.01193135, -0.08021803, 0.1725697, -0.07414356, 0.04556756, -0.03464375, -0.112981245, 0.0813785, -0.010695801, -0.10586116, -0.07652749, 0.03272877, 0.012520075, 0.05401658, 0.12078089, -0.016689412, -0.03485698, -0.1101306, -0.045120426, -0.052542772, 0.006833419, 0.120003745, 0.0022779296}, 
{0.06607523, -0.033505723, -0.06980189, 0.013045989, -0.05157167, 0.005673899, -0.06397904, 0.08107931, -0.038973585, 0.059415307, 0.028821547, 0.040713005, -0.019605348, -0.084592536, 0.0282729, -0.04263491, -0.095855586, -0.023213038, 0.104588516, -0.04848596, 0.060939804, -0.025696013, -0.078435205, 0.05883299, 0.03675433, 0.113268845, -0.03282794, 0.090020746, 0.1550018, 0.011854698, 0.063086, 0.015390037, 0.017177075, 0.11966628, -0.10607924, 0.06356513, 0.010884225, -0.03985622, 0.06918513, -0.0037888777, -0.1060665, -0.09363965, -0.0716544, 0.004224034, 0.0587575, 0.08611055, 0.077857465, -0.05909632, 0.08692958, -0.009309256, -0.02731336, -0.035762556, 0.022759333, 0.0033610612, -0.045002922, 0.071565025, 0.11919857, -0.026510771, 0.015110731, -0.042105492, 0.07496488, 0.11702392, 0.11759464, -0.05299282}, 
{-0.063776046, -0.10558183, 0.061430924, -0.0817806, -0.114716925, -0.11899284, 0.025910366, 0.06265244, 0.018383577, 0.11110186, -0.104391314, 0.040282287, 0.026085608, 0.042614628, 0.0089442395, 0.07349309, 0.09892693, 0.020326164, 0.023174908, -0.007336871, -0.06286742, -0.0045499206, 0.058857404, 0.01991357, -0.07963796, -0.09852116, 0.10900684, 0.091362745, -0.0149457175, 0.024001876, -0.02281981, -0.07357328, 0.009476274, 0.12863046, -0.03319635, 0.059967425, 0.081386626, -0.0077015455, 0.094586484, 0.052034155, 0.0971185, -0.03641984, -0.059616882, -0.012889229, 0.07735564, -0.07742158, -0.04966784, 0.064470045, 0.039156314, -0.008110423, -0.024096556, 0.065531775, -0.044016525, -0.0137198195, 0.07037611, -0.056800175, 0.056196596, 0.0046336767, -0.10017149, 0.10651389, -0.053260196, 0.08499601, 0.15222576, 0.06222158}, 
{-0.109650224, 0.0466462, 0.0075561698, -0.1269842, 0.007897043, -0.08654819, -0.08374876, -0.06651131, 0.00048798323, -0.08377972, -0.03583038, -0.11301256, -0.07887265, 0.00028697684, -0.012882324, 0.09009868, 0.043275513, 0.096985094, -0.035560813, 0.07520999, -0.061856534, 0.013303868, 0.06245372, 0.038527355, 0.1023316, -0.09617402, -0.0069415844, 0.09803591, 0.058509827, 0.062070075, -0.0666219, -0.026882505, -0.024842612, 0.05447376, 0.097692326, -0.07010024, -0.03359599, 0.13377114, -0.06697566, 0.022685831, -0.06291869, 0.093385376, -0.08890757, 0.12721579, -0.044401154, 0.049356733, 0.06531219, -0.10207351, 0.08892324, -0.08220189, -0.011973746, -0.105151124, 0.08459933, 0.106735855, 0.022760069, -0.048829652, 0.11393684, 0.058594316, -0.039493017, 0.016597029, -0.0145018585, 0.004538133, -0.0048710615, -0.061089084}, 
{-0.051442333, 0.05481419, -0.052266356, -0.12172358, -0.04243619, -0.059341174, 0.057749625, -0.046493713, 0.05789852, 0.051172975, 0.08172867, 0.09886781, 0.13134019, -0.11457964, 0.013296589, 0.0052543283, 0.06698202, 0.11898513, 0.107137285, 0.022846535, 0.008175179, 0.03636702, -0.0071615116, -0.034004226, -0.063373, 0.089791045, 0.1353105, 0.030454982, 0.08343086, -0.11819159, 0.002478473, -0.034163408, -0.040025435, -0.07281672, 0.046963695, 0.052328672, 0.035418384, 0.1251695, -0.067342095, 0.017559294, -0.02084507, -0.008481325, -0.060797185, 0.012039137, -0.087918036, 0.07840467, 0.10615042, 0.062216178, 0.009308293, 0.115774155, 0.0132403225, -0.057757545, 0.034861725, 0.07222733, 0.022605656, -0.082596816, 0.026852362, -0.039519265, 0.07221903, 0.08154743, -0.11434059, 0.044892345, 0.02490427, 0.041602}, 
{-0.028934171, -0.06960621, 0.031099292, -0.1078837, 0.025195299, -0.0210906, -0.075340696, 0.07780191, -0.06317514, 0.032213807, -0.048431486, 0.03576138, 0.038579185, -0.096897595, -0.036899358, 0.10363792, -0.006031814, -0.037699003, -0.007591521, 0.10121608, 0.08317354, -0.044129383, 0.05590473, 0.07802644, -0.014120013, 0.11541176, 0.067752734, 0.14391772, 0.045977596, 0.012424973, 0.014685303, -0.084281236, -0.10555032, -0.042789098, -0.063152745, -0.07487978, 0.098497465, 0.06245844, -0.014164584, 0.0050379015, -0.053814445, 0.107823364, -0.044882424, 0.1643608, -0.04598017, -0.040327366, 0.15838291, -0.021736458, -0.06559991, 0.14045216, -0.0568502, 0.0041733608, -0.112469755, -0.021776088, 0.0029441977, -0.025524322, 0.08464263, 0.118312865, 0.03761494, 0.07052217, -0.051853117, 0.043376487, -0.04532649, 0.13588467}, 
{-0.043157913, -0.029678784, 0.041698933, 0.052323375, -0.040079616, -0.051055573, -0.08692318, -0.01617907, -0.10617994, -0.024307774, -0.07444871, -0.0005778378, -0.040194385, -0.090779364, 0.043182343, 0.07959759, -0.04874101, -0.060944434, 0.08163114, -0.083522715, -0.06111872, 0.035795894, 0.0834659, -0.09102959, 0.02930522, -0.10250979, -0.026322344, 0.05637525, 0.16478889, 0.02317624, 0.103974774, -0.05400769, -0.0265349, 0.069482066, -0.07904855, 0.010586449, 0.060193736, 0.05186428, 0.046451412, -0.009036215, -0.045099854, -0.00013549742, 0.0778439, 0.05206959, 0.096822634, 0.07199284, 0.10679983, -0.013878605, -0.029633189, 0.09051937, -0.08632186, 0.051280648, -0.09145574, 0.079281464, -0.00061241013, -0.07479241, 0.068457745, 0.110020004, 0.06483923, 0.076103695, -0.057646066, 0.027575552, -0.08813512, -0.04102409}, 
{0.09191232, -0.071380585, -0.032597728, -0.10380658, -0.007635709, -0.011944097, 0.046303242, 0.06497824, 0.067383885, -0.012842655, -0.01678251, 0.02298112, 0.12954855, -0.031630524, -0.10740105, -0.070854664, 0.07837948, -0.06624999, 0.13900465, 0.030472234, 0.019362748, 0.10914918, -0.009272622, -0.017281108, -0.07409343, -0.056091115, -0.08128412, -0.04700328, -0.0021428487, -0.048640803, -0.047363676, 0.0022735086, 0.008183502, 0.051800918, -0.07578363, 0.046212886, 0.07395586, -0.024287267, -0.039005663, -0.019536933, -0.044886753, 0.14477468, -0.0072222534, -0.010732647, -0.02843985, -0.04346895, 0.07120428, 0.09550899, 0.087423936, -0.023194477, 0.0057663843, -0.04133664, -0.091670945, 0.071333185, 0.09178688, 0.09452696, -0.08104857, 0.011504534, 0.10056047, -0.064381495, 0.03403112, 0.043616783, 0.106912546, 0.07817366}, 
{-0.015418454, 0.044254124, -0.048597626, -0.002676152, 0.05819522, 0.0025559529, -0.09628147, -0.09671878, 0.034174487, -0.055225592, 0.03975913, 0.06513134, 0.10385582, 0.06368674, -0.06897885, 0.015157878, 0.056600507, -0.005377438, 0.041973677, 0.07623378, 0.03707449, -0.0056664413, 0.053739328, 0.098763525, 0.0022861308, -0.017286876, 0.09880018, 0.13883656, 0.029591823, -0.11576886, 0.04930401, -0.041733604, 0.07135479, -0.008250309, -0.04832941, 0.12132474, 0.06589054, -0.037712514, -0.09639751, 0.109132975, 0.03615752, 0.03939264, 0.003405182, 0.100810625, -0.008201532, -0.011278056, 0.061974358, -0.0019561017, 0.10032196, -0.03713713, 0.009548306, 0.0016674474, -0.0041219685, -0.014931984, -0.0045274957, 0.14268675, -0.025389966, 0.07462607, -0.069502145, -0.010046412, -0.05874645, 0.0779932, -0.043961946, 0.108322784}, 
{-0.091265224, -0.04901443, -0.123222664, -0.1540922, 0.040707104, -0.07668482, 0.078658044, -0.115970224, 0.08373842, 0.10653349, 0.005967777, -0.037604094, -0.027493453, 0.0093919225, -0.058374465, 0.09659985, -0.078285046, 0.019563496, 0.1414183, -0.07290013, -0.08399435, -0.11593276, -0.10475107, -0.040446237, 0.019587796, 0.034759488, 0.024548305, 0.15146121, 0.025884988, -0.07649772, 0.045609444, 0.04637628, -0.035081834, -0.0027594664, 0.0024171134, -0.10504649, -0.08086574, 0.009889893, -0.096962586, 0.08497365, -0.027113706, 0.16182142, -0.055158835, 0.20701121, -0.0036357567, -0.16217475, 0.10438224, 0.04478109, 0.09801131, 0.091665804, 0.012181208, 0.039574727, -0.09186506, 0.017910048, 0.027725095, 0.12515235, -0.03789516, 0.046421356, -0.07592729, -0.093110606, 0.019262264, -0.12961291, 0.13214502, -0.09511834}, 
{0.106506005, -0.06868008, 0.08351854, -0.15190753, 0.054418262, 0.02543475, 0.081393674, 0.02897307, -0.032043017, 0.0688572, -0.11846698, 0.0044914824, -0.0010188711, 0.06632544, -0.016760122, -0.05070308, 0.085955665, 0.034994643, 0.03459915, -0.07223749, -0.040022403, 0.003394831, 0.05849108, 0.11282274, 0.107085295, 0.14910428, 0.14449799, 0.023737388, 0.0004144039, -0.09322962, -0.03444647, -0.075247966, 0.09610385, 0.056193497, 0.0104169445, 0.088930696, -0.12583631, 0.06840932, -0.09821321, 0.06751729, 0.015005082, 0.042056806, 0.044027183, 0.1439587, -0.049358174, 0.03775372, 0.19722094, 0.063534535, 0.0015638199, -0.058981236, 0.0896374, 0.07404205, 0.013705894, 0.059491396, 0.053927585, -0.012512499, -0.10546727, 0.07972542, 0.0008483231, 0.00044849902, -0.055764467, -0.10452535, 0.0227642, -0.00044655727}, 
{-0.05766046, -0.023545364, 0.0052305935, -0.16763477, 0.0087914225, -0.076451495, 0.033086993, 0.08712273, 0.08674841, -0.13129142, 0.11117581, 0.02320169, 0.06103056, -0.004834375, -0.20293176, 0.013887718, 0.067815736, 0.11131797, -0.005148217, -0.09193405, 0.07813735, 0.16233611, -0.03171723, -0.06752844, -0.03440855, 0.030267151, -0.17811999, 0.16000031, -0.05673283, -0.03537706, -0.073587604, 0.04760049, -0.083794534, 0.008846885, 0.06989897, 0.056055054, 0.18120657, 0.05484418, -0.00023418691, -0.133418, -0.039052583, 0.1959569, 0.004895472, -0.021833483, 0.02932924, -0.23032893, 0.18410166, -0.08610745, 0.12633362, 0.21790387, -0.08648822, 0.061059803, -0.01120927, 0.01462096, -0.037724636, 0.037948016, -0.08170159, 0.07201497, -0.051567078, 0.017490258, -0.11636158, -0.023541965, -0.06016252, 0.04239742}, 
{0.096782684, 0.017098917, 0.041271206, -0.077999875, 0.046082802, 0.1307452, 0.062398084, -0.030084383, -0.021641836, 0.04046386, -0.024955638, -0.012839405, 0.021142282, -0.0023140782, 0.002318898, -0.036441706, -0.03915269, 0.16160674, -0.0530174, -0.081154674, 0.026131347, 0.08372058, -0.09436661, -9.930879e-05, -0.098820664, -0.06361259, -0.12570392, 0.18566893, -0.14673999, -0.03948447, 0.097449094, -0.05348919, 0.038748533, -0.024812808, 0.047687583, -0.038693786, 0.21433641, 0.16615061, -0.068766095, -0.045568954, 0.002958782, 0.06531834, 0.037436377, -0.093497716, -0.07096769, -0.10824021, 0.09575429, -0.09890049, -0.022695405, 0.061197598, 0.016825244, 0.024989769, 0.037171286, 0.07666595, 0.10210945, 0.0014043028, -0.19325891, -0.018684398, 0.08925405, 0.10837187, -0.05190771, -0.11258408, 0.014891952, -0.06315652}, 
{0.042065874, -0.006267417, 0.02511257, -0.0072797392, 0.06605193, 0.007997369, -0.08566838, 0.08205427, -0.0443879, -0.056160767, -0.08723019, 0.038273387, -0.09704156, 0.030296195, 0.0910957, -0.04181288, 0.05532202, 0.10717671, -0.02851053, -0.017852396, -0.05900959, -0.03838196, -0.019573735, -5.1781535e-06, 0.10532056, 0.074206464, 0.032231968, -0.07847372, -0.060134906, 0.08830636, 0.07600126, -0.093487665, 0.08923173, 0.1563476, 0.060913205, 0.050483968, 0.14326425, 0.03454614, -0.02615904, -0.13658214, 0.0009724125, -0.07925947, 0.004173863, -0.10648786, -0.06979674, -0.03316315, 0.020910153, 0.016237877, 0.07313753, 0.092804015, 0.03460467, 0.08708969, 0.10690143, -0.07520522, 0.009550566, -0.052413855, 0.014058647, 0.01836143, -0.039982542, -0.06803491, -0.010069036, -0.013091762, -0.13091181, -0.02996057}, 
{0.06135098, -0.08996319, -0.061308242, 0.15016487, 0.06518322, -0.096208505, -0.029966205, 0.015966706, 0.11167623, -0.034745507, 0.045387503, -0.0008835902, -0.14938201, 0.019401299, 0.15735425, -0.046728887, -0.0210196, 0.13541736, -0.08899082, -0.10090487, 0.013810232, -0.08288948, -0.049235586, 0.08867353, -0.10676386, 0.08333529, 0.06711398, -0.1016114, -0.16835672, -7.767002e-05, 0.07159859, -0.08021836, 0.0022316426, 0.13379593, 0.05681327, -0.17270601, 0.017739385, -0.02703284, -0.12103384, -0.04929907, 0.029578239, 0.04849407, 0.08855903, -0.07862391, -0.0017886385, 0.12750256, 0.060725227, 0.040875323, 0.048889767, -0.07138675, 0.053855434, -0.043639883, 0.047245674, -0.059778288, 0.10582982, 0.07723033, 0.043869145, 0.15343107, -0.028084442, 0.031287864, -0.027575184, -0.07474458, -0.04096013, -0.019194858}, 
{0.07099334, -0.115753114, 0.06061482, -0.072047666, 0.02448105, 0.09667758, -0.07093104, 0.050425075, -0.08603431, 0.041504305, 0.09008018, 0.00212286, 0.09350261, -0.093876824, 0.1452149, 0.08334972, 0.064943366, 0.16473946, 0.15989529, -0.116191186, -0.022199199, 0.12863703, -0.05487358, -0.111881986, -0.03964687, 0.029377487, -0.050594587, -0.06820062, -0.082102485, -0.091174185, 0.05683258, -0.089255914, -0.002616249, 0.11619709, -0.028508203, 0.071778506, 0.09203602, 0.040062685, 0.024718223, -0.18417296, 0.05321008, 0.0034816563, 0.050349385, -0.04082101, 0.06877433, 0.12846859, 0.053403962, 0.10580044, -0.059118878, 0.06555701, -0.10170434, -0.049869284, 0.008418412, -0.10620352, -0.01037227, 0.01257062, 0.026264407, -0.0704876, 0.0734511, -0.07737577, -0.063781954, -0.042606488, -0.07045036, 0.07425534}, 
{-0.06195557, -0.056999438, -0.046685282, -0.049293816, -0.03452, 0.0767048, -0.037028264, -0.08306547, -0.0977707, -0.037186734, -0.053090632, 0.05520449, 0.12523559, -0.116818935, 0.023197386, -0.07615503, 0.06510446, 0.13866672, 0.12701796, 0.061093908, -0.109806426, 0.062175542, 0.053064942, -0.06846656, -0.11644823, -0.1274485, -0.20417161, 0.120993406, 0.12144158, -0.045800112, 0.10186042, 0.06018482, -0.10109763, 0.07751946, -0.084684476, 0.12531981, 0.14049083, -0.08668857, -0.011643674, -0.12996063, -0.08510354, 0.16328457, -0.05034411, -0.055312034, -0.026456788, -0.0744627, 0.0011224409, -0.110491864, -0.2629135, 0.15026626, -0.09844223, 0.08245148, 0.06811793, 0.007472068, -0.07767235, -0.07603477, 0.055875156, 0.1021563, 0.08145067, -0.14261541, 0.08686611, 0.13148123, -0.110949434, 0.11065937}, 
{-0.21534538, 0.04160338, -0.040618125, -0.1277237, -0.010067821, -0.0655916, -0.09758821, -0.08939864, -0.027624138, -0.06972434, -0.09913594, 0.0901677, 0.2529682, -0.022916088, 0.08347651, 0.099279255, -0.11528175, -0.1317642, 0.19145428, 0.07904169, -0.100446895, 0.038452264, -0.05296013, 0.036736652, -0.10519275, -0.13292237, -0.12254331, -0.06028842, 0.2229379, -0.021315452, -0.08588501, 0.10177713, 0.002985619, 0.05743253, -0.03641321, 0.23316932, 0.03737446, -0.13016535, 0.083072335, -0.22105063, 0.07249215, 0.050187033, -0.021410873, 0.11082052, -0.05870762, 0.080479614, -0.124952085, 0.09719568, -0.1199299, -0.024134044, -0.0007037893, -0.06265083, 0.16432062, 0.109886944, 0.052005198, 0.02446391, 0.09689906, -0.08963344, 0.09679848, -0.014939713, -0.11543581, 0.0036214667, 0.15277067, 0.08232627}, 
{-0.08107706, -0.116152294, -0.033077907, 0.071191914, 0.0057317573, 0.16359982, -0.102702, 0.049740255, -0.058765177, -0.01146003, 0.027194347, 0.042602394, -0.00017295576, -0.09213, -0.09214462, 0.112911314, 0.0037709863, -0.22895874, 0.21786521, -0.044896565, -0.05428966, -0.21543245, 0.05483797, -0.06987143, 0.1055634, -0.038737506, 0.2633853, 0.004923458, 0.21534225, 0.1305344, 0.056958407, -0.06669311, -0.07099442, -0.13381846, 0.08139402, -0.041182384, -0.14009275, -0.06895961, -0.060030457, 0.117319964, 0.09258385, -0.061582085, -0.105034485, 0.27985653, 0.08346979, 0.06452335, -0.102319315, 0.047889106, -0.009364956, -0.06358992, -0.040854782, -0.071644425, -0.19037685, 0.013566911, -0.024205204, 0.22970226, 0.19443935, -0.16940919, 0.090753704, 0.05408911, 0.072130196, 0.1449538, 0.107443735, 0.0648717}, 
{-0.18173786, 0.086994156, 0.0025636435, 0.06415339, -0.0154306935, 0.09619958, -0.053501997, -0.025030041, 0.04933396, -0.02921207, 0.07727831, 0.033486288, 0.049238477, 0.030880282, -0.14354075, 0.10652377, -0.118776366, -0.11091579, 0.11439862, -0.031305354, -0.010298431, -0.09136002, -0.08481649, 0.11206013, -0.10876719, 0.02125167, 0.180869, -0.0096781785, 0.055093966, 0.113636814, -0.005444899, -0.015837306, -0.07333799, -0.048036747, 0.02350411, -0.0012642039, -0.20970842, 0.055636678, 0.049446627, 0.18103282, 0.10128228, -0.032302614, 0.012889263, 0.055593263, -0.07404376, 0.09294874, -0.16459113, -0.06645115, -0.03820481, -0.106724694, 0.079821825, -0.08922249, -0.168831, -0.030544773, -0.07918425, 0.110958956, 0.15215862, 0.0010396611, -0.10696078, 0.030637713, 0.08145578, 0.051735416, 0.19014156, -0.11888804}, 
{-0.14056438, -0.06742262, 0.051613797, 0.066377506, 0.015619438, 0.12808752, -0.049726427, 0.0263272, 0.021095455, 0.009812164, -0.005185693, -0.09005249, -0.016033055, 0.059153628, 0.09531139, 0.017303258, 0.004177501, -0.17129622, 0.11843978, -0.005778548, -0.053634424, -0.16172583, 0.029410342, -0.06704281, -0.05480257, -0.05481711, 0.14882675, -0.032490876, 0.23150438, 0.01935948, 0.04627593, -0.06917503, 0.060953364, 0.0970616, 0.09655108, 0.027896017, -0.043481134, 0.100591674, 0.081740305, 0.10650174, 0.11180043, 0.040195454, -0.08220898, 0.21775545, -0.06418979, 0.12103891, -0.0012038127, 0.03544857, -0.040943578, -0.15777734, 0.10596405, -0.027903304, -0.14893927, 0.009759374, -0.057200417, 0.07390052, 0.13949811, 0.041767433, -0.051773015, -0.04765844, 0.017032959, -0.006848748, 0.17628144, 0.07911323}, 
{0.07513406, -0.04890822, -0.057813957, -0.015461035, -0.09096234, 0.11012457, 0.023046123, 0.011344304, 0.024820387, -0.06039613, 0.03324398, -0.052846674, 0.03384864, 0.09447412, -0.095615566, 0.037915245, 0.013976498, -0.079024345, 0.023542294, -0.015266355, 0.00012984127, -0.05105543, 0.085779004, -0.022070035, -0.05040235, -0.0081379805, 0.10575027, 0.083513014, -0.032911472, -0.024595235, -0.07821411, 0.0698403, 0.022404343, -0.053750083, 0.0026870675, -0.0018145164, 0.08217115, 0.06994136, -0.0639745, -0.06194429, -0.046811983, 0.08222656, -0.034807418, 0.07692897, 0.060047284, 0.13186924, -0.10378362, 0.08125472, 0.078058876, 0.054438166, -0.077917725, 0.041240007, -0.013578055, -0.025979973, -0.095718175, 0.008089437, 0.05060756, -0.09495307, 0.10676481, -0.07569097, 0.058352243, -0.06667725, 0.059203636, -0.08600946}, 
{0.09117203, 0.057716817, 0.008957623, 0.029257711, -0.1049219, -0.009890862, 0.005149668, -0.062921375, 0.07666153, 0.085677914, 0.06528816, -0.03767838, 0.08836604, 0.046754163, -0.08237868, -0.096768945, -0.032061018, -0.084116094, 0.047618013, -0.05238251, -0.042647026, 0.025907798, 0.0914321, 0.0066302195, -0.060813397, 0.040127587, 0.033532947, 0.026320621, 0.028469529, -0.03471212, -0.08922154, 0.06301366, 0.06330547, -0.050346296, -0.08797744, 0.045548026, 0.05922806, -0.0044286507, 0.0042449837, 0.15311252, -0.093756974, 0.07889954, 0.030063935, -0.037589658, 0.05076322, 0.0055682627, -0.012624872, -0.039877363, 0.006858514, 0.07702653, 0.07747756, -0.023410983, 0.05762055, 0.056280613, 0.07082527, 0.055505034, 0.028809234, -0.053191986, 0.078835785, 0.046618722, -0.09294077, -0.056084312, 0.02151653, 0.11462455}, 
{0.10528454, 0.066399485, -0.08598795, -0.042127535, -0.04598718, -0.026929194, -0.08033392, -0.060514707, -0.032789484, 0.08184235, 0.041119684, 0.07027646, -0.036949474, -0.107863456, 0.053049717, 0.02217713, -0.034538522, 0.002479159, -0.018473677, -0.08423086, -0.060663294, -0.0685025, -0.05732534, -0.08517037, 0.0028003934, 0.10615794, 0.06942577, -0.03828434, 0.14068931, -0.05143496, -0.031981774, 0.017074374, 0.030673474, 0.1178814, 0.013138026, 0.08904418, -0.048131723, 0.13609676, 0.083923325, 0.021868804, -0.08403735, 0.015879, -0.012338328, -0.032878887, -0.08148597, -0.01568375, 0.080765426, 0.020360922, 0.018448692, -0.08041057, 0.086607814, -0.029547036, 0.052041475, -0.023643002, -0.012762783, -0.066008665, 0.025379067, -0.11065951, 0.003221035, -0.030863855, -0.08690716, -0.11194864, 0.053918246, 0.10091262}, 
{-0.117084175, 0.10444688, 0.0434767, -0.094653085, -0.078423455, -0.121346734, 0.099003635, 0.0015740377, -0.011857599, 0.03574143, 0.06945972, 0.05300514, 0.08522736, 0.06546195, 0.036232922, -0.00036473572, -0.1188166, -0.10949208, -0.00342474, 0.041459285, 0.045136556, -0.062603265, -0.061518427, 0.097194, 0.045235153, 0.04589691, 0.025506223, 0.026721995, 0.1848349, -0.0075478638, 0.045109287, -0.046192765, -0.042843863, 0.14961754, 0.0037660003, 0.083457574, -0.14712495, -0.02981821, 0.03212061, 0.05807706, 0.059050694, 0.09867047, 0.075790145, 0.09748525, 0.08381283, -0.095386416, -0.060721043, -0.0759705, 0.07693507, -0.09050854, 0.033799186, 0.095012456, 0.0501845, -0.06814111, 0.045295175, -0.02194692, -0.025114529, -0.03939764, -0.020245366, 0.09772861, 0.012182188, -0.08939047, 0.16174053, 0.026810046}, 
{0.06619342, -0.03424611, 0.001994314, -0.024998851, -0.021494452, -0.014860519, -0.089570954, -0.05165649, -0.09590211, -0.0023069421, -0.018157678, 0.008322559, 0.109164216, -0.016250554, 0.09360016, -0.013202935, 0.019267539, -0.019439926, -0.04341591, 0.099909425, -0.013767943, -0.04300066, -0.023457337, 0.04392171, 0.08792953, -0.007705883, 0.10470375, 0.14395274, 0.020552415, -0.0033795156, -0.0153835565, 0.07502347, 0.07229079, 0.052978694, -0.116360284, 0.0058230143, -0.011800057, 0.023558605, -0.025191138, 0.10905848, -0.08592665, 0.09775623, 0.09505174, -0.02591256, 0.02184482, -0.089766994, 0.112060234, -0.026306048, 0.10266773, -0.024124116, -0.049584396, 0.01382494, -0.10981106, 0.07321194, -0.030739846, 0.10704158, -0.11128498, 0.049976677, 0.025043055, 0.054267276, -0.0822305, -0.0715451, -0.07194048, -0.04509233}, 
{0.05018972, 0.030337458, -0.0077376347, 0.080346994, -0.116223305, -0.05815081, 0.031242821, -0.079549454, -0.03142216, 0.0010648695, 0.05699344, -0.046438936, -0.0142313745, -0.09960431, -0.087698005, 0.07425943, 0.09644668, 0.102839254, 0.07940255, -0.034683935, -0.10938963, -0.098537885, -0.026358634, -0.035347097, -0.07703163, 0.052976266, 0.03503048, 0.055880748, 0.027019586, -0.06934557, -0.10768181, -0.07392618, 0.09517123, 0.10924562, -0.059860524, 0.049346253, 0.10929887, -0.049326785, 0.02100849, 0.009380487, -0.097448096, 0.1374521, -0.06943051, 0.118514016, -0.104467615, -0.11057287, 0.091979474, 0.06891403, -0.08192464, 0.102287345, 0.05966556, -0.01189062, 0.06823837, -0.0070787817, -0.028135637, 0.10051662, -0.07826116, 0.07742848, 0.0645522, -0.0026346436, 0.050326753, -0.06875444, -0.021476526, -0.00093568437}, 
{0.10845567, 0.10296802, -0.03307977, 0.079644464, 0.02461804, 0.053525507, 0.020632252, 0.06875999, 0.019569084, -0.06473978, -0.011763981, 0.008188599, 0.084648415, 0.06972796, -0.06374161, -0.029410772, 0.0016330971, -0.010827227, 0.053858284, -0.10356995, -0.0060326234, 0.09865594, 0.09356756, 0.07787022, -0.023406476, 0.13095161, -0.010654115, -0.022823319, 0.105948225, 0.09164663, -0.08309554, 0.027606484, -0.037654623, 0.14502634, 0.06539382, -0.00809263, -0.076603256, -0.031393006, -0.05884863, 0.022435652, -0.019862331, 0.02335991, 0.08276463, 0.07975859, 0.01106336, -0.035191912, 0.0021971508, 0.08628666, 0.12425228, 0.013325652, 0.06673409, 0.05505678, 0.044179097, 0.015838087, 0.02068829, 0.103281006, 0.062120087, 0.010383819, 0.061795264, -0.043434195, -0.03554841, -0.072179034, 0.09610763, 0.015949942}, 
{0.07365254, -0.0649819, -0.08486989, -0.14086162, -0.067689136, -0.08686211, 0.028094167, 0.09628541, -0.013946287, 0.007171683, -0.07118392, 0.08261695, 0.103308655, 0.09655999, 0.023888014, -0.094198786, 0.07642919, 0.047835767, -0.03266835, -0.11830045, -0.049790367, -0.002503764, -0.08893711, -0.04347285, -0.022771724, 0.13247052, 0.123317905, -0.0069629084, 0.032483388, -0.1188377, 0.085535735, -0.1187999, 0.07863188, 0.054124966, 0.010138667, -0.048771, 0.0758113, 0.015070281, 0.075131424, -0.051473524, 0.038569376, 0.059553765, -0.0654773, 0.19495024, -0.009403229, -0.12147631, 0.092180565, -0.095023476, 0.13124968, 0.13599275, 0.020945475, 0.02848041, -0.09567372, -0.004084781, 0.022583203, -0.0632089, -0.00425364, 0.0072580003, -0.1055674, -0.057049546, -0.0023043207, -0.077159435, -0.020522453, 0.012715415}, 
{-0.081907526, 0.048651766, 0.08464419, -0.043900132, -0.14660886, -0.061842155, -0.10637178, 0.058910664, 0.05250001, -0.053469684, -0.1057406, 0.02395716, 0.1117356, -0.0939685, -0.06619626, 0.010921948, -0.014034251, -0.0182681, -0.07373834, -0.015273598, -0.080832064, 0.037003275, -0.015952427, -0.075789586, -0.109154515, 0.13026907, 0.040583793, 0.019013518, 0.1336858, -0.063434, 0.046629325, 0.024157101, 0.110703364, -0.06718329, 0.071734495, 0.024729535, -0.051397245, 0.08290616, -0.09247378, 0.011426317, -0.014580615, 0.12798652, 0.054162506, 0.20530777, 0.05658342, -0.097610526, 0.161727, -0.061049234, 0.014995541, -0.06596974, -0.03274315, -0.098039486, -0.06563114, -0.10333744, 0.050812375, 0.15104254, -0.033225905, 0.119276665, -0.06010496, -0.09555162, 0.0044263457, -0.12221051, 0.15678917, -0.09065852}, 
