{{0.052665934, 0.32660672, 0.42195788, 0.09775393, -0.26565284}, 
{-0.2551509, 0.15095466, -0.28984648, 0.3036772, -0.24096663}, 
{0.21257427, -0.18597546, -0.40714356, 0.28116912, -0.060602486}, 
{-0.06749512, 0.40145892, -0.324895, 0.09967795, -0.2140727}, 
{0.052719355, -0.22577421, 0.092698425, -0.13963091, -0.13662885}, 
{0.3911262, -0.06053541, -0.40936518, -0.3330401, 0.0036141097}, 
{-0.061290044, -0.23424883, 0.073876336, 0.3045952, 0.08695685}, 
{-0.05357481, 0.2833991, -0.003330976, -0.070512965, 0.14751902}, 
{-0.2864614, -0.18495691, -0.042437322, -0.031714745, -0.40236375}, 
{0.25335574, -0.26310703, -0.10985823, -0.2430698, -0.12328257}, 
{0.13442583, -0.042696137, -0.028191634, -0.33656892, -0.069832794}, 
{0.2912554, -0.09965347, -0.158127, 0.3563848, -0.32083458}, 
{0.11528094, -0.34425825, 0.18948342, 0.20491566, 0.21786271}, 
{0.12784463, 0.041258395, -0.047145873, -0.271369, -0.28998506}, 
{-0.18683541, 0.22259559, 0.1555717, 0.29934606, 0.19011259}, 
{0.029871464, -0.20030567, 0.041924685, 0.19299042, 0.01747641}, 
{-0.28538412, 0.28187978, -0.19361772, -0.23185635, 0.22612792}, 
{0.14284152, -0.21802275, -0.21662438, -0.25187498, -0.099203266}, 
{0.1144798, -0.38843226, -0.20935011, -0.20855486, 0.15256047}, 
{0.16941638, 0.14533742, 0.42292318, -0.33050779, -0.09202478}, 
{-0.18402705, 0.079486154, 0.30746704, -0.23360555, 0.12767226}, 
{-0.37679935, -0.52523375, -0.3983845, -0.057595916, -0.36334625}, 
{0.07415435, 0.006236464, 0.2857353, 0.06296545, 0.15417325}, 
{0.24010892, -0.02857992, -0.3351251, -0.023102906, -0.26472706}, 
{0.2643587, 0.19126743, -0.21370593, -0.23127207, 0.15287825}, 
{0.120576106, -0.023685617, -0.26447436, 0.14837006, 0.03493905}, 
{-0.26915774, -0.15317582, -0.21843956, -0.049400583, 0.22781366}, 
{0.2417442, -0.21157803, 0.017418863, -0.061217654, -0.056549784}, 
{0.16389772, -0.058988567, -0.38349795, -0.31130466, 0.22181804}, 
{0.081891924, -0.21441256, -0.16045505, -0.24571967, -0.29486158}, 
{0.1631659, -0.49802715, -0.27860945, 0.17204423, 0.17951278}, 
{0.28172573, -0.17228277, 0.18449311, -0.16240785, -0.04735823}, 
{-0.192037, 0.011051779, -0.11120419, -0.06764298, 0.2090459}, 
{0.0828597, 0.059352838, 0.15810479, 0.18043804, 0.05203277}, 
{0.34075636, -0.25833648, -0.007817874, -0.34456447, 0.2572315}, 
{0.2787821, -0.37531713, -0.35889146, 0.26909438, -0.3346629}, 
{-0.080448255, 0.06297472, -0.2518292, -0.034793556, 0.037582606}, 
{-0.34449345, 0.3404216, -0.09726334, -0.31019646, 0.3111516}, 
{0.21092163, -0.27095377, -0.09703719, -0.3274176, 0.14313416}, 
{0.1770697, 0.38738677, -0.36816904, 0.13629173, -0.32495683}, 
{-0.18748438, 0.27145958, 0.2234311, 0.024875777, -0.11001634}, 
{0.22920991, -0.3089122, 0.3913992, -0.21960032, 0.2723814}, 
{-0.17179158, 0.014440595, -0.1286022, -0.18540083, 0.00010319008}, 
{-0.2333714, -0.023658425, -0.39793813, 0.1697171, -0.3346713}, 
{0.09526646, 0.034768403, 0.22945601, 0.06814763, 0.11497402}, 
{-0.2601691, -0.08894226, -0.2799799, 0.046135455, -0.07069972}, 
{-0.38421732, -0.10118396, 0.3060436, 0.33163068, 0.24841334}, 
{-0.1575108, -0.058448035, 0.12654255, 0.19118841, -0.38150114}, 
{0.34363425, -0.1341317, 0.053029995, -0.062234152, 0.2152239}, 
{0.082894176, -0.011594074, -0.28993726, 0.2759138, 0.24880596}, 
{0.047599558, -0.035834398, -0.00090016203, -0.27096173, 0.3721384}, 
{-0.3857999, 0.24459334, -0.31309637, -0.22321075, 0.014298317}, 
{-0.08108381, 0.09992134, 0.13691045, 0.041948345, -0.14542268}, 
{0.056214385, 0.27086884, -0.04010896, -0.27977502, -0.16933788}, 
{0.11051791, 0.019387959, -0.32725447, 0.24255762, -0.20641236}, 
{-0.1498022, -0.113366716, 0.15858923, 0.20755295, 0.26410994}, 
{-0.08166859, -0.20521352, 0.2294661, -0.26376474, 0.27077067}, 
{0.31547105, 0.34612486, 0.26307613, -0.25408757, -0.37156153}, 
{0.2687211, -0.30504087, 0.2543439, 0.16020212, -0.3425854}, 
{0.24367072, 0.37328276, 0.21112648, -0.0532628, -0.40401694}, 
{0.2990747, -0.2948816, -0.3140706, 0.073021494, -0.0231118}, 
{0.21556439, 0.14677593, 0.2689769, 0.24463186, 0.10522029}, 
{-0.17579538, -0.17172705, 0.29556865, -0.3291445, 0.13927773}, 
{-0.19775409, -0.14146306, 0.10717286, 0.11820594, 0.060381033}}