{{-0.18672739, -0.09943093, -0.1559692, 0.07319886, 0.014271973, -0.1821568, -0.065128624, -0.10751255, 0.081740886, 0.0027289204, 0.050154805, 0.08321357, 0.052501958, 0.01397926, 0.0043009315, -0.075800076, 0.11506339, 0.20621714, -0.19252764, -0.01035589, -0.011096586, -0.11906157, 0.20016545, -0.18312177, -0.1318503, 0.18503734, 0.16482934, -0.14324458, -0.19062266, 0.26306364, 0.12723377, 0.13558777}, 
{-0.14603989, 0.19174057, 0.17928271, -0.11851038, -0.19849283, -0.07837914, 0.15378766, 0.13659544, 0.06124893, -0.10848549, -0.08945481, -0.029863639, -0.13284415, 0.07515479, 0.07950419, -0.111265324, 0.036387652, -0.15820944, 0.17543508, 0.022663107, -0.16832261, -0.04849937, 0.16749479, 0.157834, 0.17606512, 0.13895468, -0.0076287775, -0.17055695, -0.025225699, 0.19898939, -0.13797247, 0.16348702}, 
{0.17252208, 0.003873059, -0.07132259, -0.131436, -0.1652624, 0.11469504, -0.16976196, 0.026780598, -0.19387461, 0.097335145, -0.15921421, -0.014834639, 0.20801479, -0.034577753, 0.14265013, 0.13591078, -0.20246495, -0.12594344, 0.04186631, 0.019162137, 0.15985905, -0.14942373, -0.011255442, 0.022713944, 0.08140099, -0.21262363, -0.15347764, -0.097701676, 0.038977057, 0.123559594, 0.13406982, 0.12587902}, 
{0.036000587, 0.16402529, 0.1026486, -0.11722196, -0.077590644, -0.143976, -0.09399544, 0.041232202, -0.07110664, -0.0017622693, -0.09274306, -0.25633523, 0.16880438, 0.051413726, 0.079049096, 0.20032465, 0.12748368, -0.09256175, 0.058871437, -0.21002138, 0.12912467, -0.15699577, 0.25203395, 0.17615736, -0.019032545, 0.12360158, -0.19694076, -0.15063548, -0.20749113, 0.098334245, 0.15375073, -0.20051001}, 
{-0.20232177, 0.13762568, 0.23723342, -0.05867988, -0.02953369, -0.071195185, -0.17175347, -0.18908092, 0.20537573, -0.018823098, -0.09356637, 0.057216205, -0.09307572, -0.010096073, 0.026266702, -0.1341806, -0.03743027, 0.06154731, 0.11012022, 0.04257937, 0.075809725, -0.08980701, 0.13090909, 0.19670269, 0.075075306, -0.19656219, 0.020343632, 0.09270042, -0.14548609, 0.2215811, 0.09676538, -0.055383045}, 
{0.18129425, 0.014670517, 0.23442076, 0.035460744, -0.15453255, -0.18206611, -0.028289612, 0.19908817, 0.15279782, 0.1175271, 0.08896759, -0.13638274, -0.118152596, -0.0007135576, 0.12828726, -0.21033329, 0.080795005, -0.12976882, -0.03087065, -0.20311174, 0.15310472, -0.25124958, -0.110454, 0.19946674, 0.10883299, 0.17650428, 0.08071275, -0.0113481125, -0.032238558, 0.18189748, -0.0018653998, -0.02217921}, 
{-0.021216715, 0.11226857, 0.04661055, 0.08929037, 0.13167469, -0.0614492, 0.19919354, -0.18480362, -0.12033968, 0.17651443, -0.07017465, -0.25686482, 0.25663543, -0.20526925, -0.18143849, 0.020727202, -0.103647694, -0.10921922, 0.124050334, 0.15583754, -0.069125935, -0.22046395, 0.043069974, -0.15530252, 0.2606167, 0.049641047, -0.007204643, -0.2862419, -0.08846604, 0.2708913, 0.2893669, 0.027376315}, 
{-0.16074125, 0.21268973, 0.13438253, -0.07170118, -0.18038732, -0.17614314, -0.13155156, 0.20964839, -0.17274375, 0.12911879, -0.05962041, 0.114660546, 0.077526905, 0.12599365, 0.17446116, -0.021853164, -0.17041956, 0.003449753, 0.06423226, -0.06931935, -0.007873552, -0.06958428, 0.2113685, -0.16365853, -0.13279277, -0.076611914, -0.10693916, -0.021925744, -0.060946226, 0.17359927, 0.0048744306, -0.06115404}, 
{0.19766729, 0.24310659, 0.069028236, 0.059892364, -0.20905142, -0.06353901, 0.12129283, 0.013629425, -0.024377838, -0.090231426, -0.08010699, -0.15670402, 0.18359505, 0.11541678, -0.2006921, -0.02625589, -0.19500205, -0.01786609, -0.032691397, -0.024179965, -0.1785168, 0.019647893, 0.18587959, -0.18265794, 0.2264057, 0.14979243, 0.09947128, 0.08534039, 0.04903224, -0.07935132, -0.054904945, -0.20002688}, 
{0.0874936, 0.082057245, 0.1125585, 0.12179422, -0.18761477, -0.16635379, 0.18766108, 0.19332477, -0.15501416, -0.07661346, -0.08100888, -0.10288066, 0.18077724, -0.002135941, -0.0077843457, 0.010402113, -0.18252343, -0.09189952, 0.104733035, -0.19808793, -0.044284128, -0.25064194, 0.16076684, -0.14418897, 0.25721207, -0.020641753, 0.038546804, -0.0860373, 0.015917122, -0.068365075, 0.28461602, 0.047313612}, 
{0.1577255, -0.15923947, 0.15696463, -0.13199624, -0.18090576, -0.08894299, 0.01803208, 0.15645726, 0.13469633, -0.07538097, -0.13164404, -0.14369814, 0.003972768, -0.25398695, -0.11875819, 0.08316964, -0.16618618, -0.15996078, -0.022512348, 0.047771327, -0.018284107, -0.10503638, 0.033804826, -0.058143154, 0.050204094, -0.05918774, -0.10322259, -0.08658161, 0.17660102, 0.16515654, 0.14108452, -0.11544219}, 
{-0.15826419, 0.05091822, -0.16643478, -0.2208173, 0.16197282, 0.15101263, -0.020133087, -0.05713933, -0.030539885, 0.1632378, -0.09841016, 0.16639952, 0.16087173, 0.11504866, 0.10074107, 0.0017859042, -0.18854539, -0.13728094, -0.07853611, 0.11129962, -0.187338, 0.15603203, 0.2176921, -0.12342553, 0.12693164, 0.062062487, -0.18135524, 0.07648473, -0.1996601, -0.12729876, -0.022075545, 0.19899753}, 
{-0.12696415, 0.05275608, -0.11067493, 0.17515881, -0.0075912857, 0.03676714, -0.009482099, -0.07038499, 0.037765265, -0.082372, 0.091234565, -0.011050462, -0.08391761, -0.1646301, 0.09539359, -0.12965664, 0.10633976, -0.16387516, -0.022058012, -0.08959017, -0.1261362, -0.27199626, 0.2676337, 0.20999649, 0.22695939, 0.0020190044, -0.20164569, -0.034351923, -0.16094482, -0.0030647367, -0.021322256, -0.08759724}, 
{-0.13795489, 0.19730458, 0.20217602, 0.12811169, -0.012043058, -0.2043304, -0.1146393, -0.10173042, -0.12660927, 0.009447745, 0.059621274, -0.28906652, 0.16334698, 0.11698566, -0.19240582, -0.12625325, -0.20819157, 0.12919626, 0.13374935, 0.20191011, -0.004806158, -0.019652601, 0.0709987, -0.023520574, 0.14750692, -0.16543002, -0.06212846, -0.046993278, -0.11556578, 0.11778343, 0.18781306, 0.046432637}, 
{0.08309152, 0.110917635, -0.08084792, 0.1592545, -0.19027837, 0.18985581, 0.05917556, 0.20089999, 0.12610677, 0.25515154, 0.12826759, 0.10743858, 0.16141158, -0.0055350643, -0.036335364, -0.032951146, -0.08111827, -0.20954262, -0.17043383, -0.17807062, -0.016418658, -0.109315805, 0.019185314, -0.18587503, 0.103746064, 0.1223998, 0.1424924, -0.11751545, 0.033814266, 0.032862, 0.255075, 0.007686275}, 
{0.068523385, -0.051862154, 0.053439822, -0.19173625, 0.112684436, 0.1587429, -0.015461065, 0.14784819, -0.109531835, 0.19535506, 0.14123356, -0.22037126, 0.03902994, 0.015690353, -0.07720374, 0.13673386, -0.15760027, 0.0027408153, -0.023162872, -0.06663104, 0.09420474, 0.016163446, 0.21797167, -0.08172427, -0.14160939, 0.12278927, -0.19937423, 0.12023117, 0.027696088, 0.17910716, -0.009790404, 0.08968851}, 
{0.111340106, -0.1079753, 0.16628055, -0.00032759516, 0.14313585, -0.14260721, 0.08484275, 0.0559526, -0.156989, 0.003880072, -0.063044235, -0.052264787, 0.12527086, 0.13296749, -0.14668237, -0.09608647, -0.120285444, 0.018965766, -0.18075064, -0.085088015, 0.055412803, 0.008818213, 0.028828623, -0.041017726, -0.09722788, 0.10372269, -0.15013224, -0.19541354, -0.1174782, 0.19432712, -0.029301565, 0.041765817}, 
{-0.039538305, -0.077282704, -0.046091884, 0.0032644952, 0.12947232, 0.05588895, -0.04516857, -0.111198746, 0.05388874, 0.077943824, -0.20878153, 0.04543103, 0.16914745, 0.14438239, -0.1088389, -0.10838407, -0.22398143, -0.18256593, 0.19604114, 0.17418604, 0.20192333, -0.19442359, 0.036124367, 0.20460957, 0.19110322, 0.06625032, -0.21439846, -0.13777032, -0.18530299, 0.12322825, 0.07532372, 0.19618228}, 
{-0.14805359, -0.031953372, -0.047703777, -0.009212747, -0.051985502, 0.2061742, -0.08040146, -0.11024489, -0.061992124, 0.0032438103, -0.19621295, -0.13173835, -0.05661321, 0.0643303, -0.13760701, -0.019047856, 0.13857684, -0.19904153, -0.06734074, 0.05945434, -0.054153185, -0.13643214, 0.036517583, -0.19546196, 0.13850246, 0.11168029, 0.022924455, 0.13830799, -0.033817872, 0.007366145, 0.2651912, 0.1666073}, 
{0.1030817, -0.11753037, 0.0797877, -0.06645195, -0.25275087, -0.008282602, -0.094435245, 0.09130066, 0.051621675, 0.24629717, 0.14028454, 0.12664117, -0.071009, 0.12595119, -0.17905936, 0.032687083, -0.14660764, -0.0930726, 0.13623402, 0.030573523, -0.080855764, 0.0024782324, -0.16676775, -0.1553781, 0.10035063, 0.046747174, 0.018768793, -0.11868678, 0.19769624, 0.09257497, 0.26708993, -0.021334099}, 
{0.017102493, 0.007820708, 0.13424885, 0.11753057, 0.14282088, 0.03355609, 0.15700325, -0.09892189, -0.054865018, -0.015458021, 0.13161618, -0.18195415, 0.14620997, -0.2519582, -0.043325365, 0.02332604, -0.25559962, 0.07248181, 0.15654409, -0.14004007, 0.20642269, -0.03103392, 0.16291675, -0.202073, -0.14216892, 0.014517546, -0.15683044, -0.09078971, 0.18006697, 0.12118158, -0.08079165, 0.075723864}, 
{-0.20946705, 0.17805989, 0.04517361, -0.06728908, -0.13156845, 0.02357161, 0.18179913, -0.0215705, 0.10767746, 0.09667253, -0.019768327, -0.16012098, -0.1461347, 0.05118971, -0.21509442, 0.017055273, 0.08158657, -0.054459184, -0.11202076, -0.08776979, -0.14445668, -0.09393624, 0.026575226, 0.03165573, 0.23665354, 0.16765733, -0.062078707, -0.09839369, -0.15460116, 0.25537634, 0.077720635, -0.1635444}, 
{0.19461639, 0.05634098, 0.18387824, -0.13198887, -0.24991645, 0.08825749, 0.19096592, -0.08114272, 0.08403352, 0.2606314, 0.19076854, 0.037344698, 0.1324473, -0.048485395, -0.15626082, -0.0120565, 0.058987997, -0.19309008, -0.16806576, -0.088457346, 0.082041584, 0.1133915, 0.24391599, 0.014655858, 0.045520015, -0.18290587, 0.013041618, -0.11220439, 0.022522762, 0.18676287, 0.14699562, 0.010133333}, 
{-0.20823456, -0.07742933, 0.13755561, -0.02446027, -0.1266803, -0.04958713, 0.1512707, -0.051761787, -0.0587212, -0.038243327, -0.024086788, -0.28144774, 0.1847841, -0.065662466, -0.16482548, -0.11253762, 0.12638518, 0.09811881, -0.20914668, -0.054658588, 0.09767263, -0.015503386, 0.13695519, 0.13196981, -0.029216278, -0.22271548, -0.023075815, 0.028439064, -0.12808445, 0.27070147, 0.19124994, -0.15468341}, 
{-0.17455491, 0.02018966, 0.14758715, 0.19323345, -0.115767196, -0.045951948, -0.20718482, 0.14738049, 0.15288442, 0.24045737, 0.09149328, -0.21239412, -0.10967659, -0.1422318, -0.12660605, -0.05221021, 0.099132486, -0.15119715, 0.17250252, 0.09225779, 0.1711841, -0.2300716, -0.11130475, 0.0044225007, -0.076368816, -0.019942384, 0.027987242, 0.012244373, 0.12502283, 0.23420379, 0.26132026, 0.11192382}, 
{0.15311173, 0.2394656, 0.05051873, 0.13139747, 0.14010742, 0.15258932, -0.09025133, -0.19831808, 0.12816578, 0.13777706, 0.19886765, 0.046485677, 0.2123192, -0.09421727, 0.10551305, 0.018060967, 0.08977603, 0.043430895, 0.1508487, -0.02952083, -0.0692003, -0.025534682, 0.12314529, -0.01821971, 0.15630233, -0.06500201, -0.15933539, -0.17996845, 0.20607868, -0.011461774, 0.26234734, -0.14372548}, 
{0.19683069, -0.10186768, -0.09841391, 0.17488964, -0.028767198, -0.0865279, 0.20084324, 0.090829164, 0.16524816, 0.15877426, 0.020273536, -0.15363361, 0.03418766, 0.08165954, -0.16674939, 0.0930855, -0.056142364, -0.18435432, -0.058171336, 0.115827076, 0.12682356, 0.033144623, -0.1230662, 0.011679187, -0.16146983, 0.11165659, 0.17329791, 0.05026849, -0.19454868, 0.21395013, -0.121784285, 0.031651925}, 
{0.16929801, 0.12701605, 0.21086812, 0.052885205, -0.12508145, -0.21176916, -0.20205449, -0.18055174, 0.062814206, 0.12213047, -0.19703183, 0.09855672, -0.13780719, 0.16552295, 0.12234931, 0.099943876, -0.04057167, -0.0065155774, 0.13401051, -0.15864523, -0.20513031, -0.015842665, 0.19245873, 0.087748975, -0.1459962, -0.19432752, 0.07382954, 0.059367426, 0.16575018, 0.21790132, 0.16728374, -0.20098582}, 
{-0.102108754, 0.13326521, 0.24406512, 0.016806692, 0.17797644, -0.1351985, -0.11756284, 0.21656892, 0.15642107, 0.0014602634, 0.0035710782, 0.055615276, -0.047224727, 0.045602605, 0.041181043, 0.11189178, -0.0637086, 0.15150139, 0.14548679, 0.072443835, -0.071063764, 0.17908381, -0.14210303, 0.17528927, 0.11134899, 0.16582197, 0.046307344, -0.06106646, -0.15077744, 0.11294946, 0.24972771, -0.034482047}, 
{-0.037420027, -0.05477259, -0.040182684, -0.084432684, 0.12568395, -0.118130155, 0.07712293, 0.15016325, -0.02973406, -0.16305463, -0.15901548, -0.08923369, 0.08136998, -0.19590811, 0.16236182, -0.20582737, 0.19236536, 0.12012315, 0.13914782, 0.17339674, -0.06266968, 0.013894105, 0.1505505, -0.03661886, -0.19819713, -0.09747415, -0.041582637, 0.17172657, 0.1520159, 0.14194122, 0.0971547, -0.16742021}, 
{-0.15940942, 0.14265203, -0.012941311, 0.0032239596, 0.2768131, -0.14828861, 0.12584686, 0.13190678, -0.15737027, 0.00575183, 0.099294424, 0.21614282, -0.111215286, -0.1183934, -0.2048954, 0.009738356, 0.24137782, -0.072474346, -0.124102116, 0.07736187, 0.02346548, 0.279203, 0.11123354, -0.12528956, -0.20175533, -0.026374998, -0.19270909, -0.05926213, -0.04464081, 0.03718105, -0.04749564, -0.14517775}, 
{-0.09588203, 0.110002406, -0.1705325, -0.09210877, 0.17118347, -0.20451832, -0.06967728, 0.13434128, 0.109437585, 0.10999169, -0.16408764, 0.19912167, -0.097195156, -0.11141023, -0.2132965, 0.16988793, 0.04401028, 0.14090443, -0.06716562, 0.10198429, -0.16010776, -0.059139166, -0.14052801, -0.15802406, -0.17270617, 0.19518097, -0.0018319306, 0.08940447, 0.103484005, -0.13695313, -0.14046913, 0.061474644}, 
{-0.22213686, 0.13581014, 0.19655447, -0.081821725, 0.12598993, 0.043246478, 0.14955798, 0.0026939446, 0.2032139, 0.11613528, 0.061615467, 0.10630423, -0.21464135, -0.06147888, -0.18956153, -0.07896075, 0.18959682, 0.093227476, -0.053454578, -0.094231136, 0.18227302, 0.2359843, 0.05391771, 0.0891484, 0.07212655, -0.021267338, -0.20181446, 0.05496982, -0.07589024, -0.13969202, 0.15608263, 0.10152208}, 
{-0.030640105, 0.0407458, -0.08597729, -0.0962581, -0.02659566, 0.10620785, -0.15086387, 0.09356773, -0.10065521, 0.28216013, 0.024492815, -0.16666286, 0.034662917, -0.13092995, -0.22150752, -0.21297574, -0.27098107, -0.08022958, -0.03920875, 0.039926898, 0.067878276, 0.0068746638, 0.25883254, 0.078119636, 0.08826449, -0.024825629, 0.08692774, 0.02036386, 0.21256334, 0.1565094, 0.26710624, -0.06001329}, 
{-0.19714378, -0.015932832, 0.19372618, -0.1411968, -0.13975316, 0.19901419, 0.13248543, -0.08949436, -0.15127523, 0.09438932, 0.0002117157, -0.1955124, 0.14913163, -0.2569224, 0.093027905, 0.18496144, -0.045845952, 0.18520954, 0.00010196652, 0.14718929, -0.18515064, 0.11940075, 0.043125663, 0.191293, -0.02851409, 0.15969874, -0.16118562, -0.17955676, 0.14857543, -0.119616106, 0.11611517, -0.0094047915}, 
{-0.09706931, 0.035502866, -0.15242383, -0.025317272, -0.0130854715, 0.14133033, 0.07405428, -0.019842202, 0.11666703, -0.109430954, 0.12972847, -0.030158306, 0.19462067, -0.060016792, 0.12137011, 0.053793103, -0.077963516, -0.08107765, 0.11624704, -0.08616823, 0.14527261, 0.21234387, -0.0421594, -0.071466014, 0.048408944, 0.09772757, -0.12706108, 0.11732571, -0.1945285, -0.018548608, -0.11435313, -0.11631862}, 
{-0.10861408, 0.03754931, 0.05984408, -0.13705592, 0.010302486, -0.0034494996, -0.17974663, 3.6176047e-05, 0.06563708, -0.19674923, 0.033956036, 0.14217313, 0.14268078, -0.22384307, -0.036384393, -0.18282828, -0.04647448, 0.07152644, -0.12982745, 0.14999662, -0.01332769, -0.024777131, -0.17838576, -0.049010456, -0.120383576, -0.117196776, -0.21958585, -0.13110311, -0.041480288, 0.09647645, 0.18250768, 0.15671717}, 
{-0.17160329, 0.13642594, -0.07793996, 0.046823416, 0.14937223, 0.12913674, 0.0018671586, 0.24703756, -0.026943937, 0.10103522, 0.077699006, 0.044549584, -0.03103567, 0.12222491, 0.14232539, 0.06376696, -0.02537013, 0.176184, 0.10384283, 0.17422117, 0.0036475258, -0.06818914, 0.014187511, 0.13574645, -0.11919222, -0.06049939, 0.05214694, 0.18911381, -0.06672835, 0.051295727, -0.07697786, -0.06511102}, 
{-0.113829195, -0.05000316, -0.19451046, -0.054438263, -0.026355453, -0.05336824, 0.060632426, 0.17520012, 0.115042895, 0.08801199, -0.09633854, -0.10143668, 0.059169747, 0.05637583, 0.06788142, -0.07559934, 0.11823043, 0.13582376, 0.25094315, -0.025332892, -0.15604755, -0.045060437, -0.1386222, -0.07780047, -0.17006674, 0.13578017, 0.15761003, 0.21182925, 0.1739816, 0.09803432, -0.11059423, 0.16329473}, 
{0.12748927, -0.117658824, 0.10737424, -0.058226388, 0.101326935, -0.058537915, -0.18231472, 0.045652006, -0.076485425, -0.1322414, 0.20868582, 0.19851537, -0.105021186, -0.17996307, -0.11075833, -0.09884345, 0.07934608, -0.008296743, 0.21326575, -0.03939885, -0.05137841, 0.19928159, -0.079205744, 0.0733895, -0.12245601, -0.038036678, -0.068623275, 0.22246905, -0.119490236, -0.0975587, 0.04115931, 0.07060836}, 
{-0.20141397, -0.26739424, 0.0011339592, 0.03295587, -0.021853877, -0.18514743, -0.09202653, -0.067425564, -0.007499054, -0.12100093, -0.08289613, -0.10220449, -0.1988568, 0.017185492, 0.11413439, -0.116379686, 0.24051596, -0.13056988, 0.22180535, 0.13205989, -0.08472396, 0.047014214, -0.19112942, -0.15529321, -0.25677258, -0.21443729, 0.059886236, 0.027679365, -0.037117466, 0.122282594, -0.14665814, -0.061677907}, 
{-0.07776822, -0.07063831, -0.11284768, -0.0048891064, 0.23365894, 0.15053344, 0.18903758, 0.24158382, 0.10800868, -0.055332806, 0.2033304, 0.048200972, -0.23622844, -0.10381533, -0.00037148595, 0.004012957, 0.026349803, -0.12147946, -0.102689296, 0.13364229, -0.11181739, 0.27072313, 0.06014413, 0.10740304, 0.034773167, -0.22381097, -0.02819806, -0.034022085, 0.06597102, -0.20788126, -0.17876787, -0.043521456}, 
{0.03897883, -0.10690998, -0.102688104, -0.09605498, 0.12732692, -0.044183284, -0.17228018, 0.080745414, -0.20057221, -0.057774372, 0.08868274, 0.03934489, 0.13937426, 0.116194814, -0.1107435, -0.11118303, -0.081336424, -0.021467209, -0.024661208, -0.03131902, 0.019553756, 0.27092758, -0.12503345, 0.16445631, -0.004949723, 0.14552115, 0.050110172, 0.23426332, 0.122263014, 0.099213816, -0.042907313, 0.015197662}, 
{-0.023621822, 0.14713603, 0.23017235, 0.13828091, 0.20015863, 0.11261162, 0.21147728, -0.09169664, 0.16277564, -0.12507382, -0.13177848, 0.11644234, -0.019778118, 0.19778869, -0.21994467, 0.18299383, 0.013718017, -0.13666034, 0.2180616, 0.086155735, -0.20603187, -0.09283194, -0.09919814, 0.16260418, 0.13202433, -0.021428913, -0.14773868, -0.04879836, 0.16839665, 0.04532185, 0.03679289, -0.21046929}, 
{0.11982041, -0.23320888, 0.23530293, -0.11097057, 0.18869764, -0.16510187, -0.08646154, -0.15578029, -0.20695171, 0.24832873, -0.10578045, -0.00792552, -0.17222589, -0.17902488, 0.1804001, -0.17415376, 0.07036096, -0.1277203, 0.16784817, -0.18675973, 0.20646949, -0.019803612, -0.11679034, -0.15955682, -0.09160358, -0.039725352, 0.16840951, 0.17418781, -0.0794936, 0.07285035, -0.027164826, -0.08207907}, 
{-0.1614945, -0.26260573, 0.031582575, 0.15551682, 0.2257188, -0.2053361, -0.08214177, -0.111186795, 0.018975884, -0.059250068, -0.13771611, -0.09322801, -0.15532336, -0.045234285, 0.17414556, 0.012087718, 0.16737378, -0.15226358, 0.16577204, -0.15916856, 0.10085131, -0.064387694, -0.27742144, 0.024515286, -0.08637156, -0.13477609, -0.09736784, -0.06769629, -0.19774301, -0.14583685, -0.25907692, -0.17260343}, 
{0.14408779, -0.008362274, 0.0550612, 0.061377034, -0.05355613, 0.030899823, 0.012977682, 0.14839904, -0.2078161, 0.027256873, 0.054731727, 0.28531688, -0.17453223, 0.2031826, 0.06148485, 0.07820794, 0.25963882, -0.2122639, 0.17203443, 0.015865767, -0.19644892, -0.03727302, 0.023734042, -0.05288829, -0.112105936, 0.018017272, 0.1578266, -0.06704181, 0.035928175, 0.029934091, -0.12671421, -0.1434891}, 
{-0.09570736, 0.0018348559, 0.01010529, -0.22693922, -0.041918088, -0.21012813, -0.17849909, 0.19986689, -0.12703234, -0.03864006, 0.107674, 0.122511305, -0.19745044, -0.12204486, 0.19943161, 0.15562952, 0.10203062, -0.1675074, -0.027437694, -0.01840183, 0.10068907, 0.23463805, 0.087340266, -0.042535946, -0.010612429, -0.013735781, -0.0008799324, -0.10118765, -0.04268244, 0.17504129, -0.10334188, 0.2004084}, 
{0.06977097, -0.13487692, 0.066141285, 0.106045805, -0.028427122, -0.040072024, 0.04553905, -0.0937716, 0.03177172, 0.14730981, 0.023079365, -0.02318824, -0.27475613, -0.02883314, 0.095235534, -0.16509837, -0.06350822, -0.19118047, 0.11674085, 0.030327482, -0.17931552, -0.010885651, 0.05927937, -0.06797123, 0.0048446045, -0.016798684, 0.08425078, 0.15392491, -0.047074854, 0.05316824, 0.10746809, -0.1811887}, 
{-0.06291481, -0.04019247, -0.16328901, -0.03174134, -0.01751051, -0.09026302, -0.16980064, 0.051577292, 0.041365653, 0.055115405, 0.11163518, -0.073118426, 0.05229397, 0.037850883, 0.026774315, 0.020540968, 0.24560101, 0.13326117, -0.15527625, -0.15565166, 0.09945679, 0.049895935, 0.039014097, -0.052530095, 0.072497174, -0.106378324, 0.16554803, 0.13242844, -0.009631619, 0.008264052, -0.076280884, -0.03752912}, 
{-0.028132625, 0.0076695736, 0.09461282, -0.026045237, 0.0919623, -0.19969308, -0.15874253, -0.093780436, 0.20537227, 0.0972734, -0.09894501, 0.09616831, -0.26402754, -0.11544118, -0.12690651, 0.04039046, -0.023952726, -0.040170684, 0.2638771, -0.11082991, 0.15444365, 0.035910077, -0.25412288, -0.005058557, -0.23731051, -0.02292288, 0.014074733, 0.21291235, -0.15520456, -0.16723546, -0.20851563, 0.15969065}, 
{-0.15068482, -0.09595433, -0.22068565, 0.024353532, 0.1963171, -0.012793854, -0.1814936, 0.10781246, -0.075974375, 0.0039744726, 0.011266649, 0.13017426, 0.07439432, 0.0692744, -0.1506383, -0.018632367, 0.181703, 0.19127166, 0.23942599, 0.053644825, -0.11741702, -0.009629932, 0.06337424, 0.18654025, -0.005171841, -0.12636699, -0.02692036, 0.10050427, 0.105403274, 0.1110482, -0.08284658, -0.13795279}, 
{-0.057463057, 0.1321615, 0.10155403, 0.17505226, 0.24799381, 0.04098347, -0.12589955, 0.111367665, -0.031413257, 0.02132037, -0.040152133, 0.15938231, -0.17680258, 0.2207664, -0.079901434, -0.10201891, 0.022989068, -0.10146871, 0.17787398, -0.011796122, -0.09025018, -0.07043645, -0.20118287, -0.18488505, -0.04446372, -0.10355489, 0.02275919, -0.06390624, -0.11597446, -0.077271916, 0.039897557, -0.06468077}, 
{0.07440179, 0.08044159, -0.16099115, -0.07907725, -0.0916335, -0.0052055568, -0.13702631, 0.06976142, -0.14891993, 0.011666874, 0.14197972, 0.07633878, -0.046114758, 0.0017351523, 0.18142746, -0.20698419, 0.1593215, -0.13287058, 0.024174906, 0.01341515, 0.18517515, 0.2225393, -0.004246875, -0.20136859, -0.088139094, 0.094452396, -0.12880777, -0.10814704, -0.20399949, -0.013074371, -0.18720332, -0.07630647}, 
{-0.0020840126, 0.1507018, 0.04722058, 0.03301788, 0.10572209, -0.058320254, 0.21192996, 0.033958685, 0.19143921, 0.2616977, -0.16242379, 0.023126619, 0.0999101, -0.11944327, 0.018627964, 0.20584232, -0.12264756, -0.06503396, -0.10069777, 0.09873381, -0.16553017, -0.039018374, 0.20514919, -0.024018675, 0.06188981, 0.11026968, 0.12475518, 0.01945107, 0.08163777, -0.09267293, -0.13113219, -0.057745643}, 
{-0.22633035, 0.060133215, -0.2637319, 0.1156119, 0.22877845, 0.009439364, 0.087002344, -0.15617701, -0.11815064, -0.09929777, -0.111206055, 0.05838317, 0.10443037, 0.018729229, 0.1010276, 0.10968518, -0.11345877, 0.077932894, 0.1901098, 0.1630628, -0.1388833, -0.10967524, -0.265923, 0.17710185, -0.17885228, -0.1694965, -0.15083736, -0.04262841, 0.021491855, -0.056133818, 0.030999783, -0.06311504}, 
{0.17024326, -0.09690595, -0.21286005, 0.0155028235, -0.11400784, -0.1423497, -0.17660794, 0.14362216, -0.11544602, -0.03485391, 0.044353426, 0.119410776, 0.09926484, 0.19631565, 0.10707965, 0.013012528, 0.26627192, -0.19814575, 0.22660488, 0.0887122, 0.16810568, 0.21828274, -0.15780693, 0.15720826, -0.035005208, -0.022255838, 0.18398176, 0.09907389, 0.004885465, 0.08038219, -0.27970585, 0.071994804}, 
{-0.15290518, 0.036810406, -0.24667825, -0.09698903, 0.29504073, 0.09127152, -0.18559149, 0.009580683, -0.093035646, 0.03587295, -0.16714254, 0.034536447, 0.055989303, 0.24360812, -0.22140977, -0.16535105, -0.005113951, 0.2008563, -0.12443047, -0.0889534, 0.20097889, -0.12093526, 0.03910599, -0.14665276, 0.0830945, -0.2208532, -0.00046783403, 0.2538084, 0.054112047, 0.04915723, -0.08788058, -0.19101842}, 
{0.1929424, -0.037087094, -0.21020819, -0.11292749, 0.18865176, -0.007763833, 0.12398541, 0.24183434, 0.13264364, -0.08976937, -0.13286576, 0.18104196, -0.061124533, -0.07633254, 0.029248793, 0.07109821, 0.22454685, 0.043842256, 0.07689112, -0.017500585, 0.16714394, -0.016059576, -0.2136517, -0.07810511, 0.021988682, -0.046284266, 0.0526114, 0.15811916, 0.17090267, 0.08228564, -0.12874077, 0.15506956}, 
{-0.20555145, -0.009264377, -0.21381153, -0.096823394, 0.24435472, 0.04786381, -0.19857407, -0.0716278, -0.06100723, 0.08559653, 0.042322457, 0.060839783, -0.11242311, 0.13868432, -0.11088499, 0.13787714, 0.22960947, -0.036173224, 0.106392436, -0.15070117, 0.15768073, 0.17411134, 0.14171752, -0.112821214, 0.01645516, 0.0047490946, -0.038315292, 0.21829174, -0.032921165, -0.060161255, -0.0008392601, -0.021964176}, 
{-0.19776978, -0.1264845, -0.03637006, 0.117014736, 0.14157243, -0.005790919, -0.042568196, -0.026076736, 0.08136305, -0.01652813, -0.17449677, -0.10491401, 0.14874619, 0.15877281, 0.09593715, 0.008690521, 0.16456528, -0.073761955, -0.10138051, 0.1870442, -0.19923097, -0.10295807, 0.027091939, 0.094492465, -0.13679574, 0.19921155, 0.19413915, 0.0852628, -0.03431037, 0.21333696, 0.059782326, -0.11710097}, 
{-0.009880937, -0.16131228, 0.12217499, 0.14492959, 0.05513536, 0.1998443, -0.034243297, 0.13663019, 0.17374456, -0.11539392, -0.20921354, 0.09746345, 0.14169525, -0.07971428, 0.14887859, 0.09315911, 0.14058226, 0.10443592, -0.09049296, -0.036123782, -0.07907865, 0.09080638, -0.10747464, 0.022972524, 0.17764886, -0.04495721, -0.16681272, 0.057656493, 0.06474316, -0.10160026, 0.042653915, -0.122457765}, 
{0.18102273, 0.08692472, -0.024423469, 0.056920525, 0.3148938, -0.13108158, 0.057329305, 0.015860436, 0.027829617, 0.10229259, -0.07531066, 0.14600433, 0.085402474, -0.09287336, 0.13670388, -0.019759491, 0.1819372, 0.1827296, -0.08703292, 0.112014405, 0.13099092, 0.18598051, 0.007854703, -0.091504104, -0.010193388, 0.11560334, -0.18280251, 0.030108921, 0.1327241, 0.12046507, -0.049064692, -0.15340891}, 
{-0.1752329, -0.023970954, -0.13296677, -0.12710644, -0.2088891, -0.120846055, 0.21095751, 0.18973684, 0.06991896, 0.24092437, -0.074972644, -0.24320814, -0.018451173, -0.2433525, -0.11440888, 0.12871835, 0.05175519, 0.1427567, -0.21141402, 0.0023533783, -0.21206294, -0.24123676, 0.22155616, 0.09133458, 0.22673607, -0.10539961, 0.17145205, -0.0692001, -0.1777798, 0.022318868, 0.25153178, 0.007007917}, 
{0.10521353, 0.032358427, -0.062467273, -0.21813704, 0.15806553, -0.16705729, 0.14755082, 0.17713642, -0.17049052, -0.14574601, -0.1348322, -0.13510537, 0.16243292, -0.15842117, -0.0065583405, 0.1489611, -0.24095514, -0.164687, 0.2140966, 0.1857479, 0.11866664, 0.15942656, -0.049915448, -0.13029447, 0.20421234, -0.016496258, 0.16383004, -0.18942325, 0.15796608, 0.042456485, -0.008405962, -0.04672919}, 
{0.03791258, -0.14686888, 0.068411134, -0.0045403377, -0.08602735, -0.19471556, -0.1740255, -0.11315352, 0.09065071, -0.12575832, -0.16892746, -0.097852215, 0.028613644, 0.2556589, -0.013200028, 0.1756092, 0.2340237, -0.0683575, -0.07488254, 0.09474852, -0.21722858, 0.260711, -0.0443553, 0.032969758, -0.049057472, 0.022552086, 0.050684642, 0.15327501, -0.20628943, -0.05223551, 0.08950345, 0.086885445}, 
{0.10150674, -0.14380352, 0.07010538, 0.085454024, 0.027853448, -0.19978864, 0.16333254, -0.089642935, -0.124166995, -0.20687062, 0.115904, -0.010768573, -0.0042658253, 0.11354728, 0.12023002, -0.010188371, 0.029066335, -0.07193376, 0.02072607, -0.06953149, 0.025354877, -0.111716144, 0.065703765, 0.18726653, -0.051600616, 0.0299383, 0.1530082, 0.093457766, 0.08823547, -0.18952094, -0.02175125, -0.03983796}, 
{0.13076475, -0.22996184, -0.15978713, -0.19916764, 0.010378329, 0.0358966, -0.19338264, -0.07216841, 0.1851534, 0.044549465, -0.09042105, 0.05245116, -0.06390517, 0.07861599, -0.046599817, 0.14593843, 0.08183474, -0.031631023, 0.111504115, -0.119470865, 0.11300078, -0.11566004, -0.20477244, -0.1384042, -0.087014884, -0.06252813, -0.08758013, 0.0055715684, -0.11171533, -0.12094678, -0.095275715, -0.17626788}, 
{0.1973183, -0.10341335, -0.21800955, 0.057137173, -0.05501397, 0.15026653, -0.14161456, -0.055473503, -0.17717049, 0.10379637, 0.16627014, 0.23543555, 0.058523208, 0.18482, -0.06458497, -0.0669688, 0.018195078, 0.18554753, 0.14696395, 0.0824285, -0.16370904, 0.11065729, 0.04218932, -0.17607705, -0.02601413, -0.050520595, -0.1874576, 0.168714, -0.18864593, -0.036998883, -0.26616234, 0.19936468}, 
{0.08481942, -0.06633263, 0.018848058, 0.09195422, 0.11410887, -0.07038362, -0.17046307, 0.014620783, -0.0024930537, -0.045102656, -0.040083855, 0.21258242, -0.107599095, 0.15599383, 0.042128813, -0.106157675, 0.15074357, -0.031969354, 0.11660655, -0.055445824, -0.19718064, -0.07789064, -0.08320558, -0.013027936, 0.0016358187, 0.19522713, -0.072335236, 0.0039635715, 0.051923364, 0.18085086, -0.16731875, 0.18919942}, 
{0.14433894, 0.16156991, 0.19043344, -0.19198719, 0.10756907, -0.065989226, -0.09671789, 0.11181789, -0.089823075, 0.1472777, 0.13590765, -0.013026493, -0.022057218, 0.005014748, 0.16993965, -0.103704005, -0.111138165, 0.0071749985, 0.119669676, -0.09693854, -0.16755666, -0.12830849, -0.012006939, -0.18313804, 0.15139318, -0.041125856, -0.16601907, -0.17421167, 0.09882286, 0.06321019, 0.19792044, -0.031601083}, 
{-0.08437646, 0.0997594, 0.20021702, -0.20520923, 0.09810971, 0.15612507, -0.07625827, 0.10299461, -0.15439071, 0.23310928, -0.025928438, -0.08823673, -0.075012855, -0.10091202, -0.2176516, -0.1873162, 0.13623522, -0.06402008, -0.24618821, 0.09839983, 0.05941611, -0.2732766, 0.15244137, 0.118697464, 0.2585616, 0.05145034, -0.09295596, -0.2553016, 0.17568952, -0.11916677, 0.113662936, -0.20559692}, 
{-0.14181235, 0.19859837, 0.24057025, 0.17642546, -0.0664964, 0.11128697, -0.09936293, -0.1710639, -0.042735875, 0.20946616, -0.039446488, 0.14017013, -0.04406816, -0.14286172, 0.13142674, 0.062488943, 0.0660734, -0.05540341, -0.018734347, 0.116316825, 0.040356692, 0.04342756, 0.13614413, -0.118309334, 0.11688441, 0.110490784, 0.1862472, -0.29199365, 0.09459382, 0.19499987, -0.015626231, 0.034850072}, 
{-0.043073706, 0.031643827, 0.23905288, 0.10297755, -0.09112376, -0.18129028, -0.014382532, -0.12719141, 0.047068805, -0.13675426, 0.14446056, -0.25476828, -0.070471086, 0.11993136, -0.19976589, 0.10789788, 0.09195818, -0.16817263, -0.08408524, -0.040683452, 0.20513465, 0.0918876, 0.14454903, -0.15052298, 0.06645424, 0.05380023, -0.110105745, 0.09580401, -0.14219326, 0.092729054, 0.11659114, 0.15091379}, 
{0.047771867, 0.09220089, -0.11681186, 0.06932105, 0.067398354, -0.11118684, -0.13374154, 0.1439161, -0.016341612, -0.16431671, -0.06974584, 0.1026038, 0.0659325, -0.20302682, -0.15520583, 0.07156253, -0.026825888, -0.16142537, 0.10113252, 0.0751285, -0.027684003, -0.01989189, -0.072506346, -0.018058628, 0.2128972, -0.1733121, 0.16775692, 0.18006057, 0.15450889, -0.07745787, -0.14821726, -0.09134462}, 
{-0.049722727, 0.08169164, -0.26552913, -0.023841249, 0.27170604, 0.018668398, -0.05026246, -0.038702223, 0.08663225, -0.032125317, -0.012373939, 0.2160451, -0.027702771, 0.2456688, 0.16683927, -0.037790522, 0.16676535, -0.059816763, 0.03868934, -0.20635371, 0.14166346, 0.30775535, -0.10031369, -0.16252616, -0.024156677, 0.0750412, 0.1641883, 0.1461555, 0.20047325, -0.037714887, 0.025173403, 0.049184214}, 
{-0.012459142, 0.07286231, 0.07628665, -0.026993223, 0.2694934, 0.14191678, -0.17037353, -0.07987449, 0.09346455, -0.2529057, 0.20275077, -0.034012523, -0.16630532, 0.17072012, 0.032859493, 0.037896454, -0.09605676, -0.032671735, -0.030754577, 0.061981816, -0.11233529, -0.06289667, -0.24812399, 0.06952432, -0.14210823, 0.0807165, 0.06527277, 0.1113094, 0.104221225, 0.21880932, 0.09217901, 0.17821594}, 
{0.05857224, 0.068746135, -0.20774451, 0.10423295, -0.054776244, -0.0078201, -0.06616171, -0.123634644, -0.095900886, -0.25591952, 0.13303676, 0.29613432, -0.068044715, 0.1885683, -0.01700528, -0.041133985, -0.10995003, -0.15606174, 0.23254567, -0.12154651, -0.20488228, 0.1770955, -0.1383407, -0.09468155, 0.03745437, -0.10839655, -0.04572196, 0.058047913, -0.15610799, 0.0715982, -0.1627417, -0.18950437}, 
{0.1918536, -0.10256104, -0.05607439, -0.056043245, 0.2117981, 0.109340966, 0.0733115, -0.108215794, -0.17643912, -0.02932144, 0.14295214, -0.053656917, 0.02232073, -0.14920776, 0.023490176, -0.052578434, 0.02964908, 0.18698987, -0.033708744, -0.116420925, -0.15801743, 0.18412296, -0.15421318, -0.0997519, 0.14135277, -0.2018454, 0.1396984, 0.28237763, -0.0139092505, 0.1332532, -0.049717087, -0.11667347}, 
{0.06351998, 0.1062345, -0.0796184, 0.13758418, 0.28198588, 0.1636627, 0.10543658, -0.13458687, 0.12362045, -0.14554095, 0.13885126, 0.1806422, 0.11131419, 0.17073494, -0.10915418, 0.012388736, -0.03595525, -0.0039390475, 0.06296526, 0.14354548, 0.047021586, 0.03545084, -0.13350335, 0.013947412, 0.067684196, 0.0615503, -0.22068715, -0.07716601, -0.20687312, -0.11423647, 0.14221856, -0.058427937}, 
{-0.14869277, 0.14865182, 0.060295492, -0.010640148, -0.07962282, -0.21255389, -0.13089576, -0.16620392, -0.025646538, 0.2245336, 0.14440322, 0.047240797, 0.16947222, 0.022930808, -0.14712203, 0.09901622, 0.07894789, 0.13512647, 0.07388254, -0.14014724, 0.15683162, 0.05153081, 0.22540714, 0.02595234, 0.10023168, -0.2160017, 0.03493778, 0.10178996, -0.00351125, 0.21218109, 0.12652746, -0.11306153}, 
{0.09256339, 0.22953784, 0.14259419, -0.17194113, -0.104110755, -0.0960944, -0.051464897, 0.16939981, -0.14969622, 0.23188545, -0.058823377, 0.12714805, 0.0057313195, -0.20216659, -0.16505912, 0.025424346, 0.079332195, 0.12745008, -0.2350662, -0.19249672, -0.11547807, -0.020457186, 0.045806777, 0.13451323, 0.13325076, -0.02985997, 0.0061912355, -0.08211534, -0.12291035, 0.13882622, -0.02067887, -0.025645634}, 
{-0.14265335, -0.041207172, 0.11957655, -0.16272807, -0.110277265, 0.20577267, 0.17399807, -0.04281965, -0.155999, 0.23409416, 0.16547573, 0.062790126, 0.0013515267, -0.17947774, -0.15855786, 0.18103868, -0.12013143, -0.06146522, -0.098562546, 0.15548338, -0.057670407, -0.0075774556, 0.30317768, 0.10252431, -0.06807562, -0.20106702, 0.0029107356, -0.19880228, -0.08415465, -0.1280443, 0.072479896, 0.18197972}, 
{-0.113991216, 0.18759267, 0.23925221, 0.0632794, -0.26808634, 0.17641425, -0.061080016, -0.0010725721, 0.021935463, 0.040025357, -0.18742044, -0.21895753, 0.27780563, 0.050871387, -0.035041437, -0.0012076944, -0.097293295, 0.075740546, -0.13103494, 0.12281808, 0.1702659, -0.064433925, -0.075396806, 0.030803949, 0.13324502, 0.006719191, 0.1514946, 0.0069776974, -0.06858146, 0.13331065, 0.2883013, -0.15281452}, 
{0.16979569, 0.13863163, 0.21871555, -0.12561588, -0.23850314, 0.030812025, 0.14529483, 0.16749632, 0.09692031, 0.006547215, 0.111979246, -0.21265456, 0.20013566, -0.07662824, -0.22120482, -0.043945298, -0.16310148, -0.068721145, 0.04604693, -0.16418307, -0.20916949, -0.24512374, 0.07548843, 0.09021446, 0.0880606, -0.13875344, 0.10648505, -0.16069697, 0.1589889, -0.0667068, 0.118591346, -0.19504921}, 
{0.055524874, -0.26297846, 0.03823598, -0.15208024, -0.040165704, -0.18908526, -0.039945897, 0.093649104, -0.15783884, -0.07756579, -0.091305, 0.10823811, 0.1554051, 0.16794801, 0.08734334, 0.053676635, 0.07744793, -0.0592902, -0.15281951, 0.08972867, -0.005926285, -0.030937681, -0.16567674, 0.14023286, 0.015227431, -0.08127429, -0.071421936, 0.20461191, 0.057224333, 0.1393451, -0.020026892, 0.057797603}, 
{-0.10148906, 0.1310647, -0.20245136, -0.1298227, 0.012796497, 0.0043626726, 0.13390455, 0.12043247, -0.0028974712, -0.1463134, -0.21086645, 0.007434939, -0.1423248, 0.06740591, 0.0803304, -0.1330944, 0.16192406, 0.0536218, 0.17852648, -0.19571, 0.20568147, 0.23811942, 0.086902864, -0.0047872663, -0.048329737, 0.0021607708, 0.14975901, 0.24910165, -0.09654797, -0.07340886, -0.005885201, 0.16533615}, 
{0.14386314, -0.0627926, 0.20404905, 0.12025815, -0.0012731657, 0.13430762, 0.1446038, 0.14377533, 0.12583831, -0.13165584, 0.015268624, 0.10672099, -0.1092746, 0.029323261, 0.15202826, 0.063800186, -0.006225622, 0.0053573847, -0.01671778, -0.060176425, -0.12541752, 0.25281212, 0.04532801, 0.04633659, -0.14634867, -0.19503163, -0.16364646, 0.16791555, -0.11270023, -0.15734784, -0.07510031, -0.056725297}, 
{-0.07272821, -0.026639106, 0.12537278, 0.030434716, 0.16556817, 0.21034583, 0.19579612, 0.057512715, -0.2113151, -0.13778628, 0.025744483, -0.0019808942, 0.14929059, -0.129469, -0.08300352, 0.069657445, -0.043426026, 0.19588646, 0.23781072, -0.13308857, 0.1600819, 0.2142508, -0.03318087, 0.21209916, -0.10254966, 0.004851743, 0.11812382, 0.035226356, -0.174814, -0.045639254, -0.059240375, 0.01672957}, 
{-0.18527967, 0.120582744, 0.2018193, 0.0049260366, -0.10376098, 0.0790323, 0.1643384, 0.22550134, 0.17739469, 0.023397602, 0.15986252, -0.10937091, -0.025529822, -0.13905792, 0.03373042, 9.043515e-05, 0.20777658, -0.12144632, 0.22301114, -0.13848929, -0.17753792, -0.09778722, 0.09036851, -0.12658167, -0.15691178, 0.1588564, -0.1460177, 0.15873843, 0.0061431825, -0.0181897, -0.2118098, -0.1432823}, 
{-0.12910528, -0.022541462, -0.019386778, -0.12100985, 0.074568264, 0.121157944, 0.17502397, 0.073424384, -0.10100417, 0.25314477, 0.013849109, -0.1405898, 0.026685592, -0.102394745, 0.13993376, 0.20962659, -0.2792006, 0.06487003, -0.102021426, -0.12064747, 0.14401934, -0.2776366, 0.17330584, -0.14733003, -0.01886585, 0.19629227, -0.15343802, -0.107907765, -0.17077161, 0.22438769, -0.08081168, 0.19027582}, 
{0.1708927, 0.06280036, 0.25279763, 0.17872791, -0.23511578, 0.04023972, -0.09756857, -0.07378219, -0.054932967, -0.0416131, 0.047160745, 0.10998083, 0.024618529, -0.05965103, 0.036246035, -0.09505963, -0.00039705157, 0.061465114, -0.16255063, -0.021220585, -0.07071511, -0.2280181, 0.040818263, 0.2093499, 0.07527799, 0.08693572, 0.062310226, -0.07640438, -0.048618242, 0.071627356, 0.064442456, 0.12545456}, 
{-0.048284538, 0.09780789, -0.015184653, -0.1969182, -0.20812406, -0.15513076, -0.07675539, 0.20747532, -0.1685043, 0.04579673, -0.061195657, 0.1272375, 0.23899332, 0.03840884, 0.18135045, -0.16390724, -0.2771225, 0.085630745, -0.0802843, -0.13105242, -0.18586566, -0.1548122, 0.2973823, 0.13405302, -0.08756662, -0.14018652, 0.14515433, -0.19967413, 0.079922676, -0.11374793, 0.22798313, 0.1861862}, 
{0.19976072, -0.08262312, 0.21237497, -0.103834935, -0.26128304, 0.13677135, -0.13876088, -0.12697598, -0.078456044, -0.107131444, 0.037887663, 0.11783149, 0.015526446, -0.10206829, -0.058236226, 0.07715458, 0.058336753, -0.00027433038, -0.038579553, -0.13776118, -0.006678818, -0.17122604, -0.061148506, 0.024575517, -0.023879211, 0.06532193, 0.15714121, -0.30294225, 0.12761533, -0.064343676, -0.0072213355, 0.12341984}, 
{0.104484, -0.06565944, -0.011700505, -0.07607487, -0.07259082, 0.0012111962, 0.15562512, -0.043603104, -0.1060187, 0.20200534, -0.18195017, -0.023287207, 0.15757516, 0.14638717, 0.06564126, -0.20476918, -0.085809775, 0.13629639, 0.20741086, 0.058258977, -0.098064065, 0.16567717, 0.07632888, -0.18589084, 0.16512391, -0.08128066, 0.108651854, -0.04026545, 0.025752261, -0.13612793, 0.1629004, 0.18608227}, 
{-0.19035885, -0.24922453, 0.16271143, 0.012002582, 0.1321748, -0.056141123, 0.19386455, 0.018537099, 0.14940181, 0.21206963, 0.07166293, 0.08357436, -0.1882367, -0.13857627, 0.11179139, 0.06330252, -0.06002264, 0.12536311, -0.14670137, -0.10118034, -0.17940465, 0.2360773, -0.17556508, -0.086597845, 0.01683639, -0.092793986, 0.09588977, 0.031426333, 0.15789235, 0.102985404, 0.05755654, 0.0048561026}, 
{0.17467593, -0.056265168, 0.06299447, -0.015458116, 0.16147222, 0.048083633, 0.07900129, 0.11271272, -0.1710308, -0.043640736, -0.16672847, 0.14982235, -0.062466223, 0.15362042, -0.08912012, 0.1706453, 0.2270166, 0.075080514, -0.16376863, 0.015809415, 0.10451817, 0.21156313, -0.127195, -0.17200655, -0.23579293, -0.20184793, -0.21750803, -0.16233224, -0.06442043, 0.08931938, -0.109144665, 0.00021161028}, 
{-0.22192813, 0.027715083, -0.067065194, -0.07688939, 0.19560613, -0.03390363, -0.16270672, 0.06397183, -0.18210216, -0.21841848, 0.02740112, 0.042711426, -0.18778405, 0.042181667, -0.02075612, 0.093881816, -0.15727687, -0.0010617524, 0.1907347, 0.040157434, 0.1411413, 0.14676596, -0.05841341, -0.17185259, 0.10200264, -0.09689901, 0.017156476, 0.22505662, 0.05483648, 0.020382654, -0.097804725, -0.18343675}, 
{-0.18435386, 0.15630904, 0.15730543, -0.031019237, 0.23406488, -0.052690715, 0.11305379, 0.08691526, -0.11934176, -0.22144131, -0.14914937, 0.18166149, -0.16268271, 0.033470668, -0.06472978, -0.14534006, 0.13378003, 0.03748128, 0.24319082, -0.15059052, -0.08254284, 0.12695251, -0.08498969, 0.11170319, -0.1888811, -0.046478342, 0.08477073, 0.060744625, 0.05462596, 0.08929448, 0.0008457086, -0.09812751}, 
{-0.050453886, -0.09673406, -0.13292973, 0.054934174, 0.1129726, -0.023459777, 0.2088138, -0.06469949, 0.065945566, 0.07474099, -0.057472333, 0.17646733, 0.1615489, -0.008121606, 0.09148492, -0.18735707, 0.13411637, 0.12770325, -0.11164065, 0.1937462, 0.12000455, 0.048017107, -0.04864315, -0.05303876, 0.07300033, -0.083871305, -0.04795865, 0.25950155, 0.14390504, -0.09075497, -0.082983606, -0.03265217}}