{{-0.10157769, 0.023632575, -0.06502877, 0.061199725, 0.04535094, 0.057682797, -0.1104611, 0.000696823, -0.101643, -0.073576465, -0.094502196, 0.0034907386, 0.09070209, 0.010538429, 0.08921857, 0.0745825, -0.055808134, 0.035323396, 0.062449895, -0.10692857, 0.018765152, 0.07247326, -0.047597922, -0.028029416, -0.08561587, -0.062005773, -0.06528053, 0.07121017, 0.074453555, 0.06399301, 0.012427375, -0.09276943, 0.08180804, -0.104178905, 0.114941776, 0.0039311037, -0.0840614, 0.10119097, 0.09887261, -0.013434283, -0.11334062, 0.0013480783, 0.13200597, 0.043512896, 0.08048482, 0.11300489, -0.08859843, -0.08907493, -0.106679715, 0.06791917, -0.05956135, -0.040162485, -0.0705149, 0.07226296, 0.06131447, -0.108551726, -0.07206032, 0.11278019, -0.02519987, -0.046732552, -0.10309411, 0.009393014, 0.06473705, 0.019811703}, 
{-0.00442159, -0.026526652, 0.07958711, -0.06676608, 0.002372764, 0.021470785, 0.056129865, -0.043150112, 0.09425863, -0.02865845, 0.034124553, 0.0260403, -0.09149849, -0.06419018, 0.035099793, 0.09823686, -0.028788723, 0.0144138485, -0.068058535, -0.007945031, 0.011196375, -0.06069347, 0.0023588538, -0.0999174, -0.01627545, -2.73787e-05, -0.046280265, 0.021909934, -0.09343018, 0.080571696, -0.05484724, 0.09655401, -0.07366842, -0.09924772, 0.100520805, -0.093194544, 0.091510616, -0.071742296, 0.07424197, -0.07857171, -0.10674763, -0.016339108, 0.10680302, -0.0859157, -0.112753086, 0.10416399, 0.023152828, 0.06520438, 0.027713329, 0.07250274, -0.084281735, -0.024087667, -0.027499182, 0.093299136, 0.025034294, -0.040965095, -0.015459985, 0.0038171508, -0.046765406, -0.09946478, 0.038411915, 0.13090658, -0.10744754, 0.050020676}, 
{0.039765112, 0.066628404, -0.005475719, -0.048928432, -0.06612858, -0.06962314, 0.014203157, -0.04659249, -0.054905377, -0.016457856, 0.027529106, -0.06027538, 0.014449939, -0.06998281, -0.051954903, 0.062245533, 0.0865336, -0.043850623, 0.06893198, -0.02155833, 0.09842946, -0.035435207, 0.004682973, -0.08335809, 0.085066944, 0.07239146, 0.02902174, 0.07094781, 0.12672268, -0.04197412, -0.041255653, 0.041578896, 0.06812044, -0.07537018, 0.108981475, -0.06309739, -0.07715903, -0.073288426, -0.043232735, 0.0029153486, 0.0065824464, 0.0034202188, 0.0017816203, 0.06874792, -0.08125265, -0.054685354, -0.10859908, -0.04534861, -0.0111049265, 0.055351682, 0.057474103, -0.038852856, -0.10456039, 0.035767436, -0.003512904, -0.0663943, -0.078478284, 0.12623633, -0.08109524, -0.08535697, 0.02452007, 0.0820298, -0.012534037, -0.06458725}, 
{0.035218164, 0.08426943, -0.114976935, -0.017226204, -0.08819555, 0.06172201, -0.042253036, -0.09268395, 0.051959775, 0.06422658, 0.024622306, 0.08757062, 0.028320685, -0.094585404, -0.0464312, -0.03431148, -0.012409557, -0.050155833, 0.09162633, 0.09186837, 0.10469866, 0.06670378, 0.013987571, -0.12252533, -0.0862918, -0.1096556, 0.07386431, -0.03469204, -0.07763479, -0.09123335, -0.09722735, -0.062319364, 0.059604514, -0.016656779, -0.11273172, 0.014262112, -0.05658945, 0.008235663, -0.06573752, -0.070162155, -0.06319325, 0.10589047, 0.07881544, -0.060860533, 0.086182535, -0.021675803, 0.014610984, -0.06919152, 0.06364092, -0.013595153, 0.0028977427, -0.04581495, -0.1185167, 0.008861022, -0.06788338, 0.047743227, 0.011041023, -0.018072657, -0.026527697, 0.046801437, -0.07530895, 0.07031642, 0.00031466037, -0.09358054}, 
{-0.051144525, -0.02170983, 0.001432936, 0.089556664, -0.017993577, -0.09802094, -0.00038282716, -0.099181324, -0.11094687, 0.109963074, -0.059780106, -0.08486954, 0.07277742, -0.027976647, 0.030052245, -0.025248364, 0.051722735, 0.1052448, 0.06691668, 0.09434755, 0.054077044, 0.054542556, 0.038057968, 0.02272532, -0.08761783, 0.0021232378, 0.10924858, 0.05808894, 0.12120273, -0.042156603, -0.058768403, -0.11045229, 0.085792154, 0.09120771, -0.11331314, -0.020815507, 0.036248002, 0.055921465, -0.016282411, 0.054855663, 0.04447238, 0.106739745, 0.015995018, -0.01027859, -0.09783799, 0.05511689, -0.082818896, 0.1273854, 0.016489416, -0.018603066, 0.04409309, 0.14408436, 0.07589502, -0.059495624, -0.096106835, -0.0070744357, -0.059016097, -0.012040427, -0.02268729, 0.0057500084, 0.030467376, 0.10094673, 0.020709902, 0.06827222}, 
{-0.099617235, 0.02161339, -0.059515167, -0.0060949028, -0.05084531, -0.028638117, -0.040470388, -0.0976969, 0.07775873, -0.09791019, -0.046816237, -0.105013914, 0.060982868, -0.010517955, -0.06949769, 0.016917914, 0.034032628, -0.005712405, 0.006275709, 0.043535262, -0.056334533, -0.02674859, 0.044283822, -0.013421241, 0.035922438, -0.055098172, -0.00465326, 0.022102991, 0.11504005, 0.07209565, -0.025354892, -0.017098939, 0.060655143, -0.07254045, -0.049364828, -0.11682283, -0.014046425, 0.048079938, 0.044207614, -0.008982127, 0.053303167, -0.08602, 0.0030158723, 0.060260907, 0.08835839, -0.013788171, 0.09503433, -0.010039696, 0.07490119, -0.12043108, -0.10769666, -0.07080912, -0.06471473, -0.06438448, -0.097817756, -0.05988889, -0.016675785, 0.13477676, -0.07478348, -0.06880871, 0.091906324, 0.050029203, -0.10928615, -0.015842458}, 
{-0.05390148, 0.026554795, -0.099282295, 0.078292355, 0.026251778, 0.051145434, 0.03702143, -0.055895567, -0.0497173, -0.07402915, -0.10877916, 0.051330253, -0.10593761, -0.09564482, 0.018677205, 0.045428738, -0.09373865, -0.0011451691, -0.02992474, -0.0064122453, -0.07693541, 0.074052975, -0.06015948, -0.053155623, 0.07282926, 0.103231475, -0.024691358, -0.012422193, 0.037807703, -0.062169924, -0.03847622, -0.08474726, -0.08736967, -0.106927894, -0.075026505, 0.036568895, -0.115362406, -0.07582323, 0.044232756, 0.011859699, -0.07903806, -0.070977375, 0.104490764, -0.07473974, 0.10910757, 0.051122144, 0.01708363, 0.09710204, -0.10427436, -0.049911264, -0.03804765, 0.11161061, 0.046696503, -0.0005832762, 0.07261103, 0.053393133, -0.061096054, -0.037992634, 0.04868277, -0.12816823, 0.02375026, 0.099656224, -0.081135936, 0.06531855}, 
{-0.08151817, 0.03492089, 0.08201713, -0.019904517, 0.04004404, -0.038327403, -0.11137062, 0.07491711, 0.08480359, 0.09141761, 0.06376043, -0.024690785, 0.10476738, 0.020422235, -0.09646369, -0.016350277, 0.025970574, -0.098021425, -0.03765761, 0.040912807, -0.049920827, -0.030530892, -0.08291956, 0.0026967574, -0.04498229, -0.05664093, -0.09149526, 0.013694823, 0.07245451, 0.07790863, 0.0354912, -0.09322597, 0.017651772, 0.10543369, -0.056522958, -0.023068683, 0.054411244, 0.009829916, 0.079286635, 0.04104951, -0.004404433, -0.09140308, 0.05227573, -0.00819809, 0.10030763, 0.10811205, -0.06290714, 0.05276528, -0.111342706, -0.050601136, 0.044880964, 0.11566397, -0.078284025, 0.09823519, 0.06431531, 0.068139076, 0.109230414, 0.015098736, -0.030576939, 0.09640603, 0.07234971, 0.025890153, -0.06108518, 0.042499512}, 
{-0.06797439, 0.0024911074, -0.039598048, -0.010964461, -0.08549916, -0.06592657, 0.071912974, -0.039798617, -0.09433038, -0.057939436, 0.0036017075, -0.031381145, -0.06324346, 0.045963496, -0.08564791, -0.112273425, 0.0749996, 0.0898319, -0.054912303, 0.085396975, -0.11140054, -0.04291608, 0.07292074, -0.015679318, 0.07715605, -0.0008811235, -0.06678189, 0.09149646, 0.11506992, -0.058810633, 0.07726325, -0.12305962, 0.0852732, -0.06573313, -0.09933628, -0.122941256, 0.021381903, -0.004085541, -0.05184847, 0.039809186, -0.042216063, 0.09967969, 0.06571992, 0.092821166, -0.011332773, 0.11338627, -0.11820565, 0.09952102, -0.06813881, -0.108207166, -0.013042711, 0.042821396, -0.049283408, -0.022080654, 0.066405006, -0.09693731, -0.045659684, 0.0059542074, 0.043866046, 0.00605196, -0.09676044, 0.11446896, -0.06483364, 0.04205418}, 
{0.0926265, 0.030467512, -0.030156951, 0.10510048, -0.10672263, -0.017446376, -0.07605074, -0.07180002, -0.046322178, -0.08624869, 0.07606976, 0.018913805, -0.027273126, 0.0050079077, 0.06392164, 0.09358728, -0.041336615, -0.112233296, -0.046108034, -0.074667625, 0.041883886, -0.03262928, 0.026105389, -0.123164736, 0.09656355, -0.012821187, 0.08620675, 0.09026251, 0.11338198, 0.056065045, -0.0016932636, 0.092386074, 0.051948085, -0.0077975392, 0.0063041095, 0.072600216, -0.060591795, -0.034850813, -0.09917724, -0.046318, 0.0020020083, -0.046031244, -0.07923084, 0.036591977, -0.066603035, 0.02192472, 0.08925934, -0.05422845, 0.016121477, -0.11432684, 0.02867675, 0.08923289, -0.02137184, 0.11974611, -0.0093052, -0.092998594, -0.053556506, 0.114935234, -0.036090672, -0.10903411, -0.09542448, 0.12475851, -0.05351936, -0.003803164}, 
{-0.10428308, 0.02566122, -0.060672037, 0.008877024, 0.10012725, -0.042372495, -0.03259427, 0.021143526, -0.037513234, 0.06643963, 0.011435032, -0.05706812, 0.062182933, -0.06691156, -0.0038057915, 0.095037594, -0.05136945, -0.10056852, 0.10114896, -0.050647363, 0.10407053, -0.09068666, 0.108140305, -0.09655359, 0.027595371, -0.008762321, 0.07142374, -0.042266417, -0.07244312, -0.04262383, 0.061815515, -0.0019163189, 0.028109172, 0.026713297, -0.035423107, 0.07940017, -0.006843398, 0.053559378, 0.097466454, -0.05573964, -0.019501172, 0.025732636, 0.051336974, -0.020065777, -0.031170048, -0.04475729, 0.044319093, -0.05258847, -0.029001303, -0.054868713, -0.046475813, 0.0715067, -0.02933627, -0.06208288, 0.055760633, -0.09102052, -0.033803195, 0.08760911, -0.06427466, -0.0805355, -0.050130673, 0.12688404, -0.11135296, -0.059178356}, 
{0.09769594, -0.040963672, -0.0561713, 0.09928806, 0.030278295, 0.0017572418, -0.06203332, -0.03269492, 0.04688835, 0.09105916, -0.09710446, 0.07920618, 0.028653681, -0.075535014, -0.036427706, 0.05093597, -0.050374832, 0.037018016, 0.08733444, -0.034783907, 0.07198104, -0.04533068, 0.007606864, -0.008128604, 0.090712816, 0.025433553, -0.08903002, 0.046814173, -0.03606043, -0.07298611, -0.08582339, 0.061449323, 0.09836875, -0.023435816, 0.0962215, -0.085553974, -0.06930809, 0.07696824, 0.10529835, -0.033092786, -0.11121645, -0.009361833, 0.04779709, 0.05842881, 0.052924618, -0.009626798, -0.068033904, 0.09162777, -0.022556253, -0.117989, -0.0037848577, 0.1064, 0.05397593, 0.14318898, -0.11911239, 0.05155517, -0.06387593, 0.038882572, -0.02569598, -0.071212344, 0.036079794, 0.014400535, 0.0902324, -0.09589387}, 
{0.0039460994, -0.011778397, 0.021550797, -0.075362116, 0.102119446, -0.09862567, 0.08218067, 0.08657555, 0.056455545, 0.03739378, 0.05596541, -0.08302806, 0.06682041, -0.099115625, 0.06166712, 0.0041803494, -0.025755914, 0.10620691, 0.13848828, 0.107508436, -0.06091698, -0.049720474, 0.005396962, -0.012796202, -0.02396392, -0.06781685, -0.097006746, 0.059189375, -0.044336215, 0.12991466, -0.09370305, -0.024531595, 0.09791045, -0.10415046, -0.11415857, -0.097329795, -0.07674725, 0.023068532, 0.0095349755, -0.010993079, 0.09960337, -0.075511396, 0.07572746, -0.109306484, -0.045800686, 0.07605179, -0.036449198, 0.022283282, -0.071630895, -0.039873336, -0.10892153, -0.048754036, -0.028698673, 0.09525552, -0.023022396, 0.026112773, -0.00865335, 0.0023001588, -0.0767215, 0.03358257, -0.0473177, -0.005465202, 0.03294608, -0.078667164}, 
{0.08116575, 0.007966063, -0.034395427, 0.03300023, -0.0053110197, -0.06858704, 0.056250773, -0.07793665, -0.05342059, 0.074415, 0.11110158, 0.071168676, 0.04085061, -0.059610114, 0.10574792, -0.027472883, -0.09358305, 0.057430252, 0.0010827443, 0.060482293, 0.026577592, 0.021355346, -0.027972601, -0.11576226, 0.059191808, 0.07722793, 0.02824226, 0.07875931, 0.025569359, 0.12987065, -0.054930445, 0.045510504, -0.049793355, 0.059386387, -0.034710225, -0.11540762, -0.04007904, 0.08472586, -0.004990687, 0.01014525, -0.10136991, -0.031147465, 0.027553264, -0.014972791, 0.019779667, 0.061768726, -0.0759788, 0.10022133, 0.0498098, 0.05779989, 0.0018252543, 0.09772468, 0.08412316, 0.12267408, -0.10733311, -0.10561282, 0.08525543, 0.035468604, 0.096502386, -0.10559596, 0.025336564, -0.048632227, 0.08674671, -0.09529478}, 
{0.044917013, -0.015533354, 0.10038565, -0.021069042, -0.06361977, -0.11054397, -0.06793804, 0.0025034398, 0.017740332, 0.109176815, -0.04214321, 0.097381786, -0.092177555, -0.10329433, -0.105946116, -0.09063002, -0.03962014, -0.09844562, 0.080901094, -0.07401939, 0.023268268, -0.0038874075, 0.02764371, -0.1209248, -0.027900517, 0.0147725465, -0.023601495, 0.076735675, 0.10258882, 0.06471355, 0.104864776, -0.06371121, -0.025022794, -0.078726515, -0.10027693, 0.01862414, 0.037788402, 0.03314966, 0.06514659, -0.004250072, 0.11325039, -0.09614028, 3.0271163e-05, 0.061339244, -0.0017654598, -0.081153855, -0.04669777, 0.080454744, 0.04852897, -0.066999145, -0.0033870435, -0.07242282, -0.043761052, 0.116449215, 0.048849057, 0.060284536, -0.09733903, -0.07235379, -0.04901538, -0.1021577, 0.033104584, 0.08913511, -0.110099524, -0.0012450626}, 
{0.10385838, 0.03943919, 0.010936012, 0.032144934, -0.03720636, -0.04977055, -0.12640624, 0.06829144, -0.02124619, 0.042843536, -0.008972019, 0.10598576, 0.039843187, 0.062132448, -0.07791267, -0.007060483, 0.072188385, -0.03337022, -0.04699835, -0.07245022, 0.010462977, -0.07117385, -0.012906171, 0.062374588, 0.05976674, -0.09882008, 0.11316165, 0.09487858, -0.07153, -0.009356301, -0.054312896, 0.05939369, -0.019086653, 0.06698048, -0.09627686, 0.09667312, 0.096767604, 0.01986976, 0.04446563, 0.014025322, 0.03490664, -0.11353095, 0.01280866, 0.036296904, -0.031528547, 0.016729519, 0.040079895, 0.11076562, -0.07145703, -0.004113265, -0.10091884, -0.014844565, -0.0062516527, 0.12159565, 0.093866765, 0.045591775, -0.10246257, 0.10619423, 0.0072584487, -0.087298214, 0.07011913, -0.016951187, 0.048552334, -0.0156246945}, 
{-0.0003730596, -0.07084811, 0.047471534, 0.037901476, 0.04891658, -0.08186212, 0.03250856, -0.091755725, -0.04607857, -0.060713235, 0.027382493, -0.022636995, -0.047853753, 0.0014713258, -0.088566005, -0.06542611, 0.08286017, -0.025555193, 0.016291983, -0.097454086, 0.09388909, -0.024640739, 0.10486624, -0.03366479, 0.04333681, -0.11142187, 0.105071336, 0.044233512, 0.10913883, -0.06068948, -0.079931825, -0.11271619, 0.05157295, -0.023791082, 0.030395605, 0.10070884, 0.033893865, -0.0028451532, 0.093643665, 0.028953128, -0.016049422, -0.10600043, -0.06682875, -0.10444373, 0.018603235, 0.06988849, 0.07457755, 0.017788513, -0.03019669, -0.12129994, -0.090151496, 0.0702484, -0.12130252, 0.055949196, 0.0829191, -0.04657248, 0.05131702, -0.026114453, 0.021968558, 0.033984896, -0.053412, 0.10761732, -0.02526705, 0.04127573}, 
{0.016064266, -0.032244775, 0.020426184, -0.0051244125, -0.107309595, -0.08104202, 0.08390812, 0.004389435, 0.046331313, -0.09081395, 0.10396114, 0.074741155, -0.049876474, 0.11364286, 0.088195674, -0.08475961, -0.019439187, 0.009055279, 0.06435775, 0.05310884, 0.05468321, -0.10883685, 0.016223341, -0.097589694, 0.08730878, -0.07117437, -0.016116388, 0.03432044, 0.021479838, -0.096232526, 0.029923722, 0.024320953, -0.04092198, -0.07215001, 0.028222926, -0.011364367, -0.009330377, -0.045525476, 0.016179929, 0.10406305, 0.016671255, 0.0064393803, 0.050519034, -0.082725115, 0.10285132, -0.0533754, 0.101671815, 0.0118252495, -0.08503631, 0.08095507, 0.026719844, -0.081007436, -0.014987336, 0.08004705, -0.06044355, 0.0040802, 0.029062763, 0.0020726458, -0.04864907, -0.09753939, -0.033326186, -0.04679273, 0.03029719, 0.081452005}, 
{-0.096009105, 0.0202586, -0.044742823, 0.011292949, 0.010531135, -0.09848628, -0.113272145, 0.034712106, -0.04662446, -0.10268819, -0.06666016, -0.008194834, 0.06623985, 0.09711763, 0.08409605, 0.11172441, 0.0071355514, 0.016481504, 0.077165954, -0.057381533, 0.072952464, -0.09849157, 0.10997091, -0.09460335, -0.052947957, -0.02313626, -0.010890253, -0.047833823, 0.075284235, 0.07570945, 0.020886794, 0.025461296, -0.10268523, 0.099202365, 0.0554276, -0.06544386, -0.03385721, -0.10575401, -0.06927364, 0.13476962, 0.055327952, -0.017649882, 0.032613806, 0.024496049, 0.0117485225, 0.008520961, 0.09402574, -0.041294273, 0.05331874, -0.109107666, -0.08476897, 0.05617677, 0.02048069, -0.052604333, -0.03880376, 0.005773344, 0.029386431, -0.03980579, 0.026436983, 0.026458863, -0.006126836, 0.028939959, -0.10144341, 0.08118967}, 
{-0.02524466, 0.033004608, -0.07439494, -0.07804941, 0.08100398, 0.06304142, -0.06272311, -0.017669998, 0.005388096, -0.10744917, -0.11135496, 0.01823181, -0.06384323, 0.05393271, -0.015823632, -0.07154712, 0.0071576866, -0.005134791, -0.03919538, -0.09891459, -0.036774285, -0.032868817, 0.07046577, -0.0016524388, -0.030540898, 0.029581007, -0.05385796, -0.06286266, -0.0041471543, 0.095829405, 0.07963343, -0.067233, 0.08307427, 0.08084072, -0.0043917075, 0.06880708, 0.053413477, 0.006429076, -0.096057855, -0.03730149, -0.11281956, -0.07879348, 0.06369389, -0.10318718, -0.066213876, 0.06037973, -0.09549201, 0.103967175, 0.05343379, -0.03440095, -0.0063816556, 0.09580477, -0.08716719, 0.031861458, -0.052091543, -0.09119406, 0.064172044, 0.015818108, -0.10138168, 0.0740035, 0.01048971, -0.089549944, -0.04751903, -0.06197102}, 
{0.085644186, -0.046046168, 0.05371049, 0.03225115, 0.10230942, -0.088296354, -0.11284203, 0.081843555, 0.02023288, 0.10242909, -0.06836272, -0.024229534, -0.03513682, 0.05279909, -0.07704282, 0.03219959, -0.021799466, -0.0150193125, 0.11515094, -0.09829726, -0.010834567, -0.018605515, -0.09531904, 0.013914094, 0.02674827, -0.063882686, -0.03366582, 0.046017244, 0.02546452, 0.090683036, -0.029373497, 0.08491079, 0.1055929, 0.09854697, 0.06460301, 0.044006612, -0.0011832542, -0.034507014, -0.07530506, -0.072402954, 0.11281861, 0.027418852, -0.07880751, -0.101815686, -0.10095451, -0.10185795, -0.082799375, 0.016190723, -0.10805197, 0.078599095, 0.065278254, 0.13707338, -0.048341837, 0.063214235, 0.06077639, -0.052510835, 0.11109452, 0.11371037, -0.07428355, -0.028160524, 0.095639154, 0.103306524, 0.0661076, -0.109531775}, 
{-0.09767911, -0.1094513, -0.095211536, 0.095519125, -0.050393082, 0.068324, 0.03557922, -0.024153404, -0.1189055, -0.08887421, 0.07565886, 0.0146665275, -0.016646445, 0.07609932, 0.078700826, 0.0109810755, 0.070303924, -0.09714618, -0.030252345, -0.094130166, -0.090667866, -0.039239332, -0.11289526, -0.027267523, 0.058567077, -0.07592141, -0.0046327114, 0.07831317, 0.0518003, -0.06022137, -0.08025226, 0.09438478, 0.077764206, -0.026036367, -0.059813455, -0.022244694, 0.09680561, -0.053563066, 0.09383745, -0.017980142, -0.0416834, 0.09478469, -0.035853617, -0.03659898, 0.11289345, -0.08970044, -0.079140946, 0.100270584, -0.025181375, 0.06804536, -0.08324564, -0.0121901, 0.009469233, 0.08835109, 0.036264814, 0.0026932608, 0.07938029, 0.11748708, 0.033172492, -0.021088008, -0.10779284, 0.057361692, -0.030352876, -0.04336898}, 
{0.09169227, 0.08899578, 0.012558453, -0.05416752, 0.04105611, -0.023111232, 0.017968757, 0.08796066, 0.038807116, 0.099906266, -0.03165386, 0.0031025559, -0.012296297, 0.0866016, 0.030552564, -0.038333885, -0.022892872, 0.0030412301, 0.10915214, -0.010761745, -0.008085795, 0.077295184, -0.056777645, 0.09676155, 0.100066304, -0.092751496, -0.009955093, -0.08615086, -0.06673776, 0.061578564, -0.08733706, -0.09468999, 0.020719662, 0.07119456, 0.11382434, -0.11477573, -0.057804547, -0.025644928, 0.080432005, -0.04295906, 0.023166373, 0.059393004, 0.13196053, 0.03851147, 0.028581664, 0.06600289, 0.08504844, -0.076966114, -0.0022511631, -0.06888035, 0.10668202, 0.08815134, 0.022895744, -0.055426154, -0.110303886, 0.001954792, 0.066840425, 0.018388415, 0.004084439, 0.07961046, -0.006060168, 0.11603132, -0.06814694, -0.009351753}, 
{0.04597436, 0.05785899, 0.08905848, 0.031945497, 0.05677092, 0.083960995, -0.064511344, -0.08685393, 0.054662917, -0.031389058, 0.061004028, 0.05035618, -0.014753453, -0.07170679, 0.03642629, -0.033778958, 0.07478335, -0.108371995, 0.047429908, 0.0698061, -0.052541632, -0.08307255, 0.06261328, -0.04535533, -0.08316704, 0.10064727, -0.029836126, 0.010106559, -0.07381065, 0.10421817, -0.025158867, 0.028339181, -0.048309114, 0.09203215, 0.058341887, 0.048612982, 0.018132253, 0.10452254, 0.054207046, 0.11387938, 0.11208063, 0.0619905, -0.041414957, -0.0211218, -0.036491103, 0.09705299, 0.07836256, 0.06308112, -0.10717528, -0.0022323832, -0.12274421, -0.011215785, 0.044050235, 0.071948834, -0.06959677, -0.07058418, -0.041851223, -0.037366338, -0.100923926, -0.09412297, 0.046338037, 0.047898773, -0.0025468469, 0.047410328}, 
{0.05497183, 0.02130044, 0.07468657, -0.06862438, -0.03673272, 0.07948798, 0.07673762, 0.08853711, -0.04850005, -0.05139074, 0.06605619, -0.06305756, -0.008544549, 0.060021937, -0.040249977, 0.065169066, -0.020390186, 0.0499748, 0.09380208, -0.05447874, -0.031059437, 0.09305793, 0.09034209, -0.08285517, -0.038937524, -0.098261654, 0.06302792, -0.07912772, -0.041047387, 0.047164768, 0.023595527, -0.07273584, -0.11174947, -0.09148317, 0.06717806, 0.0958259, 0.08297657, 0.010246053, 0.07870704, 0.13883713, 0.10988198, -0.070316605, -0.017378123, 0.064194545, -0.112374984, 0.07923342, -0.013539537, 0.08015815, -0.054931827, 0.04896009, -0.03613467, -0.036926974, -0.11833969, 0.09776644, 0.011953566, 0.010814046, -0.07435441, -0.05668781, -0.020857684, -0.04692375, -0.09320363, -0.07455598, -0.051276546, 0.06171423}, 
{-0.028866053, 0.011442817, -0.086350195, 0.02107355, 0.060962766, -0.10470999, 0.022106787, 0.103395164, 0.023379037, 0.025980815, -0.029325262, 0.055142105, 0.07320009, -0.061703734, 0.029287199, 0.021697357, 0.033459257, -0.037832968, 0.050673857, -0.08490286, -0.09788413, -0.009648785, 0.03013359, -0.05308104, 0.049459353, -0.059754677, -0.055894457, 0.03600886, 0.12224309, 0.060774963, -0.08376054, 0.07666723, -0.029993424, -0.05395285, -0.11722348, -0.028747829, 0.08328054, -0.09157129, -0.030349787, -0.050549738, -0.029666923, -0.058304496, 0.020042533, -0.093539216, 0.05481991, 0.0065709576, -0.08820379, -0.02887464, 0.008912213, -0.035016287, -0.03426982, -0.002576224, 0.101830624, -0.053296145, -0.11420432, 0.052936055, 0.042798474, 0.031850245, 0.008437691, 0.06530467, -0.040847003, 0.01985969, -0.0099111125, -0.051918264}, 
{0.012289709, -0.07682615, -0.05511163, -0.060174987, 0.08700141, -0.012414202, -0.03885746, -0.03957969, -0.08980542, -0.011224054, -0.051046804, -0.012222059, 0.099125475, 0.084270075, 0.008143303, 0.05732438, 0.028969616, 0.08814806, 0.11966341, -0.026412547, 0.08913918, 0.027884573, 0.057896703, 0.054891348, -0.022404566, 0.03272436, -0.10444484, 0.06777636, 0.01655394, 0.019953515, -0.09913699, 0.03774489, 0.07022188, -0.0844001, -0.07668416, 0.036383804, 0.04950692, -0.104330756, -0.0041464916, 0.08088636, 0.04111348, -0.020532392, 0.09615555, -0.06889522, -0.06452414, 0.06862971, 0.08390732, -0.012575488, 0.08836305, -0.020270988, -0.012245941, 0.08167216, -0.039744627, 0.13999307, -0.055003524, 0.07626769, -0.010878161, 0.059247606, 0.025777008, -0.065399736, 0.078427345, 0.106327765, 0.04176891, 0.10317012}, 
{0.046646204, 0.07594609, 0.068800405, -0.014293589, -0.004425958, -0.09942603, 0.010479352, 0.056416065, 0.034842595, -0.03966374, -0.008422956, 0.0043120906, 0.042936385, -0.043533772, -0.051835958, 0.06278999, 0.10235491, 0.008606151, 0.08384588, -0.050612472, 0.041852444, -0.049247563, 0.009471931, -0.05100698, -0.076196, 0.056380577, 0.049083963, 0.024382696, 0.12363837, -0.03119381, 0.01707533, 0.016907418, 0.09024884, 0.09344885, 0.054519873, 0.03783365, -0.027803995, 0.103336975, 0.06993175, 0.10096258, -0.066783875, -0.089221165, 0.09787632, 0.0924609, -0.047722884, -0.097015634, 0.08295934, 0.05497527, -0.006872602, 0.0029536504, -0.056486316, 0.0977795, 0.068606935, 0.09137035, -0.1322144, 0.075688444, 0.08793126, -0.002392664, 0.025151325, -0.075041845, -0.037006006, -0.06585961, 0.043387502, -0.04102285}, 
{0.083604276, -0.034529008, 0.0908094, 0.041262403, 0.09883042, -0.0660726, 0.03370909, -0.031750157, 0.060432423, -0.06909918, -0.04918751, 0.003950417, 0.01085642, 0.04999481, -0.025394851, 0.06483351, 0.040122844, -0.015922077, 0.04670703, 0.014912114, -0.0722307, 0.07433131, -0.091373235, 0.042295944, -0.10340776, 0.0052526346, -0.024081834, -0.027286837, -0.01780031, -0.011848438, -0.00013775378, -0.036492202, -0.046260543, -0.025562398, -0.05675765, 0.060923934, -0.023122065, 0.10174826, -0.09783693, 0.04696686, -0.051784188, -0.070008345, 0.12523076, 0.107135, -0.0888208, -0.05910909, -0.05053297, 0.12642798, 0.10636903, 0.05302121, -0.09740369, -0.016499724, -0.047630027, -0.026156625, -0.04903832, -0.07582741, 0.06611724, 0.0274718, 0.100677766, 0.00021485634, 0.032993034, 0.07541614, -0.015372574, -0.054338317}, 
{-0.031190652, 0.09292801, -0.08568277, -0.025534771, -0.02684804, -0.05477653, -0.059989486, 0.028602034, 0.017219841, -0.010057546, -0.02366057, -0.02930525, -0.06913069, -0.09327319, -0.019005753, -0.036960676, -0.043036662, 0.08582388, 0.035881367, 0.0057324693, -0.06359054, -0.07073724, 0.070408404, -0.12650652, -0.046718173, -0.09927731, -0.026139744, -0.0015453245, 0.0802317, -0.019907622, -0.044146225, 0.07998058, 0.058661755, 0.02208142, 0.030062731, 0.084440626, 0.026275761, -0.06491102, 0.04453922, -0.029482633, 0.08577885, -0.014721654, 0.0916615, -0.090150304, 0.019605309, 0.049865484, 0.085020304, -0.087652445, -0.03881926, 0.014614016, 0.032325353, 0.035101403, -0.021526666, 0.0987987, -0.09151024, -0.0902581, 0.08525802, -0.013412985, -0.031933848, 0.033951472, 0.07581085, 0.06283794, 0.07747048, -0.058301277}, 
{0.09971458, -0.016703958, -0.10244236, 0.046363205, -0.055210456, -0.051315587, 0.05284013, -0.04534071, 0.08174086, -0.05246564, -0.08015634, 0.07215212, -0.090805486, 0.020336032, 0.07237379, 0.07970065, 0.0044494774, 0.03675051, 0.13333784, -0.10548314, -0.07258195, -0.050500587, 0.02232711, 0.06888193, 0.021687597, -0.08054892, -0.09478546, -0.0332736, 0.0034391354, -0.036086485, -0.028894104, -0.0024125848, 0.013474305, 0.0061905757, -0.061489895, -0.07644856, 0.034626685, 0.06581107, 0.03887363, 0.0856002, -0.005024798, 0.04227744, -0.0031847197, -0.09706834, 0.046983734, 0.103814006, 0.08036156, 0.0021826532, -0.06559372, 0.072525024, -0.0058345944, 0.08175121, -0.03066389, 0.046849057, -0.06515124, -0.022085553, 0.10239886, 0.092342675, 0.012484982, -0.10548266, -0.05380634, -0.06828644, -0.06325491, 0.09452583}, 
{-0.053072836, -0.10242893, 0.058857843, 0.10132404, 0.07918726, -0.10933682, -0.018407628, 0.0042153, -0.03408283, -0.051589306, 0.104013145, -0.05335512, 0.00864622, -0.055498164, -0.032837022, -0.057752177, -0.028277587, 0.02672021, -0.011284646, 0.07799041, -0.015934847, -0.009749316, -0.10852973, -0.12714486, -0.002701573, 0.009573194, 0.062335163, 0.041062307, 0.123649836, -0.046446413, -0.11077548, -0.08377364, -0.0719378, -0.038966477, 0.017231518, -0.095014215, -0.080798365, -0.0199024, -0.016048487, 0.004178457, -0.03557069, -0.089659445, 0.14247085, 0.0036320165, 0.044165283, -0.0369799, 0.017941276, -0.0013838869, 0.014679283, -0.08663638, 0.053709514, 0.023034904, -0.11022931, -0.0039220816, 0.005466876, 0.0052805394, -0.08690946, -0.08093622, 0.068736434, -0.08231457, 0.068647474, 0.014508584, -0.09625171, 0.061982512}, 
{0.091685146, -0.03883598, -0.076011665, -0.09712869, -0.06957282, -0.039281845, -0.054481994, 0.045320764, 0.049268834, 0.0868735, -0.009943947, 0.086042345, 0.06181015, 0.083028466, 0.04370963, 0.008012213, -0.008982363, -0.041952804, -0.04230863, 0.10083565, 0.063853204, 0.035908982, 0.07493226, -0.08190159, 0.054502055, -0.0061099664, -0.07008691, 0.028978577, 0.10611947, 0.0024061357, 0.081915945, -0.09503556, 0.0456996, -0.047554843, 0.104537345, -0.0300964, 0.10122423, -0.017764345, 0.09975767, 0.044747304, -0.07011509, -0.083895504, 0.010397859, -0.044283114, -0.050994016, 0.057847664, 0.065019906, -0.038090315, 0.059081107, -0.10978334, 0.034085635, 0.0912022, 0.086451404, 0.11251885, -0.050621018, -0.02023875, -0.0043969452, 0.11746576, -0.052183144, -0.08703855, 0.056726024, 0.12072239, 0.07821183, 0.06316034}, 
{-0.049266506, -0.1096339, -0.046403505, -0.09245523, 0.060443968, -0.0073737577, 0.008052375, 0.028353274, -0.012251506, -0.10052015, -0.07679281, 0.01019153, -0.07393615, 0.07445414, -0.03802078, 0.000960432, 0.00025615492, -0.09220426, 0.11519815, 0.09951976, 0.10053153, 0.06484273, 0.010932632, 0.060029183, 9.095669e-05, -0.08354965, -0.08616066, -0.09244868, 0.13449687, 0.00940193, 0.100779116, -0.026175171, 0.01271008, 0.042065352, -0.052935284, -0.017440958, 0.10132035, -0.1011746, -0.06985363, 0.032127097, 0.037891805, 0.07841107, 0.13145474, -0.008991405, 0.1118215, 0.072257936, -0.0738969, -0.06676231, -0.106685676, -0.026289662, -0.021344038, 0.06668404, -0.091111906, -0.0016225537, -0.121318676, -0.050956614, 0.08389254, 0.12909159, -0.10815992, -0.096196435, 0.10046446, 0.04065378, -0.037801087, -0.04618655}, 
{-0.0029637162, 0.062548235, -0.056407318, -0.049648598, -0.0047260597, -0.065318674, 0.077241026, -0.08438164, -0.031672586, -0.012395278, 0.09117919, -0.08313697, -0.08181405, 0.05758959, -0.027383018, 0.077139854, -0.014116366, -0.001633808, -0.044340946, -0.09885151, -0.10315373, 0.0775917, 0.018176302, -0.099658236, 0.014315248, 0.02335582, -0.06416683, -0.016735144, 0.054751184, -0.01758984, -0.03231804, -0.03576412, 0.060323413, 0.10491195, -0.046020374, -0.07811322, -0.06669771, 0.013922721, -0.037996195, -0.033354316, 0.046663165, -0.07863521, -0.013005405, -0.094974965, 0.049834743, 0.0761576, 0.07003887, -0.08861181, 0.030522928, 0.058084704, 0.08665222, 0.055789087, 0.07488946, -0.03838379, -0.07233717, 0.08234631, 0.036942244, -0.01570575, 0.06776831, -0.07800487, 0.06680721, -0.073052555, -0.07813007, 0.09490657}, 
{-0.002328185, -0.042462535, 0.040030066, -0.03449752, 0.015298098, 0.0855055, -0.035451066, -0.10569447, 0.10400373, -0.112268925, -0.107503176, -0.023479976, 0.08781013, 0.10424988, 0.07158596, -0.044972613, 0.065954186, -0.013979174, 0.050714076, -0.04110443, -0.086280465, 0.08321868, 0.092116416, -0.06340894, -0.110788405, -0.08991385, -0.04661239, 0.067471474, -0.03757662, 0.069533326, 0.016025424, 0.031818304, 0.015944408, -0.059342686, 0.06925227, -0.085470244, -0.006350861, 0.09559834, 0.036297828, -0.0077673416, 0.088154376, -0.0691739, -0.0686926, 0.009757854, 0.0066837147, -0.05989259, -0.03226675, 0.04800652, 0.07182801, 0.08359878, 0.040102355, 0.06162143, -0.040694788, -0.022555318, 0.07124555, -0.04998654, -0.0054876283, -0.011537039, -0.06808117, -0.102794275, -0.09285375, 0.028670229, -0.011776783, -0.059179135}, 
{0.008857397, 0.0907838, -0.008491952, -0.020043135, -0.03759268, 0.066093504, 0.046619903, -0.017163254, -0.06763348, 0.04289505, 0.07425897, 0.03203264, -0.094831385, -0.081815496, 0.09432129, -0.09382798, -0.09275371, -0.025483318, 0.03583165, 0.000481911, -0.0042979643, 0.11307441, 0.085494846, -0.054159213, 0.075659424, 0.10730609, -0.091451585, -0.01834536, 0.08364839, 0.12678903, -0.09444675, -0.0919416, -0.10502871, -0.09326682, 0.091484584, 0.007332411, 0.07680258, 0.10057974, 0.01291618, -0.012823263, 0.026603267, 0.03702244, 0.047374107, 0.044366315, 0.10091576, -0.016615868, -0.078355916, 0.108925365, -0.027728572, -0.05385495, -0.08544179, 0.004553201, -0.0672015, 0.028633373, -0.11070756, -0.03957896, 0.047858298, -0.0012957131, 0.035594244, -0.06275872, -0.08371794, -0.026469307, 0.099848405, -0.0016984713}, 
{-0.0075008096, 0.0464728, 0.05617855, -0.08127336, -0.047949076, -0.09252879, -0.06814016, -0.07212284, -0.08154685, -0.09978811, -0.050302915, -0.095912896, -0.011738338, 0.0083701685, 0.08249926, -0.072996326, -0.061190575, 0.015935168, -0.07518245, -0.1108621, 0.062100053, -0.112560675, -0.07975264, 0.02835821, -0.067446485, -0.069464296, -0.0892743, -0.00064103096, -0.056685377, 0.048752207, 0.0672458, 0.03221572, -0.05128286, 0.049876064, -0.003786604, 0.0421738, -0.03787725, -0.034363784, 0.019447003, 0.12715943, 0.11021671, -0.08438652, 0.10328818, -0.06522923, -0.07518928, -0.01740826, -0.08204021, 0.002051555, -0.06226641, 0.06467516, 0.0073310537, 0.088910386, 0.02542096, 0.029324323, 0.021461543, 0.0756818, -0.021294773, -0.0407748, -0.11627572, -0.029391432, 0.022546276, 0.02857997, -0.089419454, -0.10766611}, 
{-0.017225878, 0.05146468, -0.11621415, -0.09557305, 0.09325585, 0.013597846, -0.024903268, 0.029713824, -0.104631715, 0.067716464, 0.008616209, 0.10259406, -0.03533858, -0.016932338, 0.05988817, -0.05355591, 0.045908727, -0.06402604, -0.040732574, -0.051792048, -0.0032461658, 0.10548422, -0.087455, -0.095526725, -0.08041316, 0.0053638425, -0.044303797, 0.016291425, -0.062573336, -0.026884334, -0.0028570294, -0.053888272, -0.012285603, 0.08208129, -0.008624623, -0.041062817, -0.01979781, -0.08668562, 0.039300486, 0.12642737, 0.05137089, 0.034048468, -0.0712445, -0.09419759, -0.01972498, 0.09181239, -0.05579764, -0.05418906, 0.023303583, -0.046966456, -0.081710204, -0.0072098966, -0.008244847, 0.0024485576, 0.09367124, -0.1212869, -0.026978388, 0.08944839, -0.10966752, 0.032314904, 0.016737849, 0.03112973, 0.0019081235, 0.07618978}, 
{0.0016615165, 0.013547106, 0.09851015, 0.041941226, 0.09205812, 0.10187994, -0.061798617, -0.009338871, -0.03773258, 0.09549841, -0.05803449, -0.03902507, 0.057833627, 0.094302565, -0.059782457, 0.0363075, 0.008620081, -0.08872819, 0.088694334, -0.0042674392, 0.038229614, -0.031069383, -0.10303897, -0.0017354041, -0.06466536, 0.08030569, -0.02392678, 0.018402517, -0.06267277, -0.02703786, 0.10486391, -0.1014089, -0.02934557, 0.07066049, 0.07431301, -0.055575658, -0.09741668, -0.0950993, -0.110415556, -0.005795639, 0.09786302, 0.04451956, 0.076028004, -0.031397276, 0.051585212, 0.051778704, 0.056453917, -0.077900745, 0.106372535, 0.095700815, -0.04040468, 0.11924319, -0.0020662972, 0.11814619, 0.07875381, 0.08353517, 0.02322559, 0.036247354, -0.09020751, -0.06853085, -0.07403812, 0.048382264, 0.037344635, -0.070457734}, 
{0.056020822, 0.020576948, 0.087542616, 0.04938321, -0.09242424, 0.042845026, 0.0663464, 0.049687862, -0.072032, 0.07542001, -0.109284796, -0.06959169, 0.0021026507, -0.09470556, -0.04651605, 0.016530842, -0.011239804, -0.0800025, -0.0571814, 0.008819327, -0.10641662, -0.005544588, -0.033290267, 0.04340565, -0.065522656, 0.022629807, -0.06232478, 0.09914263, -0.06263649, 0.079482876, -0.0071172267, -0.08582209, -0.023988744, 0.039968476, -0.0810508, -0.033802155, -0.058588706, 0.059726834, -0.06610089, 0.008218618, -0.09125145, 0.03758341, 0.05601215, 0.06510088, -0.013190329, 0.00093396753, 0.03583135, 0.08115026, 0.076643094, 0.060430344, 0.0355741, -0.039512552, 0.007667904, -0.05545336, -0.062764145, -0.020278443, 0.02208443, 0.0637027, 0.003458138, -0.041706853, 0.021807894, -0.05155034, 0.08133817, -0.1106944}, 
{-0.011730019, 0.06052246, -0.0189938, 0.066546455, -0.09352433, -0.095532686, 0.08463176, -0.06882326, -0.02207417, -0.016994886, 0.10834578, -0.07642612, -0.07076897, -0.052875053, -0.06980996, 0.10338704, 0.027845116, -0.06401953, -0.04729101, 0.08167307, -0.09718926, -0.09471936, 0.067634776, 0.019168427, -0.11007106, 0.109108225, -0.08076643, -0.1094315, -0.09218971, -0.040313862, 0.10405551, 0.10226401, -0.03333731, -0.09097358, -0.057623878, -0.118383944, -0.108239666, -0.032864153, -0.0774711, 0.036806975, -0.0012835786, 0.056207, 0.117325865, 0.060645625, -0.016988896, -0.029279575, 0.030205294, 0.06831264, -0.064608425, 0.108115844, -0.06396899, 0.08879915, -0.069785796, 0.00849345, -0.058763932, 0.06114625, 0.08318211, -0.03636778, -0.037285194, 0.024632711, -0.03626558, 0.094441615, 0.086793065, -0.10115991}, 
{0.0891708, 0.047240313, 0.069039345, -0.062396955, 0.046052143, 0.06763783, -0.0782254, 0.09524782, 0.08173302, -0.08842706, 0.0030031651, -0.0685531, -0.10824888, 0.06945844, -0.0011119234, -0.09933225, 0.033017002, -0.093649015, 0.12902743, 0.07774307, 0.11311033, 0.07765257, 0.037583053, 0.068384424, 0.10999474, 0.07940434, -0.11251377, -0.025172336, 0.05267422, -0.008857597, -0.06706865, -0.10056473, 0.012464916, -0.10997606, 0.006280053, 0.080358095, 0.021632308, 0.10248892, 0.012568093, 0.05259576, 0.038633987, 0.070675075, 0.044553638, 0.034242645, 0.004808478, 0.111453086, -0.03127546, -0.013325569, 0.0656047, 0.0052555148, 0.027787093, 0.11975858, -0.0060256594, 0.11975402, -0.03871429, 0.02931806, 0.04529454, -0.07819713, 0.07841605, -0.0752106, 0.052693516, 0.11800202, 0.028953284, -0.009437818}, 
{-0.075966395, -0.0047674733, -0.11653048, -0.087403506, 0.08133963, -0.105470315, 0.021451179, 0.05053921, -0.008626197, 0.041304022, 0.10917407, -0.018491559, 0.10802464, 0.022225872, -0.022766715, -0.0017504394, -0.015660211, -0.06104774, -0.033338293, 0.09033097, -0.038201742, -0.08009856, 0.05088608, -0.086506076, 0.10271105, 0.01616768, 0.077203766, -0.11667595, 0.11235657, 0.061894514, 0.10842104, 0.10070522, -0.106201395, 0.005405098, 0.05941889, -0.0069139437, -0.10230347, -0.1093834, 0.071032666, 0.10977037, -0.076196074, 0.038722232, 0.10094863, 0.05577579, 0.06203431, -0.006905377, -0.07918793, -0.073415235, -0.041249394, 0.07250328, 0.029333781, 0.056642577, -0.020437218, 0.08001712, -0.080838025, 0.08134386, 0.03178823, 0.000633079, 0.10562707, 0.07323498, 0.045164153, -0.029167531, 0.073728174, -0.018054174}, 
{-0.05551431, 0.06763079, -0.111895435, -0.066268235, -0.01827266, 0.09536424, -0.13619377, 0.0446136, 0.024754139, -0.016047388, 0.020683348, -0.052979026, -0.06692201, -0.027254656, -0.1154423, -0.027630538, 0.0028250255, 0.024807453, -0.027922066, 0.047332585, 0.052225813, -0.014536314, -0.102671325, -0.15663818, -0.07064463, -0.004701822, -0.0008460507, -0.043897692, 0.13908418, -0.07974909, -0.016477674, -0.070908286, -0.14106688, 0.040857166, -0.02661069, -0.064408466, -0.11300899, -0.08389526, 0.038517218, 0.12074317, 0.011930615, 0.02531305, 0.1608047, -0.09987649, -0.1117778, 0.0942689, -0.0892005, 0.0385739, 0.044559404, -0.12258434, 0.0061855465, 0.06597275, -0.047738608, 0.06625453, 0.05432999, -0.08701982, -0.1017302, 0.10746058, 0.0162217, -0.014758966, 0.032757387, -0.05206491, 0.06815407, 0.08193328}, 
{-0.07421815, -0.098388605, -0.011489827, -0.038935326, -0.09591756, 0.05116284, -0.12816267, -0.005500585, 0.039414003, 0.090780795, -0.062521614, -0.11367472, -0.06220007, 0.08813591, 0.029245984, -0.068636574, 0.08541895, -0.08648098, 0.13753922, -0.05847096, -0.07701756, 0.031946257, 0.10002102, -0.0099372165, -0.069566935, -0.0805604, 0.08340964, 0.028307697, 0.1506334, -0.0841695, -0.105389304, -0.040739067, -0.047304064, 0.0124141425, 0.023885211, 0.02797464, -0.09981588, 0.10287307, -0.08198096, 0.152696, 0.03366655, -0.0033192337, 0.10652753, 0.08418134, 0.04123351, 0.06809676, 0.07178147, 0.11149609, 0.108329624, -0.034498923, -0.0025534676, 0.15642376, -0.07490198, -0.039256137, -0.13435411, -0.12750104, 0.05549261, 0.12298544, -0.084428675, -0.03265741, 0.007617198, -0.041703094, -0.051805902, -0.08025602}, 
{0.10427889, 0.08406243, 0.08662242, 0.023199022, -0.026128925, 0.010999188, -0.14295362, -0.082097806, 0.014271977, 0.10798934, 0.007308066, -0.031015001, 0.09409219, -0.02691476, -0.044901513, 0.055594414, -0.017780432, -0.01981014, -0.026699463, -0.08237375, 0.018511817, -0.010545991, -0.089827, 0.025945216, 0.04254265, -0.084437154, -0.033778682, 0.10173834, 0.12612051, 0.05451539, 0.04749818, 0.04245742, -0.13850465, 0.0075571984, -0.116059504, -0.111357726, -0.092665605, 0.06762648, 0.015542706, 0.12794513, 0.059516817, 0.03267762, -0.046628807, -0.038798578, -0.09283919, -0.07817891, -0.0019167275, 0.15351711, 0.07179186, -0.0010950293, 0.036309574, 0.10128789, -0.10668063, 0.026423953, -0.12938258, -0.1352789, -0.05758281, -0.01354402, -0.01814299, 0.03509273, 0.0048693717, 0.12246574, -0.09329789, 0.008448238}, 
{0.014797654, -0.006172962, -0.08745376, -0.09661829, 0.08828312, -0.0016188398, 0.021389745, -0.064866886, -0.11268552, -0.06697056, -0.10735214, -0.026804551, 0.10004653, 0.105406, -0.06555972, -0.02175077, 0.028101567, 0.105459005, -0.015750822, -0.10825135, -0.05761732, -0.04423461, -0.05930961, -0.105860285, 0.018732145, 0.01631104, 0.048372477, 0.032258965, 0.09342799, -0.023966616, -0.102603115, -0.06663163, -0.0194709, 0.0024586245, 0.080137976, 0.08446801, -0.0675065, 0.1090236, -0.022218643, 0.085467346, -0.079623565, -0.010216147, 0.020592343, -0.08881866, -0.029876985, -0.10620504, 0.015255855, 0.011680534, 0.039764002, 0.041903336, 0.07109858, -0.028813148, -0.02650863, 0.025501594, -0.022380609, -0.09724612, 0.046384543, 0.098121464, 0.048086394, 0.066347584, -0.023696981, 0.10313479, -0.060199685, -0.10529871}, 
{0.05003253, -0.073020294, -0.07486565, -0.0262127, -0.035636455, -0.040614627, -0.03597193, -0.03139323, 0.006563952, 0.016037896, 0.034097493, 0.03626515, -0.0014693737, -0.051035576, 0.0506176, 0.039207473, 0.06879922, -0.09572588, -0.032474928, 0.112862214, -0.061438933, -0.04670684, 0.022257075, -0.08005867, -0.09069614, 0.07137799, 0.010610051, -0.0031660302, -0.049882524, -0.026372662, 0.08178797, 0.043033037, 0.022940433, -0.06247742, -0.021996317, 0.050755423, 0.09698864, -0.012198396, 0.0073394882, 0.11288186, 0.014705852, 0.069216326, 0.076235145, 0.04527028, 0.08333622, 0.1112688, -0.04577376, 0.08025215, -0.10240263, -0.11283407, 0.065838866, 0.1127627, -0.027290037, 0.15454017, -0.027457679, -0.1360695, 0.059439823, 0.1232006, 0.032110397, -0.10190041, -0.0010191053, 0.09415968, 0.09356442, -0.008862362}, 
{-0.06378615, 0.018649423, 0.034913212, -0.03697887, 0.00039873272, -0.09515374, 0.08491968, 0.10870539, -0.06989278, -0.08869246, -0.09737924, 0.026932895, -0.044529855, -0.10402881, -0.021634765, 0.013835996, -0.009893835, -0.10590033, 0.028803112, 0.045837075, -0.0024271458, -0.025844306, 0.063175514, 0.050136916, 0.06364113, 0.105721615, 0.06516139, -0.034770776, 0.10756261, 0.094390094, 0.07128441, -0.10036618, 0.0015506552, 0.048494533, 0.022791611, 0.026862541, -0.061727032, -0.102469295, 0.044820108, -0.050188914, 0.0217506, -0.017800868, -0.035689496, -0.085023485, 0.041706577, -0.066187546, -0.09261848, -0.03922779, -0.09312359, -0.04181056, -0.062617555, 0.11227651, 0.06958999, -0.062165912, 0.08632387, 0.095716804, -0.09627568, 0.083810985, 0.02119013, -0.023210026, 0.06509413, -0.0015535818, -0.054601714, -0.11220269}, 
{0.026243001, -0.031236317, -0.09855607, -0.018662259, 0.043281734, -0.11316573, 0.09827803, 0.07581122, 0.032586694, -0.06779787, 0.05759561, -0.084418625, -0.017706111, -0.050544858, -0.081733994, 0.025078788, 0.08534277, -0.057659075, 0.109338716, 0.020564139, -0.08936493, 0.059469238, -0.031341366, -0.05951265, 0.11332595, 0.109159335, -0.022724047, 0.040474977, -0.067226805, 0.08456463, -0.000813894, 0.097037144, 0.0714644, -0.10891694, -0.025663486, 0.06426182, 0.10284345, -0.057049524, -0.09418073, 0.08156455, -0.09070203, -0.06440961, 0.024721334, -0.015758865, -0.024254046, -0.09383015, -0.046659775, 0.04114304, -0.0055538863, -0.10646161, 0.045656864, 0.09487681, 0.03151237, -0.018966291, 0.05406704, 0.055139717, -0.073030055, 0.008963256, -0.06910768, -0.03364853, 0.0630651, 0.09621052, -0.094594724, 0.021099977}, 
{0.053813092, 0.029582534, -0.10074977, 0.05826749, -0.018195532, 0.09176998, -0.05669844, 0.09401022, 0.016223328, 0.020114869, -0.009462118, 0.056719676, -0.10655917, -0.09438656, -0.06439535, 0.020714313, 0.047978144, -0.01071804, -0.06839851, 0.04784803, -0.08948238, 0.037569955, -0.00723657, 0.062472764, 0.081063986, 0.08500265, -0.006623119, -0.09890069, 0.08582138, -0.09379008, -0.052378584, -0.06887363, 0.0018176335, 0.05070962, 0.085165635, 0.104411125, -0.109835565, -0.06518206, -0.033832297, -0.04600924, -0.082177356, 0.099911824, 0.040153436, 0.08369842, -0.04086031, 0.11031984, -0.11865339, -0.061846558, 0.024616644, 0.06479889, 0.0825664, -0.07615978, 0.093706064, 0.10444323, 0.03978154, -0.0837306, 0.020321906, -0.0041995454, -0.036104586, 0.047892883, 0.05941014, -0.023589632, 0.02386561, 0.08288792}, 
{-0.021009443, 0.056557056, -0.10648773, 0.058468953, -0.05081562, -0.027621046, 0.014443173, -0.10193755, 0.063441075, 0.04695964, 0.05121264, -0.03804536, -0.08458441, 0.056836024, 0.085694715, -0.067163184, -0.026606768, 0.010835759, -0.015917506, 0.06547627, -0.08880161, 0.04256843, -0.09842219, 0.05317462, -0.08920562, 0.0007390725, -0.10322951, 0.07235896, -0.08169421, 0.03356036, -0.010785796, -0.054120407, 0.07873239, -0.048190966, 0.05586317, 0.0715766, -0.06121223, 0.060499027, 0.00024812916, 0.08927741, 0.06790748, 0.009278245, -0.08531783, 0.03341633, -0.03682615, 0.026087344, 0.101575844, 0.028105116, -0.061829045, 0.08183806, -0.06575568, -0.022501875, -0.09859343, 0.058306538, -0.046458203, -0.0935945, -0.065625146, -0.065305516, -0.038250647, 0.10554164, -0.020026162, -0.04450308, -0.06771329, 0.078376055}, 
{-0.0025726801, -0.007218965, 0.05004573, -0.001654923, -0.0023624077, -0.07076219, 0.061156772, 0.05986905, 0.09663786, 0.043185174, 0.013486743, 0.04580167, -0.054904092, 0.07114105, -0.07262487, 0.05004552, -0.071457885, -0.009388514, 0.0989287, -0.0036493987, -0.0355831, 0.020218447, 0.013783053, 0.08899835, 0.01033517, 0.085388884, -0.084974006, 0.07492772, -0.05654438, 0.108368404, -0.086321376, -0.0043181954, 0.0807061, 0.03402315, -0.035254005, 0.09349841, 0.050154526, 0.10588372, -0.00781562, 0.11709538, 0.11363533, -0.022972696, 0.053930853, 0.0044283196, 0.097806886, 0.085364625, -0.054728907, 0.03774936, -0.059978887, -0.0005291453, -0.08317204, 0.035137974, -0.070095986, 0.109134056, -0.030240657, 0.07796199, -0.10082632, -0.06365663, -0.09287022, 0.08599299, 0.09511064, -0.07619932, 0.045816705, -0.061651643}, 
{-0.10733757, -0.0020547032, 0.062197465, 0.080977306, -0.11156047, -0.013603486, 0.067994475, 0.047118187, 0.101990946, -0.08103283, -0.07962972, 0.059389696, -0.075299464, -0.08938706, 0.002831893, 0.06317145, -0.0041982504, -0.06295567, 0.08851323, -0.010109842, -0.041115083, -0.108857594, -0.059166376, -0.107600346, -0.0013452545, -0.09521691, 0.04305446, -0.03520999, 0.021718035, 0.024759948, -0.030700289, -0.09783811, 0.011220018, -0.009085432, -0.003111134, 0.07356278, -0.049981404, 0.08914687, 0.0078370925, -0.0024599247, -0.096192904, -0.016124599, 0.100612424, 0.06707908, -0.1072701, -0.008160025, 0.042682618, 0.052362666, -0.03995218, 0.029741812, -0.07060683, 0.05085855, 0.048469447, 0.12797068, 0.094862305, -0.0014424699, 0.065362886, -0.03160501, 0.010759613, -0.06995182, 0.0298229, -0.04071891, 0.0038168654, -0.065725744}, 
{-0.006371852, -0.025784396, -0.044632073, 0.034686595, 0.068576634, 0.09063916, -0.11270191, -0.000731796, 0.0818934, 0.0043651983, -0.043815844, 0.051575094, 0.036860958, 0.0011239946, 0.06711887, 0.018444762, 0.1004254, 0.028664678, 0.046341863, -0.06332366, 0.09010318, -0.009882785, 0.05677642, -0.07811096, -0.10659398, -0.037714366, 0.0780777, -0.020335527, -0.013221941, 0.09182643, 0.09870711, -0.05571609, 0.0026127012, -0.0073709637, 0.077374175, -0.104654424, -0.094612986, -0.07067028, -0.0363662, -0.0269758, -0.03847204, -0.034106113, 0.017591804, 0.00019843131, -0.028058223, -0.025595613, -0.015796704, 0.079270385, 0.014124051, -0.043573666, -0.039044727, 0.09632281, -0.090488665, -0.026701566, 0.031041369, -0.067403555, -0.065791905, 0.114317276, 0.064620025, -0.058562282, 0.01077541, 0.005068908, -0.033702232, -0.0012385573}, 
{-0.085259505, 0.062365137, 0.083930075, 0.046384975, 0.015439376, -0.087924376, -0.033017877, 0.04251404, 0.014317442, 0.07230385, 0.02856125, -0.07386677, 0.10293074, 0.009660631, 0.035865612, -0.01641494, -0.02423002, -0.082914166, 0.13211031, -0.0928262, -0.012791, 0.05750361, -0.083066046, -0.114886045, -0.03829235, -0.073120035, 0.017754883, -0.033357624, 0.047310844, 0.011859845, 0.014494896, -0.07199499, 0.06652471, -0.026553959, 0.100633584, -0.034111265, -0.035916444, -0.0041713268, 0.01330161, 0.008263275, -0.010810845, -0.05354558, 0.033504084, 0.09046738, -0.0082946345, 0.023019075, 0.08296861, -0.050852586, -0.014445305, 0.08811125, -0.02351837, 0.010731493, -0.10689749, -0.015465671, -0.09263137, 0.04910978, 0.09262487, -0.027804846, -0.060976606, -0.0121327145, 0.0473537, 0.033084553, -0.06789699, 0.012719102}, 
{-0.0550004, 0.023364935, -0.0056376075, 0.05211547, -0.013466001, -0.036779433, -0.06534762, 0.021043092, -0.018078547, -0.09118323, -0.0677349, 0.05056894, 0.096723706, -0.06382604, 0.09934165, -0.047945984, 0.11911646, -0.107919395, 0.09299651, -0.08383412, 0.00221619, -0.014809281, -0.049015537, 0.033066772, 0.10766311, 0.03557926, -0.014920786, -0.08526773, 0.12286804, 0.09076177, 0.048828572, 0.08476708, -0.030030102, -0.045387693, -0.05859177, 0.10086327, 0.064669885, 0.053348422, 0.09669972, 0.10401533, 0.07131155, -0.061456773, 0.113125116, 0.031652063, 0.08262423, -0.008537911, 0.033587504, -0.060915776, 0.0062668175, 0.027049266, -0.09253884, 0.05634966, -0.036405012, -0.041330025, 0.09936496, -0.07799336, -0.02153916, 0.04834036, -0.118227, -0.08271982, -0.058193475, 0.090592645, -0.062443476, 0.090404704}, 
{0.076703146, 0.045648653, 0.0025003217, -0.08955241, -0.037364937, -0.09592431, -0.08531837, 0.021068603, 0.08936192, 0.10394859, -0.032357924, 0.07754263, 0.07159227, -0.021489844, -0.10858071, 0.033963904, 0.05228011, -0.033851832, 0.07124303, -0.06258966, -0.084963076, -0.06346141, 0.08443229, -0.061819103, 0.10516246, -0.0794705, 0.024621949, 0.07230283, 0.11713068, -0.006780198, -0.029052466, -0.10547683, -0.016811771, 0.023407191, -0.019000255, -0.084730454, -0.052196074, -0.08782415, -0.08979701, -0.086572245, 0.11237815, -0.058504064, 0.08279781, 0.026462436, -0.023204222, -0.0029384717, -0.0005841079, 0.08759697, 0.104555786, 0.08436195, -0.07381235, 0.0057400125, 0.062415924, 0.04344076, -0.024516728, -0.1023708, 0.046917588, 0.077517055, 0.050855722, -0.015106222, -0.1083528, 0.12143032, -0.08576729, -0.010180235}, 
{0.03687702, -0.0858127, 0.014151186, 0.09779334, -0.009957232, -0.008273676, 0.08020282, -0.05040274, 0.015231642, -0.05616411, -0.083799034, 0.08267051, 0.078519195, 0.097478196, 0.023864282, -0.026835077, -0.039815698, 0.08892028, 0.070828535, -0.052131813, -0.05553913, 0.09380065, -0.09634994, -0.072028704, 0.030479163, -0.008296946, 0.048986614, 0.018563626, 0.022435445, -0.08567174, 0.07971686, 0.06379968, -0.03005797, 0.0017988309, -0.020674065, -0.017073173, -0.09582773, 0.08680469, 0.08620019, -0.066003695, -0.08028813, 0.03349027, -0.038297758, -0.10569588, 0.010386355, 0.027048692, -0.08062558, 0.039019693, 0.054201037, -0.0050327824, 0.02574194, 0.11703806, 0.07398318, 0.054638486, -0.057160586, -0.040274277, 0.06930551, 0.05910188, 0.051536955, -0.01800459, -0.029587187, 0.00042611168, 0.058706433, 0.004373579}, 
{-0.11493468, 0.050706137, -0.050483912, 0.09151858, -0.09423742, 0.028284937, -0.06406229, 0.022827342, 0.032875914, 0.0023776144, 0.09613803, 0.044294715, 0.0025041997, 0.08265975, -0.101433285, 0.09798664, 0.12297831, -0.023209564, 0.015915062, 0.026229694, 0.11249232, -0.08532149, -0.0827423, -0.061556704, -0.103116885, -0.0405065, -0.058027443, 0.006871563, 0.06920223, 0.120392404, -0.07299353, -0.037061863, -0.0011207686, 0.052690446, 0.06523882, -0.07387422, 0.04397922, -0.00018531084, -0.11385235, -0.03352904, -0.07531232, 0.07692979, -0.07065989, 0.04152824, -0.10515384, 0.026024118, -0.044312898, 0.051449604, -0.048912026, 0.08628356, 0.054323874, 0.048816945, 0.07199065, 0.014910199, 0.08001974, -0.050028432, -0.0081144795, 0.09257239, 0.01732226, -0.05849835, -0.051784214, 0.10569679, -0.11115474, -0.048069313}, 
{0.07615344, -0.058122158, 0.08911208, -0.007692322, 0.014156401, 0.06188616, -0.06697741, 0.00829526, -0.081492715, 0.11097726, -0.11140639, 0.0023457557, -0.09218048, -0.080678776, 0.017497579, 0.005949855, -0.09992824, -0.10479106, 0.038444087, 0.019250497, -0.08564079, -0.067624986, -0.07605187, 0.07213051, -0.03915041, 0.012163927, 0.10953699, -0.11884378, 0.027630115, -0.046801575, -0.008318901, 0.08014934, 0.056125313, 0.018142343, -0.028430559, -0.020596858, 0.082377344, -0.1123658, 0.10139635, -0.092427246, -0.09802647, 0.030930981, 0.011357164, 0.045248613, 0.01728861, 0.05790299, -0.055747315, -0.020083372, 0.027319789, -0.106574416, 0.09645829, 0.06195612, 0.09380498, -0.024835484, 0.036453977, 0.06686035, -0.043548547, 0.11487214, 0.08539179, 0.036454253, -0.021265768, -0.060155015, -0.029851988, -0.112846695}, 
{-0.005698763, 0.08745199, -0.09303869, 0.048344746, -0.10346134, 0.037405476, -0.012449627, -0.07691519, 0.09505754, -0.104236215, -0.07227621, 0.0174627, 0.10047601, 0.042180136, 0.008293767, -0.110992074, -0.014777283, -0.044801213, 0.06315133, -0.09401782, 0.096057996, 0.11156982, 0.093681246, -0.008031822, -0.07617501, 0.067621514, 0.062744096, 0.04298391, 0.038242664, -0.030989336, -0.074968785, 0.0068421457, 0.061962444, -0.094005235, 0.019188754, 0.08612678, 0.0022102636, -0.026593104, 0.010202782, -0.0001939599, -0.11038781, -0.009191439, 0.072769456, -0.093391776, -0.10598129, -0.09355949, -0.05406553, 0.028466063, -0.05295704, -0.104400866, -0.042334583, 0.1250357, -0.0040731602, 0.03107721, 0.09590306, 0.032466106, 0.10548422, -0.058312535, 0.07140059, 0.09404594, 0.0854744, 0.086582586, 0.093125865, -0.051419027}, 
{0.10069681, -0.024160875, -0.022242442, -0.048458315, -0.07864177, -0.04863538, 0.037904106, -0.035824127, 0.05326107, -0.07510128, -0.004041165, 0.11002898, 0.036718994, 0.07114026, -0.03163873, -0.04162191, 0.10129983, -0.054758396, 0.06363422, 0.0921527, 0.09163408, 0.05911188, -0.08706635, -0.029984927, 0.101789385, -0.0015116928, -0.095316194, 0.017388405, 0.018049188, 0.033189308, 0.015938267, 0.081003204, -0.044551466, -0.0070775896, -0.07330114, -0.1164806, 0.06309029, -0.039607644, 0.09715479, 0.088331014, 0.006694287, 0.031058729, 0.14162953, -0.048994824, 0.042886212, 0.03742388, -0.025592737, 0.123965114, -0.0046012327, -0.03771683, 0.06488427, -0.04899702, 0.04559681, 0.034307566, 0.070025615, -0.03294099, -0.081208594, 0.07369228, -0.025626905, 0.013137388, 0.089713946, 0.017328588, -0.01093331, -0.1003378}, 
{-0.097498, 0.05402429, 0.061664112, 0.11007282, -0.03204096, -0.012862414, -0.08354671, 0.061131537, 0.015332566, -0.007095456, 0.05929318, 0.0022266805, 0.017695233, 0.06419253, 0.05048898, 0.089492336, 0.1351092, 0.077870056, 0.16339496, -0.0003356412, -0.0023673698, -0.0022044778, 0.030359253, -0.14849144, -0.026230268, -0.040177427, -0.018438697, -0.06439066, 0.082268775, 0.08818324, -0.05533758, 0.07821667, -0.0675221, 0.108345434, 0.01946566, -0.012411985, 0.0037543515, 0.06920497, -0.08566466, -0.034545116, 0.08459027, -0.04688093, 0.15026595, 0.08242808, -0.025964253, 0.029297262, -0.03319964, 0.054413635, -0.0026097149, -0.07396978, -0.05301637, 0.058981832, 0.09382223, -0.047889117, 0.062527046, -0.14561632, -0.035695314, 0.1488364, 0.10317243, -0.12506469, 0.11252214, -0.018207485, -0.10607198, 0.10611759}, 
{0.002694362, -0.09454539, 0.008494785, 0.09031373, -0.09598347, 0.09019561, 0.034835998, -0.09639686, -0.068796344, 0.09309754, 0.01954797, -0.08297796, -0.036035404, -0.022340395, 0.03597137, 0.023668244, -0.032144405, 0.042448252, 0.083068565, -0.060354248, 0.046338692, -0.07091751, 0.0017944723, -0.04224053, 0.023574844, -0.023126623, 0.034507126, 0.058122687, 0.028341856, -0.0806194, 0.015541837, -0.09881087, -0.0137034, -0.11151999, -0.05262533, -0.056937747, -0.113585815, -0.0954665, 0.010945946, 0.07528512, 0.08570732, 0.055897027, 0.09622572, -0.078991756, 0.053259686, -0.02081398, -0.099681035, -0.028695203, 0.020594805, -0.052375294, -0.14034632, 0.07709156, 0.07452261, 0.15922177, -0.11416351, 0.0001871582, 0.014041066, 0.09654635, 0.005917441, 0.053990394, -0.074780524, 0.03537106, -0.060683873, 0.06699344}, 
{-0.10067739, -0.09001296, 0.002348245, 0.081359446, -0.10515056, -0.093578935, 0.060459405, 0.1075789, 0.051508613, -0.05018978, 0.089674935, 0.0950764, 0.018647268, -0.064647876, -0.062841155, 0.042288363, 0.1255442, 0.10523856, 0.08476677, -0.036218435, 0.075436756, -0.0546638, 0.07031126, -0.0136481635, -0.10871764, -0.024662541, -0.10169032, -0.059886135, 0.083921455, 0.09541662, -0.100575835, 0.055015653, 0.016388604, 0.033632368, 0.008685083, -0.0728008, -0.06695565, -0.026672676, -0.0155413775, 0.15938526, -0.10588144, -0.080724925, -0.031509362, 0.039101988, 0.098477036, 0.035075605, -0.0028088794, 0.04971846, -0.024488859, -0.023364319, -0.07956741, 0.15283433, 0.08461717, -0.039058525, -0.09402765, -0.15359578, -0.07272504, 0.05732732, -0.101241656, 0.026964413, -0.041502453, 0.085801736, 0.0107980445, -0.046051368}, 
{0.051489394, -0.002603188, 0.058167234, -0.02350267, 0.015929699, -0.096421294, -0.040959187, 0.09346455, -0.03716073, -0.07583898, 0.024159014, -0.08988092, 0.03191763, 0.044131473, 0.070907675, -0.076044954, -0.002895313, 0.05235362, 0.014390641, -0.03584706, 0.103707165, -0.08124587, -0.1014934, -0.13686603, 0.091513425, -0.003757922, -0.0587661, -0.0318764, -0.041174714, -0.06243004, 0.06338081, 0.05853503, 0.057883248, 0.027936324, 0.09135269, -0.08177555, -0.08965612, 0.064233005, 0.026057048, 0.07488436, 0.08448984, 0.054168478, -0.017849652, -0.07992494, -0.024119735, -0.09165308, -0.08567939, 0.059641067, -0.04834024, 0.048587475, -0.11992301, -0.04844357, -0.014860462, 0.08826894, -0.07950429, -0.041918743, -0.08212082, 0.04764446, 0.105011255, -0.121515796, -0.0016136914, 0.07560241, -0.007606402, 0.054212995}, 
{0.030075261, -0.05314779, 0.065345556, 0.022194207, -0.055697896, 0.06894928, -0.05952275, 0.08606197, 0.04683175, -0.10105471, -0.08509666, -0.016625516, -0.0025668815, -0.0053655654, -0.091581754, 0.051556066, 0.0615611, -0.07841539, 0.12056207, 0.04859528, 0.036114544, -0.07281248, -0.05664686, 0.012067602, -0.008341216, 0.025587294, 0.08085002, -0.052023467, 0.049782038, 0.045651384, -0.09571986, 0.03675374, 0.08170214, -0.027841412, -0.0787201, -0.007949959, 0.08215357, 0.11129588, 0.05049321, -0.06571981, 0.105990335, 0.050357893, 0.00014188944, -0.06618172, 0.09356587, -0.008701257, 0.030636547, -0.02285416, 0.045103163, -0.015819695, -0.03614302, 0.04219864, 0.012159348, 0.06520608, 0.034524966, -0.112702385, -0.09139582, -0.031078132, 0.023248356, -0.01323114, 0.053514287, 0.05833818, -0.04312449, -0.1140865}, 
{-0.0389543, 0.07034277, -0.068185896, 0.08606273, -0.03455329, 0.011006482, -0.082537115, 0.059094995, -0.05481724, -0.02487965, 0.0009454414, -0.042305365, -0.11039269, 0.07927905, 0.01860508, 0.030383542, 0.00112596, -0.09184471, -0.057749968, 0.015106291, -0.09499435, 0.011345655, -0.090814024, 0.077061065, -0.07282956, -0.067397214, 0.01800266, -0.027081143, 0.13448374, 0.06104086, -0.016589321, -0.0889259, -0.04483376, -0.061513923, -0.0068468177, -0.040228322, -0.010415924, -0.08182791, -0.06280595, 0.0521179, -0.052520756, 0.007824548, 0.08174176, -0.08986154, -0.06795357, -0.08561802, -0.07949612, 0.104058966, 0.058382064, 0.08289421, -0.04378045, 0.027284188, -0.05238672, -0.033514574, -0.04110505, -0.10194655, -0.06386961, -0.07470659, 0.0072759804, 0.04238212, 0.031396836, 0.10341146, -0.041655123, -0.009616495}, 
{0.025615264, 0.084992304, -0.09797681, 0.048185408, -0.104037054, 0.07416463, 0.050690003, 0.013276786, 0.081665106, -0.004990831, 0.015994027, 0.04287143, -0.020819098, -0.019414037, 0.051131796, -0.04189121, 0.041064758, -0.06271581, -0.048075214, -0.05145131, -0.010333054, 0.084503695, 0.068582535, -0.053930726, 0.026892126, 0.06688123, 0.06459528, -0.09101468, -0.07249484, -0.0033030964, 0.07803221, -0.014055403, -0.055792563, -0.08545648, -0.10385292, 0.048150234, -0.019656492, -0.08268298, 0.026086986, 0.054949377, -0.06897287, -0.047284894, -0.049534958, -0.061614644, -0.093314216, 0.0477155, -0.11288654, 0.11095246, 0.03426464, 0.10455789, -0.05544015, 0.028271522, -0.066492915, -0.06340862, 0.04972545, -0.11794037, -0.02093698, -0.035132762, -0.03939619, 0.07082204, 0.02717349, 0.05005605, -0.03894932, 0.04043374}, 
{-0.05873671, 0.0016779989, -0.09610715, -0.08558811, -0.08886087, 0.06052524, -0.0044142827, -0.09339577, 0.074649945, 0.0980718, 0.10436277, 0.047102436, 0.09369847, -0.06556398, -0.041947175, -0.10673694, 0.08569702, -0.047941267, -0.038887177, 0.02926737, 0.026829764, -0.03107562, 0.09839776, -0.028555334, 0.089312226, 0.034476876, -0.024714887, -0.049952313, -0.036292203, -0.04091071, -0.012157127, 0.075903, 0.040301897, -0.081064284, -0.012494199, -0.012089007, 0.0796862, -0.105654106, 0.05465021, 0.024362938, -0.08470872, -0.10684225, 0.053537145, -0.01938378, -0.04107187, -0.01683902, -0.01385568, -0.0016937628, -0.036408328, 0.079560235, 0.04952672, 0.049752254, -0.06956363, -0.07634493, 0.010414236, 0.046263907, -0.06992416, 0.06119278, -0.09988558, 0.03979167, 0.08612555, 0.10826917, -0.021172531, 0.039564893}, 
{-0.06402453, -0.025254255, -0.10631298, 0.020986944, 0.04395248, 0.094249055, 0.098248184, -0.09092448, 0.06421202, -0.03724722, 0.08960891, -0.049175605, 0.030603364, 0.06266986, -0.07313893, -0.021801628, -0.0020851437, 0.07826823, -0.011913867, -0.044032164, 0.027811974, 0.025397405, 0.05933395, -1.7854216e-05, 0.052827716, 0.06315936, -0.035591833, -0.0897836, -0.071131445, 0.069678195, -0.07214797, 0.02974942, 0.015996307, 0.02024737, -0.07264165, -0.05024449, 0.005757305, 0.030681744, 0.08965281, 0.0392016, 0.08837704, 0.09238616, 0.041722313, 0.08162162, -0.09315772, -0.09273833, -0.06383474, 0.09852079, -0.021644168, 0.050550718, -0.05905258, 0.11690274, -0.09428018, -0.09017234, -0.013605855, -0.04414536, 0.016835064, 0.043831833, 0.0571354, 0.04075442, 0.014123738, 0.0954467, 0.08366069, -0.11417953}, 
{0.021693807, -0.06250773, -0.10721619, -0.035660915, -0.11128992, 0.098312005, 0.02243792, 0.011584312, -0.008730239, -0.032498226, 0.0032078326, 0.0366551, -0.10036822, 0.081066474, 0.09300187, 0.02892594, -0.061055195, 0.11037427, -0.03368894, 0.0046375617, 0.02956219, -0.08653667, 0.019194514, 0.020443339, -0.0648876, -0.01144346, 0.040169448, -0.08062412, -0.018114364, -0.0345649, -0.08610255, 0.08101864, -0.07461473, 0.07013382, -0.02632013, 0.047268286, -0.076605365, 0.07327184, 0.08252453, -0.08676561, -0.005676374, 0.00820934, -0.07186383, 0.10142399, 0.09732154, 0.02093707, 0.024680277, -0.057220925, -0.022311576, 0.043094035, 0.091759, 0.04050603, -0.09265107, -0.06313296, 0.029367374, -0.10078501, -0.024829328, 0.10785547, -0.0066350685, -0.0047800443, -0.1019812, 0.11773064, -0.09542149, 0.08980578}, 
{-0.07765606, 0.053058688, 0.10262258, -0.05167623, -0.079692915, 0.04377894, 0.053093128, 0.04420075, -0.05510376, 0.09647663, -0.09451987, 0.07748768, 0.07994765, 0.060835943, -0.067686714, 0.036107764, -0.099071465, 0.056682274, -0.075672574, -0.020464212, -0.034233756, 0.05736743, 0.038088143, -0.085269794, -0.030328855, -0.025540944, 0.022294223, 0.035913598, 0.12233528, -0.004483026, 0.02291578, 0.08867709, 0.07095211, -0.082903996, -0.04321496, 0.0064464468, -0.08047275, 0.034111023, -0.0022183892, -0.06939726, 0.094592646, 0.070899665, 0.04647125, 0.0006189048, -0.0095503405, 0.046261013, 0.0040090107, 0.027841248, -0.1032448, -0.10850359, 0.07470519, 0.08100542, -0.030904036, 0.100366235, 0.066486515, -0.10902907, 0.06752513, 0.12583688, -0.079227716, -0.11642537, 0.072071984, -0.02027926, 0.040647596, 0.094326906}, 
{-0.039825715, 0.05601688, -0.11381112, -0.008780882, -0.05381385, -0.04313095, 0.0124836825, -0.048143983, -0.113569684, -0.09291169, -0.053367455, 0.050292283, 0.080197245, 0.058043897, 0.007123337, -0.0070401207, -0.044139467, -0.05927908, 0.0226631, 0.007971056, -0.092660114, 0.097641915, 0.024018168, -0.099469, 0.08285907, 0.121467, 0.06423706, 0.060215466, 0.007500455, -0.0869863, 0.04474084, -0.11879375, -0.029011726, 0.058771655, 0.0818286, -0.008177796, 0.045022894, 0.056448787, 0.08951917, -0.002971396, 0.107146546, 0.08056046, 0.09177442, -0.10296216, 0.097414106, -0.026539482, -0.0621218, 0.10297346, -0.08773395, 0.10230302, 0.0405511, -0.0150007885, -0.021793455, 0.07482373, 0.04141232, 0.02508013, 0.09064561, -0.057081655, -0.09721729, 0.07782409, 0.07739557, -0.07005589, -0.07730971, -0.026264297}, 
{-0.09263934, 0.10814828, 0.019339798, 0.10545659, -0.011993647, -0.008687995, 0.07302267, 0.0788351, 0.06608212, -0.026646301, 0.026244283, 0.037555262, -0.079798706, 0.032245457, 0.053698726, -0.027749933, -0.029047817, 0.09606795, 0.1312451, 0.11121991, -0.09520282, -0.06277782, -0.036996596, -0.021236999, -0.057960935, -0.09069456, -0.04282754, 0.041965473, 0.0061226888, 0.055617284, -0.05523724, -0.11231257, -0.0058519193, 0.024268985, -0.07874658, 0.059896108, -0.049329624, -0.10526814, 0.046042588, 0.041934393, 0.0077482015, -0.07886626, 0.057317544, -0.08292414, -0.096330285, 0.09638098, 0.104416415, 0.06636761, -0.08689064, -0.07194427, -0.10373405, 0.10990714, -0.028530998, 0.071556464, 0.074933626, -0.07186526, -0.09248216, -0.00044818167, -0.0937704, -0.05223514, -0.07001799, 0.07535162, 0.10031839, -0.008918219}, 
{0.06938159, 0.054970577, 0.09491068, 0.047187567, -0.10075903, 0.008816451, 0.038753018, -0.055633534, -0.029651333, -0.08630435, -0.050969265, -0.07311044, -0.0058582723, -0.053680133, -0.09514623, 0.09212051, 0.030680802, 0.08443847, -0.042919572, -0.106874265, 0.052336067, 0.06714061, -0.07207848, 0.058477804, 0.058170542, 0.016455164, 0.09774551, 0.07504644, -0.0707397, 0.05224731, 0.044508353, 0.06788904, 0.09454389, 0.008773424, 0.026077548, 0.09773763, -0.051564917, 0.008248791, -0.039376117, -0.023493543, -0.06679754, 0.010086693, -0.0012120235, 0.08753939, 0.10912335, 0.098793074, -0.12010968, 0.086624056, 0.108811155, 0.11370883, -0.094719544, -0.09945185, -0.07647978, -0.052647352, -0.018926138, 0.051986266, -0.080491215, -0.063333094, 0.029460607, -0.046770405, 0.0969037, 0.11188963, -0.010497294, -0.07739856}, 
{-0.006312479, -0.020146653, -0.09944064, 0.09420125, 0.05353774, 0.047509, -0.07085517, -0.10504851, -0.112139426, 0.087913126, 0.10954322, -0.017729938, 0.0814237, -0.053691957, 0.013893645, -0.07294983, 0.005242327, 0.09202039, -0.093864985, 0.069755614, 0.110173106, -0.07157272, 0.08330837, 0.08501505, 0.033269823, -0.09124215, -0.017551087, -0.0010188292, -0.051570017, 0.020662116, -0.08836264, 0.09981931, -0.08729791, 0.021092057, 0.028675152, 0.07363466, 0.028421953, 0.0030122474, 0.08589628, 0.10629623, -0.08515383, -0.05331296, 0.0033339183, -0.024836592, -0.087117776, -0.011114575, -0.033815235, 0.025624074, 0.040456623, 0.028924879, 0.09413006, 0.08810201, -0.08952417, -0.09407857, -0.037760463, 0.09127677, 0.05259423, 0.073377386, 0.10606648, -0.018368274, 0.07733062, 0.10677114, -0.01864244, 0.032231268}, 
{-0.013268627, -0.07781165, -0.025600825, -0.05521165, -0.00982482, -0.0130222365, -0.07003407, 0.03711085, -0.030550791, 0.105027035, 0.06552467, -0.007358007, 0.07271743, 0.11203386, -0.0725237, 0.052064463, 0.09423959, 0.036552325, 0.073494844, 0.039840907, -0.11093836, 0.092193544, -0.100700036, 0.07440298, -0.07813589, 0.013512805, -0.03207455, 0.0032306965, -0.067991406, 0.11388917, 0.071322635, 0.07908878, 0.056194745, -0.020048015, 0.11047417, 0.010889337, -0.10735567, 0.048040688, -0.11383513, -0.007656579, -0.040331826, 0.0679706, 0.11579104, -0.0028929785, -0.06928699, -0.051604897, 0.100143015, 0.08530369, 0.039629176, 0.11120763, 0.08603482, -0.006274471, 0.070120916, -0.10131554, 0.025279917, 0.054023217, 0.1043884, -0.0013582985, 0.10179563, 0.08936968, 0.05252084, 0.08975153, 0.029996112, -0.08148737}, 
{0.10568205, 0.030474052, -0.078863025, -0.04292126, 0.0826579, -0.012967333, 0.020735541, 0.053924814, 0.03091193, -0.01168067, 0.03433357, -0.10291807, -0.081181265, 0.07120931, 0.08591005, 0.088968754, 0.05590163, -0.084659696, 0.13302994, 0.10440168, -0.00030758232, 0.06130433, 0.1029692, -0.11710423, 0.076007575, 0.029365027, -0.021276966, -0.07090444, 0.0010872821, 0.08921023, 0.06434794, 0.07278744, -0.1090593, -0.006728336, 0.10602113, -0.06035636, 0.017586622, -0.060885992, 0.10144646, -0.039476793, -0.0033577308, -0.004728928, 0.13416362, 0.08632332, 0.010902539, -0.016862094, 0.014224977, -0.013873408, 0.038631752, 0.010418885, 0.056209814, 0.110645264, -0.0096816365, 0.07900899, 0.08815888, 0.060978778, -0.101309806, -0.017539393, -0.07271603, 0.050601464, -0.044098563, 0.095224716, 0.043410406, 0.0073069558}, 
{0.029589146, -0.108768314, -0.0334151, 0.08390306, -0.06991446, 0.07268335, -0.044021983, -0.10350054, 0.0835605, 0.081578076, -0.09062866, 0.064824775, -0.038351886, -0.08392803, 0.048425168, 0.076618776, 0.092497565, 0.0057114586, 0.0013596354, -0.11331061, -0.092526756, -0.070216104, -0.10392549, -0.105308965, -0.086709425, -0.03359456, 0.014855698, 0.002275031, 0.059127904, -0.09281273, 0.06357896, -0.008188099, 0.027021654, 0.07547589, -0.020224469, 0.060969736, -0.021902418, -0.10513866, 0.0008388435, -0.022813717, 0.046805605, 0.089772835, 0.09984558, -0.07886706, 0.053174958, 0.023532987, 0.042083878, -0.06869566, -0.06683996, 0.04167543, 0.11135272, -0.072210625, -0.06608552, 0.094239704, 0.100856066, 0.0690229, 0.05573514, 0.045425806, -0.053297974, -0.0800798, 0.11113028, -0.064580426, 0.08648805, 0.041960962}, 
{-0.074536, 0.024778018, 0.026869148, -0.015835404, 0.021251917, 0.011938617, -0.047172427, 0.068514034, -0.053970233, 0.09008379, -0.08205456, 0.034275755, -0.05004955, 0.08945757, 0.003957692, 0.093996346, 0.051677387, 0.016421124, 0.06277683, -0.026309028, 0.073789835, 0.027657434, -0.055324785, -0.099430814, 0.03202136, 0.11746295, 0.097778365, -0.04046046, -0.060529128, -0.07399149, 0.00045567006, -0.054231633, 0.017263174, 0.029926956, -0.07605844, -0.034226388, 0.038130432, 0.05604522, -0.04732693, -0.0115213245, 0.03310737, -0.103701115, -0.03829215, 0.06212592, -0.07455753, -0.028850183, 0.09721987, 0.07878634, -0.012094364, 0.006214775, -0.095510416, 0.12186378, -0.085138276, 0.021353025, -0.033896603, -0.035237987, -0.084082976, 0.017705483, 0.05120581, -0.01928059, 0.106122136, 0.07095274, -0.08392055, 0.045582507}, 
{-0.034979463, -0.04426258, 0.0096712615, 0.06256667, 0.020589113, 0.1081734, 0.05587487, -0.09020716, -0.08732655, -0.048615478, 0.01580289, -0.045966886, -0.10606298, 0.02287601, 0.09419463, -0.0047026873, 0.123679526, 0.0078083053, 0.14627902, 0.03197378, 0.09780158, 0.10679591, 0.05188021, -0.028342947, 0.09002499, 0.06119185, 0.110951155, -0.1082149, 0.043408424, 0.107837796, 0.042649, -0.064895615, -0.11888345, 0.010370225, -0.043196764, -0.09567938, 0.08765054, -0.0664694, -0.0070796474, -0.07737601, 0.055861324, -0.09564804, -0.024667554, 0.03308755, 0.014799461, -0.06342742, -0.08473702, 0.13302249, 0.102024525, -0.045813654, -0.102598816, -0.062406853, 0.01822603, 0.11214032, 0.005112021, 0.018102868, -0.09690592, 0.014112931, 0.09928092, -0.11577628, -0.0376369, 0.029213905, -0.09801099, -0.11472183}, 
{0.09906166, 0.0016545872, -0.011494048, -0.11013231, -0.09024056, -0.05762947, -0.15839593, 0.08559166, -0.07560929, -0.045291856, -0.11029704, 0.060167715, -0.0032983273, 0.03803441, 0.08162838, -0.05440521, -0.028428517, 0.026048377, -0.020050412, 0.04806368, -0.06860792, -0.09433405, -0.036735326, -0.01924994, 0.101866275, 0.047456976, 0.11334556, -0.028656809, 0.023859957, 0.10972806, -0.11099606, 0.066149876, -0.013801043, 0.03392327, -0.005997565, 0.08436137, -0.108018294, 0.026582181, -0.07461346, 0.041538563, 0.09053981, 0.06703921, 0.13942622, 0.0092928335, -0.055888735, 0.009718381, -0.09687775, -0.017691154, -0.08191521, -0.043685637, -0.056688227, -0.027360164, 0.07604128, 0.0034393915, -0.07017922, 0.020407384, -0.09616734, 0.07566714, -0.040027343, -0.10756528, -0.089155525, -0.016801914, 0.08047195, 0.051366378}, 
{0.035981424, 0.061767925, -0.0669303, -0.014273196, -0.077153414, -0.032751612, -0.052310873, -0.058476817, -0.107954025, 0.056120485, -0.068967015, 0.015288264, 0.061476976, -0.07317673, 0.040830128, -0.04178851, 0.11092745, 0.07914445, 0.12482343, -0.08416575, 0.08371125, 0.105790555, 0.08940257, -0.018121634, -0.010318659, -0.075683236, -0.002778627, -0.10030215, 0.085463874, 0.07111462, 0.099538654, -0.0972927, -0.15159936, 0.03281185, 0.0102333445, 0.0013032902, 0.025301976, 0.09338465, -0.07573922, 0.15603103, 0.029303268, 0.00746575, 0.15194812, -0.018956795, 0.035172462, 0.036451712, 0.07109305, 0.13104616, 0.025598466, 0.03678371, -0.036716223, 0.05408176, -0.04705939, -0.0073628337, 0.06718354, -0.024702368, 0.08128996, 0.14166494, 0.08854231, -0.068041034, 0.08200395, -0.05264542, -0.020399004, 0.028913198}, 
{-6.273509e-06, -0.055149514, 0.075042285, -0.022490941, 0.01937069, -0.03614486, 0.040125534, 0.020694137, 0.0033096212, -0.07557058, -0.067111865, 0.02807717, -0.036341064, -0.082051665, -0.10060748, 0.05041431, -0.07786971, 0.09642005, -0.007021417, 0.016757846, -0.060961742, 0.09317334, -0.069744274, 0.030068645, 0.094083786, 0.032711696, 0.019364119, 0.09912265, 0.021557821, 0.121274754, 0.07291548, 0.0047145323, -0.12077681, -0.03859993, -0.025720317, 0.050538726, 0.034694515, 0.02995181, -0.046519417, -0.041997276, 0.02373977, 0.09607215, -0.05249557, 0.018578455, -0.10469028, 0.10447714, 0.0036114787, -0.057160378, -0.07877887, -0.12073404, -0.13491073, -0.039722707, 0.08449634, 0.02176367, -0.055362657, 0.0054398915, 0.103371456, 0.1195353, -0.11335338, 0.058581676, -0.017650694, -0.05733601, -0.09578216, 0.10439265}, 
{0.07947629, -0.0057155406, -0.06369432, 0.01102297, 0.051553324, -0.08923678, -0.13478905, 0.0951609, 0.006052382, 0.09503822, 0.018795997, 0.07531232, 0.049970746, -0.055889007, 0.09961238, 0.08210017, -0.0644135, 0.0031550974, -0.059864208, -0.0077802464, 0.014598653, 0.08062032, 0.00034591556, -0.11885012, -0.033093028, 0.0052878754, -0.0044385344, 0.09997749, -0.018748926, 0.023058087, 0.0040191486, -0.032976698, -0.10189159, -0.04604347, 0.073268965, 0.08355915, -0.025996605, 0.088160336, 0.08250588, 0.10941466, -0.010232419, -0.083434, -0.006641143, 0.016284019, 0.07590896, 0.025823846, -0.04707545, -0.00218092, 0.107315704, -0.101893865, -0.113969184, 0.0368471, -0.08672809, -0.0026889779, -0.09403593, -0.030621162, 0.06808911, 0.1007603, -0.007230671, -0.062480174, -0.010437921, -0.06301194, -0.017555125, -0.07538178}, 
{-0.11818655, -0.1055925, 0.042297985, 0.03263934, -0.08702259, 0.09664619, -0.082142524, -0.0919714, 0.03942072, 0.028046831, 4.7713518e-05, -0.10020213, 0.0040021986, -0.07229486, -0.028876372, -0.056315716, 0.07368748, 0.037672415, -0.06508023, -0.021810792, 0.08190411, -0.07195743, 0.020345509, -0.08520059, 0.07245642, 0.09267753, 0.0019473284, -0.038345013, 0.023107233, 0.09244826, -0.014703162, -0.11274725, 0.079519056, -0.006675087, -0.05845513, 0.08088484, 0.0673109, 0.067894876, -0.04142403, 0.0953181, -0.100187, -0.0034118965, 0.15630385, -0.0503323, -0.037165366, 0.08413145, -0.09196152, -0.05858723, 0.031606168, -0.033009212, -0.10512995, 0.1259561, -0.0036171617, -0.012296343, 0.063069664, -0.009549309, 0.035091534, 0.053259023, -0.076089464, -0.013261292, 0.041539624, -0.076303706, 0.00894919, -0.07639506}, 
{0.096526965, 0.09882131, 0.08306319, -0.10125092, -0.00059046596, -0.078819916, -0.081033684, -0.023509778, 0.064449266, -0.052724447, 0.009484351, -0.057329398, -0.10335281, 0.03371936, 0.04719862, 0.11231358, 0.08253051, 0.01794833, -0.054553553, 0.0052626804, 0.0574608, 0.027126908, 0.070125416, -0.027172549, -0.11277309, -0.061951444, 0.028768986, 0.071893565, 0.04652107, 0.083744206, -0.015734166, -0.0926066, 0.019611057, -0.026674278, -0.009304624, -0.036010817, 0.08436869, -0.09166216, -0.014325364, -0.027680634, 0.06383571, 0.0076657757, 0.08241787, -0.056011036, -0.10975654, -0.11367653, 0.0029771677, -0.091550454, -0.040881053, 0.042232975, 0.049072485, -0.07432273, 0.05750216, 0.0482895, 0.0646779, -0.044142067, 0.06496991, 0.07897691, -0.10396909, 0.037056636, -0.07574852, 0.044975042, 0.037342787, -0.015089441}, 
{0.009689589, 0.054368313, -0.111987315, -0.072806135, 0.05245398, 0.011310488, 0.09635577, -0.10550754, 0.10303771, -0.060275678, -0.10450256, -0.0049393997, -0.05651084, -0.009868331, 0.04004387, 0.07363367, 0.04886321, -0.05204107, 0.08298704, -0.10556423, -0.035840362, -0.037136383, 0.07290003, -0.0479928, -0.03859684, -0.04457687, -0.100927666, 0.045557804, 0.12253619, -0.0013369365, 0.08735873, 0.078608, -0.037379302, 0.023927435, 0.03974973, -0.012712471, 0.03121738, 0.076849446, 0.004770544, 0.025798284, -0.051313527, -0.09055904, -0.05436092, -0.06551553, -0.027224101, 0.051594943, -0.0475747, -0.066050306, 0.103594586, 0.04001916, -0.06944335, 0.07396433, -0.096092604, 0.11302187, 0.010760415, 0.022203017, 0.09031184, -0.012767129, -0.10773165, 0.08584913, -0.034830235, -0.056966826, -0.07482642, -0.00072576076}, 
{0.041104615, -0.09358691, -0.025269328, 0.105182245, 0.018571764, 0.10323894, 0.03959943, 0.10607353, -0.08344562, -0.051578898, -0.027220502, 0.0033442527, 0.11183527, -0.052506253, 0.035679817, 0.098490536, -0.050357506, -0.041635305, -0.04835142, -0.10803649, 0.010923848, -0.015153892, -0.044623658, -0.031084612, 0.04985936, 0.09157016, 0.105988175, 0.09621165, 0.064783126, 0.07535971, 0.0075245798, 0.09820362, 0.038691103, -0.0011088923, -0.01739318, -0.008465025, 0.06466433, 0.0933882, -0.082605615, 0.023524001, -0.07390967, 0.04334104, 0.0075659305, 0.00895562, 0.08017209, 0.03949809, 0.061217643, -0.037733823, 0.088736504, 0.056550678, -0.003542579, 0.08628684, -0.04672667, -0.058501292, 0.1047585, -0.045611612, 0.10686763, 0.10136609, -0.021780977, 0.0978201, 0.0020993426, 0.04184303, 0.06279875, 0.107051715}, 
{0.10664407, -0.05637239, -0.043306615, 0.02354385, 0.048439965, -0.034532063, -0.101148166, 0.017857656, -0.10603033, 0.106489256, 0.0404374, -0.101894334, 0.01455763, -0.022450224, -0.006450243, 0.016883925, 0.046207782, 0.051254228, 0.0106939655, -0.10368259, 0.047286704, -0.085868336, -0.0038895234, -0.11671069, -0.020437717, 0.031906817, -0.028823718, -0.08774983, 0.030920982, -0.062717594, -0.054663368, 0.09177543, 0.0552981, -0.07331182, 0.08656105, -0.04728618, -0.06363948, -0.026214495, -0.036160886, 0.029627718, 0.088580996, 0.07245879, -0.06769052, 0.045689553, -0.024654187, -0.00031300634, 0.053714167, 0.10006273, -0.056271307, 0.09584052, 0.0852632, -0.060166936, -0.10347932, 0.11333612, 0.05444421, -0.09515709, 0.08244164, -0.04588096, 0.08526048, 0.03234911, -0.058062714, 0.016427308, 0.024214163, 0.0872511}, 
{-0.10192074, -0.060219858, 0.01623461, -0.03788559, 0.0072149113, 0.07047868, 0.06365512, 0.01773046, -0.036725715, 0.07506728, -0.06080867, -0.0929465, 0.103944406, 0.08921693, -0.08677734, -0.014108688, 0.01980737, 0.07674365, 0.088078246, 0.03798601, 0.028893858, -0.028948195, 0.03066887, -0.08739057, -0.10269283, -0.04089509, 0.0036744475, 0.06323474, -0.084029905, 0.09396156, 0.07521509, -0.07764872, 0.003149468, -0.0223649, -0.0030788668, 0.07771703, -0.013399108, -0.030770257, -0.10603884, -0.06605906, 0.0734124, -0.10008598, 0.09183724, -0.05000864, 0.041688815, -0.028313667, 0.09084399, 0.020081028, 0.108701974, 0.007806528, -0.03953691, 0.11406872, -0.00458265, -0.019916406, -0.037166025, 0.021363614, 0.031927958, -0.06949789, 0.07041771, 0.11072492, -0.072783664, -0.026613306, -0.09659074, 0.010418273}, 
{-0.08491384, -0.076033376, -0.0050399345, -0.015042573, 0.07810141, 0.0038863793, -0.0025697763, 0.0017006621, -0.051792335, -0.110472366, 0.072260976, -0.0020938665, -0.07603175, -0.06906255, 0.04194739, -0.05482715, -0.052116968, 0.07774122, 0.11292538, 0.046590567, -0.06650755, -0.05877586, -0.11134867, 0.08940417, -0.087586895, 0.059862744, 0.00613901, 0.076957405, -0.07840196, 0.06358347, 0.046698928, -0.10044328, 0.063809015, -0.03274665, 0.10783549, 0.043080952, 0.025305085, 0.092333645, 0.012236665, -0.037386604, -0.037090108, 0.086132735, -0.02564318, 0.05903174, -0.09673777, -0.023307823, 0.030485274, 0.044397485, -0.08022848, -0.010230091, -0.08066732, 0.037597854, -0.08750816, -0.018741697, 0.020205593, -0.063516065, 0.10691412, 0.10071731, -0.010983618, 0.018178495, 0.04938458, -0.050606675, 0.103890955, -0.062119495}, 
{-0.101018496, 0.0041222004, 0.047212403, 0.08873163, -0.086082414, 0.09494549, 0.11463526, -3.1530857e-05, -0.042338245, -0.110888995, -0.0052036867, -0.035029702, -0.07735909, 0.012673721, -0.017275706, -0.088452354, -0.065369815, -0.045277268, 0.06495824, -0.10561891, 0.052900836, 0.022571713, 0.030495837, 0.03522094, -0.005646333, -0.023974841, 0.110820666, -0.013319733, -0.085775085, -0.023854773, 0.021848336, -0.014095126, -0.08394072, 0.08954495, 0.09230881, 0.039543305, 0.027371833, -0.10603711, 0.0019878668, 0.0870551, 0.0010876656, 0.09000602, -0.09722925, -0.044757135, -0.08675725, -0.06980281, 0.0285912, -0.017305093, -0.032644033, -0.023446023, 0.020551765, -0.046557534, 0.09783547, -0.029171646, 0.05235217, 0.015669681, -0.09306462, -0.059283853, 0.105600215, 0.028875027, -0.070246816, -0.0827281, 0.07152581, -0.11280447}, 
{0.058800552, 0.034790516, -0.08608095, 0.047224402, 0.07119678, 0.01820223, 0.011111349, 0.08363037, -0.010235247, -0.060790475, -0.09822176, -0.012483828, -0.06611264, -0.04054994, 0.09450758, 0.09819792, -0.021013873, -0.038702168, 0.09256435, 0.106925294, 0.020600423, -0.09084488, -0.05963324, -0.08996474, -0.060048427, -0.09949719, 0.039759964, -0.06959611, 0.059014127, 0.004935666, -0.042275816, -0.009971281, 0.004952395, -0.058823034, 0.044695776, 0.008416887, 0.031978145, -0.035098806, 0.040662162, 0.014551503, -0.09042703, -0.024171762, 0.0043611373, 0.05956565, 0.015842557, 0.02300626, -0.08635239, 0.085804164, 0.101625636, -0.09260437, -0.08513336, 0.03571233, -0.07808845, -0.037781533, -0.03993646, 0.048473038, -0.090893224, 0.027195953, -0.11126742, -0.08760094, -0.06505629, -0.033390503, 0.031074315, 0.046736486}, 
{-0.0031831288, 0.099111006, -0.0120843835, -0.06870519, -0.033654183, 0.011395186, 0.07420416, -0.08407956, 0.019484099, 0.088230714, -0.043539517, 0.008828707, 0.09433299, -0.021435052, -0.07894874, -0.022167206, -0.022846904, -0.051996443, 0.023398982, 0.022701636, 0.056499317, -0.10042982, -0.025267996, 0.027932972, 0.018408194, 0.057569336, -0.0713941, -0.06282116, 0.016358746, 0.11387546, -0.055344902, -0.038092826, -0.014893469, 0.039132357, -0.0052803704, 0.011100944, 0.044203345, 0.018591255, 0.0019418733, 0.0078011393, 0.012590915, -0.0052985176, -0.016319072, -0.025871396, -0.06309809, 0.018055096, -0.054185208, 0.11512223, 0.024141565, 0.028819047, 0.09799536, -0.04750662, -0.11678976, -0.07388483, 0.049717586, 0.10449866, 0.10629465, 0.009024857, 0.09209958, -0.08047645, 0.08300987, -0.05693368, 0.067716405, -0.11729842}, 
{0.0009437148, 0.023619317, -0.10076134, 0.10292548, 0.05371514, 0.03944096, 0.08145931, -0.07025148, -0.08806163, -0.08787154, 0.022701547, -0.026952416, -0.045840465, 0.08922434, 0.02091142, 0.036012664, 0.10341944, -0.028094068, -0.061278895, 0.0015636683, -0.037903756, 0.007355079, -0.02178929, -0.08772474, -0.07521312, 0.08665724, 0.02498421, 0.06528165, 0.018906005, 0.015517387, -0.093613476, 0.0037593297, -0.048620842, -0.06362015, -0.0956847, -0.078968585, -0.02788019, -0.06502567, 0.044127535, 0.04616862, -0.025373705, 0.09598184, -0.067468755, -0.103986114, 0.08164558, -0.039415285, 0.071449034, -0.03759418, -0.11179032, 0.0048309914, -0.020809365, 0.03446241, -0.0134334145, 0.076867044, 0.11124481, 0.107953824, -0.006014161, 0.009377073, 0.018316612, -0.022365704, -0.06657294, 0.094339065, 0.073379874, -0.11880712}, 
{-0.08851609, -0.04000548, 0.059754442, 0.034203634, 0.009419471, -0.043654308, 0.008081273, -0.036580026, 0.061273444, -0.034280084, -0.112603076, -0.108089164, -0.09403384, -0.013619371, 0.09594859, -0.044308625, 0.05748897, -0.10198524, -0.103091165, -0.03130141, 0.016621634, 0.051986545, -0.11126454, 0.017052954, 0.064708084, -0.054278877, -0.07111751, -0.027209474, -0.1017982, 0.10778802, -0.07034789, -0.01738223, -0.023602359, 0.09152384, -0.0996759, 0.046077654, 0.039905872, -0.0654917, 0.021408118, -0.09111346, -0.07370757, 0.009550095, 0.0046700668, 0.10551968, -0.07600775, 0.01055526, -0.06789661, -0.11020001, 0.04122889, 0.010240875, -0.094174296, -0.07001977, -0.022118283, 0.049433567, -0.048515763, -0.03959517, 0.043117315, -0.051430937, -0.010752535, 0.10357887, -0.027217947, 0.010593475, -0.059557844, 0.105767965}, 
{0.02722185, 0.08736831, -0.06309882, 0.072762325, -0.0933211, -0.015273429, 0.040107623, -0.054189455, -0.01934461, -0.06813246, -0.069959596, -0.11357069, -0.03845816, 0.0786569, -0.06410292, -0.019282408, 0.094219804, -0.06645997, 0.048458695, -0.1093763, 0.01771395, -0.10460762, 0.06681445, -0.09147899, -0.11261753, 0.033382762, -0.10869251, 0.048077144, 0.048776057, 0.049589638, -0.0012887567, 0.020404175, 0.025536088, 0.108758286, 0.0037963002, 0.07971331, -0.014648237, -0.083395965, 0.0035285135, 0.08257503, 0.110458374, -0.07409936, -0.00022594497, -0.082151264, 0.019488841, 0.08925459, -0.06602443, -0.064239465, -0.07460064, 0.051216595, -0.047096886, 0.06448324, -0.06752663, 0.06555432, -0.10593163, -0.034344155, 0.104508966, 0.052438565, -0.08559869, 0.053396657, 0.03360325, 0.0860769, -0.009918682, 0.03903086}, 
{0.053814895, 0.05513512, 0.09033456, -0.033001825, -0.048888847, -0.0038293377, -0.03592404, -0.018167607, -0.013127778, 0.037981078, 0.023119986, 0.041449755, 0.08049922, -0.011495091, -0.056386802, -0.014744371, 0.038002133, 0.024845317, -0.053282443, -0.041143194, -0.053049434, -0.072833955, -0.113302015, 0.006069202, 0.0417704, 0.03941531, -0.05736822, 0.09590376, -0.0038040956, -0.033459082, 0.052368715, 0.099270694, 0.05725431, 0.024513617, -0.083962716, 0.104214415, -0.06541006, -0.062155604, 0.09363964, -0.029472942, -0.037158996, -0.020761326, 0.06864937, 0.08014947, 0.1054949, -0.023826063, 0.05598586, 0.08785023, 0.10677664, -0.01235472, 0.012147068, -0.10019664, -0.09636487, 0.029383998, 0.10141482, 0.10354015, 0.08246341, -0.039396062, -0.07916818, -0.10938177, -0.09824778, 0.02761275, -0.09021068, 0.032574452}, 
{0.07978288, -0.031956073, 0.04666365, 0.01243259, 0.09601243, 0.04883945, 0.10902522, 0.0733491, -0.07886965, 0.030003458, 0.11047405, -0.077911004, 0.08211146, 0.04712054, -0.076861165, -0.03717863, -0.036417834, 0.05740553, 0.05945103, 0.061735123, -0.09681834, 0.11185846, 0.07490231, 0.067591965, -0.10280095, 0.096160926, -0.07761578, 0.10644601, 0.1020475, 0.08664941, -0.06331907, -0.10895795, 0.09412663, -0.046996772, 0.014932935, -0.08015326, -0.11571545, 0.1127225, 0.051690158, 0.078307696, -0.09189098, -0.05890597, 0.03329031, 0.02627398, 0.09412849, -0.04060091, -0.03981576, -0.09298603, 0.09251338, -0.11412411, 0.020631887, 0.06110678, 0.0948762, 0.024130577, 0.10337911, -0.045340355, 0.05426532, 0.06515467, 0.10670914, -0.021548156, 0.08442889, -0.05278145, 0.014365807, 0.039261773}, 
{0.0052040447, -0.04528747, -0.020389443, 0.0037326068, 0.08512962, -0.09862466, -0.029013133, 0.1131863, 0.014317227, -0.10659439, -0.09020577, -0.06685525, -0.049497016, -0.039457418, -0.0070500425, -0.09411634, -0.012389606, -0.09892655, 0.013703779, 0.03359817, 0.0022262782, -0.043995805, -0.07656799, -0.1457896, 0.0024901256, 0.016220652, -0.06402783, -0.007210372, 0.04857395, 0.06749818, 0.09710945, -0.03366758, 0.059122574, -0.08361625, 0.08778444, -0.059769187, 0.062586784, -0.05238029, -0.10515842, 0.13188227, 0.111270994, 0.11202048, -0.03716492, 0.035153925, -0.07775142, -0.019955188, -0.113585316, 0.033978976, -0.021827877, 0.007229711, -0.124912396, 0.11207778, -0.04551533, 0.033860914, -0.033915065, 0.045287788, -0.012995452, 0.006912515, -0.017422153, -0.10404381, 0.09413259, 0.04114418, 0.10531382, 0.10175699}, 
{0.044590812, -0.1276253, 0.042898793, 0.10199836, -0.017679863, 0.049717486, -0.13659112, -0.09935741, -0.11040241, -0.039198905, -0.013466649, -0.07774464, 0.054287627, -0.0165499, 0.025283217, 0.012374803, 0.03875199, 0.10490419, 0.016618706, -0.023266122, -0.03482482, 0.084251344, 0.04325801, -0.08291369, -0.04907524, -0.10846128, -0.055205196, -0.06983952, 0.024832506, 0.07822517, 0.011523768, -0.02606557, -0.07036013, -0.02864264, -0.1213928, 0.060474243, -0.036467742, 0.07038471, -0.08476865, -0.04888394, -0.09512885, 0.019233719, -0.031819973, 0.0021500662, -0.07301414, -0.10452393, 0.0846715, 0.09386845, 0.012454838, -0.07824875, -0.028911838, 0.17314354, -0.08390432, -0.010170628, 0.025552781, -0.03963335, -0.006654784, 0.10024175, -0.07172955, -0.0703277, 0.037774697, 0.044247925, 0.08884621, -0.10688297}, 
{0.044671923, -0.088180095, 0.001737031, -0.08276199, 0.0041507706, -0.10977017, -0.098849565, 0.0055712387, -0.033812303, -0.10275974, 0.09225623, 0.10395144, -0.027982257, -0.09228809, 0.092512324, -0.039036512, 0.11511022, 0.070240036, 0.0021562013, -0.009861335, 0.089956, -0.059749767, -0.09348564, -0.08986233, -0.06068363, -0.016938921, 0.049996227, 0.04460926, 0.06695039, 0.09659255, 0.011616841, -0.1071331, 0.046367906, 0.03624794, -0.0594997, -0.09718778, -0.08351002, -0.05282663, 0.025153881, 0.092562534, -0.041346237, 0.11265117, 0.16065092, -0.05072198, -0.07816344, -0.071976304, 0.03218258, 0.09662193, -0.04332745, -0.007855084, 0.016738936, 0.058228258, 0.003233063, 0.16452128, 0.055581376, -0.10942448, -0.050245084, 0.10814933, 0.048542883, 0.004085351, 0.066357374, 0.067960165, -0.042914756, -0.113298945}, 
{0.017360577, 0.0120279165, 0.02579245, 0.043404803, -0.050494947, -0.10104823, -0.01554128, -0.10050627, 0.004920627, 0.09238662, 0.02213201, -0.11079966, -0.0843266, 0.006724, 0.047205813, 0.036581382, 0.035625678, -0.031136863, 0.12533824, -0.02477128, -0.054015994, -0.011320382, 0.049381524, -0.13352856, 0.068492174, -0.09097076, -0.11065076, -0.08693829, 0.09052172, -0.077796504, -0.011230886, -0.10315866, -0.048663225, 0.11275503, -0.118273035, 0.024906425, -0.0033347504, -0.016405806, 0.01648786, -0.0006686531, -0.10209285, 0.007019572, -0.009746707, -0.081922665, -0.07532181, -0.031440675, 0.084365346, 0.08248922, 0.021660507, -0.042393766, -0.1358402, -0.046992324, -0.01495357, -0.010813667, 0.013394752, -0.13227439, -0.02774077, 0.15093336, 0.089576215, 0.005824213, 0.07592966, 0.04427783, 0.110382676, 0.10493508}, 
{0.02870149, -0.01849057, 0.083684504, -0.06362134, -0.094533235, -0.002507344, -0.10983747, -0.06124099, 0.034717865, -0.08688885, -0.09712628, 0.09661013, 0.013351694, 0.0063265413, -0.067876436, 0.04437703, 0.02763061, 0.08601819, 0.11272896, 0.042801127, -0.020847023, 0.057901293, 0.028646216, 0.047971215, 0.025489688, 0.0038421177, -0.043451354, -0.03760243, 0.12925926, -0.076137215, -0.09781137, -0.005412608, -0.13333695, 0.10949613, 0.038764182, 0.06889032, -0.11092358, -0.03936673, -0.09766723, 0.06314112, -0.082473144, -0.08858864, 0.11723213, -0.045730792, 0.10636373, -0.065540016, 0.038843945, 0.032115985, 0.048123136, 0.019731332, -0.09048379, 0.058789473, -0.08984011, -0.052151468, -0.1121452, -0.13314709, -0.055334598, 0.09611686, -0.06384833, 0.056818362, 0.10667275, 0.09533899, 0.059860736, -0.012698425}, 
{0.06071445, -0.10261287, 0.014819229, 0.060780197, 0.028204814, -0.06085308, -0.062430788, -0.103301376, 0.04863241, 0.006949544, 0.010571368, -0.06760414, -0.011657, -0.057624236, 0.03519548, -0.0773641, -0.0006717378, -0.09941665, 0.09133635, 0.021972954, -0.07356182, -0.0027576685, -0.06598827, 0.04298866, 0.07727268, 0.015718699, -0.0901913, -0.047655463, -0.049539044, 0.073234014, -0.021471545, 0.050287165, 0.05359733, 0.08319068, -0.010344913, -0.085760504, -0.100633144, -0.08785446, -0.1106856, -0.037778646, -0.11246334, -0.10769605, 0.0030332382, -0.026685938, -1.01700425e-05, 0.04597038, 0.034431227, -0.01581802, -0.10416667, -0.054315828, -0.01537133, -0.0652078, -0.066347905, 0.11511321, -0.052364632, 0.019132778, -0.02515605, 0.10803554, 0.07275239, 0.04033258, -0.077306084, 0.00987386, -0.07267289, -0.067829855}, 
{-0.097326316, -0.11681766, 0.069386244, -0.093108244, 0.06371795, -0.06928235, -0.0560806, -0.020367041, -0.0012608274, -0.0039352104, 0.08618826, -0.0922359, -0.013151616, -0.047579758, -0.07825233, 0.0684039, -0.031918433, 0.0993987, 0.12742253, 0.011366412, 0.04740283, -0.02768232, 0.05817862, 0.057559524, -0.030163988, -0.041898265, 0.042711765, 0.021174768, 0.035178337, -0.026989317, -0.11191349, 0.010898126, 0.07819855, -0.08755921, -0.029166237, -0.1134423, 0.06946408, -0.017577246, 0.0046788417, 0.01387828, 0.109495774, 0.019261643, 0.048957318, 0.076574996, 0.052680194, -0.06660507, -0.12038493, 0.097285084, -0.05008561, 0.06190451, -0.04395874, 0.069239825, -0.062443305, -0.07163612, 0.023338223, -0.07770976, 0.020054206, 0.0781647, -0.00038767108, 0.089713335, 0.061331168, -0.029616948, 0.029129982, -0.11714052}, 
{0.01329056, -0.028987331, 0.004015481, -0.06289226, 0.11240679, 0.058997497, 0.075164534, 0.015892252, 0.0016488332, 0.052008703, 0.07327294, -0.09639117, 0.017244503, 0.009311646, -0.11859273, -0.084673226, 0.11252334, 0.010591239, 0.06900185, 0.046605363, -0.091139175, 0.05990672, 0.10825145, -0.048850227, -0.10128747, -0.048260998, -0.08297514, 0.050829392, 0.10599789, -0.09138288, 0.087790504, 0.047409125, 0.11084583, -0.039086908, 0.099475816, -0.015261312, 0.10348561, -0.091106914, 0.06081329, -0.08322917, -0.0901197, -0.0032325014, 0.057506405, -0.080687724, 0.0025971383, 0.018819824, 0.051264323, -0.066373326, -0.06302711, 0.09392249, -0.09666055, -0.08586514, -0.102166474, -0.057040434, -0.0019883532, -0.053708386, -0.043679364, -0.0077344556, 0.046813324, -0.05301102, -0.07414313, 0.13527092, -0.0117306635, -0.08090404}, 
{0.030584961, -0.03782635, -0.0008810793, -0.017957188, 0.10852119, -0.07942543, 0.038264304, 0.09675415, 0.05611714, -0.03022927, 0.031193122, -0.07230799, 0.016746223, 0.066435486, 0.061089925, 0.07108958, 0.09118463, 0.098786354, -0.041251637, -0.045810968, 0.002241701, -0.042917497, 0.08534159, -0.07470493, 0.009033591, -0.03830218, 0.0005785376, -0.09788688, -0.09590892, 0.08084644, 0.09947893, -0.017280685, -0.03498668, 0.060078666, -0.09158635, -0.0068467907, -0.117321245, 0.029457599, -0.017129816, -0.06428083, -0.054753676, 0.039429218, -0.005519148, -0.112089284, 0.021759287, 0.08337371, 0.06274885, 0.04645422, 0.007153176, 0.0072566387, 0.06232257, 0.109870635, 0.076482, 0.07275467, 0.10318458, -0.08386211, -0.087218225, 0.022767803, 0.0042732665, 0.109531626, 0.01198633, -0.08690232, -0.031748995, -0.10370759}, 
{0.021426948, -0.0661656, -0.046019875, -0.0705756, 0.047153562, -0.048291363, -0.09653668, 0.106723085, -0.08409429, 0.10129617, 0.08272633, 0.049359694, -0.049879946, 0.023028329, 0.072109215, 0.11181539, -0.10069561, -0.07807435, -0.08933145, -0.017197005, 0.043364614, -0.04895717, 0.021162093, -0.016859716, -0.08100632, -0.07396696, -0.0001328215, -0.034231685, -0.057150643, -0.023109758, -0.092954084, 0.093509644, 0.018884007, -0.014976777, 0.10994537, -0.0044116806, 0.011787076, 0.0052030087, -0.0975869, 0.057574645, -0.010658555, 0.10899621, 0.0043928516, 0.10477683, 0.047013372, -0.02472397, -0.10375442, -0.016875591, 0.0039323345, -0.07402903, -0.03474644, 0.0991851, 0.050216738, 0.07202813, -0.040236913, 0.08758075, 0.03051661, 0.08115235, 0.024611443, -0.054006252, -0.040381707, 0.07203842, 0.104554534, 0.042763703}, 
{0.00949604, 0.10507392, -0.12329287, -0.017793871, -0.06111652, 0.07326841, 0.047378488, 0.1071392, 0.045488667, -0.0710502, -0.08777087, 0.020248532, 0.007953949, -0.10746693, 0.020822274, 0.06725076, 0.0926894, 0.10637243, 0.04077944, -0.0751131, 0.022517249, 0.03320563, -0.08346144, 0.0005408154, 0.107745364, 0.11716461, -0.078836024, 0.06941614, -0.08125121, 0.107581034, -0.034658834, -0.10172593, -0.06743462, -0.09660419, 0.03332828, 0.08804331, -0.05268913, 0.11119291, -0.0051000025, -0.07651058, -0.08795369, -0.03148883, 0.11823365, -0.07522054, 0.11084813, 0.012742311, -0.11674555, -0.034800164, -0.090655535, 0.094677605, 0.04437602, 0.026346944, -0.031845715, 0.018811166, 0.06610869, -0.0085986005, 0.043089837, -0.10458275, 0.06924871, 0.029960785, 0.09472132, 0.04409612, -0.047662288, -0.020973498}, 
{-0.02575047, -0.06783159, -0.02650231, 0.052829742, 0.10929504, 0.06752369, 0.016607605, -0.0069760606, 0.06378366, 0.006936118, -0.08450432, 0.1054329, 0.022673026, 0.07352671, -0.01020342, 0.008842185, 0.1068111, 0.050962895, 0.067416385, 0.06244652, -0.06496977, 0.062773705, 0.09237032, -0.008619996, 0.041233182, -0.081818886, 0.10472241, 0.015048567, -0.051795546, 0.12090108, 0.10502823, 0.083525345, -0.022446295, -0.059845876, -0.051947065, 0.09931912, -0.010216479, 0.09634237, 0.0958497, 0.0745665, -0.087157905, -0.008746341, 0.06827408, -0.06998956, 0.041044325, -0.094799526, 0.06275839, -0.054211024, -0.025860198, -0.049305003, 0.11432178, 0.053373713, 0.104252554, -0.04252981, -0.017355556, -0.10256627, -0.07476677, 0.04209634, -0.084496535, 0.0653254, 0.09703326, 0.109925345, -0.083714746, -0.042912688}, 
{0.0256047, -0.07808656, 0.03323054, 0.0680242, -0.05644192, 0.049617425, 0.0009345495, 0.045702025, 0.09747898, -0.085650414, 0.09527038, 0.05852087, -0.04583244, 0.080871075, -0.07829183, 0.003912136, 0.107338816, -0.007428929, 0.114687, -0.10747785, -0.0697218, 0.079893485, -0.108161665, 0.024422698, -0.08358513, -0.032061175, -0.09501238, -0.071494564, 0.041399978, 0.12703463, 0.0082144365, 0.034452133, 0.060505673, -0.032002404, -0.018228022, 0.044462167, 0.07625387, -0.07143027, -0.0476747, 0.026739037, -0.07232241, 0.059021518, 0.06714697, 0.027081117, -0.11363622, -0.015758269, -0.08829449, 0.031787608, -0.00894209, -0.039495315, 0.109406404, 0.06779697, 0.05950741, -0.042814773, -0.046716027, 0.08407783, -0.03614624, -0.10265842, 0.087704375, 0.07642326, -0.099342205, 0.097165935, 0.10446119, -0.0822958}, 
{0.07517864, -0.08547323, 0.080719724, 0.07485004, 0.01633653, -0.093630224, -0.08622912, -0.008184917, -0.09492359, -0.005352795, 0.09849593, -0.06171165, 0.013258353, 0.037953615, 0.007262642, 0.021530807, 0.092738405, 0.05345194, 0.106738664, -0.04627818, 0.047578618, 0.06882742, -0.11191574, 0.0200529, 0.033880115, 0.012784987, -0.04145696, 0.03035971, -0.099620424, -0.06808517, 0.07579778, 0.09976126, 0.0030827164, 0.032020405, 0.062433492, 0.10039452, 0.064390264, -0.054449238, -0.037268687, 0.11379768, -0.021695651, -0.101128265, 0.017501924, -0.064535275, 0.10170555, -0.067879185, -0.11585955, 0.016363448, -0.11297087, -0.049467158, -0.035247643, -0.036330983, -0.0013257462, 0.037992388, 0.071869895, -0.051643185, 0.06295906, 0.01779563, -0.11869077, -0.041045588, -0.003995128, 0.123609915, -0.073988095, -0.047057144}, 
{0.08977553, 0.034401543, 0.046070557, -0.020579487, 0.042249277, 0.050795317, -0.0771633, 0.010784626, 0.03551839, -0.030816592, 0.07377982, -0.020273909, -0.029339038, 0.09879327, -0.10498246, 0.015558422, 0.01678189, 0.010497272, 0.06874003, 0.04391922, 0.04276909, 0.11040722, -0.020683326, -0.077059604, -0.036760807, -0.07075141, -0.0714765, 0.081380524, 0.07205476, 0.06722743, 0.037503317, 0.049487174, 0.10461685, -0.014529623, -0.016144603, -0.03071756, -0.008818904, 0.034560427, -0.0027640003, 0.0826701, 0.08797178, -0.039923713, -0.103268296, -0.07062964, 0.053950787, 0.069692984, -0.09172301, 0.0035956372, 0.029680729, -0.046762582, -0.038103428, 0.0053138616, -0.011557978, 0.07606933, -0.07342315, -0.10411127, 0.004542291, -0.06514827, 0.024792844, -0.04500562, 0.08269836, -0.0873239, 0.08524138, 0.047457214}, 
{0.07829841, 0.09789086, -0.08484066, 0.026871294, 0.056446746, 0.044100374, -0.0013454314, 0.09515889, -0.03421436, 0.00280682, 0.06646894, -0.10450557, -0.11145397, -0.06714071, -0.06578596, 0.11045939, -0.034175206, 0.04356639, -0.06679302, -0.03622351, -0.0038620085, -0.11055625, -0.0906917, 0.070520304, -0.09169521, 0.023226092, -0.08161689, -0.03924135, -0.029850144, -0.0753858, 0.027420804, -0.044628784, 0.12202589, -0.02397298, -0.069704756, 0.016548388, -0.10132367, -0.0988206, -0.09117737, -0.092539065, 0.10557331, 0.09477171, 0.0017246386, 0.009915397, -0.055043988, -0.0075126514, 0.017202033, 0.021676531, -0.0979155, -0.0065984013, 0.0122373365, 0.10750164, 0.09850615, -0.030105703, 0.08600181, 0.07544756, -0.1022177, -0.042205095, -0.014060867, 0.10899073, 0.09819503, -0.030565249, -0.04167155, 0.010711557}, 
