{{-0.027269244, -0.34495872, 0.292291, 0.2607858, -0.3190702}, 
{0.118662044, -0.3580764, 0.2967228, 0.026281716, 0.21420749}, 
{0.07447408, -0.09669663, 0.21389756, -0.29555357, 0.18117084}, 
{0.36361805, -0.35258573, -0.18537219, 0.03869544, -0.24409363}, 
{0.3148082, 0.22552021, -0.166884, -0.33399668, 0.24040522}, 
{-0.20638423, -0.23057167, -0.16688116, -0.11677301, 0.11758393}, 
{0.23096266, 0.18755098, -0.42004722, 0.33688128, 0.24943236}, 
{0.26168162, -0.22279213, 0.23627758, -0.2515197, 0.10081558}, 
{-0.35173094, 0.30246153, -0.050446127, -0.18942414, -0.34961054}, 
{-0.013123953, -0.18110316, -0.34453008, 0.23141034, -0.14396225}, 
{-0.26680055, 0.24710365, 0.1413517, 0.07079963, 0.19343968}, 
{-0.116287485, 0.23823655, -0.2163462, -0.24763504, 0.2939586}, 
{0.36643565, 0.24363187, -0.21028334, -0.09941474, -0.22540396}, 
{-0.07316434, 0.047228828, -0.3576964, -0.40068218, 0.11238951}, 
{-0.33170444, 0.12830998, -0.39194778, 0.05154342, -0.00094752904}, 
{-0.3486166, 0.03827816, 0.11644629, -0.10813378, -0.016447652}, 
{-0.3535747, -0.14261068, 0.11544136, -0.047168512, 0.23828231}, 
{-0.28803307, 0.2726461, 0.06790559, -0.08896195, -0.35609627}, 
{0.17149824, -0.3466069, 0.26902828, 0.19866975, -0.08081014}, 
{-0.19129695, -0.20129703, 0.17287232, 0.05871342, 0.23180093}, 
{0.19861606, 0.024625301, 0.22936177, 0.0041846633, 0.06532112}, 
{0.3722214, -0.07626386, 0.006906076, -0.1320918, -0.2875509}, 
{-0.25142723, 0.21808413, -0.41786736, 0.043547757, -0.36787397}, 
{0.08069721, -0.065455124, -0.2731038, 0.011854321, 0.26991683}, 
{-0.3900837, 0.27451587, 0.29658633, -0.33072034, 0.11383889}, 
{-0.28065196, 0.19200131, 0.18626289, 0.21274306, -0.14544585}, 
{0.15946901, -0.06044436, -0.0078109847, -0.14565793, -0.01281203}, 
{-0.01222275, 0.3255958, -0.23341864, 0.35033396, -0.10792729}, 
{-0.28825596, -0.07570712, -0.25721484, -0.018162161, 0.28457737}, 
{-0.28383744, -0.26513553, -0.3372464, 0.062307045, 0.33681175}, 
{0.07331885, -0.11222817, 0.2047288, -0.17602111, -0.36371836}, 
{0.23689048, -0.16598548, 0.1678184, 0.17950794, -0.24582943}, 
{0.02375254, 0.2320717, -0.037920356, -0.27114332, 0.18124133}, 
{0.26220158, -0.37902457, 0.008004854, 0.044505533, 0.1657369}, 
{-0.17091931, -0.08016001, 0.21692073, -0.2595823, -0.13669775}, 
{0.058380578, -0.37076256, -0.41637546, 0.32510072, -0.24577533}, 
{0.040494043, 0.2802548, 0.009727404, -0.2679802, -0.25269976}, 
{-0.07244175, -0.04077672, 0.2979104, -0.28089374, 0.093705386}, 
{-0.3258467, -0.047279656, -0.08008529, -0.066179484, 0.36633158}, 
{-0.19669722, -0.4130189, -0.17359683, 0.26576638, 0.3796599}, 
{-0.2473239, -0.11034637, -0.16907798, -0.10031819, 0.39838576}, 
{0.31562307, -0.28780758, -0.20058608, 0.1456593, -0.33921918}, 
{0.07663438, 0.011866987, -0.068684205, -0.25634837, -0.18336582}, 
{0.07404093, -0.30084184, 0.38231856, -0.06735482, 0.1867495}, 
{-0.32858345, 0.33925825, 0.21727467, 0.26620078, -0.38606352}, 
{-0.15773304, 0.083797336, 0.12619239, -0.114108995, -0.049907}, 
{-0.061698973, -0.20578003, -0.2566424, 0.240201, -0.04562545}, 
{0.01670645, 0.20814213, -0.3140748, 0.28729168, -0.23932041}, 
{0.37428567, -0.04013805, 0.16847396, 0.20219557, -0.3598356}, 
{-0.10348157, 0.32754618, 0.09478065, 0.12179202, 0.0062881936}, 
{0.008148861, -0.14676563, 0.040637005, -0.28916216, 0.19687171}, 
{0.24986446, 0.17151451, 0.018285751, -0.2679385, -0.21463609}, 
{-0.004040595, 0.0034581046, -0.2421821, -0.048210617, 0.17829591}, 
{-0.38909656, 0.34488717, 0.087449804, -0.31884927, -0.057468485}, 
{-0.2226565, -0.13836245, -0.050251007, -0.10254903, 0.06754503}, 
{0.27829897, 0.22980537, 0.27889028, -0.17618804, 0.11178043}, 
{0.17339425, -0.08577634, 0.22812182, -0.15479466, -0.12160201}, 
{0.22511423, 0.086182535, -0.016367085, 0.16820313, 0.13732478}, 
{-0.08993072, -0.22535206, -0.38288978, -0.3657692, 0.26195034}, 
{0.27068055, 0.051093176, -0.24400602, -0.013324716, -0.279779}, 
{-0.13180788, 0.10773265, -0.09479444, 0.3511386, -0.28742543}, 
{0.2656916, 0.3214714, -0.38570422, 0.03413111, 0.3439395}, 
{-0.019413505, 0.24614878, -0.07073933, 0.4004249, 0.16255015}, 
{-0.08271083, -0.08538632, 0.2554943, 0.28665066, 0.1941148}}