{{-0.036769137, 0.0004262702, -0.0035170913, -0.06334506, 0.14247252, 0.124218225, -0.03218149, 0.1758797, 0.10963158, -0.14183672, -0.15634182, -0.110484585, -0.08521605, 0.14233388, 0.10939205, 0.028259978, 0.017485382, 0.18601567, -0.09293526, -0.13738361, -0.048943013, 0.13294093, 0.08027971, 0.19916484, -0.004016755, -0.06433588, -0.030386023, 0.10455683, -0.02219285, 0.13342078, 0.11041326, 0.04720574, -0.013468862, -0.031064112, 0.20116661, 0.019598916, -0.006287564, 0.1427957, 0.08099927, -0.014999837, 0.18294372, -0.072681814, -0.07587233, -0.11853405, -0.114545256, -0.013184413, 0.1352118, -0.08947508, 0.109074056, 0.044119082, 0.13778348, -0.12467849, 0.05720587, -0.051791966, -0.06637528, 0.088238224, 0.0549051, -0.055078078, -0.059327517, 0.058426157, 0.15820044, -0.007486591, 0.11941924, -0.10870283}, 
{-0.047853544, -0.16500269, 0.02204679, 0.09783309, 0.03991922, 0.06811418, 0.008207242, 0.119275525, 0.031818837, 0.03370578, 0.14875893, 0.123245224, -0.13039868, 0.07896273, -0.045547936, -0.18005937, -0.064131595, 0.15824546, 0.16922231, 0.09437973, 0.17494102, 0.1067688, -0.09553977, 0.044397242, -0.06873706, 0.089762405, 0.08754753, -0.09755657, 0.15912767, -0.08753846, 0.05973245, 0.08364747, 0.022685096, 0.09342457, -0.097432815, 0.009781327, -0.14772002, 0.0011398047, 0.14131169, 0.18051909, 0.107551284, 0.13301969, 0.094640985, 0.04338593, -0.043014515, 0.067600995, -0.08736617, -0.07810784, -0.14901018, 0.13353495, 0.22567943, -0.032318767, -0.008654505, -0.14921302, 0.0957621, -0.14920935, -0.010731131, -0.11628404, 0.12737086, -0.14897895, 0.056872062, -0.22677624, 0.15910138, 0.008282796}, 
{-0.1891409, 0.111235894, -0.13603461, -0.19930422, 0.12601627, 0.066619225, -0.16723244, 0.15629567, 0.15555938, -0.016745092, -0.18699744, 0.14415564, 0.20750734, 0.04299113, 0.21899961, 0.058649704, -0.12653877, 0.040970553, -0.18165289, -0.021291923, 0.0850597, 0.18174495, -0.08408955, 0.1555853, 0.014375104, 0.09691858, 0.041934337, 0.020686233, 0.09458016, 0.08036019, 0.2167057, 0.24625735, -0.14306778, -0.104222044, 0.1249873, 0.20321861, 0.11316068, 0.14889722, -0.18652615, 0.06267719, -0.17107584, 0.13727784, 0.12636836, -0.15167476, 0.23018712, -0.016398717, 0.22354382, -0.1107385, 0.13915184, 0.042884205, 0.040736776, -0.005673402, 0.050980777, -0.033408016, -0.1257463, 0.18688507, 0.00884065, 0.022013908, 0.20507734, -0.18523, -0.051170055, -0.1091428, -0.2281711, 0.03746198}, 
{-0.12542132, -0.062994756, 0.16188844, 0.10699014, 0.063509315, -0.1445397, -0.14887492, 0.15203439, 0.07886033, -0.21747692, 0.06711682, 0.17179085, 0.15763517, 0.009321541, -0.050128818, -0.0050626695, -0.15572134, -0.116633005, 0.08414772, -0.08823801, -0.13225195, 0.100216046, 0.05006887, 0.15572743, -0.1338361, -0.063809805, 0.08801778, -0.09380164, 0.12523307, -0.09510154, 0.22844133, -0.07842827, -0.12228464, -0.15601827, 0.12729128, 0.064008944, 0.15748435, -0.16517991, -0.08973169, -0.011632517, -0.06903883, 0.12823227, -0.16612221, -0.0055292863, 0.11846425, 0.20802444, 0.24941789, -0.119923, -0.073128425, 0.18280679, 0.1168769, -0.035460338, -0.13978136, -0.08524983, 0.116989106, 0.21262215, 0.08287905, 0.020975096, -0.047300607, 0.021562442, 0.15091285, -0.07479936, 0.06442284, -0.17431197}, 
{-0.1434263, 0.05337892, 0.07446344, 0.12374778, 0.02547008, -0.026603822, 0.14627953, -0.18992339, 0.03800626, 0.05567292, 0.1744063, -0.06913011, -0.011880045, 0.10937701, -0.06799189, -0.16152346, 0.0039781183, -0.032621566, -0.12582959, 0.07695283, -0.12250989, -0.018780693, -0.15884417, 0.024374042, 0.1263163, -0.11773763, 0.02269976, 0.08089462, -0.01006031, 0.073140725, 0.079248324, 0.030258372, -0.18188003, -0.009562086, 0.015510036, 0.20355262, 0.1341376, 0.14678617, 0.07188864, 0.03876327, -0.13685553, 0.04574866, 0.12117614, -0.09943308, -0.09859602, 0.02900933, -0.025206648, 0.08873539, 0.035324555, 0.1721307, 0.16122715, 0.13015193, -0.08278945, -0.16820134, 0.0069381646, 0.045521695, -0.12849514, -0.18702692, 0.15939471, -0.106888376, 0.20416024, 0.060159028, -0.19320539, -0.053442836}, 
{0.057752743, 0.07285349, -0.13163523, -0.071836546, 0.17107959, 0.06330468, -0.1243792, 0.17759342, -0.16838726, 0.0820345, -0.03027059, -0.044451103, -0.10914854, 0.055688754, -0.11661598, 0.1754504, 0.012365389, 0.15142414, -0.057209507, 0.0997785, 0.09105985, -0.1777223, -0.03944474, 0.01712452, 0.035120353, 0.20831136, -0.16056682, 0.1105431, -0.0077966154, -0.16668463, -0.0099314945, 0.020991588, -0.05121067, -0.05878028, 0.14604385, -0.08648537, -0.1110414, -0.04696639, -0.00570558, 0.032006443, -0.1943452, 0.08061662, -0.059443563, 0.013812638, 0.08554423, 0.06898073, 0.055528056, 0.06727402, -0.043788623, 0.15940808, 0.06796368, 0.034123953, 0.14454003, 0.10020603, 0.10790764, -0.08198127, -0.020024613, 0.082929775, 0.026091015, 0.06351588, 0.07899561, 0.034747, 0.12183665, 0.16638587}, 
{-0.12912849, 0.08397739, -0.16088976, -0.07915701, -0.14479524, 0.05385233, 0.13096392, 0.05586213, -0.11050292, -0.020910904, -0.17977475, -0.08478695, 0.19087508, -0.13631141, 0.20160869, -0.16894394, 0.06619596, -0.011021728, -0.09913278, 0.045780767, -0.15132739, -0.14297155, 0.07555506, -0.0832278, 0.04122621, -0.030445607, -0.010843474, -0.124863915, -0.18607815, -0.078830965, 0.22723554, -0.04850087, -0.16481364, 0.09925866, 0.20568176, 0.080633916, 0.0795643, 0.18483181, -0.044151768, 0.045373425, -0.15660545, 0.09738359, -0.10324953, -0.16910408, 0.1630955, 0.15624033, 0.04053355, -0.06052102, -0.058368854, 0.1734447, 0.048606433, 0.04980669, -0.16978545, -0.13709834, -0.11642383, 0.09118051, 0.08786364, -0.20393467, 0.12150868, -0.15198863, -0.14609607, 0.13963455, -0.13727272, -0.18744542}, 
{0.041590482, -0.046112478, 0.12290029, 0.122285664, -0.04872781, 0.08449898, 0.13138877, 0.054904148, 0.11777572, -0.029015241, -0.11046793, -0.15940666, 0.14909801, 0.078886315, -0.033925183, 0.11212985, -0.17354053, 0.017088871, 0.14735827, -0.03919267, 0.16594975, 0.11788474, 0.17256178, -0.07849118, 0.07146213, -0.066817366, 0.10729104, -0.19960867, 0.12425019, -0.052804083, 0.0082267765, 0.032171253, -0.11457189, -0.02306649, -0.14394608, -0.0226599, -0.024824243, -0.100225404, 0.10787289, -0.043746725, -0.028369814, -0.04298028, 0.051383182, 0.07905105, -0.011793571, 0.11045089, 0.116117634, -0.09951824, 0.12709351, 0.11138794, 0.20081241, 0.0780778, 0.023889795, 0.13397394, -0.18833867, 0.087057665, 0.1420749, -0.21070491, 0.0081915865, 0.054340668, 0.13234003, -0.10175374, -0.010519441, 0.06894983}, 
{-0.063019305, 0.038222656, -0.1804092, -0.2187904, 0.101469874, -0.0924277, -0.17977917, -0.07015111, 0.12723358, 0.13516125, 0.031371374, -0.09104027, -0.08787332, 0.11810367, -0.10329944, -0.164658, -0.057351485, 0.060275707, 0.09126436, 0.108888075, 0.13190782, -0.15997246, -0.10791647, 0.041227117, -0.1923393, -0.006995084, -0.087355085, 0.0894404, 0.054225758, 0.086599305, -0.12648903, 0.060045984, -0.01826188, -0.019882085, -0.11998938, 0.22071393, 0.12182616, -0.010433927, -0.024490938, -0.128874, 0.1684647, 0.12982276, -0.1008322, 0.08296248, 0.1133716, -0.049432404, -0.047441483, -0.12994955, 0.16309145, -0.11532402, -0.022421714, 0.10805524, 0.070505485, 0.03244756, -0.19552286, -0.0033047001, -0.12513697, 0.04667345, 0.16640486, -0.093108125, 0.14785308, 0.06003645, -0.20644781, -0.16114797}, 
{0.13543256, -0.184706, -0.18607359, -0.06942374, 0.016218713, -0.07442621, -0.18051487, -0.17003427, -0.12394236, -0.10908653, 0.15827262, -0.1343995, 0.060729753, 0.01920253, -0.09405132, -0.06123914, -0.012983629, -0.1761983, 0.09585234, 0.11017483, -0.1419995, -0.1744693, 0.0797738, 0.2348042, 0.041818183, 0.11240058, -0.14026038, 0.035845645, 0.1313395, -0.18782634, 0.12834293, 0.09167648, 0.1059102, -0.1713873, 0.039015863, 0.23212883, -0.120388076, -0.117950395, 0.18935536, -0.014650106, -0.18228742, -0.1929878, -0.03507307, 0.0326307, 0.09578822, -0.03791681, 0.06677476, -0.039756596, 0.06316645, 0.1276883, -0.09656377, 0.0794491, -0.077815525, 0.0627497, 0.11387238, -0.0547851, 0.09604652, -0.052156422, 0.14251143, -0.036711365, -0.04730233, -0.1535477, 0.035648156, -0.15108657}, 
{-0.0022788346, -0.2011744, 0.07461415, -0.023242624, 0.1197745, -0.060128845, 0.1341924, -0.025755957, -0.15734696, -0.014896531, -0.12393726, -0.04772669, 0.17800619, -0.13143845, -0.018664699, 0.056173787, 0.09959377, 0.005471486, 0.11426904, 0.085967466, 0.051489323, 0.078456655, 0.0049795504, 0.055963907, 0.101008125, 0.18656828, -0.1256426, -0.16231617, -0.17809005, -0.11035931, -0.03050561, -0.056410193, -0.06944148, 0.10226985, -0.11932857, 0.124185495, -0.035333816, 0.11572479, 0.056808308, 0.024889544, 0.14014901, -0.020569652, -0.021815583, 0.03218385, 0.18833575, 0.2110515, -0.020985974, -0.16264552, -0.13745017, 0.0034406376, 0.118321985, -0.08181937, -0.07418242, 0.11156915, -0.008398291, 0.14832234, -0.10517019, -0.040345494, -0.010146098, -0.1289499, 0.1542981, 0.057536785, -0.119115554, -0.13415416}, 
{0.14567901, -0.18710667, 0.08496477, -0.10298743, 0.0498853, 0.052962966, -0.038774673, 0.062213913, -0.00091297925, -0.113730825, 0.048753466, 0.15864359, 0.16244082, -0.05586879, 0.20141497, -0.12963189, 0.13111833, 0.0113050025, 0.02473514, -0.04028402, -0.11814801, -0.1864899, 0.0086227665, 0.0519175, -0.1556166, 0.24846329, -0.0676324, 0.008175749, 0.064524844, -0.11077143, -0.09419701, -0.10306406, 0.15190978, 0.125995, 0.18255006, -0.09919713, 0.17778856, 0.06685366, 0.14590807, 0.13143687, -0.20377088, -0.07028831, -0.020915508, -0.19620667, 0.13401088, -0.03318727, -0.019704798, 0.1425034, -0.03538231, -0.06517466, 0.0991123, -0.00010016394, -0.074254654, -0.020227551, 0.113520585, -0.038280077, 0.18001519, 0.11569829, -0.11293491, -0.19472195, 0.12544611, 0.0637701, 0.11861536, -0.09351369}, 
{0.032161266, 0.120578006, 0.07568295, -0.24167927, -0.13787816, -0.22072732, 0.06327772, -0.0784427, -0.0145074725, -0.10908196, 0.17901522, -0.10269864, 0.057861675, 0.15522729, 0.07844667, -0.15773061, -0.114524476, 0.023242075, -0.23721454, 0.21426456, 0.14008981, -0.018572435, -0.041304093, 0.23617882, -0.00920033, 0.22482868, 0.006471545, 0.109254934, 0.03430429, 0.006234899, -0.09382686, -0.014956438, 0.024979338, 0.11401258, -0.09769636, 0.08099472, -0.039207023, 0.07413544, -0.07470458, -0.13105029, 0.13713549, 0.05931262, 0.05299233, 0.032824147, -0.093813874, 0.044294756, -0.013868096, -0.18396363, -0.1705324, -0.107199594, 0.21558377, 0.028005688, 0.050824538, -0.031067386, 0.1273662, 0.21132319, 0.04922606, -0.24667487, 0.20528193, 0.08140536, 0.13128322, -0.25424078, -0.073006235, 0.041149765}, 
{-0.048762053, -0.082303345, 0.120860234, 0.08186811, -0.1794591, -0.09538325, 0.13040638, -0.13428321, -0.13336861, 0.058388714, -0.022553135, -0.052044377, 0.24879506, 0.14539655, 0.0766802, -0.15578747, -0.028999414, -0.05303445, -0.060324065, 0.20324929, -0.013775169, 0.028562322, -0.009046996, 0.023288816, -0.037605215, 0.20916341, 0.010106502, -0.20795977, -0.1279579, -0.14438401, -0.10266081, 0.12171492, 0.18220048, -0.16179249, 0.07621841, 0.18530612, 0.060492408, 0.08577289, 0.028193891, 0.17872374, -0.22303258, 0.025338834, 0.041027322, 0.17477451, -0.12575619, 0.1249902, 0.16327895, 0.08157368, -0.1471939, -0.095073044, 0.23883444, 0.11015638, -0.06992625, 0.17419697, 0.15012479, -0.07688121, 0.08425312, -0.11209241, 0.081125185, -0.22377923, 0.21506022, -0.0090592485, 0.019156, 0.07089062}, 
{0.10388623, -0.16123828, -0.03023541, 0.031557105, 0.122752205, 0.1323207, 0.049001336, -0.17117211, -0.15928636, -0.016531076, -0.15047197, 0.058654547, -0.08336746, 0.14448266, 0.0474086, 0.07382746, 0.09506258, -0.06250686, -0.089359574, 0.20757702, 0.12208034, 0.16568865, 0.09152339, 0.082891874, 0.098697186, -0.1048216, 0.11008965, 0.095658764, -0.053427294, 0.1733786, -0.06238907, 0.04177581, 0.12045716, -0.15016793, 0.13244492, 0.0025050305, -0.045495357, -0.04074709, -0.13992587, -0.17731202, -0.03503035, 0.1440295, 0.18319161, 0.1263766, -0.04685404, -0.039572332, 0.059491258, -0.07462956, -0.12701559, -0.10606299, 0.23504084, -0.1223136, -0.04735014, 0.04894857, 0.04081211, 0.053573687, -0.009145871, 0.11489922, -0.13362044, -0.18951333, 0.015220541, 0.040339924, 0.08450395, -0.045281813}, 
{-0.036719933, -0.04148078, -0.13994958, -0.1015724, -0.07953413, -0.17503583, -0.16577803, -0.18110901, 0.109854385, 0.15667875, 0.13075328, -0.0276265, 0.03128242, -0.10105192, 0.031329554, 0.09664078, -0.019710697, 0.15391916, -0.15369983, 0.08150453, 0.17142442, 0.033556357, -0.014166218, 0.09398432, -0.04076105, 0.11508068, -0.105645016, -0.0019426568, -0.071720175, -0.13844372, 0.20800859, 0.1375922, -0.054398045, -0.019705294, 0.029192774, 0.0040671676, -0.03444263, -0.1576384, -0.09855401, -0.18483227, 0.109970726, 0.04954381, 0.17377727, 0.008011726, -0.00075584144, -0.123334646, 0.044979904, -0.15736893, -0.187625, 0.08132964, -0.1289788, 0.13651039, 0.030672833, 0.1611134, 0.10590492, -0.08180658, 0.07506813, 0.12321385, -0.07215643, -0.12808928, -0.008918474, 0.1024439, -0.07646185, -0.048934385}, 
{-0.0017674416, -0.010190143, 0.012986928, -0.11806971, 0.019095156, 0.05909817, -0.12232376, -0.15180227, -0.08545955, 0.05364543, -0.16777919, 0.1304696, 0.08100009, -0.17647351, 0.17937768, 0.1078137, 0.074071296, 0.057268243, 0.1085643, -0.032780685, 0.105101414, -0.18615796, -0.010954354, -0.036276832, 0.07209246, 0.23914841, -0.023833977, -0.18491574, 0.108577326, -0.1757248, -0.10114934, -0.06125888, -0.16568401, 0.020052923, 0.00805663, 0.21138151, 0.054536305, -0.19034012, -0.0346507, -0.14350228, 0.14410794, -0.10439255, 0.049143344, -0.13090754, -0.08080825, 0.093799666, 0.21724004, 0.11116202, 0.041524988, 0.057542205, 0.11886869, -0.19031684, -0.083910234, 0.00012427568, -0.14582416, -0.08808738, -0.14891481, 0.061200928, -0.053448863, 0.10803605, 0.14007786, -0.1280105, 0.07863488, 0.04986693}, 
{0.09115572, -0.13538156, 0.025195912, 0.0029445929, 0.07024723, 0.18022357, 0.154591, -0.060165226, 0.17893289, -0.20353718, 0.08856562, 0.06481318, 0.21604432, -0.11227734, 0.08684929, -0.049409434, 0.053757206, 0.20159015, 0.16973753, -0.042160545, 0.037591547, 0.17477666, 0.08536627, 0.22461711, -0.0725907, -0.07704378, 0.07384578, -0.017999956, -0.039133564, 0.1453784, 0.16555195, -0.0077066193, 0.18292113, -0.034162946, -0.07392295, 0.2248073, 0.116639614, -0.12347379, -0.15515463, 0.12176873, 0.10800856, 0.0741359, 0.055178314, -0.18108611, 0.07575283, -0.055924945, -0.13369587, -0.05811894, -0.17496587, 0.14985067, -0.043499988, 0.08346499, 0.13096736, -0.026652053, 0.07255838, 0.11744472, -0.122642584, 0.09464022, 0.19004369, 0.14115518, 0.035307657, -0.21744674, 0.068742685, 0.060225323}, 
{0.08019595, -0.11360314, -0.0071799755, 0.15107307, 0.14234078, 0.14241748, 0.09413253, -0.13744575, -0.121570826, 0.012469135, 0.08428164, -0.14015296, 0.17408907, 0.16749059, 0.16354316, -0.0931231, -0.026799511, 0.19417574, 0.042349312, 0.054349687, -0.19173026, -0.13027558, 0.027809048, -0.1332658, -0.1380552, -0.0660195, 0.073923714, -0.17087255, -0.094187245, -0.09066035, 0.23072845, 0.09870219, -0.04951556, 0.12936755, 0.08201327, 0.16054094, 0.13570848, 0.0002474934, 0.055689156, -0.11763259, -0.038177602, 0.09940919, -0.044251963, -0.14686793, 0.2081803, 0.13242768, 0.15740727, 0.07256825, 0.17926748, 0.007996944, 0.03171281, -0.07739504, -0.055816576, -0.07976049, 0.14375243, 0.08471493, 0.08018027, 0.08329104, 0.16454726, 0.086909354, 0.15409619, 0.10597815, 0.008387007, 0.021386594}, 
{0.09757386, 0.18431358, 0.029572755, 0.16357106, 0.095508076, 0.11106877, 0.16584724, 0.02068992, -0.028530762, 0.09455044, 0.12655675, 0.09806551, 0.09546881, 0.0041463226, -0.07534329, -0.087100305, 0.07796003, 0.14939152, -0.11535174, 0.18291952, -0.04653361, 0.028067216, 0.092638165, 0.03233099, 0.097294465, 0.11685499, 0.09753174, -0.131, -0.16407956, -0.18260273, -0.07112679, -0.02038349, 0.030438706, 0.056748245, 0.19851011, 0.14147499, -0.1238969, 0.12555407, -0.013794139, 0.16055875, 0.083754696, 0.09017991, 0.044394746, -0.1777955, -0.04440603, 0.064486735, 0.012312435, 0.14924471, 0.067648865, 0.16222951, -0.08668547, -0.028938156, 0.15980797, 0.021281987, -0.14527233, 0.16065755, -0.1866366, -0.1087705, 0.20345761, 0.013935094, -0.047185015, -0.108825564, 0.0073686996, 0.051021278}, 
{-0.09093561, 0.1630639, -0.044189394, -0.019025894, 0.17899773, -0.011767725, 0.17429641, -0.16271813, 0.12833448, -0.12033533, -0.163578, 0.07505499, -0.12978344, 0.15921937, 0.16332316, -0.029003486, -0.021993646, 0.012407629, -0.085226014, 0.16957678, -0.037287757, -0.15370774, -0.19527964, -0.009231286, 0.17083444, -0.056243517, -0.13664362, 0.12140314, 0.0006019622, 0.037476435, 0.08081212, 0.15091136, 0.18551846, 0.09410592, 0.0028587193, -0.0071377736, 0.10585528, -0.041943356, -0.08836793, -0.118270256, 0.007612759, -0.05596414, -0.09900188, -0.061357625, -0.070184186, 0.083464436, 0.16441925, 0.104974225, 0.17631575, -0.007824883, 0.10455907, -0.076995395, -0.15763439, -0.058801115, -0.08866968, 0.20588693, -0.14040957, 0.009985741, 0.051388536, 0.03239931, 0.088241376, 0.06434341, 0.018174984, -0.008174121}, 
{-0.02966468, -0.133126, -0.18960153, 0.07884625, -0.16524751, 0.021711012, -0.18471341, -0.17014094, 0.07432337, -0.10218851, 0.12066249, 0.04763037, -0.07094321, -0.11462311, 0.080650076, -0.1740327, 0.053876117, 0.1500099, 0.07352115, 0.14786002, -0.0897455, -0.05372189, -0.032938976, -0.08941136, -0.19323705, 0.013697582, -0.183634, 0.15993585, 0.027267978, 0.05879216, 0.08259078, 0.12057757, 0.17290433, -0.15953916, -0.13046893, 0.018938165, 0.0070146, 0.13091289, 0.14572589, 0.048530117, -0.1338246, 0.15081733, -0.059906483, 0.026675532, -0.11554302, 0.053505167, 0.092606016, -0.09995585, -0.041987274, 0.16852169, -0.08580797, -0.038287636, -0.083119705, -0.16706054, -0.08837196, 0.0072673084, 0.019246712, -0.1663121, 0.048010506, -0.13449861, -0.14908291, 0.096986406, 0.10093396, -0.030566439}, 
{-0.040283397, 0.08747394, -0.014088467, 0.05955702, -0.13890085, -0.12114413, -0.046981897, -0.14578968, 0.13681059, -0.061416786, 0.15491313, 0.18613465, 0.27731043, -0.05114828, 0.05235724, 0.09955029, -0.04671157, 0.19894002, -0.15016909, 0.033559628, 0.16460489, 0.09339239, -0.048435103, 0.11258098, -0.19929561, -0.04991362, -0.015135454, 0.12762246, -0.13131213, 0.0975347, -0.037824024, 0.1972862, -0.032374278, 0.07162329, -0.09936078, -0.0140913455, -0.11016673, -0.072915114, -0.064946026, 0.005452484, 0.120192155, 0.035028484, 0.16231473, 0.0027037642, -0.029149134, 0.21957594, 0.06655344, 0.123218015, -0.0612401, 0.14349638, 0.16368969, -0.029169355, -0.095947064, -0.08645443, 0.16032897, 0.21375535, -0.13190252, -0.23786454, -0.048253432, 0.049881678, -0.04367752, -0.25425175, -0.23294567, -0.10430004}, 
{-0.06804795, -0.0899044, 0.025988355, 0.10590661, -0.1160029, 0.09663256, -0.121579744, 0.04094678, 0.058432177, -0.108152136, 0.06594197, -0.13911295, 0.14189336, -0.08450796, 0.20369124, 0.08011629, -0.13757004, 0.0167299, 0.0032550178, -0.044075623, -0.16212766, 0.08444528, -0.042796705, 0.17129049, -0.12766619, -0.017172392, -0.16846633, 0.057936035, 0.09356673, 0.14626597, 0.1373001, 0.13128832, -0.17470543, -0.14303699, 0.26165023, 0.14779146, 0.1090117, 0.0674649, -0.013669789, 0.10724263, -0.12905647, 0.043545216, -0.09368853, 0.1667794, 0.014882969, 0.11285546, 0.13522917, 0.104038194, 0.00041702745, -0.03650357, -0.043788914, -0.065580994, 0.031836525, -0.12904155, 0.13733566, -0.13417092, -0.0345698, -0.19755995, -0.08364891, 0.076821886, 0.20497116, 0.11762198, -0.13029496, 0.088026}, 
{0.14302187, -0.088041164, -0.026143089, 0.028426072, -0.07141065, 0.108978175, -0.17668514, -0.06961263, -0.1553288, 0.018038375, 0.13725036, -0.0139674395, -0.018394455, 0.01849012, -0.031919852, 0.19093902, 0.025548857, 0.107107125, 0.12856102, 0.11011531, 0.17359442, -0.0012165457, -0.046572786, 0.11024106, -0.06008564, 0.015459515, 0.13098732, -0.11512847, -0.116265275, -0.05564551, 0.13036081, 0.03481137, -0.09050594, 0.021082107, -0.013535719, 0.21154954, 0.13431704, 0.031248525, -0.13932204, -0.14602171, 0.16766073, 0.1587728, 0.009520188, 0.100197054, -0.076193236, 0.20899029, -0.09759332, -0.14939839, 0.10290434, 0.06563048, -0.05265373, -0.11676112, -0.04150729, 0.06599881, 0.10081, 0.035478182, 0.027875453, 0.0589824, -0.055033054, -0.1660592, 0.012139699, -0.21800584, -0.16694409, 0.05080083}, 
{-0.17899399, -0.17120087, 0.022712052, 0.08038082, 0.015045495, 0.11074589, -0.021320876, -0.025475278, 0.18632649, -0.21532767, 0.10397679, -0.07090593, 0.09749989, 0.107749805, 0.1060226, -0.084327094, -0.1819111, -0.09899221, 0.051189344, 0.17890641, -0.032220285, -0.09874454, -0.036050845, 0.1133136, 0.026142059, 0.23716944, 0.07526812, 0.05000638, 0.033477604, 0.031631723, 0.18193482, -0.011907727, 0.14812793, 0.023763012, 0.17479277, -0.12542534, 0.1272915, 0.032127485, -0.15386918, -0.035871714, 0.06328522, 0.0053240955, -0.047481343, 0.17393176, 0.13404423, 0.027736885, -0.14452897, 0.009682894, -0.13121082, 0.14783795, 0.12983304, -0.036247674, -0.009176791, 0.062866196, 0.15584782, 0.16601911, 0.026016086, -0.13184394, 0.06993686, 0.12497894, 0.08047222, 0.0027018795, 0.15846442, -0.056601495}, 
{-0.13408525, 0.08544978, -0.16043733, -0.18670106, 0.1498016, 0.12796885, 0.11693438, -0.058828473, 0.03427598, 0.100690156, 0.08135803, 0.16247852, 0.18458414, -0.14537351, 0.070212536, 0.08406605, 0.026535338, -0.07113396, 0.05211542, 0.14598635, -0.17795838, 0.023033634, 0.11382437, 0.11152728, 0.045869112, -0.030882608, 0.19187406, 0.09517397, -0.089673184, 0.1765929, 0.14104982, 0.11749796, -0.046610087, -0.17221881, 0.08291218, 0.14665812, 0.13471115, 0.10493104, 0.094220504, 0.06780912, 0.04109061, -0.15565641, -0.06691886, -0.14304791, -0.11872914, 0.18529831, 0.09046149, 0.10499354, -0.14439735, 0.20027867, 0.21325317, -0.11830766, 0.046283945, 0.13493498, 0.12126667, 0.1989855, -0.18400978, 0.06759261, 0.11379577, 0.17745896, -0.020016547, 0.080990985, 0.0731021, -0.17324495}, 
{0.17715509, 0.15115824, 0.08307816, 0.052498348, -0.132639, -0.026337793, -0.12915264, 0.06713806, -0.0004887283, -0.1271476, -0.089015104, -0.11758539, -0.028621515, 0.02373615, -0.09955349, -0.14275731, 0.14689757, 0.09688139, 0.12078237, 0.1436061, -0.079467736, -0.18529719, 0.008686442, 0.07355249, -0.12246621, 0.15066807, 0.056956813, 0.13870965, -0.14809492, 0.18273892, 0.11175051, 0.20484689, -0.14472947, 0.046156365, -0.026711263, -0.13301243, -0.1295476, 0.06183763, -0.1320463, -0.111285284, 0.15741454, 0.0902938, -0.15911499, -0.014410382, 0.0694349, 0.19301665, 0.09751373, -0.07844052, -0.09990298, 0.028085938, 0.088951744, -0.18995075, 0.1139179, 0.0749176, 0.12862554, 0.023271758, -0.12336918, 0.11671485, -0.06955355, 0.00902089, -0.078071184, -0.10958841, -0.080885045, 0.0024681687}, 
{0.08325173, 0.01635145, 0.14881931, 0.17793277, 0.05290939, -0.072690405, 0.17743193, -0.030971944, -0.03882274, 0.067975, 0.11044801, 0.10468046, -0.107439846, -0.037766293, 0.1457689, -0.13678591, -0.08388252, -0.13612236, -0.0011691448, 0.058938857, 0.12206262, -0.09059865, -0.09218336, -0.022629006, 0.15895148, 0.021637868, -0.05570736, -0.1297969, -0.035448477, -0.1235079, -0.12332255, -0.17050384, -0.08465584, 0.12211802, 0.08962988, 0.1431028, -0.07210662, -0.14345449, -0.15445769, -0.09864649, 0.14385298, 0.15363976, -0.15122187, 0.123837925, 0.00048042994, 0.07746596, 0.17551942, 0.18271108, 0.04480036, 0.13580912, 0.112520866, -0.17433685, -0.12293864, -0.0110369325, -0.16204311, 0.17263518, 0.15572135, -0.1387737, 0.021212397, -0.039159954, -0.19565585, 0.07699856, 0.05093984, -0.029394358}, 
{0.17570199, 0.10113477, -0.050318897, -0.12368922, 0.06700713, 0.18770245, -0.08661059, 0.16322951, 0.061308548, 0.18063265, -0.11505018, -0.16943163, -0.10603436, 0.08108322, -0.11506327, -0.13118942, 0.10089921, -0.018890299, 0.20441355, 0.16221124, -0.17752913, 0.09680526, -0.019334752, 0.20161635, -0.17236513, 0.0792843, -0.00502755, 0.11497312, 0.026542157, 0.020345837, 0.14104813, -0.021710295, 0.17397867, -0.12491902, -0.16189094, 0.10339728, 0.109495796, 0.17260267, -0.06159033, -0.13637881, 0.0041270885, -0.016889947, -0.04786308, 0.0958074, 0.14385599, -0.18192212, -0.0035636688, -0.1301042, 0.10696183, -0.02620732, -0.08612113, 0.026939832, -0.010229811, -0.029237658, -0.059384156, 0.052371483, -0.14065072, -0.17031366, 0.17336653, 0.07132579, 0.014326187, 0.061522312, -0.033162914, 0.08611582}, 
{-0.1726486, 0.07839264, -0.09575991, 0.10067222, 0.11466576, -0.004811239, 0.09203102, 0.0016621351, 0.06281747, 0.12521161, -0.102485076, -0.039692014, 0.060188863, -0.14443605, -0.15155117, 0.05995433, 0.08157279, 0.05158879, 0.0879218, 0.027277775, 0.13569444, -0.15651566, -0.0765632, 0.013988284, -0.09683639, 0.041303262, 0.17428753, 0.08955841, 0.06664474, -0.18181321, 0.03393906, 0.12807669, 0.04448308, -0.10731532, -0.17695145, -0.11835433, -0.02801924, -0.092757866, 0.06064196, -0.08342789, 0.19781783, 0.15831043, 0.110923156, -0.116659515, -0.0932944, -0.12114622, -0.11389772, -0.18747415, -0.05847722, 0.024290057, -0.08845893, 0.12762238, -0.079592675, 0.097044274, -0.09364228, 0.109222025, -0.003262207, -0.052861806, 0.007442934, 0.053878613, -0.13178283, 0.06415955, 0.1703387, 0.18863694}, 
{-0.10354636, -0.107315205, 0.12640817, 0.15147689, 0.036592152, 0.057391312, -0.1759229, -0.08626518, -0.061826646, 0.09132761, -0.09012241, -0.18612334, -0.08929979, 0.11986877, -0.120882995, -0.0891228, 0.01014146, 0.12030901, 0.14457129, -0.1531992, -0.11390244, -0.16658708, -0.17856845, -0.05088175, 0.019109843, 0.08237501, 0.111759625, 0.12691002, -0.0985749, 0.027505696, 0.121005364, 0.015336089, 0.121764734, 0.18056734, 0.06808994, -0.093141355, 0.1719602, -0.09620098, -0.039753035, 0.093391076, 0.15060759, 0.04794567, -0.11845837, -0.16298382, -0.022375526, 0.13854262, 0.1843814, -0.13272446, 0.12791751, 0.014448032, -0.07654341, -0.123192444, 0.15717931, 0.047682866, 0.13258804, -0.076815195, 0.13393937, -0.15565811, -0.04688592, 0.1790202, -0.17974089, -0.10356863, -0.16087952, 0.043517336}, 
{-0.13486895, 0.08770699, 0.13231517, 0.12908249, 0.14964704, 0.039320953, -0.12580849, 0.065091416, -0.15107302, -0.23813552, 0.075994164, -0.13368572, 0.19642305, -0.18088701, 0.2519473, 0.04661055, -0.05771075, 0.06514546, -0.13223526, -0.027193194, 0.10324212, -0.16025037, 0.19216488, -0.04646653, -0.07529936, 0.016570939, -0.17661138, 0.1094722, -0.04298109, -0.17435753, 0.019841535, -0.0555775, -0.10866006, -0.22140047, 0.015492089, 0.07899457, -0.2007023, 0.17346726, 0.06841533, -0.18796927, -0.15007006, -0.17503841, -0.02619502, 0.05894433, -0.061593194, 0.013434952, 0.18134199, 0.048123106, -0.021314643, 0.22568077, 0.0065289093, -0.05017303, -0.13240884, 0.085780635, -0.0751334, -0.04995557, -0.15657143, 0.12491351, 0.20983787, -0.084587626, 0.1333138, 0.058314484, -0.16288678, -0.15342464}, 
{0.10750006, -0.15916814, -0.13784152, 0.1160936, -0.069739535, 0.13395557, -0.058999762, -0.16332072, -0.1766484, -0.22912651, 0.17929794, 0.1562262, -0.109534614, -0.04937172, -0.0004080135, -0.037190646, -0.21711281, -0.09634444, -0.13570064, -0.08117534, 0.17894997, 0.17006697, 0.19281037, 0.0555589, -0.14500102, 0.065940626, 0.065816194, -0.060473934, 0.07763247, 0.07572003, 0.19617197, -0.03261538, -0.104063675, 0.13177331, 0.07189497, 0.18006714, 0.009763658, 0.0998538, -0.14969409, -0.118642285, 0.0005521603, -0.00947622, 0.07199378, -0.025197588, -0.045440916, 0.008700738, 0.18094188, 0.070540324, -0.13980696, 0.027712446, 0.012443395, 0.0011407684, -0.13984323, 0.15665282, -0.09111893, -0.12156277, 0.10893507, 0.0022304964, 0.09237866, -0.13368374, 0.050519664, -0.048559606, -0.10310986, 0.1650363}, 
{-0.13953519, 0.036332514, 0.1605046, 0.008305391, -0.12627003, 0.08063066, -0.045333456, -0.05376941, 0.1687877, 0.14820786, 0.05345108, -0.009788647, -0.019583752, 0.12713055, 0.16922837, 0.031893805, -0.1011733, -0.15342481, -0.02550459, -0.09934945, -0.19936448, 0.14688905, -0.008961687, 0.21840659, 0.07401019, 0.17326155, 0.17121036, -0.085956514, 0.033407554, 0.13780679, 0.013859691, 0.04087482, -0.19123349, -0.0018326823, 0.19823135, -0.12859598, -0.09895368, -0.14289458, 0.07392384, 0.06893633, 0.027462585, -0.18235259, 0.14530756, -0.13829733, 0.18458353, 0.015367933, 0.2153097, -0.090680055, -0.121359706, 0.19029635, -0.026404157, -0.0045100143, 0.14601587, 0.055406332, 0.13281299, -0.12995093, 0.05080548, -0.12999716, -0.13983762, -0.10828166, 0.17420274, -0.048136227, 0.015505444, 0.03419526}, 
{0.03403838, -0.08136053, 0.17260577, -0.09484695, 0.16791001, -0.08418611, 0.18926676, 0.060523137, -0.14981799, -0.09099937, -0.09032939, -0.07668612, -0.07641119, -0.0686028, -0.112587065, 0.05185157, -0.12716025, 0.058962118, 0.021197861, -0.12730874, -0.023975056, 0.09104325, -0.0071724653, -0.07383641, -0.01829988, -0.13184872, 0.079224765, -0.037712485, 0.18781726, -0.044178262, 0.0622638, 0.0022348561, -0.16559267, -0.03930974, 0.06125762, 0.14074989, 0.0019481824, -0.003129691, -0.17218691, 0.08759911, -0.0712261, 0.19216454, 0.035995305, -0.12338293, 0.09828625, 0.14068294, 0.14533864, 0.07498787, 0.048853744, 0.18205461, 0.05906126, 0.12763911, -0.08379554, 0.16187711, -0.13167621, 0.1666459, -0.0041043162, 0.029163882, -0.17254135, 0.17125244, 0.09132292, -0.016786285, 0.18490382, 0.12727945}, 
{-0.024403647, 0.19224386, -0.04762408, 0.21029639, 0.07390104, -0.0691268, -0.134681, -0.003219843, 0.14193176, 0.07742232, 0.044137836, -0.02206193, -0.15407822, 0.15311362, 0.18079667, 0.11905344, 0.19828314, 0.15573312, -0.015572961, -0.16485365, -0.10783933, 0.008492932, -0.2059696, -0.006651977, -0.101201974, -0.0063839736, 0.13750924, -0.13849097, 0.14780872, 0.05466181, 0.18278633, 0.04271552, 0.017768353, -0.07410437, 0.123481475, -0.12366538, 0.113082744, 0.1522484, -0.13344444, -0.08691497, -0.06385287, 0.047440965, -0.17614676, -0.11721539, 0.12304801, 0.10781108, 0.07542043, -0.09631285, 0.016118726, -0.060768235, 0.07672189, 0.14843832, -0.17532063, -0.054067507, -0.099159695, -0.14584318, 0.035112068, 0.178784, 0.11744076, 0.007677313, 0.09151199, 0.10539001, 0.15638527, 0.027302593}, 
{0.10378389, 0.1561491, -0.108119704, -0.12826641, -0.13617618, 0.0682661, 0.13789132, 0.06816779, -0.12799302, -0.09162819, 0.097742304, -0.104462154, -0.12622635, -0.07505344, -0.19522178, -0.12665167, 0.1002157, 0.10848907, 0.2062137, -0.023877174, 0.08815172, -0.0047595054, -0.078766875, 0.14812659, 0.14682135, 0.035172123, -0.070519954, -0.18966867, -0.043204412, -0.18406332, 0.22239701, 0.11929165, 0.14596947, 0.060144752, 0.13199376, 0.013144117, 0.1275021, -0.15056705, 0.06205736, 0.06563385, 0.16821708, 0.07930836, 0.1765327, -0.16960657, 0.10973521, -0.041765746, 0.10486605, 0.17114319, -0.094290845, -0.16827354, -0.13530262, 0.06276868, 0.13924418, -0.10546045, -0.19551158, 0.19025339, 0.037863523, -0.038879015, 0.06003233, 0.062483408, 0.037033338, 0.040600598, 0.12114212, -0.16211644}, 
{-0.13039824, -0.10348456, -0.015195534, 0.16745521, 0.06220194, -0.022185061, 0.03442808, -0.03878644, 0.09884249, -0.0759834, 0.070772484, -0.15978521, -0.18842317, -0.11993801, 0.12672123, 0.090244964, -0.11194885, 0.101702504, -0.037566587, 0.10835635, 0.082208976, -0.18621847, -0.16372482, 0.049697172, 0.052041505, -0.15737571, 0.0667987, 0.10134303, -0.060126796, -0.16024904, -0.116898164, 0.1421046, 0.13403614, -0.12799147, -0.0056842556, -0.17164679, 0.22737192, 0.12161921, -0.023743913, -0.15926301, -0.024633162, 0.16078396, 0.018016025, 0.09545472, 0.036399283, -0.10813119, 0.11512964, 0.13642885, 0.15679798, -0.015440282, -0.061844904, 0.12725471, 0.1342905, 0.037999287, 0.037058692, -0.11234666, -0.16302148, 0.17511065, 0.16419652, 0.13025291, 0.06295646, 0.13460508, 0.059213035, -0.032395348}, 
{0.013841525, 0.046227288, -0.18809618, -0.0015059133, -0.14822197, -0.09527028, -0.103245035, -0.1273106, -0.1136861, -0.119205676, -0.13068978, -0.09789368, 0.1648524, -0.17027155, -0.122130655, 0.029114127, -0.13434769, 0.020309871, -0.060979895, -0.061249368, -0.068471745, -0.109781384, 0.11312218, 0.15035082, 0.16406924, 0.16285671, 0.22442746, -0.16906302, -0.049519435, 0.13400804, 0.110739656, 0.09609929, 0.068126515, 0.1077742, 0.07880501, -0.071971886, 0.17721212, -0.15012138, -0.1346437, -0.09009218, 0.13012512, -0.12932841, -0.07626005, -0.16713269, -0.1738752, -0.18972014, -0.09813784, -0.17021385, 0.04357467, 0.0868174, -0.17217124, 0.16326559, -0.09206132, -0.12379712, -0.06470402, -0.02194614, -0.10437437, -0.01636616, -0.06683192, -0.016164392, 0.0646062, 0.11037064, 0.12161711, -0.108476095}, 
{-0.09994545, 0.013249977, 0.104410306, 0.17642784, 0.12295101, -0.06516677, 0.061393898, -0.008378461, 0.109100804, 0.22288135, -0.07779573, 0.014807537, -0.194829, 0.17410816, 0.115905896, -0.05217895, -0.031190043, -0.1101137, 0.23347549, -0.016669739, -0.06872061, -0.14194408, -0.11033133, -0.024586769, 0.014063026, -0.1071146, -0.065592326, 0.1779727, -0.1842036, -0.09037474, 0.06787273, 0.07754379, -0.10588716, -0.011105139, -0.109386206, -0.13653533, -0.06282553, -0.025612533, 0.18307282, -0.17175391, -0.067182615, 0.014841839, 0.05645214, -0.020433124, -0.039924778, 0.049743026, -0.0806921, 0.0976228, -0.003391517, -0.1506122, -0.13515057, 0.1283917, -0.18876444, 0.1254044, -0.18815856, -0.15772466, -0.18969283, 0.12660132, -0.106008865, -0.14388655, -0.11155473, 0.18450229, 0.21341214, -0.025912374}, 
{-0.02323863, 0.1158318, -0.10960477, 0.13548936, -0.11526939, 0.19693653, 0.1614868, -0.08306092, 0.024010777, 0.17233585, 0.110429496, 0.1310982, -0.024804257, -0.18046628, -0.087296166, -0.10014519, 0.053963766, 0.08247779, 0.2035456, -0.12250245, 0.011482947, 0.09872867, -0.026594313, 0.102583535, -0.07622943, -0.14713928, 0.14353932, 0.17433, -0.066371076, -0.13948908, 0.010835158, -0.17730376, -0.18700129, 0.1290661, -0.19950998, 0.06178321, 0.034322176, -0.07385759, -0.1323049, 0.11142783, 0.19975139, -0.14202875, 0.14224614, -0.1994476, 0.16006343, -0.17206994, -0.1010768, -0.03009823, 0.16555995, -0.15877578, 0.11544973, -0.05803161, 0.10354535, -0.0385482, 0.13175505, -0.15000702, -0.16060466, 0.055051014, 0.12445914, 0.021218725, -0.043990463, -0.11479324, 0.106803015, 0.037297353}, 
{-0.034684032, 0.15283169, -0.04198189, 0.10427381, 0.0045052306, 0.08371378, -0.08241952, 0.017861336, -0.14381011, -0.10605709, 0.15081671, -0.09404921, 0.04697095, -0.16093819, 0.12982918, -0.015339956, -0.11374999, 0.16730173, 0.15678549, 0.069257215, 0.055324662, -0.18449385, 0.032237507, 0.097857885, -0.08777496, 0.106392, -0.12060853, -0.023660908, 0.0856701, -0.12513375, -0.16023336, -0.10549945, -0.17441043, 0.13111432, 0.058030438, 0.120468035, 0.09471279, 0.18637489, -0.045093387, 0.07970722, 0.09877702, 0.022082742, 0.10242452, 0.041422173, -0.092363834, 0.19083305, 0.14480694, 0.0042573214, -0.027185855, -0.15867935, -0.019832224, -0.09828815, 0.0884154, 0.06307794, -0.16417925, -0.046986092, 0.014837444, -0.050768875, -0.008713203, -0.16149695, -0.12363789, -0.054289088, 0.036322843, 0.1699817}, 
{-0.009490177, 0.014604029, 0.119295314, -0.04600402, 0.009286878, -0.06640809, -0.103884764, -0.09170685, 0.15941812, 0.09236701, 0.065201536, -0.011909649, 0.062304873, -0.08488345, 0.2534813, -0.010033086, -0.09556529, 0.13264109, 0.071873546, 0.016703123, 0.011172353, -0.04866679, -0.064470485, 0.076753326, -0.019638909, -0.11365367, 0.18708691, -0.0693388, -0.17787516, -0.027345002, 0.027270881, -0.10317637, -0.052663073, 0.06301404, -0.09121012, -0.09693977, 0.04310072, -0.03602335, -0.017006189, 0.069136575, 0.1731637, -0.13537477, -0.08413989, -0.08707541, 0.15603781, 0.12086814, 0.0037670045, 0.05793853, 0.046506733, -0.16416617, -0.013917403, 0.10289253, 0.056425557, -0.17185852, -0.20989281, 0.17787638, -0.11675213, 0.118384674, -0.21854973, -0.09337139, 0.090892725, -0.17344292, -0.12285279, -0.12707311}, 
{0.16130452, -0.14940077, 0.030667588, 0.21295556, -0.003899968, -0.04770994, 0.010200893, -0.10111348, -0.15955195, 0.15741077, -0.07241693, -0.029001847, 0.1323572, 0.03418213, 0.22295868, 0.1359139, -0.09178147, 0.081191294, 0.15931836, 0.09120156, -0.0034524607, -0.013887033, -0.009246384, 0.04361722, 0.12827522, -0.09471416, 0.12403441, -0.040766783, -0.13164918, 0.16629167, 0.12644523, 0.047083907, -0.17859118, -0.0136106, 0.18451722, 0.08578864, 0.24586324, 0.107428774, 0.16997801, -0.06498128, -0.11518931, -0.0052055684, 0.1154186, 0.012138509, 0.20075338, -0.099596746, 0.14358605, 0.18811505, -0.029349372, -0.019948158, 0.09108383, 0.14901742, 0.108870044, -0.1249994, -0.049120005, -0.13350646, 0.032273725, 0.091045536, 0.13476983, -0.036868144, 0.13415268, -0.105050385, -0.08107576, 0.06209056}, 
{-0.15800437, 0.10611814, -0.022968426, -0.0208094, 0.14942048, 0.07176988, 0.14950809, -0.14868292, -0.06850717, -0.053998064, 0.10928925, 0.14802481, 0.07318753, 0.010046899, -0.09404575, -0.16425663, 0.018808633, 0.034910526, -0.10299204, -0.13680515, -0.14094177, 0.15068416, -0.02976495, -0.12861897, -0.1274552, -0.1993322, -0.06828641, 0.034278005, 0.158406, -0.05014351, 0.10019636, 0.073707916, 0.11609672, 0.046034493, -0.08906245, -0.1293413, 0.25609428, -0.12958601, -0.17916062, 0.15046258, 0.017689375, 0.20643546, -0.0010658354, 0.027073475, -0.056965705, -0.07712348, -0.14721897, -0.055178404, -0.16799155, 0.0025420901, -0.1091187, 0.13905822, -0.18557616, -0.05348566, -0.18308282, 0.05893186, -0.07398231, -0.004769995, 0.010359084, -0.054047856, -0.21575405, 0.04179041, 0.10657018, 0.0092036575}, 
{0.14605759, 0.19355845, -0.16756527, 0.1609031, -0.1809999, 0.12433057, -0.14173898, -0.029843956, -0.056020916, 0.06832368, 0.17227206, 0.028628588, -0.06595734, -0.13238832, 0.12413892, 0.04978794, 0.060576197, -0.13086838, 0.13650912, 0.15381059, -0.10053283, 0.10094698, -0.037444655, 0.18512338, 0.10401142, 0.031150557, 0.21323146, -0.11586521, -0.088728055, -0.10960144, -0.04629819, -0.017311757, 0.06514476, 0.051845852, -0.21620935, -0.1433446, 0.11709059, 0.18020214, -0.02231206, 0.08969323, 0.0464202, 0.2428995, -0.065222204, -0.067781754, 0.15374593, 0.036692567, 0.059229337, -0.037087813, 0.14280128, 0.057246458, -0.0409398, 0.13762222, 0.04447578, 0.10524936, 0.17017612, 0.12375978, 0.044449106, -0.0555533, -0.16797484, -0.057147615, 0.09392925, 0.16683678, 0.2240667, -0.027445734}, 
{0.05136594, 0.19857667, 0.05751565, 0.21273485, -0.03608638, -0.12465059, -0.12752886, -0.14851634, 0.11436112, 0.17878905, -0.042167343, -0.04759343, -0.025493367, 0.18602084, -0.10570402, 0.047411755, 0.24898118, 0.08300076, -0.07157575, -0.1321868, -0.104264036, 0.042937174, -0.040676653, 0.046359736, 0.1209964, 0.088361785, 0.2366344, -0.110814385, -0.051772222, 0.050336823, -0.15093265, 0.119699635, 0.04643388, 0.06398562, -0.03496928, -0.07709538, 0.026238404, 0.13086928, -0.12735826, -0.10103103, -0.08534184, 0.043089986, -0.019106075, -0.12096738, 0.15626462, -0.1562133, -0.0741489, -0.13295954, 0.06647594, -0.091815345, 0.06380139, -0.1524855, -0.06452575, 0.17874692, -0.008347629, -0.2044994, 0.12856595, 0.24115486, -0.0053082188, 0.047355417, -0.09160039, 0.13043998, -0.038857576, -0.18362416}, 
{0.07181664, 0.19150677, 0.10753517, -0.13893692, -0.10723161, 0.17198192, 0.06264077, -0.06565246, -0.16509381, 0.07460507, 0.038887057, -0.18828447, 0.06274271, 0.119328514, -0.059495635, 0.109681204, -0.0025272905, -0.11870796, 0.13503772, -0.056161694, 0.029719466, 0.068593815, 0.050869003, -0.13676786, -0.12966868, -0.033876058, -0.08922531, 0.01954449, -0.005647987, -0.054563403, -0.12405472, 0.04451063, 0.044700563, 0.02297796, -0.18730551, -0.028909918, 0.14434837, -0.14537612, -0.025996879, -0.088579305, 0.22301349, -0.051946785, 0.029625148, 0.022316929, -0.120707184, 0.046675533, -0.00664318, -0.095929645, 0.02253917, -0.028496603, 0.087965496, -0.09118599, 0.18930183, -0.17968045, 0.13342269, 0.032440454, -0.18129174, -0.05543268, -0.05861426, 0.15405276, -0.2023932, -0.12088997, -0.052646935, -0.09921958}, 
{-0.17158955, 0.00048588088, 0.14545296, 0.03856513, -0.13748007, 0.15956955, 0.094141506, -0.058482617, 0.038688347, 0.06792004, 0.100836724, 0.0709679, -0.028686298, -0.13491003, 0.058985416, -0.11313157, 0.16592601, -0.12447227, 0.088313214, -0.19015004, -0.14630175, 0.033912793, -0.0883938, -0.0069118747, 0.048418865, 0.107739106, 0.17360795, 0.013803666, -0.060704485, 0.018501058, 0.09057226, -0.0617434, -0.09640984, 0.091904335, 0.048792284, 0.034080543, 0.12789443, 0.11068492, -0.024172992, -0.061560005, -0.080103494, -0.10083303, -0.14789459, 0.10813924, -0.076906525, -0.049299177, 0.06603345, -0.07838365, 0.13878272, 0.031078504, -0.09375749, 0.13801695, -0.13064921, -0.14471728, -0.011229772, -0.08862946, 0.041100428, 0.09135197, -0.17807715, -0.13800968, -0.18389036, 0.021532292, -0.06788966, 0.08572833}, 
{-0.06990623, 0.1122976, 0.1512209, 0.13072193, 3.2073047e-05, 0.03670899, 0.0933735, -0.19106047, 0.08882187, -0.12797935, 0.075170256, 0.08985989, -0.14715719, 0.08610223, 0.07413744, -0.0025779903, -0.10879609, -0.07012726, 0.13092211, -0.12132886, -0.113532305, -0.16315797, -0.11947531, 0.21933135, -0.05204417, -0.18110538, 0.17803854, 0.21596996, -0.022786021, 0.07202722, 0.082872204, -0.004017066, 0.007366851, 0.12545007, 0.13086452, 0.008419032, 0.121759295, 0.17919247, -0.13231207, -0.18314044, 0.06543918, -0.10955569, -0.031689957, -0.06515005, -0.06898672, 0.004328279, 0.048955705, -0.117525786, -0.19056426, 0.03314519, -0.20991524, -0.14941125, -0.08938848, -0.11277295, 0.15837376, -0.020277971, 0.1632763, -0.1348514, 0.1398977, -0.11019586, -0.15744433, 0.19039384, 0.15225339, 0.029314682}, 
{-0.07448577, 0.084126726, 0.11151965, 0.19889717, -0.18186484, 0.12806158, 0.13360202, -0.022025317, -0.05052972, -0.085356, -0.1787198, 0.045172185, -0.11522722, -0.06304087, 0.037172534, -0.049796656, 0.18834156, -0.07266857, 0.1664824, 0.087782726, 0.1791756, 0.17702238, -0.039645437, -0.14675817, 0.009325965, 0.030938856, -0.15653102, 0.1472972, -0.16406783, -0.18671143, -0.14987868, -0.14605664, -0.053376168, 0.073158644, -0.041923314, 0.16384643, 0.01558162, -0.12344812, -0.117737524, 0.1422974, -0.0048292163, 0.0023710355, 0.110615924, 0.13014719, -0.12857884, 0.032925148, -0.1967494, -0.07780166, 0.17498955, -0.0033519815, 0.098526284, -0.12309413, 0.17619304, 0.09321846, -0.031171825, 0.042685896, -0.16595896, -0.03747913, 0.009721752, 0.056287102, -0.0024822433, 0.07106296, 0.14437807, 0.04237403}, 
{0.007720411, -0.14481334, 0.124015644, 0.17860653, 0.038237803, 0.09936932, 0.017787086, -0.07699121, -0.13572875, -0.0008371124, 0.17034431, -0.028181538, 0.0028564434, -0.15579289, 0.1415232, -0.035176948, 0.041507553, 0.1648641, 0.13506927, -0.143827, -0.0016979456, -0.061044008, 0.09515054, 0.04583189, -0.056070518, 0.10750476, -0.033960152, 0.1870423, -0.04726696, -0.09371421, 0.1429868, -0.13498248, -0.015034363, -0.018088553, 0.13308343, -0.16403578, 0.022322, -0.07223052, -0.094275534, 0.039227188, -0.112810224, -0.13111728, -0.046296388, 0.07542014, 0.053159937, 0.03886741, 0.0057087285, 0.12599961, -0.040675808, 0.005022097, -0.030186204, 0.17249963, -0.17748517, -0.06037222, -0.062383052, -0.05981323, -0.06671068, 0.047539193, 0.11897446, 0.083871365, -0.13693482, 0.012533628, -0.15577516, 0.10321997}, 
{-0.1308411, -0.074707076, -0.091597766, -0.091873325, -0.0033137756, 0.04844949, 0.13591413, -0.030108362, -0.019396335, 0.0024846075, -0.13393669, -0.10278246, -0.13876846, 0.18784587, -0.053202335, -0.0150297135, 0.14017367, 0.081184834, -0.015915781, -0.003277926, -0.081639834, -0.0589962, 0.077514544, 0.250339, 0.13558507, 0.10315148, -0.0062136347, -0.013142552, -0.13207239, 0.10580544, 0.06169907, -0.060254693, -0.009239629, -0.15498836, 0.1127695, -0.032337546, 0.22386076, -0.09384299, 0.04982552, -0.101337165, 0.10791177, 0.08514075, 0.08859746, 0.123799704, -0.083231404, 0.06099943, -0.09703025, 0.08674525, 0.046439413, 0.03527028, 0.026899777, -0.0016024669, 0.04542263, -0.08778111, 0.08213253, -0.08855604, -0.14742441, 0.15007588, -0.16221826, -0.098871805, -0.08466431, 0.15573257, 0.11420265, -0.1254141}, 
{0.08219947, -0.15450682, 0.14822106, -0.09258192, 0.08006983, 0.038825892, -0.1784655, 0.017409965, -0.11799901, -0.11266871, 0.019673714, -0.024157122, -0.14001645, -0.047434002, 0.006826622, 0.074052736, 0.01429452, -0.012836346, -0.017236723, 0.051830873, -0.10277702, 0.017742544, -0.19817023, -0.0906934, 0.14595585, -0.1430059, 0.16441366, 0.09830606, -0.07337351, 0.06059368, -0.11527851, 0.094079524, -0.09779412, 0.17955974, 0.07729234, 0.14947477, 0.1997734, 0.03177105, -0.045561865, 0.15506269, -0.15601295, 0.19226952, 0.035879746, 0.13631564, 0.08563266, 0.102574445, 0.05653288, 0.112127945, 0.13989504, -0.12222681, 0.1016816, 0.14652729, -0.07846938, 0.14000721, 0.042798493, 0.04925778, -0.12137345, -0.16627052, -0.10276466, 0.13363029, -0.19489807, -0.17712322, 0.009152386, -0.16702756}, 
{-0.017742455, 0.2246844, -0.10355124, 0.017013244, -0.032124978, -0.14592698, 0.107954286, 0.08791442, -0.16561693, 0.122378714, -0.117726706, -0.02451232, -0.055572785, 0.01455982, -0.21590583, -0.18041904, 0.20704992, 0.056625538, -0.027265241, 0.11884488, -0.13924225, -0.17405915, 0.110056825, 0.1942377, 0.13351998, -0.20340292, 0.15404311, 0.014007143, -0.13566107, -0.11927913, 0.053220164, 0.024622206, -0.16768156, 0.16745608, 0.06423165, -0.08832457, 0.05650836, -0.14859906, -0.07251139, -0.025838405, -0.033975497, 0.15266632, -0.15170504, -0.17279638, 0.04314302, -0.14032458, -0.03365564, 0.12083201, 0.12475236, 0.02256456, -0.031156858, -0.12263408, -0.11980179, 0.00014989078, -0.07448601, -0.10771881, -0.025935084, 0.09947811, -0.035919353, -0.100990646, -0.18372165, 0.012612359, 0.091323905, -0.1418146}, 
{0.145667, -0.034188926, -0.1761708, 0.063533664, 0.14940272, -0.0517843, 0.09468837, -0.07293144, 0.06530441, 0.099929646, 0.09089934, 0.034127906, 0.12078127, -0.18210867, -0.21565226, 0.057683006, -0.035093267, -0.1076075, 0.22933783, -0.07890559, 0.017718447, 0.06767647, 0.07230436, 0.13614208, 0.010632375, -0.1425477, 0.24681735, 0.10929246, -0.123752154, -0.05913633, 0.038767878, -0.24668, 0.13486068, -0.01847728, -0.22040927, -0.23285863, -0.05400508, -0.1599476, 0.052383617, -0.1517526, -0.06921432, 0.22508961, 0.07733469, 0.12858592, 0.10492299, 0.056384422, -0.12784635, 0.04823616, -0.09544947, -0.18691109, -0.039501786, -0.09013262, 0.15129064, -0.04111986, -0.07274174, -0.06503915, 0.16302042, 0.22118811, -0.051504772, -0.102288835, -0.06365712, -0.08964611, 0.059188895, -0.10673711}, 
{-0.036825553, 0.23235694, -0.15098976, 0.17282319, 0.15720372, 0.16169201, 0.00016248669, 0.13774787, 0.02298817, -0.10903325, -0.09880526, 0.16506015, 0.09251464, -0.16626026, -0.19585559, 0.0763654, -0.09729781, 0.13073805, 0.17715122, 0.12775545, -0.18207799, 0.056151897, -0.092862315, -0.13989303, -0.020033218, 0.046275564, 0.1675675, 0.05720278, -0.1492702, -0.046554685, -0.105360664, -0.16451925, -0.020768672, 0.08776375, 0.03326392, -0.063035, 0.24234377, 0.11853589, 0.17131831, 0.15298848, 0.017039938, -0.061715353, -0.013240933, 0.13527967, -0.036722545, -0.10595574, -0.10641261, -0.139812, -0.08796899, 0.06590349, -0.23142032, -0.006236023, -0.12737636, -0.13229237, 0.013862285, 0.06226778, 0.050639257, -0.018564053, -0.1815273, 0.2000533, 0.11688353, 0.16852063, 0.07479843, 0.10747342}, 
{-0.13965006, 0.14410326, -0.14450459, 0.0011278042, -0.015863724, -0.038420603, 0.13862957, 0.13903911, -0.12058817, -0.07269919, 0.02896599, -0.13436316, 0.016397264, 0.048469335, 0.08822077, 0.051625922, 0.2195506, 0.09456095, 0.00082519546, 0.14457783, -0.16877782, 0.15813015, -0.12874386, 0.071511894, -0.05404791, 0.011857021, -0.027199969, 0.09091936, 0.00039501488, -0.09084933, 0.20985608, -0.18375845, -0.12553889, 0.2006651, 0.080420114, -0.06533689, 0.108127974, -0.18631196, -0.021938533, 0.062381223, 0.19718353, 0.12188262, -0.155559, 0.071564004, -0.11560716, -0.06968969, -0.18870328, 0.08127721, 0.08825536, 0.021661485, -0.07925345, 0.0004559504, 0.12169041, -0.15606815, -0.060045727, 0.14415275, -0.12720257, 0.0053519276, -0.19237672, 0.033035908, -0.23714909, 0.07840621, -0.0023321516, 0.14762105}, 
{-0.028386474, 0.11816068, -0.16073243, -0.047204018, -0.062884465, -0.16263525, -0.065953515, 0.12835775, -0.1100494, 0.16078235, -0.18239993, -0.13715702, -0.02953447, -0.06899585, 0.08979926, -0.15035409, 0.20616703, -0.00630927, 0.07829708, -0.07826952, 0.02109455, -0.16859294, 0.011597564, 0.04834642, 0.13750559, -0.0029284554, 0.18103842, 0.1466213, 0.08063574, -0.104877464, 0.22462086, -0.19048947, -0.18171832, 0.08882121, -0.09528229, 0.062478542, 0.16665672, -0.13024238, -0.12565038, -0.09953411, 0.12488936, -0.06459997, -0.0034240186, -0.1617827, -0.18940485, -0.100897476, -0.19738385, -0.019199982, -0.06354946, -0.074837245, -0.050409134, 0.0008663603, -0.18699823, 0.062104598, 0.13003859, 0.0056263898, 0.07225798, 0.19003853, 0.17148332, -0.09707225, 0.10691994, -0.15914148, -0.10397554, 0.07109825}, 
{0.037219793, -0.07369274, -0.066703156, 0.051798675, 0.019816201, 0.0799559, 0.15322702, 0.12169148, -0.012844369, 0.07191908, -0.042807844, -0.055343986, 0.047537442, -0.1840993, -0.04973312, 0.019637302, -0.05250553, -0.04119098, 0.0044728825, -0.0991864, -0.050656006, 0.054222837, 0.15667377, -0.024564419, 0.08853837, 0.07253574, 0.03776254, 0.15478434, 0.055430815, -0.17893672, -0.12198815, 0.16069463, 0.023085356, 0.001846317, 0.09360938, -0.11049175, 0.08864042, -0.1849228, 0.18747966, 0.114021614, 0.00039914792, -0.19866627, 0.03105472, 0.06476087, 0.035997763, -0.029814638, 0.22806132, 0.037916332, 0.14218676, 0.18295912, 0.13451181, 0.07170562, -0.17097898, -0.08217704, 0.028746476, 0.14121114, -0.115149416, 0.0746604, 0.14574, -0.0480186, 0.0851637, -0.25512084, -0.025010578, -0.022979647}, 
{-0.16187985, -0.053071126, 0.08889638, 0.12994933, -0.07172937, -0.029420452, -0.17887715, -0.18394433, 0.14804037, 0.016432682, -0.11545941, 0.16926824, 0.11272489, -0.059141666, -0.022648476, 0.112433836, -0.07363066, -0.09844029, -0.09421188, -0.04652414, 0.054485593, -0.09924827, -0.10203738, 0.17383112, 0.13061638, 0.21723764, 0.10168, -0.1484123, 0.009009153, -0.18479405, -0.14049017, 0.1352856, -0.1904503, -0.031644307, -0.14240764, 0.15330847, 0.01920397, 0.06711371, 0.13248454, -0.16252527, -0.011811842, -0.13576965, 0.027772754, -0.07341226, -0.07214198, -0.11389375, 0.18327324, 0.1482854, 0.13505551, 0.18277258, -0.02626904, -0.19986767, 0.19096868, 0.06687544, -0.17427906, 0.16990735, 0.021735325, 0.10226338, 0.07648809, 0.08458314, -0.019952063, -0.12331214, 0.08345738, -0.10720514}, 
{-0.11784939, 0.13901162, 0.17541553, 0.0068180277, 0.08370372, 0.19568732, 0.1527057, 0.16130845, -0.10887147, 0.0057604997, 0.017151197, -0.07591734, 0.074551366, -0.096355714, 0.009168413, -0.16693792, -0.041264474, -0.20172808, 0.087851115, -0.11150604, 0.02929441, -0.18127488, 0.121247865, 0.026974129, -0.089421205, -0.084139474, 0.17010033, -0.12498328, 0.12371035, -0.09088153, 0.09456703, 0.14463148, -0.12687099, -0.005997329, -0.11655833, 0.02078586, -0.106590934, -0.11512597, -0.09459927, 0.08822833, 0.16902019, 0.097186655, -0.12848651, -0.10355483, -0.18496619, 0.03752223, 0.018644463, -0.011650756, 0.08848207, -0.066014454, 0.015223748, -0.13534284, 0.16766347, -0.15215103, 0.04690241, 0.052716672, -0.17274542, -0.14850283, -0.030408578, 0.17918245, -0.06772061, 0.18023314, 0.23040067, 0.034727633}, 
{-0.021786809, -0.13667938, 0.0101925135, -0.10264572, 0.034619566, -0.12298052, -0.15679714, 0.1556183, -0.0449657, -0.12472619, -0.067981936, -0.111911274, 0.14812605, -0.06749446, -0.1392318, 0.10825743, -0.1506219, -0.010992837, 0.11620993, -0.029875023, -0.057338696, -0.12433565, -0.079476975, 0.094770074, -0.11146368, -0.009615541, -0.1517475, 0.13585283, -0.10460581, 0.030750543, 0.16009787, 0.057021778, 0.18011285, -0.018341478, -0.13265677, 0.15829505, 0.0046311147, -0.039850995, -0.15250076, -0.15872927, -0.13407034, -0.03994487, 0.035454676, 0.036921762, 0.11927643, 0.19458766, -0.108403794, -0.07745508, -0.1404435, 0.0054621575, -0.12411172, 0.12736355, -0.17207728, 0.16309084, -0.106114775, 0.01950507, -0.14299932, -0.133796, 0.056639776, 0.05023979, -0.085668, -0.058156487, -0.0069090226, -0.13636637}, 
{0.1375056, -0.09205426, 0.1122721, -0.00043016355, -0.13079968, -0.06621708, -0.032180652, 0.060420528, -0.12850057, -0.10110667, 0.04563577, -0.037219107, 0.11173863, -0.10776295, -0.1771736, 0.12908329, 0.20731834, 0.03316206, 0.16269435, -0.10948518, -0.18647458, -0.049807325, 0.10060986, 0.19244263, -0.16358075, 0.19707616, 0.008454079, -0.019892413, -0.044183195, -0.021904603, -0.01263225, -0.1197633, 0.06321885, 0.094733045, -0.0023905702, 0.0680102, -0.0015152883, -0.042207345, 0.17558138, 0.004554242, -0.013219241, 0.119102776, 0.0787317, -0.07265742, -0.16522528, -0.15027668, -0.022384586, 0.055448562, 0.102432504, -0.1706498, -0.14370893, -0.14755777, 0.015804559, -0.14324622, -0.08204265, -0.19665183, 0.049910516, 0.1916777, -0.092597745, 0.07301415, -0.12389733, 0.10256144, -0.110936895, 0.14228757}, 
{-0.07668165, 0.25814122, 0.047041908, 0.22300662, 0.18184589, 0.10198646, -0.070949845, -0.032368943, -0.004290968, -0.1093057, 0.08164561, 0.028508052, -0.14025521, 0.06068556, 0.09790832, 0.08207239, 0.0565209, -0.15434466, -0.058451816, 0.13137949, 0.12773925, -0.12792286, 0.06858373, -0.099207394, -0.19672237, -0.15143636, 0.15707038, 0.20611624, -0.14544922, -0.07590704, -0.11993675, -0.26310584, 0.08403741, -0.02686867, -0.118765846, 0.037675347, 0.06709028, 0.17045091, -0.0075903535, 0.01132378, 0.048514742, 0.188143, 0.03340313, 0.10584594, 0.000925052, 0.059367336, -0.24487959, 0.14569165, -0.17458977, -0.021722728, -0.17626582, 0.038249284, -0.0064563006, -0.083893225, 0.0062765544, -0.14179629, -0.15916999, -0.06537863, 0.029172283, 0.03329504, -0.048812088, 0.24164212, 0.11865109, 0.14538376}, 
{-0.11191602, 0.1104471, 0.12620442, 0.17942096, 0.16561113, 0.20779888, 0.01118795, 0.12980966, 0.062094733, -0.113425836, 0.14850634, -0.053705692, -0.118274294, 0.044622675, -0.18814023, 0.16912012, 0.19864778, -0.14364061, 0.080665834, 0.049193665, -0.090713084, 0.14160053, 0.010162892, 0.1881385, 0.014052253, 0.02879485, 0.09770951, 0.004456157, 0.027512595, -0.1659025, 0.081186496, 0.07690209, 0.1693251, 0.061399065, 0.06405672, -0.02629326, 0.182493, -0.15209444, 0.16663794, 0.06557034, -0.07817094, 0.004155613, 0.08588289, -0.04429352, 0.05373575, 0.09820714, 0.10749254, -0.109756485, -0.1651539, -0.13844632, -0.24761814, -0.07591739, -0.012239262, 0.07383095, -0.1156978, -0.009859203, 0.020747289, 0.20299001, 0.09933992, 0.20970441, -0.010153118, -0.09490026, 0.05238326, 0.0055979043}, 
{-0.16850893, 0.1980426, -0.047433227, 0.1943503, 0.16675447, 0.19816102, 0.024535283, 0.019827977, 0.09520091, 0.116434306, -0.10979168, -0.055020437, 0.11545409, 0.046259403, -0.25194788, 0.13996471, -0.07826369, -0.08734079, 0.0989399, -0.16803566, -0.028525917, 0.0938278, -0.044687703, 0.113410264, 0.13229781, 0.082244545, 0.18253532, -0.15778053, 0.08362986, -0.08911382, 0.110134296, -0.122918904, -0.1734649, 0.029479465, -0.18299419, 0.025393568, -0.03763562, -0.10254633, -0.13771996, -0.108552024, -0.023517173, 0.13690527, -0.06035863, -0.0886885, -0.21811588, -0.12552637, -0.05903526, -0.036817208, -0.05330093, 0.0851549, -0.12569004, 0.044979718, -0.16465689, -0.030709445, 0.094282575, -0.025648164, -0.02112022, 0.14391817, 0.13603537, -0.036942706, 0.0025403518, -0.054545477, 0.14625396, -0.051042303}, 
{-0.14710209, 0.16575119, -0.113508664, -0.10925172, 0.061231885, 0.0034782547, -0.033667903, 0.126613, -0.027104571, -0.0061313454, 0.00604166, 0.1261832, -0.13711306, -0.039938778, 0.026275367, -0.11822625, 0.22931327, 0.0958253, -0.0034978634, -0.19392546, 0.097202174, -0.01682356, 0.13631314, 0.06712359, 0.050206218, 0.14982057, 0.055080894, 0.21126543, -0.15117185, -0.10676538, -0.0025678573, -0.16689156, 0.07993092, -0.03486115, -0.12585801, -0.069923624, -0.051008023, -0.18443653, 0.14022233, 0.14744143, -0.02583097, 0.25514686, 0.07630049, -0.09714493, -0.17702456, -0.030097382, -0.113938555, -0.08763929, 0.14966567, 0.021339735, -0.23561786, 0.061617, -0.07765952, 0.035972998, 0.044551816, -0.029921863, 0.070734784, 0.17773078, 0.06157317, 0.1401336, 0.039297722, 0.2359509, 0.0725303, 0.13256805}, 
{0.18481605, -0.11655413, -0.14884509, 0.16158551, 0.13014129, -0.061869692, -0.015595988, -0.13713916, 0.0019951314, 0.09370629, 0.023096371, -0.15035641, -0.09562847, 0.08556481, -0.10054128, -0.14299066, -0.05190963, -0.019475015, 0.06175244, 0.140487, -0.099169165, -0.18677624, 0.03273662, 0.03962546, -0.119121246, 0.032564502, -0.062394876, -0.16087274, -0.0094882995, 0.03730461, -0.04262753, 0.08057612, -0.013009369, 0.09801424, 0.066068396, -0.018401122, 0.021612464, 0.17017938, -0.07965944, -0.06163743, -0.087287664, 0.04028939, -0.11182687, 0.012593875, 0.11336161, -0.0068944604, -0.079855576, 0.18735306, -0.14424303, 0.09237447, -0.10472684, 0.08328575, 0.13733484, -0.02353847, 0.17125869, 0.17592561, -0.025477603, 0.22114858, -0.11667872, 0.09250009, 0.10550639, 0.17662448, 0.124718614, -0.046820134}, 
{-0.1714699, 0.08870971, -0.15758382, -0.24796891, 0.14275704, 0.10949818, 0.12834074, 0.044970393, 0.15100868, -0.02959352, 0.0011676874, 0.03417082, -0.031254884, 0.08677797, 0.0936399, 0.1856191, -0.2202028, -0.15282567, -0.051933184, 0.19875826, 0.09203992, -0.18118677, 0.1645947, 0.008731722, -0.024484335, 0.14949028, 0.0014832636, 0.08834952, 0.12004514, 0.115741566, 0.0716741, 0.033821374, -0.049979344, -0.25228083, -0.0217537, 0.029654486, 0.035682097, 0.04551275, 0.12967826, 0.18428005, -0.16413978, 0.11774601, -0.077357896, 0.14994448, 0.19246303, 0.123231575, 0.024874905, 0.15404339, -0.1288499, 0.14439942, 0.1819118, -0.16087793, -0.04234475, 0.13455878, -0.121307746, -0.11302675, -0.07325982, -0.24401619, 0.12034557, 0.11818857, 0.11519474, -0.01509393, -0.1065145, -0.19126485}, 
{0.18893231, -0.16929528, -0.12610577, -0.10968084, 0.09247596, -0.15278405, -0.09186862, 0.020783857, -0.15674175, -0.13584381, -0.16805796, -0.046577394, 0.026117638, -0.16165708, -0.071860895, 0.11092849, -0.16140565, 0.1906936, -0.05342761, 0.14182006, -0.14374991, -0.16938825, 0.20527959, 0.13509354, -0.06178607, 0.1490603, -0.21039927, 0.08707475, -0.089176334, -0.11536626, 0.1282186, 0.11660758, -0.107451394, -0.14877865, -0.053040996, -0.01846209, -0.08683766, 0.046778917, -0.07947871, -0.16294673, 0.115140624, -0.0203247, 0.033728883, 0.099513985, 0.1599253, 0.11008585, 0.024807548, 0.16765036, -0.09744056, 0.0011612879, 0.03836955, -0.11647126, -0.12548515, 0.103468046, -0.07681202, -0.035731725, -0.036214143, -0.2204734, 0.1431458, -0.0628686, 0.113753445, -0.046333548, -0.06554559, 0.14075972}, 
{0.054870635, -0.18535657, 0.04706964, -0.23051943, 0.12770332, -0.13057582, 0.07263379, 0.15584259, -0.17439666, -0.06821538, -0.029058207, -0.048019588, -0.029303052, 0.18214528, 0.05107565, -0.06312433, -0.07992444, -0.014479478, 0.034174796, 0.22355752, 0.14098671, -0.08644854, 0.119152345, 0.066063106, 0.15976846, 0.02930837, -0.024232699, 0.001030411, 0.10879494, -0.16158858, -0.015132289, 0.14629525, 0.011669591, 0.11023414, -0.15210602, 0.21156122, -0.005015951, 0.014219344, 0.104393706, -0.092099495, -0.19472271, -0.18538971, -0.012367949, -0.14286436, 0.09894449, 0.05390284, 0.041231494, 0.14572911, -0.06292535, 0.18279497, -0.087572366, -0.06481779, -0.017742723, -0.18149668, 0.17517214, 0.12350063, 0.0293985, -0.18800642, 0.13419068, 0.090586744, 0.061274085, -0.21298599, -0.11610841, 0.081129536}, 
{-0.12455946, -0.023396552, -0.015448347, -0.21539658, 0.06854447, 0.016575744, 0.10075145, -0.029599741, -0.10783003, 0.0642637, 0.13652758, -0.035667956, 0.18007413, -0.010204554, 0.13797355, 0.18053292, -0.1924047, -0.013818567, 0.15775654, 0.21929133, 0.12973271, 0.17346208, -0.040844794, -0.059633613, -0.13587156, 0.048857633, -0.05421917, -0.11051823, -0.1355072, -0.025783733, 0.18898591, -0.12889028, 0.17612343, -0.01802297, -0.1294658, -0.11344046, -0.22015092, -0.031092837, 0.11691193, 0.18223713, 0.13716333, -0.18495524, 0.17798565, -0.19463298, 0.05614622, -0.07688446, 0.18887584, 0.08588351, -0.1810391, 0.15124972, -0.034042295, -0.02430582, 0.043919325, -0.018395305, 0.18778811, 0.07675135, -0.02343084, 0.052213814, 0.08672011, 0.050716266, -0.15817071, -0.107069805, 0.14010982, -0.06424743}, 
{-0.1299021, -0.05981284, 0.15041302, -0.17867485, 0.23232, 0.14587002, -0.045135796, -0.08133909, 0.080825016, 0.21193093, -0.10443484, -0.054821923, 0.017414086, -0.059614167, 0.101206504, 0.18381222, 0.061236516, -0.20845492, -0.074381664, 0.12369095, -0.1449358, -0.067874566, -0.0035459225, 0.18650532, -0.08454809, -0.022491422, -0.13112356, -0.13210037, -0.110486954, -0.16979052, 0.07454288, -0.13832657, 0.06892745, -0.006024294, -0.19088547, -0.085954756, -0.019302439, -0.08858933, 0.025412247, 0.14726828, -0.037379757, 0.16538438, 0.12541394, -0.086124174, 0.042320676, 0.10713126, -0.15825891, -0.18243264, -0.12140373, -0.15257466, -0.03704324, -0.19188434, 0.08339314, -0.16741611, 0.08392865, -0.2090426, -0.10135641, -0.076996125, 0.06237539, 0.045367766, 0.060507037, 0.16097514, -0.03893659, 0.058648795}, 
{-0.044299155, 0.25746173, 0.035606265, -0.09235096, 0.09392072, 0.0707119, 0.123120025, -0.07486966, -0.09617558, 0.1400627, -0.19917408, -0.029246911, 0.039104175, 0.067410246, 0.07177965, -0.024699152, -0.02424312, -0.12374847, -0.021745522, 0.03412364, 0.081679694, -0.012206703, -0.0013647128, 0.15539329, 0.107666805, -0.07262234, 0.21343933, 0.11966526, -0.13723579, -0.038925022, 0.11752367, 0.062425762, -0.014831334, 0.04393749, -0.22737597, -0.21481799, -0.14365911, 0.09834756, -0.13867597, -0.07724608, 0.22109431, 0.21793197, 0.09824966, 0.042502668, -0.17527026, 0.047066092, -0.27405667, 0.09199615, 0.0894619, -0.052787274, -0.078791216, 0.052146636, 0.108028784, 0.01144135, 0.20183922, 0.085134916, -0.151988, 0.11871005, 0.06058775, -0.09852013, -0.012641397, 0.11585811, 0.2532883, -0.16002841}, 
{0.04906614, -0.08404155, -0.096687526, -0.015710255, -0.1392183, 0.17577134, -0.18540895, -0.18768165, -0.05847168, 0.22863853, -0.065144874, 0.15086366, 0.025861228, 0.11594997, -0.12331517, -0.15601748, 0.25554815, 0.11798342, -0.096980125, -0.06862441, -0.1470684, 0.028221399, -0.18200816, 0.11939395, 0.05124272, 0.056846358, -0.073524676, 0.17567882, 0.06081243, -0.1842797, -0.120170884, -0.21403807, 0.10098292, 0.110219315, -0.048150137, -0.04197183, 0.0015902399, -0.0735863, 0.013121232, 0.13056232, 0.20287809, 0.092541754, 0.18774597, 0.033503998, -0.17085032, -0.19706024, 0.042785756, -0.16120246, -0.1360187, 0.13214056, 0.015631702, 0.08898973, -0.14416867, -0.13482799, -0.08464829, -0.09744506, 0.1090029, -0.12451415, -0.0040617753, 0.083870895, -0.121514164, -0.06286127, 0.17867163, 0.0019437373}, 
{0.05074355, 0.11761456, 0.036207452, -0.047969043, 0.16838777, 0.037553627, 0.05326812, -0.005455315, -0.07547896, 0.12708597, -0.20306854, -0.07964512, -0.0027137194, -0.004077509, 0.02337726, 0.041793913, 0.0005877265, -0.15149471, -0.0935156, -0.05712743, 0.060918175, 0.008114144, -0.054040853, -0.13275363, -0.042248648, 0.14040409, -0.09021246, 0.1710052, 0.05811219, -0.14414552, 0.1465885, -0.12290205, -0.18980843, 0.11060294, -0.038537394, -0.124008626, -0.13453089, 0.17463766, 0.06899507, -0.04837826, -0.08663732, 0.04879421, -0.035997897, -0.047518846, -0.08228731, -0.22813836, -0.18824722, 0.011140734, -0.17330405, -0.21312185, 0.020241627, -0.09960346, -0.06597789, -0.11527363, 0.024530407, 0.08354872, 0.14924766, 0.03953477, 0.048450727, 0.113976136, -0.11715439, 0.013458874, 0.25965253, 0.1633618}, 
{0.11066435, 0.21420427, 0.06841476, 0.014796963, 0.062492207, 0.054817658, -0.17300352, -0.021984681, -0.14266008, 0.22469506, 0.026865892, 0.15334876, 0.09974906, 0.06691046, -0.16323999, -0.0935115, -0.0121494755, 0.009241083, 0.2520768, -0.080224484, -0.011168738, -0.13289319, 0.028029025, 0.16784914, 0.14084731, -0.07250402, 0.0046923994, -0.06532708, -0.1069934, 0.11232348, 0.23603931, -0.086872555, 0.10634662, 0.13245519, -0.10010083, -0.010009271, -0.07288429, -0.06162107, 0.11206283, -0.0061383992, 0.22514723, 0.1722233, 0.13939373, 0.12426279, 0.13832803, -0.21003598, -0.19745454, 0.028233528, 0.10719425, -0.040363286, 0.06898165, -0.010664662, -0.05641429, 0.017865583, -0.004086724, 0.16741401, 0.085126564, -0.08375273, 0.121699065, -0.050770227, -0.009899645, 0.20020884, 0.02970843, -0.03365186}, 
{-0.12604183, 0.1901054, -0.0062360317, -0.047223985, 0.15658645, 0.14285484, -0.13906904, -0.1798309, 0.11585517, 0.20152757, -0.09944259, 0.07344858, -0.21502483, 0.15111922, -0.05144411, -0.17009386, 0.11812563, -0.16746032, 0.16142718, 0.17136653, -0.102767095, 0.18246494, -0.09643212, -0.12264734, -0.07735024, 0.14169434, -0.11957426, -0.025258126, -0.16346277, -0.13574958, 0.05320687, -0.17099653, -0.03193544, 0.14785817, -0.02110589, -0.18600692, 0.08579314, 0.09941135, 0.12046726, -0.11855655, 0.1758045, 0.23135136, -0.16929764, 0.11239939, -0.082874134, 0.059182897, -0.20422764, -0.17214254, -0.15379018, 0.05070672, -0.056466985, -0.11413068, 0.07698034, -0.0036899745, 0.003581675, -0.022395456, -0.10146458, 0.18300983, -0.18080471, 0.12154214, -0.1136284, 0.18645789, 0.21442664, 0.10007687}, 
{-0.06486057, -0.17222717, -0.09786189, -0.10909524, -0.0915478, -0.1883026, 0.17576803, 0.01774925, 0.014276162, 0.08646104, 0.16244076, 0.035268754, 0.15651433, -0.038068146, 0.0042137927, 0.04734923, -0.22499354, 0.18751502, -0.081255935, 0.030450853, 0.025824932, 0.061774597, 0.05077563, 0.26163074, 0.092015974, -0.03355014, -0.17589991, 0.09586873, -0.012748331, -0.16717942, -0.0753208, 0.00068011787, 0.14864941, -0.18896379, -0.0051611415, 0.23374934, 0.12523776, 0.05221124, -0.15713623, 0.094283864, -0.25920188, 0.044887822, -0.01314795, 0.1639343, 0.19697692, -0.03829081, 0.112314746, -0.044643924, -0.18955469, 0.23953903, 0.027907176, 0.07586224, 0.17660807, -0.11028019, -0.1595868, 0.14613962, -0.072112314, -0.24891825, 0.14597085, -0.01841394, 0.0017909352, 0.03422229, -0.1673281, -0.16302057}, 
{-0.18396476, -0.13321145, 0.19075729, -0.095734395, -0.08386719, -0.14321792, 0.07032952, -0.042632237, -0.1520938, -0.08815112, 0.18157302, -0.12165765, 0.18705617, 0.07524775, -0.063395195, -0.0013920367, 0.10141704, 0.22618559, -0.14146465, -0.12127412, -0.10572153, 0.10974558, 0.18274905, 0.26679373, -0.15146737, 0.103377625, -0.14535008, -0.18581314, 0.18803523, 0.058812365, 0.08632141, 0.035291165, 0.12729739, 0.10088226, 0.1448685, 0.20847075, 0.00026857958, -0.16254753, -0.17997336, 0.15740304, -0.19647698, -0.22383378, -0.17740673, -0.19118708, -0.07843536, 0.25224134, 0.10199569, 0.17786239, -0.009436064, -0.06962339, -0.046560507, -0.027404927, -0.021579638, 0.10040747, -0.0020154137, 0.070489235, -0.12832546, -0.1675686, -0.12406014, -0.014733776, 0.22168921, -0.21763343, 0.120882526, -0.13860738}, 
{0.16567527, 0.04201939, -0.10783988, -0.09134813, -0.059305053, 0.0933494, 0.038531136, -0.055495113, -0.08828731, 0.08383991, -0.14064254, 0.15250035, 0.018812401, -0.029781118, 0.24288388, -0.0460992, -0.15152971, 0.20425957, -0.21008867, -0.06760726, -0.04636541, 0.11545326, 0.05307346, -0.03843248, 0.03676457, 0.17735772, -0.14561589, -0.14551763, -0.18459655, 0.13308825, -0.058359608, 0.25314844, 0.036770865, 0.07694353, 0.1207796, 0.041228514, -0.23803025, -0.10402619, -0.109145954, -0.1646771, -0.019102085, -0.0044011143, 0.1805243, 0.17749918, 0.19612175, -0.017518101, 0.04517459, -0.04061599, 0.1649813, 0.25021866, -0.08581502, -0.15919127, -0.121498264, -0.18013233, -0.12797211, 0.17998342, -0.17157757, -0.044606395, 0.1123171, -0.0097635705, -0.07112243, -0.1994709, -0.025855657, -0.13242066}, 
{0.075111434, 0.04662566, 0.007818595, -0.05185312, 0.077083394, 0.07294579, -0.0009485525, -0.10178708, 0.1676787, 0.038235866, -0.07547512, 0.1596889, 0.08550307, 0.17082693, -0.016095946, -0.050019473, -0.18233761, -0.10721052, 0.116070546, 0.17117596, 0.018472087, -0.18440501, 0.009184628, 0.20686725, -0.18352014, 0.036529716, -0.0025351907, -0.14351776, -0.17841333, 0.032340497, -0.052988794, 0.17718172, -0.10538069, -0.15104762, 0.26372898, 0.08802931, -0.032522622, 0.11897071, -0.16236871, -0.1281326, 0.08180261, -0.05996182, -0.14671725, -0.0016300619, 0.24354975, 0.016601766, 0.000859684, -0.18101831, -0.10409439, 0.23802213, 0.09593098, -0.15105277, 0.07369484, -0.16671196, -0.052975208, 0.08174807, -0.04057695, 0.06349824, -0.0011192794, -0.08018582, 0.12372221, 0.0185244, 0.049632613, 0.15397109}, 
{-0.03395146, -0.037018433, 0.0027728975, 0.0318179, -0.08726675, 0.10524902, -0.086335495, -0.042053252, 0.1795388, 0.1067918, -0.13257007, 0.1570565, 0.16665073, 0.14064835, 0.14769249, -0.15644565, 0.043502383, 0.039456327, -0.10931322, -0.12805156, -0.0013764249, 0.036217526, 0.085007004, 0.15110047, 0.04021307, 0.12621924, 0.028318876, 0.038753815, -0.14366171, -0.1459073, 0.17058107, 0.069228485, -0.120796755, -0.18094544, 0.13035753, -0.13894546, -0.14483419, -0.16536921, -0.16846406, 0.16435002, -0.009704571, 0.16406776, -0.1682786, -0.13848886, -0.13435248, 0.010178816, 0.0098004155, 0.02962096, 0.10242961, -0.13263135, -0.1473914, -0.15107687, -0.17579088, 0.13283892, -0.063354746, -0.16691408, -0.06269324, -0.1677426, 0.15712215, 0.118723474, 0.15981302, 0.110393226, -0.123868056, -0.061809957}, 
{-0.12189433, 7.393301e-05, 0.10908933, 0.16105743, -0.05654235, 0.1387239, 0.04696137, -0.072942615, -0.028174832, 0.10301577, -0.0026655046, -0.15861139, -0.19177409, -0.17888254, 0.08011767, -0.13990644, -0.028796237, -0.06479279, 0.18466042, -0.031575106, 0.15864523, 0.15797587, 0.08418601, -0.15552111, 0.10198446, 0.07541658, -0.108273216, 0.18569669, -0.025840327, 0.104784384, 0.13623591, -0.05685681, 0.11907448, 0.16529794, 0.043676563, -0.13916816, -0.14951909, -0.18781403, -0.0022543818, 0.049859583, 0.2321218, 0.06694904, 0.00021734834, -0.08077791, 0.06950088, 0.055001035, 0.12857725, 0.02364631, 0.020669457, 0.05015686, 0.054521114, 0.055139843, -0.124789484, 0.10866909, -0.009437117, -0.028461229, -0.06924033, -0.042013343, 0.06401966, 0.0021561268, 0.07052579, 0.1315973, -0.07952165, -0.109189965}, 
{-0.13369024, 0.114790715, -0.11146624, 0.1936909, 0.05353672, -0.11244801, -0.16361542, -0.00806047, -0.15069598, 0.041287202, 0.0141737135, -0.1569555, 0.04851768, -0.10580006, -0.10626408, 0.03905298, -0.12150365, -0.057580914, 0.015813004, 0.10307979, 0.13998476, 0.15123634, 0.16372913, 0.026457775, -0.047187638, 0.13311389, 0.050424576, 0.0010765903, 0.06205161, 0.10144256, 0.22676213, 0.08582949, 0.0034404695, 0.1859656, -0.23498376, -0.14229938, -0.17166479, 0.1750926, -0.09327423, 0.15114267, 0.010866482, 0.14651458, 0.039812908, 0.030154012, 0.014628162, -0.16996515, -0.2265689, 0.12751229, -0.11696999, -0.015911698, 0.05273068, 0.0023604545, -0.14929332, -0.06633619, 0.085245445, -0.1720419, -0.06504065, 0.13438341, -0.051093064, -0.0517711, -0.16959475, 0.04297443, 0.2338669, 0.13681112}, 
{0.036785334, 0.11970602, 0.15621008, -0.08151809, 0.16861896, 0.16980007, -0.13834947, 0.11143647, 0.14021976, 0.11557668, -0.11406267, 0.07850896, 0.023180673, 0.072046146, -0.07130559, -0.095947206, 0.14086452, 0.12160941, -0.09283645, -0.11268182, -0.0033125402, -0.08920744, 0.08451695, 0.080488384, 0.096508875, 0.085202776, -0.05116371, -0.1111215, 0.15338714, 0.16959907, -0.12935516, -0.10986315, 0.14476512, 0.063010514, -0.06591474, -0.16127208, -0.08601972, -0.1695118, 0.18196882, 0.13942592, -0.023198748, 0.15846646, -0.039642498, -0.075339414, 0.15084134, -0.07112132, 0.015351053, 0.016814291, 0.044487756, -0.13653362, -0.108185776, -0.12889491, 0.15946285, 0.060746774, -0.012883144, -0.12748727, 0.18168674, -0.10738965, -0.16255315, 0.13771719, -0.22652736, 0.04685199, 0.08833502, -0.045975715}, 
{0.16641708, 0.14474006, -0.14414838, 0.13906465, -0.08070837, -0.14126457, 0.16776043, -0.16196787, 0.12919901, 0.039758198, -0.20452833, 0.014650896, 0.09870922, -0.17946854, -0.12357112, -0.13937539, 0.108891025, 0.10863852, 0.036966782, 0.05405928, 0.1063091, 0.013653681, 0.02623055, 0.1824105, 0.097417966, 0.19007894, 0.16784716, 0.049865175, -0.10890864, -0.1456878, 0.1535682, 0.06879744, 0.18694972, -0.03095136, 0.013385129, 0.15476988, 0.101102956, -0.11883573, -0.1886419, -0.07093457, -0.09238612, -0.018601913, -0.046143115, -0.010559162, -0.12480688, 0.117167324, -0.05366351, 0.07351817, -0.13912591, 0.088579714, 0.14398006, 0.17232859, 0.12419678, 0.08664976, 0.12788707, 0.13792616, -0.040588707, 0.17975616, -0.06404358, 0.037282415, 0.083087415, 0.19364788, 0.11200829, -0.06897442}, 
{0.12023954, 0.12681852, -0.15832044, 0.11291323, 0.16470939, 0.007520571, -0.16534674, -0.14894487, -0.10577895, 0.20248826, -0.1689931, -0.17461072, -0.12792422, -0.18053018, 0.019959278, 0.07829793, 0.009565304, -0.03176986, 0.19422728, -0.016190693, -0.14990218, -0.08259258, 0.14264978, -0.06760943, -0.15884379, -0.00027736742, 0.06621193, -0.13084891, -0.09707113, -0.08220805, 0.12113969, 0.09007448, 0.15955915, -0.15162624, 0.0038702085, -0.13522862, -0.021568723, -0.15578634, 0.11398317, -0.062876746, 0.016836973, 0.017682778, -0.058859617, 0.14199236, -0.18674167, 0.028408308, 0.021192044, 0.032485276, 0.11704321, -0.041733917, 0.05392176, 0.17193669, -0.10620962, 0.020528212, 0.0921882, -0.1671499, -0.008279964, 0.14459814, 0.0667406, 0.05080246, 0.07768365, 0.15728213, -0.0905935, 0.14814384}, 
{0.016623124, 0.090320244, 0.15657203, 0.08021147, -0.10872609, -0.010388828, -0.06424628, 0.014366284, 0.12469651, 0.07884472, 0.16264947, -0.026685804, -0.07280395, -0.11980078, 0.02062903, 0.054868624, -0.047409937, -0.13999988, -0.18689045, 0.07388135, 0.11399369, 0.013142616, -0.05055867, 0.22034086, -0.13675517, -0.009502262, -0.061356958, -0.20065312, 0.04764743, 0.057532802, -0.012966114, 0.13001586, -0.03884983, 0.017224068, 0.09974256, 0.105821505, -0.039135847, 0.1488003, 0.04928425, -0.030028597, -0.069330625, -0.095844656, 0.11166246, -0.11540567, -0.0066431044, -0.084967524, -0.08601433, -0.0329507, -0.15185846, 0.030340567, 0.24491726, -0.057589367, 0.04766029, 0.10913505, 0.08014104, 0.07789574, 0.12657411, 0.041971814, -0.044211876, 0.03894796, 0.17316915, 0.060701605, -0.08553115, 0.17629512}, 
{0.019328758, -0.026609557, 0.14922263, -0.20847699, 0.044704318, -0.10456473, -0.16110654, 0.09133132, -0.15458491, -0.15204816, -0.019536983, 0.03924142, 0.119139984, 0.044478834, 0.22314763, -0.033701196, -0.16489387, 0.16881607, 0.07850056, 0.23606312, 0.08724628, 0.039607152, 0.17837511, -0.09745385, -0.00991507, 0.06772262, -0.07970608, 0.104132086, -0.050328925, 0.07362743, 0.15010226, 0.15797208, -0.15056774, -0.19669501, -0.016197143, -0.011778022, -0.16805038, 0.1407877, -0.14501804, -0.086007066, -0.024535062, 0.07730993, -0.12315804, 0.049020056, 0.08937215, 0.07601005, 0.030422624, 0.09684895, -0.19930543, -0.07953485, -0.028276559, -0.15687314, -0.067421086, 0.13103469, 0.027754987, -0.082492456, -0.08644052, -0.11270838, 0.051304925, 0.107190326, 0.18096237, -0.2102069, 0.041725192, -0.16247086}, 
{0.014898658, 0.013364547, -0.122295864, 0.123520106, 0.09926505, 0.09029079, -0.13171303, 0.020807251, 0.16987069, -0.13585159, -0.15162037, 0.06874256, 0.024911487, 0.037597284, -0.032631643, -0.15242702, -0.15650868, 0.037052806, -0.2277095, 0.1716279, -0.15657255, 0.050563738, 0.20918448, 0.12674662, -0.11771635, 0.26374125, -0.21081509, 0.060958147, 0.1572056, -0.008386269, 0.07352264, 0.14114971, -0.18907163, -0.10517687, 0.25504056, -0.010753844, 0.11265488, -0.12806028, -0.07435466, 0.15134637, -0.058763646, -0.049707517, 0.04129237, -0.07274389, -0.048028007, 0.078493826, 0.2066588, -0.12936638, 0.064067796, 0.04812992, 0.22829235, 0.15025054, 0.10961057, -0.0065291226, -0.027107289, 0.14370733, -0.06640254, 0.07229982, -0.06027628, -0.1185303, 0.09350212, 0.010353975, 0.0145648895, 0.010448337}, 
{-0.11047414, -0.22642557, 0.13349904, -0.22676243, 0.05624373, -0.13363148, 0.16391042, -0.18120223, -0.008552939, -0.19585104, -0.1685322, -0.17958966, -0.035998378, -0.1676915, 0.23701589, 0.14180662, -0.19395332, 0.13834213, 0.09844894, 0.012634763, -0.13253392, -0.14161244, 0.16549541, -0.11060694, -0.014490317, 0.2366523, -0.18773444, -0.22491689, -0.18405424, 0.12073086, 0.13322489, -0.012904057, -0.17838018, 0.074667476, 0.11001889, 0.08114724, -0.21647723, -0.010230228, 0.1289018, 0.1751449, -0.13657744, -0.23006196, -0.12497026, -0.027441235, 0.20040484, 0.17943707, 0.08016363, 0.042767897, -0.052759714, 0.1504811, 0.23060302, -0.18108201, 0.08842982, 0.008765399, 0.124308735, -0.1312125, 0.08886118, -0.16720876, 0.007106425, -0.17708951, 0.18206714, 0.06040908, 0.059693005, -0.086853}, 
{0.041446045, 0.11757875, -0.13233848, -0.1559727, 0.030920116, -0.045546014, -0.1694288, 0.041143835, -0.08484419, -0.05959894, -0.17075856, 0.15077783, 0.11305487, -0.076754294, -0.118803725, 0.07871829, -0.15314005, 0.1288214, 0.15063752, 0.17381944, -0.014601899, -0.07842474, -0.08088906, 0.041317377, -0.20434475, 0.19692296, 0.13796756, -0.1086602, 0.118728146, 0.17526881, 0.22464935, -0.021588726, -0.16051911, -0.20876649, 0.14647864, -0.12781648, -0.13784176, -0.066475965, -0.13932747, -0.10347426, 0.119650595, -0.008902543, -0.12867752, 0.13684556, -0.0855948, 0.056014642, 0.20535387, -0.137511, -0.16411957, 0.024547739, 0.16718277, -0.18530619, 0.015142679, 0.010980576, -0.07324246, 0.07980594, 0.10083057, 0.14733519, 0.20245849, 0.038018234, 0.00574558, -0.017646924, 0.17448045, 0.11250605}, 
{-0.17428538, 0.1258052, -0.022325382, -0.066979595, -0.015355532, -0.036153346, 0.001725674, 0.076677874, 0.006424606, 0.0408969, 0.15482983, 0.0131163, 0.0572789, -0.03802468, -0.037211612, 0.13177164, 0.09376162, 0.07658676, -0.010081349, 0.17478608, -0.051891103, -0.15860505, 0.019091953, 0.20731367, -0.104464695, 0.11906056, 0.022065211, -0.015321029, -0.05902922, 0.07277264, -0.14318246, -0.15089427, -0.038870066, -0.1598328, 0.11660662, -0.17587852, -0.1479284, -0.13604692, -0.11519957, -0.12336411, 0.085705094, 0.09207964, 0.1545193, 0.14555986, 0.13415562, 0.00013390655, -0.099277854, -0.10204269, 0.10576581, 0.14088786, -0.088223994, -0.15445364, 0.05721928, 0.020822123, 0.1133662, -0.045796327, 0.12220557, 0.027433814, 0.032974713, -0.04652939, -0.17979214, -0.11210651, 0.11268743, 0.051779747}, 
{-0.09227899, 0.026478749, 0.047734708, 0.11784998, -0.103898995, 0.07593711, -0.060221866, 0.0382106, 0.16455515, -0.023707632, -0.07771059, 0.18851088, 0.04575413, 0.080689386, 0.036757763, -0.056078702, -0.0395391, 0.07475297, -0.11500547, 0.06938377, -0.04443388, -0.020072177, -0.15788907, -0.10302538, -0.11884612, 0.08068855, -0.080642015, -0.08240921, -0.14345896, -0.14642312, 0.18304875, -0.059998505, -0.15801874, 0.1561072, 0.00011609513, 0.036406536, -0.13214634, -0.02869749, -0.051248655, -0.09223398, -0.104931936, 0.0022667241, 0.14806487, -0.12289369, -0.15093596, 0.11049147, -0.12219762, -0.04919766, 0.14412677, -0.0019167861, -0.06524248, -0.1577546, -0.009836674, -0.18755655, 0.049029615, -0.08338084, -0.13498057, -0.060850147, -0.15288217, 0.1628968, 0.037602253, 0.02918186, 0.10830226, -0.060814753}, 
{-0.09231328, -0.013659805, 0.07664211, 0.12118244, -0.14825423, -0.056203946, -0.15730548, -0.110920504, 0.14908962, 5.677704e-05, -0.06978655, 0.17614429, 0.10346994, -0.0032877922, -0.15353507, 0.11043145, 0.14805241, 0.07809025, -0.10033219, 0.1890697, 0.16338857, 0.14824109, -0.12931788, -0.05329515, -0.15421526, 0.13599968, -0.07358516, -0.069808654, 0.1780925, -0.031235203, 0.047224637, -0.09359305, -0.17133641, 0.06535811, 0.047701366, -0.1637464, -0.08227655, -0.07379808, -0.19123659, -0.17066017, -0.08766129, 0.11841163, -0.100063786, -0.11475337, 0.031796325, 0.1076803, -0.13331443, -0.013141334, 0.107062645, 0.022237796, 0.14899318, -0.17466372, -0.15145007, 0.16054, 0.050707787, 0.14712007, 0.06506066, 0.08000286, 0.11075278, -0.15913424, 0.13358499, 0.05776068, 0.19102536, -0.17177808}, 
{0.002183199, 0.12715812, 0.1688767, -0.0040482995, 0.09407124, 0.19525096, 0.07544398, -0.006488219, 0.005745247, -0.14124542, 0.02149679, 0.14042695, -0.012306306, 0.056364357, -0.13262978, 0.16789092, 0.14648384, -0.16848844, -0.12362139, -0.001448439, 0.09735485, -0.0014043897, -0.05249421, -0.03278047, -0.03583879, 0.04001275, 0.17958224, -0.058548823, 0.09338318, 0.10749568, 0.006896701, 0.06892828, 0.15054472, 0.03020259, -0.023054104, 0.09556883, -0.11887491, 0.16426535, -0.15078026, 0.03065455, 0.20463581, 0.14351007, -0.08905795, 0.07979499, 0.007815847, -0.09714055, -0.13008928, -0.06286991, -0.18227908, 0.10376865, -0.18600972, -0.18419972, -0.10726565, 0.020025343, -0.18353297, -0.026206387, -0.031147286, 0.1118872, 0.0466672, -0.07428144, 0.046774723, -0.09998563, -0.10938123, 0.089144364}, 
{-0.07937031, -0.1248502, 0.1466269, 0.18243498, -0.07602097, 0.2047763, 0.0009960574, -0.1466873, -0.05545813, -0.0840417, 0.026107375, 0.12745593, -0.040120345, -0.016615376, 0.106715575, -0.0552406, 0.045014508, -0.027968101, -0.05445192, -0.03288047, 0.1037554, -0.042938918, 0.102692135, -0.11074773, 0.16313927, -0.11017516, -0.13357124, 0.03360736, -0.15060085, 0.13918473, -0.006113401, -0.0045982418, -0.03677626, 0.12447889, 0.06571632, -0.124919996, 0.0032309527, 0.16460763, -0.09002998, -0.14706665, 0.03727177, -0.01444965, 0.045264572, 0.023324087, 0.10205906, 0.052557852, -0.029400278, 0.10344435, 0.053843156, 0.018975796, 0.006893804, 0.040965553, 0.13606767, 0.025067076, 0.048578124, 0.07079401, -0.114131, 0.07130954, -0.16525538, 0.14217463, -0.002833075, -0.07860104, -0.1100831, -0.12133369}}